139 100
95465386 -0.0211208 0.127652 -0.0164173 -0.368156 0.181513 0.263136 -0.183657 0.051953 -0.0617276 -0.174729 -0.448651 0.131529 -0.115583 -0.0512739 0.125509 0.0101397 0.223743 -0.037626 0.0868784 -0.130854 -0.091923 -0.26149 0.150888 -0.294568 -0.0251223 -0.0866554 0.216914 -0.227198 0.384043 0.175282 -0.00404495 -0.106857 -0.158768 -0.0204798 0.0920903 0.0986517 -0.153027 -0.183628 -0.0391489 0.0268007 0.0904554 0.0281002 0.134608 0.12759 0.154625 -0.449066 -0.0861862 -0.254738 -0.237346 -0.0945589 0.0803695 0.161076 -0.108375 0.20312 0.0592881 -0.172843 -0.201911 0.0699389 0.327387 0.105517 -0.0739403 -0.123351 -0.215059 -0.134133 -0.0342715 -0.254692 -0.280268 0.0886308 -0.0857417 -0.105809 0.072817 0.214186 0.235866 -0.0695444 0.222074 -0.000692961 0.0132303 0.233098 -0.446239 0.00932227 0.178658 0.0564801 -0.25737 0.128632 0.206981 -0.173741 -0.11284 -0.0936329 -0.219294 -0.00789312 0.0321505 0.192682 -0.217223 0.215622 0.231242 0.0278069 -0.287064 -0.0284781 -0.172138 -0.38321
24522142 -0.206465 0.136991 0.195022 -0.578911 0.326549 0.284495 0.0465121 -0.0901159 -0.139448 -0.124164 -0.442675 0.150301 -0.206417 -0.110631 0.228565 -0.0201309 0.113361 -0.079906 0.282601 0.0677833 -0.20561 -0.145706 0.155181 -0.269051 0.0445752 -0.087656 0.247952 -0.233937 0.41612 0.299339 -0.0513787 -0.285118 -0.148404 -0.018417 0.0876145 0.130842 -0.174946 -0.196662 -0.0641845 -0.0794973 0.126002 0.082038 0.244051 -0.0405196 0.160983 -0.397029 0.00826681 -0.311359 -0.216033 -0.0557643 -0.00348547 -0.0176563 -0.104348 0.199698 -0.0259987 -0.244188 -0.241478 -0.0691885 0.431061 0.205589 0.0368616 -0.0587287 -0.331661 -0.145094 -0.0382916 -0.242262 -0.244088 0.121853 -0.113168 -0.00471972 0.134282 0.0860851 0.0151957 -0.197586 0.245655 0.0800009 -0.0179874 0.25987 -0.581995 0.0332433 0.174834 0.0300406 -0.394384 0.239788 0.227664 -0.329593 -0.372023 -0.000219721 -0.137521 -0.0742912 0.0614082 0.137016 -0.0605217 0.230055 0.104282 -0.0751596 -0.149716 -0.121746 -0.102275 -0.544702
22915736 -0.142998 0.0851185 0.131312 -0.342145 -0.00445133 0.167892 -0.111945 0.00539138 0.0468533 -0.127442 -0.529755 0.119335 -0.169156 -0.0902801 0.132318 -0.0569636 0.0943063 -0.357531 0.126602 0.136996 0.000861856 -0.287221 0.186729 -0.226528 -0.0180777 -0.0270736 0.392777 -0.0646503 0.170279 0.197678 -0.200895 -0.0409897 -0.193602 0.0813829 -0.134685 0.0738885 -0.0619525 -0.288871 0.0926977 0.0383925 0.191399 0.192257 -0.000170665 -0.127602 0.141396 -0.295605 0.0340625 -0.252262 -0.0646255 -0.187286 -0.0580594 -0.0147819 -0.0807619 0.138973 -0.0539911 -0.119841 -0.417449 0.0373326 0.212355 -0.0456773 0.0563001 -0.161964 -0.299796 -0.103853 -0.12564 -0.083324 -0.237876 -0.124241 -0.0213279 -0.0840233 -0.0394257 0.38417 0.282415 0.0250642 0.310648 -0.0736561 0.0523511 0.131501 -0.521512 -0.0259355 0.170713 0.113359 -0.28544 0.248981 0.158573 -0.126334 -0.328151 -0.0471402 -0.163501 -0.0672184 -0.0620906 0.0801242 -0.218164 0.294742 0.170414 0.0254859 -0.235234 0.0133086 -0.254721 -0.270097
19982092 0.0848011 0.123116 0.110103 -0.299187 0.0276413 0.107616 -0.196763 0.0129305 -0.0221517 -0.110828 -0.484865 0.0639632 -0.214083 -0.170244 0.0725416 -0.0849163 0.253423 -0.281589 0.108432 0.010835 -0.103198 -0.204727 0.272359 -0.214615 -0.0395213 -0.00483984 0.247301 -0.151681 0.208446 0.115867 -0.0437816 0.011356 -0.0936957 -0.08385 -0.0472813 0.197248 -0.0803565 -0.270975 0.0342883 0.175857 0.165794 0.109492 0.00886374 0.0465567 0.060103 -0.407753 -0.135465 -0.232921 -0.0867062 -0.216299 -0.0560305 0.10328 0.0155268 0.170932 0.039597 -0.0962992 -0.375316 0.143398 0.274754 0.161121 0.05573 -0.129135 -0.199738 -0.00958269 -0.0909597 -0.143995 -0.343028 -0.065906 -0.0220446 -0.123926 0.0387262 0.21599 0.165057 -0.00628175 0.203699 0.0304185 -0.00727144 0.188136 -0.460116 -0.0313797 0.282581 0.0862433 -0.220139 0.127758 0.155801 -0.122829 -0.174963 -0.081894 -0.21628 0.00394674 0.095637 0.126319 -0.259291 0.17622 0.192289 0.0464029 -0.218378 -0.0207215 -0.188124 -0.244578
113126125 0.145913 0.0422212 0.0438337 -0.281915 -0.0585317 0.03901 -0.208334 0.0978751 0.00982277 -0.175799 -0.519799 -0.0543239 -0.165801 -0.0575487 0.0448675 0.000937993 0.295429 -0.247778 0.0871957 -0.0109141 -0.0519354 -0.194837 0.205439 -0.248427 -0.0840787 -0.0100936 0.2742 -0.168355 0.223339 0.0701801 -0.0520175 -0.00383232 -0.0531975 -0.0503751 -0.0860984 0.249145 0.022961 -0.216728 0.0283232 0.265716 0.142194 0.105756 -0.0220329 0.0775817 0.090702 -0.468599 -0.0880192 -0.237222 -0.0598318 -0.12146 -0.107797 0.228417 0.045836 0.189945 0.0347929 -0.10667 -0.370822 0.150055 0.243604 0.211922 0.00549268 -0.155063 -0.161332 0.0376486 -0.041113 -0.0319289 -0.281847 -0.144105 0.0561303 -0.144273 -0.0168488 0.1796 0.194792 0.00206802 0.152426 0.0156776 -0.125649 0.161682 -0.440418 -0.128616 0.223675 0.0646411 -0.202737 0.151965 0.156412 -0.101999 -0.0957093 -0.136477 -0.230744 0.0358701 0.0766052 0.136927 -0.28021 0.210369 0.282489 0.0860051 -0.236352 -0.0652736 -0.359328 -0.265645
124580107 0.135635 -0.0352626 -0.0315393 -0.278362 -0.142485 0.0557014 -0.234214 0.0489459 -0.0187021 -0.195089 -0.618331 -0.0219801 -0.0985415 -0.026326 0.156059 0.0835515 0.348531 -0.025672 -0.00670879 -0.0809677 -0.101998 -0.0242795 0.311817 -0.278283 -0.179546 0.121721 0.230441 -0.316444 0.297873 0.0150522 0.05023 -0.0668956 0.0855882 -0.062395 -0.236441 0.0861112 0.0686636 -0.43697 -0.0705571 0.354684 0.15611 0.1596 0.0296002 0.0452752 0.201447 -0.418842 0.00945073 -0.347987 -0.0475338 0.0782063 0.00149842 0.0383652 0.208506 0.214078 0.134662 -0.268733 -0.248682 0.136294 0.167822 0.225097 -0.0652543 -0.131128 -0.254248 -0.0334871 -0.0654326 0.0219721 -0.26174 -0.206398 0.0522449 -0.233791 -0.0366527 0.284919 0.251221 0.117155 0.219161 0.102938 0.00589911 0.184421 -0.5871 0.0170714 0.252803 -0.243141 -0.15549 0.139877 0.223016 -0.0328045 -0.242006 -0.210458 0.00965174 0.152287 0.13664 0.226637 -0.265383 0.0371027 0.223692 0.0428759 -0.302168 -0.154444 -0.308849 -0.362525
36637476 0.151919 0.0295749 0.0646962 -0.330574 -0.14035 0.0635868 -0.214871 0.14297 -0.0550381 -0.266801 -0.537795 0.0182498 -0.106835 -0.110765 0.0977023 0.0514068 0.226893 -0.243644 0.0255571 -0.0692383 -0.0935148 -0.0777454 0.318184 -0.315255 -0.156274 -0.056245 0.183539 -0.275061 0.298565 0.180404 -0.0389665 -0.0688489 0.0668475 -0.0683652 -0.0811072 0.09874 0.0271854 -0.437448 -0.0442099 0.294778 0.156576 0.0294919 -0.0105493 -0.00272116 0.138446 -0.390005 -0.0808246 -0.186511 -0.0825364 -0.127274 -0.128423 0.101578 0.230792 0.248384 0.0666046 -0.284958 -0.330824 0.287424 0.148571 0.172181 -0.0593224 -0.0317534 -0.214308 -0.0742743 -0.181908 -0.125807 -0.261121 -0.13902 0.152639 -0.242783 -0.0711924 0.175886 0.347564 0.187951 0.107407 0.0303962 0.121294 0.21662 -0.323344 0.0100549 0.233157 -0.0657673 -0.165896 0.024076 0.133435 -0.0740623 -0.225193 -0.105555 -0.193634 0.129828 0.0342023 0.0784275 -0.305873 0.162864 0.137576 0.157585 -0.347976 -0.0246605 -0.259865 -0.235109
49081543 0.160001 0.0976465 0.189942 -0.403726 0.187209 0.344762 -0.3724 0.0618363 -0.232402 -0.0227015 -0.762554 0.0139153 -0.296741 -0.0330498 0.10969 -0.229478 0.254022 -0.273277 0.161064 -0.0652406 -0.349773 0.0591669 0.216803 -0.304907 0.296036 -0.255598 0.0792901 -0.350681 0.327277 0.463581 -0.178962 -0.185392 0.138803 -0.0927363 0.153316 0.0554815 -0.0405543 -0.243389 -0.0974699 0.185547 0.0879855 -0.0710241 0.181259 -0.0214796 0.0105836 -0.397707 -0.177124 -0.286604 0.0306521 -0.0686439 0.0167516 0.0339662 0.135852 0.307507 -0.0572111 -0.284943 -0.053114 0.0741314 0.408467 0.184506 0.079253 -0.03344 -0.198615 0.0686688 -0.095159 -0.399548 -0.155253 -0.128477 0.0499907 0.0880828 0.0237455 0.0914733 0.230313 0.00870858 0.0317058 0.0693284 0.0580832 0.359377 -0.295726 0.0805009 0.240126 -0.15019 -0.424563 -0.0936469 0.135508 -0.46637 -0.186874 0.0107817 -0.149541 -0.0162468 0.186864 -0.0139438 -0.266825 0.301335 -0.0656139 0.0366279 -0.254772 0.081818 0.0156419 -0.306382
105119490 -0.127968 0.250369 0.234008 -0.59018 0.195662 0.272268 0.0670158 0.0160867 -0.151092 -0.169932 -0.425371 0.10605 -0.0745791 -0.141087 0.21872 0.0253962 0.114826 -0.149309 0.190302 0.0499661 -0.11373 -0.159331 0.163311 -0.364069 -0.121197 -0.163156 0.0782131 -0.309183 0.390197 0.230991 -0.193613 -0.149143 -0.13326 0.0115676 0.12147 0.120573 -0.178024 -0.247922 0.0343272 0.0188543 0.180153 0.0570026 0.166977 -0.0479736 0.219934 -0.361322 -0.0102721 -0.19562 -0.20631 -0.0793484 -0.115425 -0.0109689 0.0620919 0.183939 -0.00182537 -0.225946 -0.359138 0.139672 0.339339 0.221601 0.015387 -0.0138597 -0.263474 -0.193744 -0.124412 -0.241512 -0.180782 0.19223 -0.0278692 -0.138311 0.109318 0.0843636 0.156869 -0.0902731 0.179987 0.00941376 0.152601 0.294973 -0.390072 0.0409509 0.235136 0.0978865 -0.296577 0.259697 0.178717 -0.229097 -0.346002 -0.00766656 -0.177292 0.0637092 0.0164915 0.0670743 -0.122612 0.214847 0.0716441 -0.0755386 -0.267235 -0.129881 -0.180683 -0.440871
19586880 0.0796321 0.165903 0.155031 -0.382536 -0.0665269 0.0558876 -0.155982 0.0191929 0.0460151 -0.152892 -0.471387 0.0860305 -0.107167 -0.283338 0.0202929 -0.00711913 0.189454 -0.224158 -0.0058651 0.0302347 0.0309294 -0.370304 0.305666 -0.29743 -0.0608865 0.112667 0.255446 -0.0186654 0.273033 0.0821635 -0.069092 -0.0470314 -0.0678249 -0.117993 -0.0332794 0.0492702 -0.00634675 -0.364109 -0.00386522 0.0627754 0.257339 0.230189 -0.0262792 -0.0787808 0.079413 -0.365787 -0.0111724 -0.252655 -0.0716528 -0.113003 -0.109889 -0.0564673 -0.044516 0.186194 -0.0834038 -0.204639 -0.362937 0.131327 0.169883 -0.0135613 0.0336899 -0.146904 -0.220002 -0.112292 -0.116526 -0.0736701 -0.171113 -0.0746196 0.0760503 -0.233309 0.010118 0.347665 0.30181 0.104033 0.186888 0.0407153 0.0563271 0.205975 -0.459004 -0.0155309 0.136293 0.0432984 -0.15542 0.132225 0.0809359 -0.0741738 -0.202161 -0.0555857 -0.124434 -0.0644845 0.0314769 0.114499 -0.192904 0.185633 0.20113 0.0832416 -0.241349 -0.00798379 -0.286884 -0.237569
20079982 -0.0247438 0.107932 0.160687 -0.235526 0.0969829 0.0889322 -0.176657 -0.0526905 -0.0161936 -0.0783505 -0.527709 0.0385836 -0.212113 -0.2097 -0.00239062 -0.155896 0.227578 -0.233556 0.00431327 -0.0505958 -0.0663306 -0.297053 0.226992 -0.0946433 -0.01553 0.0273046 0.377826 -0.131816 0.169012 0.182005 -0.0201451 -0.0178269 -0.00870235 -0.0319553 -0.0361097 0.132187 -0.104671 -0.24028 -0.0575565 0.143476 0.211786 0.120597 0.0700005 -0.0213262 -0.0154976 -0.428622 -0.0392722 -0.315452 0.0349009 -0.105031 -0.0137604 0.07925 0.0387595 0.196758 0.0322152 -0.07141 -0.384952 0.0443365 0.325863 0.0800311 -0.013405 -0.102255 -0.291137 -0.0165018 -0.132233 -0.137202 -0.246958 -0.155476 -0.0312758 -0.0725629 -0.0105882 0.227408 0.240506 -0.0383012 0.114852 -0.00294491 0.0300753 0.166119 -0.578659 -0.00219983 0.219818 0.0313795 -0.12685 0.0788515 0.164732 -0.210891 -0.243946 -0.0705646 -0.188023 -0.0639853 0.118372 0.115861 -0.195918 0.163846 0.135124 0.138074 -0.216392 0.0406576 -0.178637 -0.241778
248163660 -0.0366281 0.0945966 0.0142494 -0.395413 0.0223927 0.124016 -0.11411 -0.00669561 -0.0260784 -0.265626 -0.474149 0.0786742 -0.0852082 -0.148591 0.143103 0.114763 0.213144 -0.138351 0.109832 0.0497334 -0.100627 -0.201644 0.267191 -0.233332 -0.224293 0.058762 0.192063 -0.244027 0.264816 0.122337 0.0379349 -0.171307 -0.0453125 -0.0798729 -0.100839 0.175833 -0.0297111 -0.379008 -0.0393479 0.175217 0.149633 0.0813316 0.00643917 0.0516947 0.185347 -0.378497 0.0123989 -0.336936 -0.15961 -0.169776 0.025292 0.0590919 0.0603677 0.103049 0.138932 -0.190781 -0.476272 0.215795 0.195992 0.273069 -0.127493 -0.0953851 -0.291422 -0.145213 -0.100383 -0.0455286 -0.305895 -0.0391062 0.0621192 -0.384348 0.151685 0.198724 0.0831757 -0.0309344 0.28441 0.107957 0.0995722 0.0793008 -0.522296 -0.0820542 0.21252 0.0646711 -0.161798 0.133068 0.207654 0.0506652 -0.30805 -0.0991025 -0.22049 0.107918 0.0478715 0.246125 -0.0759297 0.0931209 0.304629 0.106957 -0.273462 -0.0609529 -0.26805 -0.284554
111366085 0.0587425 0.146228 0.0505162 -0.295491 0.0296863 0.0714856 -0.128335 0.116926 -0.00507851 -0.154054 -0.476368 0.00178867 -0.138605 -0.151514 0.054118 -0.0183176 0.287865 -0.305 0.123993 -0.0240946 -0.0557102 -0.141673 0.149952 -0.25752 -0.0846869 0.021752 0.239708 -0.231073 0.216773 0.123665 -0.0603111 -0.0114036 -0.0654136 -0.0104784 -0.0136828 0.25142 -0.0614499 -0.272732 -0.0112748 0.198314 0.100128 0.185874 0.0633245 0.00476313 0.092819 -0.398626 -0.0822206 -0.228697 -0.0690039 -0.170269 -0.128013 0.141999 0.0572503 0.213336 0.0235901 -0.130412 -0.332586 0.100536 0.215137 0.165017 0.0394999 -0.203316 -0.214323 0.0326679 -0.026673 -0.109923 -0.224566 -0.0937202 -0.0398348 -0.161088 -0.0383367 0.267429 0.243781 -0.036921 0.114311 -0.0187808 -0.0316586 0.179492 -0.36322 -0.0577605 0.261389 0.121702 -0.179645 0.142968 0.133007 -0.140593 -0.196382 -0.0721319 -0.0692354 0.0251873 0.077727 0.167933 -0.329781 0.126042 0.223431 0.0849447 -0.214973 -0.123165 -0.302933 -0.336648
19702854 0.0862158 0.0568196 0.00989762 -0.269035 0.0202917 0.0751165 -0.19228 0.0246253 0.00457405 -0.211352 -0.494084 -0.0371895 -0.183181 -0.0651169 0.0695025 -0.0211108 0.327638 -0.185159 0.0696621 -0.0186368 -0.0313517 -0.25316 0.29338 -0.214375 -0.0218892 -0.0297549 0.287548 -0.197167 0.230042 0.0534999 -0.0718829 -0.0632275 -0.106324 -0.0418168 -0.0729976 0.236235 0.00881151 -0.248434 -0.015361 0.241546 0.176061 0.0992353 0.0256044 0.0841555 0.127837 -0.430972 -0.0909729 -0.221813 -0.0839765 -0.106603 -0.0600849 0.224666 -0.0352556 0.162306 0.0925735 -0.101911 -0.311064 0.198751 0.242634 0.128997 0.0472374 -0.135627 -0.150389 0.016446 -0.143277 -0.0388389 -0.342474 -0.139477 0.00172292 -0.101775 -0.0403668 0.197777 0.225741 -0.00560767 0.250967 0.0143376 -0.148312 0.152146 -0.488545 -0.0690787 0.226123 0.0259404 -0.235272 0.131753 0.195272 -0.0958769 -0.10273 -0.214693 -0.232078 0.0456733 0.027266 0.164482 -0.35456 0.156627 0.236335 0.0221139 -0.206678 -0.0280622 -0.284321 -0.248423
28221581 0.0502645 0.0693787 0.17134 -0.323007 0.000552541 0.170168 -0.0651455 -0.0198508 0.0581269 -0.115904 -0.572847 0.0168073 -0.193946 -0.106273 0.12073 0.0371675 0.195305 -0.175795 0.141234 0.0932517 -0.116888 -0.191757 0.278753 -0.128267 -0.184629 0.110284 0.316682 -0.135058 0.194861 0.0605544 0.0552641 -0.0682629 -0.105704 0.087829 -0.0450906 0.126377 0.0446107 -0.334944 -0.0747647 0.227656 0.250668 0.0669742 0.0569469 -0.0142367 0.162674 -0.299738 -0.0377398 -0.240764 -0.0458699 -0.16792 -0.0222525 0.0249415 0.1139 0.130418 0.0320147 0.00369906 -0.467669 0.240337 0.327384 0.148839 -0.0693667 -0.15188 -0.174305 -0.135821 -0.162758 -0.0340846 -0.387763 -0.0689096 -0.0118344 -0.254787 0.0495749 0.132846 0.199701 0.031106 0.168495 0.136238 0.0228546 0.153596 -0.493638 0.020356 0.20816 0.114255 -0.317087 0.234918 0.158115 0.142389 -0.235361 -0.119985 -0.355055 0.0998158 0.0821851 0.251428 -0.153869 0.0958198 0.108454 0.0613166 -0.156976 -0.139148 -0.205745 -0.204534
158314798 -0.10336 0.280044 0.265611 -0.547834 0.337624 0.329319 -0.0607394 -0.047634 -0.160605 -0.11567 -0.543376 0.118689 -0.19766 -0.0883393 0.220168 -0.0934942 0.130886 -0.111638 0.263435 0.078705 -0.211865 -0.195177 0.13186 -0.283489 0.119315 -0.162755 0.109865 -0.26928 0.213688 0.306739 -0.11817 -0.228027 -0.025127 0.100656 0.151036 0.212737 -0.111164 -0.13539 -0.0385743 0.0913494 0.205092 0.0165537 0.1788 0.0433279 0.152338 -0.395115 -0.0795245 -0.288057 -0.0774884 -0.0986528 -0.0175795 -0.0253005 -0.010632 0.170828 -0.0474689 -0.122373 -0.281277 0.0557083 0.458244 0.220921 0.0578234 -0.0767894 -0.227159 -0.058595 -0.0568346 -0.210715 -0.227836 0.0918832 -0.0067877 0.0128527 0.127219 0.12445 0.0990619 -0.259451 0.135716 0.0531369 0.108458 0.238816 -0.462197 0.0713384 0.252059 0.0176492 -0.495646 0.236815 0.170407 -0.275828 -0.323019 -0.0429263 -0.312567 -0.0343049 0.0863124 0.163551 -0.111581 0.265451 -0.00329513 -0.113425 -0.181667 -0.168726 -0.159661 -0.408842
181561712 -0.0388431 0.0544229 0.277357 -0.360869 0.0975743 0.3148 -0.0675987 -0.0157105 -0.058398 -0.110403 -0.520825 0.0871717 -0.194687 -0.0653189 0.0472471 -0.104695 0.0264156 -0.229667 0.16621 0.0339306 -0.0709757 -0.238735 0.252988 -0.147003 -0.000830517 -0.112046 0.293363 -0.0722735 0.462055 0.237307 -0.144777 -0.0992586 -0.1374 0.0576415 0.0858285 0.065583 -0.171809 -0.24684 0.0197713 0.0718683 0.286391 0.000201215 0.136207 -0.0400825 -0.000199245 -0.403362 -0.112026 -0.145485 -0.186796 -0.143632 0.0742743 0.0862804 -0.0464519 0.119844 -0.0593901 -0.150572 -0.297972 0.170886 0.50392 0.060596 -0.0225225 -0.0702829 -0.286638 -0.177915 -0.21435 -0.220126 -0.292517 0.0765559 -0.011261 -0.0147944 0.0595565 0.030598 0.0915904 0.0903692 0.210522 0.010012 -0.0243974 0.341531 -0.499934 0.00344869 0.110731 0.132893 -0.317721 0.187263 0.15089 -0.190859 -0.261186 -0.0384241 -0.313332 -0.101735 0.0158564 0.0766185 -0.0942815 0.210973 0.184171 0.0245028 -0.164834 0.0296521 -0.0504369 -0.354628
16489762 -0.125503 0.0699466 0.183554 -0.406191 0.213946 0.232002 0.0265017 -0.0076845 -0.0249117 -0.070298 -0.381091 0.097183 -0.235189 -0.196248 0.10944 -0.0356787 0.0901088 -0.152904 0.174238 0.0107177 -0.121316 -0.255239 0.209171 -0.209069 0.0173768 0.0678824 0.323683 -0.132407 0.141548 0.195291 -0.0213502 -0.0704099 -0.048256 -0.0276033 0.023339 0.146233 -0.166756 -0.219033 -0.0286042 0.0579796 0.173413 0.0998166 0.112513 -0.00796483 0.0848113 -0.441781 -0.0117858 -0.213382 -0.0310541 -0.126674 -0.052367 0.0391639 -0.00820844 0.100634 0.0287121 -0.0437292 -0.305607 0.042896 0.252483 0.126772 0.0152601 -0.123443 -0.340122 -0.0608522 -0.0961805 -0.16438 -0.310028 -0.0808078 -0.0894084 -0.121743 -0.00527347 0.167576 0.197639 -0.0856741 0.190109 0.0579713 0.0821876 0.250943 -0.459983 0.0649205 0.274633 0.094684 -0.221096 0.179277 0.132817 -0.202489 -0.337702 -0.138017 -0.294459 -0.0244345 0.0663581 0.0617764 -0.214652 0.16719 0.00959226 -0.0153219 -0.160114 -0.0196723 -0.140232 -0.318173
308685891 0.0233153 0.0970484 0.0866698 -0.433727 0.00535085 0.0884434 -0.104372 -0.0304327 -0.0348815 -0.21312 -0.316638 0.121273 -0.188067 -0.0284026 0.127043 0.106065 0.133478 -0.135459 0.0867375 -0.0272483 -0.105932 -0.279768 0.236116 -0.286722 -0.0855653 0.198994 0.31388 -0.161073 0.0831212 0.0413033 -0.00111718 -0.0802177 -0.0734622 -0.0169386 -0.128059 0.196797 -0.164486 -0.353384 0.0131028 0.0109768 0.186022 0.10892 0.0572795 0.12917 0.124611 -0.388256 -0.0860697 -0.093963 -0.0472798 -0.080835 -0.00970338 0.0308794 -0.1541 0.1253 -0.0264142 -0.214483 -0.24265 0.060819 0.147956 0.129463 0.0197365 -0.146249 -0.201535 -0.00911591 0.000597975 -0.0149301 -0.351921 -0.174893 0.059535 -0.239006 -0.0258235 0.245747 0.186095 -0.0142266 0.266801 0.0755016 -0.00895271 0.234449 -0.501031 -0.00386193 0.260988 -0.0808914 -0.139826 0.255038 0.158175 -0.134221 -0.260468 -0.119658 -0.152324 -0.0624965 0.0180654 0.191569 -0.252922 0.119462 0.216873 -0.0499756 -0.168137 -0.173909 -0.199003 -0.344005
20050224 -0.0459217 0.108341 0.125652 -0.437298 0.149248 0.0957724 -0.103542 -0.0440668 -0.121005 -0.188063 -0.382381 0.077569 -0.211603 -0.188496 0.146255 0.026515 0.187278 -0.197059 0.0884257 0.0373842 -0.0953448 -0.212443 0.268225 -0.264506 -0.160816 -0.0353536 0.196735 -0.271234 0.124717 0.131429 -0.0215276 -0.106403 -0.0684498 -0.0653651 -0.00833374 0.199418 -0.132027 -0.259949 0.00327338 0.157561 0.177904 0.0688035 0.0518175 0.105575 0.178795 -0.401299 -0.0251747 -0.157094 0.0153772 -0.0886996 -0.0278573 0.0959603 0.114837 0.170756 0.101345 -0.038137 -0.455444 0.210321 0.289257 0.265094 -0.011069 -0.0957815 -0.190487 -0.0622954 -0.0911765 -0.0956592 -0.34022 -0.0841788 0.0378401 -0.176602 0.112915 0.098314 0.217454 -0.157351 0.205556 0.15363 0.165065 0.159159 -0.463496 0.00031223 0.326022 -0.0373298 -0.2057 0.2355 0.168611 -0.0968817 -0.277007 -0.123508 -0.227926 0.124329 0.137009 0.119442 -0.168705 0.0765723 0.151554 -0.0177409 -0.248771 -0.141484 -0.213904 -0.264979
20130926 -0.0331421 0.314502 0.155263 -0.409385 -0.00272335 -0.0273504 0.0157324 -0.0264971 -0.0838374 -0.350597 -0.394604 0.104245 0.0439601 -0.197142 0.151827 -0.0188818 0.247692 -0.159097 0.00500905 -0.0151923 -0.0400817 -0.450131 0.237707 -0.208871 -0.243584 -0.0293179 0.0785701 -0.172186 0.0306986 0.126683 -0.102127 -0.0707758 -0.0852768 -0.00855102 0.0244829 0.207835 -0.0323866 -0.340186 -0.078069 0.262361 0.271742 -0.0069277 0.00430421 0.188481 0.231429 -0.337201 -0.170989 -0.215679 -0.0885051 -0.337882 -0.219646 0.0662093 0.0847904 0.130494 0.147244 -0.133975 -0.542906 0.4141 0.192981 0.263563 -0.0113759 0.0159044 -0.103661 -0.127418 -0.176467 -0.0799543 -0.381022 -0.000460352 0.188609 -0.460729 0.160841 0.150013 0.140645 0.0100347 0.107462 -0.0885892 0.215357 0.00242431 -0.493877 0.00251548 0.276806 0.104953 -0.116897 0.126035 0.217157 -0.0463756 -0.335045 -0.0790934 -0.469719 0.162662 0.0935329 0.121375 -0.161444 0.148489 0.114832 0.163459 -0.315334 -0.0797024 -0.288243 -0.110934
19543370 -0.00643992 0.0542559 0.0599129 -0.334651 -0.112092 0.0525577 -0.115004 -0.0155751 -0.0322673 -0.222459 -0.39837 0.173412 -0.172561 -0.0960091 0.147651 -0.0118303 0.148249 -0.241134 0.0715867 -0.0317577 -0.0502678 -0.288819 0.339853 -0.237131 -0.0246203 0.00699343 0.383935 -0.082317 0.276422 0.138386 -0.142613 -0.0327079 -0.142929 -0.0442308 -0.113686 -0.0400787 -0.135494 -0.394081 -0.0309783 0.000979038 0.120907 0.0776284 0.0718226 -0.0377233 0.139699 -0.323492 -0.0653556 -0.127532 -0.118546 -0.0825717 -0.059567 -0.00657325 -0.0903138 0.23669 -0.0321506 -0.283633 -0.212046 0.192984 0.217362 -0.0282044 0.048971 -0.0923392 -0.188604 -0.126766 -0.124217 -0.172483 -0.268944 -0.164638 0.120134 -0.186163 0.024793 0.236888 0.287615 0.213245 0.157693 -0.0230305 0.0317002 0.327465 -0.494844 0.0697052 0.172961 -0.0982341 -0.132231 0.0944267 0.180852 -0.192605 -0.247854 -0.0813753 -0.161283 -0.000569997 0.0302482 -0.0351499 -0.201036 0.149251 0.193181 0.14623 -0.243305 0.0062532 -0.147626 -0.281401
21654615 -0.122896 0.0575191 0.274651 -0.395396 0.16539 0.294591 -0.0725232 -0.0302857 -0.159418 -0.175988 -0.490342 0.068674 -0.192187 -0.0771567 0.0767564 -0.0910889 -0.0410594 -0.280774 0.150282 0.0474737 -0.0739597 -0.18287 0.158677 -0.233843 0.0901318 -0.0749334 0.206201 -0.216383 0.166168 0.402433 -0.189854 -0.116089 -0.0213005 0.100164 0.08305 0.182165 -0.160963 -0.281052 0.0242352 0.000982301 0.295969 0.0249772 0.00814193 -0.0281965 -0.0625552 -0.410115 -0.0629725 -0.123704 0.00273591 -0.134779 0.00131549 0.0489253 0.0103425 0.0808068 0.0713382 -0.234399 -0.296958 0.120586 0.261782 0.116499 -0.0081052 -0.110481 -0.392503 -0.0031951 -0.159257 -0.0892533 -0.227701 -0.136384 0.0322038 -0.0725757 -0.0324885 0.183316 0.156694 -0.0406511 0.209981 -0.0680142 0.183171 0.188832 -0.403563 0.0662313 0.185835 0.0713397 -0.232292 0.168224 0.118189 -0.257232 -0.415763 -0.0788775 -0.26001 -0.136624 -0.0406618 0.176536 -0.201193 0.23812 0.0266398 -0.039272 -0.199801 -0.0115754 -0.104505 -0.327332
14230524 -0.0420897 0.0851443 0.111739 -0.348422 0.116146 0.325518 -0.266917 0.155308 -0.0813207 -0.0409678 -0.464667 0.0600127 -0.109759 0.0446795 -0.00356319 -0.0663089 0.126055 -0.26871 0.00297971 -0.0819661 -0.0421413 -0.245706 0.132699 -0.269978 -0.0031776 -0.0661633 0.141362 -0.185422 0.263754 0.3068 -0.153978 -0.0098385 0.0333855 0.072164 0.0616987 0.13126 -0.161307 -0.127259 0.0559081 0.194816 0.269334 0.02867 0.0907619 0.146495 0.07932 -0.53267 -0.151998 -0.186978 -0.0223121 -0.12692 -0.00146009 0.214588 0.0623808 0.14335 0.0087578 -0.0681424 -0.321348 0.10001 0.322899 0.101759 -0.01162 -0.20982 -0.315707 -0.0884322 -0.138273 -0.200703 -0.211823 -0.0709576 0.00195194 -0.19367 -0.0193241 0.233114 0.336333 0.041787 0.135965 -0.112768 0.0650223 0.285884 -0.464249 -0.0840368 0.141342 0.149506 -0.262944 0.162431 0.0691411 -0.257005 -0.194633 -0.0359347 -0.307058 -0.158547 0.0585055 0.065056 -0.24524 0.211187 0.15229 0.032921 -0.234657 0.0521515 -0.203882 -0.334406
31736127 -0.0382471 0.243871 0.0920213 -0.548691 -0.0259682 0.492541 -0.219082 -0.131574 0.0253636 -0.21344 -0.439016 0.0199928 -0.205742 0.0518991 0.0915357 -0.305879 -0.00239227 -0.499529 -0.157745 0.0896854 -0.0591087 -0.250583 0.17524 -0.198363 -0.134811 -0.0354043 0.326193 -0.337611 0.203112 0.329846 -0.119652 -0.124298 0.125831 -0.0440444 -0.138967 0.0428305 -0.224923 -0.296566 0.0928126 0.244598 0.152719 0.0809426 0.0627285 -0.118047 0.214058 -0.176861 0.0543223 -0.232501 0.0166586 -0.199502 0.156636 -0.010544 -0.21953 0.188892 -0.144461 -0.22202 -0.444828 0.014216 0.246059 -0.155059 -0.0620081 -0.0279261 -0.359249 -0.194533 -0.39656 -0.0774946 -0.216472 -0.136898 0.0990439 -0.213236 -0.0519734 0.365322 0.289762 0.121263 0.258592 0.00287557 0.143746 0.188625 -0.576193 -0.156088 0.0693118 0.161658 0.105905 0.096015 0.0462988 -0.236249 -0.351022 0.131383 -0.058453 -0.0969403 -0.183602 0.0662974 -0.0877065 0.322191 0.213639 0.079462 -0.347366 0.0706836 -0.166214 -0.223561
295241657 0.129204 0.254404 0.0204368 -0.411594 -0.210268 0.114854 -0.278363 -0.111702 0.0566377 -0.29929 -0.578047 0.0759351 -0.226331 -0.115071 0.12347 -0.0969233 0.181361 -0.507248 -0.0335436 0.10704 -0.0529755 -0.225226 0.316032 -0.168861 -0.220711 0.00551479 0.335635 -0.278589 0.129543 0.181862 -0.0410286 -0.151401 -0.0165721 -0.0396518 -0.141665 0.0740163 0.0182311 -0.468576 -0.0192159 0.242852 0.0874213 0.0771584 -0.0401746 -0.131935 0.205334 -0.136953 0.0373745 -0.22805 -0.0350506 -0.278505 0.0360807 -0.0586309 -0.0753498 0.242202 -0.0479861 -0.231108 -0.512324 0.261348 0.164954 -0.0275213 -0.0748062 -0.0952541 -0.175963 -0.134059 -0.288717 -0.00367858 -0.267857 -0.194695 0.211983 -0.34791 -0.0139016 0.339285 0.258467 0.152411 0.209192 0.0685222 0.0855303 0.0854824 -0.469204 -0.10796 0.155034 0.0688718 -0.0212919 0.0793748 0.116588 0.0755067 -0.237882 0.0259113 -0.11399 0.058605 -0.107921 0.255782 -0.12759 0.190453 0.318768 0.217123 -0.320959 -0.0572246 -0.268265 -0.0967465
20011697 -0.00541538 0.127009 0.152477 -0.357122 -0.110649 0.0931258 -0.0918801 -0.0834963 0.0986585 -0.142925 -0.427882 0.049991 -0.22515 -0.147995 0.157553 -0.0609273 0.135249 -0.319979 0.0870953 0.0777103 -0.0124987 -0.237227 0.252706 -0.213214 -0.0538524 0.152575 0.430566 -0.104931 0.140537 0.0683214 -0.0807347 -0.035117 -0.0440911 -0.00705688 -0.164238 0.14765 -0.0749795 -0.404751 0.0353582 0.0717245 0.119957 0.237085 -0.00217607 -0.132825 0.0896479 -0.304237 0.00868391 -0.229685 -0.0486154 -0.177247 -0.0752482 -0.0766385 -0.154844 0.176911 -0.0951575 -0.215699 -0.300613 -0.0138825 0.124143 -0.0145239 0.0934511 -0.0924484 -0.255294 -8.06554e-05 -0.122208 0.00205425 -0.261403 -0.179932 -0.0533534 -0.127188 -0.123268 0.39334 0.199835 0.056071 0.2384 -0.00506848 0.016654 0.225726 -0.48471 -0.025444 0.237974 0.0240513 -0.0948188 0.262308 0.121575 -0.0930978 -0.301216 -0.086316 -0.0537045 -0.0122016 -0.0696824 0.156974 -0.279861 0.23269 0.153893 0.0143597 -0.203504 -0.143573 -0.232079 -0.30134
4863241 0.125794 0.135787 0.0671018 -0.34749 -0.228044 0.136449 -0.176872 0.0620114 0.092554 -0.178749 -0.53699 0.0494833 -0.117503 -0.129577 0.0742903 0.0312622 0.135625 -0.431977 0.0346699 0.0740738 -0.0482381 -0.201847 0.331203 -0.252214 -0.1289 0.108867 0.287148 -0.0947221 0.295672 0.152926 -0.116805 -0.0953846 -0.0855715 -0.0533327 -0.137284 0.0435659 -0.00934625 -0.547546 -0.0193934 0.111308 0.114884 0.139357 0.00694288 -0.152345 0.12166 -0.255305 -0.0765703 -0.182953 -0.161065 -0.292405 -0.0335161 -0.0221869 -0.0868238 0.177075 -0.0898183 -0.33418 -0.366898 0.229753 0.104377 -0.00175214 0.00126356 -0.09389 -0.184648 -0.172527 -0.199087 -0.119703 -0.280402 -0.107731 0.143453 -0.403455 0.0111254 0.322412 0.201283 0.267307 0.232824 0.031705 -0.000838698 0.230939 -0.324857 -0.100755 0.115416 0.135649 -0.171719 0.0572097 0.0914853 0.0533865 -0.259173 0.0770637 -0.0962711 -0.0227254 -0.0543782 0.12402 -0.213551 0.217659 0.261252 0.208809 -0.241644 -0.000682873 -0.164228 -0.223289
27155383 0.0465413 -0.0884725 -0.0322691 -0.285214 -0.0865521 -0.0180645 -0.264279 0.158724 -0.00115205 -0.190356 -0.45232 0.0381414 -0.148618 -0.12041 0.0607742 0.102995 0.182515 -0.155133 0.095815 -0.0972498 -0.0480674 -0.194369 0.355713 -0.289593 0.0405458 0.176435 0.278936 -0.0404242 0.246188 0.138358 0.0400819 -0.15689 -0.0181205 -0.106098 -0.0581661 0.159711 -0.0444629 -0.471822 -0.114765 0.0686806 0.15393 0.106575 -0.0327589 0.0767822 -0.00318386 -0.512974 -0.164813 -0.184871 -0.109383 -0.156758 0.0252629 0.122726 -0.0653314 0.0880154 0.0910028 -0.281099 -0.219768 0.147539 0.0817899 0.152206 -0.0080225 -0.15395 -0.24066 -0.00250781 -0.0179778 -0.0682524 -0.341132 -0.210958 0.0573128 -0.2822 -0.0379151 0.308496 0.228285 0.196908 0.196564 0.0556674 0.0115119 0.24822 -0.385587 -0.01522 0.140039 -0.0830837 -0.218729 0.0774157 0.181513 -0.11736 -0.181077 -0.137162 -0.218172 -0.00991542 0.138521 0.221791 -0.333567 0.150389 0.240728 0.155881 -0.159403 0.00923554 -0.131744 -0.305889
238710809 0.0244477 0.0115221 0.116021 -0.341151 -0.0716662 0.126429 0.0301397 0.0231766 -0.00766155 -0.126428 -0.408255 -0.0350154 -0.221679 -0.0691544 0.100832 0.0310852 0.0648866 -0.311178 0.17037 0.0172983 -0.0358023 -0.180077 0.170093 -0.260299 -0.0583984 0.0673977 0.418585 -0.16183 0.21462 0.0535653 -0.139993 0.0923787 -0.133658 0.0751518 -0.0638368 0.211832 -0.267747 -0.284313 0.112585 0.00650213 0.126527 0.186223 0.0261963 -0.0876391 0.0262176 -0.488771 -0.0359497 -0.0515907 -0.0267116 -0.0581309 -0.0552102 0.0883314 -0.0862386 0.170361 0.0287359 -0.18912 -0.302083 0.031004 0.23654 0.15054 0.0259472 -0.203261 -0.275738 -0.00687484 -0.00985292 -0.0602049 -0.265345 -0.156682 0.0624836 -0.137022 -0.110246 0.202416 0.146304 0.0765592 0.212239 -0.0391172 -0.0372023 0.366174 -0.401672 -0.038095 0.305902 0.060355 -0.078456 0.216499 0.169242 -0.1996 -0.244456 -0.134654 -0.154881 -0.0953823 0.0285168 0.0673264 -0.338104 0.227181 0.166386 0.0334734 -0.156172 -0.123768 -0.273339 -0.406061
35597599 0.105103 0.0974033 0.14003 -0.250831 -0.141621 0.152363 -0.253541 -0.0218011 0.0277531 -0.25166 -0.55287 0.0125748 -0.218696 -0.183764 -0.0499324 -0.12204 0.223875 -0.318396 0.112604 0.0387279 0.145142 -0.295583 0.346662 -0.100927 0.0016801 0.0656266 0.356282 -0.0522179 0.413029 0.186989 -0.227725 -0.00133519 -0.111208 -0.0123379 -0.046449 0.133737 -0.0841421 -0.462526 0.00952262 0.111034 0.280987 0.157933 -0.0584231 -0.201022 -0.124415 -0.403914 -0.093867 -0.186915 -0.138407 -0.0710229 -0.0913636 0.110786 -0.09021 0.0951021 -0.0375075 -0.304267 -0.219628 0.267982 0.199259 -0.089373 0.0440057 -0.140126 -0.331724 0.0691348 -0.2644 0.00915513 -0.140829 -0.112256 -0.0789635 -0.050383 -0.134439 0.316416 0.240888 0.274456 0.234113 -0.0525617 -0.0273193 0.343481 -0.440577 -0.0635142 0.00354852 0.101819 0.0100165 0.233151 0.153295 -0.0531163 -0.2028 -0.180498 -0.0823539 -0.015604 -0.150429 0.226076 -0.316406 0.141673 0.388368 0.116554 -0.268347 0.0335949 -0.20712 -0.337056
27418606 0.126234 0.0834138 0.134317 -0.357005 -0.0496863 0.277539 -0.248351 0.00133959 0.0890064 -0.140053 -0.540088 0.0619754 -0.299359 -0.135102 0.0603856 -0.0578901 0.123128 -0.422701 0.171915 0.10887 -0.101855 -0.183467 0.236569 -0.276159 0.00847812 0.141282 0.391523 -0.128274 0.180287 0.17869 -0.0476698 -0.0664507 -0.078382 -0.0482466 -0.0570796 0.110463 -0.0473627 -0.484838 0.0459039 0.0534426 0.123615 0.172095 0.0143311 -0.110839 0.0316749 -0.229992 -0.0736256 -0.14864 -0.0854491 -0.295473 -0.0230387 -0.0228784 -0.122343 0.177429 -0.125342 -0.241462 -0.276692 0.0453269 0.166568 -0.0614107 0.00799853 -0.178893 -0.20299 0.0259588 -0.113256 -0.0704653 -0.29046 -0.168334 -0.0975683 -0.167186 -0.0801732 0.371239 0.267759 0.0590786 0.287894 0.0495725 0.00396651 0.215109 -0.291144 -0.00841908 0.197465 0.184068 -0.199462 0.155955 0.0483285 -0.0254912 -0.265309 0.0314148 -0.109333 -0.0321481 -0.116027 0.211285 -0.286352 0.27714 0.220832 0.048216 -0.234262 -0.0811683 -0.137294 -0.181743
22152712 0.113042 -0.0513422 0.19261 -0.349178 -0.0467351 0.167231 -0.060662 0.122942 -0.0585076 -0.124041 -0.447369 -0.0307039 -0.171784 -0.00965587 0.0420317 0.0741462 0.0742966 -0.256741 0.17869 0.0302461 -0.174328 -0.166796 0.178847 -0.305242 0.0781854 0.171586 0.24104 -0.0740364 0.101351 0.162187 -0.125085 0.05246 -0.0449745 0.012468 -0.0810621 0.20523 -0.200072 -0.299421 0.0758829 0.0919032 0.253377 0.0960975 0.00617149 0.0610257 -0.000902644 -0.515729 -0.20134 -0.0483701 0.0491112 -0.156313 -0.110273 0.0696138 -0.00363953 0.0912515 -0.0361116 -0.226454 -0.240998 0.119292 0.214911 0.19874 0.0883088 -0.1426 -0.234245 0.0597518 0.0348154 -0.0686317 -0.331618 -0.224547 0.14304 -0.219117 -0.0299915 0.144336 0.108847 0.094784 0.239378 0.0214324 -0.0362234 0.340324 -0.384683 -0.00269986 0.31854 -0.0333564 -0.197609 0.130607 0.132431 -0.240664 -0.327344 -0.126752 -0.214044 -0.173791 0.190259 0.00147973 -0.353224 0.225578 0.0798181 0.0130624 -0.128859 -0.0714756 -0.184424 -0.329185
18331980 0.167883 0.157349 0.00604075 -0.39596 -0.116161 0.0690801 -0.300621 0.0901991 0.0459919 -0.182848 -0.507511 0.00813837 -0.139708 -0.131449 -0.0726887 0.0515266 0.289288 -0.311569 0.0248332 0.0106611 0.0571827 -0.264099 0.276137 -0.287478 -0.113921 0.192959 0.247089 -0.0456793 0.25824 0.0474232 -0.0760492 -0.00109036 -0.148391 -0.0763786 -0.0926016 0.11114 -0.112196 -0.401457 0.0223011 0.0998886 0.222819 0.222514 0.0301894 -0.0315344 0.0939824 -0.340832 -0.103794 -0.102108 -0.00179737 -0.0546791 -0.114154 0.0490492 -0.0321811 0.182555 -0.107923 -0.214783 -0.30563 0.137422 0.183364 -0.00321049 0.0522283 -0.214098 -0.138695 -0.0303063 -0.0768022 -0.0551585 -0.176498 -0.106592 0.0426925 -0.201966 0.0158224 0.374427 0.290075 0.202994 0.241696 0.0923276 -0.041267 0.351491 -0.402241 -0.0571646 0.105574 -0.0097311 -0.147434 0.229772 0.129338 -0.0523191 -0.129995 -0.0327708 0.0272121 -0.063865 0.129009 0.230974 -0.262239 0.126496 0.350253 0.117144 -0.215109 -0.16094 -0.194324 -0.301231
33174013 0.129402 0.0853405 0.116 -0.249411 -0.0146999 0.140545 -0.207328 -0.0270314 0.0527891 -0.061169 -0.469229 -0.0219431 -0.201674 -0.0938732 0.0265459 -0.0902994 0.261245 -0.177333 -0.0261751 -0.0668589 -0.0719787 -0.276557 0.280596 -0.18347 -0.0118732 0.103571 0.264411 -0.119311 0.214624 0.09142 0.00159823 -0.0247704 -0.00995689 -0.0417065 -0.0281831 0.196461 -0.0342598 -0.246023 -0.0353576 0.230446 0.200943 0.125353 0.0320606 0.0959213 0.0499388 -0.472332 -0.157407 -0.278179 -0.0657421 -0.221015 -0.036487 0.150195 -0.0964046 0.17318 -0.00253304 -0.146752 -0.263501 0.114886 0.261708 0.0978078 0.0821258 -0.102561 -0.179052 0.00696379 -0.144516 -0.0662263 -0.34731 -0.089333 -0.0385822 -0.176101 -0.0444085 0.210829 0.180695 0.0405602 0.19802 -0.0263284 -0.089066 0.20417 -0.537874 -0.0815532 0.197914 0.068303 -0.144532 0.127593 0.123526 -0.0890741 -0.111068 -0.137042 -0.17603 -0.0817392 0.0701734 0.151733 -0.318184 0.202283 0.159313 0.0198051 -0.189928 -0.0187265 -0.231626 -0.278761
148154970 -0.135539 0.152941 0.222236 -0.479396 0.145123 0.490605 -0.0821715 0.0449013 -0.153264 -0.2262 -0.388277 0.0115428 -0.0153649 0.0916811 0.051822 -0.0959001 -0.0526473 -0.128521 -0.143603 -0.0980851 -0.0837284 -0.341916 0.113851 -0.253547 -0.10429 -0.0400059 0.0890346 -0.367415 0.104054 0.395785 -0.137716 -0.036955 0.195795 0.122907 0.0359866 0.154301 -0.272205 -0.201907 0.0251666 0.262148 0.424056 -0.107215 0.0624151 0.18291 0.112811 -0.4787 -0.112536 -0.15947 0.0474299 -0.091102 0.026609 0.152309 0.064309 0.0462186 0.0836083 -0.193764 -0.356566 0.194686 0.236322 0.113937 -0.12713 -0.0165668 -0.440432 -0.141574 -0.339218 -0.0710728 -0.253404 -0.111991 0.140708 -0.312386 -0.0416378 0.15472 0.351945 0.0640695 0.156817 -0.150941 0.319419 0.225467 -0.532566 0.0122316 0.179499 0.0980738 0.012205 0.125984 0.0846375 -0.312894 -0.434971 -0.115958 -0.400469 -0.124645 -0.0599054 0.0556405 -0.194878 0.256376 -0.0296762 -0.0202057 -0.359912 0.0414451 -0.182365 -0.283148
612473 0.0951982 0.199174 0.109112 -0.369229 -0.0694465 0.16289 -0.220245 -0.0420337 -0.154501 -0.175962 -0.569084 0.0607803 -0.155345 0.0487703 0.116975 -0.125224 0.273256 -0.199623 -0.0766298 -0.207867 -0.0956553 -0.120099 0.286439 -0.205771 -0.00571716 -0.119796 0.257332 -0.391028 0.29078 0.239889 -0.164569 -0.0024724 0.0355124 0.116662 0.0143372 0.0202216 -0.116059 -0.360382 -0.0951736 0.161623 0.219369 -0.0316011 0.177525 -0.00152415 0.127397 -0.397609 -0.132443 -0.140749 -0.0154982 0.0832484 -0.0594372 0.0558064 0.0707083 0.354961 0.00507416 -0.326157 -0.103862 0.141279 0.277515 0.0130293 -0.000803681 -0.0351567 -0.20785 -0.056592 -0.232853 -0.227906 -0.241687 -0.128274 0.104505 -0.0353481 -0.166808 0.236881 0.419447 0.200022 0.0282801 -0.0709448 0.0861976 0.380363 -0.50697 0.109918 0.217349 -0.183722 -0.140514 0.0785023 0.196851 -0.323326 -0.181662 -0.103498 -0.124343 -0.00637744 0.0396589 0.130939 -0.377234 0.1872 0.00162552 0.0614214 -0.30353 -0.0665187 -0.09504 -0.371857
182446060 -0.0636405 0.278908 0.160003 -0.539449 0.196538 0.238665 -0.135896 -0.0668476 -0.23805 -0.0662175 -0.397953 0.216753 -0.268912 -0.120579 0.247501 -0.0672099 0.160812 -0.0695474 0.104018 -0.0835581 -0.193714 -0.202456 0.278067 -0.328836 0.079651 -0.130587 0.127464 -0.289441 0.102434 0.200374 -0.170737 -0.0673684 -0.081846 0.0123789 0.103349 0.0526667 -0.315391 -0.181728 0.021977 -0.0169585 0.171382 -0.0145088 0.183929 0.090089 0.190285 -0.434307 -0.12142 -0.0750816 -0.00415045 0.0729972 0.0314074 -0.0404512 -0.0279635 0.203 -0.0324508 -0.145611 -0.188846 0.158065 0.334122 0.0954881 0.136795 -0.0170047 -0.178556 -0.0597003 -0.0518643 -0.25567 -0.267134 0.040391 0.0183794 0.0157729 0.0642334 0.17604 0.340747 -0.118917 0.157128 0.0786704 0.283593 0.395149 -0.448637 0.182484 0.346862 -0.239737 -0.312277 0.262007 0.209275 -0.312702 -0.279706 -0.127076 -0.150909 0.0125794 0.133684 0.0418643 -0.264368 0.15503 0.000209337 -0.127217 -0.248816 -0.102555 -0.0310291 -0.385002
472395661 -0.182588 -0.0184159 0.108847 -0.437421 0.275586 0.308071 -0.140819 -0.0435138 -0.177134 -0.123741 -0.17662 0.188874 -0.335494 -0.107645 0.156666 0.00865521 -0.0604211 -0.261712 0.170234 0.00915034 -0.0904293 -0.190371 0.249815 -0.418067 0.0896136 -0.12579 0.250932 -0.258506 0.140614 0.254108 -0.127372 -0.0160868 -0.127061 -0.0825767 -0.0193699 0.255052 -0.400646 -0.123344 0.215917 -0.135005 0.138917 0.0352068 0.00880403 0.114572 0.0116233 -0.562764 -0.041475 -0.0215836 -0.0736371 -0.0610917 0.101649 0.169314 -0.146606 0.0678827 0.0905316 -0.152797 -0.276078 -0.0032309 0.241127 0.170055 0.108599 -0.0964866 -0.372141 -0.00242416 -0.0805992 -0.145958 -0.295747 -0.100157 -0.076718 0.0533248 0.0279918 0.160991 0.21228 -0.23207 0.363741 -0.00193589 0.207053 0.369664 -0.414075 0.0526941 0.368731 -0.0126014 -0.202821 0.264282 0.103268 -0.325281 -0.280477 -0.195018 -0.131952 -0.156335 -0.014339 0.0327229 -0.301528 0.217902 0.144304 -0.217759 -0.225852 -0.0355436 -0.0611633 -0.411843
44101412 0.0403843 0.171596 0.0559941 -0.339956 0.054984 0.11495 -0.115566 0.0016028 -0.102059 -0.157155 -0.280431 0.0998569 -0.157173 -0.0728366 0.0426109 0.032919 0.200384 -0.193283 0.0135741 -0.164346 -0.0453502 -0.245366 0.266298 -0.231056 -0.0959343 -0.0450727 0.181773 -0.282383 0.306142 0.154514 -0.0283012 -0.0240028 -0.120378 0.0508057 0.115148 0.231231 -0.202238 -0.211081 -0.0257323 0.0558795 0.196114 0.0127199 0.107584 0.176893 0.0766128 -0.527403 -0.187825 -0.100757 -0.173236 -0.132089 -0.0279049 0.244091 -0.0965582 0.225409 0.084373 -0.198914 -0.230452 0.202779 0.254636 0.154853 0.0261816 -0.164962 -0.209438 -0.0765469 -0.153309 -0.156566 -0.322485 0.0181052 0.0317999 -0.204382 -0.0129711 0.116377 0.252403 0.0189767 0.1285 -0.0781364 -0.0032119 0.306289 -0.451051 -0.0515075 0.227694 0.0976511 -0.103292 0.131453 0.133821 -0.163517 -0.0765262 -0.160252 -0.207749 -0.112645 0.0127082 0.194455 -0.326909 0.0987784 0.198088 0.0101039 -0.200833 -0.0861331 -0.19729 -0.400686
20074845 -0.202416 0.300057 0.255332 -0.505125 0.243746 0.0850614 0.00756542 -0.0744099 -0.243767 -0.216833 -0.43629 0.305279 -0.154159 -0.218417 0.26373 -0.00311141 0.128777 -0.0356455 0.222756 -0.0028091 -0.211459 -0.394039 0.225976 -0.267062 0.0231127 -0.156426 0.159755 -0.172151 0.0310403 0.217288 -0.179237 -0.0755081 -0.185348 0.0285404 0.0963387 0.0865767 -0.189616 -0.218942 -0.00922292 -0.0816367 0.264027 -0.074015 0.144752 0.104028 0.132384 -0.36993 -0.126527 -0.182613 -0.0899011 -0.0712984 -0.124411 -0.105399 0.0269191 0.143469 0.0584939 -0.157076 -0.297105 0.199559 0.288616 0.210855 0.0945988 0.0344208 -0.215067 -0.059402 -0.0607666 -0.232434 -0.242341 0.011585 0.0481075 -0.0841087 0.153482 0.135983 0.185326 -0.175516 0.205107 -0.0446484 0.299727 0.228089 -0.518648 0.239409 0.414919 -0.123797 -0.367043 0.253765 0.258145 -0.313122 -0.390323 -0.190117 -0.389806 -0.0115494 0.124616 0.0647887 -0.235409 0.200812 -0.019582 -0.0873844 -0.264953 -0.0751838 -0.0691694 -0.275422
20244875 -0.151915 0.0232877 0.287337 -0.249759 0.0172818 -0.115559 -0.0520696 0.129525 -0.144149 -0.169813 -0.229429 0.234586 -0.0559213 -0.205544 0.0961475 0.0404906 0.115464 -0.148036 0.0466466 -0.171716 0.0292609 -0.395905 0.218215 -0.252161 -0.117639 -0.0188274 0.219926 -0.0153589 0.301909 0.234262 -0.184572 -0.0224574 -0.122199 0.042713 0.129977 0.162361 -0.0917848 -0.317978 -0.045775 -0.0373112 0.267362 0.0855897 -0.0143946 0.167179 -0.0205986 -0.586183 -0.194779 -0.23291 -0.218253 -0.291044 -0.215649 0.162245 -0.0154419 0.17619 0.0333047 -0.189619 -0.265102 0.167278 0.159859 0.176714 0.0570843 -0.059976 -0.331588 0.00481371 -0.0572036 -0.221682 -0.246441 -0.0181931 -0.118124 -0.21954 -0.0765123 0.174748 0.407202 0.0776725 0.00685671 -0.257291 0.242048 0.173504 -0.467734 -0.023125 0.173156 0.126845 -0.0589992 0.26157 0.170859 -0.254462 -0.180415 -0.17312 -0.324333 0.0301129 0.0232852 0.0126826 -0.364471 0.174426 0.0884662 -0.0295901 -0.291877 0.116803 -0.27206 -0.367101
22283850 -0.101808 -0.122436 0.134384 -0.250454 0.149154 0.230892 -0.136874 0.0335311 -0.0715434 -0.143422 -0.263608 0.0582313 -0.291845 -0.213195 0.045224 0.112529 0.0623303 -0.215508 0.176007 -0.00423992 -0.000535711 -0.14457 0.344615 -0.238374 -0.0118797 0.0548062 0.26913 -0.197422 0.250486 0.309855 -0.0352406 -0.0441449 -0.103306 -0.0241072 -0.0273291 0.230824 -0.198172 -0.355697 -0.010384 -0.0258547 0.178186 0.0533908 -0.0331506 -0.015659 -0.0596411 -0.59834 -0.0543956 -0.0868777 -0.112703 -0.117627 -0.0605941 0.254489 0.0875481 0.0629747 0.177117 -0.213542 -0.304051 0.214526 0.157835 0.169978 0.0270556 -0.0716749 -0.404087 0.017887 -0.201124 -0.0753986 -0.319027 -0.0926456 -0.194225 -0.141419 -0.0252551 0.101616 0.274911 -0.0526775 0.255099 0.00578298 0.186857 0.337494 -0.323535 0.0226628 0.185164 0.105634 -0.102438 0.239633 0.134065 -0.012693 -0.287568 -0.215983 -0.132506 -0.0043497 -0.0201969 0.153263 -0.325988 0.125156 0.120406 -0.00730129 -0.231222 -0.0257887 -0.0804668 -0.364557
789071 0.162144 -0.0345833 0.0437695 -0.27919 -0.108999 0.0288487 -0.207081 0.0806654 0.0684924 -0.114364 -0.452412 0.0688723 -0.275105 -0.128354 0.0768095 0.180443 0.214864 -0.272918 0.201546 0.0224326 -0.0890384 -0.221641 0.292495 -0.303286 -0.0932277 0.260024 0.339973 -0.0632971 0.0346477 -0.00923517 0.0408458 0.00220472 -0.0858787 -0.0324132 -0.0860958 0.253012 -0.00406566 -0.390943 0.0156709 0.16615 0.148282 0.130575 -0.0458546 0.130266 0.0852183 -0.495926 -0.129136 -0.0947673 -0.0451356 -0.256461 -0.048109 0.140844 -0.0166394 0.0855701 0.0332477 -0.0519609 -0.381933 0.212813 0.160856 0.20809 0.0239648 -0.275258 -0.126198 0.0633818 0.0442658 0.0375915 -0.418322 -0.243037 0.0205291 -0.388136 -0.0268102 0.244847 0.204321 0.00691975 0.234624 0.0894123 -0.0259081 0.202223 -0.383935 -0.0538773 0.326295 0.0966755 -0.262644 0.263598 0.0977548 0.138406 -0.16722 -0.18493 -0.294345 0.0205796 0.104925 0.263406 -0.335207 0.0685 0.294387 0.0570188 -0.129132 -0.178097 -0.268429 -0.198326
19970709 0.0786379 0.0504367 0.0205069 -0.315819 -0.0301289 0.0681647 -0.240043 0.0133516 0.00350097 -0.100834 -0.475544 0.0281204 -0.226644 -0.119956 0.0647794 0.0435938 0.260069 -0.304285 0.0675308 -0.0160966 -0.0207055 -0.228189 0.255165 -0.318081 -0.0796268 -0.0173701 0.299626 -0.171323 0.274478 0.0619153 -0.0792501 -0.0177246 -0.145819 -0.0701058 0.00762958 0.203301 -0.0905308 -0.227842 0.0825757 0.102012 0.122613 0.122399 0.0215243 0.0551516 0.0966695 -0.511054 -0.0458853 -0.194225 -0.110437 -0.166258 -0.0045817 0.195799 -0.0736892 0.209798 0.0308299 -0.0938842 -0.418956 0.124664 0.303411 0.172857 0.026802 -0.197196 -0.127415 -0.0648995 -0.0466172 -0.104482 -0.282444 -0.107898 0.0280895 -0.20485 0.0104429 0.200966 0.231416 -0.0263508 0.21216 0.0290074 -0.07017 0.262436 -0.46155 -0.123314 0.257098 0.0929837 -0.222826 0.185488 0.128575 -0.0612977 -0.0608811 -0.103048 -0.19655 -0.0357189 0.0946715 0.143645 -0.279266 0.180011 0.328145 0.047379 -0.207071 -0.036302 -0.289228 -0.294745
20236935 0.229836 -0.039576 0.0252623 -0.394349 -0.13023 0.0665311 -0.242711 0.143202 0.0146175 -0.107709 -0.568071 0.00241389 -0.178179 -0.0440541 0.0506075 0.146845 0.191999 -0.287808 0.134731 -0.000144549 -0.198498 -0.127326 0.293725 -0.324199 -0.0592124 0.223753 0.252866 -0.0483646 0.179217 0.046733 0.0775306 -0.0676243 -0.0329708 -0.0876223 -0.0913423 0.144369 -0.0286413 -0.44099 -0.0517899 0.114047 0.12549 0.100742 0.0139616 0.0961146 0.12437 -0.438526 -0.151247 -0.104562 0.0205722 -0.168038 0.014667 0.00668277 0.0369063 0.18018 0.00145356 -0.149549 -0.3121 0.104573 0.169878 0.256067 -0.0296095 -0.212417 -0.111885 -0.04799 0.0561319 -0.141039 -0.414372 -0.224851 0.175603 -0.376465 0.0450903 0.265313 0.124011 0.162547 0.20887 0.217344 -0.0273949 0.276044 -0.343884 -0.055231 0.27076 -0.0525709 -0.366133 0.0773257 0.14666 -0.0285302 -0.155306 -0.0245388 -0.27609 -0.0209205 0.253901 0.198949 -0.280464 0.170212 0.155798 0.133067 -0.126353 -0.131316 -0.120752 -0.225653
27897419 -0.0275825 -0.116178 0.0708725 -0.376569 0.0553263 0.162714 -0.161309 0.0221142 -0.108802 -0.123193 -0.259015 0.137189 -0.279921 -0.153219 0.124272 0.190151 0.0569408 -0.276425 0.147312 -0.0390023 -0.152412 -0.0888487 0.350082 -0.351705 -0.0663875 0.00906338 0.206994 -0.220785 0.254871 0.25711 0.017015 -0.130705 -0.0567994 -0.127931 0.00488309 0.196749 -0.182078 -0.35989 -0.00268793 -0.0171632 0.0676177 -0.0212762 0.0167052 0.110705 0.080235 -0.578692 -0.084622 -0.0691752 -0.149931 -0.209752 0.0260831 0.18635 0.0120914 0.13781 0.144446 -0.223274 -0.310646 0.181425 0.161429 0.280726 0.0243562 -0.071611 -0.277161 -0.074099 -0.108132 -0.16977 -0.397501 -0.0991235 0.00310076 -0.303025 0.0362927 0.0452457 0.178231 -0.035163 0.269853 0.0693914 0.175531 0.273725 -0.331027 -0.0485426 0.287598 0.0408059 -0.193918 0.135002 0.118571 -0.0441122 -0.235553 -0.131181 -0.204009 -0.00290724 0.0334239 0.0913106 -0.260074 0.122938 0.14709 0.0186556 -0.214737 -0.0388752 -0.0677598 -0.311919
20137301 0.0814999 -0.176593 0.108533 -0.161807 0.0466717 0.0547501 -0.251983 0.163268 0.0203802 -0.158869 -0.455201 0.0123635 -0.158706 -0.105069 -0.00389529 0.0732905 0.184774 -0.10912 0.0821906 -0.0902688 -0.014118 -0.252848 0.244515 -0.317719 0.00509247 0.099228 0.296253 -0.0483827 0.331732 0.12967 0.0532768 -0.0969154 -0.0543516 -0.0884314 -0.0233161 0.258565 0.0638887 -0.250796 -0.0219088 0.15187 0.214002 0.131168 -0.0878332 0.174165 -0.0476561 -0.620372 -0.103 -0.304574 -0.161648 -0.216725 0.00355105 0.284338 -0.0372309 0.114625 0.0764992 -0.145897 -0.302596 0.0935544 0.270827 0.193145 -0.0529021 -0.179115 -0.263537 0.0329463 0.0115366 -0.0358321 -0.348767 -0.142912 -0.080326 -0.140371 -0.0276652 0.185926 0.24013 -0.037619 0.182197 -0.00222834 -0.112232 0.113667 -0.48138 -0.0730454 0.14823 0.0877029 -0.250288 0.130551 0.117052 -0.0862667 -0.0751566 -0.197166 -0.258478 -0.0277705 0.0991693 0.209484 -0.298232 0.202915 0.26327 -7.72664e-05 -0.223088 0.0279332 -0.324512 -0.319157
20032752 0.0460212 0.233749 0.220297 -0.371795 -0.136928 0.0741672 -0.243209 -0.116088 0.0308586 -0.15002 -0.575395 0.125407 -0.27679 -0.212542 0.0839007 -0.180356 0.0994086 -0.559733 0.109604 0.0800238 -0.0172441 -0.21257 0.279803 -0.107234 -0.0510506 0.0198451 0.330847 -0.0599717 0.173345 0.308414 -0.130883 -0.161138 -0.0270658 0.000120492 0.00802511 0.133981 -0.0427292 -0.440752 -0.0551518 0.123218 0.109486 0.0869685 -0.0404842 -0.176668 -0.0136918 -0.255881 -0.0711082 -0.209942 -0.0518168 -0.367598 -0.0538922 -0.0727021 -0.101132 0.188628 -0.120667 -0.233102 -0.388278 0.186914 0.213455 -0.0150616 0.0641111 -0.0821185 -0.249641 -0.0234997 -0.225221 -0.095863 -0.230391 -0.125727 0.0407156 -0.187431 -0.0490816 0.330278 0.133531 0.167524 0.1229 -0.0365587 0.103214 0.178288 -0.415959 -0.0698024 0.103423 0.112197 -0.140323 0.171661 0.0792711 -0.0228561 -0.297877 0.0731885 -0.149427 -0.0235087 -0.105358 0.255573 -0.135463 0.229257 0.249084 0.226319 -0.223653 -0.076425 -0.154635 -0.224797
109705251 -0.0193628 0.145493 0.0467923 -0.467087 0.177392 0.170576 -0.208913 0.0291146 -0.120844 -0.224204 -0.501148 0.05724 -0.119574 -0.0412671 0.0515507 -0.0045541 0.192629 -0.168852 0.134727 -0.0254232 -0.0522717 -0.209514 0.181151 -0.336643 0.116284 -0.0492867 0.195506 -0.159656 0.307654 0.233462 -0.14332 -0.203338 -0.140019 -0.033207 -0.00135746 0.188991 -0.17346 -0.264917 -0.00757278 -0.0858792 0.150428 0.0971454 0.0965033 0.0177549 0.0711005 -0.443218 -0.069995 -0.17132 -0.0771481 0.00764537 0.0177516 0.0800134 -0.146293 0.176214 -0.0315016 -0.297435 -0.21531 -0.0200305 0.283667 0.114226 0.0116237 -0.0798768 -0.212038 -0.0412315 0.0211884 -0.197535 -0.206265 -0.00189223 0.0340301 0.0248235 0.0749503 0.284861 0.120793 -0.061579 0.24167 0.0741421 -0.0204407 0.278848 -0.417577 -0.0208141 0.101574 -0.0931358 -0.363124 0.14468 0.233067 -0.314282 -0.2073 0.0115882 -0.0836226 -0.0847454 0.105039 0.225147 -0.183839 0.29535 0.205922 0.0223894 -0.207587 -0.0812897 -0.0954699 -0.437319
18938604 -0.0107947 0.0688224 0.180434 -0.251763 0.10638 0.13614 -0.209978 0.0743229 -0.0741824 -0.00801441 -0.3757 0.121569 -0.300605 -0.140039 0.146635 -0.184301 0.222589 -0.398572 0.0300176 -0.121717 -0.100111 -0.127738 0.263768 -0.269825 0.0751986 -0.211348 0.288842 -0.272581 0.169356 0.355052 -0.162931 -0.0154216 -0.0519652 -0.0564874 0.04293 0.125123 -0.0298467 -0.171634 -0.0269421 0.158247 0.0199705 0.0163224 0.0743917 0.0284435 0.121649 -0.45098 -0.117848 -0.193283 -0.0957144 -0.261635 -0.142059 0.2424 0.0390922 0.314696 -0.0203166 -0.0829244 -0.292974 0.138735 0.265577 0.045184 0.143136 0.0110687 -0.182841 -0.00812017 -0.187083 -0.30026 -0.363782 -0.0889809 -0.140329 0.0408131 -0.119267 0.141066 0.488375 -0.0843183 -0.0148821 -0.0834381 0.072644 0.192985 -0.338626 0.0206872 0.266468 0.104282 -0.237775 0.0925734 0.0959412 -0.278476 -0.122409 -0.0288572 -0.171491 0.106857 0.0394271 -0.0724777 -0.388267 0.2918 -0.0632727 0.0234664 -0.301288 0.0747192 -0.122325 -0.233752
23217907 -0.0922656 0.240012 0.200915 -0.420702 -0.0425247 0.134051 -0.0559336 -0.0728368 -0.153418 -0.239463 -0.167755 0.267142 -0.173408 -0.100259 0.21476 -0.118447 0.105912 -0.193533 -0.0547436 -0.1616 -0.0180153 -0.393798 0.345469 -0.261236 -0.0430049 -0.0707743 0.228653 -0.225317 0.0492973 0.271473 -0.242186 0.0369631 -0.0448908 0.0187504 0.0233106 0.0993358 -0.217498 -0.321248 0.0186333 0.0475251 0.227684 -0.0559812 0.0232753 0.154499 0.134991 -0.458302 -0.187754 -0.0400126 -0.140347 -0.207191 -0.183651 0.116591 -0.121587 0.177144 0.0233079 -0.262469 -0.209805 0.321461 0.0552341 -0.0374583 0.143314 0.0788914 -0.278514 -0.0330439 -0.289662 -0.148016 -0.38564 -0.0564613 1.00524e-05 -0.195154 -0.140047 0.243069 0.467883 0.113513 0.114839 -0.212548 0.317539 0.263615 -0.465456 0.09757 0.246078 0.0147691 0.0430209 0.232938 0.140627 -0.256545 -0.302064 -0.206813 -0.310756 0.0497066 -0.168223 -0.0230862 -0.41755 0.220147 0.0164934 -0.054468 -0.369366 0.0779608 -0.157591 -0.281069
16672510 0.0809927 0.283061 0.113781 -0.30033 -0.126498 0.0159839 -0.19386 0.0554279 -0.0974386 -0.24375 -0.504635 -0.00889315 -0.0423591 0.039432 0.119675 -0.11811 0.292024 -0.346177 -0.0895271 -0.0936402 -0.177604 -0.346973 0.215914 -0.125976 0.0031732 -0.061697 0.259186 -0.21623 -0.0114659 0.187404 -0.243005 0.0519293 0.0201656 0.0777634 -0.158542 0.19391 -0.0456587 -0.315777 -0.0529595 0.192471 0.197903 -0.057495 0.0590331 0.0988597 0.155901 -0.37351 -0.237956 -0.212036 0.0838709 -0.156707 -0.161526 0.11044 -0.0365514 0.250403 -0.0102673 -0.163369 -0.31271 0.209891 0.0680421 0.0896124 0.0683753 -0.000598856 -0.0925077 0.013783 -0.171541 -0.197282 -0.360147 -0.270434 0.26259 -0.227311 -0.0587976 0.300952 0.348376 0.126026 0.0424784 -0.0883185 0.0207136 0.140871 -0.422349 -0.0772164 0.301008 -0.0668121 -0.13646 -0.0543628 0.205891 -0.305372 -0.181772 -0.0595697 -0.405793 0.0360844 0.0469123 -0.0675295 -0.428711 0.313937 -0.0117478 0.178548 -0.301504 0.094397 -0.21651 -0.145397
25518310 -0.00047702 0.0737619 0.24648 -0.34821 -0.0289871 0.0944373 -0.0821932 0.0138501 -0.173792 -0.246612 -0.237215 0.175202 -0.191462 -0.136826 0.0641633 0.0328224 0.116464 -0.15854 0.0364276 -0.139711 -0.011946 -0.324073 0.320179 -0.19129 -0.0891964 0.0362677 0.178922 -0.143042 0.101259 0.290913 -0.188615 0.0298308 -0.0722588 0.0324295 0.0732338 0.112048 -0.202655 -0.360471 -0.0441596 0.0830237 0.313227 -0.0826706 -0.0188323 0.143045 0.0232772 -0.501619 -0.218243 0.0390467 -0.0546209 -0.14974 -0.23269 0.178986 0.0777424 0.0955774 0.0543614 -0.217527 -0.211551 0.462586 0.110422 0.0551363 0.079461 0.0165216 -0.275193 0.0455614 -0.234941 -0.0973214 -0.349805 -0.0951913 0.00743697 -0.238231 -0.0972067 0.0717483 0.422919 0.157702 0.108697 -0.109147 0.2862 0.280137 -0.369988 0.0921289 0.193202 -0.00570411 0.0433048 0.256737 0.151073 -0.10149 -0.31107 -0.249414 -0.310724 0.0539716 -0.0679806 0.0422586 -0.355712 0.0767075 0.0685222 0.021241 -0.313099 0.0227793 -0.158951 -0.260396
20230544 0.162062 -0.161383 0.0766632 -0.229844 0.00998305 0.0263828 -0.274195 0.159507 -0.013911 -0.108705 -0.407301 0.0644519 -0.279593 -0.239448 0.0157881 0.225191 0.285345 -0.273395 0.139116 -0.0249917 -0.110744 -0.164094 0.381276 -0.371689 -0.134256 0.0801898 0.211214 -0.154816 0.249871 0.0898802 0.0376082 0.00390095 -0.115652 -0.199623 -0.0314932 0.236448 0.0191913 -0.3288 0.0421979 0.180406 0.159628 0.0574108 -0.0571054 0.151259 0.0686077 -0.611537 -0.121904 -0.169123 -0.115229 -0.252418 -0.102443 0.282314 0.179767 0.141866 0.131273 -0.0548876 -0.452473 0.317199 0.220757 0.326655 0.0247432 -0.154528 -0.160995 0.00261189 -0.0646892 -0.107549 -0.389962 -0.160003 -0.0276682 -0.324733 0.0366088 0.0347957 0.301569 -0.0613625 0.211413 0.126401 0.0307572 0.227593 -0.345242 -0.078667 0.354239 0.114845 -0.258077 0.157883 0.0995712 0.0991566 -0.0760121 -0.230333 -0.274184 0.0785775 0.187364 0.0926458 -0.371607 0.0583346 0.232505 0.0101423 -0.234673 -0.00527616 -0.247239 -0.187545
20586322 0.133774 0.0695958 0.107346 -0.326832 -0.00221635 0.0618339 -0.235831 0.135816 -0.0764738 -0.188027 -0.504235 0.0509006 -0.126492 -0.19972 0.00575102 0.103103 0.231142 -0.217664 0.129447 0.0133737 -0.0829711 -0.266656 0.272804 -0.331706 -0.084237 0.0724006 0.120373 -0.0905942 0.206258 0.08001 -0.0731534 -0.0131583 -0.113233 -0.124855 0.0024926 0.199106 -0.0488199 -0.346744 0.0486323 0.11304 0.258964 0.0976962 -0.0419366 0.113923 0.0228958 -0.450015 -0.146195 -0.17729 -0.0721708 -0.168667 -0.0678957 0.114334 0.0823051 0.100229 0.0629271 -0.134854 -0.376577 0.260874 0.183195 0.250076 0.00419553 -0.178953 -0.169487 0.0221036 -0.0187173 -0.0875904 -0.24454 -0.111439 0.0546124 -0.289676 0.0948763 0.214448 0.207461 0.0245701 0.234348 0.0799839 0.0819575 0.214061 -0.348326 -0.035972 0.270066 0.0629477 -0.236841 0.148556 0.142003 -0.0451446 -0.143939 -0.152449 -0.245994 0.0144194 0.154526 0.179186 -0.282057 0.121936 0.259131 0.0222953 -0.247987 -0.0232211 -0.217725 -0.208782
636483 0.0764122 0.130643 0.191618 -0.316836 -0.0100789 0.063033 -0.234501 0.0694678 -0.0380251 -0.105527 -0.595367 0.063645 -0.223637 -0.182515 0.107561 -0.0236685 0.273204 -0.298735 0.151793 0.0430337 -0.0985389 -0.247225 0.171134 -0.20349 -0.0148953 0.151258 0.273005 -0.0753748 0.0763839 0.205092 -0.156492 -0.0499343 -0.111256 0.0308614 -0.0205946 0.111204 0.0185228 -0.437833 -0.0915892 0.0860647 0.156116 0.224935 0.0373578 -0.042294 0.0597462 -0.321203 -0.127787 -0.232143 0.0533319 -0.178145 -0.165462 -0.0182371 0.0517318 0.214949 -0.0664686 -0.147995 -0.260437 0.14876 0.129802 0.0811598 0.0993764 -0.205415 -0.184936 0.142172 0.0163485 -0.0953472 -0.226219 -0.203239 -0.11303 -0.201813 -0.0381547 0.388289 0.367484 0.00381232 0.181174 0.0245377 0.0995615 0.151438 -0.329346 -0.00209303 0.213665 0.0209618 -0.193028 0.259157 0.17289 -0.0715479 -0.263462 -0.0644424 -0.0770361 0.0771273 0.0783703 0.162184 -0.381382 0.180173 0.146683 0.0442602 -0.263199 -0.0836299 -0.237322 -0.248583
86245274 0.102231 0.0862027 0.0280208 -0.259366 -0.092174 0.0535788 -0.22077 -0.0164111 -0.04436 -0.274396 -0.557741 0.0486809 -0.106042 -0.159133 0.151667 0.0432734 0.297829 -0.166316 0.0477091 0.00308775 -0.103675 -0.13622 0.304238 -0.221279 -0.213351 0.0490251 0.16209 -0.283498 0.0801487 0.100347 0.0283066 -0.0641625 0.0550544 -0.0921158 -0.167898 0.176738 0.0731317 -0.417782 -0.0419271 0.362021 0.148428 0.0417202 -0.0713362 0.0824957 0.162791 -0.366262 -0.0236737 -0.295978 -0.0428297 -0.177306 -0.0300166 0.0619853 0.232361 0.135441 0.198145 -0.160555 -0.455426 0.307678 0.140826 0.279057 -0.0891448 -0.0584172 -0.219597 -0.0226131 -0.126578 0.0247604 -0.32286 -0.187747 0.084419 -0.361807 0.0639129 0.231214 0.15105 0.00248165 0.216374 0.0635077 0.162858 0.0394938 -0.475211 0.00458202 0.309557 -0.0528437 -0.125771 0.0905569 0.190444 0.103504 -0.291855 -0.167157 -0.215372 0.206508 0.0732871 0.253191 -0.182651 0.062079 0.226053 0.139 -0.339721 -0.102642 -0.271294 -0.133715
19504952 0.0660812 0.0273447 0.0909742 -0.214391 -0.198773 0.0850533 -0.234757 -0.0101503 0.0979608 -0.189338 -0.48272 0.156495 -0.232387 -0.190729 0.111803 -0.0617905 0.100593 -0.414232 0.101471 0.0105662 0.0282781 -0.270391 0.388995 -0.194437 -0.00993898 0.0678748 0.394947 0.00784485 0.188406 0.179987 -0.0578562 -0.0825354 -0.0287695 -0.0611211 -0.0721994 0.0807225 0.0352886 -0.472338 -0.0267923 0.143002 0.0943922 0.0818092 -0.0875096 -0.0521366 0.037564 -0.379833 -0.0848176 -0.156907 -0.159589 -0.382841 0.0178632 0.0312678 -0.105251 0.151028 0.00748487 -0.211172 -0.366271 0.236713 0.17116 -0.0174403 0.00211987 -0.112558 -0.217862 -0.0890594 -0.177086 -0.0698573 -0.367829 -0.188319 0.0535134 -0.311648 -0.0536895 0.351491 0.194051 0.195828 0.150927 -0.0451901 0.0962753 0.167482 -0.406357 -0.0208396 0.150703 0.134665 -0.205195 0.0818311 0.0819526 0.0677606 -0.22506 -0.0364445 -0.326398 0.0302423 -0.0584687 0.185097 -0.218434 0.223614 0.232674 0.225951 -0.219537 0.0262852 -0.14896 -0.125693
22655610 0.0314074 0.0761313 0.128882 -0.407523 0.209444 0.177426 -0.284645 0.0584456 -0.159589 -0.0159595 -0.423996 0.170703 -0.307753 -0.167109 0.117692 -0.0545542 0.188224 -0.282909 0.143788 -0.0593495 -0.202363 -0.123986 0.294593 -0.380082 0.154487 -0.139428 0.148758 -0.1931 0.271014 0.258812 -0.108281 -0.0906089 -0.0813617 -0.174637 0.0636852 0.150387 -0.16144 -0.151446 0.0478039 0.018244 0.0840103 0.0400637 0.0938524 0.117761 0.0634982 -0.506154 -0.144239 -0.191577 -0.0628185 -0.0954002 0.0352638 0.111658 -0.0583282 0.230724 -0.0601196 -0.142186 -0.162379 0.0777298 0.325918 0.188173 0.168483 -0.120309 -0.200503 -6.89042e-05 -0.0160568 -0.320176 -0.288638 -0.0794956 -0.0216292 0.0634649 0.0966061 0.145727 0.247169 -0.130138 0.183427 0.11894 0.0486094 0.358384 -0.392377 0.0187603 0.339934 -0.0980381 -0.386005 0.133676 0.108973 -0.361838 -0.130672 -0.119163 -0.104829 -0.0724439 0.18904 -0.0140758 -0.2807 0.188803 0.10903 -0.103931 -0.212963 -0.018237 -0.0646051 -0.391452
176930274 -0.187433 -0.00326047 0.0132443 -0.415768 0.126811 0.227371 -0.129336 -0.0735412 -0.114682 -0.0785698 -0.181926 0.166821 -0.278007 -0.04305 0.240992 0.0249167 -0.0166088 -0.262071 0.00832643 -0.0344585 -0.142689 -0.190562 0.220085 -0.379327 -0.066259 -0.0661678 0.292939 -0.335802 0.0155518 0.171908 -0.0286636 -0.0288838 0.0220837 -0.0822359 -0.12338 0.216537 -0.300804 -0.126416 0.173046 0.0195319 0.0548131 0.0491153 0.0207096 0.150607 0.180621 -0.55258 0.0461175 -0.147442 -0.0216525 -0.0759442 0.1516 0.135685 -0.127491 0.139032 0.137535 -0.0958704 -0.382342 -0.0681681 0.152711 0.225562 0.0391806 -0.101407 -0.341602 -0.0922656 -0.0641549 -0.0793783 -0.331104 -0.204412 0.0411209 -0.200637 -0.0103718 0.221659 0.245653 -0.230848 0.298815 -0.00969896 0.231873 0.207374 -0.545167 -0.0580581 0.415939 -0.0217857 -0.105259 0.197421 0.100814 -0.254332 -0.2701 -0.146799 -0.172577 -0.0929414 0.00807393 0.00817982 -0.281441 0.21492 0.119948 -0.123911 -0.253262 -0.0214186 -0.184443 -0.3286
386654472 -0.0464036 0.155296 0.068147 -0.334513 0.212785 0.127493 -0.173411 0.0608628 -0.147077 -0.215149 -0.367874 0.182391 -0.207873 -0.108898 0.0175734 0.0380023 0.193359 -0.177357 0.218514 -0.105414 -0.0431331 -0.281513 0.181571 -0.235252 0.0778997 -0.0911886 0.256925 -0.190889 0.283024 0.24151 -0.124186 -0.0827544 -0.129554 0.0967783 0.1706 0.278523 -0.182535 -0.189768 -0.0266353 -0.073897 0.190258 0.00760076 0.0829007 0.107185 -0.0391972 -0.548549 -0.136995 -0.147 -0.163365 -0.0916582 -0.0571552 0.223561 -0.0983512 0.154464 0.0246346 -0.158963 -0.190203 0.13227 0.264476 0.113671 -0.00351616 -0.206941 -0.295367 0.0646466 -0.0354832 -0.212075 -0.191439 -0.022544 -0.0676566 -0.0536807 -0.0406253 0.199461 0.283503 -0.106032 0.120927 -0.0843214 0.0409828 0.276466 -0.354233 -0.0135126 0.180969 0.112485 -0.267777 0.191396 0.156424 -0.212147 -0.11528 -0.189527 -0.301913 -0.126411 -0.0528382 0.245274 -0.340364 0.125377 0.256778 -0.0139754 -0.181132 0.00855574 -0.224396 -0.415408
234277625 0.0516111 -0.119123 0.0627173 -0.354565 0.0482001 0.128041 -0.160085 0.097818 -0.0681811 -0.0857459 -0.305158 0.0815222 -0.273952 -0.0621029 0.15812 0.172347 0.120439 -0.348198 0.176114 -0.0266847 -0.214688 0.010026 0.254698 -0.42399 -0.0743893 -0.072982 0.258534 -0.280194 0.255225 0.147114 0.00424216 -0.0470589 -0.0601862 -0.0932585 -0.0698193 0.221152 -0.13101 -0.258407 0.0769541 0.0572513 -0.00308669 0.0304333 0.0500957 0.0918693 0.165117 -0.522346 -0.045522 -0.0763603 -0.0891958 -0.154215 -0.0288681 0.182104 0.0615839 0.259839 0.0414467 -0.123189 -0.288327 0.0341021 0.220792 0.294845 0.0515867 -0.100915 -0.185275 -0.0466606 -0.0239295 -0.229166 -0.369792 -0.146521 0.0112536 -0.120366 -0.0297547 0.0551148 0.241122 -0.108392 0.212504 0.0946362 0.0485878 0.305419 -0.29059 -0.057709 0.41707 0.00788862 -0.314677 0.137895 0.0961309 -0.149214 -0.145764 -0.11025 -0.153498 0.0281894 0.0836157 -0.0158166 -0.333791 0.182059 0.0805513 -0.0581746 -0.207913 -0.129574 -0.157071 -0.322189
17099702 -0.0764574 0.270272 0.192634 -0.47733 0.13815 0.163644 0.0304806 -0.0987147 -0.0897873 -0.312605 -0.251066 0.060305 -0.0854717 -0.097563 0.0713499 -0.144413 0.159144 -0.206559 -0.00463774 -0.0103094 -0.026607 -0.52136 0.0888984 -0.16776 -0.171752 0.0218718 0.196036 -0.174452 -0.034197 0.198649 -0.1237 -0.0479003 -0.0339011 -0.0359998 0.0808523 0.308859 -0.196224 -0.14158 0.0303694 0.232014 0.290712 -0.0144493 0.0295458 0.256982 0.144686 -0.427072 -0.151086 -0.137058 -0.0305763 -0.336385 -0.128302 0.231914 -0.125027 0.0601426 0.0499242 -0.0043136 -0.5349 0.275837 0.267155 0.182141 -0.0313504 -0.0553539 -0.191829 -0.02752 -0.141814 -0.0215147 -0.404709 -0.0585414 0.0896382 -0.364252 0.0705369 0.098741 0.135212 -0.123184 0.148807 -0.0688922 0.0994734 0.0126211 -0.550425 -0.128232 0.216767 0.264594 0.0552066 0.197962 0.138143 -0.185847 -0.335431 -0.0514363 -0.518788 0.0330746 -0.0309647 0.057624 -0.141041 0.182944 0.250376 0.0785414 -0.266389 0.0266454 -0.333632 -0.170231
17898692 0.0490511 0.0355077 0.303587 -0.279883 -0.163229 0.0235068 -0.0544268 0.0596405 0.0143215 -0.104186 -0.481849 0.0589681 -0.0964016 -0.159894 0.0909346 -0.0428173 0.0239498 -0.294153 -0.00280501 -0.0207592 -0.0298732 -0.304048 0.258155 -0.303519 -0.0070734 0.103538 0.305466 0.0277582 0.176989 0.111959 -0.178053 0.0282491 -0.0193356 0.00819831 -0.109678 0.105688 -0.0910647 -0.383092 0.05529 0.0719632 0.245155 0.236657 -0.0692794 -0.0133989 -0.0185015 -0.442904 -0.10511 -0.184484 0.00354041 -0.202882 -0.0954591 -0.0796296 -0.042165 0.167843 -0.0851448 -0.273989 -0.265433 0.0941937 0.141523 0.0582534 0.126217 -0.0892535 -0.291436 -0.0231587 -0.0632201 -0.0768804 -0.276002 -0.203831 0.118991 -0.165101 -0.0837076 0.345216 0.237117 0.159476 0.184979 -0.104692 0.0916274 0.227278 -0.452372 0.0155759 0.260766 -0.0713271 -0.182973 0.142971 0.0955093 -0.212022 -0.33718 -0.0936298 -0.110027 -0.113546 0.0271813 -0.00476879 -0.317548 0.274926 0.056618 0.0250356 -0.243518 -0.029666 -0.28438 -0.317939
270315611 0.0927334 0.249228 0.0238278 -0.464228 -0.175117 0.124765 -0.224285 -0.0423609 -0.0163152 -0.322514 -0.535584 0.0303163 -0.109246 0.103959 0.155775 -0.229639 0.186091 -0.37552 -0.10977 -0.0577343 -0.0963662 -0.298425 0.21408 -0.182409 -0.0842099 0.00315966 0.339704 -0.224912 0.112669 0.19696 -0.127527 -0.146429 0.0708786 -0.0190807 -0.139021 0.0569565 -0.0448363 -0.394993 -0.0749211 0.265885 0.10299 0.00684701 0.0700454 0.0261527 0.238863 -0.197459 -0.107345 -0.186382 0.0162657 -0.224426 0.00434205 0.00388657 -0.176426 0.26867 -0.0936806 -0.260452 -0.327791 0.153288 0.183753 -0.0349752 -0.0513471 -0.0287826 -0.122596 -0.1055 -0.200723 -0.124957 -0.336028 -0.253807 0.261549 -0.289243 -0.0600186 0.36261 0.261709 0.251258 0.078545 -0.0148476 -0.0202241 0.150016 -0.523958 -0.0724382 0.11062 -0.0466002 -0.0586291 3.20298e-05 0.162316 -0.26793 -0.237945 0.103668 -0.282386 0.0582084 -0.0175354 0.0834013 -0.197297 0.303466 0.184777 0.233123 -0.301608 0.0225702 -0.202684 -0.178686
87416722 0.0317488 0.367476 0.13766 -0.418994 0.0910641 0.158157 -0.116741 0.00647165 -0.135939 -0.304453 -0.411799 0.0463445 -0.0331966 -0.0548722 0.0355675 -0.14557 0.196877 -0.123077 0.0112441 -0.125416 -0.0535655 -0.49158 0.149562 -0.14595 0.0161792 -0.00352989 0.156541 -0.183864 0.114425 0.257113 -0.143049 -0.0795461 0.0364817 0.0930936 0.16671 0.266174 -0.159797 -0.256978 -0.113015 0.118836 0.316518 -0.038979 0.0698833 0.179583 -0.00577641 -0.45033 -0.259271 -0.197458 -0.081027 -0.20522 -0.0926301 0.157057 -0.170031 0.129384 0.0115385 -0.222983 -0.267602 0.237748 0.206484 0.129472 -0.0525942 -0.101354 -0.237073 0.0312695 -0.1539 -0.116687 -0.23934 -0.0658012 0.129775 -0.298141 -0.00521133 0.239768 0.223797 0.0623144 0.0500251 -0.161717 0.0651259 0.202455 -0.426527 -0.0521106 0.118128 0.15558 -0.031196 0.0619112 0.169873 -0.292251 -0.194618 -0.0902412 -0.495056 -0.109357 -0.0477546 0.209869 -0.28395 0.249051 0.180643 0.135485 -0.252349 0.0591075 -0.242094 -0.274161
20918560 0.146905 -0.0607513 0.0904061 -0.233406 -0.184682 0.146741 -0.312499 0.0524991 0.046045 -0.205726 -0.63602 0.0118264 -0.182725 -0.0179891 0.0188327 -0.0236065 0.204759 -0.315438 0.072001 0.0354429 -0.0455657 -0.155545 0.240199 -0.179238 -0.0592832 0.220114 0.39477 -0.0683613 0.265254 0.153073 -0.0738906 -0.0653685 -0.00781588 -0.0431538 -0.184776 0.0445965 0.0541944 -0.523161 -0.0364502 0.186245 0.174928 0.157564 -0.0197472 -0.0607453 0.0222816 -0.304679 -0.0589261 -0.246756 -0.0282971 -0.165642 0.0155732 0.0260506 -0.00743119 0.158058 -0.0657961 -0.265813 -0.267126 0.121309 0.204044 -0.00334914 -0.0752932 -0.179442 -0.246884 0.026662 -0.0730713 -0.0257135 -0.255636 -0.283671 -0.00597683 -0.257196 -0.0414237 0.349099 0.230326 0.229567 0.192218 0.0558036 -0.0471769 0.178694 -0.476413 -0.0551026 0.0741726 0.0180615 -0.109566 0.140501 0.142413 -0.0225061 -0.244774 -0.0336361 -0.0911632 0.0386041 0.0415159 0.20784 -0.19871 0.156586 0.309916 0.1484 -0.24241 -0.00800442 -0.2086 -0.229899
20639217 -0.105051 0.0585198 0.0918146 -0.35985 -0.0460422 0.146884 -0.0672692 -0.0821639 -0.054651 -0.0997404 -0.413711 0.211781 -0.226905 -0.0352271 0.259907 0.0294132 0.0145313 -0.121448 0.17163 -0.00627097 -0.0881804 -0.218714 0.23266 -0.272779 0.0296402 0.134928 0.361523 -0.0926191 0.0823185 0.0577691 -0.0947458 -0.0080563 -0.0959744 0.0846605 -0.0978712 0.0973986 -0.229256 -0.310506 0.0956389 -0.0496575 0.14908 0.160647 0.0109208 0.0658696 0.0674475 -0.433509 -0.0541962 -0.145467 -0.0779352 -0.0675603 0.135779 -0.0988144 -0.198902 0.0863482 0.0402611 -0.233341 -0.186126 0.0136044 0.185277 0.0816622 0.0715404 -0.217797 -0.324961 -0.0242037 0.0586397 -0.0133488 -0.304019 -0.183497 0.00980781 -0.183478 0.0012154 0.400299 0.119902 0.0289846 0.315103 -0.0509989 0.133863 0.28507 -0.59797 0.103641 0.32832 -0.129237 -0.228012 0.312773 0.182458 -0.154213 -0.354432 -0.210697 -0.158695 -0.124878 0.020557 0.213186 -0.249692 0.140525 0.200166 -0.0963455 -0.145091 -0.13464 -0.184713 -0.42153
5402612 0.0853838 0.217907 0.100183 -0.420544 -0.0306363 0.0797543 -0.217984 0.0504674 -0.099594 -0.151366 -0.448655 0.0943724 -0.178334 0.044254 0.0688603 0.0427358 0.230493 -0.199345 -0.00978043 -0.162832 -0.0788979 -0.300523 0.198995 -0.239711 -0.108292 0.141987 0.320973 -0.23907 0.0417054 0.0871949 -0.0917245 0.0616079 -0.0522396 0.192817 -0.0143511 0.156062 -0.189915 -0.330846 -0.0332502 0.077439 0.286349 0.0548545 0.126946 0.143884 0.143177 -0.447694 -0.193578 -0.0405279 0.0897164 0.0263803 -0.088019 0.0729867 -0.0312997 0.253137 -0.0766612 -0.138562 -0.223769 0.096707 0.21989 0.0584359 -0.0163342 -0.223214 -0.162444 0.0215157 -0.0401304 -0.108017 -0.293613 -0.198234 0.0912862 -0.184346 -0.130043 0.316905 0.494914 0.101903 0.0705165 -0.0179345 0.0826204 0.358135 -0.488861 0.0506366 0.278295 -0.0977426 -0.146734 0.284125 0.170917 -0.224536 -0.133301 -0.136322 -0.248766 -0.0674075 0.108136 0.219984 -0.418109 0.154965 0.0905333 -0.0130831 -0.229994 -0.20297 -0.213994 -0.355279
20032225 -0.083917 0.11865 0.062899 -0.393509 0.0166978 0.0313745 0.00108463 -0.0216263 -0.131575 -0.252019 -0.429114 0.193319 -0.0242893 -0.140048 0.231012 0.10013 0.188255 0.0740415 0.0986607 -0.0768342 -0.172304 -0.246285 0.280054 -0.302438 -0.0100133 0.0600275 0.190804 -0.154344 0.151857 0.0729119 -0.0427259 -0.0413028 -0.115849 -0.053137 -0.168576 0.0680229 -0.163044 -0.346285 -0.0236462 -0.00349356 0.180204 0.0740335 0.0283498 0.107741 0.17578 -0.429732 -0.0711314 -0.264467 -0.109758 0.00452788 -0.0301402 -0.0924508 0.00105556 0.118974 0.138335 -0.318381 -0.210083 0.134692 0.128561 0.184107 0.0250387 -0.0224309 -0.266507 -0.108388 0.0418167 -0.131997 -0.34436 -0.0655158 0.143429 -0.189565 0.14003 0.280228 0.105898 0.0252255 0.28322 0.0351624 0.160164 0.179685 -0.605435 0.178865 0.359822 -0.286127 -0.234081 0.0952422 0.302765 -0.224457 -0.404079 -0.200274 -0.162173 0.0208374 0.148353 0.0776511 -0.172395 0.127364 0.0866811 0.0199203 -0.270195 -0.067471 -0.174112 -0.37574
271123223 -0.0440705 -0.10213 0.169135 -0.235122 -0.0098527 0.146203 -0.0708622 0.0383543 -0.0197612 -0.118258 -0.429059 0.0637055 -0.203362 -0.0545539 0.162378 0.0233714 0.0658075 -0.207962 0.0813453 -0.0225369 -0.124456 -0.166419 0.214999 -0.313482 -0.00356467 0.0877255 0.400952 -0.200089 0.0641888 0.150321 -0.0720697 0.0453648 0.0523639 -0.000833227 -0.185402 0.120063 -0.0472556 -0.327427 0.0694343 0.106993 0.162758 0.101197 0.00932929 0.013968 0.0591003 -0.463423 -0.00110143 -0.204947 0.00848291 -0.134191 -0.0938409 0.0340051 0.080306 0.179599 0.0592011 -0.196508 -0.280775 -0.00952437 0.159098 0.144545 0.0090974 -0.0827546 -0.320407 0.00560979 -0.0703207 -0.0625514 -0.291096 -0.336635 0.00313312 -0.183743 -0.119229 0.237626 0.290658 -0.0123571 0.156557 -0.0793903 0.0792397 0.224415 -0.466247 0.0917361 0.3615 -0.0183623 -0.191048 0.132463 0.0937862 -0.201971 -0.33945 -0.15568 -0.246347 -0.0393111 0.045893 -0.0104428 -0.353857 0.258703 -0.0484763 -0.0334156 -0.238549 -0.0194996 -0.227126 -0.256611
177555646 -0.082218 0.134674 0.138397 -0.448918 0.03563 0.303972 -0.0990443 0.176595 -0.0788311 -0.0979805 -0.14383 0.126983 -0.0487863 0.0309792 0.145465 -0.000226649 0.0376656 -0.211296 -0.14257 -0.177969 -0.0312179 -0.296263 0.120821 -0.460096 -0.105952 -0.0479276 0.161842 -0.295551 0.138214 0.206553 -0.187086 0.0989642 0.0997604 0.0222786 -0.0139276 0.142667 -0.23267 -0.144384 0.160872 0.0989566 0.20655 0.0539448 0.0612977 0.172523 0.223722 -0.544628 -0.0865204 -0.106606 -0.0733472 -0.10993 -0.101357 0.168862 -0.0621315 0.193325 -0.0669353 -0.117025 -0.2737 0.00765745 0.0686277 0.0242169 0.0302792 -0.0541148 -0.317364 -0.124864 -0.1602 -0.190024 -0.23755 -0.0486169 0.00368694 -0.206619 -0.188359 0.306042 0.59844 -0.00348795 0.0728551 -0.166152 0.272602 0.302544 -0.346288 -0.050559 0.266485 0.128423 -0.027892 0.202433 0.020791 -0.336709 -0.189626 -0.102826 -0.264518 -0.0280832 -0.0987357 -0.118589 -0.422177 0.316183 -0.0532332 -0.145172 -0.382014 0.0447626 -0.286099 -0.340079
813286 -0.088835 0.244672 -0.0321137 -0.511167 0.0830569 0.291026 -0.165081 0.166629 -0.101786 -0.213283 -0.192151 0.0572575 -0.0198028 0.100257 0.0817342 -0.00583601 0.151649 -0.272628 -0.0259443 -0.134437 0.0227609 -0.287813 0.0779158 -0.303325 -0.135273 -0.0457478 0.156183 -0.277633 0.31832 0.241542 -0.188053 -0.0459538 0.0169882 0.0751737 -0.00646878 0.261802 -0.269897 -0.176222 0.0476647 0.0698918 0.141458 0.0372586 0.117218 0.11865 0.214597 -0.551941 -0.115815 -0.114221 -0.125226 -0.0332944 -0.077968 0.284956 -0.143427 0.191737 -0.0332471 -0.118495 -0.254644 0.0177284 0.0862256 0.0786089 -0.0236181 -0.167032 -0.329266 -0.0903631 -0.130071 -0.206507 -0.214554 0.0118211 -0.0239663 -0.212211 -0.12046 0.368422 0.424897 0.0419115 0.105965 -0.0872757 0.0792628 0.319295 -0.333148 -0.221343 0.0754516 0.208637 -0.0680827 0.222499 0.120163 -0.298123 -0.124274 0.00392409 -0.280971 -0.0165422 -0.15601 0.078472 -0.362976 0.263045 0.212051 0.0232037 -0.319246 -0.0110785 -0.273972 -0.495957
306798919 -0.0271579 -0.00737375 -0.00475983 -0.372822 -0.0551939 0.26479 -0.119012 0.174866 -0.0197285 -0.101608 -0.375208 0.0592455 -0.0372181 0.00488879 0.174189 0.217333 0.0856859 -0.0363187 -0.0456901 -0.0571507 -0.0743112 -0.127848 0.215085 -0.403623 -0.204781 0.115381 0.131467 -0.278721 0.214769 0.0353744 -0.00407975 0.0325659 0.0316202 0.0243462 -0.17193 0.0671864 -0.132781 -0.282191 0.106732 0.148229 0.192374 0.135763 -0.00583595 0.0774439 0.258671 -0.486561 0.0450182 -0.219889 -0.0438866 0.0544664 0.0620565 0.0317584 0.126046 0.102721 0.115765 -0.136141 -0.329987 0.0940878 0.0568322 0.166722 -0.0788761 -0.178081 -0.336724 -0.197397 -0.0685519 -0.0405452 -0.248963 -0.0997808 0.0688367 -0.364006 -0.0295382 0.340282 0.401838 0.0625931 0.259421 0.0657832 0.22197 0.262617 -0.423819 -0.00120548 0.281944 -0.0703357 -0.152925 0.212821 0.123486 -0.00270108 -0.246178 -0.202984 -0.137108 0.028714 0.0607723 0.0941275 -0.291698 0.124944 0.0662006 -0.0951148 -0.312373 -0.0651084 -0.306737 -0.357306
35261025 -0.119315 0.42303 0.202278 -0.613833 0.169092 0.280636 -0.009408 -0.0748457 -0.146789 -0.216618 -0.566057 0.157667 -0.0664625 -0.0722574 0.296146 -0.127876 0.129209 -0.0455921 0.0779682 -0.00759615 -0.153169 -0.286593 0.213266 -0.203079 -0.0645719 -0.181471 0.0852886 -0.293667 0.204411 0.284858 -0.0912787 -0.271411 -0.0252849 0.133637 0.165877 0.0203255 -0.0965807 -0.25841 -0.175971 0.1673 0.221085 -0.0602601 0.199967 0.0386702 0.30771 -0.232737 -0.077636 -0.263361 -0.103703 -0.108669 0.00120955 -0.128027 0.0164469 0.219048 0.000930918 -0.182992 -0.36063 0.251602 0.37813 0.108112 -0.0404434 0.0372795 -0.192832 -0.249879 -0.217068 -0.218271 -0.280948 0.177482 0.108909 -0.191018 0.140487 0.180841 0.201916 -0.0222261 0.0927257 0.00698439 0.264302 0.16309 -0.515319 0.140054 0.163959 -0.0461216 -0.355587 0.184576 0.243404 -0.193096 -0.378855 0.0074286 -0.363517 0.0983208 0.0474019 0.209797 -0.0467138 0.250377 -0.0406958 0.0685051 -0.278535 -0.152297 -0.118002 -0.293777
20050520 0.133317 0.113771 0.141008 -0.364485 -0.0788198 0.010036 -0.251145 0.0135542 -0.0425769 -0.198407 -0.456297 0.00143228 -0.181409 -0.143179 0.075442 -0.0149962 0.223747 -0.424416 0.0359424 -0.0220927 -0.188634 -0.133464 0.325029 -0.288753 0.0546509 0.0496685 0.237325 -0.218593 0.163504 0.247083 -0.0435075 -0.121859 0.111309 -0.172479 -0.148513 0.246005 0.00279087 -0.435576 -0.0918213 0.155523 0.108978 0.0530173 0.059831 -0.00433136 0.041764 -0.403385 -0.160061 -0.250682 -0.01215 -0.179686 -0.15739 0.0434436 -0.0311521 0.262596 -0.0636668 -0.377745 -0.233517 0.0606053 0.11788 0.194494 0.150447 -0.000193418 -0.156918 0.0451982 -0.168248 -0.117373 -0.245718 -0.27779 0.176932 -0.189535 -0.0110766 0.192323 0.150821 0.0492457 0.0966261 0.00251134 -0.0462626 0.255705 -0.399264 -0.0556372 0.270997 -0.0921071 -0.168866 -0.0415788 0.076631 -0.289397 -0.241885 -0.0160974 -0.0526534 -0.071652 0.0969103 0.0366485 -0.315388 0.237547 0.0814305 0.153137 -0.214682 -0.129926 -0.115057 -0.248792
274470465 0.0819149 -0.103485 0.150249 -0.235033 -0.0571663 0.0943938 -0.206364 0.0881045 0.0137399 -0.163952 -0.397855 0.0953806 -0.257922 -0.162177 0.0287978 0.129951 0.145352 -0.281336 0.117465 -0.0199572 -0.0320673 -0.192284 0.333913 -0.262898 -0.107145 0.113058 0.314106 -0.12396 0.215187 0.171107 0.0132007 -0.0177343 -0.0556828 -0.0548357 -0.0493082 0.174126 -0.0110967 -0.394864 0.00620828 0.145237 0.21455 0.0556969 -0.040126 0.0625263 0.0098939 -0.495747 -0.122025 -0.11156 -0.105426 -0.24156 -0.0984094 0.191522 0.102871 0.127577 0.0598661 -0.155383 -0.365416 0.259529 0.210145 0.139484 -0.0160996 -0.131639 -0.24011 -0.0173658 -0.146349 -0.038102 -0.347326 -0.17761 -0.0155901 -0.265985 -0.0556311 0.112781 0.2935 0.0621302 0.168089 0.0208363 0.0709731 0.227843 -0.380817 -0.00760106 0.232669 0.109076 -0.161326 0.184042 0.0702922 0.0570868 -0.206305 -0.1691 -0.277954 0.0208381 0.0329481 0.147078 -0.297624 0.1085 0.192114 0.0632644 -0.218097 -0.0543374 -0.202832 -0.212523
49573859 -0.010463 0.0822203 0.160481 -0.467598 0.194816 0.428538 -0.223404 0.104844 -0.0854039 -0.0711333 -0.364155 0.0203352 -0.148326 -0.0402128 -0.0246399 -0.107562 0.0467665 -0.192882 -0.0676152 -0.104435 -0.0937678 -0.272247 0.160614 -0.347108 0.0126828 0.0181998 0.160399 -0.228502 0.367338 0.254005 -0.087382 -0.0661897 0.110882 -0.0923624 0.0645228 0.184349 -0.327644 -0.185066 0.0948427 0.107031 0.261064 0.121015 0.0967128 0.126414 0.0114592 -0.536806 -0.113774 -0.244764 -0.0372166 -0.0566379 0.148002 0.134443 -0.153197 0.103172 -0.0808419 -0.17322 -0.21118 -0.0523925 0.308406 0.0772833 -0.0206376 -0.142323 -0.400833 -0.0685828 -0.143115 -0.206505 -0.190344 -0.0279779 -0.0227625 -0.0826582 -0.0107781 0.225752 0.314578 0.0109616 0.200764 0.0173323 0.124445 0.369543 -0.471279 -0.110096 0.152023 0.0717586 -0.0414347 0.133381 0.0635399 -0.412158 -0.20243 -0.0755834 -0.11203 -0.157934 0.0318213 0.0232179 -0.228659 0.234401 0.163372 -0.117256 -0.281695 0.0839549 -0.166364 -0.426695
202736257 -0.16425 -0.0560863 0.0541379 -0.481362 0.220409 0.31196 -0.0943169 -0.00649427 -0.100414 -0.155619 -0.281105 0.1211 -0.248932 -0.140971 0.137082 0.0492281 -0.0437249 -0.2342 0.16665 0.0897676 -0.107594 -0.144296 0.258674 -0.39402 0.00997507 -0.0252486 0.268223 -0.197773 0.279208 0.173467 -0.0421885 -0.063386 -0.133729 -0.173466 -0.153751 0.191961 -0.357748 -0.219537 0.19367 -0.107847 0.135389 0.141701 -0.00102636 0.00854684 0.073878 -0.486399 0.0450109 -0.124524 -0.0836791 0.00736492 0.152427 0.0627034 -0.107349 0.0420297 0.105218 -0.179709 -0.339775 -0.0418028 0.200932 0.182616 0.0350521 -0.133318 -0.422644 -0.119612 -0.0497559 -0.135987 -0.314212 -0.0989888 -0.0209716 -0.0407704 0.112046 0.231039 0.102413 -0.147058 0.457918 0.151297 0.132731 0.306871 -0.477997 -0.0063364 0.314561 -0.0377008 -0.235218 0.197922 0.149439 -0.264078 -0.356398 -0.117612 -0.0745192 -0.122566 0.0314022 0.0431739 -0.182762 0.194562 0.204209 -0.136633 -0.214448 -0.018565 -0.0844692 -0.433117
166215202 0.0236867 0.0324039 0.131447 -0.53706 0.110663 0.320565 -0.220655 0.218792 -0.195635 -0.224556 -0.521838 0.153194 -0.125114 0.0373358 0.165235 0.106403 -0.0287435 -0.224628 0.184496 -0.0249675 -0.264073 -0.106385 0.230428 -0.432931 0.0939023 -0.142081 0.0641405 -0.212582 0.312946 0.402447 -0.103957 -0.239607 -0.0360919 -0.00901127 0.110731 0.0114825 -0.126559 -0.350452 -0.0393847 -0.0462273 0.16238 -0.120569 0.0823692 0.0904173 0.12484 -0.360032 -0.176447 -0.0814827 -0.102157 -0.164844 0.0681048 -0.0085034 0.0254132 0.184145 -0.0309617 -0.327328 -0.210902 0.195469 0.23511 0.159448 -0.0654395 -0.0419745 -0.229878 -0.154758 -0.0737793 -0.337848 -0.262291 -0.0561242 0.195101 -0.217903 0.102975 0.143718 0.271658 0.105407 0.173065 0.0744586 0.21624 0.328229 -0.201306 0.0808103 0.184214 -0.0755647 -0.457052 0.00939233 0.136917 -0.279684 -0.270799 0.00215526 -0.364759 -0.0702308 0.105715 0.0643241 -0.209964 0.327493 -0.0103677 0.0323066 -0.255038 0.0353036 -0.00692213 -0.275191
25659699 0.0360588 0.0834385 0.184033 -0.328223 0.0336087 0.1979 -0.171437 0.10372 -0.132281 -0.111141 -0.251257 0.190197 -0.23016 -0.122275 0.110119 -0.00295785 0.155103 -0.180216 0.100647 -0.16646 -0.0634362 -0.183327 0.288506 -0.341137 0.0948546 -0.0203784 0.17678 -0.205853 0.15573 0.286066 -0.20422 0.0500186 -0.0287019 -0.0362126 0.0625202 0.13358 -0.209395 -0.294194 0.0426601 0.0503352 0.178503 -0.0147184 0.0200555 0.116548 0.0266819 -0.554862 -0.233336 -0.0250523 -0.156555 -0.161971 -0.143633 0.210356 -0.0116704 0.13397 -0.0273754 -0.258642 -0.147522 0.272338 0.138714 0.0225425 0.13026 -0.00873544 -0.246482 0.0591504 -0.112774 -0.191326 -0.32176 -0.0201887 -0.0959576 -0.0871678 -0.119753 0.1615 0.443617 0.0319264 0.0974377 -0.102277 0.189158 0.357587 -0.277395 0.0880626 0.24988 0.00878168 -0.103762 0.198777 0.0958154 -0.226523 -0.241302 -0.163774 -0.179374 0.0199678 -0.0431301 -0.0127225 -0.403511 0.173236 0.0803322 -0.0358693 -0.296626 0.0343574 -0.112242 -0.32639
75888569 -0.0247217 -0.059598 0.16228 -0.404354 0.114457 0.458057 -0.241075 0.0388177 -0.0541568 -0.160198 -0.353683 0.0684886 -0.271423 -0.114997 0.0394436 -0.0078417 -0.0393373 -0.334337 0.0722402 0.0710937 -0.0455703 -0.129131 0.263719 -0.324891 -0.0794142 0.0144229 0.1642 -0.254747 0.198664 0.334544 -0.0474916 -0.0639975 0.0742404 -0.110463 -0.0349312 0.184339 -0.196958 -0.303377 0.141836 0.194171 0.25271 0.0226517 -0.0799274 0.0277145 0.0246381 -0.444463 -0.0336469 -0.0970743 -0.0450499 -0.196289 0.0785702 0.163618 0.0761902 -0.00624911 0.0646383 -0.135356 -0.438011 0.213954 0.206408 0.0911853 -0.0489572 -0.087173 -0.414132 -0.0564859 -0.27951 -0.0171211 -0.281083 -0.109228 -0.062847 -0.198299 -0.0117585 0.162993 0.285574 -0.0251595 0.315611 0.0593277 0.283868 0.222112 -0.351118 -0.0303164 0.188467 0.163896 -0.0862287 0.217486 0.00916334 -0.0169408 -0.362496 -0.111064 -0.203308 -0.0161941 -0.107534 0.133007 -0.186441 0.155846 0.186282 -0.0516591 -0.30264 0.0114867 -0.126723 -0.217029
1146211 -0.107751 0.129392 0.130725 -0.594702 0.189951 0.563112 -0.172958 0.14753 -0.110786 -0.094098 -0.205589 0.0597126 -0.0776016 0.124709 0.134146 -0.0515537 -0.0472418 -0.223016 -0.17017 -0.137391 -0.106165 -0.263596 0.0904436 -0.514148 -0.0564585 -0.0484439 0.101844 -0.39624 0.15893 0.304449 -0.137527 0.0128557 0.181929 -0.00304762 -0.0381392 0.169964 -0.375086 -0.109941 0.191217 0.156128 0.242843 0.0387523 0.0980566 0.212201 0.258625 -0.576477 -0.0784957 -0.126705 0.0195578 -0.0528265 0.0622959 0.162755 -0.0856326 0.153897 -0.0533879 -0.126295 -0.306316 -0.0830845 0.168498 0.0658799 -0.000369097 -0.0612735 -0.39737 -0.169629 -0.201814 -0.204314 -0.2732 -0.0554677 0.027641 -0.18878 -0.116659 0.318641 0.535793 -0.0627706 0.196567 -0.0765009 0.311214 0.369664 -0.427595 -0.0700464 0.263856 0.0800695 -0.070783 0.192165 0.019069 -0.443217 -0.288168 -0.0412463 -0.230152 -0.122707 -0.0531583 -0.094976 -0.360994 0.382338 -0.0713264 -0.194857 -0.391632 0.0130828 -0.205443 -0.405459
15401530 -0.0920282 0.157915 0.136557 -0.480552 0.0839803 0.245759 -0.0955728 0.151211 -0.0821255 -0.126778 -0.231494 0.134321 -0.0600413 -0.0295113 0.152133 0.0175844 0.107306 -0.22875 -0.104523 -0.138072 -0.0730942 -0.350678 0.1414 -0.467056 -0.144982 -0.057982 0.195367 -0.300545 0.136071 0.163819 -0.155156 0.0810911 0.0520995 -0.0108265 -0.0261699 0.18894 -0.213002 -0.148967 0.160937 0.113631 0.213528 0.0668499 0.0660734 0.199874 0.257163 -0.57142 -0.0653571 -0.186185 -0.0445153 -0.126437 -0.102692 0.163776 -0.0248335 0.221809 -0.0220964 -0.0533571 -0.392922 0.0265586 0.121632 0.12613 0.0153186 -0.0819985 -0.296249 -0.136662 -0.126152 -0.218273 -0.282201 -0.0815494 0.0334863 -0.248276 -0.109393 0.300511 0.550019 -0.0777035 0.103819 -0.101094 0.255413 0.265626 -0.431396 -0.0700437 0.346757 0.117024 -0.117825 0.205508 0.0692284 -0.323345 -0.194883 -0.117081 -0.348591 -0.00703622 -0.0150181 -0.105672 -0.40847 0.303751 -0.0182061 -0.119978 -0.384322 0.0349026 -0.330647 -0.331698
171580284 0.0620173 0.142708 0.158456 -0.421092 0.0613894 0.230539 -0.0938343 0.0673825 -0.124498 -0.125265 -0.48167 0.0529137 -0.1429 -0.0146964 0.11683 0.0932375 0.218944 0.0114204 0.010072 -0.133364 -0.101037 -0.19249 0.253804 -0.324874 -0.117452 0.0270727 0.154845 -0.343527 0.191112 0.100896 -0.0749105 0.0537972 -0.0252798 0.148924 0.0333099 0.0781709 -0.144945 -0.23606 0.00214066 0.174521 0.324843 0.0224022 0.143393 0.12788 0.194377 -0.497525 -0.0950778 -0.101263 0.0272396 0.106146 -0.100014 0.0704973 0.193951 0.221472 0.046227 -0.149752 -0.223047 0.227386 0.304204 0.160877 -0.010495 -0.136558 -0.213586 -0.0860936 -0.128222 -0.115337 -0.267974 -0.0593418 0.0574793 -0.167585 -0.0401842 0.137888 0.441063 0.0325689 0.10499 0.031974 0.163688 0.415226 -0.481829 0.154081 0.325143 -0.132343 -0.228847 0.287012 0.165804 -0.141041 -0.205211 -0.262735 -0.237742 -0.00207559 0.155068 0.138621 -0.339422 0.112968 -0.038881 -0.116984 -0.267623 -0.18642 -0.237581 -0.395967
53732896 -0.0557865 0.0470166 0.136466 -0.38984 0.242843 0.278447 -0.148513 0.0693002 -0.103039 -0.010822 -0.43721 -0.0171458 -0.145361 -0.0607901 0.069829 0.0277513 0.200834 -0.0514053 0.000489468 -0.0857371 -0.125276 -0.212941 0.201573 -0.23045 -0.0936334 -0.0784095 0.0818212 -0.27071 0.363524 0.220389 -0.0079372 -0.141232 0.014046 0.0369541 0.175409 0.171491 -0.112763 -0.115536 -0.0853732 0.184588 0.242457 0.0265817 0.155373 0.163147 0.146003 -0.550203 -0.0942861 -0.286991 -0.0424727 -0.056981 0.02984 0.196054 0.0970304 0.165722 0.102318 0.000411613 -0.294781 0.132402 0.372418 0.26835 -0.020372 -0.140482 -0.267369 -0.11566 -0.166507 -0.208674 -0.264943 0.0534249 -0.0731264 -0.183432 0.0412881 0.024638 0.28681 -0.080897 0.154614 0.0315363 0.0929634 0.241822 -0.459166 -0.0844027 0.182799 0.0757221 -0.248385 0.192172 0.160881 -0.150534 -0.106049 -0.179865 -0.294603 -0.00505565 0.129689 0.114852 -0.242448 0.123774 0.0308651 -0.0815375 -0.207881 -0.00852697 -0.208546 -0.370551
321897158 0.0224791 0.15974 0.168569 -0.427313 0.0851832 0.225424 -0.0431168 0.0789481 -0.167804 -0.102064 -0.378301 0.111995 -0.114531 0.00128209 0.157664 0.133924 0.204056 0.128461 -0.0162563 -0.188881 -0.0982746 -0.229441 0.239453 -0.358273 -0.116002 0.00104362 0.0987431 -0.35545 0.155696 0.0801172 -0.0863879 0.0861863 -0.0336926 0.175644 0.0833698 0.0607097 -0.184537 -0.179951 0.0171002 0.135433 0.338893 -0.00751015 0.159111 0.215089 0.224767 -0.52354 -0.127877 -0.065992 0.000383808 0.140587 -0.127449 0.0841467 0.190023 0.21402 0.0606957 -0.138231 -0.167715 0.247543 0.27904 0.148548 0.0119399 -0.104492 -0.188322 -0.0994581 -0.0963641 -0.117927 -0.266081 0.00486975 0.0345482 -0.163534 -0.052053 0.114679 0.506784 0.000183389 0.064318 -0.0203028 0.234833 0.426836 -0.452397 0.19776 0.333724 -0.170951 -0.220978 0.332581 0.157964 -0.15234 -0.188258 -0.30362 -0.258412 0.01141 0.145984 0.103168 -0.365262 0.0964936 -0.096786 -0.190234 -0.280733 -0.199562 -0.244608 -0.411856
22774705 -0.196696 0.16061 0.131444 -0.362691 0.284417 0.101879 -0.106541 -0.0848812 -0.181612 -0.215164 -0.413741 0.23884 -0.217687 -0.2475 0.15529 -0.0392224 0.131135 -0.120893 0.252838 0.0574448 -0.0645557 -0.270368 0.263845 -0.267764 0.0887803 -0.208539 0.192458 -0.169208 0.192463 0.252575 -0.139186 -0.150789 -0.187101 -0.0378509 0.0659275 0.218251 -0.131829 -0.210406 0.0566122 -0.101694 0.187195 0.0224302 0.0235061 0.0324452 -0.0205567 -0.427115 -0.0383918 -0.244961 -0.187389 -0.125713 -0.0290438 0.0599213 -0.0242583 0.0848782 0.138477 -0.186532 -0.330802 0.115196 0.270378 0.211775 0.0412666 -0.0508193 -0.310488 -0.0138114 -0.0644912 -0.15679 -0.198979 0.0230237 -0.0669565 0.0103238 0.149264 0.177349 0.078998 -0.228369 0.25628 -0.0333143 0.177654 0.164994 -0.436574 0.0921776 0.240351 0.0280735 -0.376846 0.202485 0.203443 -0.201022 -0.278639 -0.146693 -0.27548 -0.0375577 0.00498193 0.20528 -0.174837 0.198225 0.180864 -0.0672206 -0.222106 0.0294001 -0.103912 -0.323794
145195467 0.00172049 0.118926 0.175789 -0.366275 0.00689854 0.138298 -0.111328 0.0517289 -0.0614282 -0.181783 -0.290433 0.183445 -0.0977852 -0.107736 0.152406 0.0531285 0.106385 -0.0757882 -0.127935 -0.14001 -0.0698206 -0.389536 0.25357 -0.382001 -0.201141 0.00656911 0.177667 -0.242387 -0.035615 0.105279 -0.0051848 0.0673573 0.0933842 0.0180582 0.000609959 0.0846193 -0.0629739 -0.221445 0.053881 0.216817 0.289285 -0.037735 0.0017481 0.246594 0.234611 -0.455862 -0.0688018 -0.127955 0.0109128 -0.173508 -0.124037 0.0658933 0.148965 0.194846 0.0625945 -0.0359313 -0.433883 0.239402 0.172639 0.13526 -0.0589312 -0.0120134 -0.172651 -0.142435 -0.177292 -0.0892936 -0.327133 -0.132876 0.126523 -0.347972 -0.0570963 0.178835 0.53048 -0.0303122 0.0257484 -0.0670638 0.370739 0.175572 -0.443085 0.114235 0.356271 0.00151563 -0.129629 0.176981 0.0525323 -0.0724558 -0.206851 -0.185284 -0.476898 0.0779633 0.0551536 0.0142831 -0.300498 0.200575 -0.0960557 -0.0431758 -0.368799 -0.035857 -0.286192 -0.101926
40059553 -0.0759298 0.235007 0.248191 -0.578891 0.221745 0.52733 -0.0863872 -0.0745591 -0.134149 0.0070382 -0.437703 0.07627 -0.258898 -0.0107502 0.198897 -0.0758968 0.0389805 -0.0931641 0.0277019 0.000515939 -0.130576 -0.185856 0.159116 -0.333436 -0.0462367 -0.0329913 0.0894272 -0.384108 0.153403 0.272595 -0.139237 -0.076829 0.0323716 0.13221 0.140898 0.0412764 -0.276683 -0.128366 0.0451156 0.166967 0.273771 0.0481434 0.195313 0.0206983 0.21944 -0.390194 -0.0213512 -0.145576 0.0254177 0.0331209 0.0347998 -0.0290227 0.0205188 0.149791 -0.0711661 -0.129189 -0.238246 0.122489 0.400547 0.0576166 0.0705332 -0.0910729 -0.308312 -0.109022 -0.218877 -0.0834095 -0.146544 0.0492489 -0.0743812 -0.121353 -0.00379627 0.14777 0.365819 -0.104875 0.202328 -0.011437 0.267389 0.416865 -0.504596 0.120787 0.244505 -0.0118365 -0.16673 0.389979 0.0802516 -0.183723 -0.336383 -0.137276 -0.0568345 -0.0930562 0.0306124 0.139251 -0.209049 0.171857 -0.0328172 -0.21895 -0.263571 -0.213128 -0.156263 -0.412475
483329876 0.0763973 -0.176001 0.0935367 -0.187175 -0.0114867 0.032312 -0.185544 0.145914 0.0131927 -0.18702 -0.376837 0.0223605 -0.187372 -0.175039 0.0186031 0.243679 0.214648 -0.173505 0.129077 -0.00978547 -0.0341918 -0.151481 0.343957 -0.2688 -0.186572 0.140921 0.257669 -0.128701 0.308227 0.10295 0.072176 -0.0439074 -0.112657 -0.080062 -0.114005 0.214645 0.020081 -0.395584 -0.0181806 0.149554 0.202208 0.0985879 -0.0448115 0.088192 0.0558429 -0.536581 -0.0891562 -0.176862 -0.125417 -0.193114 -0.11649 0.236531 0.184816 0.125139 0.143758 -0.142177 -0.398538 0.249276 0.185338 0.254942 -0.0413823 -0.130148 -0.227634 -0.0307946 -0.091681 -0.0395967 -0.369787 -0.129426 -0.0650823 -0.286447 0.0117257 0.0704407 0.264708 0.0188377 0.224984 0.0970497 0.0162953 0.203894 -0.370554 -0.0546273 0.229369 0.0743013 -0.190927 0.183452 0.139028 0.114151 -0.162056 -0.204854 -0.216865 0.0843311 0.118277 0.141599 -0.299961 0.0683114 0.197387 0.0443705 -0.225447 -0.0614439 -0.245798 -0.259615
106222753 -0.0374411 -0.0206341 0.0776068 -0.269896 0.0236891 0.0248251 -0.177682 -0.0472775 -0.0473625 -0.0989422 -0.311892 0.246585 -0.327038 -0.269474 0.210038 0.14828 0.177344 -0.184711 0.141711 -0.0415027 -0.112395 -0.203331 0.414381 -0.29463 -0.108063 0.0488811 0.29706 -0.199343 0.129294 0.12289 0.0553888 -0.0549759 -0.115615 -0.112875 -0.0384583 0.163192 -0.0709972 -0.339037 0.00834334 0.0469928 0.0918717 0.0538927 -0.00819778 0.125916 0.0950859 -0.542889 -0.0623144 -0.186627 -0.175331 -0.237546 0.00917686 0.123371 0.0154681 0.158911 0.151926 -0.136591 -0.382821 0.228556 0.199552 0.232642 0.0523567 -0.109632 -0.233867 -0.0513444 -0.0628578 -0.0742057 -0.409645 -0.120504 -0.0676562 -0.290584 0.044911 0.135042 0.246261 -0.114135 0.253757 0.0362964 0.172154 0.196361 -0.481163 0.0418644 0.387086 0.00444235 -0.196526 0.238445 0.134465 0.0652403 -0.213428 -0.239032 -0.213098 0.0571479 0.0764859 0.158699 -0.293284 0.0618015 0.209796 -0.0212675 -0.229997 -0.0669344 -0.170106 -0.254617
18612019 -0.0986504 -0.0373623 0.149648 -0.271899 0.0882901 -0.0239815 0.00708408 0.0176516 -0.0932319 -0.2491 -0.235133 0.106716 -0.18163 -0.165774 0.111276 0.110759 0.139935 -0.146528 0.130499 -0.0679308 -0.0537878 -0.303168 0.3124 -0.202267 -0.0830799 0.0372087 0.309734 -0.185068 0.0886827 0.205073 -0.0171102 -0.0488591 -0.0778451 0.00408886 -0.0317056 0.271001 -0.0619168 -0.301224 -0.0573523 0.0617718 0.21789 -0.0121508 -0.00355166 0.177253 0.0534921 -0.591537 -0.12399 -0.125913 -0.103696 -0.210794 -0.169389 0.258941 0.0680397 0.130952 0.189372 -0.146451 -0.393427 0.256436 0.164368 0.289108 -0.0181583 -0.0558237 -0.280736 0.00246464 -0.103106 -0.0550099 -0.439311 -0.173342 0.0275007 -0.270985 0.000448774 0.0372992 0.219517 -0.0897098 0.117337 -0.0429047 0.08086 0.146289 -0.46071 0.00165212 0.292853 0.0810815 -0.129555 0.162395 0.184303 -0.112326 -0.270641 -0.227895 -0.444976 0.0420118 0.0734793 0.0862973 -0.298545 0.149316 0.0719041 0.0497487 -0.216887 -0.0177001 -0.229519 -0.26557
169657265 -0.109221 -0.00154073 0.250155 -0.175244 -0.0365234 0.118955 -0.117554 -0.0734399 -0.00681212 -0.226148 -0.376076 0.198579 -0.237259 -0.246635 0.119989 -0.0579103 0.0494873 -0.256458 0.160348 0.0466808 0.0444369 -0.242902 0.348034 -0.112914 -0.0645977 0.0210531 0.320126 -0.0723555 0.17611 0.264495 -0.106949 -0.0635825 -0.0836859 0.00213406 -0.0429038 0.125579 -0.016158 -0.451442 0.00299214 0.103864 0.225537 0.0540145 -0.106028 -0.0487102 -0.0561084 -0.337473 -0.0750533 -0.193114 -0.203001 -0.347312 -0.0800951 0.060342 0.0121044 0.0377406 0.0908248 -0.235584 -0.333036 0.296089 0.154882 0.0066346 0.0282053 -0.0161846 -0.36927 0.00841401 -0.267377 0.0076137 -0.310199 -0.0823108 -0.170117 -0.152782 -0.060462 0.206283 0.199861 0.0794465 0.236316 -0.142863 0.228673 0.0861857 -0.444987 0.083981 0.160242 0.155694 -0.071115 0.252083 0.119421 0.0535329 -0.373443 -0.198212 -0.231575 0.0831548 -0.165638 0.200682 -0.214129 0.131544 0.169358 0.0285553 -0.27019 0.0214004 -0.140358 -0.184716
20400134 -0.13315 0.0868446 0.148137 -0.372384 0.243242 0.234275 -0.0709781 0.0233841 -0.0590607 -0.131869 -0.293569 0.171849 -0.224854 -0.193292 0.118007 0.0678655 0.103226 -0.137155 0.160569 -0.016082 -0.0932261 -0.254232 0.225103 -0.313414 -0.0334348 0.0163201 0.258905 -0.264021 0.070816 0.197312 0.0165245 -0.0178212 -0.00489402 -0.00454681 -0.00104835 0.22866 -0.155051 -0.191632 0.0698852 0.0734849 0.236838 0.0587535 0.0888856 0.113639 0.0878707 -0.513304 -0.0356786 -0.17767 -0.0769678 -0.109431 -0.0795029 0.11913 0.0746937 0.119521 0.0835908 -0.0855232 -0.369027 0.0514947 0.237411 0.189484 0.00829192 -0.126196 -0.338229 -0.0361883 -0.111404 -0.0717233 -0.255245 -0.0895488 -0.0953825 -0.152591 -0.00434073 0.171627 0.284445 -0.239285 0.191654 -0.0225282 0.180992 0.256707 -0.451856 0.0808642 0.364034 0.105438 -0.242413 0.241902 0.0698024 -0.159082 -0.317818 -0.194885 -0.291647 -0.0786842 0.0429217 0.129058 -0.289239 0.156489 0.0545307 -0.0932983 -0.213842 -0.117232 -0.179642 -0.294283
344822601 -0.0514597 0.11409 0.115019 -0.385839 0.207393 0.17997 -0.13025 0.0134141 -0.132463 -0.167202 -0.463134 0.0999174 -0.187582 -0.21675 0.0935981 0.0465594 0.172382 -0.116742 0.140292 0.0396074 -0.0916346 -0.209235 0.265626 -0.293946 -0.0738719 -0.0942432 0.127446 -0.247548 0.176171 0.130063 -0.0560758 -0.0296566 -0.103054 -0.0482345 0.022954 0.192817 -0.134895 -0.194222 0.0826429 0.0884182 0.258767 0.031038 0.0142872 0.0749346 0.0709923 -0.42965 -0.00404009 -0.189227 -0.0278266 -0.0215475 -0.00319077 0.0857698 0.161605 0.080102 0.152161 -0.0305757 -0.427106 0.214168 0.278791 0.2553 -0.0336163 -0.123566 -0.265575 -0.0609348 -0.0961776 -0.115107 -0.251691 -0.0383654 0.00822738 -0.104976 0.137206 0.134058 0.203181 -0.167085 0.240303 0.125872 0.20512 0.20784 -0.405089 0.073388 0.33202 0.000306345 -0.303553 0.216538 0.161918 -0.0757365 -0.24218 -0.210962 -0.280688 0.0444904 0.120034 0.170096 -0.187818 0.0965024 0.143148 -0.0913001 -0.245959 -0.0371205 -0.179504 -0.270206
329122477 0.0403796 0.138336 0.180251 -0.463571 0.0469145 0.247405 -0.0759202 0.0102706 -0.118913 -0.144295 -0.203366 0.159949 -0.227192 0.01549 0.206469 0.0483843 0.121009 -0.0931086 0.0397323 -0.154979 -0.0867899 -0.285127 0.20757 -0.373008 -0.0643702 0.0501748 0.215622 -0.278504 0.0874815 0.136592 -0.110729 0.0607458 -0.0649142 0.0859932 0.0310418 0.138074 -0.252034 -0.198188 0.0530116 0.100534 0.202843 0.0351151 0.101992 0.218121 0.216093 -0.524114 -0.16946 0.0203267 -0.0657352 -0.0590284 -0.129674 0.126933 -0.0825954 0.236176 -0.0566194 -0.174351 -0.119497 0.166322 0.22846 0.0637072 0.123641 -0.0933406 -0.200094 0.00586336 -0.090044 -0.103519 -0.350857 -0.0648105 -0.0427847 -0.134953 -0.131698 0.169568 0.467282 -0.0351831 0.167901 -0.079875 0.152497 0.403549 -0.452209 0.0962809 0.346368 -0.0602459 -0.068242 0.352276 0.116638 -0.225939 -0.196085 -0.244629 -0.185354 -0.0355649 -0.0157228 0.0342197 -0.437392 0.195499 0.0209323 -0.192578 -0.29798 -0.214936 -0.24949 -0.39793
1294741 -0.0145283 0.351153 0.224193 -0.390181 -0.0924772 0.0362413 -0.0567309 0.0133089 -0.20494 -0.240343 -0.29967 0.231987 -0.0184401 -0.0706371 0.118723 -0.0104104 0.247175 -0.148217 -0.113 -0.271713 -0.105338 -0.478498 0.27409 -0.235258 -0.103273 0.00154044 0.196771 -0.236132 0.0400807 0.21845 -0.266092 0.151506 -0.0201911 0.144372 0.0317873 0.0860282 -0.242337 -0.380839 -0.060867 0.0742682 0.35698 -0.0994743 0.144495 0.234816 0.138353 -0.536404 -0.309609 -0.0610545 -0.0583208 -0.128982 -0.286038 0.101013 0.029517 0.275475 0.00869928 -0.279586 -0.196503 0.345044 0.100992 0.059548 0.101512 0.0103873 -0.215623 -0.0359615 -0.216803 -0.246365 -0.336314 -0.123893 0.155377 -0.35765 -0.0875748 0.237671 0.535617 0.182686 -0.00489916 -0.263348 0.304009 0.356982 -0.51441 0.117905 0.351861 -0.0453269 -0.00586211 0.148634 0.182221 -0.322795 -0.318805 -0.177767 -0.407728 -0.0436137 -0.00930254 -0.0559097 -0.464019 0.158651 -0.0268048 0.0821257 -0.369236 0.0092103 -0.18008 -0.299607
22737163 -0.0189761 0.233586 0.116104 -0.554419 -0.0517886 0.337701 -0.107434 0.142959 -0.0866126 -0.157053 -0.213735 0.155392 -0.00437298 0.105916 0.222165 -0.0143478 0.0177384 -0.151133 -0.250132 -0.222989 -0.0797146 -0.327719 0.191142 -0.512417 -0.122827 -0.0237813 0.112531 -0.349544 0.0527886 0.194505 -0.150855 0.0514723 0.175608 0.042835 -0.0604338 0.032599 -0.234124 -0.231166 0.108181 0.164845 0.218383 0.00787589 0.0787099 0.222802 0.344874 -0.45591 -0.109591 -0.0787699 -0.00223556 -0.0774353 -0.0723366 0.0366796 -0.0585206 0.251173 -0.0815161 -0.227102 -0.242568 0.0717757 0.0385087 -0.018517 0.0206737 0.0214392 -0.247065 -0.206619 -0.214902 -0.192693 -0.292716 -0.0820315 0.176644 -0.306244 -0.169578 0.380773 0.634809 0.109476 0.0601592 -0.142686 0.363068 0.333062 -0.401866 0.0505181 0.284594 -0.0570817 -0.0497634 0.146135 0.0434586 -0.354421 -0.247697 -0.0703774 -0.27592 -0.0246004 -0.0587842 -0.108773 -0.407039 0.361142 -0.164865 -0.108223 -0.426566 -0.0156866 -0.245836 -0.294777
