239 100
287413569 0.00210342 0.753853 0.202722 -0.134306 -0.0285674 -0.0903741 -0.235505 0.239117 0.169478 -0.0774717 0.123202 0.0740293 -0.400625 -0.0439614 -0.325602 -0.134119 -0.0584741 -0.406476 -0.00991728 0.252907 -0.111019 -0.233714 0.106927 0.0273378 -0.0295855 -0.0837193 -0.207965 0.0503409 0.173976 -0.00255122 0.0738156 0.1608 0.0482969 -0.137432 -0.183695 -0.0232585 0.0873136 0.205096 -0.0659178 0.143498 -0.00132827 0.126582 -0.0011825 0.0495873 0.198836 -0.0226255 0.00540039 0.280415 -0.15407 -0.0845993 0.0325311 -0.275355 0.0247984 -0.0781317 0.0493046 -0.0599563 -0.0361166 -0.205209 -0.237321 0.252863 -0.412847 0.0800271 -0.0196251 -0.102796 -0.252954 -0.305619 -0.018069 0.0724613 0.100464 0.12284 0.0319698 -0.0619618 -0.0793812 -0.104962 0.15351 -0.0876506 -0.0378416 -0.251155 0.149241 0.148399 -0.006706 0.0596568 0.208448 0.189401 -0.176183 -0.203403 0.0334304 -0.104686 -0.110385 -0.0499159 -0.10195 -0.208227 0.209043 0.0628482 -0.123161 -0.0232711 0.139958 0.170855 -0.094005 0.327537
29216764 0.0645579 0.704494 0.232534 -0.158215 0.0273652 -0.137244 -0.14697 0.274516 0.127757 -0.0560968 0.135363 0.106281 -0.377239 -0.0106455 -0.309433 -0.148097 -0.0462637 -0.416181 0.0116105 0.261279 -0.072451 -0.221357 0.0637176 0.0872451 -0.0175664 -0.0807969 -0.227004 0.0294133 0.128841 0.012582 0.0216643 0.12555 0.0619528 -0.140857 -0.178179 -0.078696 0.0979024 0.237071 -0.0163965 0.153247 -0.0510582 0.171265 0.0979594 0.0214806 0.172996 -0.00823065 -0.00172849 0.245116 -0.144127 -0.0536084 0.0302214 -0.287296 -0.0426533 -0.0835749 0.0462238 -0.0159372 -0.0306752 -0.265263 -0.27622 0.317341 -0.411158 0.117318 -0.0419236 -0.134168 -0.276892 -0.268253 0.00798772 0.104114 0.107711 0.185884 0.000199025 -0.0729962 -0.0291334 -0.136111 0.0995567 -0.0657328 -0.0284085 -0.168949 0.195889 0.158565 0.0344449 0.049874 0.159325 0.14982 -0.158109 -0.20607 -0.0255529 -0.0151977 -0.17883 -0.0101666 -0.0696444 -0.129396 0.229897 0.0671722 -0.0906659 -0.00957056 0.149136 0.156038 -0.096715 0.343508
158769098 0.0719276 0.767906 0.255288 -0.14965 0.0272762 -0.112382 -0.110906 0.285304 0.116405 -0.0960122 0.0842322 0.103992 -0.411359 -0.0840698 -0.28333 -0.137863 -0.119574 -0.441943 0.00900072 0.287531 -0.0133595 -0.263757 0.00573802 0.0367654 0.0117842 -0.0531704 -0.263409 0.134864 0.0972807 -0.0425249 0.034293 0.0999097 -0.0467095 -0.214579 -0.200193 -0.00924128 0.0568951 0.216886 -0.00707847 0.135328 -0.06965 0.144656 0.117453 -0.00973844 0.262364 -0.00480543 -0.00969293 0.160282 -0.133489 -0.0170683 0.0331205 -0.347706 -0.0349251 -0.0525271 -0.0190678 0.00699114 -0.0488874 -0.204858 -0.280387 0.385806 -0.43442 0.0735834 0.109645 -0.144715 -0.253688 -0.261637 -0.0829516 0.134312 0.0549191 0.179888 0.0108248 -0.0959129 -0.00273553 -0.184718 0.12711 -0.0584428 -0.0195259 -0.152478 0.197068 0.115041 -0.0218196 0.0850209 0.134061 0.132286 -0.154574 -0.256151 -0.0507251 -0.10603 -0.126043 -0.0315903 -0.120754 -0.179681 0.247888 0.0836354 -0.0678718 -0.0571782 0.209657 0.133709 -0.212632 0.375683
56413858 0.122192 0.754576 0.265955 -0.155506 0.0480798 -0.0745465 -0.135677 0.309866 0.0847115 -0.110158 0.144597 0.117739 -0.397754 -0.0922682 -0.306753 -0.202738 -0.0815308 -0.458661 0.00164228 0.2499 -0.0572823 -0.186447 0.0985434 0.104162 -0.0495628 -0.0839605 -0.208144 0.100331 0.159324 -0.0559924 0.0164581 0.16466 -0.0242034 -0.17367 -0.178828 -0.0249581 0.0805419 0.263164 0.00257266 0.127033 -0.0546429 0.0775868 0.133848 -0.0201606 0.263905 0.0358161 -0.0120139 0.199392 -0.151059 -0.0751091 0.0546643 -0.255081 -0.0257817 -0.0619494 0.0591682 0.0443538 -0.105899 -0.185756 -0.22711 0.364098 -0.443022 0.119258 0.0818579 -0.122111 -0.194541 -0.1416 0.0164739 0.121223 0.0785106 0.234604 -0.0226313 -0.0151104 -0.0230993 -0.198128 0.0758189 -0.124394 -0.0379172 -0.132413 0.182666 0.112539 -0.021357 0.0831004 0.21226 0.116886 -0.160621 -0.234844 -0.0365745 -0.0861734 -0.0913964 0.0423884 -0.10736 -0.179379 0.214543 0.122551 -0.041606 -0.0799731 0.208741 0.223747 -0.145377 0.350479
19805496 0.0728252 0.681808 0.32242 -0.143182 0.0303523 -0.0123191 -0.203815 0.239175 0.0962965 -0.105474 0.216997 0.115917 -0.450472 -0.0492235 -0.355501 -0.210498 -0.0575184 -0.381928 -0.00395564 0.275079 -0.0665956 -0.243922 0.126126 0.0500634 -0.0866908 -0.103419 -0.202619 0.0397505 0.248248 0.0297513 0.074114 0.170214 0.0684284 -0.107718 -0.2571 -0.0504434 0.052583 0.216248 -0.0336006 0.0938614 0.000237014 0.0456231 0.013477 0.0261386 0.194885 0.0251901 0.00507608 0.208746 -0.122147 -0.077719 0.0311798 -0.15209 0.0135021 -0.0883743 0.00784908 -0.039675 -0.153379 -0.24018 -0.197133 0.270103 -0.435435 0.119711 -0.0169867 -0.127792 -0.181342 -0.19193 0.0436482 0.0648159 0.0858677 0.246985 -0.00692342 0.0225774 -0.0869264 -0.0927511 0.0198466 -0.143507 -0.0719249 -0.166286 0.127217 0.158687 -0.0171598 0.0825844 0.233796 0.170628 -0.160916 -0.201719 0.0501956 -0.128708 -0.154445 -0.0165328 -0.155616 -0.1359 0.176084 0.134646 -0.0922473 0.03973 0.176219 0.23734 -0.10888 0.328039
813286 0.0478372 0.68311 0.26851 -0.0674846 0.0943902 -0.0425419 -0.17031 0.266141 0.119816 -0.163968 0.19042 0.125021 -0.382808 -0.0813883 -0.402323 -0.177501 -0.0105249 -0.388416 0.0279207 0.227856 -0.17198 -0.234121 0.18458 0.112574 -0.0890179 -0.121406 -0.160193 -0.0158424 0.259496 -0.0120788 0.072589 0.163105 0.0924293 -0.139508 -0.178501 -0.0522714 0.0992094 0.333251 0.0125722 0.101939 -0.0208215 0.0264585 -0.0142611 0.0890999 0.181565 -0.026661 -0.00374062 0.339885 -0.218764 -0.0597297 -0.0438286 -0.161543 -0.0232966 0.0100907 0.122564 -0.0206134 -0.115061 -0.228562 -0.19488 0.180885 -0.350954 0.167635 -0.108732 -0.0808846 -0.236342 -0.149877 0.136541 0.0149202 0.149432 0.262854 -0.123615 -0.0246073 -0.108561 -0.0534735 0.0377991 -0.110696 -0.117867 -0.181786 0.146708 0.156385 0.00209635 -0.00602247 0.372921 0.154389 -0.148566 -0.168684 -0.0411466 -0.0599253 -0.146598 0.0190554 -0.0478205 -0.195916 0.147017 0.131037 -0.0535829 -0.0439838 0.0318611 0.34877 0.0558578 0.366128
10615232 0.0196658 0.68077 0.171027 -0.109307 0.0504367 -0.160674 -0.100373 0.285578 0.121931 -0.114064 0.147008 0.120249 -0.345265 -0.0758087 -0.394625 -0.146688 -0.00956324 -0.409084 -0.0126996 0.228724 -0.179939 -0.221946 0.170504 0.0688769 -0.046464 -0.092542 -0.248472 -0.0131594 0.191422 -0.0589904 0.0331414 0.127345 0.0495877 -0.109325 -0.187603 -0.0210667 0.137086 0.2985 -0.0094834 0.167502 -0.0452065 0.116179 0.0409076 0.0878445 0.132714 -0.0191728 -0.00619391 0.305671 -0.188884 -0.0644812 -0.0328546 -0.206914 -0.0131517 -0.0620858 0.113832 -0.0444868 -0.0474793 -0.215857 -0.224275 0.218626 -0.34332 0.146242 -0.0816852 -0.0698669 -0.315399 -0.251593 0.101523 0.0304377 0.130307 0.259025 -0.118199 -0.0947317 -0.0612982 -0.0426357 0.0832662 -0.124361 -0.0609652 -0.183727 0.177263 0.149208 -0.0533672 -0.0161786 0.275158 0.137283 -0.126568 -0.182511 -0.0789989 -0.0251242 -0.161866 0.00437034 0.0186647 -0.176104 0.157735 0.125782 -0.0252987 0.0155893 0.0028621 0.240912 0.00656096 0.360654
15976697 0.0514232 0.699553 0.201957 -0.14406 0.0553383 -0.168819 -0.193808 0.262239 0.144766 -0.0624397 0.198694 0.1433 -0.381109 0.00233523 -0.356017 -0.155303 0.000582776 -0.37522 -0.0211307 0.207127 -0.165253 -0.144194 0.113088 0.119136 -0.0139686 -0.110425 -0.155679 -0.0358652 0.174144 0.022632 0.0124392 0.178408 0.130906 -0.0989059 -0.15053 -0.0749611 0.116521 0.310021 -0.0128829 0.194357 -0.0603266 0.176169 0.0147346 0.071657 0.154148 -0.0332559 0.0223024 0.358019 -0.190067 -0.137463 -0.00328826 -0.234945 -0.0257091 -0.0672506 0.129428 -0.0645178 -0.00947696 -0.269225 -0.2338 0.211014 -0.396544 0.110394 -0.138096 -0.0762305 -0.244307 -0.248877 0.0913308 0.0349002 0.137125 0.138283 -0.0277016 -0.0971335 -0.0573339 -0.067136 0.0872345 -0.107381 -0.0647602 -0.196535 0.215145 0.172601 0.0284136 -0.00251912 0.209077 0.190594 -0.17573 -0.16016 -0.00127349 0.00983529 -0.186654 0.040676 -0.025602 -0.157326 0.226336 0.104731 -0.0678494 -0.0101227 0.0515619 0.220713 0.035175 0.290832
16073043 0.0620159 0.755307 0.273748 -0.158934 0.0725882 -0.0340071 -0.208639 0.242897 0.137225 -0.109507 0.185299 0.11035 -0.462809 -0.0994442 -0.337414 -0.200903 -0.0843236 -0.419126 -0.0084216 0.282362 -0.0421585 -0.257073 0.0645735 0.0222739 -0.0497022 -0.0850682 -0.210162 0.0847822 0.194028 -0.0177704 0.0213985 0.193747 0.0476912 -0.160527 -0.203117 -0.0309123 0.0864501 0.227727 -0.0257071 0.101435 -0.0598256 0.0461458 0.0401103 -0.00336225 0.208945 0.0352012 0.00375358 0.212386 -0.138904 -0.0341102 0.0249827 -0.188705 0.00643195 -0.0806416 0.0218609 -0.0142477 -0.0943724 -0.190678 -0.218308 0.274345 -0.422196 0.111197 0.0324903 -0.15239 -0.1656 -0.201439 -0.0325145 0.0679942 0.0903453 0.227569 0.0197069 -0.0132151 -0.0823932 -0.103678 0.0577263 -0.109273 -0.0694332 -0.169934 0.167698 0.147979 -0.0408495 0.0949904 0.202436 0.125914 -0.149924 -0.222533 -0.0166753 -0.126896 -0.104897 -0.0266249 -0.172629 -0.144255 0.187562 0.123998 -0.10653 0.0125422 0.201157 0.199472 -0.112175 0.351062
195877797 0.113778 0.743728 0.287525 -0.140167 0.0345453 -0.0668223 -0.139469 0.284786 0.0986785 -0.112377 0.150637 0.148357 -0.414881 -0.0751292 -0.322665 -0.2014 -0.0765675 -0.443588 -0.0185519 0.273119 -0.0467792 -0.227868 0.0693201 0.0605889 -0.0236131 -0.0879794 -0.219805 0.0656973 0.163434 -0.0173711 0.0494829 0.144491 -0.00180765 -0.167345 -0.195763 -0.0445918 0.0733373 0.263665 -0.000449787 0.115092 -0.0738732 0.0870502 0.0918156 0.0158048 0.251389 0.0327007 0.0139807 0.199745 -0.157274 -0.0422263 0.00186095 -0.262386 -0.0403759 -0.0591339 0.00909943 0.00698547 -0.103521 -0.223866 -0.221834 0.330124 -0.440516 0.134425 0.029372 -0.135524 -0.20435 -0.176356 0.0220673 0.104846 0.089344 0.248481 -0.0274693 -0.0256559 -0.0507669 -0.161291 0.0618196 -0.110084 -0.0626712 -0.143121 0.190367 0.103118 -0.0451109 0.0918662 0.217762 0.139084 -0.136645 -0.225137 -0.0430816 -0.104492 -0.14444 0.0100853 -0.0917787 -0.160114 0.220796 0.115934 -0.0474701 -0.0349718 0.170289 0.20399 -0.118828 0.346192
16157855 0.054143 0.685665 0.214701 -0.128362 0.0384433 -0.105772 -0.180143 0.259747 0.132111 -0.0838741 0.156277 0.118544 -0.391446 -0.0364608 -0.335979 -0.142658 -0.0427471 -0.36984 0.00164724 0.267984 -0.121252 -0.237663 0.111403 0.0866524 -0.044547 -0.111363 -0.182124 -0.0233373 0.17125 0.0367979 0.056356 0.117054 0.0894559 -0.129578 -0.191863 -0.0608825 0.0812271 0.307054 -0.0357159 0.12416 -0.0479132 0.137049 -0.00166649 0.0825804 0.140377 -0.0360037 -0.0224796 0.314609 -0.168132 -0.0566416 -0.0108533 -0.22735 -0.0163759 -0.0408214 0.0577187 -0.0264043 -0.0707841 -0.249695 -0.25895 0.229458 -0.388504 0.153688 -0.0987566 -0.0945141 -0.264486 -0.242069 0.0500198 0.0652751 0.143109 0.154752 -0.0238264 -0.0604788 -0.090798 -0.0847846 0.088095 -0.0786356 -0.073255 -0.223791 0.182007 0.176325 0.0529893 0.0438843 0.230679 0.162851 -0.153988 -0.179867 0.000780504 -0.0206756 -0.160545 0.027892 -0.0746351 -0.177501 0.19666 0.0904819 -0.0752868 -0.0288007 0.0954554 0.215258 -0.0217492 0.30223
15985455 -0.00677394 0.662829 0.127346 -0.118333 -0.00743521 -0.221561 -0.148081 0.296937 0.16482 -0.0722433 0.0929313 0.0910959 -0.311052 0.00728547 -0.314971 -0.0929846 -0.00897185 -0.335483 0.00760552 0.251084 -0.223345 -0.175033 0.125744 0.116713 -0.0158843 -0.0703792 -0.192292 -0.015504 0.132199 0.0221061 0.0940402 0.0775785 0.111484 -0.111385 -0.175749 -0.0662143 0.152142 0.308855 -0.0437567 0.196018 -0.0186717 0.20151 -0.0336092 0.136899 0.158447 -0.110482 -0.0248106 0.362826 -0.152663 -0.108285 -0.0356483 -0.30517 -0.000939567 -0.0758404 0.116547 -0.0198442 0.0116744 -0.237564 -0.276142 0.186479 -0.384475 0.13098 -0.121965 -0.0424494 -0.382856 -0.353879 0.0586324 0.06054 0.141232 0.106385 -0.0733675 -0.139508 -0.0498187 -0.0656282 0.210432 -0.0443239 -0.0591758 -0.213677 0.220107 0.15806 0.0998908 -0.0439221 0.207323 0.236681 -0.151154 -0.167276 0.00569174 0.00737687 -0.168056 0.00757587 0.0030343 -0.190213 0.205546 0.0263143 -0.0772779 -0.066168 0.0072163 0.199477 0.00877745 0.306431
118756393 0.0547238 0.747861 0.236212 -0.15388 -0.0162177 -0.121003 -0.165927 0.27546 0.142785 -0.0768178 0.076549 0.120511 -0.39244 -0.0224766 -0.286272 -0.124243 -0.105398 -0.399761 -0.0204712 0.275721 -0.0699189 -0.223428 0.059195 0.0833289 -0.00510908 -0.0728703 -0.225778 0.0740525 0.0982196 0.0242814 0.0879998 0.104378 0.036976 -0.165326 -0.174305 -0.0495631 0.0722719 0.266858 -0.0356894 0.160695 -0.0324253 0.174389 0.0472501 0.0410982 0.22706 -0.0318724 0.00554747 0.223096 -0.153987 -0.0809081 -0.0095176 -0.328568 -0.0319532 -0.0605108 0.0233829 -0.0250617 -0.0477342 -0.220824 -0.297462 0.301645 -0.427661 0.099201 0.0105893 -0.101731 -0.282899 -0.260901 0.0101407 0.114973 0.0849033 0.10583 0.0130443 -0.0688685 -0.0321199 -0.157461 0.145164 -0.0507053 -0.0171824 -0.199271 0.210428 0.128713 0.042529 0.0557522 0.136973 0.210583 -0.165402 -0.222946 0.0136841 -0.0653311 -0.142623 -0.0191552 -0.0895884 -0.183342 0.232296 0.0498582 -0.0847843 -0.0443675 0.161786 0.1569 -0.11837 0.313677
18313747 0.0801673 0.690689 0.262466 -0.172359 -0.0169153 -0.0601023 -0.205984 0.253434 0.152344 -0.0933213 0.153012 0.107844 -0.42786 -0.0639116 -0.307294 -0.198267 -0.0813103 -0.384985 -0.0150272 0.287305 -0.0460518 -0.244953 0.0304227 0.00273869 -0.0293965 -0.0581284 -0.226826 0.0600775 0.183417 0.0297076 0.108784 0.151876 0.0296636 -0.1071 -0.237428 -0.0449302 0.0255223 0.192891 -0.0342524 0.118374 -0.00795646 0.0788529 0.0134088 0.030478 0.203376 -0.000166791 0.00427513 0.224273 -0.114598 -0.0640732 0.0166632 -0.237023 0.0264563 -0.101559 -0.021477 -0.0344544 -0.104667 -0.209671 -0.264526 0.28875 -0.439755 0.114165 0.0404451 -0.131146 -0.212519 -0.277632 -0.0739287 0.0948796 0.098106 0.178943 0.0278398 -0.0356373 -0.110203 -0.108652 0.0929617 -0.118642 -0.0656909 -0.218624 0.145477 0.120581 -0.0225679 0.123902 0.173627 0.165295 -0.176655 -0.231956 0.0435374 -0.141264 -0.127939 -0.0495366 -0.157195 -0.150946 0.218318 0.0974503 -0.107806 0.0256065 0.172727 0.13799 -0.155298 0.315499
3108351 0.0984086 0.685221 0.257892 -0.11359 0.0642782 -0.0420539 -0.176715 0.247703 0.128112 -0.0984572 0.200296 0.12704 -0.427822 -0.0917065 -0.341283 -0.188774 -0.0273021 -0.400612 0.00372296 0.243222 -0.116931 -0.211235 0.116894 0.106663 -0.0400008 -0.11362 -0.159092 0.0299238 0.204701 -0.00632743 0.0106873 0.181042 0.0828433 -0.157715 -0.170863 -0.0958479 0.0748061 0.300215 -0.0121021 0.107663 -0.07282 0.111635 0.0261375 0.0240619 0.222816 0.00439633 -0.00111705 0.297161 -0.162881 -0.0491912 0.016823 -0.205956 -0.00310001 -0.0524392 0.0751213 0.0240974 -0.0714947 -0.208382 -0.225938 0.262953 -0.377958 0.1411 -0.0536594 -0.0916194 -0.167693 -0.154753 0.0243579 0.045675 0.142358 0.243593 -0.0373909 -0.0217376 -0.0616928 -0.137539 0.0232417 -0.101367 -0.0861861 -0.14666 0.159981 0.168262 0.00731565 0.0266831 0.267497 0.141272 -0.16224 -0.180676 0.0034082 -0.0778297 -0.109528 0.047677 -0.118211 -0.177643 0.190563 0.124996 -0.0805357 -0.0697103 0.158526 0.264282 -0.0243724 0.319388
76649729 0.0115698 0.643001 0.112213 -0.108668 0.00863108 -0.175425 -0.153355 0.278631 0.13166 -0.104577 0.192636 0.105971 -0.325038 -0.0153477 -0.432497 -0.169229 0.0431165 -0.357743 -0.0118372 0.206841 -0.225495 -0.191557 0.170662 0.0877184 -0.042606 -0.0786065 -0.207469 -0.0828875 0.206561 -0.0235069 0.0825236 0.168938 0.129998 -0.0321069 -0.162641 -0.0888181 0.123299 0.309468 -0.0241906 0.185961 -0.0226108 0.113992 -0.019833 0.12093 0.0912973 -0.0565519 -0.00530482 0.380598 -0.201207 -0.100742 -0.0469831 -0.191003 -0.00847823 -0.0720894 0.153285 -0.0896569 -0.0269689 -0.282248 -0.233384 0.154387 -0.351236 0.163993 -0.177222 -0.0626083 -0.335079 -0.293697 0.11964 0.0319495 0.168159 0.230635 -0.125352 -0.0858692 -0.136961 -0.031453 0.0651857 -0.143549 -0.0604976 -0.222366 0.162288 0.157775 -0.00362797 -0.0436584 0.288141 0.182467 -0.131676 -0.172781 -0.0279278 -0.0271559 -0.182327 0.000206757 0.00329372 -0.140145 0.143401 0.112881 -0.0467926 0.0438959 -0.046253 0.23098 0.0799858 0.34239
35566561 0.0507542 0.680834 0.293907 -0.152638 0.0431243 -0.0574551 -0.174491 0.226571 0.0844775 -0.0791006 0.205933 0.123862 -0.394503 0.00357398 -0.333042 -0.198505 -0.0358131 -0.349006 -0.00884252 0.286667 -0.065068 -0.232004 0.0647333 0.0471597 -0.0401401 -0.128442 -0.202228 -0.0161926 0.185658 0.0547826 0.0561018 0.135626 0.0553599 -0.127394 -0.264248 -0.0384954 0.0477424 0.187941 0.0024029 0.0838256 -0.0026584 0.116861 -0.00992079 0.0415803 0.168241 -0.00539517 -0.0131367 0.246715 -0.135315 -0.059996 0.0174558 -0.223132 -4.35381e-06 -0.0885471 -0.00671754 -0.0792646 -0.116114 -0.274759 -0.214392 0.288989 -0.435855 0.107905 -0.0819915 -0.096571 -0.182154 -0.238967 -0.0152827 0.0625188 0.0629969 0.187062 -0.0101864 -0.042567 -0.0954918 -0.0739766 0.0555209 -0.0789207 -0.0795861 -0.218687 0.116269 0.171743 0.0117819 0.102957 0.189307 0.164006 -0.171104 -0.184431 0.0513319 -0.0484461 -0.187833 -0.0118405 -0.13959 -0.122203 0.247523 0.127526 -0.124851 0.055644 0.126961 0.199308 -0.109172 0.308328
19553409 0.0291157 0.687012 0.229708 -0.126511 0.0434069 -0.136055 -0.149389 0.269071 0.134607 -0.0929047 0.14269 0.104842 -0.380069 0.00409172 -0.318337 -0.106285 -0.0471695 -0.355345 0.0048054 0.240481 -0.114258 -0.195755 0.0698408 0.0984511 -0.0235788 -0.101579 -0.173732 0.0181769 0.148315 0.0377089 0.0523551 0.0854885 0.0602893 -0.158457 -0.18409 -0.053419 0.0905081 0.283548 -0.0221341 0.147235 -0.0443152 0.175208 -0.0212989 0.077942 0.186464 -0.0507974 -0.0015676 0.288046 -0.146733 -0.0731975 -0.00872514 -0.2813 -0.0149484 -0.0295999 0.0631409 -0.0255391 -0.0367484 -0.245749 -0.27375 0.232953 -0.402509 0.107331 -0.0742393 -0.0845235 -0.253162 -0.254913 -0.000101079 0.0549366 0.10347 0.11076 -0.00177974 -0.0875203 -0.0555997 -0.106051 0.120064 -0.0327547 -0.061281 -0.226355 0.18362 0.165352 0.0629681 0.0338503 0.172862 0.202749 -0.166526 -0.184714 0.0181435 -0.0235734 -0.171928 0.0122052 -0.0834172 -0.189169 0.238711 0.0657548 -0.0905485 -0.0338586 0.100915 0.177013 -0.0416779 0.300017
41634520 0.0704827 0.691735 0.1607 -0.109175 0.0503041 -0.186591 -0.115964 0.282264 0.176537 -0.111735 0.135782 0.141066 -0.392409 -0.0495735 -0.356779 -0.151457 -0.0277044 -0.438792 -0.0125797 0.257287 -0.143213 -0.222327 0.0636434 0.0434469 -0.0100293 -0.0512895 -0.191498 0.0312234 0.165773 -0.057112 0.0197494 0.130162 0.0985411 -0.142498 -0.132069 -0.0565593 0.123149 0.320476 0.00341124 0.179259 -0.109834 0.142017 0.0362046 0.0315687 0.169991 -0.0201297 0.0107977 0.309199 -0.184802 -0.0182801 -0.0615649 -0.26368 -0.0158409 -0.053676 0.113 -0.00613552 0.00779343 -0.235982 -0.290037 0.216973 -0.350974 0.142242 -0.0488846 -0.124852 -0.299127 -0.277917 0.0412483 0.0514657 0.14941 0.228465 -0.0193187 -0.103929 -0.047011 -0.069564 0.0674057 -0.0605957 -0.050014 -0.151853 0.251177 0.159566 -0.0269384 0.00103507 0.18246 0.133881 -0.136261 -0.203041 -0.0877944 -0.0462309 -0.152582 0.0110977 -0.0143091 -0.14795 0.175079 0.0865426 -0.0265849 0.00374613 0.0830725 0.190288 0.0299544 0.327187
65493023 0.0464647 0.723205 0.165229 -0.140778 0.0626669 -0.171915 -0.137356 0.277422 0.141587 -0.108374 0.160473 0.115678 -0.387945 0.00508346 -0.356961 -0.12502 -0.0467668 -0.405261 -0.0111007 0.229197 -0.106814 -0.180174 0.0998454 0.0972569 -0.0393512 -0.0854935 -0.200496 0.0394238 0.155899 -0.00593418 0.0287949 0.149492 0.0770043 -0.124372 -0.124265 -0.0562756 0.113432 0.293839 -0.0156895 0.162376 -0.0789887 0.13907 0.0252095 0.0284165 0.161095 -0.0172088 0.0223289 0.307902 -0.162288 -0.07218 -0.00172955 -0.268165 -0.0219516 -0.0439373 0.139883 -0.0408857 0.00379934 -0.236991 -0.268153 0.217549 -0.404002 0.107072 -0.0315456 -0.0891272 -0.242578 -0.258122 0.0374646 0.0534746 0.0950194 0.170041 -0.0178727 -0.0636996 -0.0354833 -0.113729 0.0760268 -0.0715439 -0.0156343 -0.195509 0.213483 0.156504 0.0217416 0.000938805 0.160621 0.166851 -0.157297 -0.215012 -0.0334115 -0.0513124 -0.159295 -0.00531108 -0.0651483 -0.142316 0.227735 0.073624 -0.0520766 0.00730494 0.115825 0.176982 0.0037301 0.326614
19394188 0.026384 0.684804 0.201525 -0.100034 0.0788983 -0.114921 -0.139754 0.266124 0.141854 -0.137038 0.144587 0.116191 -0.354378 -0.0351566 -0.371782 -0.150241 -0.0269919 -0.376792 0.0192075 0.227572 -0.165673 -0.235142 0.11559 0.14196 -0.0750739 -0.109074 -0.184119 -0.0289145 0.195548 0.00676228 0.0625167 0.113802 0.0750929 -0.147618 -0.146561 -0.0563678 0.129525 0.36977 -0.0108164 0.128798 -0.0773113 0.0963776 -0.0195076 0.102259 0.161872 -0.0417224 0.00775759 0.322512 -0.196271 -0.0468253 -0.0409122 -0.236927 -0.0500232 0.000633087 0.125265 -0.0392725 -0.0692326 -0.228947 -0.236811 0.197857 -0.377023 0.141423 -0.0989503 -0.0764968 -0.24324 -0.180843 0.0811736 0.018842 0.137194 0.207907 -0.120381 -0.0415063 -0.080264 -0.0721257 0.0814109 -0.0731917 -0.0918962 -0.229665 0.189514 0.175393 0.0513644 0.0116173 0.286263 0.121914 -0.134394 -0.184727 -0.0373398 -0.0215075 -0.139024 0.0418832 -0.0676618 -0.173844 0.183884 0.0908568 -0.0706535 -0.0563012 0.05316 0.274254 0.0579679 0.343867
18805644 0.0986292 0.688528 0.255217 -0.110686 0.0977565 -0.0869261 -0.123733 0.267639 0.096064 -0.113713 0.165221 0.135412 -0.397088 -0.0777685 -0.34119 -0.174737 -0.0368887 -0.397475 0.0174797 0.236938 -0.110971 -0.217066 0.102068 0.130481 -0.049349 -0.114699 -0.193789 0.0148459 0.170895 0.00178305 0.0185541 0.121019 0.0398415 -0.172003 -0.183683 -0.0469347 0.0641704 0.327114 0.0281676 0.111533 -0.0681208 0.130425 0.0651918 0.0298979 0.191432 -0.0107629 -0.0267737 0.283542 -0.181416 -0.019734 -0.0146197 -0.218869 -0.0532623 -0.030261 0.0604353 0.0185176 -0.0919529 -0.224915 -0.23669 0.276322 -0.366406 0.177056 -0.0394164 -0.0924359 -0.203122 -0.156392 0.0399903 0.0625821 0.114978 0.231982 -0.074613 -0.033588 -0.0516049 -0.126853 0.0301257 -0.0827333 -0.0581004 -0.167127 0.163132 0.176262 0.0200364 0.0241034 0.253136 0.108185 -0.137184 -0.211468 -0.0669487 -0.0235299 -0.135237 0.0418492 -0.0859686 -0.150019 0.200235 0.147007 -0.0337024 -0.0517086 0.137886 0.269323 -0.0372898 0.321654
122207745 0.0295792 0.721088 0.214071 -0.157611 0.0417133 -0.0814412 -0.190188 0.262674 0.129831 -0.113419 0.177713 0.107965 -0.400319 -0.0315766 -0.338453 -0.186391 -0.0442955 -0.406773 0.0128914 0.25055 -0.0894314 -0.252205 0.0882943 0.093941 -0.0584732 -0.0942073 -0.226754 0.0128782 0.178927 0.0329859 0.0624039 0.136292 0.057273 -0.111664 -0.180808 -0.0698305 0.0643122 0.259929 -0.0236721 0.126069 -0.0349758 0.119036 0.0118837 0.0354968 0.151283 -0.00916131 0.00788829 0.275119 -0.157069 -0.0710539 0.0146096 -0.235323 -0.0315695 -0.0443786 0.0684419 -0.0664119 -0.0665368 -0.232708 -0.257236 0.265135 -0.425439 0.126008 -0.0553135 -0.0910419 -0.240232 -0.231939 0.0223397 0.0792569 0.115989 0.195798 -0.0300303 -0.0266202 -0.0663398 -0.0968488 0.0702655 -0.0854888 -0.0396042 -0.226843 0.162268 0.16046 0.0257756 0.055187 0.212661 0.141541 -0.163472 -0.223346 -0.00697618 -0.059576 -0.153416 -0.0163513 -0.12441 -0.132804 0.192163 0.0865354 -0.0843678 0.00524309 0.120602 0.19635 -0.0584628 0.343393
19416225 0.0131876 0.707388 0.20823 -0.159387 0.0379075 -0.10968 -0.205134 0.242434 0.106053 -0.108703 0.274601 0.0795741 -0.419647 -0.00554219 -0.367951 -0.201252 0.0122761 -0.39532 -0.00357437 0.22546 -0.138833 -0.157001 0.159177 0.0282817 -0.0633007 -0.0913077 -0.20036 0.00117456 0.20726 -0.017113 0.0495221 0.165782 0.061393 -0.0720954 -0.218193 -0.0191381 0.076403 0.18848 -0.023484 0.117614 0.00670545 0.107928 -0.029339 0.0495473 0.155367 -0.00255557 -0.0173268 0.312421 -0.150448 -0.0873851 0.0199772 -0.16896 0.0283593 -0.107714 0.0571799 -0.0682104 -0.0669253 -0.246983 -0.207652 0.197493 -0.430164 0.105138 -0.0972197 -0.055809 -0.19509 -0.284088 0.00191412 0.0655156 0.105655 0.180164 0.0130116 -0.0420513 -0.131314 -0.0566052 0.076177 -0.0876808 -0.0476897 -0.237404 0.0993093 0.184377 -0.0320924 0.0276178 0.2357 0.208312 -0.185998 -0.212565 0.0382352 -0.0616454 -0.157995 -0.00792827 -0.11241 -0.126861 0.211532 0.126868 -0.105472 0.0590731 0.132189 0.181495 -0.0520633 0.304518
233638131 0.0518051 0.697888 0.286482 -0.163713 0.0170661 -0.0686026 -0.194473 0.223666 0.123633 -0.0611452 0.146217 0.129227 -0.407896 -0.00643458 -0.281391 -0.15695 -0.0995752 -0.390437 -0.0186147 0.290475 -0.0280331 -0.238659 0.0500077 0.0315546 -0.0278771 -0.104025 -0.204585 0.0247515 0.155784 0.0797903 0.0653141 0.125942 0.0419822 -0.102054 -0.225116 -0.036146 0.0518603 0.202378 -0.0422963 0.131526 -0.0201481 0.137068 0.0208369 0.0329788 0.183887 -0.00696488 0.0175414 0.233476 -0.12208 -0.0906558 0.0304653 -0.254933 -0.0143854 -0.0875111 -0.0182521 -0.0322466 -0.10145 -0.239515 -0.241501 0.28502 -0.44091 0.113523 -0.0166416 -0.120021 -0.195515 -0.235077 -0.0245405 0.0789425 0.0873781 0.139512 0.0206568 -0.0375185 -0.069997 -0.0972843 0.1099 -0.0895261 -0.0782944 -0.206876 0.145545 0.146924 0.00380722 0.11172 0.145942 0.177893 -0.180999 -0.204111 0.0396851 -0.0709701 -0.170596 -0.0195234 -0.125071 -0.14348 0.254904 0.0767148 -0.116073 0.00248114 0.17869 0.138915 -0.148394 0.288022
16072676 0.111834 0.694459 0.283222 -0.146521 0.0575919 0.00786265 -0.224268 0.214389 0.110046 -0.119389 0.198828 0.154545 -0.445823 -0.0974087 -0.338736 -0.224896 -0.0476632 -0.360341 -0.00133606 0.283817 -0.0501246 -0.297234 0.121889 0.0550098 -0.0648107 -0.113668 -0.201555 0.0148934 0.240666 0.0264256 0.0702303 0.185708 0.0658093 -0.147715 -0.229778 -0.0487561 0.0290608 0.240056 -0.0272883 0.0595884 -0.0334467 0.0416601 0.0229825 0.005968 0.193202 0.0319434 0.013517 0.24102 -0.148648 -0.0327878 0.046797 -0.167724 -0.0136706 -0.0537981 0.0269479 -0.0386136 -0.141444 -0.219146 -0.194355 0.280271 -0.404777 0.155479 0.00160483 -0.115959 -0.121478 -0.150782 0.0119626 0.0593614 0.0990056 0.259834 -0.0270194 0.0155527 -0.090743 -0.0963921 0.0091142 -0.144701 -0.0804846 -0.189182 0.129187 0.144714 -0.0270983 0.110988 0.257264 0.103522 -0.156397 -0.196619 0.0227728 -0.1371 -0.101537 -0.00738778 -0.166788 -0.133543 0.200678 0.160776 -0.0745202 0.0199031 0.171824 0.262528 -0.0870184 0.323899
248837329 0.0801124 0.718349 0.3012 -0.132279 0.0117913 0.00192402 -0.181137 0.229435 0.12866 -0.104878 0.172679 0.117582 -0.432662 -0.112596 -0.318418 -0.199485 -0.0858912 -0.405654 -0.0289139 0.259923 -0.0217734 -0.251576 0.0533004 -0.0167881 -0.0256517 -0.0928372 -0.213927 0.072435 0.203407 -0.0166041 0.0501312 0.185903 0.00174846 -0.149938 -0.243067 -0.017173 0.0391118 0.187497 -0.00016849 0.0818038 -0.0348936 0.0365572 0.0256158 -0.00891153 0.251846 0.0369853 -0.00127793 0.170018 -0.134999 -0.0262548 0.0295184 -0.216865 0.0195631 -0.0647494 -0.0351596 -0.0170172 -0.129796 -0.187123 -0.196259 0.306408 -0.414099 0.10075 0.0532068 -0.156094 -0.152045 -0.183081 -0.040087 0.0756658 0.0760949 0.223479 0.00905702 -0.0366564 -0.0967557 -0.120347 0.0466537 -0.129438 -0.0879586 -0.157909 0.137236 0.123765 -0.085378 0.120044 0.218559 0.109419 -0.14878 -0.20317 -0.00921971 -0.140296 -0.115686 -0.0353737 -0.146892 -0.18673 0.193906 0.131277 -0.103884 0.000212424 0.185072 0.20651 -0.175108 0.337884
171154131 0.0717449 0.705688 0.196737 -0.171626 -0.000490077 -0.0999273 -0.231778 0.253481 0.126018 -0.0786218 0.203762 0.116554 -0.398987 0.0110261 -0.348788 -0.211844 -0.0143594 -0.358172 0.00530501 0.234263 -0.10095 -0.19418 0.120015 0.100848 -0.0460497 -0.107981 -0.20029 -0.0175763 0.194544 0.0603319 0.0787139 0.164049 0.0788909 -0.0884042 -0.185558 -0.0787379 0.0351937 0.23403 -0.026026 0.133305 0.00290506 0.141704 0.021041 0.0492617 0.132917 -0.0130156 -0.0168687 0.311538 -0.140407 -0.0972664 0.0296129 -0.230742 -0.0361677 -0.0764109 0.0870934 -0.0941728 -0.0731182 -0.272993 -0.245648 0.28119 -0.440556 0.129513 -0.100795 -0.0709291 -0.206216 -0.244807 0.0326856 0.0952475 0.108371 0.157566 -0.00495895 -0.0218438 -0.104175 -0.114487 0.0777664 -0.134393 -0.0349973 -0.25986 0.135974 0.158183 0.0435275 0.0701554 0.19649 0.180176 -0.191974 -0.189217 0.0589183 -0.0407647 -0.151876 0.00787193 -0.124862 -0.117104 0.229268 0.108622 -0.0881367 0.0384843 0.1334 0.181672 -0.0592557 0.285562
48029066 0.0234887 0.704565 0.295881 -0.153782 0.017298 -0.0374245 -0.226841 0.22366 0.111182 -0.0994607 0.176224 0.100289 -0.424123 -0.0185406 -0.318515 -0.173435 -0.0633888 -0.35355 -0.0201718 0.261061 -0.0677685 -0.198925 0.110669 0.0495186 -0.0687611 -0.1277 -0.18816 0.0335305 0.207462 0.0686945 0.0832631 0.135638 0.0527359 -0.105818 -0.252497 -0.0448083 0.0423576 0.197951 -0.0293675 0.0895403 0.0217172 0.10767 -0.0414367 0.0603318 0.17435 -0.00594298 -0.0250784 0.238961 -0.122497 -0.0943773 0.0286032 -0.204647 0.0130862 -0.0824543 0.00478627 -0.0613469 -0.11469 -0.226311 -0.219883 0.250147 -0.444308 0.0964936 -0.0506547 -0.0869992 -0.197123 -0.245378 0.012434 0.0655937 0.0799438 0.137607 0.0173431 -0.0168769 -0.111085 -0.079783 0.107205 -0.0770205 -0.0708656 -0.205946 0.115225 0.166218 0.0155033 0.0809263 0.196764 0.205333 -0.201516 -0.183485 0.0776557 -0.0811351 -0.147226 -0.0211082 -0.16093 -0.169945 0.217482 0.086637 -0.125023 0.0197319 0.162877 0.208637 -0.127022 0.299279
46176168 0.0350121 0.701119 0.219588 -0.142524 0.0751579 -0.140588 -0.146021 0.260735 0.102357 -0.0903379 0.160769 0.122272 -0.364695 0.0112332 -0.384397 -0.136588 -0.0178762 -0.344001 -0.00168753 0.26105 -0.13855 -0.230212 0.1403 0.110593 -0.0270865 -0.119276 -0.212826 -0.0355571 0.156198 0.0231081 0.0505596 0.0973101 0.0828027 -0.125074 -0.19848 -0.0352446 0.105548 0.314161 -0.0103254 0.158387 -0.0218545 0.143778 0.0187093 0.0795232 0.118171 -0.0352068 -0.0206584 0.323267 -0.182852 -0.053821 -0.0120703 -0.24411 -0.0483608 -0.0350892 0.0846497 -0.0467349 -0.0691019 -0.268993 -0.258147 0.244035 -0.380035 0.146269 -0.108564 -0.0926454 -0.258147 -0.239843 0.079096 0.0489384 0.0929925 0.170567 -0.0666919 -0.0755223 -0.0686034 -0.0768125 0.0864726 -0.0780607 -0.0481068 -0.234385 0.166467 0.171343 0.0443088 0.0304994 0.219088 0.172982 -0.162159 -0.189423 -0.00926102 0.0285709 -0.174539 0.0121743 -0.050095 -0.133081 0.232651 0.112289 -0.0480152 0.0194308 0.0805022 0.219056 -0.00865273 0.302222
22055226 0.017191 0.73647 0.113544 -0.150711 0.0422707 -0.21981 -0.124392 0.301139 0.159356 -0.102138 0.172514 0.103993 -0.337323 -0.02041 -0.388775 -0.130594 -0.00463971 -0.420441 -0.0197879 0.224373 -0.182031 -0.15809 0.147887 0.0937993 -0.00993516 -0.0646675 -0.241801 -0.00123723 0.169749 -0.0679881 0.0367128 0.146995 0.0679144 -0.112845 -0.12532 -0.0355762 0.131542 0.315218 -0.0127409 0.200639 -0.0629621 0.135439 0.0424865 0.0856943 0.156989 -0.0343347 -0.000549659 0.350512 -0.166875 -0.0888068 -0.0269963 -0.274917 -0.015266 -0.0655556 0.181053 -0.0510978 0.0233412 -0.222267 -0.256522 0.223321 -0.384849 0.101268 -0.0783652 -0.0759652 -0.319777 -0.30831 0.064453 0.0710612 0.128429 0.200141 -0.0428212 -0.108045 -0.0327071 -0.0929157 0.134248 -0.0987328 0.00111508 -0.202415 0.217002 0.157329 -0.0104165 -0.0337743 0.209757 0.185489 -0.170229 -0.200887 -0.0471297 -0.0187889 -0.162284 0.00890989 -0.016672 -0.176504 0.193625 0.0853829 -0.0406203 -0.00931039 0.0506707 0.182464 0.0285579 0.343205
76966145 -0.00626237 0.724497 0.120351 -0.128438 -0.0148626 -0.161158 -0.170198 0.290053 0.164884 -0.0910994 0.127501 0.0687294 -0.34836 -0.0665686 -0.340711 -0.107247 -0.0129701 -0.421543 0.00709081 0.227053 -0.177548 -0.211756 0.149905 0.0204424 0.00797332 -0.0379773 -0.230928 0.0389919 0.142742 -0.0716394 0.0676495 0.158604 0.0392132 -0.103246 -0.145607 -0.038624 0.116337 0.249622 -0.0436317 0.204004 0.00682218 0.152808 0.0363316 0.0839436 0.178955 -0.0520238 -0.00816314 0.351857 -0.175992 -0.0834543 0.0121455 -0.282015 0.0164627 -0.0615187 0.101786 -0.0316349 0.0206445 -0.193487 -0.258495 0.220265 -0.370384 0.100448 -0.0376891 -0.0643516 -0.343675 -0.320845 0.0289326 0.0696831 0.143329 0.143673 -0.022555 -0.11495 -0.0755293 -0.0919916 0.175985 -0.108748 -0.0154932 -0.225497 0.149836 0.127587 -0.0226638 -0.0153209 0.252564 0.183535 -0.170264 -0.212528 -0.0423366 -0.079463 -0.108916 -0.0427843 -0.0233254 -0.211489 0.1826 0.0715528 -0.0656578 -0.0467474 0.0538885 0.177895 -0.0362792 0.334179
16032925 0.0736928 0.688197 0.158329 -0.129302 0.0416489 -0.170104 -0.144832 0.276387 0.153532 -0.0919982 0.167572 0.136373 -0.404249 -0.0439683 -0.411299 -0.166317 -0.0230444 -0.381508 -0.00388759 0.221341 -0.143874 -0.214012 0.100052 0.0818535 -0.0109816 -0.0815828 -0.223655 -0.0112707 0.179539 -0.031973 0.0233237 0.163292 0.0979104 -0.113563 -0.179125 -0.0718127 0.0776004 0.312297 -0.000139898 0.179044 -0.0716743 0.130182 0.0321841 0.0498124 0.140915 -0.0175109 0.00383409 0.297384 -0.184338 -0.0323006 -0.0355917 -0.223747 -0.0372913 -0.0626706 0.102762 -0.0474342 -0.0301862 -0.236562 -0.259248 0.257202 -0.357091 0.14077 -0.085096 -0.102082 -0.284939 -0.237307 0.0526672 0.0321107 0.135945 0.224925 -0.0773687 -0.07689 -0.0753173 -0.0784587 0.0284615 -0.135652 -0.0572125 -0.207212 0.197436 0.149005 -0.0417432 0.00879256 0.218276 0.138705 -0.137099 -0.190761 -0.0528912 -0.0524562 -0.141832 0.0163677 -0.0359418 -0.153434 0.170355 0.130679 -0.0392528 0.0285614 0.0556845 0.207528 0.0321109 0.331231
294728278 -0.00645646 0.696 0.20002 -0.104935 0.0082364 -0.0859297 -0.233977 0.248845 0.168598 -0.109031 0.177667 0.0945626 -0.403868 -0.0498445 -0.374905 -0.157027 -0.00292301 -0.359802 -0.00181832 0.230566 -0.195717 -0.212751 0.171971 0.029408 -0.0383034 -0.110024 -0.169844 -0.0443558 0.209949 -0.00345332 0.100758 0.180746 0.103103 -0.0695964 -0.199056 -0.049207 0.10634 0.266428 -0.0362921 0.151058 0.012373 0.105159 -0.0822674 0.112114 0.142407 -0.0523236 -0.00376158 0.371735 -0.192273 -0.0938324 -0.0182413 -0.190905 0.0373215 -0.0676605 0.0837444 -0.055677 -0.0610888 -0.2264 -0.231767 0.162943 -0.379689 0.119501 -0.153053 -0.0580063 -0.292102 -0.275984 0.0762759 0.0138003 0.170706 0.162598 -0.0517131 -0.0776288 -0.163264 -0.0265769 0.115859 -0.0985139 -0.110384 -0.254814 0.126166 0.162677 -0.00588001 0.00516164 0.314756 0.201209 -0.174886 -0.174923 0.0247113 -0.0558193 -0.142495 -0.00985469 -0.0502151 -0.203197 0.163604 0.100961 -0.128187 -0.00299668 0.0386195 0.250682 0.0193499 0.321854
201802474 0.00411786 0.696285 0.0669288 -0.169911 -0.0342515 -0.18906 -0.216153 0.295617 0.153583 -0.0781603 0.202163 0.0726688 -0.3371 0.0255856 -0.386609 -0.177194 0.0491587 -0.369368 -0.0240353 0.198693 -0.207344 -0.171734 0.152506 0.0860346 -0.037534 -0.0903493 -0.244707 -0.0654818 0.167997 0.00159032 0.0780712 0.171108 0.105763 -0.0246016 -0.153319 -0.0873793 0.0770389 0.24972 -0.062868 0.190059 0.0107775 0.177675 -0.0113993 0.117157 0.0762292 -0.0373442 -0.00242215 0.407205 -0.144938 -0.120486 0.0361563 -0.236859 0.00241382 -0.117216 0.142223 -0.0984271 0.0029196 -0.259916 -0.288308 0.218311 -0.395214 0.14673 -0.15449 -0.0337283 -0.336126 -0.368132 0.0373274 0.0747051 0.166113 0.161624 -0.0508656 -0.0703641 -0.114835 -0.0667007 0.126193 -0.140376 -0.0177656 -0.293948 0.132437 0.159871 0.0213459 -0.00795512 0.225854 0.205796 -0.180949 -0.191525 0.0475026 -0.0233874 -0.151128 -0.00801329 -0.0419153 -0.11833 0.180474 0.080334 -0.0864176 0.0473287 0.0346713 0.138693 0.0282508 0.318596
26533227 -0.0331881 0.695294 0.0652029 -0.103718 -0.0210256 -0.228452 -0.17033 0.284034 0.193958 -0.0771581 0.126904 0.0789782 -0.316843 0.00682425 -0.388117 -0.0849722 0.0061162 -0.359133 -0.00933052 0.21179 -0.236239 -0.169305 0.156948 0.0625195 -0.00567688 -0.0598599 -0.218079 -0.03663 0.152265 -0.0320306 0.071532 0.127403 0.123756 -0.0826083 -0.135258 -0.068103 0.156592 0.323951 -0.0484427 0.214836 -0.025456 0.149918 -0.0311236 0.147087 0.114319 -0.0803221 -0.0126387 0.398849 -0.177298 -0.098184 -0.0440624 -0.266 0.00599872 -0.0716289 0.167223 -0.0733967 0.0481514 -0.224367 -0.267096 0.147844 -0.358308 0.105224 -0.156799 -0.045293 -0.383635 -0.360348 0.0852579 0.0371919 0.15919 0.133333 -0.0660989 -0.128991 -0.0841859 -0.0468518 0.182408 -0.081858 -0.0374533 -0.241293 0.217687 0.154499 0.0228412 -0.0582224 0.226621 0.210727 -0.151528 -0.163126 -0.00361919 -0.00333498 -0.162512 -0.012007 0.0210135 -0.187875 0.180625 0.0571731 -0.064008 -0.0301345 -0.013335 0.187458 0.0690568 0.311633
1050111 0.00383781 0.668554 0.0792512 -0.135804 0.0290852 -0.239041 -0.172662 0.282411 0.168271 -0.0731642 0.208791 0.12986 -0.350185 0.0415998 -0.457375 -0.156946 0.0612241 -0.375473 -0.0227148 0.210626 -0.269498 -0.169185 0.195278 0.098558 -0.00864591 -0.111441 -0.211005 -0.128302 0.183714 -0.0139738 0.0234926 0.16138 0.202475 -0.0292355 -0.158049 -0.0987076 0.149772 0.32648 -0.0286103 0.212699 -0.0492455 0.177585 -0.0377175 0.134802 0.0468375 -0.0474194 0.00135373 0.462007 -0.214328 -0.116135 -0.0460869 -0.197104 -0.0196586 -0.113881 0.209088 -0.0834133 0.0285963 -0.289899 -0.261157 0.139558 -0.36304 0.154699 -0.25911 -0.05625 -0.360138 -0.345761 0.155469 0.00881505 0.18466 0.21959 -0.125352 -0.140507 -0.109831 -0.00181968 0.0908537 -0.0913524 -0.0666707 -0.213674 0.22019 0.196136 -0.00421245 -0.0873432 0.274426 0.209066 -0.173889 -0.139546 -0.00837967 0.0710402 -0.205056 0.0394895 0.0466203 -0.117795 0.171637 0.097143 -0.0467135 0.0664386 -0.0500747 0.22506 0.138478 0.327248
16160352 0.0314762 0.629025 0.227057 -0.0748015 0.101452 -0.111034 -0.142862 0.248148 0.117337 -0.135546 0.182512 0.147496 -0.368662 -0.0458278 -0.427823 -0.177115 0.030032 -0.355355 0.0121872 0.263701 -0.264627 -0.235165 0.227361 0.140216 -0.0855326 -0.123687 -0.168955 -0.0938238 0.24808 -0.00875225 0.0629804 0.135414 0.1566 -0.0956113 -0.217319 -0.0835636 0.150168 0.381556 -0.00194416 0.149832 -0.0339078 0.069294 -0.036239 0.133373 0.106363 -0.05647 -0.0224534 0.384941 -0.217723 -0.0916341 -0.0891061 -0.141837 -0.0158538 -0.0904243 0.141114 -0.020672 -0.101328 -0.251167 -0.178943 0.152909 -0.332509 0.191223 -0.208987 -0.0403863 -0.274997 -0.201311 0.183564 -0.0178294 0.189019 0.307907 -0.191146 -0.0657887 -0.109712 0.00390158 0.0309882 -0.114584 -0.140823 -0.163525 0.199072 0.184371 0.017318 -0.0680581 0.365191 0.166975 -0.12272 -0.134411 -0.0331948 0.005412 -0.176422 0.0664728 -0.00843432 -0.147333 0.134808 0.138824 -0.026635 -0.0212227 -0.0425619 0.362625 0.122472 0.348711
44177383 0.0690569 0.650578 0.269257 -0.0738942 0.0745749 -0.0234037 -0.18536 0.256888 0.124475 -0.15169 0.187319 0.134387 -0.402981 -0.100608 -0.384584 -0.209623 -0.00765946 -0.35034 0.007143 0.243042 -0.180871 -0.25658 0.169612 0.0978591 -0.0971072 -0.102092 -0.189248 -0.00739091 0.279013 -0.00739069 0.0754042 0.168395 0.0851382 -0.13192 -0.241761 -0.0780938 0.0868319 0.31198 -0.0116004 0.103109 -0.00456119 0.0205665 -0.021509 0.0968651 0.168814 0.00577814 -0.0167482 0.261648 -0.165624 -0.060999 -0.027504 -0.13604 -0.00532069 -0.0720391 0.0754907 -0.011334 -0.161105 -0.209281 -0.162315 0.230215 -0.359118 0.167637 -0.0921754 -0.0875332 -0.228539 -0.164857 0.109637 0.0100993 0.16182 0.308373 -0.131058 -0.00409389 -0.120788 -0.0525553 0.0321193 -0.176102 -0.124148 -0.164558 0.155208 0.139831 -0.0222164 0.0259338 0.340562 0.126856 -0.123255 -0.148987 -0.00719212 -0.118622 -0.117568 0.0187587 -0.0813214 -0.157667 0.124438 0.143206 -0.0339934 -0.0175644 0.0380759 0.339878 0.0175808 0.355119
272395158 0.056838 0.712139 0.204943 -0.133447 0.0836212 -0.137345 -0.13629 0.266491 0.103875 -0.0958927 0.193051 0.148348 -0.3755 -0.0214467 -0.378523 -0.177488 -0.0130912 -0.372187 -0.00389471 0.236993 -0.108406 -0.244919 0.064879 0.113619 -0.0148496 -0.0985097 -0.230778 -0.00863491 0.177583 0.0225979 0.0190905 0.0919143 0.0725466 -0.17777 -0.182868 -0.0698589 0.100615 0.314685 0.00290701 0.140649 -0.0829071 0.13162 0.0431378 0.0670163 0.154351 0.0253172 -0.000207693 0.271248 -0.157694 -0.0234512 0.00421034 -0.238526 -0.091672 -0.0111834 0.0576876 -0.0607386 -0.0862001 -0.279296 -0.225734 0.279514 -0.376007 0.175952 -0.0837131 -0.135335 -0.214989 -0.203711 0.0374324 0.0617109 0.101041 0.227963 -0.0727569 -0.0479458 -0.0532651 -0.10815 0.041361 -0.115534 -0.0400311 -0.20841 0.18154 0.177321 0.0117292 0.0573308 0.196486 0.100026 -0.126408 -0.178625 -0.0675103 -0.00974633 -0.196635 -0.00464089 -0.0542248 -0.110598 0.244618 0.127882 -0.020708 0.023567 0.0701826 0.215569 -0.0296947 0.337581
22276141 0.0667758 0.690828 0.223202 -0.159957 -0.00341794 -0.109063 -0.145772 0.279378 0.132457 -0.0797429 0.170817 0.118745 -0.39429 -0.043316 -0.309838 -0.161744 -0.0553821 -0.403687 -0.0180201 0.262681 -0.0798618 -0.230354 0.031214 0.0610289 -0.00920401 -0.0479767 -0.236306 0.0279969 0.163499 0.0101289 0.0513358 0.138691 0.0422817 -0.129596 -0.188941 -0.0423595 0.0567222 0.229161 -0.00710647 0.150161 -0.0513961 0.137698 0.0554887 0.0384696 0.183986 -0.0120345 0.00757338 0.230961 -0.127915 -0.0739104 0.0182311 -0.279255 -0.00108782 -0.0988242 0.0309958 -0.0252284 -0.0568052 -0.240567 -0.26722 0.323849 -0.417275 0.123011 0.00436096 -0.116967 -0.264703 -0.266702 -0.0186485 0.0807912 0.109133 0.196356 -0.0156589 -0.0656161 -0.0498048 -0.120423 0.0600683 -0.120549 -0.0488702 -0.202949 0.165092 0.141969 -0.00101457 0.0747265 0.145353 0.151372 -0.146094 -0.214957 -0.00218748 -0.0803971 -0.167113 -0.0240364 -0.0946627 -0.149849 0.208699 0.0955853 -0.0694029 0.0225711 0.11721 0.154836 -0.118023 0.333509
16031927 0.0645574 0.712423 0.209012 -0.128176 0.04697 -0.0663018 -0.197561 0.239251 0.137967 -0.0960489 0.155279 0.100935 -0.390302 -0.040166 -0.351372 -0.188317 -0.0222424 -0.339096 0.0115629 0.245089 -0.0982753 -0.262439 0.0701351 0.121802 -0.0406803 -0.100877 -0.183905 0.00456569 0.178221 0.0560482 0.0587278 0.154266 0.108426 -0.145178 -0.173303 -0.0922794 0.0782971 0.297907 -0.0211969 0.127559 -0.0630963 0.126624 0.0140967 0.0348749 0.185777 -0.0324328 0.00386998 0.285596 -0.16629 -0.0592936 0.0025788 -0.274951 -0.033524 -0.031167 0.0623415 -0.0691671 -0.0676437 -0.261763 -0.250889 0.2777 -0.411481 0.142764 -0.0608624 -0.126096 -0.214658 -0.227068 -0.00822675 0.0573034 0.118237 0.177607 -0.0311576 -0.0541104 -0.0689741 -0.113843 0.0671714 -0.108506 -0.0591273 -0.217751 0.183424 0.156432 0.0892802 0.0351171 0.202613 0.144102 -0.13278 -0.196243 0.00823218 -0.0566187 -0.149821 -0.0108785 -0.131827 -0.147323 0.232438 0.0814555 -0.0963531 -0.014523 0.112268 0.218094 -0.0551468 0.335374
26487169 -0.000713412 0.715164 0.17232 -0.15899 0.046965 -0.190953 -0.11815 0.263775 0.146983 -0.0761879 0.109018 0.104861 -0.361934 -0.0196746 -0.309748 -0.104416 -0.0586294 -0.404271 -0.0097344 0.306133 -0.156929 -0.270803 0.0678696 0.0353883 0.016602 -0.0751702 -0.23053 0.00593733 0.0960425 -0.0192843 0.0401546 0.0904506 0.0653626 -0.146816 -0.184625 -0.0136485 0.147015 0.270853 -0.0267992 0.173847 -0.0718137 0.193064 0.0135199 0.0884944 0.14662 -0.0576971 -0.0127106 0.318493 -0.163288 -0.0561727 -0.0401796 -0.306344 -0.0138632 -0.103905 0.0360967 -0.0238219 -0.0125687 -0.239652 -0.289966 0.238755 -0.372879 0.130893 -0.0621541 -0.107208 -0.314948 -0.346646 -0.0279175 0.0754755 0.124741 0.154794 -0.0305301 -0.163337 -0.0423728 -0.0725449 0.148654 -0.0333108 -0.060917 -0.189267 0.211427 0.163415 0.0128756 0.0131744 0.172296 0.171852 -0.13852 -0.209667 -0.051486 -0.00505447 -0.182643 -0.0305139 -0.0355809 -0.153569 0.244148 0.0638019 -0.0584132 -0.0151954 0.0715584 0.132587 -0.0798538 0.337466
196168350 0.0336315 0.697347 0.25259 -0.137599 0.062201 -0.129484 -0.148141 0.231488 0.143782 -0.076957 0.0923819 0.128859 -0.365025 -0.00753447 -0.302401 -0.120073 -0.0532234 -0.367335 0.0108489 0.297401 -0.1065 -0.269806 0.0659669 0.059931 -0.00441637 -0.0731457 -0.200126 0.0271403 0.144109 0.0387437 0.0557245 0.0820253 0.0797704 -0.17485 -0.192008 -0.0310959 0.108699 0.244363 -0.00976732 0.134941 -0.0528285 0.166529 0.0158188 0.0461564 0.177059 -0.0608226 0.0121485 0.273416 -0.160209 -0.0637997 -0.0193298 -0.321155 -0.00954954 -0.0551264 0.0416646 -0.0273787 -0.0341024 -0.23903 -0.236159 0.280182 -0.391371 0.106972 -0.0370402 -0.110807 -0.251767 -0.306692 -0.0180465 0.0567056 0.0865156 0.145507 -0.0161929 -0.136942 -0.0101713 -0.0576931 0.14638 -0.0270128 -0.062143 -0.172813 0.20856 0.149646 0.0397469 0.0196525 0.165636 0.178762 -0.164563 -0.178856 -0.00688564 -0.0224808 -0.176363 -0.028033 -0.0600618 -0.166665 0.26285 0.045199 -0.0646014 -0.0101358 0.0776957 0.181171 -0.101007 0.339212
107128390 0.102352 0.756377 0.277754 -0.152269 0.0901542 -0.0643734 -0.130582 0.269024 0.119421 -0.134682 0.17401 0.136186 -0.433549 -0.0988813 -0.295229 -0.195319 -0.120203 -0.451089 0.0234514 0.254637 0.00812827 -0.230725 0.048029 0.070451 -0.0658688 -0.0851502 -0.220753 0.116142 0.177317 -0.0314115 0.0134736 0.159851 -0.0127126 -0.196483 -0.181259 -0.00699521 0.0563331 0.2561 0.0199318 0.0748495 -0.0715011 0.049427 0.111627 -0.0171559 0.247015 0.0407457 -0.0110278 0.137958 -0.125224 -0.0237929 0.0116465 -0.226114 -0.0461551 -0.0446284 0.0532332 -0.0188047 -0.098595 -0.168639 -0.218317 0.314035 -0.411701 0.0933296 0.07109 -0.129786 -0.148166 -0.144737 -0.00268059 0.106572 0.061418 0.250206 0.00164314 0.0108363 -0.0203919 -0.150302 0.0425993 -0.0947664 -0.0338211 -0.150709 0.186126 0.122097 -0.0615248 0.102886 0.174832 0.0925425 -0.12273 -0.227358 -0.0628309 -0.121407 -0.116235 -0.00138381 -0.143528 -0.150657 0.210814 0.14049 -0.0423703 -0.0167766 0.217695 0.209387 -0.122868 0.344802
18646108 0.0908365 0.697542 0.220039 -0.162885 0.0465024 -0.125852 -0.196085 0.267795 0.152964 -0.104214 0.186019 0.137577 -0.425329 -0.0337715 -0.316657 -0.20136 -0.0428242 -0.415083 0.00238376 0.273394 -0.0929834 -0.226856 0.0769127 0.0946721 -0.0617939 -0.0934699 -0.201165 0.0235711 0.192997 0.0246411 0.0520277 0.146767 0.0821566 -0.113565 -0.168109 -0.0656275 0.0709822 0.280378 -0.0246706 0.110446 -0.0502442 0.133831 0.0132667 0.0352758 0.164548 -0.0136632 0.00899302 0.314242 -0.143249 -0.0745761 0.0200052 -0.22444 -0.0183966 -0.0846137 0.0912809 -0.0372068 -0.0367132 -0.236541 -0.281843 0.239629 -0.423323 0.133345 -0.0343833 -0.0858495 -0.222262 -0.242023 0.015118 0.0723851 0.130094 0.199434 0.0132876 -0.0338867 -0.0633007 -0.100354 0.0795886 -0.0950258 -0.0511662 -0.20179 0.194065 0.187499 0.0268885 0.0649918 0.202163 0.155371 -0.197243 -0.208844 0.0133508 -0.0705742 -0.139288 0.00798168 -0.142031 -0.133029 0.212992 0.0884013 -0.0700164 -0.00106123 0.147637 0.194848 -0.0341062 0.306682
110445334 0.0898408 0.733749 0.193282 -0.144056 0.00831502 -0.106004 -0.204008 0.259945 0.15869 -0.0688851 0.176076 0.110967 -0.414296 -0.0285875 -0.339215 -0.176892 -0.0373428 -0.386727 -0.0124212 0.228469 -0.0830207 -0.177945 0.0660088 0.146098 -0.0239905 -0.101082 -0.169956 0.024705 0.172017 0.023751 0.0428434 0.192306 0.105288 -0.126951 -0.129748 -0.105049 0.0675578 0.298334 -0.0125009 0.150802 -0.0516268 0.146307 0.0427434 0.030958 0.203947 -0.0117093 0.00488503 0.308455 -0.155627 -0.0932794 0.0166835 -0.280894 -0.0286417 -0.0619896 0.105203 -0.0588585 -0.0346472 -0.262789 -0.294274 0.282077 -0.415627 0.121821 -0.0611802 -0.114339 -0.225581 -0.230599 0.0227743 0.0937028 0.132827 0.151014 0.027991 -0.00912409 -0.0792918 -0.16453 0.0787319 -0.133834 -0.0115049 -0.232234 0.183089 0.162768 0.0748916 0.0399331 0.160102 0.16748 -0.182405 -0.200696 0.0272663 -0.0489362 -0.155143 0.00873749 -0.120891 -0.16799 0.234629 0.0852431 -0.112025 -0.0332168 0.154241 0.198087 -0.0233913 0.300931
7713202 0.0211213 0.703912 0.208654 -0.115369 0.0475122 -0.172552 -0.16664 0.269255 0.140735 -0.0775779 0.149042 0.143767 -0.375735 0.0260443 -0.387318 -0.0969175 -0.0267688 -0.356119 -0.00151604 0.221847 -0.133101 -0.210732 0.117703 0.118098 -0.0215688 -0.110954 -0.221745 -0.0365111 0.172826 0.0487919 0.0408221 0.102621 0.0957267 -0.125666 -0.183512 -0.0581373 0.0827538 0.324656 -0.0126909 0.186124 -0.0390253 0.176587 0.0185006 0.11188 0.107156 -0.0452937 -0.0015142 0.330843 -0.174397 -0.0714437 -0.0249057 -0.268792 -0.0527005 -0.026835 0.103548 -0.0734309 -0.0359868 -0.27706 -0.267013 0.252996 -0.375437 0.121616 -0.13295 -0.0861296 -0.307477 -0.264811 0.0957788 0.0363524 0.112717 0.145034 -0.080814 -0.0909624 -0.0523833 -0.0622721 0.083754 -0.0780426 -0.0469767 -0.254718 0.19075 0.17031 0.0488365 0.00632133 0.201025 0.182377 -0.167966 -0.165787 -0.0187861 0.0129016 -0.197659 -0.00133119 -0.00624615 -0.163185 0.219664 0.104338 -0.0525761 0.00311037 0.0533459 0.218738 0.025421 0.319697
18608514 0.0948705 0.642884 0.289234 -0.120806 0.0408045 -0.0275062 -0.153664 0.265274 0.102201 -0.10664 0.126128 0.126319 -0.379127 -0.0846593 -0.345335 -0.189826 -0.0339153 -0.372325 0.00216061 0.263214 -0.107156 -0.28445 0.0978743 0.0660208 -0.0408065 -0.0906523 -0.205386 -0.00660662 0.191039 -0.00633015 0.0606731 0.152107 0.0827939 -0.13011 -0.230545 -0.0854299 0.0746248 0.257387 -0.0127709 0.127725 -0.0556857 0.0577041 0.0475249 0.0383442 0.206546 -0.00881882 0.0196642 0.216974 -0.191981 -0.0546855 -0.0185418 -0.194845 -0.012474 -0.0559756 0.0316436 0.015797 -0.114461 -0.224326 -0.211615 0.29711 -0.384901 0.144582 -0.0270482 -0.140417 -0.253179 -0.169335 0.0630387 0.0451176 0.134882 0.270186 -0.0915306 -0.0557727 -0.0567451 -0.0996994 0.0253051 -0.12054 -0.0944926 -0.115171 0.185889 0.124203 -0.0136697 0.0357933 0.279829 0.125843 -0.130315 -0.19326 -0.0252662 -0.0865987 -0.132343 0.0110819 -0.0762311 -0.16179 0.133954 0.109061 -0.0661521 -0.0107863 0.0911609 0.268353 -0.0662885 0.365895
451586190 0.0172249 0.729063 0.275257 -0.142212 0.0135137 -0.0268818 -0.258302 0.223935 0.15448 -0.0722936 0.179583 0.115141 -0.443838 -0.0292922 -0.292718 -0.148248 -0.0720165 -0.376967 -0.0199655 0.25062 -0.0774085 -0.227362 0.0850869 0.051071 -0.0297567 -0.128497 -0.159949 0.0142704 0.179511 0.0577467 0.0593321 0.174598 0.0736275 -0.13521 -0.199125 -0.0457475 0.0413322 0.222799 -0.038499 0.113313 -0.0198882 0.142124 -0.0452358 0.0504723 0.19238 -0.00580632 0.0017181 0.281634 -0.149006 -0.0733642 0.0350471 -0.241949 0.0224459 -0.0733778 0.0176814 -0.0691309 -0.0801495 -0.220193 -0.247306 0.247022 -0.425437 0.0874712 -0.100842 -0.0890057 -0.19979 -0.231159 -0.00243484 0.0588538 0.117093 0.108909 0.0419372 -0.0381835 -0.11468 -0.101714 0.083416 -0.0644141 -0.0721931 -0.25744 0.120541 0.178783 0.0306121 0.0880768 0.210877 0.176759 -0.187649 -0.169813 0.071553 -0.0792437 -0.127288 -0.00976912 -0.144762 -0.202971 0.21142 0.0835168 -0.145032 -0.020202 0.174124 0.195571 -0.0815914 0.287722
285712905 0.0915859 0.696163 0.201167 -0.125978 0.0693235 -0.0987643 -0.170154 0.277191 0.130779 -0.127987 0.206515 0.127936 -0.409573 -0.0738346 -0.412321 -0.213247 -0.00983568 -0.383711 0.00122405 0.215637 -0.168825 -0.205988 0.160021 0.0769928 -0.0551901 -0.0986026 -0.196803 -0.0145221 0.238921 -0.0341567 0.0284952 0.203086 0.107431 -0.10314 -0.193089 -0.0592317 0.0863839 0.308718 0.00133679 0.134063 -0.0510223 0.0683799 0.0042443 0.0528975 0.164242 0.0123335 -0.00721586 0.311428 -0.184356 -0.0647568 -0.0296534 -0.164378 -0.00867953 -0.0774996 0.121585 -0.0261799 -0.0808173 -0.221244 -0.201262 0.239897 -0.378264 0.153577 -0.0879691 -0.0980747 -0.221802 -0.206471 0.0867404 0.0258011 0.148646 0.285844 -0.0845842 -0.0455204 -0.100878 -0.0696655 0.0227509 -0.149829 -0.0743389 -0.17573 0.179279 0.155384 -0.0334777 0.000169256 0.286175 0.131789 -0.140248 -0.188236 -0.026744 -0.076283 -0.119576 0.0261309 -0.0583337 -0.154545 0.160973 0.15542 -0.0400745 0.0186231 0.0675601 0.276002 0.0327943 0.341776
27311044 0.0334072 0.70465 0.267775 -0.168974 0.0368062 -0.103826 -0.18119 0.246948 0.120584 -0.0851932 0.166425 0.099199 -0.370221 0.0291104 -0.345343 -0.149899 -0.0419073 -0.337571 -0.00547228 0.246723 -0.0828323 -0.218231 0.0564328 0.0900768 -0.031535 -0.111602 -0.187581 5.9333e-05 0.157431 0.0807153 0.068481 0.102867 0.0875874 -0.145326 -0.200619 -0.0655301 0.0847793 0.256757 -0.0230355 0.122602 -0.0519945 0.155636 -0.0253281 0.0610517 0.195202 -0.0457903 -0.000856105 0.269999 -0.145558 -0.0826191 0.00391471 -0.274165 -0.036138 -0.0262592 0.0456271 -0.07277 -0.0561357 -0.270975 -0.263156 0.23834 -0.442714 0.119494 -0.0649277 -0.0922926 -0.204894 -0.256912 -0.00374624 0.0631059 0.069935 0.107172 -0.000386772 -0.0549313 -0.0732613 -0.107038 0.101506 -0.0515148 -0.0440451 -0.228951 0.167541 0.168691 0.096191 0.0420394 0.163504 0.203891 -0.170699 -0.203358 0.0351629 -0.019779 -0.192589 -0.00628667 -0.135587 -0.155388 0.263993 0.063025 -0.107016 0.0125893 0.133711 0.173664 -0.0730223 0.289605
21536398 0.0485801 0.698754 0.274298 -0.139975 0.00339803 -0.0268798 -0.224705 0.240888 0.14108 -0.112873 0.160513 0.0990985 -0.431188 -0.0645338 -0.296579 -0.172105 -0.0801812 -0.353516 -0.0144987 0.276904 -0.0674238 -0.250737 0.0762147 0.0425211 -0.0486346 -0.0715641 -0.219082 0.0751375 0.219969 0.0486606 0.0977291 0.130016 0.0376345 -0.146505 -0.247513 -0.0493437 0.0450427 0.219869 -0.0510605 0.105 -0.0020349 0.0785113 -0.0203202 0.035726 0.205633 0.00417664 -0.0131855 0.202518 -0.100203 -0.06053 0.047482 -0.226027 0.0314456 -0.0871774 -0.0243943 -0.0195089 -0.126838 -0.195413 -0.219442 0.285362 -0.43933 0.103402 0.0222556 -0.122208 -0.212343 -0.232611 -0.0445324 0.0626888 0.0857722 0.178215 0.0075898 -0.0176833 -0.0818226 -0.115666 0.0957063 -0.108874 -0.0737385 -0.201924 0.145718 0.149412 0.0319868 0.101244 0.194811 0.166918 -0.145072 -0.201854 0.056195 -0.163041 -0.106018 -0.049173 -0.178137 -0.169132 0.196568 0.0948622 -0.101876 -0.0236853 0.184631 0.195278 -0.151176 0.318629
33933259 0.056002 0.682379 0.149407 -0.107047 0.132327 -0.143905 -0.142312 0.257279 0.156035 -0.136226 0.221187 0.156972 -0.366033 -0.0229416 -0.484628 -0.199627 0.0548193 -0.39596 -0.0128658 0.227298 -0.243165 -0.227854 0.202449 0.132506 -0.0713985 -0.125461 -0.192839 -0.109047 0.26629 -0.0178789 0.0224603 0.188987 0.172316 -0.0827962 -0.133121 -0.0762996 0.169228 0.388339 0.0054127 0.164258 -0.0908816 0.0435701 -0.0103962 0.100211 0.0918084 -0.00732384 0.0110191 0.41496 -0.225455 -0.0655183 -0.0691491 -0.163879 -0.0474427 -0.0587115 0.224114 -0.0491089 -0.0639952 -0.250983 -0.175594 0.160621 -0.346391 0.196896 -0.198797 -0.0901975 -0.233418 -0.212531 0.160324 -0.0081798 0.191669 0.327278 -0.168005 -0.0594796 -0.102717 -0.00848161 0.0240474 -0.139074 -0.09821 -0.181901 0.219598 0.173194 -0.0151304 -0.0579007 0.348467 0.122381 -0.129363 -0.146648 -0.0665607 0.00796441 -0.176258 0.052772 0.0120474 -0.110586 0.152861 0.137812 -0.0198598 0.0343119 -0.0356437 0.324094 0.157145 0.375918
20975060 0.00128543 0.685683 0.16166 -0.120072 9.33154e-05 -0.13923 -0.186066 0.261129 0.157859 -0.0869134 0.183765 0.0835337 -0.369541 -0.0141428 -0.3585 -0.15885 -0.00872158 -0.384059 -0.0294951 0.224067 -0.196366 -0.1712 0.156254 0.0733101 -0.0322103 -0.106933 -0.194945 -0.0163019 0.180808 -0.015257 0.0650799 0.141745 0.0953665 -0.078967 -0.191199 -0.0651549 0.119349 0.290394 -0.0448815 0.151051 -0.0155596 0.141702 -0.0377115 0.129591 0.134176 -0.0218777 -0.0272554 0.342245 -0.178686 -0.084826 -0.0147498 -0.213809 0.00723587 -0.0927919 0.0807028 -0.0458005 -0.0196914 -0.229307 -0.261774 0.14871 -0.393611 0.109294 -0.137243 -0.0620975 -0.303473 -0.30365 0.0675216 0.0520359 0.162055 0.15809 -0.0382473 -0.0694665 -0.119498 -0.0687155 0.141992 -0.0699996 -0.0684871 -0.213373 0.169672 0.189866 0.00753653 6.03315e-05 0.258774 0.207432 -0.188743 -0.152197 0.0239769 -0.0278286 -0.155225 0.0135137 -0.0466818 -0.183466 0.185287 0.0732657 -0.101251 -0.0394587 0.0706349 0.201054 0.0196769 0.301494
68140532 0.0762901 0.730292 0.308887 -0.170488 0.0409508 -0.0539089 -0.154953 0.292206 0.0887371 -0.120747 0.118511 0.114453 -0.416647 -0.086254 -0.301553 -0.180847 -0.103454 -0.406791 0.015159 0.291262 -0.0110003 -0.299257 0.0408267 0.0510987 -0.0588235 -0.0636361 -0.263855 0.097989 0.177618 0.00291756 0.0545211 0.112235 -0.0193099 -0.177157 -0.242933 -0.0173085 0.0465633 0.219899 -0.00712106 0.100837 -0.0276576 0.0715246 0.0765755 0.00389079 0.225756 0.0315775 0.00980497 0.145991 -0.125116 -0.0423893 0.0407387 -0.255216 -0.03265 -0.0586364 -0.0431366 -0.00189719 -0.127741 -0.200374 -0.240135 0.374273 -0.444075 0.11522 0.106409 -0.1571 -0.222431 -0.197128 -0.0346249 0.0994483 0.0555128 0.240142 -0.0246299 -0.0168184 -0.0248402 -0.130733 0.0775487 -0.111137 -0.0586077 -0.154125 0.159883 0.121136 -0.0212667 0.13377 0.168047 0.11209 -0.151023 -0.257051 -0.0272239 -0.137145 -0.124571 -0.0362857 -0.146151 -0.149386 0.208858 0.098224 -0.0619943 -0.00607164 0.175576 0.187985 -0.19123 0.377493
21010214 0.0935501 0.70472 0.230952 -0.146767 0.0193452 -0.11365 -0.169815 0.279159 0.13489 -0.108153 0.155801 0.0984044 -0.411544 -0.0329677 -0.300993 -0.181858 -0.0826188 -0.39225 0.00734233 0.250445 -0.0381414 -0.207731 0.0344853 0.0597969 -0.0474049 -0.0719276 -0.226037 0.0670489 0.140336 0.0385343 0.0486866 0.129112 0.0297455 -0.147559 -0.173433 -0.0561981 0.0598746 0.255596 -0.0350816 0.111722 -0.0721573 0.130322 0.0351789 0.00183338 0.203339 -0.00138004 0.013023 0.233427 -0.145919 -0.0410045 0.0371934 -0.275208 -0.020828 -0.0546319 0.0360083 -0.0393723 -0.0396931 -0.230231 -0.283751 0.272073 -0.444738 0.116102 0.00725271 -0.0936724 -0.20871 -0.226097 -0.0282619 0.0885161 0.0755769 0.152204 0.0174126 -0.0298052 -0.070453 -0.141962 0.0884765 -0.0895642 -0.0328955 -0.230621 0.167302 0.143971 0.0422029 0.0865516 0.138604 0.1536 -0.152232 -0.241024 0.0124077 -0.110406 -0.111357 0.0014466 -0.14839 -0.154543 0.221201 0.0580092 -0.0873779 -0.00954372 0.18464 0.130319 -0.105862 0.297136
14883401 0.0793592 0.724742 0.245203 -0.136789 0.0455571 -0.0549276 -0.172537 0.278759 0.0871617 -0.124415 0.183056 0.122854 -0.394792 -0.0688826 -0.361405 -0.209331 -0.0412331 -0.393453 -0.00186788 0.251826 -0.0745184 -0.24068 0.116485 0.104271 -0.0750565 -0.100823 -0.221286 0.0425942 0.213105 0.0136517 0.0633214 0.154968 0.0374575 -0.13531 -0.206855 -0.0567184 0.0739831 0.27607 -0.0105838 0.127523 -0.0268598 0.0638574 0.0592186 0.0415317 0.194521 0.0194789 -0.0162249 0.233936 -0.125996 -0.0650287 0.0222521 -0.208993 -0.032659 -0.0484844 0.0620256 -0.0341954 -0.135411 -0.236717 -0.217792 0.308953 -0.418366 0.159595 -0.00468706 -0.138829 -0.210016 -0.160797 0.0520397 0.066614 0.0998176 0.250207 -0.0526628 0.00486235 -0.0670046 -0.125405 0.0436338 -0.159041 -0.0672873 -0.176889 0.164416 0.149306 -0.00231693 0.096253 0.226525 0.124001 -0.148874 -0.192038 -0.0208518 -0.0744777 -0.158913 0.000613076 -0.110974 -0.135181 0.204916 0.126646 -0.0651447 0.0215657 0.132393 0.240947 -0.084003 0.347942
266084180 0.0385537 0.751385 0.298676 -0.1713 -0.0105713 0.007932 -0.253425 0.225747 0.134882 -0.113786 0.175353 0.0849682 -0.448421 -0.0709541 -0.273144 -0.208728 -0.0970125 -0.383629 -0.000108106 0.290942 0.0030085 -0.265541 0.048491 0.00223413 -0.0627709 -0.0942607 -0.219496 0.104736 0.189889 0.0484937 0.0978162 0.153375 0.00536967 -0.14104 -0.25515 -0.027134 0.030389 0.14381 -0.0448924 0.0739625 0.0066564 0.0738534 0.0068057 -9.12593e-05 0.231639 0.00268817 0.0033875 0.170541 -0.0989757 -0.0559928 0.0640335 -0.222255 0.0263402 -0.0909785 -0.0598681 -0.0668346 -0.137367 -0.204585 -0.234229 0.30481 -0.470385 0.0808364 0.0485501 -0.129602 -0.15733 -0.228587 -0.0830914 0.101373 0.062568 0.160307 0.0674745 0.00931613 -0.0912015 -0.108246 0.0946015 -0.100969 -0.0555379 -0.225524 0.0986977 0.14671 -0.0163197 0.159583 0.169625 0.156351 -0.171114 -0.224691 0.0737101 -0.155838 -0.127392 -0.0626869 -0.222347 -0.158457 0.210976 0.0953618 -0.155226 0.0354962 0.238074 0.148703 -0.215077 0.329629
21301913 0.0479247 0.676389 0.171644 -0.139038 -0.0266146 -0.103446 -0.184151 0.274152 0.147268 -0.090547 0.161762 0.0853541 -0.369534 -0.0429932 -0.366165 -0.17827 -0.0245231 -0.377314 -0.0234527 0.231268 -0.138892 -0.208875 0.11868 0.0389114 -0.0447424 -0.0717976 -0.224781 -0.0120864 0.195591 -0.0144665 0.077196 0.177959 0.0815125 -0.0687813 -0.182998 -0.0683168 0.0783594 0.237301 -0.0366614 0.144626 -0.0238421 0.0933646 0.00244591 0.085085 0.154312 -0.0143836 0.0065371 0.28641 -0.15597 -0.0839949 -0.00231422 -0.21146 0.0210345 -0.0987069 0.0863707 -0.058122 -0.0477276 -0.2266 -0.260155 0.242159 -0.396489 0.115037 -0.0706408 -0.108794 -0.295868 -0.270191 0.046057 0.0591769 0.150781 0.213382 -0.0427561 -0.0376489 -0.100338 -0.086919 0.0846703 -0.13377 -0.0483559 -0.200973 0.15322 0.144171 -0.0209705 0.0296373 0.216252 0.165637 -0.152099 -0.201932 0.0308423 -0.0797495 -0.144519 -0.000342107 -0.0744218 -0.16457 0.14667 0.085555 -0.0870622 0.0232807 0.0876472 0.180241 -0.0278681 0.319168
18791763 0.0152311 0.727229 0.233945 -0.121722 0.0524206 -0.120186 -0.177143 0.235565 0.13991 -0.0950688 0.172226 0.110888 -0.401185 0.0108971 -0.346152 -0.1263 -0.0418989 -0.39437 0.00762935 0.235856 -0.073081 -0.209289 0.0563973 0.0965135 -0.0369072 -0.119456 -0.186466 0.0189294 0.158835 0.0699121 0.0598256 0.111961 0.0762679 -0.128535 -0.160549 -0.0753155 0.0930959 0.296923 -0.0319056 0.167269 -0.061176 0.147656 0.0214121 0.0572684 0.176914 -0.0442982 0.0168964 0.293914 -0.15962 -0.0571953 -0.0230865 -0.250412 -0.0514093 0.00505111 0.0565221 -0.0606925 -0.047327 -0.270291 -0.280895 0.216087 -0.406341 0.12949 -0.074884 -0.114688 -0.233137 -0.239677 0.0188182 0.0654422 0.0974095 0.122751 0.00287663 -0.0383426 -0.0596236 -0.0952698 0.0988286 -0.0545752 -0.0401947 -0.243132 0.182775 0.168725 0.0617148 0.0400022 0.173552 0.18589 -0.159049 -0.210403 -0.0206023 -0.0155748 -0.214527 -0.0097271 -0.0784735 -0.147454 0.239312 0.0628111 -0.115775 0.00693083 0.142961 0.183105 -0.018317 0.310979
246505331 0.111947 0.718266 0.301122 -0.136413 0.04282 -0.0308383 -0.138853 0.27083 0.105846 -0.131453 0.147403 0.120361 -0.442502 -0.12527 -0.313348 -0.213588 -0.0978489 -0.434466 0.00708818 0.266175 -0.0183364 -0.258892 0.0584879 0.0221506 -0.0416067 -0.066874 -0.242499 0.109383 0.185516 -0.0428067 0.0462076 0.157583 -0.0167207 -0.170751 -0.220502 -0.0254619 0.0519879 0.210345 -0.00552741 0.0920579 -0.0564923 0.0453753 0.0996436 -0.0280479 0.248559 0.0504278 0.0112204 0.14136 -0.14117 -0.0137211 0.028374 -0.222855 -0.0124336 -0.0646641 -0.0124369 0.0133652 -0.114422 -0.180951 -0.212218 0.335524 -0.420827 0.112332 0.0998765 -0.151465 -0.183686 -0.162927 -0.015039 0.0875451 0.0751422 0.280305 -0.0208891 -0.0160603 -0.0397387 -0.143471 0.0472556 -0.124071 -0.0609826 -0.125134 0.159105 0.11131 -0.0833776 0.101672 0.217517 0.0979237 -0.139326 -0.239235 -0.0458364 -0.157378 -0.107009 -0.0171728 -0.128526 -0.151222 0.189946 0.132606 -0.0553411 0.000246137 0.203168 0.211015 -0.168902 0.36261
234767974 0.0908861 0.793027 0.280427 -0.163381 0.0761179 -0.0547119 -0.133006 0.285734 0.0895853 -0.147796 0.14979 0.117784 -0.443324 -0.148296 -0.321523 -0.216921 -0.104775 -0.476925 0.0153097 0.279845 -0.0299174 -0.251769 0.095268 0.0271218 -0.0500326 -0.0713721 -0.284146 0.128164 0.176857 -0.0830022 0.0142983 0.163871 -0.0646964 -0.186531 -0.215809 0.0363559 0.0582871 0.217661 0.00525152 0.0957167 -0.0574807 0.0561817 0.138754 -0.0524552 0.252318 0.0537284 -0.000879292 0.147513 -0.164175 -0.0215524 0.0650651 -0.245111 -0.0254595 -0.066037 -0.012508 0.00415798 -0.118056 -0.178452 -0.204825 0.371657 -0.445278 0.110275 0.129885 -0.140532 -0.189105 -0.192714 -0.0376605 0.119929 0.0503114 0.277308 -0.0176596 -0.0301559 -0.0305735 -0.148851 0.0680731 -0.127256 -0.0298448 -0.145906 0.149915 0.119031 -0.0982228 0.103709 0.221336 0.0767419 -0.139629 -0.275342 -0.0933273 -0.140753 -0.0783146 -0.0233905 -0.129106 -0.16991 0.20191 0.145818 -0.0262474 -0.0257089 0.224098 0.209613 -0.214503 0.405914
214620546 0.0981902 0.797741 0.284313 -0.157565 0.0640639 -0.0550269 -0.130317 0.289044 0.0843023 -0.130026 0.183492 0.112896 -0.41933 -0.114705 -0.327336 -0.208062 -0.0876098 -0.466408 0.0133622 0.251097 -0.0305361 -0.215266 0.1056 0.0622182 -0.0372535 -0.0647295 -0.264264 0.122581 0.169568 -0.0800903 0.0128397 0.177668 -0.0525254 -0.193794 -0.196332 0.00145208 0.0600005 0.233533 0.0199717 0.113896 -0.0457478 0.0477236 0.151718 -0.0362678 0.261457 0.0664334 -0.021587 0.153033 -0.142984 -0.0391319 0.0507474 -0.249828 -0.0453145 -0.0638643 0.024673 0.00235878 -0.121713 -0.188067 -0.196165 0.385002 -0.437346 0.116099 0.0865444 -0.135253 -0.174895 -0.151651 0.000985177 0.126319 0.0501184 0.261868 -0.0150057 -0.0151168 -0.027274 -0.183733 0.0583537 -0.147121 -0.0214888 -0.139395 0.158312 0.113542 -0.0808537 0.0845876 0.212963 0.102446 -0.133349 -0.243973 -0.0759577 -0.115432 -0.10578 -0.00735421 -0.131518 -0.152735 0.214725 0.155397 -0.0293888 -0.0206146 0.213953 0.211893 -0.17352 0.37833
15513604 0.0844655 0.709786 0.217759 -0.161232 0.0702124 -0.14889 -0.106834 0.281095 0.114436 -0.123657 0.155278 0.14259 -0.379993 -0.0110431 -0.354998 -0.178459 -0.0336019 -0.375772 0.0108654 0.265953 -0.0919478 -0.229487 0.0984791 0.137957 -0.0440425 -0.0860391 -0.225387 0.0220336 0.160484 0.0127973 0.0618825 0.106666 0.0780928 -0.152747 -0.172768 -0.0824051 0.110137 0.307855 0.00646155 0.132377 -0.0810759 0.117214 0.0637137 0.0257807 0.176301 -0.0217529 0.0114005 0.252509 -0.160395 -0.0479928 -0.0119854 -0.250295 -0.080091 -0.0318758 0.0943846 -0.0393265 -0.0524197 -0.251921 -0.261558 0.259714 -0.403406 0.147378 -0.0261204 -0.105864 -0.233338 -0.206427 0.0735134 0.070083 0.0827072 0.234599 -0.0780556 -0.0441738 -0.0191335 -0.109504 0.0524043 -0.0785814 -0.035567 -0.162538 0.217676 0.148236 0.0221438 0.0153952 0.186471 0.155092 -0.133631 -0.231792 -0.0554639 -0.0336064 -0.172567 0.0116564 -0.0806302 -0.110001 0.222909 0.0910797 -0.0347399 0.0274404 0.0975431 0.215042 -0.0155274 0.347029
12044602 0.0497639 0.660467 0.199263 -0.0801957 0.120916 -0.11516 -0.15151 0.268834 0.124966 -0.126554 0.206648 0.144209 -0.379714 -0.0220027 -0.408888 -0.174716 0.0144363 -0.343823 -0.0113921 0.23715 -0.201192 -0.231916 0.160025 0.176049 -0.0763806 -0.107288 -0.158554 -0.060495 0.220798 0.0291196 0.0438082 0.125774 0.152576 -0.117801 -0.1435 -0.110198 0.13738 0.401804 0.000908867 0.148761 -0.0800029 0.102987 -0.0224664 0.113073 0.104166 -0.0255787 -0.0162294 0.363484 -0.199032 -0.0672133 -0.0594136 -0.175751 -0.0545094 -0.0314064 0.155375 -0.0395261 -0.0658614 -0.268437 -0.209071 0.175165 -0.348941 0.171872 -0.187555 -0.0958317 -0.26212 -0.160931 0.15062 -0.0125391 0.178309 0.254494 -0.127658 -0.0370136 -0.0738437 -0.0672032 0.0158414 -0.105076 -0.0823387 -0.166773 0.215279 0.199144 0.0949465 -0.0316885 0.277583 0.138647 -0.122167 -0.144059 -0.0424203 0.00382441 -0.183453 0.0459213 -0.0410308 -0.133731 0.162978 0.110866 -0.0410359 -0.0319597 0.00855033 0.313684 0.122089 0.331557
191227452 0.0768051 0.71908 0.206382 -0.139238 0.117898 -0.090266 -0.19475 0.243913 0.161221 -0.14909 0.283104 0.16135 -0.434874 -0.0688738 -0.447608 -0.207215 0.0173231 -0.395969 -0.0132232 0.20133 -0.127262 -0.20121 0.150152 0.097918 -0.0692362 -0.12339 -0.2034 -0.0457757 0.284097 -0.0273496 0.0289645 0.215862 0.110352 -0.105579 -0.167399 -0.0447366 0.0864422 0.330492 0.0044427 0.132448 -0.0774663 0.013086 0.0019215 0.0484465 0.130371 0.0328051 0.0211126 0.327959 -0.187549 -0.0623789 -0.00523844 -0.120305 -0.0254037 -0.0265152 0.175954 -0.0895183 -0.0805012 -0.226493 -0.181855 0.195113 -0.356413 0.138356 -0.0937863 -0.100991 -0.154387 -0.16487 0.0993192 0.00872607 0.131984 0.298123 -0.0849291 -0.0179536 -0.111708 -0.0301506 -0.0317839 -0.169388 -0.0664246 -0.231523 0.186649 0.166702 -0.0804435 0.0392096 0.302822 0.0791057 -0.153405 -0.18895 -0.0279968 -0.0698922 -0.13433 0.00873293 -0.0934722 -0.125259 0.154291 0.199022 -0.052491 0.0684084 0.0797084 0.287221 0.072072 0.363611
14293310 0.071674 0.641796 0.265838 -0.100351 0.134771 -0.0894531 -0.172993 0.242711 0.141411 -0.158889 0.226999 0.185425 -0.404666 -0.067998 -0.420975 -0.211628 -0.0016635 -0.395212 -0.00172987 0.247099 -0.207249 -0.213724 0.189814 0.140433 -0.0996553 -0.11625 -0.179392 -0.0687686 0.283756 0.000516904 0.061912 0.189645 0.142065 -0.0795973 -0.187655 -0.0733098 0.100067 0.37943 0.021799 0.118096 -0.0389657 0.0157198 -0.0284864 0.108715 0.11579 -0.00477056 0.00131812 0.341526 -0.177259 -0.102509 -0.0626428 -0.111501 -0.0411313 -0.0753327 0.171615 -0.0204517 -0.139448 -0.229651 -0.171986 0.159006 -0.347191 0.190921 -0.149123 -0.0684177 -0.218233 -0.172524 0.164003 -0.00552197 0.188621 0.333824 -0.164743 -0.0231661 -0.122386 -0.00838379 0.00403711 -0.146466 -0.116884 -0.150593 0.197922 0.165688 -0.0265898 -0.0242214 0.353526 0.122406 -0.145558 -0.14493 -0.0370731 -0.0441069 -0.158569 0.0524977 -0.0432141 -0.12428 0.130304 0.162098 -0.0170746 0.0121948 -0.00547887 0.354718 0.0981495 0.358053
262326533 0.141279 0.712889 0.326966 -0.138291 0.08175 0.0145819 -0.174014 0.240493 0.114228 -0.136485 0.17277 0.155863 -0.47926 -0.150723 -0.338683 -0.232082 -0.101033 -0.418622 -0.00271702 0.291128 -0.0201465 -0.273552 0.0963063 0.0624051 -0.086302 -0.0926743 -0.205673 0.0832697 0.236632 -0.00980772 0.0486996 0.19328 0.0364399 -0.1549 -0.236286 -0.0340557 0.0563859 0.268209 -0.00852974 0.0682099 -0.056381 0.00644514 0.0651024 -0.0200842 0.225059 0.0577079 0.0178917 0.147487 -0.143419 -0.0246085 0.018459 -0.156476 -0.0150574 -0.0600499 -0.00249434 0.00178432 -0.172268 -0.191904 -0.174379 0.304033 -0.407717 0.141981 0.0850091 -0.158709 -0.135137 -0.124528 0.0303413 0.0562667 0.0940814 0.309386 -0.0293736 0.0369021 -0.0833302 -0.108725 -0.0141434 -0.173836 -0.0804072 -0.150618 0.160527 0.133799 -0.065694 0.114677 0.248942 0.0719361 -0.124487 -0.236036 -0.0326286 -0.187183 -0.0825869 -0.0124871 -0.158433 -0.15443 0.160312 0.164059 -0.0702942 0.00775976 0.191947 0.268053 -0.109894 0.358873
111400999 0.0857974 0.708993 0.321342 -0.150426 0.0380648 -0.0213048 -0.180163 0.259087 0.106572 -0.134799 0.169977 0.120343 -0.432771 -0.0763572 -0.318104 -0.206251 -0.0666376 -0.388101 0.00895769 0.288277 -0.0332835 -0.283155 0.0588304 0.0555433 -0.0768756 -0.0716294 -0.212391 0.0753395 0.223636 0.0326258 0.086583 0.13067 0.0170597 -0.156841 -0.236967 -0.0403667 0.0493204 0.221559 0.00121845 0.0815299 -0.0256183 0.0596357 0.0356372 0.00215316 0.206568 0.0141817 0.00925798 0.179769 -0.11207 -0.0449321 0.0376161 -0.232366 -0.00415382 -0.0561193 -0.0245341 -0.0411329 -0.137439 -0.236139 -0.219491 0.332087 -0.441077 0.117636 0.0466594 -0.141424 -0.178247 -0.199073 -0.0140427 0.0831949 0.0756377 0.223022 0.0128474 0.00148347 -0.0750412 -0.101634 0.0438227 -0.130899 -0.058739 -0.183094 0.13482 0.131753 -0.000259317 0.118635 0.194323 0.125704 -0.146392 -0.236567 0.000205164 -0.150094 -0.139341 -0.044127 -0.180013 -0.151154 0.203893 0.102159 -0.0652978 0.0233947 0.170553 0.219783 -0.160675 0.349847
7259302 0.012645 0.680604 0.195154 -0.109553 0.0902415 -0.111444 -0.193971 0.261144 0.149228 -0.12461 0.219062 0.0960821 -0.385737 -0.0356728 -0.39124 -0.169031 0.00420551 -0.363637 0.000377881 0.226027 -0.202743 -0.223947 0.167558 0.0860853 -0.0692356 -0.10976 -0.176736 -0.0515502 0.214892 0.00215793 0.0527001 0.139641 0.129186 -0.110254 -0.170829 -0.0772213 0.132708 0.330083 -0.0497664 0.124615 -0.0619067 0.0974435 -0.0631597 0.102706 0.127444 -0.0228212 -0.00915745 0.365157 -0.211081 -0.0669355 -0.0206961 -0.170481 -0.00376338 -0.0211938 0.138134 -0.0555805 -0.0378892 -0.221917 -0.224225 0.147041 -0.365568 0.130923 -0.180246 -0.0711253 -0.243325 -0.226289 0.0852326 -0.00689464 0.17138 0.199771 -0.0676128 -0.0665224 -0.105535 -0.0605717 0.0692698 -0.0575911 -0.0641661 -0.226307 0.179097 0.178861 0.0504404 -0.0177241 0.320679 0.156836 -0.136557 -0.181624 0.00341855 -0.0359752 -0.120547 0.0269461 -0.071508 -0.156497 0.15589 0.10787 -0.0681063 -0.0352764 0.0539037 0.261022 0.0673277 0.313722
14335880 0.0200061 0.709558 0.177172 -0.123358 0.0353398 -0.173705 -0.162004 0.267954 0.177164 -0.0820685 0.17433 0.1156 -0.367032 0.00858117 -0.324263 -0.13094 -0.0370966 -0.39966 0.0126673 0.242621 -0.144748 -0.187133 0.0745297 0.101471 -0.0269271 -0.0935395 -0.184104 -0.00219626 0.158867 0.0270218 0.039706 0.1347 0.106957 -0.12704 -0.151352 -0.0593053 0.124199 0.301001 -0.0110573 0.156307 -0.0546669 0.154036 -0.00632948 0.0982711 0.154795 -0.0671278 -0.00478286 0.314138 -0.160013 -0.0922425 -0.0467252 -0.270441 -0.00503923 -0.0714516 0.117245 -0.0611857 -0.00348422 -0.240456 -0.281255 0.212963 -0.395502 0.0994395 -0.112068 -0.0887709 -0.289554 -0.280268 0.0480704 0.0493338 0.13103 0.135583 -0.0239669 -0.0853113 -0.0544988 -0.0651252 0.126492 -0.0557874 -0.0512311 -0.223179 0.218999 0.1703 0.055272 0.0191133 0.162777 0.187102 -0.145979 -0.179807 0.000787043 -0.0043735 -0.191424 0.00563357 -0.0576656 -0.173 0.208227 0.0462385 -0.0769338 -0.0189995 0.0791849 0.193651 0.0133298 0.296468
18770485 0.0575561 0.694691 0.21996 -0.138462 0.0643373 -0.186275 -0.0827004 0.28719 0.143259 -0.112487 0.119915 0.112769 -0.369184 -0.052069 -0.298917 -0.143156 -0.0765452 -0.400912 0.0285415 0.295477 -0.0931567 -0.253684 0.0273999 0.0676404 -0.00320779 -0.0439439 -0.250241 0.0575631 0.0930241 -0.010076 0.040055 0.0947163 0.0401557 -0.174348 -0.154156 -0.0401927 0.109489 0.300335 0.00535792 0.144253 -0.0968401 0.152593 0.0704305 0.0341961 0.18796 -0.0487973 -0.0102125 0.267276 -0.165251 -0.00984501 -0.0375455 -0.320947 -0.0515901 -0.0318979 0.0444333 -0.00803309 -0.00868969 -0.236909 -0.309675 0.266237 -0.398648 0.133463 -0.0124762 -0.106847 -0.291047 -0.273197 -0.0339418 0.0890124 0.113665 0.176813 -0.030116 -0.11642 -0.018256 -0.114418 0.124723 -0.0389765 -0.0360591 -0.16179 0.232057 0.123626 0.053386 0.0125285 0.15238 0.1535 -0.127769 -0.243718 -0.0899427 -0.055707 -0.147077 -0.0112306 -0.075717 -0.155057 0.225792 0.0432219 -0.0372742 -0.0461347 0.105641 0.13989 -0.0754125 0.336472
107117835 0.0847129 0.784407 0.301561 -0.163634 0.0392976 -0.0312424 -0.146178 0.27792 0.0950389 -0.12957 0.141896 0.112758 -0.43138 -0.114663 -0.280613 -0.195267 -0.121706 -0.431142 0.0307895 0.294039 -0.00160687 -0.265743 0.0475655 0.0427886 -0.0554317 -0.0788974 -0.265208 0.137743 0.159868 -0.014534 0.0405707 0.130914 -0.0625631 -0.227607 -0.226539 0.0126063 0.0404509 0.210525 -0.00905412 0.0688151 -0.0498451 0.0755897 0.111307 -0.0387151 0.274873 0.0322097 -0.0233812 0.118396 -0.123853 -0.0175275 0.0703304 -0.294341 -0.0334988 -0.0561873 -0.0515304 -0.019536 -0.129972 -0.18762 -0.220801 0.401664 -0.460045 0.110434 0.117103 -0.128707 -0.171768 -0.202245 -0.0833789 0.128629 0.022638 0.213611 0.012393 -0.0176272 -0.0306461 -0.179713 0.0808404 -0.0857487 -0.0342402 -0.179247 0.153609 0.121612 -0.0125246 0.145311 0.175658 0.103792 -0.123551 -0.259841 -0.0331152 -0.14044 -0.0946544 -0.0388732 -0.191033 -0.169963 0.244009 0.115086 -0.0570152 -0.0311705 0.248068 0.184524 -0.252538 0.368498
223970563 0.107215 0.735263 0.289872 -0.173399 0.0500955 -0.06556 -0.152644 0.299351 0.101466 -0.12486 0.139958 0.124048 -0.425552 -0.0765507 -0.30731 -0.201634 -0.0952013 -0.406337 0.00100983 0.270009 -0.0425477 -0.227264 0.0655638 0.0684594 -0.0558154 -0.084705 -0.238383 0.0727187 0.160112 -0.00724647 0.0378281 0.130305 -0.016004 -0.162859 -0.214198 -0.0123552 0.0644256 0.24775 -0.00284125 0.0957421 -0.0672065 0.081687 0.0738461 -0.015573 0.224306 0.0324328 0.00409273 0.193767 -0.153982 -0.0413609 0.0564489 -0.269082 -0.0256148 -0.0800974 0.00728611 0.00207145 -0.108184 -0.197284 -0.216628 0.347979 -0.467235 0.10215 0.0501198 -0.111742 -0.189437 -0.191081 -0.0139717 0.0971086 0.0667818 0.215092 -0.0276934 -0.029923 -0.0572061 -0.164161 0.0676057 -0.113483 -0.0583918 -0.177986 0.16276 0.128862 -0.00960814 0.101885 0.215304 0.12214 -0.156839 -0.236798 -0.0151163 -0.118958 -0.0803847 0.00946518 -0.154131 -0.171849 0.214602 0.10938 -0.0450037 -0.0371002 0.193406 0.195214 -0.168451 0.357031
189017711 0.105764 0.73279 0.320881 -0.149718 0.0205579 -0.0359351 -0.134475 0.282644 0.107481 -0.111274 0.113518 0.119975 -0.440312 -0.130677 -0.29626 -0.203385 -0.127974 -0.450399 0.00843482 0.283517 -0.00485497 -0.276153 0.0324022 -0.00622899 -0.0239797 -0.0517583 -0.258859 0.131977 0.164924 -0.0416433 0.0352835 0.152808 -0.0390531 -0.17134 -0.236682 -0.00389139 0.0369608 0.175737 0.0138593 0.10099 -0.0637705 0.0678221 0.105343 -0.0315031 0.253959 0.0449053 -0.00463573 0.118765 -0.126984 -0.0220782 0.0246001 -0.25887 -0.00310815 -0.0869742 -0.0458919 0.0191979 -0.104435 -0.168668 -0.219615 0.387364 -0.431255 0.103063 0.123393 -0.167937 -0.20868 -0.202108 -0.0526861 0.106343 0.0619639 0.271612 -0.0164229 -0.053482 -0.0257958 -0.156382 0.0627624 -0.117835 -0.0621706 -0.101647 0.165687 0.0977174 -0.0984642 0.116987 0.181365 0.102153 -0.139245 -0.243731 -0.0508199 -0.163332 -0.114014 -0.0372489 -0.124693 -0.178008 0.207567 0.113437 -0.05462 -0.00412857 0.20403 0.170643 -0.235975 0.375935
171228400 0.0645672 0.739995 0.269133 -0.132619 0.0299562 -0.108178 -0.116832 0.299473 0.12065 -0.112646 0.111574 0.0895732 -0.393207 -0.0701134 -0.309199 -0.149943 -0.0935951 -0.422998 0.0151944 0.273275 -0.058821 -0.24807 0.0121218 0.00521694 0.00821503 -0.0523807 -0.253407 0.0987357 0.127754 -0.0234164 0.0477565 0.0910175 -0.0198935 -0.193173 -0.209626 -0.0244443 0.0737042 0.242013 0.000881492 0.129596 -0.0665312 0.138657 0.067849 0.0230941 0.24873 -0.0104092 -0.00439801 0.195825 -0.149007 -0.0229822 0.00182098 -0.303441 -0.0232325 -0.0329741 -0.0283659 0.0111584 -0.0472911 -0.204648 -0.277389 0.33349 -0.413067 0.103809 0.0709548 -0.140564 -0.260002 -0.251273 -0.0601172 0.0851697 0.0687913 0.179361 0.000777388 -0.0914258 -0.0162193 -0.154875 0.116193 -0.0567061 -0.0496572 -0.148733 0.171424 0.120019 -0.0235094 0.0840438 0.160082 0.150965 -0.153828 -0.249984 -0.0632341 -0.0978506 -0.132619 -0.0293925 -0.10884 -0.17913 0.231512 0.0752605 -0.0497711 -0.0483013 0.178796 0.150987 -0.166135 0.341425
169610198 0.103374 0.76509 0.303725 -0.171547 0.0643917 -0.0607251 -0.116614 0.285096 0.0839995 -0.12637 0.158181 0.112058 -0.416126 -0.119068 -0.327114 -0.21133 -0.0964017 -0.462681 0.0249326 0.272037 0.00299257 -0.265649 0.0443957 0.00881284 -0.0253612 -0.0608863 -0.270733 0.116192 0.168706 -0.05302 0.0274303 0.157377 -0.0538226 -0.189765 -0.229312 0.0171426 0.0521321 0.199295 0.0284174 0.112792 -0.0500312 0.0453496 0.140414 -0.0365962 0.249408 0.0454618 -0.00928428 0.133064 -0.149991 -0.0133201 0.0232985 -0.250416 -0.0383524 -0.043592 -0.016762 -0.00816382 -0.128406 -0.189044 -0.219418 0.388415 -0.435456 0.115154 0.113652 -0.159027 -0.18053 -0.179358 -0.044595 0.114161 0.0428242 0.263839 -0.0157039 -0.0441146 -0.0273892 -0.148524 0.0460626 -0.136695 -0.050176 -0.137239 0.159583 0.101031 -0.106299 0.130987 0.199905 0.0832498 -0.122986 -0.26819 -0.0912468 -0.13451 -0.144395 -0.0400667 -0.11781 -0.145633 0.212672 0.150515 -0.0384008 0.0327728 0.191556 0.165968 -0.209919 0.402312
68739089 0.0949024 0.741639 0.306307 -0.175837 0.0155261 -0.0512415 -0.151579 0.276665 0.100756 -0.102437 0.107411 0.118204 -0.419993 -0.101465 -0.271585 -0.190873 -0.110142 -0.438383 0.00775591 0.296642 -0.00224486 -0.286989 0.0417294 0.0227065 -0.0294849 -0.0663703 -0.253385 0.102531 0.135141 -0.0207813 0.0487717 0.143023 -0.03624 -0.175192 -0.217059 -0.0186265 0.0410315 0.181227 -0.00848081 0.107323 -0.0324339 0.110148 0.118397 -0.0306751 0.233064 0.026178 0.00471373 0.143729 -0.12188 -0.0285447 0.0647551 -0.284589 -0.0211333 -0.0842678 -0.0347548 -0.0122343 -0.0981144 -0.217887 -0.24927 0.395016 -0.442344 0.104685 0.0881236 -0.155927 -0.233615 -0.221251 -0.0466591 0.125661 0.0680142 0.226394 -0.000894726 -0.0536177 -0.037885 -0.158527 0.0715546 -0.110474 -0.0525287 -0.153353 0.147919 0.0955933 -0.0476534 0.137331 0.180503 0.115951 -0.133313 -0.243933 -0.0395432 -0.135761 -0.123299 -0.0448964 -0.133169 -0.158579 0.215585 0.0990696 -0.0749946 0.00337996 0.199187 0.150514 -0.231581 0.370537
486977414 -0.00446587 0.689336 0.152849 -0.135424 -0.0300529 -0.0979236 -0.265799 0.249318 0.184349 -0.101266 0.187291 0.0571747 -0.386873 -0.0246844 -0.365632 -0.168995 0.0165608 -0.365855 -0.00669999 0.216455 -0.163874 -0.214444 0.142301 0.0382382 -0.0481341 -0.0831553 -0.20184 -0.0358922 0.212096 0.0034453 0.129838 0.179505 0.09367 -0.0282372 -0.168546 -0.0778479 0.0565461 0.242783 -0.0668425 0.162407 0.0552557 0.125358 -0.0538126 0.109427 0.118341 -0.0542695 0.00746395 0.378282 -0.166596 -0.125437 0.0228883 -0.21181 0.0231968 -0.0721334 0.108678 -0.116363 -0.0261894 -0.235354 -0.289228 0.171379 -0.382902 0.0927195 -0.133527 -0.049515 -0.299562 -0.335514 0.0392822 0.0517345 0.17384 0.129695 0.00283055 -0.0486901 -0.16337 -0.049103 0.135773 -0.131025 -0.0549809 -0.317454 0.100349 0.154401 0.013134 0.0365816 0.267517 0.203941 -0.203285 -0.194357 0.0853606 -0.0806342 -0.13414 -0.0371238 -0.0882462 -0.166538 0.160275 0.084615 -0.143464 0.0189179 0.0691846 0.17226 0.011364 0.305018
194447068 0.0693206 0.723409 0.228087 -0.15156 0.0224889 -0.0852799 -0.171028 0.267186 0.119302 -0.109681 0.162513 0.10174 -0.407153 -0.0657954 -0.33211 -0.181674 -0.0589364 -0.399945 0.00164813 0.252361 -0.0888562 -0.231572 0.0954497 0.0692975 -0.0337244 -0.0788463 -0.235298 0.0501589 0.176935 -0.0119427 0.0639052 0.154534 0.0318589 -0.135784 -0.200344 -0.0476444 0.0633073 0.248099 -0.0232982 0.123574 -0.0285611 0.0981197 0.0413255 0.0335985 0.191927 0.000566803 -0.00500074 0.232641 -0.150388 -0.0560865 0.0195457 -0.239567 -0.0119869 -0.070074 0.03852 -0.0307611 -0.0769512 -0.206593 -0.243938 0.291735 -0.409145 0.113613 0.00441233 -0.102207 -0.228024 -0.227697 0.00348247 0.0874239 0.104805 0.196153 -0.0126866 -0.0374549 -0.0747943 -0.127582 0.0796165 -0.106365 -0.0417178 -0.200682 0.163091 0.131104 -0.0212493 0.0737022 0.206062 0.136994 -0.152224 -0.235264 0.00485509 -0.100741 -0.111324 -0.0168704 -0.112727 -0.154443 0.193565 0.112958 -0.0831408 0.00580679 0.148211 0.182938 -0.0978117 0.342537
204386512 0.0586041 0.734382 0.266693 -0.158464 0.0765529 -0.122761 -0.119509 0.285524 0.109877 -0.140069 0.180583 0.0982445 -0.414291 -0.0442756 -0.328865 -0.187191 -0.093425 -0.433991 0.0315824 0.251743 -0.0391508 -0.209277 0.0593992 0.0648828 -0.0809304 -0.0803457 -0.242899 0.103968 0.18647 -0.0101973 0.0242029 0.111243 -0.000701852 -0.173257 -0.205709 -0.00488804 0.0959781 0.244542 -0.00360099 0.095041 -0.0719454 0.0738939 0.0434226 0.019386 0.209086 0.0337038 -0.0115086 0.166292 -0.12483 -0.0467915 0.0144719 -0.236075 -0.0405427 -0.0537221 0.033589 -0.0440087 -0.0925122 -0.220353 -0.222677 0.27143 -0.453847 0.118738 0.0327776 -0.111071 -0.190714 -0.214051 -0.0194387 0.0925759 0.0452653 0.210578 -0.0101121 -0.0118591 -0.0518357 -0.108522 0.0776519 -0.0816665 -0.0386046 -0.187897 0.171719 0.156829 -0.0160724 0.0882383 0.15285 0.132759 -0.135482 -0.243344 -0.0469213 -0.0961758 -0.15867 -0.0039228 -0.135903 -0.13239 0.222051 0.0987602 -0.0619719 0.0254648 0.178247 0.167732 -0.102067 0.367062
30313925 0.0814541 0.671335 0.274738 -0.0847461 0.0960211 -0.0268686 -0.177157 0.264229 0.0912144 -0.163549 0.236477 0.141475 -0.439356 -0.0958649 -0.423037 -0.231784 -0.00128171 -0.405656 -0.000402299 0.223173 -0.177229 -0.212516 0.192428 0.0958366 -0.0893706 -0.129494 -0.176693 -0.0102134 0.253225 -0.0341774 0.0358313 0.192476 0.0921043 -0.10792 -0.243926 -0.0636343 0.065664 0.307286 0.00769959 0.114948 -0.0153053 0.0410566 -0.027727 0.0736558 0.17304 0.00705516 -0.00280193 0.30837 -0.204919 -0.0589537 -0.0366611 -0.103479 0.00391847 -0.0689856 0.100473 0.0127104 -0.142444 -0.199413 -0.176901 0.222707 -0.371491 0.158867 -0.106775 -0.0602834 -0.213555 -0.130118 0.119867 -0.00931629 0.159622 0.328163 -0.12922 -0.00212121 -0.119147 -0.061502 -0.0125447 -0.133889 -0.118216 -0.161372 0.141894 0.171595 -0.0533004 -0.00326845 0.366734 0.139372 -0.154963 -0.171015 -0.00123295 -0.0805717 -0.122298 0.0513755 -0.0490657 -0.159629 0.125248 0.183317 -0.06879 0.00117682 0.0572291 0.338624 0.0338191 0.352616
107125748 0.0810388 0.760695 0.261499 -0.163779 0.0943182 -0.106292 -0.114305 0.296933 0.110525 -0.127842 0.142192 0.114693 -0.386701 -0.0479743 -0.337146 -0.164228 -0.100566 -0.42715 0.0215312 0.259012 -0.0251174 -0.256406 0.0252975 0.070318 -0.0182928 -0.0781858 -0.257136 0.0818125 0.149875 -0.0148616 0.0165535 0.121906 -0.00482571 -0.203251 -0.194743 -0.00906033 0.0660358 0.249895 0.0288814 0.120948 -0.0879454 0.0833427 0.0898499 0.00384331 0.226089 0.0121834 -0.0106885 0.176484 -0.136997 -0.0195691 -0.0096684 -0.282384 -0.0583725 -0.0278723 0.0462239 0.00227279 -0.0868133 -0.192998 -0.24763 0.360846 -0.414519 0.118691 0.0673233 -0.14734 -0.212517 -0.199755 -0.0682766 0.0936639 0.0448813 0.230105 -0.0339428 -0.0690419 0.00972515 -0.159949 0.0767402 -0.0648363 -0.018629 -0.146144 0.212947 0.115383 -0.0144718 0.0710296 0.149374 0.110078 -0.138608 -0.243976 -0.0629345 -0.0673229 -0.140991 -0.0175264 -0.12109 -0.13751 0.241838 0.111558 -0.0386647 -0.00955187 0.18447 0.162511 -0.14066 0.373512
21525246 0.0488156 0.689748 0.185523 -0.149235 -0.00300608 -0.128039 -0.176899 0.28079 0.103767 -0.118985 0.193683 0.08049 -0.363886 -0.0138239 -0.374342 -0.208381 0.00199547 -0.385945 0.0218755 0.223436 -0.112432 -0.218165 0.105796 0.0552545 -0.047458 -0.0708439 -0.255997 0.0233063 0.159306 -0.0126631 0.0768258 0.167913 0.0574095 -0.0855992 -0.203663 -0.0802629 0.0412664 0.210921 -0.0210333 0.16064 -0.00258696 0.118805 0.0651745 0.0417638 0.152805 -0.0290871 0.00816785 0.265523 -0.149634 -0.0837485 0.0205405 -0.234514 -0.029719 -0.0610515 0.0605825 -0.0835975 -0.0450708 -0.253252 -0.285254 0.271913 -0.405611 0.124315 -0.0333557 -0.0786648 -0.264906 -0.276184 0.0121851 0.0814131 0.098973 0.201553 -0.0557451 -0.0408729 -0.0624252 -0.0946733 0.0492796 -0.120433 -0.0131133 -0.218772 0.145373 0.126169 -0.0201936 0.0391883 0.211788 0.18169 -0.158133 -0.237914 0.0158106 -0.0781814 -0.172154 -0.0237037 -0.0660683 -0.104691 0.186551 0.103662 -0.0573265 0.0771371 0.0924232 0.155219 -0.066318 0.340443
9624742 0.0763838 0.660426 0.23279 -0.087853 0.0940664 -0.0559001 -0.223366 0.228842 0.135754 -0.130716 0.258936 0.150302 -0.429188 -0.080436 -0.460246 -0.228062 0.0360318 -0.356534 -0.0159831 0.21494 -0.223811 -0.191729 0.236369 0.0977868 -0.082633 -0.144861 -0.164633 -0.0566833 0.312391 -0.0260624 0.0452619 0.22484 0.146428 -0.0691598 -0.24377 -0.0762026 0.0891118 0.32516 -0.00218577 0.1359 0.0048958 0.0149814 -0.0382503 0.0970413 0.141432 0.0102303 -0.0115673 0.354062 -0.188915 -0.0922388 -0.0289029 -0.0602209 0.0155433 -0.0915733 0.141761 -0.0223072 -0.137293 -0.223606 -0.149772 0.168349 -0.340446 0.17048 -0.14548 -0.0718564 -0.194246 -0.168993 0.138243 -0.0260962 0.174991 0.313709 -0.119581 -0.00243738 -0.15304 -0.0160726 0.0118066 -0.188747 -0.122887 -0.174223 0.158936 0.179453 -0.0681432 -0.00953206 0.373684 0.146985 -0.171405 -0.132892 0.010598 -0.0591387 -0.124964 0.044667 -0.062276 -0.141171 0.123377 0.209348 -0.0589228 0.033943 0.045819 0.361302 0.0928024 0.321279
125400908 0.0989047 0.665833 0.204253 -0.126231 0.0889191 -0.0833988 -0.164143 0.256219 0.112016 -0.135386 0.226833 0.139545 -0.395284 -0.0864707 -0.418138 -0.228233 0.017029 -0.396331 0.00455645 0.214325 -0.148309 -0.221808 0.160695 0.0658981 -0.0509178 -0.0825654 -0.212477 -0.0220026 0.242523 -0.058366 0.0386176 0.207452 0.0868955 -0.0986759 -0.178547 -0.0514598 0.0711955 0.277038 0.00313785 0.146883 -0.0396893 0.0393532 0.0493851 0.0255231 0.148765 0.0341281 0.00321042 0.302647 -0.192565 -0.0595052 -0.0102095 -0.14529 -0.0319098 -0.0596473 0.128443 -0.0335196 -0.0938004 -0.227635 -0.175488 0.254838 -0.349692 0.159688 -0.0753374 -0.0996681 -0.1951 -0.183696 0.0838892 0.0319196 0.13576 0.315297 -0.0930447 -0.0377342 -0.0949249 -0.0669952 -0.00460139 -0.17601 -0.0632556 -0.173002 0.150169 0.130594 -0.0800809 0.0152444 0.306303 0.0980493 -0.136932 -0.188767 -0.0588785 -0.0823803 -0.120556 0.0150979 -0.0462216 -0.108736 0.141743 0.186819 -0.024101 0.0494511 0.0642171 0.270512 0.0290301 0.355134
66369206 0.115598 0.671037 0.261343 -0.0747423 0.127349 -0.0282489 -0.157576 0.256973 0.131429 -0.200855 0.227391 0.166108 -0.421893 -0.139858 -0.450568 -0.246359 0.00501086 -0.420253 7.37379e-05 0.235048 -0.170214 -0.235065 0.201338 0.0653157 -0.107213 -0.120643 -0.176532 -0.00334297 0.338237 -0.0713919 0.0538732 0.222448 0.103014 -0.116687 -0.200765 -0.0491481 0.121194 0.345172 0.0259971 0.0915712 -0.0592694 -0.0629498 -0.000536173 0.0631558 0.199047 0.0334767 0.0175271 0.301732 -0.189112 -0.0446626 -0.0555249 -0.0698347 0.000840154 -0.0516668 0.159755 0.00837459 -0.153073 -0.188942 -0.147026 0.174326 -0.339784 0.179912 -0.0480739 -0.12418 -0.165085 -0.119131 0.141056 -0.0162045 0.14692 0.414694 -0.139893 0.00534238 -0.115367 -0.0320602 -0.0189482 -0.184627 -0.129674 -0.10513 0.179259 0.143839 -0.115703 0.00347475 0.385176 0.0819561 -0.123182 -0.163331 -0.0734544 -0.1257 -0.118133 0.0303043 -0.0654931 -0.13801 0.105672 0.192866 -0.023191 0.0237516 0.0622822 0.376142 0.0761432 0.379786
207512107 0.108635 0.735645 0.321091 -0.146446 0.0394435 -0.0374236 -0.145451 0.278828 0.115011 -0.131383 0.14969 0.124758 -0.444994 -0.114027 -0.308258 -0.210124 -0.0995247 -0.448208 0.0129653 0.280181 -0.0075872 -0.265696 0.0433464 0.0224705 -0.0445654 -0.0655491 -0.249159 0.119729 0.188381 -0.0235694 0.0462358 0.149235 -0.0196741 -0.183224 -0.231915 -0.0218583 0.049805 0.20646 0.00450993 0.0911789 -0.0548794 0.0646396 0.0948473 -0.0237585 0.253689 0.0330969 0.00584594 0.137459 -0.132159 -0.0176424 0.0302564 -0.241048 -0.0152083 -0.0700669 -0.022588 0.0103377 -0.11727 -0.196359 -0.232231 0.355312 -0.439743 0.105619 0.0960749 -0.15193 -0.190272 -0.187124 -0.0377169 0.0909933 0.0609265 0.263242 -0.00434907 -0.0206651 -0.0370192 -0.151527 0.0550415 -0.112549 -0.0640738 -0.134802 0.165667 0.121719 -0.0697439 0.111578 0.198648 0.113292 -0.142701 -0.245408 -0.0455227 -0.156071 -0.117745 -0.0305921 -0.142812 -0.153137 0.204052 0.11646 -0.0621055 0.00517581 0.217084 0.195065 -0.19229 0.365842
171942092 0.117057 0.738254 0.318253 -0.135013 0.020534 -0.00171993 -0.139701 0.271656 0.111474 -0.12697 0.126171 0.111379 -0.439317 -0.150496 -0.266102 -0.201592 -0.132899 -0.452033 0.0059422 0.266751 0.0265427 -0.260972 0.0173528 -0.0221644 -0.0274359 -0.0556667 -0.233035 0.162392 0.177196 -0.0595942 0.033927 0.157421 -0.0666079 -0.188794 -0.224907 -0.00445722 0.0307651 0.176833 -0.00292377 0.0827941 -0.0697872 0.0371254 0.11497 -0.0500944 0.286582 0.0660038 0.00773213 0.0921227 -0.12543 -0.00239342 0.0447207 -0.238664 0.00411395 -0.0516459 -0.0477549 0.026846 -0.11577 -0.153662 -0.213453 0.377529 -0.422331 0.0911107 0.15822 -0.171222 -0.167414 -0.158713 -0.0689898 0.102924 0.0532272 0.248859 0.0205424 -0.0247199 -0.0371295 -0.167463 0.0634952 -0.125123 -0.0599211 -0.112525 0.14113 0.0882135 -0.11432 0.145674 0.180365 0.0800826 -0.142392 -0.243122 -0.0627672 -0.190257 -0.0797638 -0.0346785 -0.148057 -0.177446 0.194912 0.12242 -0.0615716 -0.0266258 0.256997 0.173263 -0.23583 0.366364
25101996 0.0534382 0.71877 0.190162 -0.152234 0.0570915 -0.1112 -0.173337 0.231105 0.151539 -0.0811744 0.16467 0.119232 -0.376284 -0.0668918 -0.31954 -0.16338 -0.0397887 -0.380173 -0.0233583 0.266928 -0.0765648 -0.235185 0.052635 0.0579459 -0.00557087 -0.0932981 -0.210222 0.00394564 0.157398 0.0200621 0.0341627 0.145682 0.0618186 -0.159422 -0.138933 -0.0420515 0.0859718 0.280771 -0.0190648 0.129548 -0.0828144 0.136712 0.0303394 0.0214391 0.194738 -0.010882 0.0139681 0.316885 -0.164537 -0.0384948 0.0119629 -0.268075 -0.0225417 -0.0370168 0.0688838 -0.0576678 -0.0378298 -0.249503 -0.25917 0.253641 -0.383841 0.141172 -0.0468842 -0.118284 -0.1977 -0.238669 -0.0258054 0.0806039 0.109657 0.159358 0.0153201 -0.0726654 -0.0741603 -0.101783 0.0948128 -0.108627 -0.0351305 -0.225476 0.161199 0.152746 0.0257145 0.0602674 0.183246 0.127518 -0.139061 -0.200516 -0.038423 -0.0537989 -0.132249 -0.0179103 -0.109356 -0.159938 0.234507 0.095095 -0.0835568 -0.0243318 0.125895 0.170159 -0.0539567 0.307998
12 0.0551789 0.661707 0.260131 -0.111559 0.130241 -0.0738406 -0.177241 0.245256 0.131066 -0.168361 0.262909 0.157742 -0.401665 -0.0475108 -0.415526 -0.209459 0.0205743 -0.384507 -0.0159552 0.233098 -0.178098 -0.215992 0.173091 0.126619 -0.111 -0.139422 -0.163376 -0.0535067 0.301716 0.016768 0.0582347 0.154222 0.137399 -0.0882199 -0.20724 -0.0837039 0.122705 0.350075 -0.000117352 0.101296 -0.0773547 0.0258477 -0.055565 0.0879807 0.137587 0.00240066 -0.00324026 0.336742 -0.176824 -0.0765571 -0.0346214 -0.0931146 -0.00769425 -0.0479114 0.155175 -0.0274298 -0.12418 -0.228696 -0.174338 0.14663 -0.372593 0.178367 -0.143476 -0.0776631 -0.189062 -0.163593 0.132325 -0.017113 0.158646 0.321193 -0.126105 -0.0154427 -0.106024 -0.0255157 -0.0033267 -0.115155 -0.109279 -0.160443 0.181622 0.192102 -0.00319899 -0.00943607 0.335584 0.12998 -0.138678 -0.157464 -0.0240375 -0.0483406 -0.161464 0.0488454 -0.0904617 -0.128772 0.144326 0.158904 -0.0514471 0.0126063 0.0585997 0.334759 0.0880883 0.338483
18020081 -0.0172838 0.701621 0.162001 -0.121294 0.00865277 -0.203938 -0.142897 0.274786 0.180217 -0.0850811 0.12203 0.0777227 -0.334367 0.0269004 -0.338335 -0.0821408 -0.0166021 -0.342076 0.0247285 0.242409 -0.168532 -0.226758 0.0340366 0.108592 0.0111671 -0.0573914 -0.208555 -0.0221946 0.0946139 0.0293543 0.078707 0.072902 0.120805 -0.150337 -0.127241 -0.0685047 0.129608 0.332652 -0.0240541 0.183448 -0.0805171 0.20453 -0.000315029 0.0968675 0.133554 -0.104871 -0.000653117 0.350319 -0.196578 -0.064458 -0.0342873 -0.37046 -0.0480037 0.0141354 0.0830317 -0.0828318 0.053453 -0.285833 -0.322123 0.197693 -0.378356 0.110419 -0.131304 -0.099826 -0.356608 -0.360752 0.017512 0.0600933 0.125006 0.0601685 -0.0357838 -0.162546 -0.0467772 -0.081415 0.15634 0.000709751 -0.0305647 -0.251684 0.230114 0.158068 0.127278 -0.0267586 0.170265 0.213108 -0.13815 -0.210184 -0.0285677 0.0274442 -0.200988 -0.0361532 -0.0348719 -0.188035 0.24403 -0.0030816 -0.0600507 -0.0438252 0.0227959 0.168954 -0.0149619 0.32802
280704663 0.0489094 0.725587 0.258327 -0.137848 0.0308412 -0.0769459 -0.146691 0.271423 0.121705 -0.123031 0.141454 0.10092 -0.39442 -0.095347 -0.301655 -0.172066 -0.0794919 -0.432781 -0.00299748 0.273698 -0.0669672 -0.247071 0.0784859 0.00869399 -0.0201945 -0.062675 -0.246864 0.0811533 0.168005 -0.0500088 0.0515437 0.137833 -0.0212074 -0.153177 -0.201158 -0.00331416 0.0872176 0.217508 -0.00797964 0.119348 -0.0507447 0.0711176 0.0580268 0.0212777 0.224073 0.00764853 0.00474491 0.202229 -0.153057 -0.034436 0.0298296 -0.23757 0.00496843 -0.0663138 0.011282 -0.0021221 -0.0765385 -0.18046 -0.215658 0.293269 -0.404408 0.0991483 0.0465859 -0.12123 -0.228373 -0.228548 -0.0112154 0.0772728 0.0852477 0.218107 -0.021382 -0.072109 -0.0546945 -0.116077 0.108146 -0.0951572 -0.0575442 -0.148907 0.150082 0.123241 -0.063252 0.072174 0.228448 0.120221 -0.145319 -0.224326 -0.0559875 -0.112181 -0.117991 -0.0369419 -0.10045 -0.175647 0.18537 0.0929141 -0.066685 -0.0250136 0.149966 0.181271 -0.155273 0.362825
57507026 0.152139 0.79289 0.392811 -0.180064 0.0321475 0.0398833 -0.168346 0.279582 0.0876538 -0.140222 0.15788 0.116032 -0.497164 -0.164214 -0.251447 -0.259611 -0.16489 -0.478135 0.0170546 0.304466 0.102896 -0.295826 -0.0135117 -0.0145962 -0.057066 -0.0635614 -0.269777 0.209814 0.177983 -0.0374531 0.0345018 0.174208 -0.0854842 -0.217494 -0.263607 -0.0116628 0.0085836 0.147794 0.00520383 0.0388194 -0.064253 0.00667652 0.141068 -0.0865496 0.325268 0.0959392 -0.00018352 0.0249148 -0.0978414 0.00437228 0.0867995 -0.228184 -0.0164808 -0.0729718 -0.100975 0.0259171 -0.175666 -0.155808 -0.218353 0.4379 -0.48537 0.0862292 0.21085 -0.193952 -0.115722 -0.122047 -0.109271 0.140094 0.0157114 0.289131 0.0456813 0.0280407 -0.0235608 -0.202876 0.0353926 -0.140522 -0.0567321 -0.10369 0.142612 0.0869941 -0.108259 0.200215 0.158718 0.0575789 -0.135243 -0.285877 -0.0421762 -0.233082 -0.0853032 -0.0514526 -0.23293 -0.156277 0.214572 0.137652 -0.0860596 -0.00533111 0.334039 0.170199 -0.317464 0.389199
107114063 0.139329 0.740589 0.314851 -0.156054 0.0462009 -0.00278085 -0.156926 0.270681 0.0980432 -0.140267 0.150272 0.11861 -0.454063 -0.146351 -0.297856 -0.243748 -0.103465 -0.436997 0.0394786 0.286289 0.00782934 -0.287951 0.0314206 0.0346425 -0.0463898 -0.0568734 -0.25929 0.146409 0.178943 -0.0375154 0.0292457 0.173698 -0.0164072 -0.201942 -0.224572 -0.0335379 0.0368472 0.205291 0.00239475 0.0652988 -0.0697532 0.0494878 0.121555 -0.0519314 0.268342 0.0519577 0.0159947 0.11274 -0.12116 0.000134064 0.0525259 -0.232751 -0.0286039 -0.0693651 -0.0511565 0.0171379 -0.138451 -0.176728 -0.223988 0.396665 -0.433691 0.131833 0.141723 -0.161711 -0.149214 -0.154624 -0.0656043 0.102633 0.0665644 0.295403 -0.019871 0.00617512 -0.029986 -0.157177 0.0258517 -0.135649 -0.0604516 -0.135904 0.153258 0.108196 -0.0680264 0.123456 0.186686 0.0674178 -0.114793 -0.269165 -0.0450019 -0.17721 -0.0964655 -0.0345751 -0.175168 -0.135443 0.203795 0.132395 -0.0567301 0.00511096 0.22855 0.199977 -0.201547 0.391545
7841652 0.0141919 0.731239 0.238054 -0.161009 0.0437701 -0.119324 -0.181781 0.267282 0.107908 -0.0651028 0.164958 0.0916513 -0.351174 0.0288027 -0.266536 -0.153432 -0.0400015 -0.398706 0.0126189 0.233094 -0.0952351 -0.168887 0.0819614 0.123984 -0.0349302 -0.119071 -0.181607 0.0213628 0.132919 0.0478997 0.0301835 0.126324 0.0532619 -0.130967 -0.155672 -0.0643052 0.107911 0.24755 -0.020589 0.147234 -0.0297034 0.170507 0.0485287 0.0628364 0.202657 -0.0361962 -0.0118859 0.276042 -0.129559 -0.122961 0.04647 -0.282429 -0.0355455 -0.0679102 0.0772762 -0.0463459 -0.0337872 -0.23721 -0.248955 0.248346 -0.443928 0.0894873 -0.0777895 -0.0678352 -0.235915 -0.248779 0.0209775 0.0923197 0.0825033 0.111249 -0.00664049 -0.0601623 -0.016377 -0.130814 0.153732 -0.0403725 -0.0416664 -0.178387 0.178065 0.166127 0.079443 0.0324241 0.173459 0.197712 -0.16998 -0.170113 0.0167776 0.0148468 -0.193996 0.0107516 -0.0943461 -0.148451 0.266516 0.0530919 -0.107243 -0.0519697 0.14892 0.170354 -0.0943158 0.301208
14839147 0.0919384 0.705482 0.182523 -0.154595 0.0458946 -0.154009 -0.106647 0.295946 0.120715 -0.101351 0.158986 0.125782 -0.383108 -0.0593797 -0.359455 -0.190522 -0.0382571 -0.422992 0.0172421 0.255226 -0.105823 -0.242409 0.0558808 0.0432142 -0.0222643 -0.0498771 -0.265493 0.0190746 0.145587 -0.0503938 0.0136497 0.150056 0.0427905 -0.125286 -0.18114 -0.0397284 0.0926121 0.257776 0.0113145 0.166399 -0.0848201 0.0925787 0.116184 0.00595214 0.169691 0.0149648 0.0188158 0.245559 -0.17226 -0.0312144 -0.0123644 -0.272337 -0.0389339 -0.0904831 0.0506358 -0.0328067 -0.0558068 -0.238901 -0.247171 0.33659 -0.40029 0.12796 -0.0178384 -0.142042 -0.259502 -0.253866 -0.00903163 0.0961753 0.115389 0.261645 -0.059816 -0.0816327 -0.0454171 -0.102808 0.0563411 -0.135219 -0.0378038 -0.161516 0.19962 0.113661 -0.0475372 0.0360684 0.190112 0.108394 -0.111407 -0.236305 -0.0778482 -0.0641979 -0.145662 -0.0131093 -0.0506342 -0.12063 0.195609 0.109311 -0.0110689 0.0327385 0.0858765 0.172536 -0.0872956 0.373495
71627462 -0.0182777 0.707165 0.12209 -0.159856 0.0137683 -0.221135 -0.173718 0.27824 0.152501 -0.0526019 0.158594 0.0868926 -0.34886 0.0303987 -0.349763 -0.107821 -0.00820532 -0.391335 -0.00709435 0.210842 -0.165591 -0.152768 0.134115 0.0549301 0.00560525 -0.0835581 -0.20441 -0.0176412 0.133941 -0.0147354 0.0272123 0.12253 0.0897024 -0.0897385 -0.154121 -0.034771 0.112177 0.247178 -0.0273507 0.1909 -0.0123878 0.22177 0.000960741 0.101106 0.130049 -0.0602763 -0.0198201 0.372983 -0.176929 -0.118835 -0.0111158 -0.283645 -0.0160184 -0.086903 0.128694 -0.0882816 0.047108 -0.251127 -0.28209 0.18936 -0.384729 0.0887012 -0.137196 -0.0392815 -0.32114 -0.36412 0.0352037 0.0768167 0.122713 0.0933146 0.00233523 -0.152026 -0.071197 -0.0514997 0.175582 -0.0525309 -0.0183271 -0.232908 0.178558 0.178502 0.00817609 -0.0284009 0.180971 0.233103 -0.19592 -0.177569 0.0072115 0.0325243 -0.17681 0.00220589 -0.0211287 -0.167078 0.234146 0.0672042 -0.0803148 0.0104013 0.044986 0.137814 0.00559862 0.300496
