127 100
15888142 -0.0101325 -0.105123 0.109571 -0.214027 0.252525 -0.148381 -0.209202 0.12965 -0.00496935 0.109065 -0.107519 -0.126696 0.0421425 -0.0770373 -0.228494 0.1564 -0.184154 -0.25872 0.375492 -0.00640427 0.104433 -0.0301337 -0.280013 -0.300385 -0.0425722 -0.236226 -0.0244219 0.164182 -0.21555 0.228736 0.148717 -0.199674 -0.0445346 0.17269 0.12772 -0.144726 -0.410708 -0.143371 -0.0300165 -0.245935 0.165832 0.120705 -0.112898 0.117268 -0.058642 0.0298915 -0.11096 -0.116511 -0.0769608 -0.183603 0.191069 0.00404869 -0.0292041 -0.0210325 -0.0756757 -0.16988 0.0680375 -0.0177582 -0.243456 0.158263 -0.0992479 -0.0850826 -0.204811 -0.00502141 0.073506 0.0337544 0.168405 0.132161 0.103539 -0.210001 0.191822 -0.16773 0.107729 0.0525025 -0.293227 -0.342097 0.19689 0.265503 -0.121334 -0.150196 -0.057197 -0.237816 -0.0445709 0.215072 0.354409 0.152775 0.194418 -0.160957 -0.0380015 -0.123569 -0.0734978 -0.0823908 -0.377616 -0.0328173 -0.0943654 -0.0293536 -0.092791 0.0961274 -0.0310306 0.143406
3359851 -0.0284542 -0.0411082 0.122245 -0.258274 0.362058 -0.166932 -0.115959 0.00776658 0.00663564 0.0385889 -0.0597056 -0.0867504 0.0332355 -0.0937972 -0.259881 0.178735 -0.198271 -0.296417 0.344982 -0.0941859 0.149541 -0.0641022 -0.315841 -0.281855 -0.133281 -0.172128 -0.0450352 0.125741 -0.157525 0.277482 0.135578 -0.201161 -0.0745019 0.217162 0.115629 -0.139554 -0.428138 -0.128699 -0.0847539 -0.304171 0.193782 0.0154351 -0.0819381 0.0573001 -0.0881338 0.0204566 -0.151546 -0.118391 -0.0879971 -0.174405 0.143461 0.00293463 -0.0434366 -0.00977727 -0.102664 -0.164982 0.0288648 0.0666637 -0.271165 0.195125 -0.141391 -0.109891 -0.206304 -0.0251678 0.112574 0.00368241 0.15975 0.180155 0.0281794 -0.195438 0.146731 -0.173899 0.106646 0.0846598 -0.287641 -0.405187 0.143874 0.228568 -0.0673142 -0.153927 -0.0963836 -0.262427 -0.0397589 0.156614 0.295613 0.223044 0.174376 -0.175946 -0.0103106 -0.154436 0.0165126 -0.171968 -0.389669 -0.122399 -0.134095 -0.0477294 -0.0948395 0.0685236 -0.0212705 0.103051
21327969 -0.0178471 -0.0032376 0.185927 -0.266569 0.351672 -0.114856 -0.13853 0.0492777 -0.0182614 0.0468548 -0.0623693 -0.125079 -0.0263106 -0.0779598 -0.260796 0.243511 -0.176777 -0.260237 0.281016 -0.0348435 0.116781 -0.0726331 -0.31712 -0.401813 -0.071905 -0.18288 0.0194623 0.048926 -0.0875136 0.353888 0.18703 -0.132993 -0.0585662 0.226754 0.176973 -0.125835 -0.365405 -0.131074 -0.197185 -0.196179 0.163264 0.0128629 -0.137391 0.0307202 -0.0485984 0.0802915 -0.224066 -0.125266 -0.106279 -0.111651 0.139419 -0.0013809 -0.169224 0.0353649 0.0336291 -0.10667 -0.00242006 0.0486504 -0.251033 0.159268 -0.090987 -0.0643013 -0.205337 0.0539642 0.126468 -0.0038104 0.174598 0.28357 0.0453603 -0.100627 0.193778 -0.111069 -0.0279096 0.0594021 -0.2176 -0.369925 0.122772 0.220607 -0.0613347 -0.153853 -0.0910628 -0.22665 -0.104239 0.150024 0.225769 0.273644 0.077599 -0.270535 -0.0491659 -0.0722492 -0.00850883 -0.261286 -0.332634 -0.04775 -0.129268 -0.153847 -0.110152 0.125621 -0.033732 0.153784
170729553 -0.0244414 -0.0713478 0.146407 -0.241955 0.352461 -0.175039 -0.124852 0.0768485 -0.0771114 -0.00485637 -0.0645854 -0.125664 0.0263146 -0.076166 -0.316502 0.186403 -0.23742 -0.26715 0.325875 -0.10458 0.115861 -0.00469942 -0.208774 -0.255936 -0.190316 -0.153017 -0.031941 0.130451 -0.208758 0.292093 0.0840169 -0.165722 -0.0746257 0.200134 0.0772563 -0.124564 -0.460611 -0.135244 -0.155119 -0.23669 0.128627 0.00466809 -0.07243 0.114695 -0.0855476 0.0623504 -0.0970483 -0.151584 -0.0889706 -0.148664 0.109196 -0.017225 -0.0869908 0.03751 -0.0947353 -0.215509 0.0533159 0.0991123 -0.28926 0.16616 -0.144109 -0.0617443 -0.191578 0.0467583 0.129564 -0.0349806 0.187648 0.135305 0.0595038 -0.178486 0.127482 -0.209588 0.107544 0.0698968 -0.288056 -0.381257 0.194963 0.190493 -0.0578272 -0.230927 -0.0614241 -0.233935 -0.0291733 0.228867 0.324419 0.268179 0.114949 -0.209789 -0.0121866 -0.170345 0.0386383 -0.207264 -0.311464 -0.0992707 -0.108661 -0.0656945 -0.0910864 0.0805999 0.00772758 0.109445
14771973 -0.0300624 -0.0535147 0.15463 -0.25943 0.367329 -0.120284 -0.155858 0.0680456 -0.0285398 0.0359293 -0.0546586 -0.107223 0.00983666 -0.123393 -0.299355 0.26409 -0.194589 -0.256585 0.340608 -0.0256548 0.104685 -0.0807767 -0.294867 -0.315258 -0.130908 -0.213274 -0.015869 0.0975014 -0.157617 0.279945 0.154952 -0.178035 -0.0702946 0.259163 0.10844 -0.148631 -0.429126 -0.116156 -0.150525 -0.22868 0.130229 0.0117682 -0.121578 0.0784778 -0.112956 0.039094 -0.18767 -0.138891 -0.15502 -0.101173 0.159779 -0.0292301 -0.132996 0.0405851 -0.0439375 -0.128582 0.0503386 0.044522 -0.294064 0.180732 -0.140846 -0.069904 -0.220308 0.0033316 0.144762 -0.0136056 0.220037 0.209712 0.0630756 -0.172214 0.150381 -0.150571 0.0633627 0.057833 -0.254925 -0.423346 0.127565 0.202312 -0.0363545 -0.188092 -0.100601 -0.281812 -0.10883 0.143892 0.308888 0.295477 0.0803017 -0.27096 -0.0242127 -0.140798 0.000379746 -0.230342 -0.374204 -0.0180744 -0.145712 -0.10637 -0.126292 0.114825 -0.0497102 0.112693
154309021 0.0289662 -0.0472696 0.123583 -0.228563 0.363846 -0.115101 -0.149262 0.0479723 -0.0280522 0.0394718 -0.0524706 -0.139457 0.0288749 -0.141763 -0.327927 0.215345 -0.21812 -0.265932 0.308236 -0.0571536 0.0980288 0.00499499 -0.251489 -0.28814 -0.189374 -0.175994 0.00296094 0.0798873 -0.161366 0.227467 0.124366 -0.175252 -0.107756 0.195782 0.108907 -0.135131 -0.387619 -0.0935193 -0.17037 -0.28429 0.106816 -0.000620897 -0.113606 0.0509499 -0.109866 0.0565579 -0.16845 -0.130157 -0.105393 -0.121762 0.147817 0.00132025 -0.108263 0.0340042 -0.0328378 -0.190996 0.00718536 0.0737591 -0.26862 0.17037 -0.142437 -0.0640014 -0.190796 0.0191925 0.113973 -0.00712093 0.187009 0.145787 0.0540856 -0.143494 0.157652 -0.15517 0.0521618 0.0823258 -0.214855 -0.368358 0.182831 0.185109 -0.0604387 -0.199874 -0.103934 -0.219905 -0.0566176 0.162782 0.300714 0.263294 0.122021 -0.221949 -0.0190638 -0.127993 0.0305672 -0.203055 -0.325099 -0.0724241 -0.101863 -0.0816009 -0.100775 0.0609643 -0.0228369 0.109497
28490110 0.0023013 -0.0373293 0.142785 -0.201611 0.263725 -0.190513 -0.220912 0.0971087 0.177468 0.0434141 -0.0667685 -0.0452726 -0.0682339 0.0192626 -0.178554 0.20956 -0.167425 -0.234778 0.196928 -0.00838117 0.069181 -0.176945 -0.276185 -0.346135 0.0100353 -0.242478 0.00273625 -0.00486248 -0.230861 0.201451 0.153175 -0.115857 0.0318781 0.280931 0.117598 -0.0836422 -0.329236 -0.106908 -0.0743288 -0.159426 0.148088 0.122276 -0.186252 0.0763291 -0.00108924 0.0497956 -0.0672971 -0.0483004 0.0525523 -0.228922 0.220441 -0.0179124 -0.125012 0.113254 -0.0559555 -0.28855 0.064881 -0.211446 -0.0566408 0.176419 -0.10946 0.066021 -0.345143 0.012927 0.0102675 -0.00748203 0.0873343 0.218825 -0.00776191 -0.161722 0.250992 -0.23848 0.113331 0.0224866 -0.351733 -0.480275 0.243781 0.380913 -0.00504382 -0.21648 -0.0704492 -0.277379 0.0785484 0.0437772 0.248183 0.29084 0.0016178 -0.130041 -0.0695619 -0.129063 -0.0552437 -0.113382 -0.332123 0.0235458 -0.0698704 -0.129463 -0.0236941 0.13988 -0.0353209 0.200896
23822446 -0.0182415 -0.0878127 0.142824 -0.226514 0.325991 -0.133984 -0.163504 0.094385 -0.00860848 0.000110542 -0.070392 -0.0741627 0.0267973 -0.0965913 -0.291306 0.217496 -0.231637 -0.290712 0.349762 -0.0557417 0.110866 -0.0711611 -0.250894 -0.26838 -0.131839 -0.177783 -0.0266438 0.168989 -0.188338 0.248149 0.114786 -0.221174 -0.0322278 0.252847 0.096352 -0.111794 -0.445836 -0.121711 -0.0677654 -0.29706 0.150611 0.0270262 -0.115372 0.0883221 -0.0812964 0.000224658 -0.112624 -0.137814 -0.0655598 -0.177965 0.128561 -0.0131905 -0.0572357 0.0415783 -0.0988502 -0.202163 0.0389839 0.0148681 -0.27254 0.177767 -0.13012 -0.0794945 -0.238006 -0.0617066 0.12457 0.00048351 0.192427 0.151341 0.0583099 -0.184865 0.17909 -0.200779 0.144974 0.0726624 -0.309276 -0.397463 0.173543 0.248585 -0.0221785 -0.20232 -0.0524277 -0.276104 -0.00990764 0.163962 0.321975 0.219664 0.131167 -0.183282 -0.0176029 -0.158763 -0.0350675 -0.142618 -0.369437 -0.0607728 -0.106865 -0.0438121 -0.0784412 0.0679767 -0.00364834 0.0925193
18927441 -0.0179482 0.00644186 0.0555716 -0.282787 0.31415 -0.136634 -0.111651 0.0157576 0.0380877 0.0012961 -0.113411 -0.0497084 0.0191388 -0.0630461 -0.294405 0.200262 -0.16101 -0.364446 0.342893 -0.105344 0.187154 -0.0733458 -0.31644 -0.261354 -0.126553 -0.195287 -0.0461907 0.165986 -0.0800908 0.311183 0.160779 -0.217227 -0.0334354 0.174046 0.135468 -0.156173 -0.463789 -0.135229 -0.0596075 -0.392464 0.253217 -0.0045026 -0.0973746 -0.00910887 -0.0539348 -0.0572102 -0.175304 -0.107005 -0.0301666 -0.274969 0.143835 0.0497077 -0.0278824 -0.0575739 -0.0926376 -0.168655 0.0678562 0.115887 -0.244918 0.197826 -0.120318 -0.111125 -0.184972 -0.0677331 0.161154 0.0555534 0.146829 0.211528 -0.00278397 -0.183331 0.172771 -0.118574 0.0898128 0.0859211 -0.247395 -0.375324 0.10873 0.18718 -0.0354709 -0.137358 -0.127827 -0.247522 -0.00797161 0.165507 0.253703 0.185253 0.223583 -0.114942 -0.0712175 -0.126438 0.0170729 -0.17672 -0.41172 -0.188824 -0.16003 -0.0722086 -0.0692772 0.0610807 0.0316197 0.0472225
46423291 -0.0376983 -0.0330596 0.129814 -0.248336 0.38359 -0.147729 -0.139686 0.0453556 0.0334917 0.00184578 -0.0867606 -0.0942392 0.0070764 -0.0589678 -0.292774 0.237449 -0.200846 -0.30657 0.322809 -0.0488583 0.112757 -0.0888258 -0.293976 -0.273062 -0.152156 -0.165401 -0.0220116 0.133451 -0.168749 0.271527 0.207572 -0.162217 -0.08644 0.275289 0.117715 -0.173545 -0.409212 -0.0865972 -0.0842131 -0.262331 0.1687 0.0505789 -0.130254 0.0462511 -0.0996993 0.0334353 -0.145521 -0.111446 -0.0780854 -0.16276 0.165161 -0.0543125 -0.101665 0.0691961 -0.075882 -0.203263 0.0446924 0.00730374 -0.23834 0.214656 -0.157356 -0.0596738 -0.300719 -0.0196218 0.136198 0.0124009 0.172878 0.239482 0.00534582 -0.151629 0.183506 -0.130345 0.0785361 0.078507 -0.274898 -0.426006 0.191026 0.248203 -0.00607838 -0.196463 -0.0630057 -0.319101 -0.0134886 0.107927 0.288721 0.239943 0.105493 -0.181856 -0.0266169 -0.130763 0.0220649 -0.183876 -0.402991 -0.0515345 -0.142519 -0.0949766 -0.0758668 0.0719158 -0.019115 0.10036
63787760 -0.055045 -0.080178 0.180517 -0.257369 0.339556 -0.140209 -0.107888 0.0546259 -0.0383528 -0.0145344 -0.0513324 -0.0945516 0.0160603 -0.0970438 -0.301132 0.227176 -0.241769 -0.266296 0.327231 -0.0844691 0.132285 -0.0496519 -0.239626 -0.287832 -0.156414 -0.158691 -0.0256825 0.148136 -0.152364 0.260151 0.113144 -0.207456 -0.0502963 0.270138 0.0930175 -0.0944075 -0.417048 -0.121561 -0.145656 -0.251372 0.146108 -0.00796231 -0.0707309 0.100855 -0.106273 0.0278385 -0.122718 -0.155216 -0.0960491 -0.131068 0.0636493 -0.0506196 -0.0785601 0.0409248 -0.0758024 -0.148309 0.0251425 0.0715785 -0.3326 0.166843 -0.139954 -0.110375 -0.195916 -0.0209555 0.17387 -0.0113176 0.221955 0.176447 0.0495796 -0.168515 0.153471 -0.20968 0.108544 0.0490055 -0.300906 -0.414139 0.128492 0.196102 -0.0468051 -0.212805 -0.064626 -0.246172 -0.0509196 0.175624 0.330059 0.259736 0.119049 -0.227827 -0.0371246 -0.184798 -0.00281621 -0.184068 -0.31218 -0.0656065 -0.10803 -0.0608531 -0.0891321 0.0672878 -0.0204476 0.0643194
276575319 -0.0193415 -0.0333085 0.0757391 -0.256001 0.322993 -0.162899 -0.161962 0.0497092 -0.0156176 0.00073778 -0.0931736 -0.101839 0.0457935 -0.0706494 -0.283497 0.203595 -0.178051 -0.31147 0.395971 -0.0977311 0.127223 -0.0569557 -0.301725 -0.211117 -0.165963 -0.203173 -0.108364 0.178125 -0.216853 0.268712 0.121445 -0.233341 -0.0638827 0.19397 0.0734545 -0.184463 -0.456875 -0.107484 -0.0769633 -0.345903 0.190386 -0.000339712 -0.141019 0.0726156 -0.0918642 0.0032038 -0.0863339 -0.13214 -0.0714189 -0.218394 0.226903 0.0162574 -0.0658005 -0.0367558 -0.157511 -0.203519 0.0752938 0.0207411 -0.243134 0.170103 -0.172678 -0.0946515 -0.198847 -0.0254769 0.10398 0.0111495 0.154024 0.111234 0.0695605 -0.232915 0.160757 -0.161697 0.141842 0.0728191 -0.255393 -0.394699 0.144304 0.183824 -0.0206419 -0.185383 -0.138591 -0.276769 -0.0213102 0.134755 0.312097 0.218384 0.210398 -0.118494 -0.0033946 -0.173957 0.0269393 -0.158371 -0.410586 -0.116114 -0.157538 -0.0167417 -0.0445533 0.0719651 0.010001 0.0982185
16112634 -0.0478465 -0.06461 0.108849 -0.228812 0.357511 -0.15487 -0.123717 0.0780535 0.00011224 -0.00663732 -0.0492877 -0.0891513 0.0355698 -0.0689114 -0.255989 0.193078 -0.205962 -0.246994 0.336024 -0.0689483 0.109434 -0.0462071 -0.285292 -0.203524 -0.178964 -0.165517 -0.0319324 0.187186 -0.196807 0.199836 0.133524 -0.193361 -0.0943461 0.241384 0.0578704 -0.142241 -0.430065 -0.0602276 -0.104849 -0.252378 0.142491 0.0303914 -0.0847573 0.117382 -0.121896 0.0212813 -0.0531934 -0.113978 -0.0875535 -0.166228 0.150258 -0.0943873 -0.0680283 0.0429015 -0.0984499 -0.193419 0.0466664 0.0252553 -0.289706 0.177936 -0.173648 -0.059502 -0.249543 0.0168279 0.11913 0.00716499 0.202751 0.157676 0.0529792 -0.203778 0.133615 -0.133334 0.148467 0.0149915 -0.257013 -0.358407 0.160108 0.195318 -0.0340462 -0.202775 -0.0600289 -0.247902 -0.0360633 0.121511 0.365908 0.231225 0.160441 -0.171826 -0.00766021 -0.198665 0.0531955 -0.16222 -0.355539 -0.0717556 -0.13158 -0.0576064 -0.0596127 0.0501415 -0.0185346 0.0482474
85215038 -0.00661905 -0.0494766 0.0721535 -0.237374 0.298484 -0.170664 -0.186395 0.0498537 0.0615754 0.0678203 -0.105049 -0.0699319 0.0381132 -0.0468902 -0.237718 0.187911 -0.14917 -0.299888 0.364657 -0.051397 0.143158 -0.0854024 -0.325575 -0.225692 -0.0834319 -0.217385 -0.0714863 0.164989 -0.182645 0.246437 0.143848 -0.181538 -0.0610589 0.204025 0.107479 -0.170805 -0.453181 -0.0975747 -0.034779 -0.351929 0.201406 0.0721352 -0.13109 0.0354716 -0.0563214 -0.0208361 -0.11434 -0.0934379 -0.0209901 -0.245122 0.193684 0.0469699 -0.0168227 -0.0350276 -0.109036 -0.21491 0.0481727 -0.025861 -0.215823 0.198952 -0.135166 -0.0471695 -0.251093 -0.0445378 0.100364 0.0565179 0.141723 0.139363 0.0462568 -0.19767 0.185469 -0.134922 0.149979 0.0735904 -0.302454 -0.383647 0.15228 0.25915 -0.0534203 -0.15193 -0.0998384 -0.292275 0.00490939 0.128639 0.30233 0.189714 0.202723 -0.106332 0.009555 -0.145577 -0.0198198 -0.104424 -0.416219 -0.121462 -0.154621 -0.053047 -0.0289881 0.071801 -0.000761946 0.105062
292733652 -0.00935231 0.00726417 0.147554 -0.252584 0.33345 -0.11157 -0.128394 0.049593 -0.0203087 -0.00503495 -0.0843977 -0.0736817 -0.0306751 -0.0820832 -0.269631 0.234342 -0.170391 -0.282688 0.32481 -0.056714 0.167978 -0.0948381 -0.316517 -0.303055 -0.12557 -0.165922 -0.0388998 0.110583 -0.0643548 0.325089 0.100048 -0.19456 -0.0920406 0.231887 0.139094 -0.135888 -0.398221 -0.0950853 -0.166016 -0.272906 0.169309 -0.0195637 -0.12368 0.0325134 -0.0605406 0.0466756 -0.171701 -0.13151 -0.0967717 -0.179338 0.1281 0.0302168 -0.166046 0.0168141 -0.0553711 -0.146041 -0.0230695 0.0726833 -0.278975 0.165291 -0.14591 -0.0633194 -0.19802 0.00897388 0.110995 -0.00332268 0.164621 0.199609 0.0318055 -0.151889 0.158381 -0.159299 0.0499826 0.0526568 -0.22782 -0.355766 0.0956061 0.200198 -0.0368512 -0.184418 -0.129032 -0.237525 -0.0642899 0.130556 0.247048 0.278482 0.137918 -0.211251 -0.00798622 -0.14779 0.0250999 -0.269547 -0.315098 -0.122943 -0.128603 -0.107907 -0.0473429 0.0863903 -0.0116062 0.0998558
31610343 -0.0386611 -0.0621786 0.157398 -0.237524 0.376991 -0.132816 -0.141157 0.0508782 -0.00913523 0.0189421 -0.057681 -0.104402 0.0418814 -0.101786 -0.292385 0.239604 -0.202094 -0.264581 0.328658 -0.0570597 0.098749 -0.0593042 -0.261069 -0.276125 -0.139476 -0.188807 -0.0238477 0.122796 -0.148611 0.249363 0.123287 -0.191707 -0.0670509 0.244529 0.0981095 -0.134865 -0.428021 -0.0975572 -0.153154 -0.236997 0.135132 0.0423528 -0.103758 0.0702839 -0.0943631 0.0465528 -0.13956 -0.126538 -0.103361 -0.110418 0.129131 -0.0653911 -0.103295 0.00572198 -0.0529215 -0.185517 0.024908 0.0295909 -0.287736 0.184796 -0.138197 -0.062098 -0.220528 0.0149092 0.114857 -0.0107294 0.201692 0.185011 0.0689901 -0.169604 0.144915 -0.1752 0.092529 0.0650613 -0.274933 -0.385466 0.152281 0.199616 -0.0503566 -0.187473 -0.0632354 -0.249122 -0.0449733 0.146331 0.339062 0.256578 0.0997239 -0.216317 0.00324024 -0.144028 0.00734898 -0.199058 -0.345322 -0.0456054 -0.116282 -0.0707471 -0.0848898 0.0714503 -0.0151206 0.0696513
26166316 -0.0670923 -0.0520321 0.239157 -0.262557 0.285395 -0.143058 -0.192353 0.0470964 0.0091922 0.0359791 -0.0775033 -0.087345 0.00393518 -0.0627318 -0.234531 0.263283 -0.155833 -0.216808 0.30023 0.0219435 0.113126 -0.141692 -0.31752 -0.40128 0.0131252 -0.181975 -0.0374756 0.0652598 -0.0909798 0.326941 0.145772 -0.159632 -0.0299631 0.264947 0.170938 -0.114874 -0.360579 -0.12815 -0.152996 -0.148759 0.193107 0.059166 -0.148765 0.0460016 -0.0611657 0.092666 -0.18125 -0.119738 -0.0738135 -0.107291 0.118989 -0.0339443 -0.166336 0.0366995 -0.0351113 -0.114663 -0.0202913 -0.0389951 -0.256219 0.175068 -0.0851271 -0.0995175 -0.234835 0.0324576 0.0877542 0.0109902 0.160036 0.266437 0.0839445 -0.140162 0.204895 -0.220403 0.0387652 0.0663067 -0.273284 -0.386378 0.116739 0.262835 -0.0353152 -0.162665 -0.0515592 -0.261767 -0.0842848 0.12036 0.238676 0.279687 0.029296 -0.236531 0.00797753 -0.0993039 -0.0694979 -0.211846 -0.337104 -0.00604994 -0.102942 -0.124637 -0.0510851 0.120679 -0.063944 0.145449
328169853 -0.0652864 0.0300631 0.200235 -0.311224 0.293785 -0.135241 -0.123154 0.0259114 -0.010873 -0.0431164 -0.0829595 -0.062027 -0.0708403 -0.0418483 -0.275823 0.304696 -0.149071 -0.234666 0.281086 -0.0551899 0.179257 -0.095652 -0.333399 -0.374979 -0.0696894 -0.1722 -0.0564963 0.0620978 -0.0508175 0.367959 0.121278 -0.144451 -0.0359393 0.274087 0.149416 -0.119252 -0.383755 -0.0935349 -0.203195 -0.303 0.162372 -0.0843045 -0.138839 -0.00445498 -0.066667 0.0440948 -0.169008 -0.115963 -0.0199932 -0.173659 0.12008 0.0474667 -0.165194 0.0316184 -0.027591 -0.105506 -0.0537822 0.0519855 -0.277302 0.170473 -0.108474 -0.0767646 -0.205746 0.0357646 0.159137 0.0100932 0.160315 0.232927 0.0146764 -0.118634 0.18118 -0.155993 0.0159518 0.0435161 -0.217667 -0.369897 0.0607218 0.184295 0.0460721 -0.190216 -0.123261 -0.225109 -0.107594 0.0854884 0.1752 0.351709 0.0440095 -0.232134 -0.0186614 -0.141983 0.00398789 -0.278961 -0.337999 -0.140197 -0.161682 -0.163017 -0.0105077 0.0622565 -0.012364 0.13765
57986173 -0.0435704 -0.0639399 0.174216 -0.247113 0.313158 -0.120594 -0.120133 0.0759189 -0.0760852 0.0159903 -0.0544596 -0.127548 -0.0243762 -0.0635222 -0.291148 0.22905 -0.200706 -0.207206 0.283559 -0.0808974 0.166654 0.0150088 -0.231436 -0.318329 -0.11672 -0.218026 0.00944555 0.0701547 -0.141244 0.283141 0.0845769 -0.142268 -0.067851 0.200483 0.0947956 -0.124359 -0.389603 -0.103776 -0.229844 -0.218646 0.0760335 -0.00444206 -0.0758729 0.0753006 -0.0987538 0.0647388 -0.133293 -0.115898 -0.0757037 -0.0901617 0.108663 -0.0190124 -0.0855165 -0.00764042 -0.0480724 -0.153252 -0.00805697 0.065349 -0.323075 0.157575 -0.141946 -0.062817 -0.139266 0.0802341 0.0792323 -0.0221149 0.217245 0.139257 0.100129 -0.150036 0.123554 -0.206672 0.0468304 0.0189822 -0.258226 -0.353957 0.126226 0.178885 -0.0642869 -0.197375 -0.0750749 -0.161124 -0.122079 0.184185 0.33326 0.302517 0.0836551 -0.284903 -0.0222874 -0.18854 0.0205382 -0.253799 -0.289111 -0.111463 -0.111854 -0.0954715 -0.0670173 0.0500949 -0.0285121 0.119897
19840198 -0.0435348 -0.0726598 0.172334 -0.239795 0.380569 -0.147546 -0.0845945 0.0215059 -0.0241295 0.0490051 -0.0324497 -0.115603 0.0183782 -0.129944 -0.244438 0.190718 -0.212524 -0.238069 0.293267 -0.0531622 0.101976 -0.0485683 -0.255395 -0.301148 -0.116782 -0.156342 0.0174364 0.0938055 -0.179175 0.243685 0.175188 -0.162164 -0.0765604 0.2718 0.127222 -0.114762 -0.361899 -0.13813 -0.120556 -0.211105 0.125761 0.0245017 -0.0852863 0.060163 -0.103641 0.0308166 -0.161492 -0.113411 -0.136106 -0.0774804 0.0928081 -0.0513579 -0.0679803 0.0686693 -0.0493613 -0.120112 0.0315633 0.0511007 -0.282143 0.180367 -0.126709 -0.0781178 -0.219539 -0.0133704 0.154462 -0.00699535 0.180671 0.181648 0.0357385 -0.143927 0.158037 -0.162724 0.063643 0.0493883 -0.273116 -0.424198 0.160031 0.221325 -0.0613746 -0.184655 -0.0600151 -0.258712 -0.048476 0.162012 0.307054 0.218702 0.0909255 -0.258514 -0.0367875 -0.140673 -0.00469022 -0.179631 -0.323674 -0.0195979 -0.119501 -0.079323 -0.130968 0.0791868 -0.0608833 0.109913
18949386 -0.0174678 -0.0829194 0.0695344 -0.254267 0.314886 -0.165442 -0.140191 0.0814726 -0.044096 -0.00163469 -0.0472478 -0.0932425 0.0389742 -0.0948851 -0.288735 0.206324 -0.213583 -0.273246 0.322899 -0.0988871 0.108984 0.00137983 -0.260197 -0.228198 -0.172646 -0.179563 -0.049506 0.151614 -0.255764 0.215806 0.099195 -0.198096 0.0118102 0.173206 0.0368826 -0.124328 -0.45776 -0.116578 -0.0900129 -0.35317 0.135258 -0.0424148 -0.0743158 0.0812663 -0.102126 -0.000960743 -0.0341644 -0.131266 -0.0494016 -0.212224 0.186151 0.0239017 -0.0203651 -0.0105346 -0.127221 -0.20635 0.0918476 0.0436801 -0.22193 0.161241 -0.159611 -0.0718145 -0.17336 -0.0172736 0.140007 -0.0101518 0.167705 0.063963 0.0352128 -0.226271 0.124026 -0.150562 0.169439 0.033288 -0.251765 -0.362724 0.195244 0.128582 -0.0448242 -0.205044 -0.135312 -0.207808 -0.0411415 0.162866 0.350627 0.24709 0.168064 -0.121535 -0.0451521 -0.186346 0.0411208 -0.0955819 -0.359416 -0.115546 -0.131678 -0.0097961 -0.0718251 0.0509752 0.00908956 0.0768032
93905958 -0.017205 -0.0525177 0.0882593 -0.235007 0.352432 -0.110686 -0.14522 0.0712484 -0.0185485 -0.00546427 -0.0458793 -0.0795007 0.0357771 -0.113028 -0.301405 0.228356 -0.197809 -0.296085 0.29018 -0.0596881 0.126833 -0.0340895 -0.248599 -0.25746 -0.149349 -0.203225 -0.021095 0.120487 -0.139213 0.236887 0.109421 -0.223983 -0.0587739 0.199901 0.0825154 -0.119936 -0.447876 -0.100462 -0.163956 -0.288883 0.149162 -0.00695717 -0.104722 0.0522323 -0.0934607 0.0151811 -0.117197 -0.110309 -0.0740898 -0.157595 0.154065 -0.0272562 -0.0984395 -0.00959453 -0.0617317 -0.211511 0.0395586 0.0337076 -0.252695 0.173036 -0.137721 -0.0692628 -0.190554 0.0174285 0.123812 0.00843891 0.216424 0.171003 0.0485489 -0.187308 0.133997 -0.170691 0.119538 0.0556891 -0.238591 -0.353031 0.150078 0.146295 -0.0535523 -0.175684 -0.111164 -0.216971 -0.0429457 0.123312 0.337814 0.247009 0.154452 -0.168614 -0.0280086 -0.151243 0.0144194 -0.194194 -0.321436 -0.0913402 -0.103936 -0.0734083 -0.0845249 0.061708 -0.0297035 0.0631461
38542252 -0.0539212 -0.0652288 0.145894 -0.241644 0.3 -0.170403 -0.181599 0.0848653 -0.049648 0.00636938 -0.0812294 -0.104689 0.0219263 -0.0635742 -0.252228 0.199404 -0.176241 -0.219931 0.354592 -0.0421648 0.129167 -0.0287805 -0.284373 -0.293875 -0.0597547 -0.210464 -0.0524036 0.150731 -0.184673 0.238883 0.0863227 -0.206153 -0.0535518 0.218571 0.0844609 -0.131635 -0.392152 -0.133258 -0.134661 -0.243871 0.129495 0.025498 -0.102638 0.0958959 -0.0809216 0.0565596 -0.0628237 -0.114073 -0.0689507 -0.173377 0.211863 -0.0154373 -0.0911191 -0.00709037 -0.0950777 -0.168184 0.0191757 -0.0206579 -0.257621 0.161783 -0.139244 -0.106775 -0.188852 0.0293788 0.0876153 0.0194971 0.188761 0.114888 0.086399 -0.211218 0.1544 -0.210649 0.103143 0.0553998 -0.236818 -0.328091 0.148606 0.179659 -0.0602472 -0.19866 -0.115113 -0.206495 -0.0741071 0.143959 0.325496 0.229448 0.157749 -0.150929 -0.0062661 -0.16339 -0.00387372 -0.119492 -0.355988 -0.0524314 -0.0936881 -0.0479195 -0.0436025 0.0422784 -0.0406913 0.143072
3442781 -0.0186032 0.0155935 0.0139652 -0.234234 0.388234 -0.102542 -0.101763 0.0381431 -0.00298213 0.0771838 -0.115956 -0.114223 0.0515745 -0.129433 -0.245674 0.157282 -0.127514 -0.333269 0.401303 -0.0503425 0.16181 -0.0369549 -0.353641 -0.268643 -0.118641 -0.216045 0.018704 0.186586 -0.139899 0.24401 0.216196 -0.251025 -0.11197 0.168356 0.123041 -0.179334 -0.378153 -0.114461 -0.0556005 -0.319875 0.185772 0.0566349 -0.126415 -0.00629097 -0.0870609 -0.0215942 -0.184715 -0.0932488 -0.152422 -0.195933 0.260859 -0.01642 -0.0487307 -0.0803563 -0.0889398 -0.13073 0.0439852 0.0906223 -0.249223 0.183528 -0.164963 -0.112502 -0.175891 -0.0297093 0.0907883 0.060678 0.128183 0.164159 0.0806282 -0.202782 0.158575 -0.0405823 0.0310482 0.0798193 -0.141314 -0.298594 0.154296 0.173158 -0.11904 -0.123417 -0.154126 -0.214412 -0.0673103 0.155328 0.314116 0.114375 0.293702 -0.14946 -0.05178 -0.107003 0.0249661 -0.115531 -0.451218 -0.0708525 -0.146746 -0.0257262 -0.135976 0.0297278 -0.0396341 0.0748577
191548936 -0.0148054 -0.0385069 0.123928 -0.270828 0.277959 -0.129122 -0.150924 0.0380915 0.012976 -0.0371786 -0.0974781 -0.0745378 0.0301246 -0.0392708 -0.301501 0.238827 -0.18508 -0.29652 0.352982 -0.0677214 0.107022 -0.069178 -0.298214 -0.249494 -0.134329 -0.177606 -0.0859551 0.161014 -0.143531 0.24381 0.129677 -0.2219 -0.0225234 0.219153 0.0898861 -0.16334 -0.400607 -0.0886823 -0.0646053 -0.307117 0.179891 0.0109778 -0.102635 0.0712094 -0.0959929 0.0154957 -0.091796 -0.129359 -0.0483963 -0.209551 0.180165 -0.0145931 -0.106088 0.0172893 -0.123371 -0.168156 0.0705413 0.0132883 -0.231495 0.191661 -0.147222 -0.121183 -0.200048 -0.0533348 0.148972 0.0180101 0.167014 0.170151 0.00578827 -0.189967 0.183017 -0.149052 0.0980308 0.045605 -0.23762 -0.380958 0.136498 0.162303 0.00943603 -0.185841 -0.123746 -0.251612 -0.0108517 0.0969456 0.28967 0.24188 0.154324 -0.118328 -0.0468193 -0.164444 0.0304323 -0.160326 -0.387073 -0.0999733 -0.134203 -0.0345643 -0.0133319 0.0605338 0.0245514 0.0728857
113751683 -0.0158073 -0.0963643 0.120368 -0.236106 0.280584 -0.193619 -0.196649 0.0829155 -0.00820613 0.0157301 -0.0589115 -0.0921549 0.0318193 -0.0607269 -0.248848 0.176661 -0.217116 -0.2614 0.330837 -0.075606 0.116485 -0.0769903 -0.257144 -0.243865 -0.111296 -0.203939 -0.0804483 0.162155 -0.227485 0.216887 0.0743459 -0.197762 -0.0230921 0.215399 0.077326 -0.100609 -0.429749 -0.134656 -0.0772041 -0.248888 0.170775 0.0556275 -0.113632 0.148532 -0.068252 0.0411393 -0.0429419 -0.149471 -0.0415635 -0.20501 0.159118 0.000631869 -0.0586119 0.013853 -0.104779 -0.219118 0.0740792 -0.0374974 -0.233636 0.148547 -0.132924 -0.072491 -0.209584 -0.0135113 0.0948326 -0.00164984 0.188574 0.105326 0.0494639 -0.212 0.171309 -0.255775 0.172972 0.0574264 -0.320982 -0.410685 0.165278 0.218513 -0.077563 -0.209413 -0.108599 -0.248272 0.0107282 0.174495 0.33165 0.235441 0.166644 -0.113247 -0.0325162 -0.177469 -0.0264217 -0.121088 -0.307471 -0.0586563 -0.083558 -0.026751 -0.0482132 0.103863 0.00900377 0.0998798
85432934 -0.052428 -0.00582138 0.137331 -0.299793 0.372841 -0.166362 -0.0897684 -0.000611249 -0.0194521 -0.0267531 -0.0564879 -0.080801 -0.0195474 -0.0860197 -0.287392 0.252924 -0.17523 -0.261677 0.292963 -0.0808769 0.148404 -0.0696624 -0.31246 -0.303715 -0.137763 -0.154002 -0.0398153 0.0923631 -0.148592 0.278627 0.135716 -0.165062 -0.0571205 0.264251 0.105533 -0.123072 -0.385011 -0.104498 -0.146987 -0.285219 0.158888 -0.0576935 -0.0903043 0.0329682 -0.107549 0.0389453 -0.126575 -0.119261 -0.0821552 -0.168508 0.157047 -0.00466908 -0.122612 0.0507586 -0.0738806 -0.141062 0.00961333 0.0511563 -0.243117 0.182641 -0.161175 -0.0895569 -0.206889 -9.61118e-05 0.172941 0.0019309 0.161085 0.18289 -0.0191192 -0.165794 0.138436 -0.161984 0.061644 0.0582034 -0.211032 -0.396294 0.147485 0.140111 -0.014678 -0.209629 -0.147422 -0.233827 -0.0676343 0.101268 0.257705 0.300463 0.104071 -0.182153 -0.0399093 -0.170755 0.0526917 -0.186091 -0.347857 -0.0874666 -0.136041 -0.0877842 -0.064614 0.0473281 -0.0277904 0.105751
290097288 -0.0157583 -0.0408499 0.0578708 -0.243365 0.291782 -0.131241 -0.127581 0.0879867 0.0378195 -0.0359426 -0.0640938 -0.0607532 0.0256029 -0.0469886 -0.306709 0.207928 -0.204916 -0.309376 0.290202 -0.0977599 0.11385 -0.0621492 -0.239777 -0.21435 -0.184198 -0.194232 -0.0593607 0.147938 -0.188066 0.238618 0.123074 -0.192406 -0.0250941 0.184903 0.0688906 -0.115161 -0.462552 -0.105169 -0.073496 -0.314789 0.193017 -0.015625 -0.0942692 0.0812854 -0.102367 -0.0339543 -0.0828265 -0.118327 -0.033008 -0.234551 0.142182 -0.0137141 -0.0466993 0.0305986 -0.103714 -0.20936 0.110286 0.0567372 -0.229432 0.166416 -0.130537 -0.0544256 -0.218296 -0.0113201 0.16399 0.00927367 0.191253 0.163954 0.0121851 -0.191186 0.155627 -0.136634 0.155551 0.0430275 -0.262817 -0.403367 0.162267 0.188641 -0.011911 -0.180843 -0.110477 -0.261712 0.0071557 0.141169 0.296609 0.250614 0.166564 -0.134653 -0.0733435 -0.168534 0.0340095 -0.15421 -0.344884 -0.110953 -0.151668 -0.0774693 -0.0691912 0.0849675 0.0057932 0.0517156
111210694 -0.0259162 -0.0669815 0.108485 -0.23625 0.34104 -0.117427 -0.124125 0.0355333 -0.0243669 -0.0374874 -0.0477559 -0.0789186 0.0385287 -0.0605421 -0.318579 0.213333 -0.211092 -0.258243 0.328704 -0.120062 0.11449 -0.0149983 -0.242062 -0.201928 -0.17235 -0.19897 -0.0411835 0.172893 -0.185091 0.203529 0.0874536 -0.216848 -0.0649135 0.214455 0.0345093 -0.143545 -0.42003 -0.102923 -0.10219 -0.331443 0.131318 -0.0181878 -0.0858555 0.0640431 -0.123258 -0.0115561 -0.078514 -0.111155 -0.0636566 -0.152748 0.159897 -0.036173 -0.0266243 0.000455394 -0.119828 -0.204056 0.0480725 0.033521 -0.274809 0.185196 -0.191423 -0.0724803 -0.184692 -0.0371017 0.115918 -0.00476876 0.190815 0.0860239 0.0661674 -0.180061 0.159562 -0.166977 0.136865 0.0424993 -0.268382 -0.388853 0.148583 0.176129 0.000510457 -0.178149 -0.098917 -0.232205 -0.0164447 0.126275 0.33411 0.233019 0.145607 -0.166857 -0.00209736 -0.203715 0.0477654 -0.153369 -0.386389 -0.122676 -0.143443 -0.0249473 -0.0348217 0.000873167 -0.00254791 0.0746414
18666844 -0.0462385 -0.0891052 0.0945934 -0.21252 0.279196 -0.187328 -0.166305 0.0947708 0.0146043 0.123177 -0.113256 -0.144336 0.105331 -0.0603323 -0.197173 0.0995062 -0.181166 -0.265772 0.409171 -0.0523367 0.0963924 -0.037316 -0.290095 -0.242523 -0.0752153 -0.232555 -0.0430754 0.217838 -0.262437 0.225191 0.183472 -0.218774 -0.0723158 0.155982 0.11013 -0.162402 -0.441367 -0.151647 0.0250644 -0.227894 0.201314 0.167294 -0.10259 0.122295 -0.0872351 0.000415892 -0.0982494 -0.0953968 -0.115165 -0.167472 0.200432 -0.0619974 0.0401989 -0.0671085 -0.144368 -0.148315 0.125185 0.0115833 -0.286482 0.178615 -0.120391 -0.105317 -0.217759 0.0118482 0.0560019 0.0306804 0.157906 0.120189 0.163559 -0.242106 0.184224 -0.140697 0.153167 0.0664366 -0.315373 -0.401331 0.194652 0.304942 -0.128077 -0.11505 -0.0313337 -0.279714 -0.0156802 0.250519 0.386968 0.0998814 0.252791 -0.160011 -0.0214016 -0.141667 -0.0511681 -0.0698739 -0.446869 -0.0351752 -0.152834 0.00123621 -0.0932337 0.109831 -0.0239707 0.125347
35722372 -0.0508692 -0.0509882 0.14025 -0.259071 0.360161 -0.166833 -0.160821 0.0352034 0.00821957 0.00961766 -0.0424919 -0.0960321 0.0470027 -0.0922455 -0.277952 0.254386 -0.19588 -0.268961 0.332028 -0.0760269 0.0948158 -0.0750566 -0.28878 -0.287151 -0.13274 -0.208909 -0.0824154 0.10364 -0.178551 0.268938 0.114391 -0.206037 -0.0420919 0.222521 0.106306 -0.150945 -0.441775 -0.10058 -0.139856 -0.300225 0.16949 0.0172569 -0.124626 0.0691171 -0.105736 0.053899 -0.126487 -0.118135 -0.0607839 -0.156432 0.161025 -0.0432498 -0.0992886 -0.0187291 -0.0797246 -0.197953 0.0193458 0.00686525 -0.27269 0.173912 -0.133607 -0.0819857 -0.214125 0.0290434 0.0963581 0.00345142 0.185277 0.180011 0.0750937 -0.198224 0.146243 -0.198049 0.114615 0.0736343 -0.274964 -0.401867 0.138156 0.181537 -0.0247412 -0.191743 -0.105605 -0.256716 -0.04476 0.113885 0.322452 0.288875 0.104346 -0.175481 0.00915916 -0.140784 0.00157707 -0.195692 -0.36846 -0.0790195 -0.134757 -0.0636933 -0.0550939 0.0769726 -0.00382199 0.100904
14339261 -0.00978225 -0.0759686 0.142937 -0.221674 0.276661 -0.08954 -0.17647 0.134107 -0.0183892 0.0749545 -0.0538542 -0.11718 0.0195623 -0.0762819 -0.271582 0.224968 -0.171033 -0.201777 0.298769 -0.0083829 0.0842453 -0.0297587 -0.27521 -0.366135 -0.0575279 -0.21908 0.0353323 0.0752076 -0.148749 0.269673 0.162851 -0.126845 -0.0408012 0.176093 0.136775 -0.126361 -0.377778 -0.109007 -0.181457 -0.167181 0.142704 0.0553623 -0.116287 0.0733637 -0.0552362 0.0741876 -0.134259 -0.098358 -0.0850327 -0.112309 0.147613 -0.0346278 -0.1309 0.0162447 -0.0061129 -0.120392 0.0200441 -0.0165724 -0.247397 0.128852 -0.087332 -0.0647359 -0.194159 0.0655595 0.0569494 0.00313099 0.191439 0.206383 0.123991 -0.15439 0.178304 -0.127784 0.0431729 0.0209769 -0.221227 -0.335802 0.1463 0.221428 -0.0977582 -0.165101 -0.0525263 -0.194131 -0.117982 0.179211 0.301703 0.241198 0.104866 -0.249257 -0.0296879 -0.101641 -0.0471696 -0.154312 -0.340966 -0.00937945 -0.103668 -0.107937 -0.104813 0.133351 -0.0604367 0.142777
59804598 0.00303272 -0.0651364 0.149655 -0.226562 0.306009 -0.170526 -0.199575 0.0629883 0.0304347 0.0873885 -0.0948128 -0.135141 0.0439343 -0.0947947 -0.259826 0.182329 -0.200393 -0.278956 0.354471 -0.022205 0.0787303 -0.0819023 -0.294534 -0.315567 -0.0834518 -0.198761 -0.0384328 0.11298 -0.19674 0.253907 0.17339 -0.176282 -0.054096 0.217903 0.142583 -0.13556 -0.386337 -0.126901 -0.0675813 -0.210827 0.17482 0.111106 -0.131664 0.0980018 -0.0675606 0.0729047 -0.156034 -0.125543 -0.0942779 -0.1407 0.186844 -0.000776994 -0.0985646 0.0339555 -0.0658323 -0.180269 0.0616454 -0.0240631 -0.21801 0.181328 -0.107254 -0.0915878 -0.241595 -0.00787507 0.0832807 0.00478847 0.156782 0.200241 0.0508486 -0.174772 0.208041 -0.186963 0.0717679 0.0924138 -0.295051 -0.435132 0.202321 0.288061 -0.0770041 -0.175823 -0.0717573 -0.290367 -0.0225366 0.174742 0.287703 0.204241 0.134373 -0.183087 -0.0313488 -0.102967 -0.0494773 -0.143719 -0.384754 -0.0108707 -0.105025 -0.0442523 -0.0916513 0.138488 -0.014415 0.150906
26689476 0.0442818 -0.0315966 -0.0149786 -0.245912 0.312433 -0.100334 -0.141855 0.112824 -0.0103745 0.00115244 -0.0708785 -0.089702 0.042821 -0.0963139 -0.33978 0.201199 -0.182689 -0.318814 0.316842 -0.106709 0.138127 0.0177845 -0.268715 -0.209504 -0.21519 -0.212814 -0.0291556 0.161288 -0.171239 0.224348 0.0744001 -0.229889 -0.0526581 0.107625 0.0487222 -0.148059 -0.502101 -0.110515 -0.126373 -0.39747 0.15418 -0.049096 -0.0729269 0.0451094 -0.0642886 -0.0456084 -0.0793175 -0.116552 -0.0439013 -0.248239 0.208431 0.0472108 -0.0335897 -0.0590352 -0.0931358 -0.241069 0.0853772 0.0941857 -0.226091 0.160752 -0.147058 -0.0477665 -0.157494 0.000298078 0.108766 0.0168625 0.186559 0.108028 0.0402705 -0.23153 0.122449 -0.107946 0.151834 0.0542523 -0.200266 -0.322419 0.184393 0.129898 -0.0671501 -0.173592 -0.1522 -0.184649 -0.046856 0.178707 0.336416 0.227255 0.253583 -0.111823 -0.065192 -0.167005 0.0537737 -0.146642 -0.374791 -0.179433 -0.125004 -0.0476828 -0.077624 0.0391787 0.0138983 0.0569534
34068984 -0.0443081 -0.0754291 0.16626 -0.228218 0.336035 -0.159619 -0.157933 0.0375484 -0.0195124 0.0117178 -0.052909 -0.0920431 0.0391438 -0.101091 -0.243399 0.226516 -0.194774 -0.255928 0.311985 -0.0309221 0.117858 -0.0514577 -0.27521 -0.282276 -0.0963056 -0.156267 -0.0463695 0.111057 -0.146119 0.238362 0.119722 -0.191376 -0.0424553 0.238494 0.115642 -0.122266 -0.372413 -0.0791878 -0.124539 -0.277686 0.13376 0.0275331 -0.11155 0.0556723 -0.102332 0.074573 -0.0895676 -0.114914 -0.0379504 -0.14883 0.124446 -0.0214926 -0.112435 0.0167223 -0.0673339 -0.176879 -0.020195 -0.0268829 -0.250612 0.181696 -0.138924 -0.0993607 -0.215152 -0.00891681 0.109562 0.0207788 0.169837 0.149354 0.0447505 -0.153543 0.149109 -0.194145 0.0919682 0.0463748 -0.254855 -0.330125 0.137144 0.154422 -0.0329016 -0.204306 -0.0963238 -0.216028 -0.0279229 0.0914581 0.309431 0.2423 0.107324 -0.156887 0.00898966 -0.136887 0.00654081 -0.170868 -0.299513 -0.0756669 -0.0861483 -0.050179 -0.0313496 0.052542 -0.00473589 0.0947562
19661710 -0.0535454 -0.00208164 0.142509 -0.289851 0.363732 -0.155091 -0.140684 0.000678852 0.0346228 -0.0154215 -0.0422884 -0.0361563 0.000187216 -0.0512745 -0.23826 0.246139 -0.151405 -0.273432 0.320443 -0.0671621 0.138866 -0.155889 -0.367412 -0.293485 -0.0698251 -0.215458 -0.0746485 0.139684 -0.088716 0.29078 0.120895 -0.195698 -0.0551498 0.265285 0.130279 -0.143296 -0.424865 -0.106446 -0.127586 -0.267254 0.22154 0.0248219 -0.114313 0.054012 -0.0676618 0.0370873 -0.135881 -0.113832 -0.0707799 -0.194081 0.154643 -0.0353607 -0.122879 -0.00538946 -0.0616686 -0.143543 0.00349697 -0.00660405 -0.252085 0.194707 -0.134183 -0.087284 -0.213034 -0.00542207 0.121669 0.0309021 0.189547 0.246355 0.00462773 -0.190985 0.164154 -0.172221 0.10043 0.0547396 -0.257749 -0.389837 0.0755604 0.189206 -0.0385384 -0.154383 -0.13235 -0.268233 -0.0489914 0.067113 0.280268 0.255595 0.151074 -0.144126 -0.00968296 -0.147662 0.0130852 -0.211227 -0.373621 -0.082204 -0.135149 -0.0877299 -0.0362261 0.0837077 -0.0188299 0.0728555
25648016 -0.031872 -0.0682161 0.198113 -0.225302 0.274345 -0.143789 -0.178056 0.084883 -0.0101032 0.0451554 -0.0548544 -0.0962161 -0.003974 -0.0492166 -0.217239 0.201394 -0.187884 -0.233176 0.281857 -0.000140587 0.0783423 -0.089017 -0.254777 -0.338372 -0.0243877 -0.206188 -0.014563 0.0910411 -0.159608 0.279234 0.170254 -0.162092 -0.0239129 0.244878 0.132145 -0.117258 -0.360626 -0.15769 -0.0952014 -0.152657 0.147998 0.0760486 -0.128208 0.0902649 -0.0614478 0.0525102 -0.140655 -0.0957335 -0.0726606 -0.118334 0.140415 -0.025132 -0.124561 0.0736777 -0.0437476 -0.133094 0.0678561 -0.0518513 -0.214054 0.168148 -0.0896394 -0.0777431 -0.226621 0.00240292 0.10855 -0.00163085 0.179582 0.22566 0.0536735 -0.141799 0.20616 -0.184573 0.0550926 0.0335807 -0.278726 -0.403112 0.127619 0.251222 -0.0184888 -0.171565 -0.0533684 -0.25979 -0.0404717 0.142851 0.26375 0.231113 0.0479533 -0.223858 -0.0548021 -0.0978623 -0.0398574 -0.207945 -0.329415 -0.00303162 -0.107618 -0.116532 -0.0783093 0.132582 -0.0413578 0.168143
85343184 -0.0207818 -0.087969 0.0925278 -0.24861 0.305162 -0.155164 -0.151617 0.0617891 -0.0228474 0.0459354 -0.0380226 -0.0895004 0.0583236 -0.108947 -0.25477 0.171717 -0.175478 -0.227502 0.33133 -0.0520487 0.102708 -0.0314827 -0.281835 -0.229759 -0.0941013 -0.209791 -0.0465676 0.154456 -0.232795 0.1926 0.0932263 -0.20397 -0.0544303 0.194258 0.073814 -0.122858 -0.427435 -0.139541 -0.0893315 -0.293893 0.139272 0.0122377 -0.082339 0.0712166 -0.0856886 -0.00702789 -0.051414 -0.103194 -0.0800448 -0.179585 0.189987 0.0134585 -0.0283986 0.00116867 -0.127719 -0.168872 0.0637685 -0.00705828 -0.232875 0.18057 -0.142659 -0.0793105 -0.180796 -0.0204517 0.112365 0.0263082 0.173059 0.0715338 0.0638606 -0.227299 0.153078 -0.168182 0.172676 0.0378985 -0.245498 -0.376698 0.171219 0.180454 -0.0622951 -0.179806 -0.125514 -0.22412 -0.0375801 0.159178 0.360485 0.205182 0.184854 -0.144935 -0.0234156 -0.179493 0.000604869 -0.0766161 -0.358195 -0.0623795 -0.117153 -0.028076 -0.0614781 0.0670459 -0.0522453 0.112107
203781042 -0.00628466 -0.0727767 0.0931325 -0.207613 0.366391 -0.123543 -0.141098 0.118216 -0.0587346 0.0340355 -0.0216064 -0.131317 0.0354087 -0.0911166 -0.292876 0.185142 -0.201594 -0.218051 0.304891 -0.0741169 0.0535028 0.0187665 -0.231034 -0.242001 -0.163154 -0.207366 0.0192582 0.13145 -0.261825 0.2065 0.137783 -0.164486 -0.0606977 0.180703 0.0395157 -0.132913 -0.416837 -0.109598 -0.171663 -0.24022 0.0801336 0.0153068 -0.102717 0.0864115 -0.0824143 0.0290137 -0.0528935 -0.0922916 -0.105083 -0.116585 0.196479 -0.040037 -0.072825 0.0205144 -0.0682358 -0.208673 0.0819734 0.00839867 -0.226589 0.14937 -0.15844 -0.00572967 -0.209385 0.0609899 0.0811925 -0.0334103 0.189215 0.0962056 0.103775 -0.198372 0.161306 -0.101598 0.11232 0.0111415 -0.228424 -0.357891 0.203408 0.173902 -0.0457596 -0.205189 -0.0782395 -0.196899 -0.053157 0.179907 0.36457 0.233016 0.122957 -0.213529 -0.0184371 -0.15696 0.0245702 -0.14998 -0.373623 -0.0283396 -0.138166 -0.0529743 -0.0993461 0.0730895 -0.0398443 0.119537
187744415 -0.0381351 -0.0369563 0.118302 -0.261477 0.332106 -0.135787 -0.0887587 0.0414782 -0.0288106 -0.0259877 -0.0580138 -0.0810564 0.0195003 -0.0809895 -0.304471 0.216545 -0.19733 -0.286818 0.336184 -0.0978954 0.143624 -0.0365397 -0.255124 -0.232793 -0.161423 -0.16024 -0.0520875 0.164744 -0.167921 0.254721 0.102963 -0.22848 -0.0669292 0.242101 0.085488 -0.132801 -0.410217 -0.10253 -0.103526 -0.314362 0.149085 -0.0183473 -0.0922188 0.0564479 -0.106013 -0.0035946 -0.0997307 -0.116727 -0.0525304 -0.160363 0.135937 -0.00672412 -0.0563718 0.0117008 -0.113252 -0.182459 0.0109378 0.0511393 -0.26936 0.194678 -0.167636 -0.102861 -0.17892 -0.0377937 0.13666 0.00416997 0.164729 0.131723 0.032676 -0.180441 0.15084 -0.177542 0.1213 0.0564835 -0.250104 -0.386095 0.158164 0.18103 0.000570319 -0.193537 -0.0969636 -0.233714 -0.0316748 0.139656 0.304197 0.231609 0.143351 -0.176128 -0.0271431 -0.195296 0.032327 -0.165324 -0.360414 -0.121298 -0.125578 -0.0271261 -0.0352329 0.0113794 -0.00381727 0.075559
144064703 -0.0205113 0.0917075 0.0401386 -0.304514 0.332671 -0.091267 -0.0680675 0.0259538 0.0365346 -0.0457215 -0.100202 -0.0149035 -0.0671284 -0.0323752 -0.282094 0.264113 -0.122709 -0.347919 0.280182 -0.102949 0.218252 -0.101621 -0.343994 -0.30822 -0.124946 -0.195207 -0.0281354 0.0978372 -0.0269651 0.347294 0.152298 -0.20042 -0.0407442 0.214061 0.130127 -0.133941 -0.429058 -0.103447 -0.139915 -0.38323 0.229834 -0.0929825 -0.13221 -0.0455609 -0.0456298 -0.0398085 -0.191355 -0.0950196 -0.0268736 -0.280786 0.172167 0.0550311 -0.115789 -0.0401454 -0.0518222 -0.147107 0.0183352 0.11057 -0.225394 0.168427 -0.137661 -0.0606397 -0.189376 -0.00536991 0.15572 0.0356444 0.137807 0.244941 -0.0158182 -0.154517 0.155089 -0.0813821 0.0281169 0.0524213 -0.176694 -0.337272 0.0598139 0.143027 -0.00939683 -0.134859 -0.186337 -0.215745 -0.0575582 0.0830102 0.17527 0.275296 0.185145 -0.146491 -0.0804389 -0.129841 0.0449484 -0.244105 -0.377773 -0.201733 -0.180512 -0.142799 -0.0711872 0.0503798 0.00782162 0.0815659
12611642 -0.00723517 -0.0699375 0.0936495 -0.236338 0.308767 -0.118756 -0.160146 0.0976764 -0.0381954 0.0936629 -0.105453 -0.134506 0.0403696 -0.102213 -0.266946 0.158421 -0.181334 -0.243476 0.384069 -0.0466602 0.135157 0.0169997 -0.305845 -0.317897 -0.082221 -0.22621 0.0424012 0.164713 -0.175747 0.264276 0.165405 -0.184202 -0.0859823 0.165139 0.133863 -0.155307 -0.397915 -0.143472 -0.106236 -0.273162 0.141839 0.0558334 -0.0877152 0.0508692 -0.0628476 0.00651762 -0.149109 -0.105277 -0.118112 -0.159858 0.205627 0.00214414 -0.022513 -0.0302149 -0.0679587 -0.141392 0.0462999 0.0722069 -0.277805 0.157824 -0.126854 -0.0855394 -0.178697 -0.000875956 0.0778442 0.0285726 0.164993 0.13516 0.113512 -0.204318 0.182675 -0.121052 0.0664333 0.0532855 -0.216017 -0.339605 0.177224 0.240764 -0.121043 -0.160619 -0.089086 -0.195735 -0.0942984 0.236884 0.345229 0.149206 0.236275 -0.213524 -0.0595279 -0.133605 -0.0177054 -0.115695 -0.42058 -0.0796797 -0.117928 -0.0427874 -0.134347 0.0709678 -0.050208 0.125424
3443591 -0.0232018 -0.0803697 0.0899814 -0.204183 0.309711 -0.145279 -0.175958 0.135345 -0.0141769 0.133951 -0.129608 -0.178722 0.0730249 -0.114611 -0.240255 0.137103 -0.177328 -0.260286 0.400902 -0.0164257 0.102171 0.0121917 -0.277094 -0.305914 -0.0988371 -0.234231 0.0156941 0.180177 -0.245509 0.218591 0.212758 -0.214537 -0.0973241 0.174898 0.140084 -0.14958 -0.391629 -0.13867 -0.0318121 -0.239157 0.146896 0.144914 -0.137617 0.094045 -0.0912421 0.0243793 -0.132523 -0.100874 -0.127884 -0.146436 0.232871 -0.0523832 -0.0255537 -0.0251876 -0.0798113 -0.155885 0.0743302 0.0339767 -0.288852 0.162392 -0.115453 -0.0988275 -0.244131 0.0356415 0.0619656 0.0366564 0.161527 0.13188 0.17088 -0.206264 0.210866 -0.120529 0.0643289 0.0757189 -0.243388 -0.348761 0.226262 0.278716 -0.128296 -0.150898 -0.0512523 -0.235252 -0.0454483 0.252247 0.354684 0.134218 0.219493 -0.201418 -0.0444035 -0.114016 -0.0737479 -0.0969842 -0.433687 -0.00261936 -0.124813 -0.043741 -0.131569 0.0744747 -0.0518391 0.155934
52405864 -0.0215878 -0.07924 0.0846667 -0.24026 0.340698 -0.134896 -0.107763 0.0571599 -0.0492299 -0.0504932 -0.0232642 -0.0933493 0.0221328 -0.0387181 -0.315781 0.188755 -0.234839 -0.250462 0.307654 -0.147751 0.0999433 0.0166474 -0.220259 -0.183754 -0.213829 -0.178706 -0.0489641 0.160134 -0.210067 0.203856 0.0772893 -0.172852 -0.056926 0.176577 0.0254446 -0.145692 -0.422822 -0.102593 -0.137868 -0.311198 0.108194 -0.0262713 -0.0443415 0.10611 -0.109715 0.013958 -0.0394955 -0.119459 -0.0492331 -0.165896 0.141031 -0.0345145 -0.0208269 0.0069197 -0.103541 -0.22519 0.0591193 0.071059 -0.263227 0.161919 -0.179733 -0.056864 -0.16763 0.00904671 0.103952 -0.0189308 0.201006 0.101554 0.0358457 -0.201482 0.13537 -0.154834 0.132505 0.0237835 -0.254209 -0.360705 0.165608 0.136128 -0.0224784 -0.206394 -0.090081 -0.19169 -0.0177011 0.160186 0.348704 0.251025 0.14905 -0.152312 -0.0274626 -0.201629 0.0778489 -0.16829 -0.349148 -0.144899 -0.130224 -0.022854 -0.0532275 0.00838722 0.0241808 0.0622152
14145493 -0.0406316 -0.0860077 0.11692 -0.247392 0.346301 -0.1511 -0.14182 0.0995154 -0.0482994 0.0228149 -0.0810238 -0.137276 0.0398166 -0.055308 -0.312575 0.24037 -0.192141 -0.243848 0.345766 -0.0646522 0.118512 0.0202944 -0.238308 -0.246147 -0.163652 -0.153487 -0.0333414 0.109108 -0.225734 0.238692 0.119756 -0.156068 -0.0953713 0.225546 0.086707 -0.171275 -0.415704 -0.0612851 -0.168063 -0.255861 0.0948898 0.0405209 -0.0823219 0.0828066 -0.0965019 0.0677827 -0.0511391 -0.109997 -0.0521176 -0.13366 0.157887 -0.0373951 -0.0952326 0.0108496 -0.0892492 -0.219897 -0.00352752 0.00235214 -0.255733 0.190334 -0.166948 -0.0651404 -0.252953 0.0554241 0.080849 0.00310357 0.172221 0.121789 0.0973761 -0.181078 0.125338 -0.162688 0.0995624 0.0485 -0.256089 -0.328923 0.218431 0.165359 -0.0398206 -0.241813 -0.0529976 -0.217364 -0.0359992 0.15958 0.357408 0.289401 0.0995812 -0.192273 0.0332947 -0.180144 0.0321881 -0.13479 -0.346421 -0.0766714 -0.109597 -0.0623913 -0.0414678 0.0268366 -0.0207114 0.121962
369130833 -0.0552558 0.0302983 0.185981 -0.294553 0.401345 -0.122862 -0.114495 -0.045896 -0.0112704 -0.0134056 -0.03712 -0.0647211 -0.032932 -0.0867732 -0.266652 0.301152 -0.124174 -0.236651 0.262428 -0.0433945 0.153183 -0.110846 -0.34777 -0.355371 -0.0732426 -0.197867 -0.029659 0.0108564 -0.047229 0.33034 0.130111 -0.155072 -0.0740152 0.250369 0.120144 -0.136249 -0.370904 -0.0782195 -0.263483 -0.244196 0.154159 -0.0595082 -0.13422 -0.0318155 -0.0912496 0.0739906 -0.196684 -0.101338 -0.0997851 -0.111866 0.147094 -0.0109737 -0.208012 -0.00587076 -0.0305287 -0.113721 -0.0468655 0.0244873 -0.251212 0.186648 -0.161028 -0.0637864 -0.179081 0.0524691 0.110895 -0.0081984 0.159489 0.240714 0.0258208 -0.132022 0.137178 -0.139779 -0.00271839 0.0425121 -0.181927 -0.35667 0.0584032 0.123154 -0.00264266 -0.167103 -0.14952 -0.210884 -0.117659 0.0345991 0.239293 0.348779 0.0421026 -0.245851 0.0156288 -0.130113 0.0556665 -0.305348 -0.323397 -0.0854245 -0.156493 -0.146687 -0.0490326 0.0817711 -0.0507636 0.112239
63273064 -0.0341031 -0.0107506 0.118298 -0.276331 0.398637 -0.121615 -0.118579 0.0191527 0.0182635 -0.0474151 -0.0661557 -0.0671492 -0.00785375 -0.0518068 -0.328192 0.279525 -0.165225 -0.300074 0.272769 -0.0740719 0.149865 -0.0919712 -0.28791 -0.256337 -0.162124 -0.162451 -0.0475643 0.0781982 -0.101022 0.279357 0.126829 -0.169388 -0.104034 0.269904 0.108103 -0.154893 -0.428815 -0.0718235 -0.205154 -0.268266 0.173278 -0.0279266 -0.12469 0.0170875 -0.0822385 0.0474358 -0.124009 -0.112044 -0.0519586 -0.168944 0.145128 -0.0132684 -0.174903 0.0510574 -0.0644267 -0.213295 -0.00309219 0.000589993 -0.225343 0.206411 -0.186002 -0.0368437 -0.263989 0.0186176 0.144566 0.0125074 0.180062 0.216825 -0.0121504 -0.139037 0.154844 -0.15857 0.0850375 0.0470613 -0.238954 -0.399753 0.161129 0.154726 0.000171502 -0.216215 -0.126042 -0.264819 -0.00818677 0.0526121 0.27295 0.317145 0.0935715 -0.163836 0.00182818 -0.179274 0.0639509 -0.24016 -0.314982 -0.0994287 -0.13758 -0.124566 -0.0168696 0.066924 -0.02835 0.0742559
294198566 -0.0244252 -0.0239297 0.10417 -0.253007 0.316304 -0.13159 -0.125539 0.038198 -0.00371211 -0.0691905 -0.0637081 -0.0691987 0.00545275 -0.0425479 -0.316906 0.240148 -0.186573 -0.289677 0.307672 -0.106605 0.11389 -0.0591811 -0.247806 -0.211373 -0.171806 -0.177644 -0.0805 0.142122 -0.176478 0.233002 0.100045 -0.226196 -0.0504095 0.235838 0.0406859 -0.153033 -0.415863 -0.103786 -0.114485 -0.325179 0.140658 -0.0433411 -0.116515 0.0512155 -0.0938707 -0.00752426 -0.0725257 -0.107441 -0.05259 -0.170033 0.189069 -0.00851822 -0.0941579 0.0212522 -0.140761 -0.210122 0.0639233 0.0161767 -0.217076 0.193124 -0.174586 -0.0777358 -0.208247 -0.0343967 0.132792 -0.0172349 0.1746 0.121667 0.0296643 -0.189601 0.159381 -0.175017 0.13035 0.0601422 -0.254094 -0.432107 0.154125 0.175014 0.0566768 -0.200558 -0.127558 -0.270119 -0.00212926 0.0890155 0.279923 0.27261 0.113667 -0.144152 -0.0192067 -0.187205 0.036127 -0.177469 -0.384164 -0.101314 -0.150506 -0.0490104 -0.0146733 0.0254979 -0.00504002 0.103492
24945163 -0.0170705 -0.050331 0.17136 -0.254521 0.399433 -0.120338 -0.143399 0.0796219 -0.0416571 0.0164142 -0.0396728 -0.121679 0.000427941 -0.118992 -0.308642 0.24352 -0.232509 -0.244207 0.306197 -0.0669454 0.113184 -0.059674 -0.296425 -0.348885 -0.167231 -0.162012 0.0173368 0.0769496 -0.151668 0.32006 0.135171 -0.132347 -0.0727781 0.232292 0.128867 -0.112502 -0.425141 -0.0977292 -0.243739 -0.214605 0.139921 -0.0155429 -0.101417 0.0701365 -0.0699525 0.0892811 -0.14941 -0.154853 -0.106829 -0.12362 0.0929781 -0.0404069 -0.154693 0.0547461 -0.0147034 -0.160289 -0.0245979 0.077748 -0.303001 0.141363 -0.119899 -0.0404119 -0.224546 0.0720796 0.10776 -0.037644 0.200024 0.226215 0.0569466 -0.146626 0.158032 -0.144349 0.0618215 0.0516922 -0.245154 -0.372274 0.156365 0.207284 -0.0938175 -0.224574 -0.0694106 -0.234671 -0.0905414 0.181393 0.31577 0.307881 0.109741 -0.263974 -0.0119191 -0.135977 0.0207339 -0.226445 -0.31538 -0.0586963 -0.11951 -0.107336 -0.124996 0.122173 -0.0363634 0.0840941
315609642 -0.0174237 -0.0157041 0.071854 -0.265208 0.274349 -0.153968 -0.153181 0.0763494 0.0281219 -0.0209352 -0.0554017 -0.0500991 0.0140321 -0.0338867 -0.263083 0.220505 -0.175618 -0.3133 0.314432 -0.0991062 0.0998845 -0.102768 -0.256741 -0.208274 -0.13532 -0.240835 -0.116653 0.160324 -0.201051 0.249415 0.112004 -0.237091 0.0057719 0.214713 0.0678459 -0.132214 -0.47211 -0.131812 -0.0498201 -0.320509 0.188728 0.0133383 -0.133376 0.100249 -0.0692777 -0.0358639 -0.0706285 -0.10404 -0.028982 -0.238331 0.199783 0.0138738 -0.0679765 -0.00620601 -0.101431 -0.200203 0.128541 -0.0100341 -0.197553 0.173757 -0.118739 -0.0547152 -0.20539 -0.0284178 0.141105 0.00266715 0.187967 0.154993 0.0201443 -0.217584 0.172762 -0.170943 0.157084 0.0482384 -0.28427 -0.430229 0.104319 0.183979 0.0279427 -0.172975 -0.136701 -0.275961 0.0148366 0.118716 0.281613 0.254799 0.14006 -0.10121 -0.0660482 -0.151355 -0.00898387 -0.182595 -0.375858 -0.0898818 -0.157633 -0.0633232 -0.0389317 0.107583 0.0325011 0.0961695
16464746 -0.0439372 -0.05463 0.116188 -0.26696 0.370185 -0.130089 -0.129886 0.0835646 -0.0414384 -0.014569 -0.0879054 -0.0884262 0.0251775 -0.103203 -0.326615 0.254481 -0.205336 -0.305266 0.351383 -0.0587525 0.150946 -0.0333948 -0.275769 -0.289361 -0.162029 -0.142123 -0.0154644 0.160275 -0.132656 0.286079 0.132993 -0.195378 -0.0499841 0.246727 0.11266 -0.124063 -0.445218 -0.0811713 -0.156307 -0.302239 0.153386 -0.0109556 -0.0916162 0.0517777 -0.0811867 0.0308897 -0.11476 -0.150151 -0.0718047 -0.185854 0.125486 -0.0116267 -0.110344 0.00687925 -0.0462986 -0.185271 -0.00861718 0.0612256 -0.281041 0.172755 -0.138579 -0.0904578 -0.231928 -0.00970164 0.168939 0.0163139 0.211007 0.190459 0.0317644 -0.164933 0.14164 -0.153817 0.0981339 0.0703764 -0.230458 -0.32106 0.155477 0.143673 -0.0635873 -0.231044 -0.0956303 -0.228543 -0.0538531 0.158217 0.324104 0.257057 0.157311 -0.16521 -0.0216503 -0.147739 0.00508164 -0.148717 -0.334781 -0.0858093 -0.102854 -0.0632765 -0.0823375 0.0566376 0.00322571 0.0488088
20726422 -0.0110613 -0.0396563 0.0734697 -0.259543 0.311057 -0.114145 -0.125488 0.0769746 0.0188903 -0.0176309 -0.0884025 -0.0504861 -0.00257699 -0.0442213 -0.290935 0.236668 -0.160815 -0.309479 0.291646 -0.0642489 0.117593 -0.0654323 -0.275271 -0.250095 -0.135708 -0.169573 -0.0185506 0.128371 -0.15318 0.258526 0.166364 -0.191071 -0.00414528 0.21078 0.0874703 -0.136026 -0.427769 -0.112886 -0.0637405 -0.318882 0.18377 -0.0191015 -0.112834 0.0268068 -0.0648943 -0.0346982 -0.0979329 -0.0991652 -0.0457554 -0.232406 0.165931 0.0202712 -0.0913992 0.0344656 -0.0995004 -0.178938 0.101455 0.0280514 -0.188457 0.182952 -0.149217 -0.0477619 -0.240253 -0.0584211 0.167547 0.0178739 0.14537 0.166273 -0.000362834 -0.172857 0.18133 -0.0979268 0.110735 0.0257543 -0.232468 -0.383558 0.168274 0.159823 0.00780258 -0.185976 -0.122278 -0.243303 0.0125308 0.120538 0.271258 0.244343 0.130354 -0.132118 -0.0731497 -0.150755 0.0236281 -0.160551 -0.374535 -0.0919145 -0.160439 -0.090505 -0.0542245 0.0727466 0.00159031 0.0813337
17663756 0.0521161 -0.127093 0.0949805 -0.149907 0.192693 -0.172547 -0.228418 0.208171 0.112393 0.247077 -0.0814978 -0.164315 0.0165792 0.00867939 -0.117397 0.0471756 -0.147581 -0.160942 0.272463 0.000237934 -0.0405883 -0.0149416 -0.224126 -0.339481 0.0884476 -0.337649 0.109919 0.0641894 -0.417765 0.130256 0.249088 -0.100689 0.0370274 0.155825 0.127838 -0.097118 -0.28338 -0.218368 0.06222 -0.0945436 0.0896825 0.259003 -0.155036 0.136379 0.0249242 -0.0132394 -0.0361247 0.0148738 -0.0431695 -0.144259 0.329966 0.00451474 0.0508244 0.043814 -0.0356889 -0.191261 0.225665 -0.225009 -0.0296231 0.134152 -0.0621318 0.0794895 -0.281254 0.0107993 -0.0541561 0.00124387 0.0736371 0.0860465 0.156442 -0.206881 0.316697 -0.110146 0.084991 -0.0118025 -0.341676 -0.471014 0.335287 0.450263 -0.11545 -0.133121 -0.00914139 -0.21803 0.0548307 0.239924 0.327277 0.0770188 0.124364 -0.198374 -0.148204 -0.0816995 -0.149101 0.0476 -0.471726 0.13667 -0.11469 -0.0387404 -0.137673 0.177534 -0.0702802 0.326893
50004938 0.152088 -0.11722 0.246677 -0.278142 0.232945 0.00851469 -0.134175 0.244456 0.216574 0.0645928 0.123873 0.00115373 -0.134157 0.140873 -0.19241 0.00437707 -0.287715 -0.210699 0.0114905 0.0768697 0.0719895 0.121242 -0.339457 -0.638098 0.468917 -0.575374 0.471369 0.115128 -0.194096 -0.0452594 0.30197 -0.357348 -0.0731381 0.323437 0.282253 0.0112241 0.0214725 -0.476685 -0.0679367 -0.221792 0.0195673 0.276917 0.0173828 -0.0173233 -0.0675588 -0.126946 0.0470631 0.297618 0.208099 -0.239622 0.340868 -0.0364169 0.0877038 0.198463 0.0120637 -0.282104 0.147644 -0.466801 0.0958136 0.429187 -0.20668 -0.0927027 -0.143825 -0.146016 -0.043755 0.205719 0.255243 0.261892 -0.0745236 -0.181509 0.657192 -0.239216 0.0125404 -0.26427 -0.319978 -0.601153 0.42359 0.514967 -0.0356798 -0.0608611 -0.181538 0.104305 0.168177 0.078773 0.591699 -0.0553715 0.313171 -0.359822 -0.550521 -0.271518 0.0492099 -0.0362421 -0.570913 -0.102408 0.100793 -0.143219 0.00393586 -0.268214 -0.304059 0.520165
28448476 0.20629 -0.202832 0.346301 -0.33107 0.290974 0.0233261 -0.172722 0.314546 0.21437 0.0503745 0.168776 -0.00817024 -0.175779 0.172004 -0.250283 -0.0243203 -0.381237 -0.27739 -0.0189171 0.129329 0.0990047 0.245356 -0.409145 -0.882107 0.643485 -0.745383 0.643683 0.0910507 -0.196773 -0.049399 0.329827 -0.507479 -0.0859439 0.36521 0.365995 0.0408056 0.0291067 -0.616475 -0.160264 -0.275394 -0.0317289 0.317559 0.0933317 -0.00722444 -0.0594117 -0.147206 0.0912934 0.405637 0.302277 -0.304283 0.443569 -0.00207392 0.0634723 0.274384 0.0110588 -0.391914 0.13825 -0.597468 0.143767 0.569053 -0.269616 -0.166638 -0.113515 -0.188207 -0.0558964 0.256846 0.286333 0.313627 -0.156776 -0.250376 0.821755 -0.337028 -0.000229067 -0.393826 -0.372116 -0.671443 0.587651 0.573808 -0.0428404 -0.104058 -0.24002 0.256507 0.226171 0.0808218 0.82702 -0.0386694 0.374827 -0.472322 -0.741945 -0.411642 0.097718 -0.102736 -0.659907 -0.195514 0.202998 -0.191633 0.0559759 -0.395556 -0.438235 0.717728
195096638 0.192063 -0.196555 0.335312 -0.32429 0.300665 0.00680965 -0.177107 0.301795 0.2038 0.048872 0.153681 -0.0102828 -0.160331 0.159915 -0.250854 -0.00868614 -0.380447 -0.271315 0.00691535 0.114507 0.102531 0.229436 -0.412396 -0.848567 0.611591 -0.723436 0.619175 0.0943435 -0.203971 -0.0373805 0.325042 -0.486513 -0.0842534 0.366628 0.343244 0.0346911 0.00627578 -0.601311 -0.151161 -0.26952 -0.028412 0.310285 0.0790585 -0.0061876 -0.0678511 -0.138647 0.0774547 0.382427 0.282288 -0.292949 0.426819 -0.0142967 0.0695331 0.258829 0.0115656 -0.390534 0.140073 -0.570495 0.111939 0.548477 -0.270896 -0.16011 -0.121932 -0.17313 -0.0480169 0.247617 0.286204 0.308161 -0.139081 -0.243577 0.791556 -0.332515 0.0113267 -0.369905 -0.370713 -0.677042 0.574199 0.567791 -0.0478925 -0.099174 -0.229485 0.229192 0.2076 0.0832803 0.801701 -0.0261572 0.371554 -0.460481 -0.701442 -0.393546 0.0950248 -0.102454 -0.653338 -0.180572 0.18639 -0.187692 0.0423736 -0.373863 -0.410755 0.685287
14801539 0.200316 -0.207834 0.336451 -0.336036 0.308807 -0.0122013 -0.197809 0.317217 0.21623 0.063018 0.138261 -0.0311801 -0.161366 0.169709 -0.257717 -0.00395561 -0.383941 -0.287757 0.0269274 0.1177 0.0929183 0.218629 -0.421419 -0.883279 0.611461 -0.743091 0.614771 0.0845297 -0.239157 -0.0220365 0.345721 -0.493211 -0.0632946 0.36869 0.353519 0.0240985 -0.0269998 -0.610787 -0.145688 -0.268917 -0.0201741 0.323121 0.0727116 0.0150757 -0.0540556 -0.140986 0.0699447 0.375856 0.281492 -0.318085 0.457429 0.00145883 0.0536173 0.265349 0.00314666 -0.405452 0.166864 -0.585264 0.125364 0.559013 -0.262812 -0.15338 -0.141693 -0.183207 -0.0518406 0.235315 0.275756 0.314996 -0.13268 -0.264884 0.80844 -0.336066 0.0119761 -0.36929 -0.393317 -0.706924 0.606917 0.590575 -0.0537442 -0.121507 -0.232339 0.211398 0.229821 0.0951495 0.825196 -0.00442736 0.367047 -0.467726 -0.72574 -0.394372 0.0812946 -0.109281 -0.676436 -0.177914 0.174258 -0.187085 0.049139 -0.354149 -0.420555 0.715796
461493636 0.202921 -0.204321 0.349143 -0.334947 0.305761 0.0108957 -0.177072 0.317576 0.212505 0.0538729 0.156051 -0.0161895 -0.170278 0.172329 -0.26688 -0.0107202 -0.395463 -0.288961 0.00379214 0.123877 0.103931 0.235107 -0.42326 -0.881884 0.63059 -0.741464 0.637097 0.0932846 -0.212756 -0.0331923 0.334062 -0.504841 -0.0857438 0.368042 0.359537 0.0309911 0.00259875 -0.620059 -0.160969 -0.280996 -0.0248442 0.321873 0.083656 -0.00106763 -0.0572997 -0.136375 0.0779002 0.393936 0.290699 -0.313321 0.448661 -0.0109742 0.0623844 0.267104 0.0029076 -0.404066 0.14409 -0.591487 0.128396 0.567838 -0.27639 -0.158824 -0.131514 -0.183246 -0.0472952 0.252655 0.288 0.328186 -0.14629 -0.257543 0.818967 -0.34486 0.00191602 -0.386722 -0.387429 -0.690115 0.598677 0.585846 -0.0567318 -0.11607 -0.23946 0.236772 0.216045 0.080787 0.825899 -0.0215365 0.379103 -0.472257 -0.731419 -0.410143 0.0955747 -0.117427 -0.667651 -0.192225 0.184984 -0.197126 0.0545392 -0.376677 -0.424985 0.719652
399147540 0.196318 -0.193576 0.335496 -0.335599 0.304464 -0.00152097 -0.18065 0.304012 0.223881 0.0647333 0.145185 -0.0169043 -0.17494 0.168202 -0.254393 -0.0126126 -0.381999 -0.28377 0.00116203 0.115079 0.0980441 0.223682 -0.417075 -0.867786 0.618774 -0.740207 0.625307 0.0908708 -0.220274 -0.0333523 0.33924 -0.487106 -0.0726399 0.368681 0.350201 0.0276375 0.00409848 -0.610226 -0.144496 -0.266567 -0.0199718 0.317643 0.072422 0.00109721 -0.0576045 -0.146247 0.0745229 0.385942 0.281544 -0.308975 0.446928 -0.00847425 0.0693613 0.268866 0.00315826 -0.399745 0.157233 -0.590442 0.129803 0.55358 -0.271246 -0.146858 -0.137009 -0.183746 -0.044348 0.247417 0.285834 0.319832 -0.145251 -0.24708 0.807129 -0.335731 0.00957813 -0.369002 -0.392304 -0.699538 0.59287 0.59378 -0.0525066 -0.107972 -0.230748 0.216961 0.22537 0.0830872 0.810799 -0.0249517 0.376175 -0.468884 -0.720858 -0.38988 0.0955585 -0.0968765 -0.671324 -0.172422 0.18073 -0.188583 0.0431061 -0.361429 -0.415895 0.705751
71820826 0.199718 -0.188976 0.34285 -0.34104 0.310417 0.014586 -0.168094 0.297146 0.214698 0.0499425 0.164387 -0.00609535 -0.174767 0.162759 -0.261846 -0.0123665 -0.383842 -0.281236 -0.0079658 0.116189 0.112747 0.22676 -0.417549 -0.862622 0.622023 -0.740461 0.637074 0.0979399 -0.196488 -0.0433175 0.333513 -0.49632 -0.091896 0.37517 0.353385 0.0375546 0.0163505 -0.615638 -0.162369 -0.288333 -0.0244827 0.305794 0.0812502 -0.0162628 -0.0685893 -0.142931 0.0747005 0.388096 0.291495 -0.30233 0.432607 -0.0118744 0.0714944 0.266345 0.0117558 -0.392022 0.135121 -0.571473 0.121321 0.56185 -0.284378 -0.167993 -0.114718 -0.181301 -0.0447738 0.259562 0.306738 0.326777 -0.148895 -0.237886 0.808487 -0.336835 -0.00143081 -0.377378 -0.370909 -0.683439 0.572561 0.575222 -0.0550114 -0.0987289 -0.240335 0.23809 0.209521 0.0766646 0.817016 -0.0341671 0.387231 -0.47385 -0.720239 -0.39695 0.107668 -0.109253 -0.665858 -0.193223 0.184539 -0.197653 0.042314 -0.394198 -0.424645 0.696106
191979837 0.204377 -0.199352 0.353555 -0.347994 0.318024 0.0123857 -0.181162 0.319369 0.221221 0.0518978 0.162111 -0.0116148 -0.175576 0.168854 -0.271474 -0.00824282 -0.402708 -0.296327 0.00400286 0.121236 0.117209 0.237795 -0.441223 -0.90111 0.639491 -0.759686 0.653535 0.0924793 -0.214771 -0.0304282 0.341866 -0.510231 -0.0900013 0.383469 0.365304 0.0307105 0.00010162 -0.633785 -0.172161 -0.295124 -0.0267808 0.312621 0.0828994 -0.00785661 -0.0629237 -0.145486 0.0765044 0.401751 0.295064 -0.32131 0.454182 -0.00208749 0.0678196 0.274024 0.00953497 -0.410935 0.15235 -0.595531 0.121898 0.586195 -0.284572 -0.167705 -0.125294 -0.185179 -0.0447947 0.257959 0.301886 0.335809 -0.153912 -0.25463 0.838673 -0.347617 0.00594097 -0.387734 -0.385677 -0.711826 0.603823 0.597285 -0.0498477 -0.111677 -0.247879 0.239842 0.222913 0.086365 0.846646 -0.0191941 0.388558 -0.491239 -0.742685 -0.418156 0.106684 -0.11581 -0.687715 -0.199156 0.192578 -0.200332 0.0552302 -0.388074 -0.435744 0.730056
191972076 0.193413 -0.190548 0.335992 -0.333232 0.306679 0.0101775 -0.169981 0.298541 0.201366 0.0455877 0.148578 -0.00945167 -0.162725 0.165752 -0.264965 0.00077814 -0.383409 -0.280511 0.0138461 0.11603 0.109257 0.223741 -0.415182 -0.857012 0.594111 -0.726858 0.610923 0.0967839 -0.20989 -0.0226783 0.33015 -0.501096 -0.08582 0.360454 0.350832 0.0300111 -0.0143644 -0.60382 -0.160672 -0.285254 -0.0253155 0.297661 0.0784112 0.00186683 -0.0666735 -0.13533 0.0742851 0.377554 0.278913 -0.3043 0.428054 -0.0118642 0.0527998 0.255299 3.9029e-05 -0.395751 0.145388 -0.562663 0.115104 0.559462 -0.271933 -0.168147 -0.122935 -0.176048 -0.0429398 0.240136 0.292032 0.310805 -0.147792 -0.248298 0.793153 -0.3371 0.0145635 -0.372016 -0.376922 -0.680218 0.580253 0.55815 -0.0427518 -0.116377 -0.233006 0.222304 0.217346 0.0828175 0.809389 -0.0163438 0.372252 -0.462586 -0.707804 -0.403708 0.105126 -0.119079 -0.657142 -0.196275 0.174891 -0.183589 0.0520443 -0.375055 -0.41605 0.687787
58842669 0.196362 -0.205221 0.347658 -0.342347 0.308759 0.0079717 -0.180388 0.312058 0.199355 0.0533383 0.159928 -0.0166043 -0.163148 0.166461 -0.264894 -0.00872915 -0.384145 -0.283453 0.00620711 0.123573 0.111008 0.240963 -0.41716 -0.875091 0.61875 -0.73555 0.628223 0.0879069 -0.213005 -0.0222792 0.332547 -0.511019 -0.081962 0.369692 0.357455 0.0279988 -0.0106533 -0.617192 -0.168197 -0.276638 -0.0310811 0.302971 0.0847225 0.0019759 -0.0579256 -0.142986 0.0767139 0.383161 0.289392 -0.310049 0.43888 -0.00402078 0.0598351 0.259521 0.00402461 -0.398486 0.146073 -0.576298 0.113625 0.564247 -0.271267 -0.171634 -0.119701 -0.178497 -0.0449362 0.241826 0.288592 0.313912 -0.146082 -0.258523 0.805806 -0.339483 0.00689113 -0.385876 -0.374204 -0.683235 0.596044 0.564202 -0.048324 -0.109671 -0.239453 0.240855 0.218898 0.0888881 0.830825 -0.0157134 0.371657 -0.481012 -0.723427 -0.411533 0.0985416 -0.123291 -0.661764 -0.198079 0.184349 -0.194145 0.0586777 -0.378353 -0.422714 0.714388
398098355 0.163291 -0.196898 0.308693 -0.278012 0.247203 0.00583121 -0.146185 0.278688 0.154997 0.0374528 0.130656 -0.0152736 -0.137691 0.145188 -0.229339 -0.0134425 -0.338561 -0.25193 0.00549578 0.109385 0.0667275 0.230614 -0.342827 -0.768717 0.539781 -0.628132 0.53723 0.0694461 -0.183953 -0.0213196 0.281888 -0.451758 -0.061153 0.297316 0.313051 0.0247973 -0.00453125 -0.52482 -0.131548 -0.224078 -0.0252491 0.268859 0.0824367 0.0188784 -0.0464916 -0.113664 0.0804838 0.3337 0.253276 -0.259584 0.387503 0.00271114 0.0346518 0.234421 -0.00301344 -0.340546 0.128313 -0.499034 0.111543 0.487089 -0.231413 -0.160319 -0.102696 -0.15992 -0.0372114 0.207966 0.222224 0.261658 -0.138496 -0.234299 0.688186 -0.288601 0.00854166 -0.349184 -0.318498 -0.56434 0.534236 0.474053 -0.0317098 -0.108113 -0.197348 0.222616 0.196756 0.0811312 0.724973 -0.00386685 0.298334 -0.404082 -0.633262 -0.365494 0.0879812 -0.115607 -0.553265 -0.167702 0.170882 -0.162555 0.0682536 -0.324948 -0.371071 0.626258
411915972 0.174438 -0.209596 0.35585 -0.327488 0.287432 -0.0147281 -0.191864 0.317333 0.227019 0.0823349 0.130062 -0.0292923 -0.167761 0.163612 -0.249971 0.00461086 -0.388007 -0.286539 0.0146953 0.113788 0.067301 0.221077 -0.41335 -0.89304 0.616404 -0.726264 0.605102 0.0666794 -0.249811 -0.00899754 0.355203 -0.472708 -0.0410575 0.364613 0.368675 0.013276 -0.0317626 -0.594906 -0.134949 -0.250511 0.00718593 0.348282 0.0459773 0.0263462 -0.0592068 -0.123854 0.0817789 0.369021 0.284097 -0.311804 0.458542 -0.000324018 0.0378501 0.284501 -0.00691031 -0.404145 0.176286 -0.597533 0.121942 0.540477 -0.257498 -0.132464 -0.168181 -0.166797 -0.0356311 0.227559 0.252361 0.312364 -0.12647 -0.270077 0.809787 -0.34335 0.0105058 -0.374775 -0.423352 -0.709449 0.606626 0.615832 -0.0385759 -0.128352 -0.216063 0.179318 0.225328 0.113857 0.815659 0.00720394 0.326065 -0.450573 -0.70497 -0.398812 0.0690314 -0.11111 -0.674935 -0.145198 0.175763 -0.204851 0.0367521 -0.314082 -0.410047 0.710182
30781324 0.20622 -0.196507 0.35089 -0.334382 0.309497 0.0153961 -0.173021 0.300964 0.21635 0.0416976 0.167523 0.00709711 -0.175092 0.171771 -0.261526 -0.0255067 -0.390998 -0.267873 -0.00784045 0.133134 0.114731 0.229997 -0.42618 -0.870576 0.653529 -0.759395 0.658684 0.10351 -0.194881 -0.0559378 0.32324 -0.513381 -0.0869076 0.380836 0.358577 0.0563457 0.0274269 -0.623598 -0.159009 -0.277832 -0.0406065 0.30446 0.0880223 -0.00720369 -0.0623485 -0.150946 0.0789838 0.404146 0.301814 -0.308877 0.431543 -0.0144605 0.0850199 0.271179 0.0133394 -0.402206 0.128492 -0.602695 0.132725 0.578967 -0.281058 -0.169105 -0.108132 -0.19601 -0.0485537 0.260892 0.2975 0.328677 -0.154039 -0.244233 0.822479 -0.341349 0.00567441 -0.383775 -0.372134 -0.70191 0.58328 0.577132 -0.0473395 -0.107025 -0.243796 0.256302 0.21689 0.0631414 0.82772 -0.0394422 0.394633 -0.482057 -0.741279 -0.415661 0.111983 -0.105303 -0.667822 -0.191425 0.19508 -0.189775 0.0630898 -0.397866 -0.437261 0.715041
19122675 0.211723 -0.202436 0.355697 -0.351789 0.324734 0.0208137 -0.179106 0.317183 0.216699 0.0457299 0.169709 -0.0135378 -0.179372 0.168697 -0.275768 -0.0066578 -0.402337 -0.301268 -0.00163868 0.124598 0.112015 0.257021 -0.430136 -0.910648 0.641983 -0.766231 0.661919 0.102332 -0.212737 -0.0380864 0.350456 -0.531239 -0.0935633 0.37827 0.378519 0.0328842 0.00259669 -0.63795 -0.168113 -0.300322 -0.0279798 0.315249 0.0872759 -0.0028619 -0.0742041 -0.143729 0.0855305 0.408424 0.303335 -0.329005 0.461624 -0.00266813 0.0556574 0.276888 0.00206266 -0.413388 0.145979 -0.595943 0.128059 0.588307 -0.295118 -0.178276 -0.128931 -0.187808 -0.044869 0.265525 0.301542 0.324204 -0.158309 -0.268831 0.84613 -0.352337 0.00787323 -0.400952 -0.385824 -0.712673 0.621019 0.588658 -0.0518617 -0.114801 -0.251618 0.254599 0.227503 0.0885811 0.866416 -0.0258209 0.400601 -0.490731 -0.757953 -0.42944 0.110032 -0.116256 -0.692973 -0.205589 0.196051 -0.202115 0.0527062 -0.406923 -0.444436 0.7382
200229705 0.186329 -0.201716 0.333287 -0.324053 0.290575 0.00381046 -0.166769 0.305052 0.19639 0.0614179 0.141258 -0.0265597 -0.152967 0.154656 -0.249418 -0.0159935 -0.376294 -0.27671 0.00471414 0.120094 0.0926213 0.242055 -0.401319 -0.849675 0.600564 -0.712003 0.603126 0.0850024 -0.218799 -0.0278069 0.329457 -0.481769 -0.0742291 0.344598 0.348116 0.030296 -0.0112842 -0.592562 -0.141809 -0.26779 -0.0269235 0.310797 0.0741426 0.00963065 -0.0561543 -0.129397 0.0846458 0.367655 0.270149 -0.294124 0.434608 0.00480826 0.0520745 0.264186 -0.00273065 -0.384537 0.152927 -0.562555 0.11876 0.540824 -0.267364 -0.162169 -0.124047 -0.16862 -0.038794 0.234119 0.26307 0.293121 -0.138867 -0.257098 0.784292 -0.319673 0.00827986 -0.377206 -0.370951 -0.656392 0.586146 0.555731 -0.0506458 -0.107687 -0.217711 0.22684 0.212796 0.0951427 0.801154 -0.0171832 0.357358 -0.448493 -0.704114 -0.393226 0.0931722 -0.105202 -0.640387 -0.177686 0.184 -0.18621 0.0453667 -0.359963 -0.411627 0.691218
11928542 0.000420331 -0.00707125 0.0554341 -0.255257 0.323124 -0.111846 -0.10229 0.0283374 0.0348227 0.0679308 -0.142892 -0.0980454 0.036636 -0.0903103 -0.269045 0.16401 -0.149421 -0.33435 0.388549 -0.0536816 0.13257 -0.0476433 -0.322016 -0.289571 -0.107859 -0.205099 0.0137605 0.169795 -0.127811 0.263439 0.234505 -0.215838 -0.0641604 0.183023 0.151399 -0.166983 -0.378258 -0.141126 0.00815923 -0.317996 0.199387 0.0600766 -0.110405 0.00666148 -0.0783365 -0.042785 -0.209639 -0.102356 -0.129181 -0.209935 0.202467 0.00346134 -0.028965 -0.0252474 -0.0795659 -0.107237 0.107938 0.0975691 -0.246562 0.195475 -0.120476 -0.110995 -0.208686 -0.0877006 0.158164 0.0576926 0.129901 0.195831 0.0371652 -0.178979 0.195582 -0.0607289 0.0261941 0.0836589 -0.20056 -0.3821 0.155513 0.2171 -0.0839379 -0.123018 -0.125328 -0.257582 -0.019119 0.189378 0.262693 0.122175 0.246723 -0.166661 -0.109298 -0.102027 0.00319368 -0.133795 -0.45113 -0.0796869 -0.16711 -0.0522487 -0.134681 0.0665845 0.00149838 0.0945392
18742444 -0.0055968 -0.0456999 0.0740588 -0.231348 0.387706 -0.102462 -0.109113 0.0463273 0.0132537 0.0289819 -0.098041 -0.0876736 0.041907 -0.13261 -0.338463 0.214159 -0.212351 -0.341598 0.349235 -0.0701138 0.130526 -0.040878 -0.268994 -0.251698 -0.219228 -0.160256 -0.00714532 0.147534 -0.131364 0.2711 0.173004 -0.19046 -0.0781255 0.198257 0.115327 -0.14619 -0.450433 -0.107522 -0.067767 -0.349178 0.176447 0.00610775 -0.088555 0.0236348 -0.120562 -0.00552646 -0.216477 -0.136102 -0.116561 -0.181733 0.125249 0.00469561 -0.0507803 0.0114881 -0.0593957 -0.181461 0.0514487 0.142551 -0.301362 0.189584 -0.147996 -0.0825897 -0.238503 -0.0482579 0.173268 0.0176943 0.184975 0.200432 0.0179987 -0.162492 0.150064 -0.103985 0.0822556 0.0992124 -0.246989 -0.382125 0.161226 0.20054 -0.0644287 -0.168502 -0.0963065 -0.273994 -0.0290196 0.1884 0.28992 0.223864 0.170394 -0.18696 -0.0356605 -0.124941 0.0163034 -0.177391 -0.389856 -0.110979 -0.157129 -0.0641419 -0.140586 0.0621497 0.00957159 0.0349157
250303199 -0.0112503 -0.0253154 0.0287771 -0.223856 0.340402 -0.159476 -0.101922 0.0733033 0.0228862 0.0455592 -0.127126 -0.110243 0.0466917 -0.0869347 -0.271256 0.137046 -0.20312 -0.35798 0.378816 -0.0813873 0.160562 -0.0161708 -0.259841 -0.205113 -0.202333 -0.155239 -0.0465838 0.186107 -0.207771 0.243368 0.192294 -0.213054 -0.100838 0.189287 0.126536 -0.150216 -0.431832 -0.104814 -0.0150328 -0.340717 0.196048 0.0592423 -0.11299 0.0663779 -0.0957982 -0.018884 -0.125303 -0.115907 -0.073675 -0.257156 0.175672 0.0126586 -0.0201384 -0.0156695 -0.112804 -0.206435 0.0796626 0.103063 -0.268122 0.174409 -0.14408 -0.0841469 -0.251882 -0.0221385 0.127504 0.0365696 0.141539 0.143769 0.0396043 -0.202903 0.159505 -0.118502 0.104613 0.0953206 -0.257431 -0.353541 0.185756 0.221834 -0.0868148 -0.178169 -0.0938291 -0.267652 0.0241527 0.213276 0.303403 0.158888 0.246302 -0.109919 -0.054131 -0.138022 0.00422105 -0.126058 -0.369547 -0.12251 -0.138675 -0.0478515 -0.109275 0.0728374 0.0158057 0.0745345
231571333 -0.0171206 -0.0458341 0.10943 -0.254233 0.326572 -0.143429 -0.138773 0.116836 -0.0802886 -0.0471793 -0.0637041 -0.128291 0.011176 -0.0751389 -0.344567 0.227444 -0.193637 -0.244699 0.321028 -0.0873007 0.095694 0.0328141 -0.247418 -0.216257 -0.219343 -0.157251 -0.0617818 0.152362 -0.21446 0.258945 0.0954985 -0.180198 -0.0856481 0.177344 0.0564753 -0.155859 -0.455695 -0.0956284 -0.167194 -0.31434 0.100865 -0.0589324 -0.0959429 0.0815649 -0.117772 0.0283145 -0.048983 -0.127268 -0.0728747 -0.159491 0.207821 0.0200304 -0.107817 0.0358112 -0.108225 -0.212905 0.0593395 0.076514 -0.252742 0.181762 -0.164899 -0.0522893 -0.206217 0.0581728 0.135653 -0.0166152 0.201862 0.0960704 0.0533994 -0.19943 0.135361 -0.137724 0.12417 0.0429855 -0.193643 -0.349173 0.194841 0.131749 0.0314771 -0.233157 -0.117506 -0.208231 -0.0633855 0.16588 0.314233 0.296569 0.114682 -0.182281 -0.0166904 -0.189624 0.0694452 -0.221197 -0.362656 -0.116991 -0.154939 -0.0769406 -0.0289541 0.0420473 -0.0075331 0.114971
16098603 -0.00805969 -0.0599009 0.0696146 -0.225726 0.349663 -0.164005 -0.190416 0.140671 -0.0575385 0.0730161 -0.0941753 -0.177958 0.0394048 -0.106022 -0.301609 0.205054 -0.200065 -0.284119 0.375723 -0.0555983 0.138627 0.0316602 -0.290846 -0.30061 -0.175763 -0.207962 -0.0107372 0.140896 -0.262082 0.235366 0.143077 -0.191555 -0.0831981 0.17291 0.0718793 -0.169084 -0.446015 -0.0936704 -0.131443 -0.274748 0.117532 0.0535615 -0.130386 0.102838 -0.0960089 0.0800937 -0.0803959 -0.132866 -0.0980465 -0.173632 0.253168 -0.0175702 -0.0864063 -0.0252277 -0.082926 -0.216936 0.0457708 0.023141 -0.258813 0.157232 -0.174014 -0.0725572 -0.220752 0.0775471 0.0546103 -0.00798502 0.18049 0.101459 0.127645 -0.205041 0.131625 -0.145705 0.0890391 0.0604655 -0.219309 -0.327338 0.238115 0.191081 -0.124564 -0.21442 -0.111871 -0.211806 -0.0978444 0.194266 0.369964 0.253881 0.190712 -0.172218 -0.00116522 -0.152875 0.0213335 -0.122565 -0.38707 -0.0541465 -0.102548 -0.045557 -0.0960591 0.0709338 -0.0210381 0.135974
14255783 -0.0447985 -0.0344626 0.198754 -0.25871 0.346962 -0.156455 -0.108744 0.0340438 -0.00172124 0.0758245 -0.0433472 -0.107696 -0.0227891 -0.0670173 -0.200512 0.19363 -0.177329 -0.194853 0.32235 -0.0501342 0.123111 -0.064994 -0.337921 -0.340883 -0.0504459 -0.197875 0.0276498 0.112998 -0.151184 0.297475 0.196315 -0.122333 -0.0769999 0.269948 0.129857 -0.151459 -0.364078 -0.102194 -0.132133 -0.203926 0.133665 0.0479629 -0.103616 0.0618503 -0.0781596 0.0341521 -0.161423 -0.0908075 -0.106943 -0.0908736 0.139095 -0.0507328 -0.0722945 0.042133 -0.0427559 -0.0885498 0.00533099 0.0165251 -0.293685 0.172761 -0.126029 -0.0568111 -0.213201 0.024459 0.109462 0.00896153 0.177958 0.2237 0.0657281 -0.144312 0.193526 -0.104889 0.0417321 0.0154201 -0.261117 -0.39317 0.104078 0.272858 -0.0451734 -0.153095 -0.0451987 -0.238008 -0.123547 0.128898 0.289939 0.218911 0.105711 -0.285931 -0.0276003 -0.135679 -0.00552978 -0.211353 -0.395283 -0.0587086 -0.158576 -0.105347 -0.0876376 0.0992497 -0.0488777 0.138707
40580577 -0.0379591 -0.0785023 0.125552 -0.249411 0.339429 -0.125427 -0.150246 0.0392312 0.0192273 0.0219309 -0.0316549 -0.0677455 0.0415842 -0.10836 -0.2684 0.261283 -0.19209 -0.300296 0.279084 -0.0285784 0.105578 -0.100842 -0.25411 -0.290184 -0.0998213 -0.212376 -0.0395524 0.0815239 -0.135265 0.231504 0.144375 -0.201383 -0.028243 0.242061 0.121788 -0.110923 -0.418027 -0.104619 -0.127324 -0.270734 0.172104 0.0404385 -0.121838 0.0479035 -0.101797 0.0204 -0.148998 -0.122564 -0.0662605 -0.148382 0.0855832 -0.0408132 -0.101804 0.00567911 -0.05176 -0.171066 0.0301393 -0.0191616 -0.248808 0.183023 -0.120284 -0.0891979 -0.211847 -0.0325831 0.14224 0.0246893 0.204129 0.199651 0.0485537 -0.160142 0.156564 -0.195082 0.104578 0.0500543 -0.288309 -0.407781 0.123681 0.165878 -0.0472644 -0.17472 -0.101143 -0.265021 -0.0085784 0.1075 0.325378 0.269153 0.102037 -0.192215 -0.0287313 -0.133196 -0.0323238 -0.184609 -0.292574 -0.037307 -0.110635 -0.0914125 -0.0746877 0.0908517 -0.0335663 0.0808759
21195122 -0.0544015 -0.0851474 0.168838 -0.221967 0.295857 -0.174723 -0.20017 0.101669 -0.0461625 0.106346 -0.0837994 -0.148426 0.0249057 -0.0903032 -0.233217 0.174606 -0.172648 -0.190516 0.354616 -0.00781881 0.147383 -0.0140017 -0.331308 -0.345794 -0.04643 -0.209431 -0.0139864 0.139744 -0.187567 0.284005 0.146533 -0.142534 -0.0787177 0.173789 0.1268 -0.14592 -0.412915 -0.128673 -0.142205 -0.232407 0.154659 0.0709968 -0.102482 0.0679416 -0.0750268 0.0793167 -0.10424 -0.102472 -0.0735299 -0.14623 0.167328 0.00552913 -0.0564689 -0.0201094 -0.0788281 -0.14012 -0.00197112 0.00729955 -0.296428 0.161682 -0.124038 -0.0882891 -0.21651 0.0815225 0.0459315 0.0245984 0.169912 0.132668 0.13519 -0.187624 0.164757 -0.169666 0.0908741 0.0358791 -0.266072 -0.328003 0.161745 0.249264 -0.123198 -0.174142 -0.0626035 -0.208208 -0.121038 0.212985 0.341463 0.218042 0.157729 -0.218125 0.0323789 -0.128879 -0.030844 -0.134026 -0.375785 -0.0626632 -0.127485 -0.0706227 -0.0704432 0.0951845 -0.0620019 0.156464
21993653 0.00533526 -0.0625834 0.0575879 -0.230363 0.317804 -0.186294 -0.199391 0.111585 0.0402216 0.12843 -0.132828 -0.13367 0.0532457 -0.097946 -0.251741 0.160501 -0.176249 -0.308429 0.409699 -0.0366266 0.125094 -0.0355775 -0.324806 -0.287534 -0.109084 -0.227493 -0.0166045 0.163268 -0.268712 0.238302 0.204331 -0.189967 -0.0550748 0.170016 0.117064 -0.171945 -0.453747 -0.120937 -0.00137664 -0.310381 0.19768 0.114674 -0.144644 0.0775188 -0.077894 -0.00366625 -0.120921 -0.10894 -0.0797867 -0.234169 0.256167 0.00776097 -0.00415399 -0.0358474 -0.11302 -0.203546 0.105149 0.000970795 -0.235266 0.176762 -0.119296 -0.0729335 -0.271259 -0.0148085 0.0715455 0.0430002 0.143726 0.134244 0.1112 -0.229561 0.190673 -0.127133 0.116984 0.092939 -0.282037 -0.387813 0.221045 0.28825 -0.115901 -0.164008 -0.0804631 -0.287685 -0.0359895 0.222359 0.33392 0.166478 0.240025 -0.141151 -0.0354572 -0.121023 -0.0509997 -0.0643848 -0.470064 -0.0530698 -0.143975 -0.0323818 -0.119042 0.108517 -0.0147679 0.143163
168051693 -0.0186031 -0.00671321 0.0809774 -0.252781 0.273552 -0.09212 -0.116454 0.0431281 0.0266625 -0.0605561 -0.0735595 -0.0270637 -0.00973916 -0.0483661 -0.288119 0.225936 -0.157556 -0.289424 0.271241 -0.0650274 0.156775 -0.0501915 -0.269682 -0.263238 -0.092578 -0.180478 -0.0473663 0.118125 -0.0490667 0.222197 0.0850261 -0.233575 -0.0517401 0.193986 0.105591 -0.114354 -0.374885 -0.105401 -0.116422 -0.334533 0.170371 -0.0277832 -0.0753538 0.00777561 -0.0759748 -0.00339814 -0.110192 -0.0890205 -0.00776906 -0.22734 0.141287 0.0122891 -0.0908664 -0.0104051 -0.0941582 -0.182256 0.00494079 0.0455304 -0.211563 0.192901 -0.133678 -0.119456 -0.155673 -0.0346181 0.126609 0.0411346 0.161295 0.176554 -0.00871591 -0.17497 0.154372 -0.167301 0.0806844 0.0444286 -0.19557 -0.31875 0.119509 0.129026 0.0015941 -0.16078 -0.144914 -0.180761 -0.0142966 0.0816276 0.259587 0.229224 0.16152 -0.11119 -0.0530321 -0.166297 0.0305232 -0.176917 -0.331245 -0.153381 -0.0989538 -0.0704732 -0.00817821 -0.00945476 -0.0127246 0.0740235
247521952 -0.0197909 -0.0274948 0.0402556 -0.257016 0.325887 -0.147508 -0.133028 0.0670698 0.0148919 -0.0855493 -0.0918456 -0.0551078 0.0194422 -0.0327726 -0.353433 0.247665 -0.208914 -0.356317 0.349811 -0.134772 0.139492 -0.050887 -0.264734 -0.140201 -0.275568 -0.138689 -0.111512 0.203213 -0.179886 0.241085 0.104193 -0.204249 -0.0495078 0.211977 0.0176918 -0.17407 -0.513882 -0.0516217 -0.0718871 -0.407163 0.176164 -0.0493954 -0.085278 0.0746671 -0.109779 -0.0201039 -0.0492069 -0.135486 -0.0206204 -0.253729 0.159946 0.00856586 -0.0563316 0.0134884 -0.15593 -0.263538 0.0797621 0.0731807 -0.234655 0.197335 -0.184924 -0.0714573 -0.25075 -0.0339203 0.179469 -0.00253553 0.188995 0.147791 -0.0200055 -0.20485 0.122377 -0.133913 0.17299 0.0686539 -0.265053 -0.389838 0.16664 0.155557 0.0421432 -0.221285 -0.119212 -0.291953 0.0105083 0.101701 0.293374 0.277097 0.179395 -0.0735 -0.00242779 -0.196413 0.0769312 -0.160013 -0.400112 -0.174499 -0.163622 -0.0387229 -0.0198997 0.0385926 0.0566674 0.0177031
71190158 0.00181787 0.050603 0.105256 -0.291437 0.392359 -0.0917955 -0.123953 0.0134636 0.00528362 -0.000468282 -0.0991883 -0.103072 -0.0225836 -0.133524 -0.338561 0.303839 -0.155941 -0.307277 0.326111 -0.0579891 0.183774 -0.0648951 -0.333607 -0.323736 -0.183934 -0.169478 -0.0209188 0.059516 -0.0704715 0.317342 0.159876 -0.194175 -0.129261 0.254462 0.137672 -0.167768 -0.403328 -0.0442935 -0.228001 -0.343354 0.155558 -0.0702044 -0.175328 -0.0368682 -0.0882541 0.0298462 -0.221817 -0.132949 -0.0974167 -0.170612 0.172909 0.0128182 -0.197447 0.0186625 -0.0426442 -0.161367 -0.0524334 0.0962274 -0.294582 0.183129 -0.153371 -0.061508 -0.225213 0.0249323 0.13674 0.0247439 0.165588 0.216766 0.0411992 -0.132667 0.16024 -0.106856 0.0102633 0.0919273 -0.168149 -0.366638 0.11479 0.16798 -0.0104505 -0.196703 -0.154433 -0.252537 -0.0988531 0.0820722 0.231562 0.324447 0.12572 -0.224126 -0.00454479 -0.132651 0.0344089 -0.269903 -0.34911 -0.122065 -0.14562 -0.147945 -0.068427 0.0526261 -0.0344016 0.0903218
12121162 -0.0460793 -0.00828196 0.15494 -0.257687 0.322037 -0.149901 -0.121357 0.0381007 0.00933321 -0.00121984 -0.0835552 -0.0653884 -0.0130221 -0.0520596 -0.238609 0.217872 -0.174569 -0.273666 0.325521 -0.0601041 0.155668 -0.0892745 -0.299267 -0.289797 -0.0870022 -0.181859 -0.0417467 0.151037 -0.112159 0.272136 0.122278 -0.204583 -0.0678283 0.268464 0.116975 -0.134597 -0.39136 -0.103096 -0.0992716 -0.273139 0.171067 0.0278103 -0.110205 0.0461707 -0.075154 0.0248325 -0.13085 -0.103112 -0.057919 -0.18144 0.131301 -0.0164883 -0.0865211 0.00246152 -0.0747677 -0.154957 -0.00194788 0.0174799 -0.273371 0.183611 -0.137905 -0.0790634 -0.208681 -0.00523975 0.127974 0.0221355 0.175009 0.193369 0.0360191 -0.163333 0.16881 -0.178399 0.0802446 0.0501152 -0.269712 -0.367784 0.102564 0.215332 -0.0241359 -0.167752 -0.0939848 -0.244683 -0.0442048 0.106625 0.269829 0.224211 0.143141 -0.176045 -0.010991 -0.145522 0.00105763 -0.188455 -0.355047 -0.0980887 -0.12714 -0.0755853 -0.0338545 0.0579659 -0.00570923 0.0994838
167561718 -0.0266265 -0.0416752 0.132466 -0.22762 0.348586 -0.102519 -0.135391 0.101748 -0.0359393 0.00482651 -0.0658418 -0.107213 0.00293458 -0.0871793 -0.322614 0.230313 -0.200354 -0.275356 0.306958 -0.0454779 0.136066 0.00258988 -0.263216 -0.323825 -0.147828 -0.165491 0.00452224 0.0932195 -0.139763 0.277976 0.145827 -0.191849 -0.0915801 0.20611 0.114288 -0.133172 -0.406926 -0.102539 -0.182552 -0.257745 0.131896 -0.00966138 -0.104634 0.0451935 -0.0922877 0.0626078 -0.125721 -0.111477 -0.0667012 -0.148846 0.153684 -0.0124404 -0.141597 0.0297816 -0.0573174 -0.191186 -0.00463128 0.0548424 -0.265944 0.175505 -0.155237 -0.0889926 -0.22212 0.0512158 0.101232 -0.00531786 0.184354 0.185817 0.0666838 -0.166987 0.161584 -0.157027 0.0582873 0.0470955 -0.216027 -0.340907 0.17461 0.183454 -0.0531697 -0.200895 -0.087366 -0.198471 -0.0690846 0.152787 0.313295 0.278829 0.113704 -0.215472 -0.0162727 -0.143695 0.02186 -0.208338 -0.339054 -0.0887719 -0.0998734 -0.110943 -0.0843888 0.0593319 -0.0440265 0.12044
363148423 -0.000807882 -0.0124553 0.064681 -0.256964 0.360349 -0.127903 -0.132148 0.079319 -0.00114227 0.0529558 -0.104409 -0.123727 0.0125613 -0.0792025 -0.279302 0.200607 -0.174006 -0.322949 0.378435 -0.0773733 0.135647 -0.0302488 -0.327074 -0.293897 -0.144322 -0.23092 0.00436503 0.15985 -0.195099 0.262149 0.192305 -0.230272 -0.0647608 0.200395 0.103763 -0.170667 -0.429683 -0.129516 -0.0743796 -0.326127 0.169524 0.0346939 -0.131617 0.050383 -0.0643522 -0.00147974 -0.137135 -0.108993 -0.113657 -0.209504 0.242035 -0.00346153 -0.0714713 -0.0294592 -0.0901371 -0.172785 0.0812841 0.0566293 -0.245411 0.184454 -0.171257 -0.0650425 -0.216486 -0.0173015 0.110453 0.00725582 0.140669 0.141819 0.0776275 -0.20148 0.188834 -0.0808193 0.0713769 0.0472243 -0.224857 -0.385021 0.197602 0.210766 -0.0730594 -0.171919 -0.13379 -0.235966 -0.0381417 0.178805 0.325429 0.206623 0.210622 -0.175574 -0.0633911 -0.146306 0.0183784 -0.152519 -0.448628 -0.0792885 -0.160902 -0.0535994 -0.0985295 0.0598626 -0.00854975 0.121447
15913 -0.00912616 -0.0684591 0.128283 -0.238548 0.333601 -0.112429 -0.137566 0.0503647 0.0293495 0.0733909 -0.0990526 -0.0784619 0.0330006 -0.120716 -0.251046 0.197735 -0.181666 -0.296919 0.367918 -0.00679533 0.114522 -0.0900132 -0.274926 -0.302629 -0.0855947 -0.18657 0.00862464 0.135217 -0.140579 0.219695 0.190536 -0.219625 -0.0793341 0.271491 0.157092 -0.141465 -0.352282 -0.114769 -0.0352349 -0.256554 0.165701 0.0903829 -0.132686 0.048665 -0.086255 0.000211773 -0.189128 -0.118971 -0.114062 -0.16479 0.128551 -0.032862 -0.0764738 0.0280824 -0.0619758 -0.138606 0.0258577 0.0129702 -0.268963 0.18583 -0.116825 -0.103178 -0.249434 -0.0918882 0.121495 0.0435 0.159769 0.193585 0.0634116 -0.171508 0.194812 -0.172627 0.0579746 0.0793949 -0.272268 -0.388198 0.135476 0.247423 -0.0727917 -0.177888 -0.0730795 -0.288459 -0.00739288 0.154903 0.290514 0.175361 0.1463 -0.191233 -0.0480235 -0.112347 -0.0540478 -0.134946 -0.365066 -0.0179391 -0.098168 -0.0622306 -0.118943 0.0729987 -0.0373522 0.10191
20207853 -0.0117585 -0.0637518 0.133612 -0.232629 0.290544 -0.139436 -0.20053 0.0737034 0.0138004 0.0791962 -0.0937905 -0.111813 0.0296022 -0.0952687 -0.255025 0.19452 -0.19176 -0.28949 0.328337 -0.0228428 0.119155 -0.0859613 -0.290346 -0.348755 -0.0635393 -0.240117 -0.021181 0.10426 -0.14511 0.277777 0.153965 -0.19867 -0.0379191 0.184707 0.149795 -0.124622 -0.425758 -0.157458 -0.0716179 -0.243688 0.196827 0.0908653 -0.13605 0.0744054 -0.0646074 0.047117 -0.19064 -0.123721 -0.0913777 -0.177 0.14522 -0.00361589 -0.0837364 -0.00207399 -0.0575026 -0.160412 0.0553526 0.0294334 -0.270526 0.167248 -0.0937516 -0.0981372 -0.203225 0.00438879 0.0887796 0.0127189 0.173683 0.20037 0.0916224 -0.175089 0.192246 -0.193424 0.069214 0.079942 -0.289459 -0.404382 0.153832 0.264224 -0.100991 -0.143329 -0.0826538 -0.261219 -0.0334946 0.206332 0.299659 0.218126 0.138569 -0.199218 -0.0444339 -0.0912515 -0.0685221 -0.16765 -0.357627 -0.0389645 -0.113015 -0.0865316 -0.112921 0.12104 -0.0125074 0.146193
6574782 0.0258505 0.00842904 -0.0357714 -0.253439 0.379501 -0.128893 -0.106495 0.0580312 0.00674531 0.080704 -0.110189 -0.112975 0.0383356 -0.103391 -0.266794 0.153949 -0.146501 -0.353531 0.394697 -0.115007 0.16249 -0.0151939 -0.343521 -0.21033 -0.176251 -0.241816 0.0111847 0.196008 -0.214299 0.238171 0.206102 -0.234561 -0.0918037 0.158004 0.087272 -0.189825 -0.449375 -0.12647 -0.025513 -0.396561 0.188687 0.0312503 -0.132852 0.0141803 -0.0685567 -0.075317 -0.137588 -0.0839795 -0.119402 -0.253404 0.270148 0.0239574 0.00503199 -0.073866 -0.129795 -0.173337 0.119468 0.0929766 -0.229575 0.173274 -0.182451 -0.0605841 -0.207773 -0.0517507 0.105211 0.04204 0.123005 0.10111 0.078125 -0.225101 0.175257 -0.0294028 0.0905697 0.0648956 -0.192685 -0.371299 0.185609 0.198493 -0.0939498 -0.145513 -0.156381 -0.244055 -0.0222712 0.19087 0.32182 0.129343 0.317056 -0.132266 -0.0730721 -0.146558 0.0400851 -0.116382 -0.492488 -0.121411 -0.189755 -0.0278751 -0.131073 0.0514215 -0.00531913 0.0900448
19563357 -0.0435342 0.0166927 0.166382 -0.29638 0.344986 -0.143893 -0.121641 0.0352259 0.00284328 0.0352892 -0.0762818 -0.0753092 -0.0299131 -0.0872619 -0.228134 0.250449 -0.177024 -0.302102 0.329035 -0.0456255 0.167367 -0.126434 -0.359631 -0.419391 -0.0554281 -0.201883 -0.0023605 0.0780004 -0.0749498 0.374363 0.175244 -0.184487 -0.00564761 0.24425 0.182273 -0.123967 -0.403187 -0.117962 -0.148601 -0.245177 0.206602 0.00875198 -0.132979 0.039987 -0.0447726 0.0534514 -0.212151 -0.137363 -0.0972382 -0.193594 0.119121 -0.0220945 -0.150014 -0.0095149 -0.0153236 -0.0925135 0.0051961 0.0797627 -0.281852 0.148662 -0.0881771 -0.101502 -0.18003 0.00735611 0.137192 -0.00215463 0.159659 0.291453 0.0335954 -0.165979 0.155933 -0.144693 0.0145154 0.0530139 -0.234285 -0.372596 0.0754712 0.206064 -0.095836 -0.160591 -0.114231 -0.234015 -0.109013 0.144997 0.263843 0.273027 0.137724 -0.23873 -0.0791386 -0.102933 -0.00602894 -0.245929 -0.345005 -0.0818533 -0.116497 -0.120308 -0.124803 0.128733 -0.00731301 0.0999657
171401725 -0.0468306 -0.0172226 0.128735 -0.30516 0.322242 -0.161074 -0.176474 0.0119751 0.0268898 -0.05888 -0.0912447 -0.0562062 0.0223288 -0.053617 -0.329023 0.301393 -0.184705 -0.314405 0.346438 -0.0810563 0.167107 -0.120219 -0.343412 -0.275845 -0.155246 -0.179319 -0.137137 0.122265 -0.0755715 0.297331 0.0852743 -0.218119 -0.0460739 0.24175 0.101864 -0.145215 -0.473537 -0.0750952 -0.150814 -0.352023 0.224102 -0.0413582 -0.125983 0.0491963 -0.0877017 0.0559761 -0.127311 -0.15643 -0.0172195 -0.243517 0.126216 0.00942348 -0.153834 -0.0143802 -0.105484 -0.196899 -0.0106285 0.0441625 -0.282472 0.191353 -0.150165 -0.118147 -0.220685 -0.00575142 0.14155 0.0168102 0.183162 0.215353 0.0169054 -0.19463 0.144773 -0.219015 0.105061 0.073668 -0.27178 -0.39318 0.100471 0.14417 -0.0115226 -0.204807 -0.141125 -0.274085 -0.0325865 0.0779361 0.264753 0.327719 0.143064 -0.116977 0.0201551 -0.179333 0.0254101 -0.226877 -0.349994 -0.161589 -0.140955 -0.0882391 0.000673453 0.07031 0.0268143 0.0462342
14759617 -0.0448903 0.00793741 0.189007 -0.270558 0.291006 -0.109912 -0.144344 0.0656182 0.0357866 0.0513071 -0.100795 -0.0903214 -0.039081 -0.0264266 -0.242193 0.252749 -0.130972 -0.218022 0.301592 -0.027657 0.131486 -0.112888 -0.318556 -0.405296 -0.0044206 -0.222093 0.0196798 0.0727329 -0.0853901 0.361521 0.174895 -0.135112 -0.0221624 0.2497 0.173858 -0.123987 -0.370037 -0.128766 -0.167445 -0.182325 0.179097 0.0448431 -0.15996 0.011645 -0.0164605 0.0392149 -0.212251 -0.0962987 -0.0692505 -0.131907 0.152324 -0.0226115 -0.136977 -0.00109492 0.00268821 -0.108349 0.00117596 0.0171347 -0.257952 0.155307 -0.0838117 -0.030729 -0.222256 0.0453331 0.0846133 0.000847858 0.13547 0.264244 0.101285 -0.124382 0.226063 -0.137603 0.00338045 0.0488594 -0.251584 -0.396237 0.105093 0.294798 -0.0422188 -0.140481 -0.0520925 -0.23442 -0.0924057 0.163169 0.21713 0.265137 0.0601325 -0.272493 -0.040352 -0.0960976 -0.0667225 -0.218427 -0.384981 -0.0477742 -0.146823 -0.152261 -0.0742622 0.114223 -0.0311803 0.148328
18776017 -0.030669 -0.0863842 0.129091 -0.233301 0.270098 -0.183722 -0.177837 0.115855 -0.0269056 0.0600333 -0.045088 -0.120673 0.0291108 -0.0505977 -0.21928 0.184687 -0.195039 -0.222672 0.317448 -0.0686311 0.112634 -0.0182885 -0.266145 -0.281453 -0.0882885 -0.228939 -0.0443279 0.143871 -0.209817 0.254079 0.087158 -0.167754 -0.0358342 0.185315 0.0978826 -0.12416 -0.430738 -0.113874 -0.118942 -0.265572 0.13641 0.061859 -0.0826508 0.131349 -0.0728337 0.0553606 -0.0689798 -0.105152 -0.0409872 -0.15198 0.149316 -0.00988992 -0.0310749 -0.0410311 -0.0606123 -0.187084 0.0295153 -0.00694839 -0.256478 0.143857 -0.107363 -0.0702899 -0.171764 0.0502478 0.0651335 0.000905195 0.191918 0.128836 0.10768 -0.210576 0.13899 -0.196153 0.132545 0.0394227 -0.303794 -0.355198 0.158723 0.220567 -0.0869204 -0.163431 -0.0665834 -0.202096 -0.0712905 0.195578 0.351186 0.234008 0.155957 -0.184649 -0.0180246 -0.157684 -0.031499 -0.142656 -0.342367 -0.0981929 -0.0954664 -0.0491203 -0.0626799 0.0651789 -0.00760491 0.147316
64285972 -0.0582492 0.00677934 0.147603 -0.263039 0.287855 -0.0995255 -0.113817 0.0344128 0.045519 -0.0458318 -0.0837838 -0.00751809 -0.0120963 -0.0177246 -0.255152 0.249123 -0.147615 -0.307378 0.290853 -0.0457906 0.137739 -0.120771 -0.289282 -0.317969 -0.0487399 -0.202008 -0.0636656 0.115846 -0.0313735 0.306387 0.123556 -0.232263 -0.0059765 0.235493 0.133722 -0.124361 -0.409373 -0.121031 -0.0993306 -0.284544 0.211034 0.00829602 -0.10621 0.01705 -0.0565758 -0.00697996 -0.160418 -0.0942464 -0.0298589 -0.219975 0.117809 -0.0124744 -0.12397 -0.0238274 -0.0605384 -0.140468 0.0305185 0.0300061 -0.245642 0.187232 -0.104248 -0.101286 -0.192281 -0.0371352 0.154822 0.0263777 0.169687 0.259843 0.00690007 -0.170722 0.173427 -0.159658 0.0733483 0.0431362 -0.257066 -0.35425 0.04761 0.173325 0.00389199 -0.126735 -0.111522 -0.233659 -0.0192514 0.0803932 0.245644 0.250847 0.105762 -0.148126 -0.0502212 -0.128515 -0.00923806 -0.226744 -0.351821 -0.12076 -0.134224 -0.111692 -0.0218815 0.0656994 0.00112671 0.078515
568770231 0.00722831 -0.0014129 0.045826 -0.265684 0.306151 -0.0959272 -0.0980377 0.0944448 -0.0240242 0.0225101 -0.10237 -0.112726 0.0175107 -0.0910199 -0.310251 0.200391 -0.169848 -0.316206 0.35412 -0.0816393 0.151059 0.0239141 -0.288051 -0.283885 -0.163909 -0.199088 -0.00766054 0.13767 -0.142712 0.26446 0.150899 -0.237854 -0.0759681 0.158098 0.11457 -0.156581 -0.41271 -0.110063 -0.108686 -0.347245 0.136111 -0.0117029 -0.0931796 0.0240996 -0.087549 -0.0138621 -0.134549 -0.100077 -0.0897157 -0.208445 0.205323 0.0252483 -0.0751824 -0.0336701 -0.0842398 -0.153611 0.0503502 0.128918 -0.257776 0.179843 -0.135392 -0.0979528 -0.164999 -0.00110231 0.121528 0.0194093 0.156247 0.144788 0.0634857 -0.20776 0.152404 -0.0824229 0.0496282 0.0518134 -0.168389 -0.324392 0.168139 0.150203 -0.0574447 -0.167294 -0.134003 -0.187907 -0.0680925 0.188112 0.31024 0.220017 0.215536 -0.173734 -0.0812138 -0.157821 0.0420119 -0.178113 -0.402303 -0.139583 -0.137769 -0.0654592 -0.0851597 0.0199907 -0.0151386 0.103966
18320151 -0.0164457 -0.0606612 0.0838878 -0.249481 0.337525 -0.114736 -0.161054 0.106858 -0.090797 -0.0775803 -0.0496196 -0.0919649 0.0131738 -0.0857668 -0.363914 0.270511 -0.218143 -0.259127 0.304109 -0.0905576 0.148056 0.0236731 -0.26513 -0.222048 -0.236589 -0.152694 -0.04787 0.136593 -0.14993 0.271611 0.0542485 -0.171167 -0.0576216 0.15752 0.0228122 -0.161549 -0.512542 -0.0351779 -0.242833 -0.328634 0.106205 -0.107905 -0.0693248 0.0753314 -0.106298 0.0424382 -0.0439872 -0.152644 -0.0451141 -0.180909 0.158395 -0.0121253 -0.113959 -9.51857e-05 -0.105347 -0.234384 0.0153995 0.100662 -0.27941 0.155638 -0.16851 -0.0579209 -0.169273 0.0653367 0.134564 -0.0216543 0.229431 0.129238 0.0382466 -0.200248 0.0730687 -0.13393 0.147971 0.0258851 -0.187429 -0.275543 0.163149 0.069877 -0.0134323 -0.223218 -0.103013 -0.183567 -0.119894 0.120559 0.356414 0.323174 0.148497 -0.163309 0.0152017 -0.203733 0.107486 -0.218466 -0.312708 -0.175943 -0.121322 -0.0779159 -0.0378906 0.0369694 -0.00166127 0.0210352
15783713 0.00333092 -0.0118721 0.0551675 -0.282383 0.402754 -0.131756 -0.12164 0.0594439 -0.0154346 0.0511646 -0.0880368 -0.117611 0.00726025 -0.0897946 -0.288794 0.208907 -0.18206 -0.32403 0.374786 -0.0943998 0.147817 -0.0306831 -0.331477 -0.286974 -0.159298 -0.2155 0.0133298 0.151391 -0.203119 0.276685 0.182134 -0.210574 -0.0774079 0.212615 0.10607 -0.170235 -0.441961 -0.115535 -0.116625 -0.340589 0.164846 0.00309384 -0.134417 0.0337734 -0.0654465 -0.00532055 -0.12859 -0.118091 -0.115996 -0.217568 0.234261 0.00198004 -0.0714053 -0.0204718 -0.0872415 -0.18094 0.0621729 0.0623177 -0.243602 0.182399 -0.179439 -0.0504436 -0.216262 -0.0131966 0.116087 0.00756974 0.143052 0.150945 0.0668606 -0.211558 0.186355 -0.082935 0.0685767 0.0532348 -0.214071 -0.376058 0.185419 0.193971 -0.0709974 -0.185331 -0.135637 -0.236422 -0.044582 0.173896 0.327075 0.225766 0.208968 -0.184967 -0.0526617 -0.1578 0.0324613 -0.157676 -0.437138 -0.0959763 -0.156772 -0.0636858 -0.112638 0.0580285 -0.0130563 0.116676
29902703 -0.0549426 -0.0146622 0.224917 -0.240352 0.300708 -0.0858193 -0.111345 0.0744434 -0.00413134 0.0294651 -0.0721044 -0.081301 -0.0469651 -0.0277521 -0.213937 0.211585 -0.167281 -0.206751 0.258648 0.00686509 0.112958 -0.0833235 -0.300755 -0.435122 0.0204699 -0.167051 0.0649736 0.0532206 -0.0412692 0.329842 0.197557 -0.141304 -0.0631198 0.255394 0.200597 -0.100655 -0.277528 -0.14255 -0.169302 -0.114259 0.153726 0.0608191 -0.0951335 0.0258552 -0.042021 0.0698075 -0.211197 -0.0769227 -0.093798 -0.100224 0.102322 -0.0514112 -0.159805 0.0644451 0.026186 -0.0736048 -0.0270867 0.0208374 -0.24939 0.16454 -0.0857983 -0.0835413 -0.206026 0.0413601 0.0871618 0.0119037 0.153722 0.315145 0.0498595 -0.0994602 0.218612 -0.125434 -0.0402082 0.0225353 -0.208714 -0.328776 0.117615 0.257428 -0.045765 -0.13914 -0.0336389 -0.186417 -0.0964777 0.141324 0.229308 0.219859 0.0469326 -0.28749 -0.0662835 -0.0839467 -0.0194004 -0.225509 -0.338531 -0.0276392 -0.0903552 -0.157143 -0.0944513 0.0785504 -0.0689462 0.162954
19824423 -0.0607313 0.0382918 0.142268 -0.301386 0.320559 -0.160767 -0.108887 -0.000895254 0.0419605 -0.0636946 -0.100905 -0.0350945 -0.0545197 -0.0121185 -0.26355 0.269782 -0.176412 -0.330261 0.305998 -0.110022 0.198422 -0.142346 -0.307172 -0.316399 -0.10778 -0.184183 -0.0718275 0.104109 -0.0830217 0.330281 0.130645 -0.217291 -0.0115675 0.287627 0.109038 -0.1228 -0.416551 -0.112466 -0.131945 -0.301025 0.22556 -0.030176 -0.165226 0.0222375 -0.0466608 0.00171785 -0.14337 -0.123619 -0.00726019 -0.255799 0.123689 -0.00421521 -0.132161 0.0104928 -0.0896272 -0.173916 0.0214733 0.0434993 -0.251129 0.172608 -0.141531 -0.0767336 -0.225915 -0.0253928 0.156335 0.00454133 0.138535 0.231313 0.0123078 -0.155424 0.18279 -0.203706 0.0668911 0.067608 -0.265718 -0.420007 0.0731398 0.203362 0.00641333 -0.190378 -0.118213 -0.268592 0.0036209 0.0836464 0.216486 0.30409 0.108 -0.152311 -0.0471632 -0.154413 0.0208592 -0.245904 -0.343325 -0.127552 -0.144633 -0.125739 -0.0314786 0.0678943 0.0352986 0.0834277
8803492 -0.0359894 -0.0337906 0.16678 -0.245093 0.381078 -0.0664232 -0.106867 0.0842579 -0.0760166 -0.0476745 -0.0181348 -0.0805026 -0.0185827 -0.101343 -0.338362 0.264795 -0.197515 -0.236575 0.257791 -0.0264826 0.145442 0.01268 -0.278292 -0.332846 -0.12526 -0.155366 0.0215247 0.0605043 -0.0619372 0.290359 0.0881693 -0.197624 -0.108689 0.220843 0.115032 -0.104796 -0.38889 -0.0854399 -0.312714 -0.255397 0.0971349 -0.082541 -0.0627499 0.0174832 -0.093723 0.0749147 -0.110577 -0.0983966 -0.0625058 -0.119045 0.116623 -0.0110713 -0.204066 0.0304886 -0.0262648 -0.183709 -0.0735982 0.059867 -0.270691 0.186945 -0.166292 -0.0917569 -0.162699 0.0844304 0.103714 0.00702693 0.21947 0.207317 0.0355795 -0.144642 0.132494 -0.158337 0.0413109 0.000563551 -0.161115 -0.270953 0.134912 0.0981144 -0.0163019 -0.212877 -0.113169 -0.115059 -0.11673 0.0925707 0.332905 0.325125 0.0878854 -0.252848 0.000420958 -0.171856 0.0735999 -0.271581 -0.273226 -0.136528 -0.0778197 -0.136467 -0.0402405 0.0089099 -0.0802902 0.10279
308686769 0.191208 -0.210203 0.338124 -0.325437 0.292872 0.00277337 -0.180948 0.321471 0.20359 0.0538695 0.145669 -0.026687 -0.157999 0.161583 -0.261877 -0.00998017 -0.385143 -0.291469 0.00876718 0.115658 0.0843174 0.245503 -0.401905 -0.876625 0.603398 -0.72154 0.605059 0.0886365 -0.228435 -0.024393 0.328921 -0.494424 -0.0654076 0.34638 0.352105 0.0197865 -0.0222598 -0.601014 -0.144294 -0.266266 -0.0170864 0.318093 0.0804335 0.013266 -0.0590326 -0.135589 0.0811252 0.37233 0.281814 -0.310888 0.443893 0.00328679 0.0482105 0.26873 -0.00607754 -0.400062 0.162728 -0.571414 0.119475 0.5566 -0.273266 -0.158622 -0.131336 -0.171953 -0.0412232 0.230358 0.274117 0.302124 -0.139468 -0.264245 0.796224 -0.33452 0.0125456 -0.385678 -0.386484 -0.67687 0.601457 0.570789 -0.0479573 -0.117696 -0.219632 0.220944 0.223006 0.102199 0.830369 -0.00225756 0.355473 -0.455128 -0.715465 -0.401786 0.0903716 -0.113353 -0.655182 -0.182056 0.179078 -0.184947 0.0554726 -0.359159 -0.417735 0.708568
195564343 0.197377 -0.197382 0.348822 -0.350988 0.323352 0.00288228 -0.181194 0.312388 0.218688 0.0445443 0.157768 -0.0152233 -0.167218 0.167572 -0.269539 -0.006037 -0.399197 -0.298411 0.011771 0.119855 0.113488 0.227745 -0.426136 -0.888506 0.616238 -0.754184 0.626717 0.0951011 -0.216331 -0.0258103 0.331566 -0.510125 -0.0817948 0.384277 0.360487 0.0250919 -0.0118299 -0.624055 -0.16626 -0.287031 -0.0199656 0.313693 0.0754635 0.00614255 -0.066261 -0.147586 0.0724411 0.381929 0.291579 -0.317947 0.44064 -0.0104511 0.0558854 0.271391 0.00592547 -0.412674 0.147066 -0.586887 0.118728 0.571277 -0.277635 -0.165256 -0.131974 -0.18467 -0.0455618 0.244813 0.300425 0.331221 -0.14642 -0.261486 0.815949 -0.353056 0.0061809 -0.380148 -0.387131 -0.709622 0.593542 0.589739 -0.05346 -0.117577 -0.246886 0.226624 0.226025 0.0844939 0.834902 -0.00781924 0.381124 -0.48504 -0.730102 -0.412499 0.10693 -0.122336 -0.675706 -0.196189 0.178605 -0.19353 0.0558989 -0.379135 -0.422118 0.71363
