177 100
17794647 -0.0739725 -0.153781 0.11529 0.0256336 -0.140246 -0.167831 -0.315354 -0.287341 -0.311387 0.172154 -0.0194146 0.346078 -0.335229 0.188313 0.11177 0.0788636 0.270992 0.293301 0.298277 -0.0204088 0.0245224 0.123886 0.0640724 0.0666404 0.0976819 -0.0414266 -0.161919 -0.525378 -0.323807 -0.456314 -0.109238 0.0270748 0.0279613 0.0465537 0.124509 -0.0901127 -0.0956451 -0.153602 0.366094 0.0209439 -0.058456 0.115075 0.138233 0.0927561 0.497155 -0.0371397 -0.025433 -0.0891652 -0.209104 0.0271268 -0.00265135 0.00792739 -0.0783362 0.202351 0.31841 0.0465588 -0.0375464 -0.409246 0.049372 -0.218271 -0.372304 0.111499 -0.352597 -0.200307 -0.24898 -0.0867439 -0.0435247 0.18771 0.0620164 -0.0430685 0.508294 0.176368 0.105512 0.0531935 0.135776 0.340674 -0.6049 0.409797 0.153771 0.0323573 0.361847 0.0842618 -0.410529 0.154671 0.0131613 0.0978947 -0.338324 -0.237827 -0.259481 -0.350234 -0.0968943 0.108949 -0.163595 0.0537701 -0.290603 -0.298399 0.0162344 0.163682 0.452856 -0.0328825
18396070 -0.0874066 -0.204029 0.0954585 0.127466 -0.0378058 -0.076022 -0.281168 -0.176287 -0.234627 -0.0286038 -0.132512 0.203476 -0.191233 0.263785 0.0131926 0.0242357 0.0108062 0.0685692 0.209077 -0.268671 -0.120476 -0.0555703 0.159211 0.196201 0.191602 0.0229001 -0.12456 0.0609574 -0.261274 -0.178917 -0.186556 -0.168087 -0.104569 -0.125636 0.270416 -0.173015 0.00130398 -0.116266 0.12462 -0.049134 -0.0943212 -0.0382392 -0.0154979 -0.173923 0.380362 -0.092617 0.0283576 0.0584416 -0.20249 -0.148734 -0.228437 0.0957554 -0.0151987 0.151002 -0.0559674 0.18058 -0.247473 0.0223307 0.0533304 0.199127 -0.171521 -0.175733 -0.382967 0.0375681 -0.455155 -0.0610547 -0.0175842 0.186816 0.132418 -0.285072 0.230221 -0.0138021 0.0237776 -0.096642 -0.0220329 0.397756 -0.566118 0.178428 -0.0553807 0.235143 0.0528402 -0.0254088 -0.0449154 0.129738 0.139653 -0.1914 -0.00119176 -0.232584 -0.194934 -0.173536 -0.0174893 -0.107143 -0.273333 0.11588 -0.127547 -0.231171 -0.083729 0.131675 0.483384 -0.0810537
7081402 -0.0767151 -0.164561 0.192604 -0.0743553 -0.0687326 -0.0472463 -0.232503 -0.134925 -0.0337775 -0.0988487 0.0225916 0.344898 -0.269919 0.197365 0.0829076 0.170071 0.212309 0.200017 0.291248 -0.0687653 -0.0235139 -0.0209753 0.044523 0.318079 0.148016 -0.15691 -0.226547 -0.0731237 -0.180012 -0.042267 -0.232204 -0.0321893 -0.108713 0.138045 0.213968 -0.171547 -0.0619948 -0.223231 0.260993 -0.140544 -0.0963203 -0.0633235 -0.115937 0.102881 0.444021 -0.134152 0.0399709 -0.117633 -0.149812 -0.130056 -0.238345 0.0951961 -0.0391281 0.0140908 0.0365053 0.207358 -0.0736956 -0.103768 0.0673828 0.0162345 -0.176912 -0.0922088 -0.21263 -0.0144831 -0.541714 -0.156112 -0.0663068 0.219972 0.142747 -0.215981 0.324781 0.0370803 -0.0903864 0.000954608 0.076081 0.522033 -0.400121 0.278604 0.0933259 0.150216 0.0042553 -0.0244769 -0.0666496 -0.0490046 0.22805 -0.1396 -0.0295487 -0.259895 -0.23724 -0.247953 0.018453 -0.0794679 -0.264109 0.103512 -0.187832 -0.207022 -0.0885472 0.217574 0.424869 -0.0848759
19736429 -0.0361336 -0.17974 0.146178 -0.0206391 -0.10569 0.0456097 -0.214977 -0.180024 -0.169989 -0.0498163 -0.172258 0.319355 -0.361589 0.273135 0.122331 0.022724 0.106733 0.272118 0.313901 0.00380676 -0.130144 -0.0444472 0.0924352 0.168994 0.176154 -0.208259 -0.181304 -0.207248 -0.237617 -0.147827 -0.330738 0.00942875 -0.174132 0.0551637 0.0208395 -0.153686 -0.127485 -0.220999 0.169199 -0.230735 -0.0043141 -0.13253 -0.171419 0.10399 0.418932 -0.166133 0.0165596 0.0144813 -0.0347178 0.0822796 -0.298928 0.207428 -0.0126509 -0.0155906 0.0929699 0.295689 -0.0361945 -0.0847206 0.168288 0.0614633 -0.13101 -0.0635381 -0.198275 0.0707753 -0.499874 -0.184886 -0.153949 0.192566 0.0979341 -0.201229 0.312805 -0.0474162 -0.0594081 -0.0393616 0.00692495 0.521055 -0.553765 0.329314 0.0632821 0.173492 0.103435 -0.023152 -0.104235 0.0598585 0.19195 0.0291321 0.0474935 -0.150926 -0.297922 -0.274531 0.116058 -0.0485012 -0.282376 0.121773 -0.116349 -0.188885 0.0406547 0.392677 0.417217 0.0813661
7453822 -0.0457465 -0.235836 0.188387 0.154728 -0.140229 -0.130616 -0.246939 -0.195201 -0.0784439 -0.343919 0.0297462 0.431624 -0.295194 0.326766 0.0999753 0.198384 0.290171 0.0606468 0.221451 -0.126161 -0.129806 -0.226679 0.0603485 0.451555 0.249973 -0.0437339 -0.157509 0.162218 -0.361626 -0.0640484 -0.0486169 0.0916486 0.0189358 0.213229 0.205467 -0.210684 -0.0826228 -0.253794 0.332943 -0.182195 -0.104805 -0.155352 -0.125056 0.142377 0.47017 -0.129021 0.0968986 -0.0460608 -0.188893 -0.0952517 -0.335258 -0.047006 0.050405 -0.109147 -0.0484225 0.361485 -0.292875 -0.0193721 0.24296 0.101733 -0.0626677 -0.132903 -0.219423 -0.037321 -0.621862 -0.130089 -0.0523005 0.211561 0.0639192 -0.459243 0.209228 0.0095748 -0.0242061 0.000713841 -0.0687296 0.636711 -0.408535 0.381785 0.0775261 0.221447 0.00435123 0.00718395 0.224952 -0.0194776 0.192074 -0.188839 0.160861 -0.239612 -0.153175 0.00829748 0.098376 -0.11715 -0.19905 0.0871204 -0.200489 -0.21705 -0.0791575 0.144895 0.501748 -0.141134
10350 -0.0715808 -0.217985 0.143991 0.0689255 -0.124278 -0.217207 -0.195232 0.112568 -0.194116 -0.174998 -0.0499331 0.301704 -0.299083 0.311215 -0.0148001 0.284849 0.0284209 0.0836458 0.237777 -0.342273 -0.123331 -0.0870874 -0.0688898 0.411977 0.0343698 0.0734381 -0.145403 0.00207159 -0.291919 -0.141374 -0.174526 0.0422272 -0.096624 0.0208113 0.188952 -0.0697306 -0.0508169 -0.251074 0.204654 -0.00498308 -0.168955 -0.0978317 -0.0637632 0.0182815 0.39874 -0.0318765 -0.0172265 -0.0650946 -0.14542 -0.154405 -0.323627 0.123494 -0.0704123 0.0340242 0.0014397 0.257334 -0.0831207 0.0866928 0.152825 0.091533 -0.0654953 -0.197983 -0.308349 -0.0102206 -0.373127 -0.125895 -0.0321509 0.350713 0.275875 -0.322372 0.18875 0.141018 0.00548845 0.00686774 0.0680431 0.448138 -0.402464 0.418102 0.195301 0.114162 0.011595 -0.0246117 0.125737 0.0490084 0.143358 -0.201036 -0.075316 -0.297024 -0.0351871 -0.185887 0.238673 -0.146831 -0.213227 0.169034 -0.193618 -0.232967 0.0239298 0.170256 0.488913 0.0687345
19029137 -0.068104 -0.0205969 0.0923587 0.204011 -0.131687 -0.0552994 -0.196641 -0.131299 -0.149081 -0.0194576 -0.133396 0.103672 -0.0841567 0.127917 -0.0252249 0.0877551 0.0121354 -0.144704 0.416992 -0.296409 -0.202299 0.137471 0.162527 0.22263 0.177705 0.0553017 -0.344279 -0.0766548 -0.387308 -0.131361 -0.0898917 -0.0129906 -0.175315 -0.150829 0.312088 -0.048384 -0.140061 -0.0614121 0.0960857 -0.049482 -0.010144 0.0593705 -0.151535 -0.240863 0.420776 -0.00502099 0.10064 0.0256037 -0.223273 -0.15311 -0.49803 0.1471 0.00577079 0.219339 0.0931926 0.0845989 -0.194237 -0.154107 0.0822728 0.0320008 -0.207653 -0.171824 -0.575904 -0.168788 -0.252445 -0.253702 0.0822237 0.332673 0.226228 -0.240753 0.201312 0.110978 0.0419737 -0.0194707 0.0262538 0.291566 -0.709245 0.0889804 0.0308051 0.0170206 0.0328183 -0.142274 -0.200101 -0.0373534 0.113285 -0.050011 -0.0583948 -0.255236 -0.13591 -0.249761 -0.152678 -0.0457289 -0.244315 0.161672 -0.0583513 -0.370286 -0.0566011 -0.12869 0.474412 -0.0499965
15450639 -0.0292316 -0.262758 0.0843208 0.00416617 -0.249424 0.0610579 -0.273171 -0.249208 -0.0518997 -0.0625545 -0.180404 0.247683 -0.147533 0.2515 -0.0103797 0.298375 0.0537858 -0.0509157 0.340813 -0.12642 0.073321 0.164316 0.00145267 0.394058 0.167647 0.020718 -0.543684 -0.011508 -0.321232 -0.343116 -0.188756 0.0293235 -0.343828 0.156081 0.226208 -0.0629286 -0.105993 -0.19953 0.376139 -0.132662 -0.0650064 -0.101162 -0.231396 -0.101483 0.520317 -0.0398593 0.0920034 0.0384579 -0.00748188 0.0577536 -0.401572 0.269232 -0.18777 0.215841 -0.0735727 0.233638 -0.215699 -0.146863 0.0296133 0.0107682 -0.0643174 -0.331636 -0.296428 -0.0257358 -0.448453 -0.202118 -0.0499281 0.426247 -0.031996 -0.163804 0.147756 -0.0491876 0.113963 -0.0270878 0.0856755 0.0451843 -0.294711 0.264658 0.00201288 0.205951 0.0459901 0.043612 -0.0298406 -0.0702448 0.0132255 -0.276969 -0.0091158 -0.199202 -0.247138 -0.384674 0.279216 0.0286966 -0.173655 -0.111202 0.0507631 -0.276845 0.0438444 0.00933403 0.385552 -0.0416422
15913 -0.119198 -0.258195 0.116428 -0.0467134 -0.217905 -0.158891 -0.398247 -0.0912594 -0.0650052 -0.101018 0.0247621 0.434541 -0.132223 0.327284 -0.116164 0.0618673 -0.00145596 -0.0745019 0.131618 -0.0637214 -0.0708875 -0.174583 -0.0862455 0.546894 0.239169 0.0354521 -0.262317 -0.0176126 -0.371538 -0.151967 -0.129222 0.194486 -0.0798589 -0.033423 0.238943 -0.0979094 -0.0668259 -0.28055 0.394489 -0.060522 -0.0303808 -0.105683 0.0028848 0.000652674 0.366747 -0.193495 0.0156476 -0.0914057 -0.0256504 -0.288099 -0.349601 0.0077966 -0.14089 0.0237881 -0.130643 0.128831 -0.230651 -0.0836343 -0.0409596 -0.0252564 -0.190197 -0.363831 -0.172584 -0.0488716 -0.641108 -0.311564 -0.138239 0.195227 0.0304367 -0.364505 0.228792 -0.119996 0.147842 0.157885 0.00636545 0.297216 -0.458725 0.394957 0.0306853 0.355232 0.205881 0.0193792 0.0241867 -0.00102577 0.164463 -0.382859 0.133898 -0.163817 -0.14825 -0.120332 0.0713954 -0.154253 -0.0680115 0.00757732 0.000395454 -0.317894 -0.0263819 0.049067 0.428964 -0.0978529
17140787 -0.16176 -0.198664 0.125599 -0.0307857 -0.311851 -0.0479667 -0.365659 -0.287025 0.0478681 -0.130968 -0.0931604 0.358909 -0.214704 0.322787 -0.00539813 0.11905 0.184513 -0.0713278 0.173338 -0.046887 -0.153947 -0.0562523 -0.0100923 0.541936 0.292501 0.00670845 -0.391957 0.184646 -0.343024 -0.209285 -0.0721589 0.0929964 -0.1134 0.168563 0.346054 -0.207724 -0.0690916 -0.195151 0.473987 -0.0982827 -0.092631 0.00229992 -0.0659926 0.044405 0.474697 -0.156346 -0.0287512 -0.00893804 -0.105876 -0.0639917 -0.239555 0.0887108 -0.0485796 0.0337587 -0.104173 0.274421 -0.302124 -0.124413 -0.0381454 0.0545469 -0.181631 -0.235898 -0.288091 -0.0623046 -0.626116 -0.158249 -0.0366514 0.347653 -0.11744 -0.373713 0.210638 -0.0632148 0.0899885 0.19315 0.039052 0.244085 -0.244832 0.327048 -0.072335 0.288682 0.130019 0.0389634 0.0814353 -0.0803518 0.126864 -0.314281 0.0853644 -0.112805 -0.162986 -0.209494 0.0966524 -0.152484 -0.0836035 -0.03264 0.0371773 -0.250904 0.00538726 -0.093994 0.414381 -0.119967
16034749 -0.126526 -0.205414 0.244487 -0.158782 -0.359604 0.0769995 -0.270112 -0.0751215 -0.00446556 0.0158634 -0.239316 0.302296 -0.202424 0.258394 -0.00487358 0.0984976 0.0912676 -0.0384207 0.291004 0.055787 -0.0923673 0.121216 -0.0289406 0.47218 0.208653 -0.00467435 -0.398902 -0.153229 -0.361318 -0.3079 -0.0902898 0.0635006 -0.134862 0.187618 0.212912 -0.11252 -0.145351 -0.0766654 0.415938 -0.0607343 -0.0471472 -0.00469798 -0.0451531 0.0242941 0.534158 -0.188706 0.00644754 -0.02401 -0.121117 0.0130044 -0.321723 0.236862 -0.0930522 0.118325 0.105882 0.182244 -0.107132 -0.151661 -0.0262712 -0.0894033 -0.0925577 -0.15708 -0.145874 0.0136764 -0.486018 -0.269781 -0.0550921 0.290907 -0.0132943 -0.24852 0.214697 -0.00252062 0.0864166 0.150548 0.0707568 0.185522 -0.271094 0.422777 0.0477298 0.235075 0.218209 -0.00113268 -0.0876105 -0.150143 0.0394332 -0.141024 0.0182682 -0.143224 -0.117613 -0.413517 0.175979 0.00756939 -0.087416 0.0275664 0.0864679 -0.323183 0.0418913 0.0218729 0.271562 0.0600031
3443591 -0.132583 0.0478788 -0.0441575 -0.0864725 -0.105048 0.0326172 -0.167806 -0.131604 -0.179511 -0.0612172 -0.214733 0.0600091 -0.122895 0.29025 0.258077 -0.0629346 0.220225 0.0520565 0.167699 0.158301 -0.326897 -0.144002 0.0776419 0.1971 0.278029 0.0358153 -0.276233 0.171768 -0.222521 -0.302379 -0.112461 -0.115583 -0.118217 0.202398 0.238595 -0.221323 0.00458437 0.0422464 0.456763 0.00641697 -0.0998913 -0.0205885 -0.184838 0.0694853 0.515111 -0.18795 0.0819863 0.0864999 -0.232077 0.2391 -0.293066 0.201905 0.00131243 0.230637 0.150838 0.255241 -0.0938429 -0.202088 0.150862 0.0504263 -0.0204951 0.00333362 -0.187049 0.109505 -0.373248 0.0131307 -0.11991 0.303216 0.000731503 -0.41084 0.336523 0.0355433 0.0901017 0.169101 0.0614301 0.0628813 -0.314217 0.301102 0.0036176 0.0553202 0.231145 -0.0118909 -0.0308046 0.0928431 0.216399 -0.0661967 -0.0584594 -0.205386 -0.0834354 -0.376381 0.136399 -0.0534518 0.0134075 0.0217774 0.0609948 -0.244505 0.0994384 0.133801 0.336592 0.22226
10779412 -0.033991 -0.229925 0.225568 -0.0144465 -0.140388 -0.1591 -0.305232 0.0665998 -0.0683548 -0.0454043 0.0157068 0.18725 -0.230515 0.271565 -0.0266572 0.208142 0.0596598 0.0208082 0.0329627 -0.0545429 0.0267061 -0.100329 0.136638 0.181436 0.203622 0.0357638 -0.276405 0.0480991 -0.227815 -0.287564 -0.00977813 0.0215991 -0.236876 -0.00557662 0.313303 -0.0429646 -0.252422 -0.142904 0.311489 0.0877027 -0.0818538 -0.0266491 0.0569767 -0.119122 0.459999 -0.218364 0.175804 -0.0833526 -0.075774 -0.010521 -0.232005 -0.1157 -0.267624 0.0928803 -0.150522 0.230908 -0.17512 0.0534748 0.0101811 0.113525 -0.114572 -0.233677 -0.0460958 0.115491 -0.476491 -0.139803 -0.145179 0.330019 -0.102898 -0.33617 0.133821 -0.132039 0.0356452 -0.0218967 0.0675987 0.241481 -0.312119 0.424294 0.144573 0.284905 0.171163 -0.174597 -0.00684109 0.175437 -0.0344747 -0.142049 0.0742559 -0.344247 -0.0912665 -0.228968 0.118731 -0.00327544 0.0788936 0.183391 0.0504015 -0.360909 0.154635 0.142705 0.357021 0.135225
1183041 0.0132111 -0.0146686 0.298995 0.0109335 -0.13508 -0.0603911 -0.222032 -0.102558 -0.206714 0.178564 -0.30026 0.151156 -0.2097 0.336029 -0.09227 0.18026 0.0106402 0.0660338 0.333197 -0.0965359 -0.119129 0.107011 0.165767 0.158349 0.0725536 -0.0576432 -0.121186 -0.144854 -0.181063 -0.202286 -0.0704068 0.0161109 -0.0827548 0.0704896 0.255898 -0.0731408 -0.188676 -0.109581 0.138296 0.0857884 0.0118868 0.125664 0.129092 0.080169 0.54728 -0.0971286 -0.0374097 0.0492393 0.0172439 0.00291971 -0.0530328 -0.0233212 0.0154249 0.11843 0.146991 0.094297 -0.275666 0.0416885 -0.110905 0.0810102 -0.302447 -0.0284546 -0.354543 0.0119288 -0.391416 -0.0670284 0.0042012 0.231449 0.0375819 -0.0944246 0.182205 -0.110293 0.162284 0.127283 0.159301 0.326665 -0.484124 0.161573 -0.0798111 0.149215 0.10768 -0.0338501 -0.19136 0.182326 0.1496 0.0676854 -0.00856086 -0.101344 -0.147144 -0.272644 0.0330248 0.0361108 -0.271948 0.160249 -0.0632064 -0.286011 0.0213114 -0.0318969 0.418051 -0.0290628
14580197 -0.178789 -0.181093 0.100298 0.0387873 -0.239274 0.0849537 -0.366421 -0.278828 -0.155277 -0.0978259 -0.27516 0.19944 -0.121101 0.319196 -0.0422492 0.104457 -0.0062204 -0.0367296 0.153832 -0.238255 -0.0940246 0.166192 0.0156608 0.410816 0.232352 0.246854 -0.357913 0.169771 -0.314004 -0.253061 -0.0974889 -0.0263549 -0.282059 0.068925 0.222108 -0.150136 -0.0645463 -0.0644716 0.408008 -0.0268662 -0.086354 0.168778 -0.0613905 -0.0261863 0.414151 -0.162472 -0.0855339 0.176047 -0.225219 -0.066123 -0.243911 0.183495 -0.0755024 0.0622484 0.0833499 0.208448 -0.232789 -0.0125738 0.118656 -0.113013 -0.176542 -0.303399 -0.406679 -0.0182273 -0.423471 -0.396552 -0.0549905 0.312525 0.0735482 -0.380497 0.133047 0.0954851 -0.0258402 0.170747 0.0337223 0.323023 -0.242042 0.352359 0.0023921 0.266518 -0.11846 -0.163756 -0.201046 0.0449384 0.17513 -0.219021 -0.119781 -0.301834 -0.0511981 -0.482986 0.0469005 -0.274479 -0.342883 -0.0868881 0.146377 -0.295324 0.0129834 -0.0543082 0.321567 0.00788804
14202817 0.0447275 -0.11865 0.105098 0.202694 -0.146142 -0.249909 -0.259382 -0.333042 -0.366625 0.200397 -0.243266 0.333291 -0.309759 0.282819 -0.0570644 0.187919 0.0128837 0.24625 0.30366 -0.297994 0.0992707 0.183346 0.0862681 0.143532 0.00275336 0.0375819 -0.257233 -0.212006 -0.385217 -0.423978 -0.0939044 -0.0536752 -0.136934 0.0336447 0.245807 -0.012697 -0.089201 -0.126585 0.284464 0.280219 -0.078263 0.217524 0.147781 0.0799961 0.404865 0.118166 -0.127802 -0.0596981 -0.212266 0.00727175 0.0376344 -0.0664917 0.0159903 0.19173 0.304226 0.216937 -0.28304 -0.195329 0.0875486 -0.046857 -0.297423 -0.106153 -0.392236 -0.25838 -0.210666 -0.00285641 0.155327 0.238288 -0.0415415 -0.0341658 0.166241 -0.00452241 0.150861 0.128606 0.0519828 0.202795 -0.503929 0.2712 -0.0111085 -0.00293381 -0.00681267 0.00125258 -0.273977 0.250535 0.152236 -0.151145 -0.408277 -0.30285 -0.0807437 -0.336944 0.0329058 0.0842845 -0.219463 -0.0748239 -0.244105 -0.346609 -0.0330836 0.00542453 0.319481 -0.0544062
43153525 0.0630509 -0.296283 0.120893 0.0389992 -0.215255 -0.099745 -0.375676 -0.334555 -0.267358 0.0672318 -0.0811435 0.238048 -0.322989 0.310021 0.0735525 0.177596 0.351144 0.137288 0.294885 -0.163658 0.0990811 0.102575 -0.0293405 -0.0539693 0.0821076 -0.0173315 -0.0905782 -0.42477 -0.299518 -0.493829 -0.0101342 0.0147258 0.0280001 0.102659 0.222822 -0.127618 0.00018156 -0.264311 0.569667 0.105426 -0.0638363 0.104599 0.176205 0.123329 0.473514 -0.106285 0.0348391 0.0542182 -0.0453566 0.00170173 0.0336122 -0.0149377 -0.0991998 0.299761 -0.00309675 0.110028 -0.165761 -0.351344 -0.0543299 -0.176362 -0.491503 -0.0820057 -0.474531 -0.310901 -0.413581 0.10406 0.027449 0.32223 0.133047 0.133809 0.539456 0.127862 0.143468 0.0177277 0.11864 0.282821 -0.556719 0.292795 -0.0244446 0.0130789 0.297048 0.245832 -0.246364 0.278641 -0.124583 0.0746202 -0.422845 -0.18083 -0.32856 -0.275436 0.156097 0.234785 -0.130184 0.0484697 -0.344089 -0.217612 0.0505429 0.113299 0.51853 -0.110528
19783066 -0.0682059 -0.205323 0.0540928 0.0739221 -0.0483929 -0.122004 -0.405899 -0.427607 -0.367317 0.0979421 -0.114571 0.230006 -0.272997 0.204511 0.108773 -0.0269343 0.255435 0.109887 0.277512 -0.109268 0.0390859 0.119846 0.0401398 -0.119023 0.187408 0.0340594 -0.168928 -0.388793 -0.333398 -0.439572 -0.0219934 -0.120254 0.0139984 0.0531133 0.221807 -0.0908917 0.00713049 -0.192211 0.418844 0.133367 -0.0629164 0.156404 0.179302 0.02334 0.429201 -0.112366 -0.0226111 0.0912427 -0.18995 -0.042585 -0.0458459 -0.00738086 -0.042521 0.346692 0.160869 -0.0804724 -0.161398 -0.442798 -0.00666682 -0.175119 -0.516732 0.0412358 -0.546622 -0.285153 -0.330302 0.0125324 0.0145838 0.177193 0.0825921 0.0460103 0.511264 0.0789794 0.128697 0.0820397 0.107547 0.284994 -0.762249 0.241497 -0.00246178 0.0581031 0.364557 0.16475 -0.469545 0.246501 -0.0539145 0.0983782 -0.291217 -0.172126 -0.322344 -0.269389 -0.123997 0.104933 -0.25009 0.0332686 -0.344754 -0.296811 -0.00675669 0.078908 0.420264 -0.142229
13443352 -0.0184405 -0.177741 0.233358 0.0238758 -0.195279 -0.132751 -0.308569 -0.336269 -0.366678 0.117822 -0.0365618 0.29489 -0.235422 0.168629 0.0697465 0.115354 0.311 0.154149 0.277234 -0.181048 0.103547 0.149631 0.0996574 0.0506318 0.072636 -0.0303063 -0.0931803 -0.360428 -0.260818 -0.407387 -0.0457443 -0.0639388 0.090625 0.116312 0.208777 -0.116303 -0.0647295 -0.169341 0.386669 -0.0144805 -0.166541 0.107055 0.213748 -0.0141943 0.483979 -0.0721866 0.0665803 0.0210082 -0.247249 -0.0274848 0.112832 0.0102156 -0.121092 0.297117 0.168504 -0.0549361 -0.175664 -0.302929 -0.019837 -0.224581 -0.505504 -0.0171115 -0.37521 -0.158174 -0.304405 -0.00301461 0.0615157 0.123846 0.197051 -0.00183124 0.530846 0.223861 0.04015 -0.0785506 0.104455 0.399283 -0.500394 0.356076 0.0865261 0.114468 0.286882 0.102705 -0.376596 0.0652409 -0.0664164 0.151458 -0.371934 -0.274579 -0.309518 -0.312199 -0.0949139 0.0763103 -0.19752 -0.0273219 -0.315314 -0.278232 -0.0660173 0.0965938 0.541975 -0.0711774
17621257 -0.0955911 -0.252038 0.0984938 0.102647 -0.138534 -0.159547 -0.442725 -0.399849 -0.26709 0.0637403 -0.0295017 0.259551 -0.13555 0.162287 -0.0123997 0.211358 0.191366 0.0906303 0.223261 -0.181372 0.188255 0.210543 0.0241452 0.171969 0.122993 0.0959877 -0.259801 -0.256368 -0.286363 -0.496146 -0.0384762 0.0287941 -0.0712555 0.0515279 0.134096 -0.117883 -0.0804597 -0.144989 0.411963 -0.0666067 -0.104619 0.159013 0.138788 0.0302324 0.456665 -0.0281074 0.048079 0.0207796 -0.167744 -0.100345 0.0226364 -0.0566062 -0.158387 0.19662 0.153293 -0.0027839 -0.200216 -0.307936 0.00134697 -0.17782 -0.421917 -0.152254 -0.382139 -0.211258 -0.272055 -0.191675 -0.0419941 0.173768 0.0407536 -0.0602844 0.382901 0.0988591 0.119466 -0.00812505 0.151587 0.259953 -0.444752 0.323532 0.0988533 0.229502 0.174761 0.155608 -0.348451 0.143044 -0.071112 -0.0758413 -0.286606 -0.240015 -0.293993 -0.307504 -0.0393767 0.0406125 -0.298466 -0.133829 -0.188757 -0.246748 -0.0722645 0.060174 0.475136 -0.156031
14269220 -0.0456722 -0.323819 0.168054 0.0274486 -0.25892 -0.0432792 -0.299349 -0.180525 -0.14889 -0.159163 -0.0701853 0.232387 -0.180507 0.26658 -0.0111089 0.000279718 0.0968996 -0.0279603 0.214691 -0.0319073 -0.106283 -0.0768422 0.0749305 0.194514 0.24259 0.126581 -0.28158 -0.0730758 -0.287159 -0.280434 -0.0237241 0.126804 -0.124891 0.203991 0.252195 -0.0772073 -0.082885 -0.24656 0.41894 -0.0795377 -0.0823908 -0.0490409 -0.147017 -0.0246527 0.286771 -0.262301 0.108666 0.106475 -0.0784047 -0.0160175 -0.350182 0.115936 -0.13804 0.0436034 -0.173013 0.158549 -0.183093 -0.137054 0.00695465 0.0198423 -0.116051 -0.226808 -0.277259 -0.00751677 -0.513446 -0.228581 -0.0478882 0.283989 -0.0657694 -0.246012 0.287635 0.00786553 0.18421 0.0495582 0.0356367 0.26246 -0.423601 0.378413 0.0609931 0.284117 0.238983 -0.0320621 0.00117623 0.0350981 -0.00134837 -0.133882 0.0783009 -0.197642 -0.122819 -0.251519 0.199547 -0.03671 -0.0445 0.0523675 -0.0105428 -0.331855 0.152884 -0.0914225 0.290524 -0.0204769
7861312 0.101861 -0.149033 0.273096 0.181533 -0.153895 -0.196156 -0.157163 -0.144875 -0.191164 -0.0910885 -0.231501 0.140535 -0.145289 0.144199 -0.0600897 0.279424 0.140855 -0.132233 0.285271 -0.218863 -0.177433 -0.094675 0.251212 0.224062 0.123422 -0.0210069 -0.128612 0.0531637 -0.173417 -0.155572 -0.139465 -0.0223791 -0.124058 0.140654 0.250701 -0.162836 -0.308403 -0.271816 0.209617 -0.169301 -0.0720383 0.0426982 0.17467 0.203101 0.336271 -0.173774 0.133955 -0.00747181 -0.113003 -0.0864538 -0.123872 -0.090931 -0.029459 0.195774 -0.0449095 0.0704952 -0.304699 0.137994 0.0220865 0.0920466 -0.251654 -0.0858526 -0.125765 0.0883362 -0.395917 0.0299188 0.0312598 0.115291 0.100736 -0.181044 0.325237 0.00259598 0.00390227 0.0754188 0.10338 0.319026 -0.55608 0.218573 -0.0226037 0.146132 0.140832 -0.135472 -0.0763927 0.0333405 0.128682 0.00194774 -0.0590316 -0.249347 -0.199978 -0.202414 -0.000233287 -0.00974291 -0.122415 0.106153 -0.134783 -0.346781 -0.0229495 0.104795 0.434876 -0.00348584
18794888 -0.21891 -0.336485 0.141371 -0.104486 0.00776234 -0.29015 -0.152742 0.0845794 -0.161659 -0.0185685 0.112453 0.180014 -0.205104 0.122112 -0.0508096 0.188475 -0.0359142 0.074773 0.157123 -0.0732742 0.0900323 -0.27588 0.219878 0.162405 0.310657 0.00829576 -0.284681 0.186387 -0.297397 -0.179561 -0.157267 -0.0564727 -0.131514 0.092135 0.33798 -0.0441402 -0.233515 -0.313919 0.204238 0.376271 -0.052623 -0.196026 -0.0541262 -0.0168982 0.232841 -0.244201 0.275078 -0.0265871 -0.13665 -0.109242 -0.254789 -0.0857133 -0.396587 0.040315 -0.221085 0.0935968 -0.123982 -0.0165157 0.0324396 0.0545572 -0.122359 -0.333009 -0.097395 0.287741 -0.66642 0.000775076 -0.175121 0.231097 -0.192982 -0.31395 0.265707 -0.300431 0.218655 0.0830198 -0.0181856 0.338439 -0.458115 0.282523 0.288315 0.244286 0.25142 -0.210463 -0.0972491 0.272717 0.0365076 -0.198217 0.128219 -0.398895 -0.104375 -0.184956 -0.0508785 -0.225517 0.0786139 0.144537 -0.0365037 -0.283318 0.0104233 0.179715 0.3474 0.13454
15387870 -0.451117 -0.279325 0.138199 -0.159776 0.123726 -0.2783 -0.221877 0.17679 -0.15066 0.0306932 0.138973 0.17962 -0.258556 0.219586 -0.0116374 0.13715 -0.17275 0.0624426 0.294385 0.0273477 0.0735697 -0.225426 0.144714 0.129087 0.199696 0.0588992 -0.360882 0.298772 -0.377566 -0.227165 -0.0812234 -0.123462 -0.21335 0.119395 0.463847 0.0233084 -0.186006 -0.126867 0.325168 0.492714 -0.09085 0.0402385 -0.0731964 0.11945 0.3848 -0.0937416 0.0272029 -0.0530246 -0.158421 -0.228764 -0.251706 -0.0889713 -0.380507 0.107147 -0.0409633 0.10818 -0.136356 -0.212768 -0.0139594 0.175944 -0.250495 -0.327158 -0.152127 0.0527662 -0.532842 -0.000293109 -0.0421555 0.407679 -0.197598 -0.431814 0.264223 -0.194946 0.246875 0.174212 0.049547 0.272071 -0.32065 0.177101 0.302544 0.137653 0.241599 -0.155866 -0.0613076 0.28883 0.00533873 -0.194706 -0.049861 -0.255958 -0.157136 -0.227721 -0.0387238 -0.303308 0.0467091 0.0884 -0.0524987 -0.258308 0.19703 0.0350901 0.385868 0.14093
12771872 -0.254061 -0.223404 0.142857 -0.176823 -0.0529555 -0.246731 -0.19778 0.129151 0.0164079 0.0344991 0.0844641 0.154761 -0.195926 0.152195 -0.150012 0.227007 -0.14062 0.0482865 0.253417 -0.0484469 0.134148 -0.168693 0.125097 0.281217 0.237325 0.01376 -0.300371 0.19412 -0.278024 -0.254668 -0.0150478 0.169828 -0.170926 0.0983453 0.396394 -0.111055 -0.300131 -0.27134 0.378356 0.298305 -0.0663919 -0.0125527 0.0298288 0.176489 0.265261 -0.220532 0.188691 -0.0456879 0.0462286 -0.235749 -0.110836 -0.245589 -0.326212 0.0183479 -0.14355 0.168476 -0.13253 -0.057097 -0.202353 0.18451 -0.261167 -0.344203 -0.058067 0.117187 -0.682379 0.0607065 -0.108594 0.293096 -0.223169 -0.395049 0.222874 -0.313591 0.17118 0.204347 0.152143 0.337955 -0.261239 0.271257 0.246157 0.268704 0.160044 -0.194281 -0.080631 0.324981 0.121202 -0.187846 0.0658302 -0.339122 -0.205254 -0.327309 0.0363404 -0.213802 0.145471 0.208724 0.00522629 -0.329176 0.0730561 0.108428 0.419181 0.209704
28205471 -0.241565 -0.381116 0.115503 -0.296297 -0.105722 -0.362388 -0.336433 0.189105 -0.123404 0.0898971 0.152989 0.277126 -0.249228 0.296771 -0.227901 0.0484753 -0.228025 0.0519919 0.249636 -0.0226948 0.0968756 -0.293883 -0.0207909 0.252818 0.264756 0.0192842 -0.268396 -0.0822139 -0.357277 -0.277174 -0.0397414 0.207093 -0.0183698 -0.0330698 0.405611 0.0614563 -0.184942 -0.384186 0.423859 0.350224 -0.0458139 -0.0733784 0.139284 0.177295 0.198761 -0.31979 0.098362 -0.051705 0.145889 -0.394296 -0.214528 -0.218205 -0.370432 -0.0549629 -0.233118 0.0953031 -0.143116 -0.0966799 -0.252774 0.107758 -0.329201 -0.450218 -0.0755911 0.0483263 -0.731252 -0.0698625 -0.210284 0.263916 -0.151393 -0.411248 0.32601 -0.243318 0.350462 0.269187 0.110213 0.286881 -0.440055 0.39533 0.269357 0.322035 0.425885 -0.19082 -0.0874682 0.333688 0.0717502 -0.237632 0.0851077 -0.247186 -0.163427 -0.259452 0.152502 -0.245915 0.221323 0.181866 -0.0593254 -0.327557 0.167596 0.121544 0.393353 0.2364
15573174 -0.250394 -0.284687 0.188647 -0.316674 -0.192831 -0.147811 -0.30954 0.168415 -0.0817558 0.0624783 -0.134454 0.245857 -0.169339 0.258017 -0.181924 0.0429546 -0.204745 -0.0661036 0.331493 -0.00186366 -0.0414315 -0.16725 -0.0921044 0.430693 0.168252 -0.0416017 -0.15344 -0.0935902 -0.328361 -0.257809 -0.126975 0.224351 -0.0259373 -0.0219667 0.18107 -0.011156 -0.200751 -0.349581 0.398759 0.067058 0.013256 -0.11381 0.135257 0.20682 0.356264 -0.303491 0.0598479 0.0657203 0.191562 -0.328876 -0.23105 -0.0435539 -0.209504 0.0424289 -0.0877297 0.0063062 -0.124169 -0.0487746 -0.32204 0.0427845 -0.367439 -0.398282 -0.0914656 0.135767 -0.737042 -0.146073 -0.198003 0.13567 0.0073077 -0.381541 0.346697 -0.255829 0.201534 0.240835 0.114268 0.418052 -0.392235 0.390779 0.147712 0.419196 0.369825 0.002727 -0.0920728 0.186302 0.0747453 -0.0317919 0.162714 -0.090045 -0.27617 -0.26815 0.180197 -0.221664 -0.00557995 0.163541 0.027101 -0.295226 0.055218 0.153429 0.543678 0.246619
43989162 0.0209666 -0.224742 0.0788211 -0.280163 -0.20471 -0.178235 -0.266559 0.0837582 -0.101235 0.048429 -0.0532209 0.329484 -0.14642 0.302491 -0.219596 0.136487 -0.225125 -0.0975093 0.291637 -0.0903799 -0.0308805 -0.130698 -0.128062 0.444576 0.100497 -0.129535 -0.20881 -0.24783 -0.242234 -0.0961595 -0.347999 0.236638 -0.113914 -0.185438 0.14198 0.0605517 -0.155651 -0.461512 0.247351 -0.0107738 0.0307882 -0.183755 0.0588252 0.250593 0.30022 -0.228865 -0.0356311 -0.0248566 0.288805 -0.293337 -0.3163 0.0570102 -0.143285 0.0898872 -0.183314 0.0985607 -0.0597693 0.0203537 -0.191005 0.0191393 -0.325879 -0.468835 -0.147085 0.0641747 -0.672384 -0.12195 -0.306764 0.259122 0.224336 -0.257187 0.363535 -0.150184 0.151331 0.338171 0.120357 0.255453 -0.556831 0.327362 0.106726 0.304413 0.291571 -0.0980417 -0.119494 0.0703754 0.236044 -0.135673 0.0769232 -0.104029 -0.275379 -0.255495 0.298075 -0.16498 -0.0861733 0.0755848 0.02114 -0.25918 0.0236137 0.22933 0.556552 0.203536
24742040 -0.0718599 -0.300283 0.1415 -0.146279 -0.269238 -0.0338273 -0.374741 -0.203856 -0.0605492 -0.126796 -0.217171 0.37371 -0.166661 0.297585 -0.0798002 0.020784 0.0260845 -0.108302 0.216842 -0.108075 -0.0467338 -0.0518241 -0.162733 0.579744 0.172335 -0.0476828 -0.251918 -0.0965288 -0.310931 -0.299604 -0.137166 0.11228 -0.0474926 0.039901 0.139803 -0.0688653 -0.0303962 -0.371246 0.43373 -0.202642 -0.0494861 -0.137916 0.074171 0.129004 0.421827 -0.268565 -0.0104431 0.0385853 0.0501228 -0.243553 -0.31628 0.0699739 0.000414068 0.0985765 -0.105716 0.0299644 -0.239489 -0.0829222 -0.205272 0.0834294 -0.283367 -0.316019 -0.176121 0.0201392 -0.746001 -0.214339 -0.189614 0.107938 0.0701268 -0.327403 0.316443 -0.155439 0.0660324 0.189909 0.0545055 0.366796 -0.462813 0.431182 -0.00345303 0.536761 0.208667 0.1352 0.00039123 -0.0560698 0.0503973 -0.173393 0.218642 -0.0931752 -0.279212 -0.245617 0.253496 -0.107435 -0.232502 0.0149478 -0.0435025 -0.320245 -0.135053 0.138486 0.547109 -0.0296993
15249156 -0.00066371 -0.094958 0.271436 -0.0310089 -0.128159 -0.0627648 -0.244322 -0.15525 -0.22157 -0.0213532 -0.236197 0.165579 -0.143311 0.141721 0.0125035 0.127191 0.171329 -0.0278798 0.27699 -0.252782 -0.159387 -0.0370592 0.080338 0.354034 0.106564 -0.0441755 -0.152579 0.0908823 -0.246658 -0.156411 -0.225421 -0.0549033 -0.0434595 -0.0899635 0.142932 -0.0967307 -0.14753 -0.0833658 0.161013 -0.0189512 -0.0970512 0.0183725 0.114928 -0.00250137 0.366552 -0.131168 0.133122 0.00675408 -0.223953 -0.125694 -0.250766 0.113613 0.00304588 0.161596 0.102816 -0.050597 -0.18313 0.0648576 0.023075 -0.12894 -0.373084 -0.211418 -0.224305 0.166337 -0.374463 -0.18374 -0.126863 0.000245877 0.268352 -0.179794 0.371792 0.00430462 -0.107053 0.0799821 -0.0896411 0.502666 -0.557001 0.287628 -0.0263184 0.232268 -0.0628894 -0.0965675 -0.148262 -0.0225166 0.079531 0.0993999 -0.16148 -0.254427 -0.055838 -0.252149 -0.104501 -0.13482 -0.26512 0.00413756 -0.0232627 -0.343887 -0.182474 0.201268 0.499078 0.140929
31353077 0.0524356 -0.123354 0.305511 0.0564863 -0.166695 -0.208517 -0.154529 0.025396 -0.325259 0.0144981 -0.151258 0.172569 -0.0583588 0.205502 -0.0777496 0.146126 -0.0664104 -0.00216652 0.186267 -0.137062 -0.0207958 0.0546721 0.216977 0.186742 0.152087 -0.0298952 -0.269667 0.0605269 -0.338282 -0.155174 -0.121412 -0.214162 -0.0115685 0.0440592 0.327926 0.0532229 -0.241736 -0.0856938 -0.0681485 0.052229 -0.130312 0.0624247 0.00430192 -0.0444617 0.437682 -0.220055 0.216384 -0.015526 -0.277375 0.000909238 -0.286969 0.0103364 -0.108041 0.143526 0.0397123 0.0546534 -0.212701 -0.000992323 0.0738441 0.0502687 -0.0163953 -0.058565 -0.203742 0.0775088 -0.250057 -0.113217 -0.0221682 0.173358 0.0935613 -0.177415 0.197079 -0.105714 0.223155 0.10213 -0.0390467 0.231743 -0.606039 0.173449 0.0506022 0.0888615 0.192477 -0.249383 -0.215163 -0.116145 0.0869616 -0.0286104 0.075526 -0.219824 0.0450277 -0.204991 0.0205683 -0.00979849 -0.138113 0.169388 -0.0726593 -0.440359 -0.021369 -0.0346809 0.324898 0.0943235
692513 -0.24233 -0.170742 0.252182 -0.0375577 0.00595297 -0.306213 -0.187416 -0.0679315 -0.123339 0.10305 0.103204 0.0582394 -0.309358 0.182162 -0.101409 0.241394 0.0656157 0.0803082 0.210052 -0.00173932 -0.0175593 -0.20482 0.436005 0.0448483 0.273589 0.00695313 -0.519783 0.1633 -0.218907 -0.233377 -0.141566 0.0395479 -0.38525 0.25671 0.507385 0.017772 -0.361942 -0.244433 0.21617 0.455782 -0.0761856 0.0845804 -0.042164 -0.0477455 0.250845 -0.146888 0.105691 -0.0802769 -0.0914729 -0.0705219 -0.162591 -0.102614 -0.399131 -0.0331779 -0.144622 0.130294 -0.283337 -0.0382558 -0.0610003 0.213538 -0.300558 -0.295857 -0.19966 0.181774 -0.562294 -0.0950834 -0.0534383 0.482769 -0.444541 -0.248551 0.146528 -0.213853 0.217382 0.0709837 0.166103 0.226316 -0.430178 0.200238 0.265078 0.287468 0.148217 -0.293637 -0.147829 0.356781 0.0324069 -0.186621 -0.00410331 -0.389855 -0.10646 -0.383996 -0.134602 -0.171659 0.0357931 0.0614226 0.0961707 -0.349202 0.192259 -0.00128721 0.212393 0.0799954
25357038 -0.283951 -0.361004 0.125106 -0.191029 -0.0680302 -0.386448 -0.339159 0.252241 -0.214525 0.161336 0.191924 0.150819 -0.214856 0.258989 -0.213103 0.066731 -0.260936 0.0972457 0.225238 -0.0410933 0.129938 -0.207475 0.152622 0.0665849 0.299438 0.119819 -0.301414 0.0144614 -0.374101 -0.341438 0.0447014 0.0941615 -0.0739357 -0.0260489 0.508163 0.0755017 -0.241053 -0.24329 0.371398 0.485579 -0.0870567 0.0830965 0.113396 0.0473248 0.210078 -0.299793 0.190963 -0.0231651 -0.0127813 -0.32971 -0.157683 -0.282861 -0.459414 -0.0428817 -0.175475 0.15237 -0.165994 -0.120116 -0.196814 0.0893591 -0.274964 -0.422896 -0.14472 0.0221361 -0.568457 -0.0876782 -0.127633 0.347749 -0.23391 -0.418411 0.268075 -0.185488 0.412407 0.192907 0.0985619 0.229302 -0.400554 0.325753 0.268813 0.197443 0.403482 -0.350278 -0.203231 0.443218 0.0597644 -0.235562 -0.0460285 -0.35256 -0.0502129 -0.315675 0.0638918 -0.222237 0.251888 0.186551 -0.018717 -0.375801 0.256613 0.00262816 0.308888 0.261238
20108996 -0.16757 -0.153742 0.151395 -0.177107 -0.0127582 -0.331023 -0.237258 0.147703 -0.0851002 -0.0644796 0.195285 0.122808 -0.303961 0.270185 -0.0889781 0.141062 -0.0146949 -0.0954499 0.158626 -0.0447481 -0.00403252 -0.247762 0.0977664 0.0981424 0.192428 0.0908997 -0.323021 0.117632 -0.311384 -0.242525 0.0611844 0.158789 -0.182834 0.0803465 0.499626 0.0463334 -0.232535 -0.188034 0.398696 0.420616 -0.132511 0.0157902 0.0571425 0.0325204 0.297647 -0.168666 0.124578 -0.0287017 0.0338773 -0.181251 -0.304929 -0.205809 -0.306859 -0.0142149 -0.220349 0.218834 -0.152207 -0.0813081 -0.0391828 0.189418 -0.293878 -0.286049 -0.195297 -0.0027692 -0.520867 0.0556792 -0.159391 0.482474 -0.103891 -0.455541 0.212022 -0.0656351 0.167974 0.140981 0.112381 0.236987 -0.37802 0.314817 0.308959 0.190123 0.270508 -0.20503 -0.0243865 0.207237 -0.0560338 -0.0833315 0.0253442 -0.336105 -0.0827265 -0.272846 0.125777 -0.160844 0.235584 0.24431 0.0336716 -0.30808 0.249599 0.05487 0.319315 0.311854
12146872 -0.276656 -0.219191 0.289001 -0.0420478 0.00868387 -0.46054 -0.182923 0.198538 -0.110828 0.0833735 0.235272 0.273552 -0.364263 0.178768 -0.144952 0.257512 -0.10559 0.174285 0.126341 -0.00759408 0.103915 -0.30601 0.379549 0.203283 0.206457 -0.0466155 -0.24876 0.175061 -0.357732 -0.154506 -0.119101 0.0381345 -0.151089 0.103621 0.438482 -0.0266336 -0.41933 -0.233617 0.184479 0.342396 -0.113988 -0.0166735 0.109086 0.0764129 0.321967 -0.134938 0.154015 -0.21633 -0.135136 -0.211489 -0.0373001 -0.302744 -0.407368 -0.0240971 -0.0845469 0.189123 -0.211404 -0.0139965 -0.0571506 0.252707 -0.222372 -0.229017 0.0753127 0.213707 -0.567763 0.0840732 -0.0291596 0.295058 -0.317003 -0.449609 0.177919 -0.282283 0.16362 0.0690942 0.126642 0.454648 -0.382195 0.38273 0.359176 0.280063 0.298918 -0.308852 -0.107537 0.301203 0.0765384 -0.167123 0.0554137 -0.408287 -0.209401 -0.257553 -0.123338 -0.274718 0.190246 0.260004 -0.0674161 -0.33989 0.131897 0.206193 0.378017 0.199829
20101482 -0.324686 -0.263705 0.249493 -0.0216321 -0.018759 -0.479978 -0.190039 0.168474 -0.149837 -0.000872929 0.12026 0.215654 -0.229124 0.129946 -0.213407 0.212394 -0.13288 0.0185489 0.227902 -0.0210309 0.0893164 -0.308799 0.302518 0.271459 0.289764 0.0248918 -0.309982 0.269324 -0.372306 -0.216467 -0.0382808 0.0538442 -0.10124 0.232722 0.498644 -0.0736859 -0.40324 -0.298795 0.297865 0.276611 -0.158855 0.0129862 0.103089 0.115042 0.254541 -0.230761 0.266268 -0.0680807 -0.135505 -0.285792 -0.110738 -0.30644 -0.424804 -0.0123506 -0.114552 0.0520092 -0.306888 -0.0498466 -0.110074 0.171136 -0.251703 -0.247667 0.047742 0.186351 -0.63182 0.026039 -0.0334395 0.174191 -0.323393 -0.471095 0.219634 -0.307516 0.315597 0.103481 0.127142 0.333144 -0.379291 0.321816 0.327382 0.317232 0.338727 -0.291802 -0.105818 0.183302 0.0415263 -0.242378 0.154618 -0.377171 -0.155167 -0.30566 -0.106387 -0.298988 0.189199 0.142284 -0.045688 -0.373999 0.117726 0.0359735 0.347957 0.167248
16371487 -0.164099 -0.16935 0.131841 -0.0182281 -0.0200167 -0.251282 -0.241782 -0.00241343 -0.0814504 -0.0262175 0.245715 0.188239 -0.197848 0.131385 -0.061269 0.151866 0.0565293 0.104958 0.170507 0.0397891 0.080958 -0.144947 0.296218 0.0950408 0.309232 0.0274354 -0.259056 0.0511007 -0.213095 -0.150585 0.0200194 0.1036 -0.111538 0.146498 0.385807 -0.155345 -0.301386 -0.193898 0.300968 0.132674 -0.0841517 -0.0182749 -0.0367503 0.0376548 0.347205 -0.200104 0.221499 -0.00903208 -0.068636 -0.130259 -0.127983 -0.255821 -0.297048 -0.121735 -0.0688412 0.266985 -0.20356 -0.104713 0.0483008 0.0231267 -0.191983 -0.111918 -0.183131 0.079437 -0.565011 -0.0954661 -0.145532 0.216547 -0.212701 -0.403774 0.179819 -0.136449 0.162542 0.0761757 0.15514 0.409896 -0.339057 0.336317 0.25701 0.216864 0.231543 -0.251522 -0.186971 0.250719 0.133634 -0.111031 0.0995484 -0.384081 -0.168863 -0.247401 -0.117581 -0.142114 0.0670008 0.249496 -0.0406726 -0.277803 0.109511 0.071794 0.303703 0.0798623
30072713 -0.164578 -0.216908 0.239269 -0.0462109 -0.0460637 -0.514147 -0.198172 0.203611 -0.154397 0.11804 0.268571 0.204119 -0.294328 0.173247 -0.227241 0.169369 -0.138328 0.157082 0.139247 0.00379623 0.0994899 -0.286649 0.367835 0.118262 0.241555 -0.0360649 -0.271745 -0.0216136 -0.331143 -0.195893 -0.0737358 0.0997747 -0.110567 0.0679603 0.495154 0.0417723 -0.403765 -0.299362 0.226416 0.383913 -0.143321 0.013387 0.130906 0.0829049 0.191499 -0.230104 0.182274 -0.180284 -0.0669156 -0.284536 -0.0426342 -0.36299 -0.41322 -0.0734367 -0.139999 0.209763 -0.206446 -0.00598949 -0.13821 0.22645 -0.270825 -0.257747 0.0389456 0.114755 -0.611975 0.014554 -0.110512 0.285374 -0.308678 -0.381143 0.205808 -0.223808 0.297088 0.147939 0.158292 0.333506 -0.468407 0.348853 0.347125 0.285581 0.397477 -0.406384 -0.171059 0.317046 0.119813 -0.202398 0.0451939 -0.39837 -0.140795 -0.3194 -0.0572804 -0.159957 0.21892 0.285655 -0.0450489 -0.360322 0.127987 0.136951 0.282705 0.225004
16792453 -0.236449 -0.190542 0.196416 -0.183373 0.00739046 -0.31526 -0.150376 0.173557 -0.0626187 0.0667223 0.105056 0.271884 -0.299922 0.141459 -0.0653109 0.195148 -0.0870766 -0.0953576 0.192572 -0.00355192 0.0164568 -0.280593 0.16859 0.254926 0.214564 -0.0179323 -0.293889 0.20967 -0.342242 -0.20565 -0.0564853 0.000215013 -0.158072 0.100593 0.500686 -0.0584616 -0.274168 -0.219406 0.324716 0.411406 -0.0900574 -0.11827 0.126246 0.0644798 0.349669 -0.114777 0.150011 -0.189129 -0.0755124 -0.182147 -0.203282 -0.14125 -0.356466 0.171473 -0.189908 0.0485926 -0.156446 -0.0797053 -0.121049 0.172227 -0.228734 -0.230856 0.0151315 0.144248 -0.593765 0.18288 -0.0272787 0.310801 -0.198767 -0.412093 0.235838 -0.275861 0.183767 0.144411 0.11524 0.142042 -0.390152 0.251064 0.249598 0.167874 0.366291 -0.173631 -0.022656 0.143584 0.0177649 -0.196273 0.101446 -0.329994 -0.171225 -0.22188 -0.0300814 -0.169462 0.291783 0.171606 -0.0853996 -0.329427 0.122624 0.0988836 0.367426 0.153991
32805127 -0.249003 -0.346242 0.21058 -0.147317 -0.0520991 -0.237614 -0.165116 0.0486977 -0.194991 0.0535374 0.0295438 0.173974 -0.241514 0.192605 -0.0590785 0.23903 -0.0765008 0.0699203 0.252232 -0.0584997 0.067785 -0.206541 0.247965 0.204946 0.26115 0.0311464 -0.3902 0.186009 -0.364914 -0.228927 -0.142955 -0.0154387 -0.155042 0.1539 0.373917 0.0625457 -0.207184 -0.214699 0.164682 0.350747 -0.0958084 -0.126989 -0.0778761 -0.0447332 0.277329 -0.139493 0.23593 -0.0174397 -0.116647 -0.0655269 -0.276912 0.054945 -0.338978 0.0494156 -0.168531 0.0923864 -0.165624 -0.0176574 -0.0364141 0.162216 -0.0945344 -0.382814 -0.109606 0.269377 -0.478475 0.0435687 -0.0678852 0.35976 -0.24519 -0.352812 0.18685 -0.192967 0.26915 -0.0156404 0.0278547 0.243884 -0.356031 0.247345 0.233315 0.20461 0.225767 -0.232945 -0.0399899 0.237937 0.0362747 -0.168292 0.0641764 -0.346827 -0.115682 -0.297748 0.0933822 -0.229537 0.0763056 0.0320529 -0.0220108 -0.30263 0.108427 0.0947781 0.304211 0.204187
52475166 0.214163 0.185133 -0.0150026 -0.0966645 -0.155937 0.12539 -0.0448212 -0.162103 -0.289742 0.00680027 -0.214645 0.0951656 -0.0363747 0.17361 -0.0232164 0.0335185 -0.159677 0.0960735 0.281741 -0.190711 0.0851446 0.232327 0.16973 0.219326 0.0793006 0.158181 -0.221461 -0.047888 -0.267889 -0.125926 -0.0455505 0.0176209 -0.182561 0.0959863 0.358143 -0.0233595 -0.0769651 -0.0895098 0.322657 0.234122 -0.262103 0.0280923 -0.175715 0.054704 0.236142 -0.175877 0.107205 0.214849 -0.130717 0.0270372 -0.200258 0.0627385 0.0631595 0.206616 0.142728 0.327248 -0.046272 0.0135852 -0.0840055 -0.0287393 -0.182826 -0.174385 -0.369856 0.00647975 -0.475295 -0.00803432 -0.102159 0.233163 0.210609 -0.264768 0.142438 0.0333799 -0.0199956 0.21452 0.0982572 0.287947 -0.391226 0.225739 -0.0770051 0.0605085 -0.104246 -0.383072 -0.390624 0.109251 0.578272 -0.0215725 -0.20965 -0.474996 -0.060441 -0.684928 0.17944 0.00121656 -0.278249 0.0975503 0.127248 -0.408802 -0.151982 0.0626226 0.245493 0.336002
9412482 0.413256 0.299105 0.0310546 0.102181 -0.157165 -0.0495483 0.0147774 -0.165039 -0.413181 0.0777005 -0.223117 0.105333 -0.00971652 0.161599 -0.0452525 0.0122597 -0.11999 0.0709031 0.467248 -0.262949 -0.0585175 0.228957 0.239275 0.164405 0.0255443 0.0234928 -0.175612 -0.20925 -0.267834 -0.145674 -0.0602063 0.0566398 -0.153013 -0.00958295 0.34713 0.0633251 -0.150602 -0.130459 0.2231 0.0592945 -0.229933 0.0245685 -0.169649 -0.0154677 0.37208 -0.0953499 0.228348 0.152417 -0.155444 0.0778021 -0.336913 -0.0335949 0.206751 0.203435 0.27165 0.34948 -0.131671 -0.0620535 -0.000486693 -0.0310756 -0.204109 -0.10414 -0.446638 -0.0730767 -0.342018 0.00400321 -0.0341088 0.154696 0.365511 -0.269464 0.255506 0.090411 0.0285246 0.217096 0.0626111 0.329352 -0.674674 0.258676 -0.0385361 -0.0204743 -0.0692695 -0.352216 -0.459773 0.0439881 0.53899 0.138242 -0.181664 -0.512551 -0.0612116 -0.557622 0.146353 0.149919 -0.233866 0.254493 -0.0143927 -0.527227 -0.17963 -0.00122316 0.374029 0.336525
15209941 0.141177 0.0293831 0.188396 -0.119276 -0.180891 0.131843 -0.0251039 0.00609332 -0.27505 0.0544674 -0.376551 0.202066 -0.141303 0.228188 0.123909 0.125566 0.031298 0.150661 0.358194 0.0154352 -0.0103658 0.194143 0.111427 0.264528 0.0650408 -0.00763672 -0.113127 -0.13913 -0.394831 -0.217764 -0.167685 -0.257777 0.0121652 0.148252 0.272616 -0.225073 -0.115943 0.017482 0.229337 0.302372 -0.188081 -0.0522207 -0.0814756 0.104798 0.532602 -0.178915 0.126171 0.036723 -0.224554 0.125643 -0.211669 0.244643 0.0274607 0.413348 0.22544 0.237863 0.0197402 -0.0593223 -0.0496031 -0.12043 -0.0703107 0.140128 -0.295635 0.115809 -0.534961 0.121119 -0.084025 0.128743 0.15589 0.0583098 0.268974 -0.200403 0.0803023 0.228547 -0.00420954 0.279081 -0.586396 0.189355 -0.220267 -0.0654723 0.189603 -0.0323549 -0.239459 0.099503 0.354595 -0.0080497 -0.207511 -0.17005 -0.0767466 -0.437083 0.0878985 0.259634 -0.285972 0.23414 -0.0282001 -0.423348 -0.167641 0.21415 0.290355 0.161439
8572352 0.28842 0.109371 0.170059 -0.0348834 -0.158258 -0.0220589 -0.0976381 -0.241652 -0.440428 0.141212 -0.255555 0.233417 -0.161049 0.195513 0.0436006 0.115174 0.122995 0.147571 0.465914 -0.229721 0.151065 0.261731 0.10863 0.0707814 -0.133808 -0.0158823 -0.0688096 -0.329002 -0.241399 -0.2645 -0.0764461 -0.222077 0.0751124 0.170817 0.432522 -0.0927919 -0.0646779 -0.114651 0.388483 0.194804 -0.247518 0.0921349 0.113302 0.0943295 0.545277 -0.065126 0.0633738 0.0800755 -0.186583 0.0399081 -0.0457459 0.0445519 0.0464993 0.486206 0.331879 0.0426711 -0.187309 -0.215714 -0.100644 -0.237368 -0.433856 0.193887 -0.462836 -0.102195 -0.414587 0.188436 0.04863 0.0223984 0.335897 0.123587 0.454072 0.0565647 0.0745779 0.163855 0.0939277 0.287955 -0.618434 0.258584 -0.181471 -0.118848 0.13992 -0.0172615 -0.452863 0.00975528 0.230299 0.171512 -0.418176 -0.313055 -0.198418 -0.483436 -0.0137695 0.230046 -0.231658 0.154376 -0.256466 -0.452643 -0.124219 0.0684341 0.445969 0.0652573
7805942 0.524829 0.110214 0.126535 -0.0959069 -0.0875635 -0.115356 -0.0142253 -0.203053 -0.559562 0.0180597 -0.213907 0.242264 0.0441758 0.184494 -0.0782498 0.204722 -0.0824002 0.0451931 0.525432 -0.250473 0.298903 0.182966 0.105114 0.125585 -0.165943 -0.0132939 -0.189346 -0.135934 -0.155142 -0.132767 -0.183727 -0.165655 0.0461698 0.237497 0.482308 -0.00241817 -0.106987 -0.256078 0.29225 0.192079 -0.320274 -0.0389915 -0.0470457 0.219507 0.470716 -0.142564 0.230822 0.185167 0.00506848 -0.00520151 -0.242686 -0.00745712 -0.0144263 0.398438 0.171909 0.0983551 -0.300222 -0.102275 -0.0616086 -0.267388 -0.319995 0.0733703 -0.45533 0.0680855 -0.489258 0.19871 -0.13348 -0.143718 0.345596 0.138974 0.358807 -0.155784 0.249716 0.310278 0.0886112 0.185548 -0.673622 0.230517 -0.240918 -0.0769197 0.0320719 -0.161942 -0.41825 -0.0550842 0.418229 0.0548966 -0.224027 -0.321484 -0.0585696 -0.443257 0.163378 0.231117 -0.199118 0.120712 -0.189623 -0.580999 -0.15564 0.0279383 0.35493 0.167981
10363842 0.437716 0.126583 0.371956 -0.0637112 -0.251392 -0.0338631 0.0661712 -0.12234 -0.395452 -0.077201 -0.184945 0.280194 -0.0918308 0.177872 0.0300437 0.087536 0.104478 0.0162014 0.450355 -0.199511 0.0595332 0.0987883 0.158038 0.249184 -0.0678214 -0.174131 -0.138688 -0.10384 -0.340378 -0.0199959 -0.163971 -0.214588 0.0311961 0.18716 0.427253 -0.0576638 -0.190055 -0.158918 0.199191 0.170266 -0.328427 -0.125187 -0.108019 0.025283 0.486464 -0.184283 0.269348 0.0262468 -0.248023 0.0315888 -0.278975 0.136861 0.0720417 0.295831 0.0847176 0.221642 -0.182638 -0.00614836 0.0616868 -0.1495 -0.259939 -0.0181002 -0.315543 0.0701824 -0.561197 0.117809 -0.0175392 -0.00485677 0.413122 0.0113877 0.382344 -0.0391297 -0.0441592 0.150775 -0.120093 0.492851 -0.667373 0.274755 -0.116436 -0.00550665 0.100217 -0.165837 -0.216969 -0.253688 0.314608 0.160377 -0.171515 -0.311772 -0.0883722 -0.255887 0.0809378 0.22642 -0.199804 0.239777 -0.133229 -0.499123 -0.275575 0.136719 0.423674 0.219482
9247852 0.408071 0.0716683 0.169516 0.095688 -0.174693 -0.0626595 -0.103123 -0.218096 -0.441885 0.007408 -0.0753345 0.268552 -0.0155622 0.123248 -0.00590106 0.209237 -0.00899849 0.226491 0.354067 -0.19423 0.181503 0.169911 0.287118 0.166672 -0.00909446 -0.057787 -0.212987 -0.106191 -0.185912 -0.147256 -0.21376 -0.0100275 -0.0381167 0.168082 0.301093 -0.0781522 -0.201336 -0.247778 0.146578 -0.0666871 -0.299375 -0.0805155 -0.243145 0.0266043 0.40268 -0.160565 0.333277 0.123423 -0.0830727 0.206161 -0.232279 0.025521 -0.0515573 0.229058 0.184615 0.335017 -0.132064 -0.0584011 0.00709149 -0.121119 -0.10531 0.0498247 -0.40431 0.0800614 -0.433171 0.0345897 -0.168498 0.0720801 0.237375 0.0423699 0.321399 -0.12358 0.224646 0.108414 0.0794899 0.346433 -0.603408 0.244695 -0.148203 0.00152338 0.014413 -0.156269 -0.367515 -0.0213166 0.447322 0.0222061 -0.0836044 -0.356998 -0.109464 -0.421525 0.119623 0.22432 -0.204719 0.228497 -0.129611 -0.497595 -0.118893 0.135137 0.388234 0.15012
16207356 0.360182 0.0550199 0.0525595 -0.0103888 -0.133863 -0.0302824 -0.0991536 -0.235126 -0.378524 -0.0586106 -0.172909 0.150138 0.0422851 0.0714397 0.00441206 0.0896561 0.0379336 0.0243374 0.367375 -0.187602 0.132747 0.136999 0.208764 0.135452 0.0803867 0.0380799 -0.162817 -0.110817 -0.203031 -0.0664158 -0.0813329 -0.135128 0.0194511 0.183441 0.380359 -0.0544706 -0.114724 -0.254518 0.303366 0.00111846 -0.288369 -0.114165 -0.117079 0.0959789 0.348054 -0.221382 0.296092 0.226358 -0.168697 0.0275676 -0.292136 0.0197021 0.0556823 0.30763 0.149096 0.186016 -0.17092 -0.0621458 0.00645813 -0.184945 -0.19128 -0.010582 -0.363745 0.0382508 -0.489073 0.0815423 -0.0848506 -0.0061037 0.33213 -0.124953 0.297118 -0.00517754 0.0909593 0.182338 0.0788401 0.346702 -0.623012 0.252322 -0.0751942 0.0049527 0.0296132 -0.240037 -0.406769 -0.0474174 0.429022 0.0569161 -0.124042 -0.481928 -0.120284 -0.505664 0.111202 0.120476 -0.229876 0.191754 -0.158657 -0.472006 -0.214927 0.11368 0.328428 0.212919
6297852 -0.208927 -0.143851 0.121388 0.00324603 -0.00331131 -0.0674999 -0.277572 -0.00481882 -0.241866 0.156497 -0.255109 0.158511 -0.357566 0.26903 0.076762 0.0283158 0.112957 0.151387 0.224943 -0.217481 -0.138604 0.0476892 0.0697686 -0.00599241 0.13989 0.0406128 -0.0498033 -0.118614 -0.213477 -0.228987 -0.0100923 -0.201906 -0.0554551 -0.0567488 0.311185 -0.0885065 -0.0716813 -0.113856 0.283602 0.0611159 0.0824332 0.129916 0.241584 -0.12083 0.543178 -0.10056 0.0143554 0.117881 -0.154635 0.00143094 -0.189805 0.00471359 -0.0818539 0.113821 0.252624 0.0467051 -0.151687 -0.13511 0.0862662 -0.128605 -0.226626 0.0857728 -0.423761 0.00845965 -0.271348 -0.076313 0.0458971 0.214465 0.167763 -0.272927 0.286573 0.0699309 -0.0110872 -0.0377816 0.105629 0.410974 -0.489296 0.340821 0.0689587 -0.0225925 0.107546 -0.0487042 -0.368227 0.244099 -0.0396344 0.108444 -0.0861019 -0.400596 -0.109221 -0.365927 -0.160848 -0.190068 -0.126538 0.305606 -0.216214 -0.282189 0.143506 0.150391 0.376374 0.0240947
4258041 -0.00270159 -0.150372 0.0952869 0.0959446 -0.126354 -0.243263 -0.417604 -0.390968 -0.391917 0.254102 -0.0363576 0.272613 -0.356401 0.279761 0.044235 0.119511 0.372604 0.187843 0.32794 -0.160396 0.0203037 0.0937653 0.140814 -0.118345 0.146078 -0.00641373 -0.0762349 -0.470907 -0.246712 -0.421513 -0.011624 0.0172178 0.0675802 0.086386 0.293797 -0.166283 -0.0300035 -0.24162 0.502402 0.0960461 -0.00528171 0.231845 0.274956 0.0653129 0.507173 -0.0250519 -0.00152365 0.00969645 -0.139429 0.011608 0.116461 -0.107222 -0.0959062 0.248256 0.23393 0.0210459 -0.231078 -0.443766 0.00944866 -0.287694 -0.581304 0.0459691 -0.555931 -0.32325 -0.274289 0.057592 0.112282 0.284107 0.126944 0.0444573 0.548403 0.210117 0.200596 0.0266554 0.222515 0.305128 -0.68015 0.315741 0.025918 -0.0639031 0.329479 0.109986 -0.509957 0.31141 -0.000637399 0.0680575 -0.472136 -0.329745 -0.29295 -0.365705 -0.132734 0.0852078 -0.130872 0.0206753 -0.414248 -0.274654 0.0628528 0.0424815 0.496651 -0.168194
22205008 0.326931 -0.0174566 0.0809473 -0.0311463 0.0178681 -0.109289 -0.0746571 -0.318795 -0.469274 -0.0281577 -0.0694328 0.240681 -0.0844156 0.188981 -0.026581 0.274579 -0.000143442 0.180845 0.380489 -0.252681 0.272601 0.0511983 0.146452 0.0838132 -0.0723288 -0.030837 -0.280731 -0.0064907 -0.05383 -0.124403 -0.328258 -0.0746756 -0.210996 0.24303 0.332495 -0.0196251 -0.098982 -0.30851 0.217037 0.0854124 -0.222027 -0.0846297 -0.187119 0.106611 0.392364 -0.0678363 0.201749 0.14205 0.00960871 0.0521154 -0.234165 0.0818338 -0.120172 0.209784 0.0319771 0.101535 -0.258245 -0.0913607 0.153241 -0.155789 -0.268908 -0.103482 -0.398557 0.161427 -0.437048 0.0662806 -0.150001 0.0353372 0.214961 0.0337216 0.308372 -0.0986181 0.125252 0.0638943 0.125647 0.219738 -0.563434 0.245548 -0.0164285 0.0631024 -0.100095 -0.135689 -0.328131 0.0267856 0.335782 -0.0482027 -0.160302 -0.439537 -0.143575 -0.447777 0.158869 0.0211282 -0.26868 -0.0433984 -0.158424 -0.386734 -0.0537032 0.132128 0.371726 0.0819938
785 0.39553 0.0566877 0.0506591 -0.0146341 -0.000310198 -0.158108 -0.135752 -0.244248 -0.423893 -0.106658 0.0890794 0.255464 -0.0370562 0.264733 -0.0342095 0.207146 0.0501808 0.133197 0.316462 -0.153877 0.168636 0.0397032 0.167227 0.0643424 -0.00846277 -0.0218136 -0.243516 -0.0913692 0.019997 0.0427771 -0.220546 -0.076097 -0.056573 0.1847 0.420686 -0.0150395 -0.0658373 -0.239173 0.199454 -0.0627847 -0.24037 -0.0493172 -0.195929 0.189059 0.48385 -0.147073 0.138498 0.120304 -0.0239076 0.00153289 -0.315028 -0.0217895 -0.006713 0.108845 0.0863696 0.205668 -0.28739 -0.0774584 0.191603 -0.128198 -0.212954 0.0444162 -0.419861 0.0792983 -0.413893 -0.0285745 -0.230346 0.0604827 0.324036 -0.132539 0.32949 0.049118 0.164363 0.220722 0.165142 0.275844 -0.588332 0.313205 -0.0254873 0.0256487 -0.044595 -0.315371 -0.320945 -0.0627165 0.437617 -0.0269651 -0.0886468 -0.418067 -0.0401501 -0.415876 0.172318 0.00670584 -0.265391 0.0977906 -0.174281 -0.394776 -0.00147346 0.0456208 0.373546 0.0782806
17104259 0.380428 0.0465666 0.0620051 -0.0755994 -0.0328377 -0.144102 -0.0606959 -0.259264 -0.494026 -0.0830248 0.012358 0.308306 -0.162105 0.359844 0.0221532 0.43865 0.0203141 0.160803 0.197118 -0.334538 0.211453 -0.0131397 0.0725565 0.0775078 -0.172922 -0.0415148 -0.300016 0.0693565 -0.0101851 -0.0663258 -0.466357 -0.0705196 -0.237733 0.143316 0.352336 0.0582047 -0.0852325 -0.373966 0.109562 0.143685 -0.228782 -0.00414669 -0.179003 0.132525 0.431482 -0.0930542 0.0629118 -0.00175147 0.0723998 0.14428 -0.228371 0.151519 -0.18722 0.286838 -0.161274 0.117836 -0.189781 -0.00120215 0.179277 -0.0693575 -0.221582 -0.117164 -0.472351 0.109721 -0.342117 0.112505 -0.167054 0.341072 0.297805 0.11866 0.334716 -0.0403099 0.0729942 0.0762406 0.14826 0.0388749 -0.57531 0.224106 -0.0432949 -0.0575522 -0.0508055 -0.124165 -0.25327 0.0377089 0.38315 -0.15392 -0.233501 -0.347171 -0.109481 -0.29213 0.223166 -0.00715246 -0.218553 -0.135977 -0.10915 -0.369915 0.119115 0.150276 0.486801 0.0407229
51890015 0.285042 -0.0265349 0.155352 -0.0023784 0.00312516 -0.293571 -0.155515 -0.282526 -0.491828 0.0818246 -0.166665 0.28164 -0.180927 0.254422 -0.0346701 0.323009 0.103872 0.199771 0.424488 -0.20306 0.127816 -0.0340802 0.0975462 0.027724 -0.14799 -0.0566281 -0.259274 -0.0854846 -0.0225574 -0.10253 -0.343079 -0.157889 -0.132168 0.271885 0.410857 0.00784295 -0.152331 -0.398287 0.291832 0.11511 -0.155901 0.076299 0.0405438 0.268718 0.471254 -0.0542649 0.0426195 0.0590853 0.0518064 0.0619728 -0.14512 0.040255 -0.150406 0.254207 0.208902 -0.0295081 -0.328504 -0.131117 0.08285 -0.291491 -0.342726 0.13172 -0.429901 0.0497537 -0.325294 0.0438204 -0.0250924 0.0355459 0.157176 0.205763 0.364651 -0.103934 0.260482 0.229397 0.209541 0.141085 -0.602541 0.275017 -0.0810621 -0.128175 0.0661318 -0.0314154 -0.364698 0.0934232 0.252302 -0.0539234 -0.279855 -0.32468 -0.130894 -0.379347 0.0244357 0.0309546 -0.145723 0.0245413 -0.320849 -0.442016 0.0934434 0.101044 0.310221 -0.0230317
16911445 0.185403 -0.176794 0.173848 0.107119 -0.146469 -0.218301 -0.343374 -0.38725 -0.430571 0.110689 -0.109181 0.31951 -0.256498 0.263276 0.0168676 0.268987 0.295168 0.171987 0.350574 -0.225452 0.141762 0.135261 0.0637001 0.0132778 -0.00801517 -0.024602 -0.174548 -0.383436 -0.24627 -0.418034 -0.12881 -0.0440854 -0.00304564 0.121813 0.269925 -0.0765771 -0.0942011 -0.288195 0.402078 0.0718105 -0.121283 0.136158 0.176486 0.134917 0.530645 -0.0309301 0.0484667 -0.00470005 -0.101094 0.00472746 0.0160575 -0.0384618 -0.0964601 0.33104 0.169726 -0.00342586 -0.261076 -0.302664 0.0129996 -0.25006 -0.490213 0.0322188 -0.504812 -0.202572 -0.308526 0.0180571 0.0231025 0.180751 0.157401 0.184564 0.50017 0.072411 0.182405 0.0757388 0.160492 0.284979 -0.699672 0.304481 -0.0377904 -0.0090846 0.223514 0.120498 -0.393207 0.184214 0.0225116 0.0412447 -0.427408 -0.256236 -0.24401 -0.314603 0.018478 0.185503 -0.235157 -0.00843706 -0.369923 -0.358599 -0.0133989 0.0811645 0.508007 -0.12762
15837189 -0.0395425 -0.129619 0.145344 0.0488478 -0.101054 -0.153225 -0.349617 -0.306983 -0.415402 0.09358 -0.0620879 0.303258 -0.287259 0.270387 0.0886254 0.140268 0.209232 0.169994 0.284713 -0.16396 0.140438 0.188527 0.0399023 -0.0381436 0.0593012 0.0455733 -0.123699 -0.315452 -0.289402 -0.474934 -0.0385954 -0.0567509 0.0477469 0.129 0.227144 -0.145795 -0.0562242 -0.11903 0.44641 0.110083 -0.135518 0.218898 0.181393 0.1036 0.546578 -0.0718623 -0.0166408 0.0263773 -0.214842 3.57192e-05 0.0898294 -0.0628384 -0.123208 0.34208 0.210329 -0.013906 -0.179731 -0.390794 0.0159803 -0.194435 -0.522131 0.0781418 -0.481806 -0.255605 -0.282516 0.0108413 0.0370514 0.19276 0.146688 0.0175624 0.49811 0.114732 0.118695 0.0256575 0.139186 0.319961 -0.580904 0.317253 0.053133 0.0285035 0.267492 0.116198 -0.421902 0.168776 -0.00817653 0.104831 -0.397959 -0.195521 -0.263752 -0.295884 -0.0747248 0.0848938 -0.21279 -0.0567621 -0.304046 -0.306363 0.0700067 0.0475218 0.533754 -0.0887688
14843424 -0.107614 -0.280036 0.123705 0.0409105 -0.0615878 -0.121902 -0.411472 -0.335602 -0.383293 0.0853361 -0.142589 0.264068 -0.27399 0.175554 0.124195 0.0954438 0.220863 0.191392 0.272245 -0.14515 0.136019 0.177604 0.0361589 -0.103205 0.166344 0.0469248 -0.162256 -0.355902 -0.327986 -0.480634 -0.0326463 -0.152404 0.0122169 0.0786873 0.175172 -0.107312 -0.0604124 -0.171058 0.421344 0.0754762 -0.0948887 0.152707 0.200364 0.0940375 0.453178 -0.128645 0.0313633 0.0785999 -0.228206 -0.0370092 0.00441301 -0.0255721 -0.121117 0.337184 0.213672 -0.0337366 -0.0936154 -0.342262 0.0606249 -0.21033 -0.431175 0.0349995 -0.446899 -0.248941 -0.282644 -0.0403855 0.0332354 0.17238 0.105723 -0.000650432 0.478153 0.110939 0.0594683 -0.00890806 0.128438 0.381266 -0.647696 0.282532 0.094962 0.0158385 0.2955 0.0984379 -0.451969 0.259189 -0.00745039 0.102019 -0.34948 -0.257195 -0.312231 -0.316206 -0.100982 0.0817207 -0.266296 0.0327256 -0.376089 -0.297591 0.0221676 0.181257 0.442835 -0.0520797
16567106 -0.258898 -0.3069 0.212325 -0.0772084 -0.174251 -0.169478 -0.321654 0.0543729 -0.0278515 -0.186565 -0.0332727 0.300081 -0.133215 0.277832 -0.0940043 0.0905605 0.0319036 -0.173259 0.282013 -0.047058 -0.0551333 -0.22037 -0.0804034 0.524284 0.261249 0.152881 -0.262287 0.251361 -0.380495 -0.296007 0.0586644 0.162995 -0.0802957 0.243868 0.35556 -0.151626 -0.131221 -0.192079 0.598736 0.0197356 -0.0868324 -0.0325512 0.0193606 0.0949241 0.391221 -0.233563 0.165254 -0.00980243 -0.099336 -0.266614 -0.358288 -0.102191 -0.231051 -0.00172589 -0.0876326 0.0705241 -0.292724 -0.144096 -0.102543 -0.0068054 -0.192862 -0.295095 -0.0513953 0.0283873 -0.646833 -0.189171 -0.0261096 0.15343 -0.0580587 -0.498922 0.288408 -0.140157 0.196676 0.13034 -0.0257641 0.330324 -0.233229 0.415494 0.121431 0.326753 0.201008 0.0463977 0.107209 -0.0412532 -0.0556629 -0.27112 0.126702 -0.187719 -0.103931 -0.209854 0.132841 -0.221699 0.114582 0.0256159 0.0178192 -0.344985 0.0810162 -0.0620153 0.393065 0.0444292
558331582 -0.188995 -0.188498 0.147423 -0.152749 -0.275132 -0.146107 -0.390677 -0.142443 -0.0991759 0.014367 -0.00975461 0.421399 -0.165474 0.296977 -0.179522 0.112398 -0.0451525 -0.0752701 0.178624 -0.00628243 -0.0324618 -0.0512969 0.00563056 0.562554 0.242263 -0.0494598 -0.333148 -0.176899 -0.291749 -0.0990633 -0.230567 0.254928 -0.114209 0.056694 0.125489 -0.0260377 -0.15426 -0.302148 0.279358 -0.0981502 -0.0666406 -0.121784 -0.0141918 0.0730229 0.400203 -0.124659 -0.108656 0.0144924 0.0760233 -0.188682 -0.244854 0.127908 -0.177579 -0.079282 -0.00399532 0.15621 -0.205205 -0.0321128 -0.0403944 -0.068541 -0.299567 -0.377003 -0.210448 0.0286013 -0.619722 -0.34704 -0.219041 0.259502 0.0224662 -0.379625 0.142673 -0.0569956 0.178615 0.190504 0.154986 0.312404 -0.336853 0.436187 0.169064 0.454533 0.228861 -0.0307033 -0.105599 -0.0561939 0.199544 -0.230749 0.143697 -0.121358 -0.241613 -0.320126 0.140905 -0.217232 -0.233697 -0.100077 0.0706187 -0.166922 -0.00717775 0.100549 0.424919 0.0114497
8213742 0.0102 -0.122872 0.15015 0.0621309 -0.134533 -0.0868341 -0.231907 -0.240188 -0.278921 0.154447 -0.0254941 0.22748 -0.353713 0.18705 0.074782 0.155553 0.255675 0.256858 0.376297 -0.112096 0.00778657 0.111099 0.126272 0.0208232 0.101203 -0.110184 -0.0885284 -0.42491 -0.339639 -0.387099 -0.124578 0.119004 -0.0761395 0.0526457 0.0949581 -0.171987 -0.118264 -0.184058 0.318432 0.0597947 -0.057456 0.0503956 0.0134457 0.0271368 0.382996 -0.0187994 0.105266 -0.0604434 -0.1262 0.0717666 -0.0294428 0.0664909 -0.0731075 0.154685 0.162374 0.186613 0.0098058 -0.315007 0.0400251 -0.123255 -0.403724 -0.0851316 -0.381225 -0.20393 -0.340866 0.0149773 0.00659951 0.303632 0.14194 0.052579 0.484175 0.10035 0.0740508 -0.0484217 0.0677612 0.425391 -0.615134 0.26951 0.098206 0.00351546 0.185303 0.123639 -0.335489 0.253956 0.00327135 0.114519 -0.370013 -0.236977 -0.328838 -0.315413 -0.0187466 0.161472 -0.204976 0.0999759 -0.246818 -0.213879 -0.0269296 0.25749 0.471402 0.00933401
13131222 0.18204 -0.10536 0.296158 -0.0088601 -0.184408 0.0583639 -0.139144 -0.246824 -0.165155 -0.199841 -0.0789848 0.280206 -0.1703 0.152571 0.0928072 0.0619792 0.255342 0.0572651 0.135949 -0.0600788 -0.0203602 -0.032246 0.111399 0.292055 0.0470604 -0.125203 -0.124212 -0.125163 -0.198896 -0.0783068 -0.227748 -0.154081 0.0074048 0.0871125 0.213001 -0.117512 -0.130893 -0.192522 0.158621 -0.0540442 -0.22776 -0.144952 -0.0430584 0.0640956 0.402933 -0.267095 0.0724685 -0.0145683 -0.1842 -0.0157019 -0.226621 0.156921 0.0471137 0.197909 -0.0353344 0.0481334 -0.10123 0.0306748 -0.0142045 -0.0175959 -0.264336 0.0836192 -0.242045 0.167492 -0.638525 -0.0827295 -0.2684 -0.00282611 0.188715 0.00106183 0.453103 -0.0523353 -0.107179 0.170048 -0.0587513 0.517451 -0.607952 0.336133 -0.0831258 0.302013 0.193164 -0.0182756 -0.091912 -0.142516 0.121457 0.125606 0.0375197 -0.120907 -0.190383 -0.179772 0.00402392 0.105894 -0.339186 0.245419 -0.0749302 -0.318779 -0.204653 0.250822 0.466905 -0.0166283
34507794 -0.0722865 0.0461332 0.13891 -0.147476 -0.300312 0.177917 -0.0387397 -0.11716 -0.123827 0.108374 -0.247185 0.103955 -0.223767 0.223439 0.224213 0.0223539 0.186217 0.077157 0.179613 0.153258 -0.233268 0.0251679 0.230263 0.18618 0.211286 -0.054117 -0.37826 -0.0269491 -0.339026 -0.256666 -0.254885 -0.145542 -0.233481 0.153782 0.277769 -0.156375 -0.152003 0.0442752 0.291435 0.214595 -0.0735141 -0.0813571 -0.231056 -0.168106 0.477403 -0.178973 0.110123 -0.046565 -0.245892 0.347566 -0.271076 0.460789 -0.139397 0.377378 0.050051 0.22278 0.0237083 -0.157093 0.0602039 -0.0492879 -0.0393783 -0.0426218 -0.190988 0.17474 -0.402449 -0.00733425 -0.0421475 0.453451 -0.0537192 -0.0950204 0.299835 -0.023744 0.0105802 0.057764 0.0271557 0.0421318 -0.407805 0.252136 -0.0188249 -0.00678099 0.310989 -0.130154 -0.159376 0.0126813 0.191478 -0.0263155 -0.146876 -0.254424 -0.141708 -0.525261 0.0302146 0.0850635 0.0273635 0.0766911 0.173143 -0.333029 0.0833542 0.16409 0.29627 0.237467
14270684 0.423336 0.0356426 0.182004 -0.0349203 -0.0274758 -0.177847 -0.0104416 -0.199399 -0.421025 -0.0341906 -0.0410363 0.267065 -0.111591 0.197774 -0.0935912 0.345007 -0.00939823 0.206041 0.454912 -0.279786 0.197092 -0.0482528 0.202679 0.229009 -0.0937498 -0.133753 -0.212363 -0.009856 -0.106631 0.0447702 -0.360604 0.00945832 -0.126778 0.191253 0.352565 0.0321074 -0.171334 -0.377069 0.0902405 0.087678 -0.235759 -0.157581 -0.181675 0.167479 0.345763 -0.0968462 0.246821 0.00552977 -0.00467342 -0.0321017 -0.271803 0.0191836 -0.0286858 0.138897 0.00936448 0.131092 -0.263922 0.0534835 0.0695087 -0.0468664 -0.243822 -0.179005 -0.280986 0.18046 -0.534794 0.0699599 -0.103825 0.0340858 0.274703 -0.0191759 0.288596 -0.141464 0.104621 0.114657 0.0439793 0.391184 -0.658355 0.252001 -0.00867125 0.0718897 -0.152228 -0.227644 -0.227511 0.00822123 0.44844 -0.0611554 -0.116782 -0.451606 -0.128212 -0.362159 0.178444 0.0135332 -0.274372 0.0340542 -0.16919 -0.42959 -0.15772 0.188989 0.444316 0.133539
813286 0.119774 -0.126437 0.0640944 -0.0204694 -0.125657 -0.102787 -0.28255 -0.134565 -0.19799 0.0260045 -0.137277 0.410627 -0.305694 0.321333 -0.019634 0.10574 0.0456419 0.0374706 0.0199042 -0.156845 -0.0696803 -0.0324969 0.138104 0.171957 0.215896 -0.0338043 -0.0460778 -0.252548 -0.353115 0.0547427 -0.168605 -0.106783 0.0634194 -0.120816 0.264232 -0.0892118 -0.0534717 -0.243588 0.113974 0.160878 0.0205254 -0.0696545 0.211096 0.114599 0.292865 -0.208775 -0.0337662 -0.116533 -0.0913116 -0.108414 -0.159956 -0.031712 0.0105975 0.202446 -0.0481691 0.224022 -0.0943283 0.0776016 0.0933892 -0.052552 -0.136763 -0.0597488 -0.232047 -0.0419795 -0.44694 0.0775436 -0.0731362 0.268627 0.192834 -0.168865 0.188262 -0.01505 -0.00642018 0.151863 0.060186 0.342003 -0.759695 0.198353 -0.133085 -0.0702649 0.288806 -0.294376 -0.279857 0.083917 0.477013 -0.18459 -0.0578249 -0.307307 -0.124114 -0.278042 0.028666 -0.060468 -0.154242 0.201294 -0.205988 -0.250883 -0.120298 0.316002 0.283105 -0.0138139
180463340 -0.110449 -0.212127 0.400982 -0.0237931 -0.173991 -0.122394 -0.251837 -0.149913 -0.222081 -0.0382864 -0.0691688 0.351921 -0.210229 0.284174 0.00320731 0.105814 0.143716 0.261984 0.184505 -0.0911389 -0.0684832 -0.146521 0.107423 0.446229 0.181528 -0.0771009 -0.133361 0.200765 -0.238114 -0.227441 -0.187345 0.0125178 -0.04964 0.102661 0.166177 -0.177903 -0.154849 -0.0813542 0.200833 0.0144713 -0.18788 -0.00796315 0.00738376 0.0338146 0.463551 -0.198386 0.121376 -0.0421668 -0.240717 -0.0721046 -0.0798657 0.00174328 -0.0913971 -0.146633 0.0540641 0.17867 -0.255982 0.0562484 0.0143311 -0.00872714 -0.226995 -0.195624 -0.117716 0.295496 -0.563883 -0.260625 -0.155652 -0.0470601 -0.0493435 -0.268726 0.314004 -0.170701 0.0179177 0.0900655 -0.112818 0.685244 -0.276506 0.469775 0.0450471 0.434295 -0.047956 -0.0473615 0.024141 0.111163 0.0973067 -0.0355266 0.00399645 -0.227485 -0.0206247 -0.190168 -0.0173329 -0.148404 -0.200131 0.11175 -0.0461504 -0.312726 -0.148611 0.155526 0.446999 0.0630176
151223147 -0.0216823 -0.30452 0.114698 -0.0313064 -0.330588 -0.0176796 -0.377737 -0.268663 -0.040409 -0.227643 -0.224663 0.391977 -0.193001 0.318049 0.0119377 0.0534136 0.195389 -0.110031 0.220293 -0.104787 -0.171736 -0.0829737 -0.187532 0.639883 0.203959 -0.0560792 -0.279812 -0.0630567 -0.304523 -0.32746 -0.127993 0.117357 -0.0559379 0.10995 0.125102 -0.140628 0.00632396 -0.387314 0.501824 -0.369244 -0.0637426 -0.160337 0.00466507 0.100698 0.483206 -0.254302 0.0152418 0.0245161 -0.0278393 -0.132569 -0.362879 0.122193 0.0704187 0.112626 -0.116628 0.112045 -0.268392 -0.120155 -0.109857 0.0820512 -0.180243 -0.252443 -0.208561 -0.027359 -0.711526 -0.233105 -0.144457 0.164293 0.0731977 -0.329192 0.36922 -0.0572685 0.038329 0.142267 0.0317553 0.330911 -0.44343 0.482594 -0.0645445 0.488249 0.21639 0.229838 0.12192 -0.13072 0.0268738 -0.230283 0.211795 -0.0713992 -0.243879 -0.153651 0.297529 -0.037575 -0.212688 -0.0286362 -0.0740848 -0.324172 -0.120365 0.0895424 0.568384 -0.127652
22013442 -0.277656 -0.321743 0.117842 -0.164158 -0.14577 -0.168084 -0.215333 0.0415298 -0.0267535 -0.00848282 0.0497276 0.230643 -0.272058 0.152994 -0.0817102 0.167235 -0.141733 -0.00165291 0.200779 -0.137031 0.163467 -0.0980063 0.117862 0.263752 0.237776 0.0412945 -0.322023 0.153342 -0.325372 -0.227385 -0.089198 0.0100728 -0.154863 0.0678277 0.372969 -0.0517286 -0.195114 -0.264335 0.319401 0.191996 -0.0480353 -0.0916545 0.00354002 0.00609719 0.270475 -0.180534 0.117798 -0.0136811 -0.0398283 -0.162093 -0.180148 -0.0299528 -0.305792 0.0836997 -0.205139 0.153065 -0.162717 -0.0841474 -0.134029 0.15326 -0.159999 -0.342373 -0.115667 0.0911042 -0.609907 0.0612754 -0.0080276 0.335334 -0.194598 -0.379708 0.161507 -0.203956 0.0553806 0.0270982 0.0674723 0.29033 -0.224602 0.314048 0.234879 0.269853 0.192514 -0.15448 -0.0601673 0.163033 0.0230427 -0.200995 0.0787426 -0.329296 -0.24874 -0.300033 0.0726226 -0.245928 0.111394 0.0820244 -0.0265132 -0.275852 0.113655 0.0841226 0.402967 0.131455
4258591 -0.248145 -0.271502 0.226585 -0.191938 -0.0809843 -0.302319 -0.277587 0.202525 -0.0400028 0.054536 0.159275 0.264724 -0.25015 0.238563 -0.171058 0.129943 -0.186316 0.0676702 0.158608 0.0785899 0.120795 -0.231093 0.161822 0.250652 0.200301 0.0383695 -0.275554 0.0715793 -0.342576 -0.187285 -0.0155176 0.13349 -0.138266 0.0735059 0.429314 -0.00642327 -0.322476 -0.231367 0.389459 0.397729 -0.0558804 -0.011342 0.0778688 0.206555 0.308479 -0.253038 0.0633948 -0.119896 0.0124111 -0.27849 -0.139643 -0.263236 -0.370894 0.00613144 -0.0837968 0.178965 -0.149804 -0.0714518 -0.154125 0.119649 -0.289035 -0.317628 0.0343429 0.136082 -0.687038 -0.0599337 -0.157303 0.275381 -0.246749 -0.406961 0.213732 -0.299749 0.239508 0.311328 0.119538 0.378845 -0.313 0.401945 0.261101 0.294181 0.308669 -0.296341 -0.0840208 0.303481 0.0999075 -0.175981 0.0563101 -0.295843 -0.147477 -0.306251 0.0268721 -0.235118 0.186039 0.258603 0.0196174 -0.368945 0.147056 0.114731 0.336031 0.226951
14529025 -0.122008 -0.125643 -0.0504076 -0.313553 -0.0135982 -0.413443 -0.217142 0.275761 -0.115357 0.138338 0.219106 0.168667 -0.272749 0.27677 -0.141811 0.00674438 -0.188248 -0.00762767 0.218679 -0.0313293 -0.0994529 -0.299816 -0.0106374 0.109907 0.21608 0.00832652 -0.172603 -0.159934 -0.208074 -0.13771 -0.0576296 0.233898 -0.0291079 -0.20894 0.380458 0.0959271 -0.138968 -0.3715 0.311567 0.34486 0.0431465 -0.0287929 0.180945 0.169272 0.147433 -0.254035 0.0510187 -0.118293 0.177393 -0.277266 -0.219543 -0.251639 -0.218248 -0.060972 -0.199963 0.151706 -0.00310339 -0.0887666 -0.193393 0.10204 -0.288817 -0.341512 -0.145372 -0.00687445 -0.509826 0.0411726 -0.244031 0.396574 0.0135463 -0.46739 0.34969 -0.0651757 0.213731 0.351593 0.129736 0.162966 -0.493018 0.335289 0.275244 0.104274 0.440107 -0.281707 -0.17591 0.355083 0.171486 -0.137947 -0.00276541 -0.26859 -0.0888265 -0.162449 0.0992615 -0.26149 0.294522 0.220877 -0.00994756 -0.283907 0.224724 0.139214 0.394908 0.334785
90964854 -0.24877 -0.1942 -0.023505 -0.234886 -0.135901 -0.260843 -0.314544 0.0402523 -0.120858 0.0718577 -0.0204969 0.214157 -0.0698619 0.210748 -0.164934 -0.039016 -0.187714 -0.0815257 0.235102 -0.00137447 -0.0907474 -0.192872 -0.041997 0.451065 0.269344 -0.00060944 -0.220099 0.0818356 -0.271948 -0.240173 -0.1244 0.129402 -0.0243439 -0.045131 0.282847 -0.0853986 -0.0678511 -0.377451 0.431474 0.0430987 -0.0545129 -0.0920076 0.0600166 0.127073 0.272649 -0.274695 0.110184 0.0727705 0.0534263 -0.263568 -0.153906 -0.0809619 -0.169446 0.091688 -0.13129 0.067821 -0.162742 -0.152666 -0.321336 0.071133 -0.274636 -0.389507 -0.16179 0.0874838 -0.681411 -0.0269264 -0.206379 0.185277 -0.0507739 -0.458139 0.41736 -0.222241 0.297468 0.343513 0.113656 0.205886 -0.332697 0.319869 0.0866288 0.381408 0.415048 -0.0242824 -0.143986 0.142084 0.165784 -0.248655 0.126 -0.116771 -0.222073 -0.242855 0.123308 -0.2939 0.0888772 0.0523362 0.0463716 -0.248773 -0.0147985 0.0249334 0.521966 0.185211
47675566 -0.199369 -0.294894 0.148528 -0.224737 -0.268151 -0.158044 -0.335346 0.0947144 -0.0107948 -0.0363944 -0.0537117 0.304346 -0.183406 0.292328 -0.140417 -0.00179409 -0.112966 -0.162699 0.232996 0.00586125 -0.0640155 -0.176356 -0.0979847 0.486919 0.246897 0.0293953 -0.263109 -0.0920941 -0.393849 -0.26897 -0.0644214 0.218789 -0.0672851 -0.00248938 0.273817 -0.0475014 -0.146062 -0.320783 0.490556 0.0595863 -0.0111666 -0.122289 0.0748468 0.120221 0.337589 -0.296018 0.040102 -0.0197058 0.0889554 -0.289171 -0.334507 -0.00577865 -0.203558 0.0795082 -0.15406 0.087152 -0.135371 -0.116867 -0.231892 0.0586322 -0.262352 -0.379078 -0.0945424 0.0161375 -0.743604 -0.169801 -0.159357 0.265428 -0.0123152 -0.408448 0.30007 -0.182455 0.195173 0.261591 0.0754072 0.280557 -0.413311 0.430044 0.153374 0.396274 0.401658 -0.00998032 -0.0112059 0.0539634 0.0386031 -0.203481 0.172548 -0.132727 -0.222195 -0.275038 0.200125 -0.155271 0.0760543 0.137895 0.0471173 -0.342438 0.065474 0.089148 0.46805 0.151152
67020298 -0.15533 -0.272744 0.154485 -0.264853 -0.312468 -0.140049 -0.383767 0.0990775 -0.0547571 0.0383293 -0.116516 0.301013 -0.117395 0.325124 -0.247434 0.0418437 -0.207226 -0.193509 0.258805 -0.017872 -0.133205 -0.126916 -0.105704 0.546722 0.216013 -0.0356846 -0.239317 -0.225832 -0.319361 -0.175195 -0.228297 0.29759 -0.0913761 -0.142869 0.145521 -0.0268951 -0.194211 -0.40724 0.33902 -0.0722494 0.0487822 -0.138034 0.0767428 0.159077 0.36582 -0.30306 -0.0427781 0.053204 0.234326 -0.332719 -0.324407 0.084162 -0.188411 0.0498331 -0.145358 0.0681333 -0.125115 0.00476982 -0.258769 0.0084685 -0.34803 -0.469756 -0.188594 0.0635298 -0.759927 -0.299475 -0.282359 0.270801 0.117833 -0.363415 0.311935 -0.170893 0.229649 0.337957 0.147773 0.31329 -0.498155 0.406679 0.125794 0.466957 0.398361 -0.0409662 -0.0949192 0.0576624 0.142465 -0.158876 0.189632 -0.035336 -0.271288 -0.28301 0.231017 -0.204414 -0.0946619 0.112971 0.116606 -0.282557 0.0526972 0.115353 0.563601 0.16342
73420375 -0.231707 -0.241689 0.100021 -0.273074 -0.0304185 -0.377047 -0.218213 0.257199 -0.18286 0.13804 0.142237 0.161409 -0.246083 0.204517 -0.19192 -0.00275454 -0.245824 0.0830081 0.257043 0.0125786 0.0592504 -0.281013 0.105568 0.1086 0.234909 0.0350597 -0.226706 -0.0611299 -0.322854 -0.235168 -0.0432901 0.142821 -0.0367958 -0.00700497 0.441504 0.0698341 -0.243816 -0.296992 0.356946 0.397546 -0.0678711 -0.0136621 0.14653 0.124253 0.1417 -0.307225 0.172577 -0.0313554 0.0716013 -0.326103 -0.173642 -0.227222 -0.360171 -0.0207758 -0.143783 0.0651479 -0.10053 -0.106645 -0.238307 0.0985224 -0.316667 -0.337529 -0.0269169 0.107662 -0.60639 0.0194877 -0.165335 0.23006 -0.153752 -0.419059 0.328267 -0.204147 0.301003 0.211434 0.106358 0.263252 -0.444622 0.354473 0.297961 0.219252 0.434862 -0.316194 -0.212991 0.324596 0.0981711 -0.126601 0.0277088 -0.327741 -0.13982 -0.347624 0.0545714 -0.258047 0.281743 0.212221 -0.0135811 -0.34031 0.199697 0.130024 0.301619 0.365822
90420314 0.140658 0.000916277 0.31738 -0.0237484 -0.138608 -0.12242 -0.207813 0.110994 -0.254706 -0.0914091 -0.0922775 0.274888 -0.149421 0.307092 -0.0284325 0.260594 0.061992 0.0320983 0.227457 -0.174383 -0.0547424 0.0478162 0.0540552 0.225229 0.0637745 -0.0896402 -0.174433 0.13242 -0.170229 -0.124736 -0.178759 0.021487 -0.00216852 0.0439678 0.270148 -0.0605801 -0.223162 -0.141247 0.0424827 -0.0233654 -0.114413 0.189346 0.00729317 0.154428 0.539873 -0.231192 0.147951 -0.0581395 -0.121662 -0.0378847 -0.245079 -0.0971019 -0.0476652 0.0863133 -0.0232798 0.0480263 -0.200654 -0.0436573 -0.0130701 -0.0126655 -0.227737 -0.00504682 -0.310429 0.038172 -0.278743 -0.137205 -0.0469546 0.234579 0.233995 -0.0910166 0.276196 -0.135014 0.0593136 0.116383 0.0413719 0.383833 -0.571024 0.211169 -0.0417768 0.090561 -0.0058139 -0.169132 -0.18941 -0.074962 0.20647 0.00923094 -0.0241308 -0.136592 0.103421 -0.158397 0.104034 -0.0505264 -0.197569 0.062947 -0.0771471 -0.435564 0.0550289 -0.0637015 0.495737 0.0463048
15795530 0.247954 -0.0495514 0.0696664 -0.0829011 -0.0887568 -0.238997 -0.113365 -0.388665 -0.395213 0.00452833 -0.00829302 0.348528 -0.13487 0.29735 -0.055151 0.419726 0.0375452 0.0350182 0.237344 -0.201354 0.251975 -0.0152963 0.118925 0.166885 -0.0762717 -0.0287226 -0.503707 0.028528 -0.087586 -0.0774015 -0.419465 -0.0912568 -0.259071 0.299714 0.414199 0.146306 -0.120705 -0.38181 0.201597 0.202764 -0.175475 -0.0355382 -0.11375 0.107581 0.431686 -0.0115306 0.0024991 -0.00238674 0.0795464 0.12744 -0.259449 0.157446 -0.275184 0.265654 -0.0943276 0.0504942 -0.354191 -0.101892 0.152365 -0.172243 -0.234297 -0.179294 -0.354999 0.138167 -0.346718 0.0607675 -0.118382 0.28222 0.0169949 0.0823114 0.215445 -0.0873958 0.21084 0.174685 0.166425 -0.137403 -0.450403 0.260155 -0.00980757 0.0248933 0.0357292 -0.129754 -0.249836 -0.0561633 0.222681 -0.250524 -0.159446 -0.333696 -0.136797 -0.366369 0.155685 -0.0554808 -0.0951395 -0.252784 -0.0603223 -0.357418 0.112517 0.0208444 0.278739 -0.0497286
18574885 0.249031 -0.0381874 0.0825925 0.0373808 -0.117725 0.0355446 -0.0849749 -0.242281 -0.39211 0.116432 -0.182637 0.119572 -0.0876079 0.101956 -0.0039208 0.0337689 -0.0127033 0.160145 0.446621 -0.107383 0.104696 0.196293 0.265667 0.0290756 0.170124 -0.0474547 -0.191039 -0.230564 -0.267158 -0.193257 -0.108277 0.00192336 -0.181259 0.129174 0.175743 -0.0748322 -0.138982 -0.187193 0.242195 0.00878856 -0.0818979 -0.137462 -0.219688 -0.082541 0.298412 -0.106912 0.352336 0.243335 -0.12025 0.173007 -0.276805 0.117374 -0.0261316 0.108821 0.182688 0.302037 -0.107171 -0.163823 0.136019 -0.205883 -0.144846 -0.198804 -0.339483 0.0577983 -0.380423 -0.0512613 -0.0466637 0.0879376 0.186226 -0.0920121 0.251645 -0.0308844 0.135472 -0.0362888 0.0057304 0.40613 -0.572774 0.219698 0.013392 0.0409123 -0.030917 -0.231055 -0.449175 0.108296 0.277566 0.0894894 -0.124972 -0.488232 -0.145997 -0.5403 0.100084 0.11678 -0.240226 0.117872 -0.0896141 -0.382322 -0.171223 0.164285 0.238393 0.237274
13024182 0.40864 0.18595 0.0909803 0.0343966 -0.131728 -0.0466265 -0.0822195 -0.171271 -0.454449 0.0157424 -0.302888 0.218977 -0.0218281 0.197615 -0.0799069 0.0793578 -0.140251 0.0957517 0.41501 -0.290421 0.100905 0.194889 0.195533 0.208942 0.0118281 0.00693563 -0.168672 -0.0398088 -0.268723 -0.0389378 -0.149222 -0.148082 -0.066082 0.132379 0.431833 0.0112976 -0.123759 -0.20411 0.22336 0.0945717 -0.273399 -0.0031326 -0.11919 0.0895515 0.444578 -0.165864 0.206883 0.192369 -0.157877 0.0290389 -0.30769 -0.0258442 0.124128 0.262024 0.248177 0.274575 -0.24875 -0.0252449 0.0228973 -0.142709 -0.181662 -0.0288644 -0.422016 0.0208361 -0.469625 0.080303 -0.0165694 0.0262115 0.363847 -0.177363 0.194841 -0.0842586 0.0902392 0.255679 0.0485368 0.359262 -0.668016 0.253365 -0.152869 -0.0446758 -0.0918662 -0.321752 -0.451 -0.077443 0.575309 0.0248032 -0.110298 -0.47465 -0.0301919 -0.565281 0.181601 0.0576395 -0.267314 0.212237 -0.119249 -0.51434 -0.185812 0.0365015 0.334657 0.232648
20658513 0.412457 0.120405 0.0357435 0.012832 0.0434201 -0.0328264 -0.136918 -0.16514 -0.44492 -0.0788949 -0.217522 0.213424 -0.0988011 0.250301 -0.0556827 0.207479 -0.107919 0.20328 0.375304 -0.293566 0.197038 0.159643 0.187803 0.133531 0.00100776 0.0759608 -0.122083 0.0218729 -0.149069 0.0181798 -0.143139 -0.122734 -0.0476952 0.173807 0.417739 -0.0623872 -0.0410908 -0.197481 0.231286 0.167056 -0.275663 -0.056528 -0.145655 0.192038 0.388775 -0.157512 0.20323 0.225482 -0.0852004 0.00256746 -0.30512 -0.0741078 0.0749551 0.240149 0.202547 0.264831 -0.236454 0.0437602 0.0531 -0.102529 -0.192512 0.0374972 -0.452074 0.088624 -0.520385 0.100902 -0.114372 0.0114892 0.352064 -0.126288 0.185287 -0.141324 0.138861 0.203629 0.109143 0.437439 -0.673041 0.215444 -0.191945 -0.0339488 -0.219467 -0.342867 -0.388436 0.0487245 0.635613 -0.0503487 -0.114821 -0.503212 0.0194594 -0.608582 0.199872 0.0217525 -0.375857 0.177882 -0.169461 -0.457117 -0.173995 0.141966 0.312992 0.175365
18534908 -0.132897 -0.128503 0.134971 -0.0250593 -0.0360992 -0.36518 -0.087295 0.0392826 -0.179764 0.0310785 0.31403 0.24026 -0.204815 0.0587763 -0.132241 0.227801 -0.0641922 0.115471 0.17622 -0.0505125 0.147757 -0.216341 0.345547 0.225153 0.170836 -0.00729522 -0.212413 0.00252899 -0.274304 -0.112348 -0.129702 0.184986 -0.102387 0.146645 0.329574 -0.0409044 -0.321078 -0.319068 0.196641 0.212625 -0.171467 -0.085192 -0.0210102 0.0920934 0.113416 -0.116867 0.190797 -0.186445 -0.118633 -0.215814 -0.0249309 -0.185221 -0.347506 0.00687122 -0.0983163 0.0916805 -0.106834 -0.0595152 -0.0591646 0.104449 -0.28598 -0.303078 0.0194626 0.0897545 -0.556479 0.0186845 -0.0677797 0.228172 -0.151431 -0.327885 0.251741 -0.110947 0.154791 0.0479953 0.129493 0.323996 -0.398252 0.312848 0.364313 0.264482 0.234808 -0.292847 -0.156935 0.223734 0.195883 -0.195629 -0.0219846 -0.427296 -0.247949 -0.267726 -0.124174 -0.180169 0.0277346 0.0147504 -0.0510431 -0.292548 0.0126638 0.150133 0.390126 0.0879031
18653813 -0.255995 -0.0927786 0.214698 -0.244602 -0.11088 -0.00216858 -0.27332 0.0968481 0.0820309 0.030823 0.146855 0.147144 -0.150706 0.244237 -0.0218407 0.209692 -0.0152447 0.0338215 0.156379 0.0129926 0.00880174 -0.0281466 0.126828 0.274602 0.226931 -0.0478989 -0.378593 0.276193 -0.183271 -0.128902 -0.0867996 0.0383309 -0.235981 -0.0227147 0.416535 -0.114329 -0.241988 -0.0736928 0.259142 0.247753 -0.0647662 0.0787861 -0.106837 -0.0363843 0.554463 -0.209353 0.0791082 -0.0147651 0.0144285 -0.113313 -0.169451 -0.055723 -0.262663 -0.0540278 -0.170457 0.303398 -0.147668 -0.0433286 -0.127784 0.0948744 -0.215503 -0.262586 -0.366964 0.0832185 -0.629102 -0.188837 -0.195077 0.48094 -0.125443 -0.350953 0.192714 -0.18907 0.0351396 0.19725 0.122426 0.376509 -0.143754 0.206499 0.108497 0.258976 0.10907 -0.126295 -0.108402 0.199053 0.168772 -0.110062 0.0644826 -0.199274 -0.123816 -0.200943 -0.0228643 -0.166674 -0.0419448 0.267428 0.172086 -0.240741 0.117555 -0.0389405 0.49662 0.104998
24080738 -0.102298 -0.274586 0.210222 -0.111272 -0.0340528 -0.423943 -0.262775 0.251234 -0.252267 0.0628832 0.27009 0.2633 -0.255993 0.255553 -0.196891 0.0536232 -0.199853 0.293252 0.258907 -0.00923382 0.0748097 -0.230627 0.145707 0.130762 0.209218 -0.0509387 -0.256446 -0.0717005 -0.296465 -0.214404 -0.099004 0.136923 -0.0165905 -0.0192005 0.414671 0.100504 -0.242691 -0.238053 0.158209 0.194419 -0.192897 -0.00742215 -0.00641897 0.0559847 0.280121 -0.267508 0.211006 -0.0836126 0.0127988 -0.308052 -0.244862 -0.261147 -0.308948 -0.236929 -0.0920651 0.254463 -0.168096 -0.0746745 -0.112629 0.159706 -0.159682 -0.20096 -0.105546 0.0979482 -0.500132 -0.172989 -0.249898 0.160706 -0.124871 -0.381459 0.279325 -0.160768 0.368335 0.156894 0.0876475 0.42115 -0.472356 0.416414 0.274504 0.259693 0.329644 -0.335996 -0.123359 0.233124 0.127213 -0.120184 0.104678 -0.276413 -0.0074072 -0.277225 0.153342 -0.139091 0.152728 0.388483 -0.11676 -0.365016 0.172457 0.105158 0.290152 0.306951
26925914 -0.246917 -0.215032 0.216782 -0.141624 -0.0272053 -0.283528 -0.200061 0.168403 -0.0373533 -0.0591693 0.175355 0.234804 -0.239301 0.174935 -0.157214 0.1669 -0.111724 -0.0620668 0.224307 -0.0201898 0.104164 -0.243709 0.174086 0.256595 0.21259 0.0600377 -0.219584 0.172776 -0.300843 -0.137222 -0.0348355 0.152428 -0.100851 0.175919 0.443548 -0.05758 -0.321284 -0.278232 0.355615 0.222499 -0.0496547 -0.0248131 0.0549188 0.142117 0.2753 -0.234933 0.157283 -0.0445442 0.0336737 -0.299402 -0.238294 -0.248599 -0.352772 -0.0391784 -0.14543 0.0433018 -0.222884 -0.106321 -0.147932 0.0919305 -0.296434 -0.21151 -0.0652276 0.121661 -0.684536 -0.0312428 -0.0665902 0.206295 -0.160724 -0.419406 0.222237 -0.271658 0.181745 0.132975 0.116007 0.399397 -0.379227 0.312084 0.280707 0.295545 0.249502 -0.18155 -0.119207 0.145771 0.0278095 -0.132202 0.192122 -0.311082 -0.21377 -0.288131 -0.058291 -0.279179 0.12748 0.202797 -0.00699555 -0.347074 0.162261 0.0505473 0.371845 0.112365
11999782 -0.392234 -0.256091 0.175469 -0.196815 0.0635554 -0.324874 -0.195775 0.201532 -0.120963 0.00172246 0.185372 0.193705 -0.285955 0.191942 -0.0599921 0.102484 -0.11225 0.112864 0.252102 -0.0243612 0.0721505 -0.284178 0.137703 0.179635 0.268301 0.0405872 -0.262494 0.323226 -0.37311 -0.247436 0.0376119 0.0080681 -0.0691879 0.101353 0.485009 -0.0732864 -0.240155 -0.156492 0.34825 0.446437 -0.143723 0.00558507 0.0393068 0.0851513 0.301741 -0.203532 0.221377 -0.0438057 -0.127436 -0.248653 -0.155205 -0.246686 -0.348027 -0.0753016 -0.13191 0.176602 -0.1424 -0.115951 -0.0920918 0.166301 -0.235618 -0.277269 -0.104982 0.128256 -0.600822 0.0767509 -0.109886 0.276672 -0.222424 -0.53216 0.302087 -0.23398 0.191195 0.143535 0.00331568 0.451014 -0.271361 0.303791 0.305438 0.198121 0.250622 -0.20073 -0.0524075 0.316376 0.0150245 -0.121843 0.0373073 -0.328561 -0.101809 -0.183043 -0.0531135 -0.321881 0.209841 0.246662 -0.0436785 -0.282968 0.152545 0.093737 0.401856 0.281009
17830009 -0.274894 -0.254271 0.289514 -0.112545 -0.0295308 -0.29401 -0.180604 0.219775 -0.0866693 -0.0786533 0.170743 0.217358 -0.18693 0.146715 -0.165632 0.211086 -0.135782 -0.0386217 0.290241 0.0176504 0.161433 -0.238683 0.158604 0.284106 0.15949 0.0608509 -0.262518 0.196048 -0.369545 -0.223914 0.00840908 0.198653 -0.126371 0.238734 0.419849 -0.0485264 -0.369805 -0.220612 0.345693 0.260097 -0.112399 -0.023357 -0.0207939 0.13272 0.292941 -0.195809 0.241932 -0.0713567 0.00221209 -0.302058 -0.276537 -0.226308 -0.411114 -0.00335584 -0.0952508 0.00855652 -0.19325 -0.141646 -0.139977 0.108247 -0.29386 -0.264241 0.000867269 0.0884019 -0.649454 -0.0703525 -0.0497926 0.186395 -0.174041 -0.365884 0.218733 -0.315586 0.259473 0.0746437 0.081348 0.391552 -0.370782 0.295173 0.329434 0.311611 0.21262 -0.122673 -0.0288747 0.153557 -0.0535071 -0.128887 0.164035 -0.301483 -0.193964 -0.283887 -0.0173537 -0.181924 0.0999039 0.178715 -0.0155118 -0.407325 0.161919 0.0358669 0.392106 0.147965
14984003 -0.272089 -0.328825 0.232332 -0.169188 0.0618617 -0.169423 -0.274877 0.125382 -0.158018 0.040731 0.0806873 0.259839 -0.259708 0.175206 -0.040686 0.165734 -0.0989452 0.0920594 0.248138 0.0404843 0.147907 -0.129426 0.160883 0.115485 0.331418 -0.0353818 -0.249636 0.186967 -0.330091 -0.154856 -0.153183 -0.0618845 -0.163977 0.0500285 0.26158 -0.125412 -0.265398 -0.120486 0.214889 0.283072 -0.00840103 -0.0524775 -0.0249202 0.088545 0.387245 -0.191624 0.194126 0.0246382 -0.101252 -0.0967849 -0.247116 -0.0667628 -0.381686 -0.0245884 -0.0478492 0.15307 -0.0708174 -0.119157 0.0895668 -0.084188 -0.197902 -0.255538 -0.116785 0.182523 -0.583649 -0.0887189 -0.179851 0.183502 -0.100698 -0.283926 0.231336 -0.341292 0.184935 0.112043 -0.0425738 0.425743 -0.384731 0.2463 0.236512 0.179292 0.154432 -0.157804 -0.22342 0.232699 -0.0203089 -0.0828131 0.0629701 -0.247322 -0.144213 -0.200541 -0.0866711 -0.219707 -0.00736827 0.127156 -0.026107 -0.217003 0.108335 0.199868 0.282798 0.138754
25578574 -0.225657 -0.284582 0.141196 -0.319035 0.0321273 -0.0651214 -0.203401 0.185248 -0.127371 0.0828221 -0.0371748 0.0409796 -0.289072 0.299315 -0.0118348 0.0269211 -0.13282 0.168371 0.346692 -0.00990571 -0.0672842 -0.224775 0.032922 -0.0261662 0.135134 -0.00991064 -0.246565 0.00370989 -0.199899 -0.194588 -0.232446 0.0170046 -0.232068 -0.0683007 0.299186 0.103986 -0.125401 -0.204041 0.265497 0.358836 0.0773665 0.048719 -0.0383772 0.156001 0.228617 -0.295879 0.0202448 0.00134068 0.0973051 -0.190642 -0.338679 0.0511439 -0.244192 0.0470629 -0.144014 0.045985 0.00574694 -0.0812564 -0.13809 0.142129 -0.29725 -0.375194 -0.157007 0.14864 -0.51068 -0.0949489 -0.168531 0.375666 -0.0189316 -0.217522 0.39666 -0.125288 0.0932319 0.152413 0.0142014 0.330804 -0.461356 0.200719 0.156263 0.105002 0.170518 -0.217568 -0.118381 0.399139 0.071102 0.0239706 -0.116807 -0.203269 -0.141326 -0.33061 0.128152 -0.247507 0.0275644 0.159419 0.0331116 -0.2956 0.263115 0.195864 0.357998 0.309088
14464369 -0.198192 -0.246528 0.0181298 -0.0300502 -0.105479 -0.182634 -0.283616 0.0817075 -0.14007 0.0277424 0.00733963 0.177653 -0.107787 0.165631 -0.0519921 0.167794 -0.0230585 -0.119227 0.242786 -0.127928 -0.0386506 -0.0343243 0.0950013 0.251556 0.43762 0.160469 -0.346736 0.197455 -0.254308 -0.271621 0.00190942 -0.0105307 -0.160202 0.0426025 0.392392 -0.207141 -0.140253 -0.20443 0.375387 0.0929252 -0.0299744 -0.0129979 -0.0311396 -0.131259 0.372095 -0.177382 0.24928 0.0471294 -0.163113 -0.0444194 -0.333688 -0.00959585 -0.331617 0.0555758 -0.110182 0.130468 -0.158834 -0.133066 0.0201714 -0.148349 -0.0489457 -0.230104 -0.339523 0.00861874 -0.475477 -0.176416 -0.0417072 0.314412 -0.0588353 -0.352221 0.165652 -0.145203 0.278448 0.0984615 0.0902807 0.0360288 -0.363972 0.261903 0.12791 0.106965 0.199162 -0.109152 -0.193953 0.162932 0.0602068 -0.367722 0.0764031 -0.355491 0.00735434 -0.216659 -0.0696368 -0.142943 0.0674372 0.0271393 -0.0149071 -0.346143 0.135124 -0.126993 0.293006 -0.0589373
20119226 0.15443 -0.201602 0.221409 0.0930348 -0.250005 -0.157323 -0.248442 -0.306639 -0.270961 -0.236293 0.0253629 0.405671 -0.352396 0.364084 0.172 0.158034 0.377487 0.138605 0.192243 -0.229433 -0.017369 -0.064718 -0.0671568 0.239239 0.0576118 -0.0759699 -0.0435353 -0.121455 -0.440798 -0.336571 0.0436154 0.0539765 0.151844 0.0877323 0.162517 -0.0881018 0.00748701 -0.217725 0.398683 0.0281719 -0.22436 -0.0700563 0.0331278 0.136271 0.464295 -0.113893 0.0914502 -0.0770949 -0.203694 0.00211003 -0.110186 -0.063172 0.115941 0.103928 -0.0519085 0.342329 -0.173087 -0.15868 0.136515 0.0333904 -0.269667 -0.123955 -0.362646 -0.273579 -0.467901 0.0602355 -0.0292062 0.266418 0.216941 -0.17321 0.419617 0.142556 -0.0541994 0.0353105 -0.121524 0.614695 -0.518781 0.399184 0.0453297 0.10667 0.148098 0.173373 0.119343 0.0750263 0.0298952 0.0914919 -0.18986 -0.175082 -0.189107 0.0476688 0.212717 0.172992 -0.162821 0.149055 -0.353156 -0.270501 -0.138218 0.190543 0.630071 0.0189489
83883736 0.0638995 -0.238758 0.0858447 -0.00980759 -0.214604 -0.126406 -0.309662 -0.091678 -0.141735 -0.114754 0.0593208 0.297134 -0.122745 0.192455 0.032955 0.284914 0.185065 -0.145336 0.211588 -0.24824 0.0365221 0.0517638 -0.0043655 0.207255 0.240282 0.0547919 -0.144406 0.036559 -0.433982 -0.191631 0.0924211 -0.0210957 0.196562 -0.1192 0.32053 -0.198211 -0.0821796 -0.153138 0.284117 0.242424 -0.111879 0.028591 0.158021 0.240467 0.377183 -0.131429 0.0827316 -0.0676465 -0.163056 -0.213309 -0.0406466 -0.173565 -0.00991612 0.232368 -0.140467 0.281714 -0.127263 -0.0799269 0.00496459 -0.117236 -0.258288 -0.196504 -0.461001 -0.322885 -0.422641 0.115306 -0.0443317 0.335835 0.184656 -0.112294 0.298532 0.0468826 0.0502704 0.305363 -0.0480447 0.36405 -0.504702 0.0713536 -0.108923 -0.154384 0.228927 -0.0902493 -0.0625928 0.17536 0.252527 -0.0826494 -0.297298 -0.0994211 -0.0495462 0.115214 0.00928655 0.0923962 -0.0879985 0.124836 -0.27686 -0.263851 -0.142748 -0.0197898 0.527603 -0.0449088
755431 -0.242061 0.0747425 0.194859 -0.0804291 -0.234976 0.0303577 -0.149502 -0.093826 -0.0496645 0.0686347 -0.0469925 0.067703 -0.07114 0.11949 -0.102461 0.143317 -0.00685288 -0.17758 0.306871 -0.0878365 -0.190859 0.0540671 0.199506 0.382064 0.208125 0.0239959 -0.381911 0.139409 -0.214531 -0.0670318 -0.217602 0.142209 -0.293192 0.094074 0.307274 -0.112633 -0.254674 -0.127058 0.213122 0.0455737 -0.0382762 0.0788963 -0.1554 -0.136239 0.385102 -0.115075 0.0134717 0.0602715 -0.0947685 -0.0401152 -0.255193 0.230914 -0.199816 0.0963687 0.0227413 -0.0020459 -0.155355 -0.101278 -0.088599 -0.101206 -0.360886 -0.274032 -0.423546 0.077076 -0.493433 -0.297727 -0.0333993 0.369502 0.0591924 -0.219854 0.241712 -0.0122249 0.0718271 0.183894 0.122726 0.220114 -0.311329 0.164595 0.127402 0.249409 0.0758073 -0.117506 -0.273614 -0.0578096 0.109553 -0.047622 0.0318971 -0.181037 -0.185541 -0.368984 -0.21674 -0.246514 -0.186379 -0.0065575 0.237465 -0.2631 0.0329175 -0.182687 0.43591 -0.00174347
15633118 0.229341 0.179666 0.136616 0.099985 -0.157525 -0.0708817 0.0895715 -0.203172 -0.282972 0.142363 -0.0394769 0.215989 -0.105417 0.121867 -0.0144953 0.165006 -0.074555 0.0926995 0.477753 -0.129743 -0.0737056 0.120749 0.263594 0.267998 -0.000880216 -0.120393 -0.390247 -0.251986 -0.303766 -0.16735 -0.31229 0.176611 -0.412965 -0.0554312 0.199246 0.0729947 -0.271196 -0.149861 0.0338284 0.0777467 -0.129096 -0.0887173 -0.31794 -0.158549 0.374945 0.0786861 0.125022 -0.095839 -0.0182409 0.136773 -0.365959 0.20324 -0.014337 0.0750088 0.169035 0.337736 -0.0299639 -0.0667784 0.102234 0.0119502 -0.161788 -0.216105 -0.393752 0.00743666 -0.31763 -0.171949 -0.153997 0.290994 0.128265 -0.0767189 0.209193 0.00857954 0.0430356 0.108003 0.0308034 0.193955 -0.589813 0.209839 0.101088 0.0464267 0.0448426 -0.162274 -0.285505 0.0743638 0.325126 0.0341404 -0.103345 -0.297679 -0.235516 -0.324271 -0.00912824 0.169701 -0.214677 0.176681 0.0882396 -0.392951 -0.101838 0.107879 0.363228 0.183517
8170612 0.486516 0.199069 0.0988959 -0.0480065 -0.128754 -0.127167 0.0518656 -0.196323 -0.531309 0.0900388 -0.156773 0.199998 0.0359177 0.165291 -0.088448 0.136456 -0.127952 0.0907731 0.446935 -0.240143 0.251449 0.155866 0.233746 0.0484861 -0.0842915 -0.0309059 -0.216942 -0.089434 -0.197102 -0.0652171 -0.181543 -0.172054 -0.0464628 0.180584 0.534725 0.059628 -0.173731 -0.230892 0.202403 0.261123 -0.305882 0.00515071 -0.104943 0.0801633 0.422844 -0.138172 0.25597 0.171022 -0.0550878 0.0821746 -0.214925 -0.0316487 -0.020062 0.314259 0.142208 0.218044 -0.266308 -0.0873151 0.0184557 -0.227101 -0.236995 0.0104142 -0.437261 0.0583735 -0.411337 0.230344 -0.0489283 -0.0174868 0.278876 0.031538 0.25217 -0.112281 0.16193 0.264612 0.0472254 0.167548 -0.609825 0.221483 -0.153365 -0.133773 0.0295866 -0.303518 -0.492977 -0.0198044 0.490363 0.0521094 -0.193866 -0.449468 -0.0698989 -0.455808 0.110026 0.168561 -0.0902853 0.185529 -0.118238 -0.550408 -0.115171 -0.0140992 0.281851 0.232529
18772733 0.463933 0.150905 0.101277 -0.0990674 -0.0683268 -0.110211 -0.0558803 -0.217511 -0.503479 0.00661122 -0.172466 0.327509 -0.0985019 0.299004 -0.0662349 0.271658 -0.0559246 0.155639 0.405558 -0.248405 0.260071 0.122958 0.10657 0.203367 -0.171504 0.0178733 -0.177692 -0.121199 -0.123357 -0.00337807 -0.262 -0.138132 -0.0213176 0.265902 0.493215 -0.0212637 -0.0514813 -0.278295 0.298005 0.220201 -0.300725 -0.0584393 -0.0766579 0.199874 0.488118 -0.104361 0.0985959 0.108298 0.00926712 0.0368124 -0.225518 0.0549302 -0.0367048 0.348736 0.185908 0.137466 -0.283445 -0.0436402 0.0212431 -0.248958 -0.278566 0.0986261 -0.443361 0.0927881 -0.521755 0.143442 -0.116517 -0.0093309 0.344048 0.0799029 0.273949 -0.108788 0.202933 0.276204 0.153345 0.204448 -0.619554 0.304281 -0.203743 -0.0835509 -0.00650642 -0.195717 -0.380399 -0.066738 0.528972 -0.0862399 -0.208471 -0.398526 -0.0627304 -0.537014 0.17778 0.0906657 -0.26086 0.0809957 -0.175124 -0.489164 -0.104348 0.101762 0.336981 0.095522
24718762 0.341413 -0.0556626 0.101318 -0.0371601 -0.0597792 -0.0843125 -0.102739 -0.324927 -0.431082 -0.0137043 -0.0981428 0.218701 -0.0622038 0.182999 -0.0612165 0.332858 0.0543589 0.17055 0.337599 -0.23557 0.269069 0.0539925 0.152378 0.0667838 -0.0787065 -0.0123617 -0.261479 -0.107227 -0.0242601 -0.0703569 -0.340199 -0.0967385 -0.168868 0.25854 0.357457 -0.000551219 -0.129209 -0.38598 0.216549 0.0288161 -0.209665 -0.0503352 -0.111232 0.134066 0.351495 -0.142302 0.183835 0.145486 0.0529761 0.0470447 -0.200233 0.113797 -0.176652 0.26799 0.0105812 -0.00877394 -0.255526 -0.0485261 0.0668388 -0.220969 -0.251292 -0.0303247 -0.391482 0.129874 -0.415839 0.0368352 -0.0989864 0.0649669 0.228429 0.157391 0.335904 -0.0570202 0.153216 0.0543146 0.186541 0.158721 -0.564929 0.254101 -0.051193 0.0206979 -0.0094195 -0.128655 -0.3848 0.00694962 0.317209 -0.0722996 -0.184787 -0.425926 -0.192732 -0.508154 0.145919 0.0477489 -0.262362 -0.0110903 -0.175973 -0.382975 -0.0189819 0.142648 0.338406 0.0188249
39185713 0.468016 0.0751228 0.169875 -0.0620309 -0.097913 -0.0766321 0.0167781 -0.316856 -0.427585 -0.000890777 -0.167068 0.325955 -0.133626 0.196344 -0.0394494 0.330814 -0.0048312 0.191051 0.451036 -0.296559 0.258045 0.0855989 0.181205 0.198483 -0.126914 -0.116015 -0.263767 0.0368517 -0.0972644 -0.044444 -0.321715 -0.0495014 -0.111384 0.238112 0.430323 -0.0742093 -0.157046 -0.3236 0.21404 0.158522 -0.244215 -0.104931 -0.137757 0.189317 0.397515 -0.0739836 0.218524 0.10802 0.0492514 0.0953013 -0.183611 0.0547706 -0.0195541 0.249438 0.0621228 0.221457 -0.294184 0.0143928 0.0433307 -0.129103 -0.261536 -0.0259201 -0.406681 0.171179 -0.546579 0.194604 -0.114757 0.00165406 0.219622 0.112602 0.297869 -0.206541 0.104843 0.153917 0.0871901 0.300106 -0.57229 0.201572 -0.202398 -0.0262571 -0.133954 -0.17804 -0.285532 -0.0204133 0.513194 -0.0334232 -0.164844 -0.420293 -0.119939 -0.42454 0.127751 0.10055 -0.220805 0.0476429 -0.174471 -0.496883 -0.151964 0.146575 0.393875 0.128817
59582398 0.0419854 -0.0958064 0.287509 -0.0946798 -0.208045 0.015862 -0.141514 -0.0129899 0.0571036 0.0849541 -0.209802 0.262999 -0.222565 0.169912 -0.0670052 0.237732 0.075646 -0.100184 0.409154 -0.0706783 -0.118424 0.106515 0.0351962 0.522354 0.000939297 -0.113185 -0.317791 -0.298804 -0.19937 -0.267508 -0.204392 0.0848382 -0.32605 0.0549436 0.230556 -0.0580989 -0.181346 -0.226282 0.300909 -0.0917403 -0.0324896 -0.0827959 0.0624723 0.0194473 0.474482 -0.0368176 -0.042942 -0.229772 0.0406473 -0.171966 -0.233541 0.144251 -0.0726789 0.206014 -0.00333604 0.057785 -0.139153 0.0143875 -0.309487 0.149808 -0.258521 -0.161708 -0.0570185 0.0594476 -0.549251 -0.190977 -0.0692989 0.287467 0.0401522 -0.128058 0.264571 -0.0165687 -0.0287462 0.0638205 0.196099 0.175796 -0.375038 0.265158 0.00262782 0.316727 0.205783 0.00379246 -0.0169346 -0.099661 0.059371 -0.123819 -0.0430435 -0.11163 -0.297562 -0.419084 0.191095 0.112311 -0.183531 0.0741217 0.0466118 -0.286849 -0.0921794 0.116199 0.439131 -0.0187036
19208992 0.340603 0.0908215 0.117897 -0.0638307 -0.122956 -0.0692856 -0.0420753 -0.261923 -0.449076 -0.082636 -0.138841 0.362683 -0.111763 0.191723 0.0394941 0.0380431 0.016962 -0.0282045 0.224603 -0.178658 0.0735612 0.0515674 0.22625 0.23011 0.0985951 -0.100781 -0.142073 -0.0135619 -0.207701 -0.0489914 -0.300412 -0.175989 0.0235901 0.11926 0.344429 -0.124108 -0.109476 -0.270238 0.1153 0.0920784 -0.274433 -0.101217 -0.0398313 0.122991 0.364996 -0.220167 0.118856 0.113343 -0.206911 0.0622285 -0.210965 0.060408 0.0622193 0.282325 -0.0113554 0.170332 -0.183289 0.00337705 0.054779 -0.0623928 -0.288913 0.00463832 -0.367696 0.173992 -0.604222 0.173577 -0.209152 0.00688008 0.288416 -0.105396 0.355824 -0.146635 -0.0112916 0.21121 -0.0240953 0.325357 -0.754023 0.220948 -0.174429 0.170118 0.101866 -0.208302 -0.358029 -0.15253 0.457229 -0.0305232 -0.00396954 -0.272721 -0.0906688 -0.251601 -0.00186004 0.0368312 -0.311626 -0.0279806 -0.056075 -0.454335 -0.22363 0.140762 0.417007 0.0584626
13034472 0.439658 0.239149 0.0391299 -0.0507672 -0.133327 0.0363882 0.0642451 -0.110835 -0.402435 0.0172545 -0.27649 0.130592 0.0183097 0.111205 -0.0474063 -0.0255597 -0.153424 0.0762551 0.465761 -0.190456 0.0965454 0.217935 0.200379 0.209541 0.0313488 0.0382081 -0.100498 -0.224525 -0.310652 -0.0378262 -0.0422061 -0.0707502 -0.0548836 0.123613 0.401392 -0.0276006 -0.10614 -0.165152 0.31433 0.184017 -0.286595 -0.121123 -0.152833 0.0880469 0.284616 -0.194307 0.273868 0.212529 -0.152383 -0.0126742 -0.310356 0.0181957 0.170016 0.269524 0.263451 0.320055 -0.0754265 -0.0110643 -0.0538854 -0.128883 -0.182017 -0.0604019 -0.333947 0.0235966 -0.561504 0.108156 -0.0777839 -0.0231288 0.38125 -0.207531 0.239275 -0.021637 0.0276449 0.26145 0.0443547 0.4158 -0.64751 0.248509 -0.110999 -0.0302975 -0.0217638 -0.393432 -0.461447 0.00571461 0.64288 0.0968226 -0.162293 -0.54823 -0.0848688 -0.669793 0.174436 0.165967 -0.272774 0.293254 -0.0509658 -0.536156 -0.313938 0.139569 0.254118 0.383465
17978784 0.454418 0.156921 0.144863 -0.00780785 -0.0967198 -0.0767468 0.000853566 -0.220134 -0.488962 0.0236036 -0.243 0.270714 -0.0708404 0.206296 -0.0757678 0.181071 -0.116269 0.19409 0.447288 -0.317264 0.189727 0.15479 0.165193 0.214362 -0.126139 -0.035988 -0.157969 -0.117203 -0.171605 -0.0490102 -0.236319 -0.12793 -0.0938186 0.150214 0.413022 0.0187614 -0.129683 -0.27056 0.168099 0.127884 -0.283605 -0.0463085 -0.0859162 0.131337 0.410651 -0.118438 0.159656 0.11029 -0.0597917 0.00871855 -0.203696 0.0130178 0.0967859 0.260482 0.196558 0.194436 -0.234491 0.034551 0.00402588 -0.0838786 -0.227833 -0.00374974 -0.392177 0.093834 -0.49037 0.132252 -0.0702123 -0.015662 0.337828 -0.0311262 0.261518 -0.0838062 0.0529303 0.188903 0.0901681 0.348075 -0.656753 0.248627 -0.146871 -0.00956013 -0.0746918 -0.257414 -0.385313 -0.0172948 0.574379 0.0184752 -0.165792 -0.46016 -0.112307 -0.50048 0.171862 0.0988705 -0.324079 0.158426 -0.167591 -0.501222 -0.203733 0.123866 0.380051 0.179513
769584 0.0288908 0.00687254 0.200369 -0.0425646 -0.205472 -0.246333 -0.0744301 -0.0698629 -0.127133 0.0620948 -0.0241569 0.381798 -0.354673 0.184275 0.0403882 0.164263 0.19497 0.0113287 0.0690402 0.0165444 -0.256219 -0.237656 0.215553 0.38609 0.0994489 -0.215488 -0.193302 -0.11118 -0.292227 0.0706929 -0.348573 0.0108809 -0.0754534 0.0683427 0.242465 -0.0982686 -0.233585 -0.322328 0.0687642 0.120109 0.013836 -0.160106 0.100806 0.0361456 0.323691 -0.103173 -0.0171426 -0.299929 -0.164476 0.0472153 -0.163302 0.14688 -0.0982799 0.194801 -0.00417784 0.0566592 -0.100543 -0.024634 0.084721 -0.0482797 -0.198215 -0.0262756 -0.0515991 0.1527 -0.490743 0.00203105 -0.0441175 0.246355 0.00899814 -0.0683725 0.273808 -0.119257 0.0249122 0.181499 0.0539471 0.203408 -0.650126 0.305824 0.0455752 0.104137 0.340546 -0.133079 -0.102827 -0.0793404 0.222106 -0.178183 0.0609104 -0.240439 -0.12945 -0.121588 -0.209249 -0.0701631 -0.0186125 0.0763851 -0.0604695 -0.319241 -0.0867685 0.236742 0.349563 -0.0856322
271656652 -0.152832 -0.0914147 0.214194 -0.112949 -0.23066 -0.205997 -0.256929 -0.124513 -0.0425378 0.0795849 -0.0169161 0.211344 -0.335007 0.281759 -0.00149402 0.142859 0.237693 -0.156465 0.180217 0.0278296 -0.302197 -0.169245 0.165908 0.300178 0.282002 -0.116489 -0.483856 -0.022041 -0.254823 -0.225832 -0.251067 0.0415612 -0.264944 0.0903024 0.428075 -0.0218799 -0.199058 -0.322638 0.297657 0.221057 -0.0220502 0.00309034 0.0144308 -0.107207 0.440933 -0.161494 -0.0534308 -0.166228 -0.066424 0.0091199 -0.312016 0.176242 -0.206025 0.175611 -0.198318 0.0186081 -0.199749 -0.149429 -0.153583 0.0965379 -0.356833 -0.206185 -0.355957 0.0449032 -0.585735 -0.110956 -0.0899723 0.585923 -0.165951 -0.140788 0.346588 -0.0962333 0.155188 0.2288 0.155068 0.0493088 -0.598375 0.257577 0.0788785 0.265958 0.419684 -0.0105921 -0.0901809 0.0626148 -0.0243535 -0.179618 0.0393566 -0.111273 -0.161695 -0.228139 -0.0574405 -0.0696707 0.0114194 0.0349059 0.0588825 -0.343026 0.125165 -0.0513116 0.42546 -0.0660447
