71 100
49801021 -0.293033 0.537373 0.367126 -0.0608717 0.0755495 -0.612059 0.258158 0.346947 0.835805 0.575825 0.475496 -0.539097 -0.169519 0.518972 -0.36945 0.693662 -0.0208529 -0.182443 0.16397 -0.750492 0.979258 -0.330029 0.265049 0.0906708 0.0284486 -0.997557 -0.0835077 0.134286 -0.54 1.49509 -0.743573 0.0242977 -0.872328 0.380191 -0.362892 -0.270759 0.229545 0.302492 -0.124592 0.703093 -0.367822 0.73645 0.0336263 -0.556202 -0.610335 -0.631731 1.16941 -0.0574623 0.789053 -0.636679 -0.12634 0.335995 -0.286271 0.249073 -0.240241 0.161691 -0.346501 0.184804 -0.363411 0.10076 0.891128 0.408981 0.0877917 -0.289716 -0.0227277 -1.27381 1.10464 -0.623698 -0.342065 1.12697 0.198412 0.131709 0.249376 -0.103983 -0.623699 -0.0222647 0.231913 -0.339575 0.40729 -0.434427 -0.3978 -0.0958184 -0.182583 0.864589 -1.07138 0.459583 -0.467372 -0.0371035 0.369183 -0.544224 -0.339222 -0.579708 -0.731102 -0.425551 -0.756828 1.19917 -0.145152 -0.541467 -0.209089 0.542297
19667970 -0.291907 0.563152 0.343759 -0.04225 0.102026 -0.617487 0.269265 0.380151 0.823785 0.573056 0.427663 -0.510059 -0.127852 0.516983 -0.356844 0.707168 0.0152481 -0.176467 0.122978 -0.73774 0.982157 -0.319661 0.266064 0.121053 0.00647334 -0.964487 -0.114954 0.145881 -0.531238 1.45923 -0.716296 0.0192943 -0.844815 0.373618 -0.354186 -0.289348 0.220598 0.279735 -0.143577 0.70671 -0.381314 0.743551 0.00844031 -0.541504 -0.580535 -0.64597 1.15111 -0.0339279 0.780499 -0.655334 -0.155587 0.313778 -0.265531 0.217696 -0.25167 0.168576 -0.32142 0.186845 -0.404752 0.0782712 0.854675 0.384988 0.0513576 -0.270182 -0.0262451 -1.23301 1.08583 -0.585395 -0.330026 1.1488 0.214293 0.15229 0.225265 -0.134129 -0.63917 -0.0368943 0.202517 -0.359371 0.38454 -0.438801 -0.395451 -0.0767475 -0.197839 0.829758 -1.02994 0.439175 -0.464641 -0.00534348 0.373222 -0.517529 -0.320992 -0.553226 -0.683608 -0.414966 -0.747709 1.19214 -0.152974 -0.549815 -0.213843 0.516124
45500027 -0.203373 -0.0919219 0.0966285 0.0639573 0.0573224 -0.0222474 -0.168422 0.0289089 0.0938159 0.143817 0.0813161 -0.30665 -0.107824 0.138311 0.00230069 0.0921145 -0.0254658 -0.108333 0.0194587 -0.290692 0.06803 -0.241071 0.133956 -0.0216615 0.0410499 -0.378727 0.0480656 0.12351 -0.133464 0.244143 -0.0582723 -0.103071 -0.145894 0.184305 -0.276505 -0.0458319 -0.00864056 0.313553 -0.120428 -0.00423274 -0.035868 -0.0457841 0.320574 -0.139647 0.0262196 -0.0690959 0.328064 -0.174769 -0.0996696 -0.0737668 0.0232323 0.0736377 -0.306225 0.151447 -0.16965 0.227511 -0.101931 -0.23813 -0.0541788 -0.0641532 0.188631 0.277906 0.0886705 -0.350701 -0.181347 -0.241459 0.158357 -0.131753 -0.00677814 0.0217941 -0.00255604 0.00200517 0.163612 0.241082 0.0856737 -0.0357499 -0.071601 0.0814979 0.293517 -0.0586787 -0.0707883 0.100515 -0.13126 0.148116 -0.155689 0.170338 -0.0113775 -0.130706 -0.176179 -0.000131223 -0.199681 -0.0664488 0.0570506 -0.0557804 -0.157377 0.233815 -0.187539 -0.135431 -0.116674 0.256663
30418870 -0.239908 -0.0965349 0.228689 0.0276913 -0.0790986 -0.00198852 -0.324219 -0.08065 -0.0037644 0.16828 0.0134859 -0.230474 -0.0221868 0.14 0.0471184 0.11924 0.00553184 -0.119342 -0.0635553 -0.285807 0.188907 -0.216758 0.0335592 -0.00320303 0.114122 -0.263634 0.135709 0.0741269 -0.225551 0.283689 -0.046049 -0.0442486 -0.232839 0.245797 -0.285711 -0.000356922 -0.101948 0.177209 -0.0969008 0.0570999 -0.132966 0.0967049 0.322282 -0.0985994 0.0441796 -0.012032 0.250118 -0.215976 -0.152439 -0.0399277 -0.0179236 0.142782 -0.332889 0.124779 -0.125023 0.171386 -0.140635 -0.290708 -0.0119611 -0.0274097 0.205075 0.250113 0.120226 -0.289568 -0.128843 -0.198763 0.189556 -0.0440373 -0.0162601 -0.00937933 -0.0996832 -0.0122643 0.207009 0.195363 0.134278 -0.0956396 -0.039572 0.0209374 0.31172 -0.0618614 0.0421038 0.156501 -0.145777 0.179358 -0.159148 0.18046 0.0700629 -0.19781 -0.218134 -0.070401 -0.25441 0.087233 0.0570969 0.0277032 -0.0657719 0.151995 -0.210369 -0.0649132 -0.133982 0.206623
110517297 -0.271366 -0.128659 0.205829 -0.0217286 -0.128903 0.0165566 -0.344038 -0.0632518 -9.81662e-05 0.146136 0.00621217 -0.207106 -0.0563079 0.134298 0.0768388 0.11742 -0.0238234 -0.134546 -0.0485768 -0.326524 0.16159 -0.243434 0.0746389 0.0146443 0.0702832 -0.316302 0.137569 0.0608498 -0.181916 0.296523 -0.0636942 -0.0515878 -0.281995 0.200101 -0.300784 -0.0144501 -0.0897512 0.187801 -0.116548 0.0666764 -0.093679 0.0673325 0.348546 -0.106756 0.0142823 -0.0484241 0.235083 -0.187509 -0.159024 -0.061088 -0.00732901 0.112789 -0.383271 0.130662 -0.176796 0.120242 -0.113888 -0.273926 0.00947701 -0.0400258 0.198254 0.258351 0.125871 -0.295208 -0.114238 -0.201916 0.178678 -0.0196519 -0.0116194 -0.0108223 -0.101918 0.023617 0.184234 0.205313 0.153122 -0.0809831 -0.0282598 -0.0359231 0.348836 -0.107459 0.0455706 0.160698 -0.159213 0.200527 -0.173199 0.196532 0.0156725 -0.233572 -0.261349 -0.0512657 -0.244684 0.0596064 0.0993199 0.0733843 -0.0550585 0.182596 -0.226946 -0.0992087 -0.138455 0.216659
59675631 -0.235271 -0.139734 0.209844 0.106206 -0.0292582 0.0232231 -0.294727 -0.0503092 0.0522637 0.106696 0.0029163 -0.213468 0.00239279 0.11675 -0.0208297 0.0873913 -0.0341269 -0.180903 -0.0709937 -0.308701 0.155491 -0.276408 0.0101642 -0.0377534 0.137402 -0.297322 0.186413 0.0777819 -0.23401 0.287392 -0.0267478 -0.112249 -0.230594 0.146597 -0.310793 0.0140448 -0.0727091 0.201918 -0.0970975 -0.0310606 -0.179344 0.0584114 0.266592 -0.0488686 0.0693071 -0.0741127 0.252284 -0.20784 -0.159246 0.04623 0.0313939 0.151068 -0.292724 0.156527 -0.0522282 0.188416 -0.111441 -0.323756 -0.083892 -0.00852327 0.213264 0.329274 0.164788 -0.390339 -0.167285 -0.0932558 0.184167 -0.127298 -0.0261959 -0.0292724 -0.125151 -0.0472457 0.193763 0.269166 0.220666 -0.0436051 -0.036946 0.102986 0.370509 -0.115033 -0.0661022 0.18851 -0.169998 0.195611 -0.194068 0.202296 0.042615 -0.163829 -0.198134 -0.115087 -0.235781 0.0703927 0.0827857 -0.0120257 -0.0993985 0.0891642 -0.193135 -0.0650394 -0.0775727 0.171243
24346512 -0.245676 -0.084034 0.229681 0.0676647 -0.0826256 -0.0611427 -0.345735 -0.0925089 -0.0149215 0.175186 0.00501366 -0.268197 -0.0127705 0.151956 0.0235312 0.112488 0.0207148 -0.0923025 -0.049484 -0.266873 0.215076 -0.182613 0.000652197 -0.0450713 0.112961 -0.218767 0.0996127 0.0546555 -0.256033 0.335904 -0.0331395 -0.0548804 -0.202968 0.221894 -0.265504 0.0157793 -0.0966437 0.123075 -0.0978277 0.00879867 -0.111447 0.130136 0.275314 -0.100339 0.081996 -0.0723267 0.238152 -0.2427 -0.136409 -0.0510895 -0.0153035 0.15437 -0.283907 0.148839 -0.115311 0.196043 -0.155793 -0.243696 0.0583336 -0.0540118 0.184738 0.230337 0.123025 -0.283013 -0.104181 -0.198418 0.179043 -0.0270347 -0.0157417 0.0467789 -0.0715141 0.00261065 0.204851 0.218725 0.143052 -0.08148 -0.00367184 -0.0221719 0.280574 -0.106998 0.0295375 0.0941713 -0.155919 0.224199 -0.183736 0.162495 0.052435 -0.199887 -0.204294 -0.0586449 -0.232199 0.0785672 0.00264994 0.037288 -0.0330056 0.204157 -0.174148 -0.0410275 -0.121205 0.245761
22562425 -0.161192 -0.0992268 0.152432 0.151193 0.0586623 -0.0209621 -0.195856 -0.0725394 0.142779 0.125992 0.071413 -0.335618 -0.0827084 0.155893 0.0321866 0.137345 -0.0233424 -0.146482 -0.0487775 -0.259917 0.134211 -0.291368 0.00528044 -0.0985549 0.0928789 -0.291201 0.072969 0.133173 -0.257208 0.298807 -0.0391818 -0.132032 -0.174763 0.0986914 -0.268346 -0.0326892 -0.073989 0.210683 -0.16399 -0.11939 -0.212409 0.0508925 0.216054 -0.0362303 0.0682315 -0.103492 0.274037 -0.201527 -0.0492927 -0.00858791 0.101021 0.154829 -0.248057 0.133273 -0.0598073 0.248946 -0.0733433 -0.273135 -0.0873685 -0.00493811 0.204623 0.285582 0.130379 -0.396342 -0.216762 -0.12326 0.185323 -0.127083 -0.0414111 0.0283838 -0.0520845 -0.0424566 0.147583 0.299969 0.110508 -0.0531885 -0.0277924 0.178549 0.298231 -0.0866312 -0.134401 0.130931 -0.173767 0.176061 -0.229844 0.222604 0.0320856 -0.124383 -0.158406 -0.119798 -0.160713 -0.073355 -0.0105734 -0.0748322 -0.113727 0.171988 -0.169518 -0.0567729 -0.10069 0.186392
33454142 -0.222922 -0.187879 0.102417 0.037506 -0.0414072 -0.0201229 -0.324162 -0.0611654 -0.00130573 0.116766 0.0171634 -0.259918 -0.063252 0.191601 0.0252697 0.082943 0.0320885 -0.0846435 -0.0359545 -0.326059 0.098054 -0.264231 0.0166475 -0.0407912 0.102851 -0.285445 0.0921247 0.0920198 -0.199776 0.294047 -0.0556949 -0.123492 -0.184512 0.138024 -0.291926 0.0328116 -0.050378 0.234772 -0.149076 -0.0579799 -0.0954031 -0.0030509 0.332829 -0.0947797 0.0489329 -0.12572 0.230633 -0.212234 -0.204486 -0.0043939 0.0288034 0.125659 -0.34432 0.195639 -0.131719 0.179332 -0.129334 -0.278931 -0.00837564 -0.0669722 0.167103 0.31816 0.141943 -0.391639 -0.16687 -0.150386 0.122828 -0.0808419 -0.0176367 -0.00560868 -0.0715471 0.00542648 0.190961 0.284645 0.201602 -0.0477255 -0.0470269 0.0345176 0.332238 -0.160708 -0.0832713 0.0951497 -0.181499 0.224519 -0.154038 0.250255 -0.019403 -0.214207 -0.274808 -0.0167267 -0.210104 -0.00771438 0.0772075 -0.000725066 -0.0822232 0.157571 -0.245694 -0.0811734 -0.147925 0.207345
176320780 -0.269575 -0.161579 0.151601 0.0733089 -0.0798568 0.049661 -0.232041 0.020878 -0.023179 0.220096 0.00610222 -0.273949 -0.00882622 0.110987 0.0210194 0.115916 -0.0106445 -0.121511 0.0138112 -0.338907 0.121011 -0.271872 0.137235 0.0336014 0.0525947 -0.320522 0.159228 0.112894 -0.105533 0.256818 0.00110751 -0.0817087 -0.197656 0.262206 -0.358118 -0.0348131 -0.0856605 0.26341 -0.0949622 0.0716977 -0.0129012 0.0394824 0.32916 -0.173021 0.0205027 -0.0120716 0.238371 -0.205415 -0.176606 -0.073133 -0.0346037 0.129707 -0.359714 0.0724049 -0.184232 0.219838 -0.113842 -0.276101 -0.0534964 -0.0470304 0.178632 0.254351 0.0667641 -0.252907 -0.111697 -0.259176 0.124385 -0.0345032 0.0182548 0.00409799 -0.074513 0.065246 0.280506 0.187609 0.133787 -0.0671889 -0.0680482 0.125846 0.223072 -0.0288192 0.0563832 0.188602 -0.189619 0.116983 -0.199856 0.156973 0.087409 -0.134541 -0.196608 0.00865271 -0.279785 0.055318 0.124931 0.0170976 -0.0860245 0.228297 -0.227102 -0.218488 -0.116614 0.21035
106637102 -0.200478 -0.12536 0.139443 0.0982063 0.0284231 -0.0372441 -0.263728 -0.0167674 0.0375604 0.116737 0.0467664 -0.269825 -0.0385128 0.166641 -0.0293644 0.0816818 0.0322431 -0.0977546 -0.034163 -0.308076 0.114519 -0.240687 -0.0128071 -0.0516442 0.139328 -0.285376 0.103237 0.111751 -0.23917 0.26978 -0.0442043 -0.130339 -0.162419 0.171241 -0.25937 0.0377227 -0.0372587 0.266247 -0.119902 -0.0639923 -0.135393 0.0043857 0.293251 -0.0927475 0.0816457 -0.119768 0.281027 -0.205294 -0.167315 0.0267037 0.0168238 0.117592 -0.293838 0.201337 -0.0927338 0.223163 -0.135461 -0.270587 -0.0759969 -0.0521445 0.202735 0.334633 0.143941 -0.395494 -0.197873 -0.159459 0.178394 -0.139612 -0.020284 0.0218744 -0.0610301 -0.0347331 0.187837 0.268789 0.176438 -0.0431739 -0.0660745 0.0997486 0.322796 -0.12573 -0.124245 0.106467 -0.17416 0.215325 -0.152965 0.23214 0.00355938 -0.177089 -0.205005 -0.0667935 -0.234888 -0.00245472 0.0334133 -0.060425 -0.129142 0.152972 -0.225222 -0.079357 -0.12472 0.209793
35423466 -0.235442 -0.190492 0.156007 0.0542398 -0.0732563 0.0119541 -0.310068 -0.0105742 -0.041893 0.194435 0.0113364 -0.259073 -0.0401697 0.149611 0.044418 0.149037 0.0176853 -0.115772 -0.0128216 -0.295017 0.135623 -0.250352 0.0882453 0.00484954 0.0710823 -0.294906 0.136268 0.0912825 -0.195098 0.315898 -0.036236 -0.054103 -0.202427 0.218468 -0.27973 -0.00851735 -0.023516 0.223537 -0.112672 0.0247424 -0.0492752 0.0418148 0.394014 -0.177258 -0.0142719 -0.0748514 0.203659 -0.236724 -0.224141 -0.0717732 0.0133992 0.116364 -0.392852 0.132835 -0.160681 0.175465 -0.160978 -0.297564 0.00179443 -0.0608223 0.162743 0.279392 0.11498 -0.315535 -0.157622 -0.220232 0.163243 -0.0359183 -0.0313238 0.022846 -0.0755322 0.0679838 0.257111 0.232542 0.169176 -0.0800364 -0.0649373 0.021103 0.276608 -0.109264 0.0242057 0.182365 -0.177161 0.227831 -0.166444 0.187253 -0.00225417 -0.188216 -0.235767 0.00560306 -0.22248 -0.013865 0.0837808 0.0426771 -0.0946502 0.205182 -0.269876 -0.164906 -0.113387 0.22053
129716643 -0.296569 -0.0667905 0.226252 0.0337247 -0.110008 -0.00568735 -0.276233 -0.00525085 -0.035381 0.188732 -0.0025397 -0.203823 0.00832003 0.108704 -0.0274241 0.103121 -0.0190529 -0.124041 -0.0285735 -0.305291 0.193522 -0.223615 0.122415 0.0455138 0.0773288 -0.308055 0.17662 0.0283662 -0.169913 0.350721 -0.056263 -0.0389079 -0.194975 0.275599 -0.319533 -0.0275514 -0.0390896 0.185552 -0.0385646 0.172409 -0.0237486 0.0847058 0.328289 -0.178284 -0.014064 -0.0177766 0.250743 -0.214611 -0.155416 -0.101237 -0.060633 0.12644 -0.301476 0.118844 -0.159614 0.157638 -0.197607 -0.279874 -0.00493799 -0.0468376 0.208876 0.264836 0.0958698 -0.236209 -0.0932873 -0.234773 0.206402 -0.0787717 -0.0367171 0.0269339 -0.106522 0.0413111 0.259806 0.152105 0.139826 -0.0601642 -0.0288656 -0.0297313 0.294346 -0.0648727 0.0882306 0.171137 -0.130634 0.187316 -0.171789 0.110417 0.0595872 -0.166354 -0.180757 -0.0499404 -0.279401 0.123001 0.0516835 0.043736 -0.0713292 0.184124 -0.166921 -0.121018 -0.0889016 0.229841
17073 -0.261971 -0.110522 0.163809 0.0370615 -0.109063 -0.0226001 -0.281492 -0.0600396 -0.0222956 0.183673 0.00133444 -0.269064 -0.042106 0.132556 0.0503418 0.134235 0.0139013 -0.0842409 -0.0192776 -0.291793 0.17522 -0.229559 0.0870068 0.00279833 0.0905672 -0.281287 0.10656 0.057163 -0.168572 0.356828 -0.0578204 -0.0599021 -0.174802 0.224431 -0.29897 -0.0279209 -0.0421771 0.173104 -0.0993338 0.0695271 -0.0175677 0.0708443 0.334034 -0.157294 0.00980575 -0.0632875 0.216359 -0.221561 -0.160007 -0.11383 -0.00503435 0.108021 -0.327407 0.124169 -0.172362 0.168162 -0.168251 -0.249432 0.0540955 -0.0683605 0.158783 0.247387 0.0916779 -0.263202 -0.133491 -0.25192 0.179065 -0.043908 -0.0296357 0.0399821 -0.0874473 0.0678396 0.237926 0.212752 0.147153 -0.0742468 -0.0192858 -0.0222618 0.26125 -0.0891137 0.0565936 0.129015 -0.160304 0.211756 -0.175041 0.157984 0.0312847 -0.185392 -0.229303 -0.0189736 -0.23587 0.0536142 0.0460642 0.0580577 -0.0374626 0.211226 -0.207683 -0.105085 -0.125347 0.242018
21879024 -0.253295 -0.138036 0.174575 -0.0328138 -0.11542 -0.0120319 -0.316408 -0.1078 -0.0390676 0.162987 -0.0249219 -0.173744 -0.00617897 0.200895 0.0447117 0.125149 0.01788 -0.0871617 -0.0486938 -0.32271 0.18317 -0.21058 0.0797402 0.0315929 0.137594 -0.315921 0.136152 0.019706 -0.160936 0.35856 -0.121259 -0.0219765 -0.217106 0.238739 -0.297264 -0.0202405 -0.00746789 0.154661 -0.0844646 0.117228 -0.0877814 0.091838 0.373318 -0.144972 -0.0393732 -0.0454415 0.179944 -0.24425 -0.220136 -0.0615932 0.0289047 0.158548 -0.379302 0.105247 -0.127595 0.125161 -0.212317 -0.300981 0.0633305 -0.0613692 0.185402 0.282831 0.123796 -0.310074 -0.121097 -0.221826 0.178198 -0.0773112 -0.0451351 0.0101877 -0.0983545 0.0296521 0.244688 0.218352 0.233622 -0.112357 -0.00454934 -0.0836909 0.338539 -0.107154 0.0762592 0.128627 -0.162191 0.238826 -0.170549 0.183338 -0.000828531 -0.214551 -0.248343 0.00511131 -0.229164 0.107484 0.110895 0.0699064 -0.0669348 0.113683 -0.20977 -0.111414 -0.144594 0.212696
18699923 -0.292432 -0.149803 0.133947 0.0842132 -0.096299 0.000870597 -0.238501 -0.0207112 -0.060757 0.209487 -0.00513199 -0.307066 0.00134952 0.145716 -0.00205003 0.103125 0.00642879 -0.0989512 -0.0172079 -0.318997 0.13622 -0.254411 0.116044 0.000111558 0.0857989 -0.271195 0.133612 0.0735577 -0.130177 0.340675 -0.0136044 -0.0905917 -0.100294 0.277496 -0.373233 -0.0188049 -0.0304703 0.207515 -0.0909509 0.0635403 0.0019954 0.0472672 0.350055 -0.173918 0.0358348 -0.0240842 0.192983 -0.236049 -0.190632 -0.0808098 -0.0131936 0.141646 -0.299356 0.132726 -0.166521 0.21136 -0.199129 -0.299651 0.00696353 -0.0933766 0.154586 0.276452 0.0769012 -0.288177 -0.172595 -0.228793 0.140753 -0.0748496 0.00789837 0.014359 -0.0810362 0.0622214 0.288996 0.20442 0.139786 -0.0518919 -0.0345472 0.100027 0.222795 -0.0505015 0.0319193 0.149301 -0.184604 0.18335 -0.166691 0.158589 0.0822727 -0.131859 -0.216969 -0.00352841 -0.236316 0.0762684 0.0406189 0.00438123 -0.060151 0.192959 -0.206657 -0.115692 -0.118454 0.235977
109715718 -0.186051 -0.109425 0.177118 0.103654 0.00801158 0.00895951 -0.217553 -0.000816239 0.0148999 0.193881 0.0428543 -0.243619 0.0109764 0.136876 -0.000185882 0.145278 0.0302896 -0.110206 -0.0248106 -0.282659 0.172389 -0.209073 0.045984 0.0112086 0.135551 -0.288422 0.116282 0.103863 -0.196362 0.253606 -0.0304379 -0.082143 -0.169475 0.251758 -0.282342 0.00379671 -0.053359 0.228904 -0.0953949 0.018712 -0.10336 0.0699856 0.289039 -0.147557 0.059704 -0.0473125 0.274533 -0.188567 -0.154373 -0.024651 -0.00399336 0.112325 -0.314143 0.0930729 -0.0851436 0.203955 -0.136201 -0.281783 -0.0557314 -0.0174946 0.179156 0.234759 0.0886484 -0.297175 -0.132242 -0.26448 0.204943 -0.114211 -0.000417351 0.030403 -0.0644655 -0.01779 0.248367 0.19492 0.143635 -0.0985533 -0.0764917 0.120594 0.224717 -0.00716584 -0.00384539 0.144661 -0.136078 0.171057 -0.196709 0.156481 0.0658094 -0.119633 -0.169529 -0.0385885 -0.277407 0.0467725 0.0771928 -0.00562469 -0.11489 0.160229 -0.221863 -0.151068 -0.152259 0.217805
37792861 -0.0833978 -0.0820602 0.177445 0.215509 0.167105 -0.041254 -0.1629 -0.0759787 0.183528 0.152981 0.122621 -0.297259 -0.0670655 0.23325 0.038147 0.188785 0.0062597 -0.156255 -0.0717334 -0.23362 0.171251 -0.209716 -0.0544888 -0.108506 0.189029 -0.314467 -0.00426811 0.138232 -0.357644 0.305663 -0.052619 -0.108179 -0.147174 0.158614 -0.209784 -0.011449 -0.0265895 0.200216 -0.179088 -0.207602 -0.334671 0.0914328 0.250681 -0.0569835 0.101815 -0.148622 0.301558 -0.231628 -0.0758899 0.0399381 0.17536 0.174735 -0.27891 0.120593 0.024102 0.281215 -0.0988082 -0.327094 -0.0698275 0.0185581 0.198705 0.296706 0.123074 -0.473434 -0.282034 -0.172844 0.267723 -0.200937 -0.0299223 0.027837 0.00256317 -0.152632 0.136371 0.300791 0.163699 -0.136854 -0.0656235 0.19684 0.3051 -0.0471606 -0.17112 0.0987931 -0.162692 0.261676 -0.245727 0.219548 0.0324529 -0.119857 -0.139032 -0.112673 -0.129866 -0.11384 -0.0069498 -0.101235 -0.190372 0.10685 -0.184459 -0.0406952 -0.172455 0.255386
482419601 -0.134678 -0.123467 0.254992 0.186891 0.0652929 0.0395372 -0.263878 -0.0125061 0.0671773 0.161651 0.0578646 -0.204085 0.0303982 0.182522 0.0097499 0.168598 0.0231746 -0.172389 -0.0726175 -0.301987 0.173594 -0.232727 -0.0134509 -0.0310711 0.168825 -0.317352 0.132642 0.107787 -0.303439 0.250066 -0.0118656 -0.0828305 -0.202677 0.234938 -0.249174 0.0227449 -0.0505477 0.199382 -0.113337 -0.102762 -0.310672 0.098698 0.289069 -0.0730022 0.118068 -0.0897238 0.249775 -0.234151 -0.169156 0.0801508 0.103405 0.176042 -0.318484 0.0848512 0.0130062 0.222855 -0.147937 -0.36627 -0.103065 0.023712 0.244257 0.276819 0.143269 -0.411904 -0.181235 -0.124362 0.258135 -0.162158 -0.00969488 0.0360357 -0.0815285 -0.108968 0.213394 0.266624 0.21152 -0.113588 -0.095384 0.191825 0.313706 -0.0288907 -0.0797904 0.201556 -0.182893 0.225451 -0.213897 0.192587 0.0682567 -0.150254 -0.152367 -0.0979229 -0.227635 0.0287454 0.0745327 -0.0266275 -0.159506 0.101184 -0.18944 -0.139373 -0.164303 0.205318
14622632 -0.209418 -0.129154 0.204694 0.0350527 -0.0580382 0.0284417 -0.282988 -0.0639817 0.0365689 0.159582 0.0431822 -0.184271 -0.00792182 0.202117 0.0303952 0.129106 -0.00463776 -0.128612 -0.0504429 -0.323283 0.156719 -0.221734 0.00493455 -0.00586381 0.126843 -0.311995 0.118165 0.087534 -0.231463 0.261592 -0.0453117 -0.0786758 -0.268616 0.187301 -0.259533 0.00576936 -0.089178 0.173816 -0.10904 -0.0095798 -0.156294 0.0853538 0.282226 -0.0869493 0.0430813 -0.0533023 0.239481 -0.162482 -0.106446 -0.00186016 0.0379129 0.153966 -0.327716 0.126109 -0.085345 0.146308 -0.141873 -0.306836 -0.0369751 -0.0245793 0.196041 0.267475 0.153834 -0.344548 -0.121821 -0.202536 0.165703 -0.0883223 -0.0118802 0.0294999 -0.0586197 -0.0461746 0.195094 0.220695 0.144021 -0.102615 -0.0341747 0.0688585 0.284112 -0.0616188 -0.0224575 0.127821 -0.135831 0.199122 -0.22788 0.212292 0.0168611 -0.19136 -0.232345 -0.0734002 -0.242504 0.0362636 0.0806988 0.0106719 -0.0932758 0.158771 -0.18814 -0.125309 -0.135051 0.210304
265005363 -0.181945 -0.254657 0.0620557 0.0582428 -0.0595038 0.038809 -0.274606 -0.086428 0.0373394 0.1595 0.0651265 -0.253131 -0.110751 0.252773 0.0704352 0.0975411 -0.0315409 -0.126088 0.0379173 -0.38719 0.0514589 -0.330031 0.0536851 -0.027509 0.0521528 -0.334582 0.0203919 0.125168 -0.15888 0.257856 -0.00397567 -0.185465 -0.274742 0.0810524 -0.347639 2.56132e-06 -0.14206 0.239927 -0.188411 -0.139156 -0.115911 0.0286338 0.262022 -0.0745669 0.0429113 -0.13926 0.235094 -0.172057 -0.130893 -0.0178349 0.0718586 0.175083 -0.389811 0.131153 -0.147174 0.218486 0.000416058 -0.277154 -0.0587977 -0.0641813 0.167189 0.292957 0.0810046 -0.384043 -0.147987 -0.15693 0.0314495 -0.0608524 0.0768591 -0.0398586 -0.0309664 -0.00895792 0.186129 0.265866 0.176404 -0.108456 -0.0614101 0.134066 0.297356 -0.132672 -0.0959118 0.0925817 -0.163249 0.136203 -0.223989 0.26835 -0.00377555 -0.180653 -0.270566 -0.0108406 -0.141456 -0.112762 0.0920008 -0.041016 -0.0993235 0.236381 -0.190888 -0.152072 -0.176518 0.227511
51876199 -0.142394 -0.135416 0.142181 0.0713216 -0.00825752 -0.0262219 -0.27486 -0.146112 0.128554 0.112845 0.0730282 -0.296748 -0.122697 0.204831 0.104287 0.152888 -0.0189246 -0.131363 -0.0637838 -0.274614 0.145616 -0.285629 -0.0483494 -0.0908754 0.125575 -0.282725 0.0420426 0.108371 -0.256222 0.303302 -0.0702677 -0.125091 -0.254917 0.0805182 -0.261931 0.00745323 -0.113121 0.163917 -0.195096 -0.149637 -0.2274 0.075241 0.242877 -0.0342034 0.0512406 -0.133325 0.263741 -0.166228 -0.0653919 -0.0193634 0.1107 0.153463 -0.316027 0.161249 -0.0794561 0.167174 -0.0319817 -0.278868 -0.0391107 -0.0116182 0.187848 0.294274 0.125097 -0.418946 -0.235747 -0.139847 0.166657 -0.0821393 -0.0138962 -0.0177485 -0.0545565 -0.0716073 0.129842 0.291457 0.148956 -0.110684 -0.0249834 0.102668 0.344524 -0.133064 -0.118576 0.105688 -0.148744 0.212022 -0.227062 0.263534 -0.00241317 -0.186696 -0.265349 -0.111272 -0.12648 -0.0857741 0.0180368 -0.0375627 -0.0963158 0.140642 -0.193554 -0.0125997 -0.154536 0.220971
21241783 -0.229607 -0.0884979 0.174751 0.0636135 -0.0609857 -0.0455971 -0.305467 -0.0578443 0.00512787 0.178559 0.038197 -0.285453 -0.032767 0.111395 0.0377519 0.110561 0.00741106 -0.10488 -0.0322234 -0.281492 0.189127 -0.220993 0.0460369 -0.0172794 0.13791 -0.268237 0.0893547 0.0676617 -0.201829 0.327661 -0.0382722 -0.0881291 -0.189699 0.23501 -0.302192 0.00815396 -0.0876646 0.187409 -0.116093 0.0262833 -0.0338907 0.0826548 0.301028 -0.156434 0.0507053 -0.0722454 0.288834 -0.193221 -0.142778 -0.0943027 -0.0310698 0.0909105 -0.325618 0.164998 -0.166934 0.177354 -0.106103 -0.237729 0.0381164 -0.0465046 0.154061 0.260443 0.077908 -0.284608 -0.156069 -0.281174 0.193398 -0.0775475 -0.00104077 0.00202328 -0.0855618 0.0117203 0.238908 0.194517 0.145365 -0.114843 -0.0300888 0.00456186 0.288929 -0.0834286 0.0348212 0.108694 -0.122873 0.200891 -0.172796 0.149871 0.0539102 -0.188613 -0.239203 -0.0331101 -0.256833 0.0459829 0.0372656 0.0390877 -0.0717251 0.191321 -0.19784 -0.0729336 -0.128042 0.291071
57122023 -0.230555 -0.191628 0.163871 0.0994414 -0.0123195 0.0486858 -0.283251 0.000475079 0.000646259 0.169609 0.00760689 -0.228356 -0.0391465 0.154948 0.00477988 0.108395 -0.0250025 -0.150153 -0.0153359 -0.323951 0.10191 -0.299618 0.0971045 0.0108207 0.0282167 -0.335534 0.147746 0.0942498 -0.167495 0.22382 -0.0122564 -0.0924352 -0.239007 0.175096 -0.31944 -0.00513129 -0.0854262 0.262749 -0.110827 -0.0110338 -0.132892 0.0179911 0.308562 -0.115861 0.0447353 -0.0769553 0.260627 -0.223019 -0.205182 0.00524055 0.0102859 0.158978 -0.347358 0.107204 -0.110264 0.222261 -0.0910147 -0.319421 -0.110419 -0.0293516 0.234403 0.290417 0.124793 -0.327331 -0.115501 -0.115897 0.122784 -0.050022 -0.00661232 -0.0257592 -0.0758073 -0.00176495 0.208854 0.250709 0.194764 -0.0251609 -0.0857792 0.125531 0.308972 -0.0960323 -0.0197451 0.205506 -0.198055 0.150384 -0.182613 0.193021 0.0363855 -0.144201 -0.195498 -0.0318295 -0.241783 0.0112577 0.140306 -0.00803224 -0.108601 0.193762 -0.223749 -0.183873 -0.121541 0.172721
45040038 -0.223444 -0.166453 0.159772 0.00462983 -0.100895 -0.0123003 -0.344832 -0.115652 -0.00251608 0.179472 0.0442917 -0.265937 -0.0466422 0.193428 0.0724061 0.112204 0.0162503 -0.0924047 -0.0420789 -0.310296 0.126121 -0.222693 -0.0114702 -0.0276904 0.121599 -0.242544 0.109737 0.10974 -0.249576 0.300277 -0.0305315 -0.0572272 -0.251693 0.192999 -0.266622 0.0229392 -0.117139 0.179422 -0.145924 -0.0158628 -0.0840751 0.0772313 0.331378 -0.107692 0.00834822 -0.0378378 0.205738 -0.203534 -0.161413 -0.0490987 0.0166272 0.147004 -0.365278 0.171094 -0.163264 0.174241 -0.149904 -0.279291 0.0102684 -0.0571194 0.143725 0.295668 0.12808 -0.328764 -0.16356 -0.216392 0.118934 -0.0270583 0.00396472 0.00178306 -0.0584215 0.0177001 0.225808 0.225233 0.128184 -0.127288 -0.0257478 0.0271773 0.284468 -0.106516 -0.00820326 0.124898 -0.133316 0.206328 -0.183062 0.225369 0.00930108 -0.244322 -0.291509 -0.0401744 -0.223058 -0.00328589 0.0410363 0.0241884 -0.058977 0.156792 -0.224314 -0.0817649 -0.121816 0.208731
29842036 -0.234296 -0.115891 0.192493 0.0570447 -0.0641647 0.0193595 -0.245221 -0.0470526 -0.0119555 0.172479 0.00590744 -0.201965 0.00254129 0.173758 0.0239481 0.156705 0.00797423 -0.116325 -0.0434841 -0.295147 0.186744 -0.199474 0.0682028 0.00442012 0.114129 -0.299891 0.119013 0.0449839 -0.182356 0.325524 -0.0540065 -0.0481813 -0.175313 0.230659 -0.27653 -0.0264661 -0.00470156 0.136761 -0.0834544 0.0349897 -0.110084 0.0835862 0.320891 -0.124838 0.033839 -0.0569396 0.178247 -0.20047 -0.146712 -0.0477558 0.0540536 0.143294 -0.307034 0.0980641 -0.0771605 0.143716 -0.199529 -0.305894 0.0377362 -0.0471491 0.174085 0.235677 0.12984 -0.309722 -0.130791 -0.215817 0.211829 -0.0896366 -0.0296662 0.0496338 -0.0762156 -0.0013809 0.226713 0.213811 0.168068 -0.0843222 -0.0233822 0.0271143 0.25208 -0.0412454 0.0255764 0.13405 -0.155012 0.233368 -0.204144 0.154497 0.0262207 -0.16136 -0.203558 -0.0345012 -0.217746 0.0759016 0.0758332 0.0452312 -0.0703296 0.150029 -0.18172 -0.110189 -0.130898 0.228008
14989781 -0.264574 -0.143788 0.165711 0.048049 -0.00805188 -0.00754736 -0.258503 0.00976262 -0.0310245 0.159189 -0.00608192 -0.236237 -0.0351043 0.178657 -0.0527164 0.103289 0.0218889 -0.087869 -0.039337 -0.293802 0.139832 -0.247604 0.101455 0.0104958 0.0338288 -0.305832 0.163263 0.0721762 -0.182359 0.322865 -0.0814767 -0.0626388 -0.158774 0.19253 -0.282866 -0.0223954 0.0104428 0.256145 -0.0822355 0.0731537 -0.0888638 0.0218718 0.34381 -0.150882 -0.005874 -0.0839055 0.24292 -0.257056 -0.194749 -0.045479 -0.00816689 0.163937 -0.311738 0.129007 -0.103262 0.202639 -0.212053 -0.301768 -0.0511706 -0.0385549 0.206869 0.278915 0.140732 -0.323761 -0.105646 -0.177527 0.176843 -0.087395 -0.070796 0.033208 -0.0643258 0.0391517 0.21766 0.23733 0.15784 -0.00313106 -0.0526598 0.0220181 0.296804 -0.112463 -0.016527 0.154785 -0.17683 0.204903 -0.178433 0.17149 -0.00202034 -0.129865 -0.169504 -0.0379385 -0.244174 0.0508642 0.0644191 -0.0202163 -0.0915586 0.176459 -0.221343 -0.122663 -0.114644 0.172483
57747123 -0.242139 -0.201964 0.162653 0.0978255 -0.0333672 0.0456582 -0.309536 -0.0198798 0.0072181 0.141192 0.0218198 -0.243172 -0.0648997 0.179654 -0.00753235 0.0878682 -0.0394037 -0.152587 -0.0288274 -0.348287 0.0668757 -0.317844 0.0687777 -0.0310651 0.027084 -0.327293 0.150443 0.0927749 -0.202298 0.27744 -0.00908319 -0.118829 -0.231559 0.124846 -0.311422 -0.00182122 -0.0757205 0.245654 -0.126742 -0.0486485 -0.135625 0.00951438 0.315602 -0.0888684 0.0323457 -0.101086 0.229527 -0.22477 -0.179001 -0.00639801 0.0400217 0.182834 -0.349294 0.159921 -0.117687 0.21653 -0.11895 -0.330589 -0.0918332 -0.0369536 0.214487 0.332957 0.140377 -0.374879 -0.159002 -0.088859 0.113986 -0.0655319 -0.0157695 -0.0283188 -0.0679747 -0.00296974 0.205837 0.273953 0.193202 -0.0236072 -0.0681889 0.108458 0.339011 -0.14796 -0.0703245 0.196861 -0.186149 0.184357 -0.199862 0.201434 0.00844815 -0.174978 -0.226954 -0.0655854 -0.205304 -0.0209044 0.090901 -0.0222974 -0.0911498 0.174777 -0.185135 -0.133748 -0.0934474 0.19375
127926349 -0.191245 -0.124788 0.185225 0.0944387 -0.0630392 0.00547995 -0.249782 -0.0432277 -0.0382595 0.237254 0.0169853 -0.183511 0.0302283 0.196021 0.0278008 0.15154 0.0121211 -0.0943125 0.0109662 -0.301875 0.172085 -0.166619 0.108448 0.0321477 0.119607 -0.309626 0.0671047 0.0312448 -0.170386 0.335119 -0.0329923 -0.0271036 -0.170244 0.296702 -0.268819 -0.0317483 -0.0101268 0.124475 -0.0672745 0.0491708 -0.0662401 0.118049 0.326434 -0.197126 0.00411037 -0.0440287 0.172847 -0.242399 -0.179224 -0.0877809 0.0499907 0.173714 -0.349697 0.0652675 -0.0951229 0.191557 -0.204764 -0.286007 0.067957 -0.0577176 0.146432 0.232407 0.0599689 -0.264253 -0.12375 -0.255495 0.171147 -0.0898252 0.0111618 0.0568072 -0.0407451 0.014394 0.274334 0.175916 0.178737 -0.139667 -0.0345286 -0.00253627 0.223121 -0.0287181 0.0884917 0.133759 -0.138237 0.222157 -0.188042 0.109022 0.040513 -0.167324 -0.180755 0.0419025 -0.188081 0.0412902 0.0791703 0.0550093 -0.100735 0.185124 -0.128637 -0.179748 -0.137615 0.288533
10924902 -0.264606 -0.105652 0.177892 0.127611 -0.00570271 -0.0351316 -0.268575 0.029956 -0.0488183 0.207479 -0.00724575 -0.285303 0.0203018 0.0938887 -0.057345 0.113731 0.0348783 -0.0976875 -0.00694682 -0.281215 0.18775 -0.199792 0.112073 0.0152225 0.0753438 -0.255568 0.167123 0.0668012 -0.180205 0.328673 -0.0221896 -0.051279 -0.119979 0.2787 -0.306491 0.00125022 -0.00628118 0.227262 -0.0724858 0.0707049 -0.0401583 0.065482 0.31921 -0.177244 0.0499453 -0.0694577 0.237439 -0.275675 -0.223648 -0.0508078 -0.0405703 0.111519 -0.280254 0.104112 -0.111485 0.247769 -0.193421 -0.26027 -0.0056258 -0.0448867 0.184762 0.242041 0.0925379 -0.261618 -0.0906613 -0.210416 0.217703 -0.0849107 -0.0141113 0.0615067 -0.0870377 0.0637704 0.2799 0.20044 0.174158 -0.0531109 -0.0554598 0.0495243 0.254217 -0.0612454 0.0388138 0.156096 -0.166478 0.196386 -0.165176 0.100989 0.0525504 -0.120234 -0.133172 0.00187437 -0.286605 0.101717 0.0482275 0.0173689 -0.0919548 0.195283 -0.199034 -0.140631 -0.104702 0.21565
18173721 -0.2432 -0.0996217 0.209602 0.0765533 -0.0626849 -0.0282935 -0.305028 -0.00563329 -0.0381107 0.199425 0.0199054 -0.263793 0.0153048 0.114662 -0.023649 0.100364 0.0287203 -0.0926566 -0.00175305 -0.291888 0.161976 -0.191332 0.040406 0.00217467 0.104156 -0.244767 0.152314 0.085488 -0.22599 0.29118 -0.00633485 -0.0382138 -0.185526 0.274286 -0.285038 0.0172097 -0.0766914 0.214233 -0.0681949 0.0644774 -0.0293606 0.0852064 0.30907 -0.167123 0.0396279 -0.0331151 0.261011 -0.234028 -0.179099 -0.0586603 -0.063302 0.123364 -0.308046 0.152143 -0.150966 0.21654 -0.18465 -0.246131 -0.0048769 -0.0533764 0.194488 0.255073 0.0992978 -0.257876 -0.0978732 -0.255096 0.160107 -0.0617053 -0.00814808 0.056235 -0.0680867 0.040921 0.277659 0.19081 0.128351 -0.07268 -0.0454815 0.0309496 0.234531 -0.0682941 0.0297142 0.148165 -0.144963 0.18445 -0.164642 0.13946 0.0508476 -0.169531 -0.184106 -0.0299462 -0.290489 0.0702281 0.0319101 0.00626852 -0.075325 0.210507 -0.199785 -0.145276 -0.0846533 0.218457
24977474 -0.271371 -0.137709 0.115783 0.043786 -0.0514764 0.0050219 -0.212178 -0.0303887 0.0157595 0.18506 0.0225884 -0.264986 -0.0135662 0.166178 0.0423173 0.101142 -0.0247022 -0.106232 -0.0163963 -0.363945 0.12662 -0.218739 0.0969293 0.0149677 0.108556 -0.333314 0.111952 0.10052 -0.127227 0.274038 -0.0450143 -0.0820958 -0.169972 0.254476 -0.34317 -0.0339179 -0.0507412 0.245739 -0.137056 0.0404027 -0.0420043 0.0271645 0.328297 -0.12708 0.0467158 -0.0200713 0.212396 -0.18681 -0.167439 -0.0292886 0.0162844 0.108328 -0.319609 0.102869 -0.14383 0.203553 -0.150815 -0.274398 -0.0134552 -0.0631464 0.166834 0.275214 0.106005 -0.31948 -0.145089 -0.246322 0.162323 -0.0965842 0.0358697 0.011592 -0.0720458 0.0247768 0.23157 0.223269 0.146709 -0.0982965 -0.0301376 0.108494 0.25954 -0.020345 0.014068 0.115763 -0.176766 0.151834 -0.200374 0.189631 0.0503168 -0.167065 -0.230333 0.0125504 -0.261708 0.0905382 0.104549 0.00701165 -0.0969795 0.180004 -0.214588 -0.153192 -0.154956 0.220311
185508766 -0.256571 -0.243021 0.0869363 0.060288 -0.0230976 0.0795377 -0.270257 0.0229819 -0.0168192 0.13674 0.0229897 -0.230961 -0.0834212 0.176362 0.00874912 0.105933 -0.018968 -0.15655 -0.0691477 -0.318973 0.0328977 -0.346472 0.107558 0.0100448 -0.00306289 -0.339669 0.139074 0.100391 -0.13644 0.232479 -0.0397514 -0.135982 -0.178549 0.107922 -0.340515 0.0117515 -0.0231104 0.289902 -0.136959 -0.0427203 -0.0946735 -0.0661078 0.398887 -0.126006 0.0208875 -0.126943 0.221792 -0.170001 -0.236027 0.0130771 0.0448881 0.098165 -0.361519 0.163067 -0.174293 0.146555 -0.0986521 -0.366355 -0.112165 -0.0583942 0.182786 0.310557 0.139588 -0.388034 -0.189107 -0.0991121 0.130302 -0.0584997 -0.0335975 -0.0777231 -0.0749747 -0.00230804 0.182267 0.258755 0.21913 0.00966717 -0.0991739 0.123825 0.334829 -0.140214 -0.0842214 0.178185 -0.183732 0.214563 -0.157623 0.240728 -0.0290808 -0.143258 -0.263695 -0.0120822 -0.218627 -0.0604903 0.138181 0.00242957 -0.1013 0.152425 -0.309888 -0.137511 -0.143253 0.173017
44474671 -0.254245 -0.201231 0.145258 0.047666 -0.063997 0.0200042 -0.302466 -0.141695 0.0233309 0.131749 0.0377719 -0.265483 -0.108057 0.238702 0.0686458 0.0796546 -0.0373948 -0.125776 -0.043594 -0.333379 0.0962711 -0.294644 -0.00165506 -0.0522529 0.0853891 -0.290782 0.081506 0.118586 -0.244447 0.282191 -0.0299595 -0.142713 -0.240922 0.0898957 -0.32697 -0.0132723 -0.14252 0.225756 -0.183628 -0.109201 -0.15612 0.0437007 0.300204 -0.0339721 0.0739804 -0.0830104 0.220158 -0.214906 -0.132283 0.013689 0.0621874 0.181159 -0.340271 0.157702 -0.118711 0.231709 -0.0947526 -0.325426 -0.0451837 -0.0527447 0.175935 0.301138 0.158821 -0.409857 -0.170736 -0.132794 0.0875064 -0.0548082 0.00268389 -0.0659958 -0.0637137 -0.0260415 0.160355 0.295949 0.164146 -0.0786064 -0.0286334 0.117116 0.331727 -0.104515 -0.0819404 0.105491 -0.180721 0.155448 -0.216898 0.277732 0.0275766 -0.20292 -0.2716 -0.0888011 -0.182648 -0.00720472 0.059002 -0.0408469 -0.0465173 0.167179 -0.230692 -0.0334328 -0.154279 0.176419
22747276 -0.106839 -0.0847369 0.212573 0.142135 0.0762416 -0.0499739 -0.223416 -0.132207 0.125194 0.192856 0.0875802 -0.273404 -0.0685629 0.259296 0.0812963 0.17596 -0.00512294 -0.121192 -0.0183581 -0.294648 0.200954 -0.164595 -0.0247866 -0.0764104 0.176557 -0.310997 -0.000817326 0.100918 -0.304416 0.318685 -0.0471657 -0.0607335 -0.229005 0.222284 -0.222266 -0.0317683 -0.0699477 0.146976 -0.173096 -0.15374 -0.311788 0.145115 0.242582 -0.0606169 0.0954461 -0.107914 0.24632 -0.264699 -0.079203 -0.00661917 0.16751 0.227734 -0.328798 0.0651322 0.0263565 0.281703 -0.119666 -0.291912 0.0100665 0.00197981 0.211595 0.264506 0.102532 -0.406745 -0.204219 -0.18823 0.226416 -0.132541 0.036454 0.0551496 0.00480437 -0.115891 0.163302 0.273817 0.16871 -0.196652 -0.0416606 0.113925 0.319488 -0.0259834 -0.0581631 0.0843896 -0.163992 0.2176 -0.246134 0.184425 0.0488708 -0.184737 -0.154684 -0.0718403 -0.109672 -0.0176907 0.0168624 -0.0532271 -0.157441 0.147009 -0.103617 -0.0683175 -0.195019 0.283205
14630319 -0.0369344 -0.0571069 0.205139 0.231403 0.184785 -0.0437437 -0.160396 -0.0861665 0.211875 0.165324 0.14419 -0.263406 -0.0340584 0.243864 0.0322326 0.180321 0.0130533 -0.159245 -0.054513 -0.232922 0.188289 -0.180768 -0.0487613 -0.107542 0.243019 -0.345281 -0.0345535 0.129574 -0.373913 0.334354 -0.0557394 -0.0974598 -0.170568 0.187097 -0.175022 -0.0215874 -0.0174326 0.176361 -0.158052 -0.196433 -0.349186 0.135359 0.230057 -0.0681847 0.0802389 -0.13417 0.307059 -0.247803 -0.0540127 0.0242059 0.194601 0.195181 -0.284984 0.0973026 0.0566342 0.284081 -0.107547 -0.321157 -0.0387054 0.0412021 0.17249 0.290264 0.111431 -0.488063 -0.27577 -0.202881 0.285487 -0.259855 -0.0381105 0.0421336 0.00440973 -0.164206 0.139473 0.281105 0.164178 -0.196495 -0.0569426 0.151775 0.334401 -0.0307807 -0.12472 0.0844865 -0.12815 0.26672 -0.237091 0.200043 0.0351934 -0.133393 -0.107519 -0.09103 -0.0970654 -0.110883 -0.0200676 -0.0937118 -0.241165 0.0928829 -0.12609 -0.0546846 -0.149893 0.29944
30406287 -0.232681 -0.19014 0.153137 0.0637556 -0.0567664 0.0391212 -0.265028 -0.0350564 -0.0111962 0.193484 0.00791391 -0.214822 -0.0431316 0.19084 0.0449506 0.158207 -0.0159764 -0.133828 -0.0211549 -0.30774 0.131359 -0.241991 0.084237 0.00767239 0.0287155 -0.306677 0.125449 0.0848919 -0.190382 0.287639 -0.0381841 -0.0526637 -0.233951 0.171303 -0.267654 -0.0228882 -0.0367219 0.185887 -0.117946 0.0027627 -0.133963 0.053011 0.339835 -0.116468 -0.00487818 -0.0710907 0.166069 -0.222068 -0.179415 -0.0296907 0.0558125 0.162443 -0.351365 0.0752496 -0.0987605 0.174739 -0.139605 -0.313265 -0.0310351 -0.039662 0.183425 0.254158 0.13334 -0.315251 -0.12658 -0.134776 0.153982 -0.0145579 -0.00930375 0.0247234 -0.0651321 0.0205484 0.199624 0.234374 0.170785 -0.0750239 -0.0599256 0.0560565 0.271302 -0.0908542 0.000494865 0.172793 -0.174613 0.206896 -0.204272 0.196793 -0.00519849 -0.169461 -0.20618 -0.0139227 -0.192651 -0.00916505 0.0936378 0.029985 -0.0846965 0.185575 -0.224936 -0.156875 -0.124731 0.173481
116362700 -0.168048 -0.190738 0.118114 0.105126 0.00156226 0.0127491 -0.246209 -0.12298 0.0432573 0.151845 0.0746174 -0.268663 -0.0484749 0.243092 0.0698183 0.122515 0.00749837 -0.10806 -0.0184666 -0.348067 0.097814 -0.223839 -0.0530721 -0.0625414 0.204706 -0.306015 0.0456001 0.119966 -0.256778 0.257624 -0.0142032 -0.137201 -0.162437 0.180955 -0.304956 0.0120973 -0.0780058 0.214872 -0.183326 -0.173546 -0.157471 0.0401944 0.323699 -0.0695299 0.110997 -0.0761735 0.197213 -0.197599 -0.159887 0.0457753 0.123649 0.14123 -0.353291 0.156404 -0.0682024 0.225616 -0.129598 -0.336482 0.014241 -0.066853 0.14232 0.310072 0.128935 -0.461733 -0.244346 -0.212569 0.137655 -0.144074 0.0592853 -0.012393 -0.0481789 -0.0826507 0.231461 0.320461 0.227054 -0.179716 -0.051446 0.167985 0.281388 -0.0324091 -0.111351 0.0723343 -0.141804 0.20062 -0.219096 0.251585 0.0240188 -0.202364 -0.296991 -0.0258472 -0.201752 -0.00884965 0.0746126 -0.0336419 -0.0941149 0.0984695 -0.208042 -0.083594 -0.18665 0.255932
25434595 -0.22477 -0.134651 0.195579 0.0584218 -0.026872 -0.0128343 -0.296325 -0.0811197 0.0675458 0.113439 0.0176271 -0.274485 -0.0459809 0.16609 0.0295947 0.102991 -0.0142382 -0.119713 -0.0472211 -0.314381 0.133116 -0.251228 -0.0233611 -0.0643631 0.083389 -0.268522 0.154473 0.129898 -0.259504 0.250417 -0.0325289 -0.0800477 -0.256337 0.130523 -0.258131 -0.000746804 -0.108401 0.211617 -0.142971 -0.0450609 -0.185867 0.0509047 0.254094 -0.0235777 0.0576918 -0.0486586 0.229431 -0.216152 -0.117142 0.0263692 0.032193 0.167721 -0.30097 0.146243 -0.0736239 0.205028 -0.114812 -0.271575 -0.0743169 -0.0127984 0.224529 0.286789 0.178121 -0.365998 -0.126099 -0.111173 0.145789 -0.0456779 -0.0177488 0.0347238 -0.0743759 -0.00982339 0.156763 0.292549 0.119758 -0.0430292 -0.0222566 0.103744 0.3118 -0.114642 -0.0924167 0.151131 -0.177625 0.165278 -0.216171 0.241501 0.0130427 -0.192073 -0.215193 -0.110421 -0.228701 0.0257261 0.0503927 -0.039246 -0.0685683 0.153748 -0.196847 -0.0885684 -0.09798 0.127268
74178227 -0.0997786 -0.0137786 0.18277 0.189154 0.127957 -0.0347057 -0.155774 -0.0483079 0.195244 0.165742 0.143945 -0.246582 -0.012165 0.179417 0.0313267 0.137367 -0.0173848 -0.153324 -0.0531919 -0.23992 0.168037 -0.171244 0.00897922 -0.070051 0.23399 -0.363378 -0.0162644 0.115291 -0.298697 0.316998 -0.0547857 -0.104703 -0.143763 0.223519 -0.186955 -0.0237617 -0.0115221 0.185071 -0.126601 -0.098793 -0.204134 0.0879611 0.244375 -0.110928 0.0710519 -0.0761293 0.318775 -0.175568 -0.0374806 -0.0306382 0.124026 0.111794 -0.259736 0.124956 -0.0303878 0.232335 -0.126705 -0.296691 -0.0291266 0.0187711 0.134561 0.289653 0.104785 -0.428333 -0.260487 -0.260281 0.284729 -0.256957 -0.0294862 0.0249196 -0.0131833 -0.123203 0.153098 0.219704 0.114934 -0.168298 -0.0485305 0.111097 0.310897 0.000191352 -0.0660192 0.0845925 -0.0875119 0.235462 -0.206806 0.158906 0.0533358 -0.150006 -0.154382 -0.0687433 -0.160098 -0.059388 0.00426548 -0.0425067 -0.211615 0.108643 -0.121683 -0.0686717 -0.124075 0.328124
18488642 -0.314161 -0.103397 0.192499 0.0154548 -0.133104 -0.0487423 -0.323332 0.00809789 -0.0913315 0.220386 -0.0481698 -0.297804 -0.0225267 0.0852303 -0.0395163 0.116533 0.0400746 -0.0701491 -0.0159355 -0.25085 0.163752 -0.253817 0.15654 0.0274872 -0.0196374 -0.227313 0.201824 0.0230402 -0.141081 0.415227 -0.0566232 0.0105699 -0.145757 0.261783 -0.297665 -0.0289338 -0.0151463 0.180749 -0.0340795 0.189208 0.0383057 0.0692098 0.356737 -0.219068 -0.0703486 -0.0525317 0.219169 -0.292141 -0.204179 -0.186912 -0.0741216 0.153662 -0.30657 0.142391 -0.222594 0.17514 -0.243699 -0.244523 0.0413268 -0.0675914 0.194947 0.265841 0.077168 -0.175584 -0.0865417 -0.213487 0.151725 0.0187992 -0.080658 0.0734757 -0.0847536 0.143881 0.292535 0.163921 0.112943 0.020852 -0.00919261 -0.0932606 0.247869 -0.152759 0.109098 0.186726 -0.174555 0.226861 -0.144468 0.0876536 0.0282071 -0.159998 -0.173585 -0.00119963 -0.245175 0.0664139 0.00649499 0.0607317 -0.0188575 0.237241 -0.172745 -0.124976 -0.0490803 0.221161
22510648 -0.258449 -0.191509 0.133715 0.0368921 -0.0893099 0.025663 -0.285294 -0.0413067 -0.0487547 0.171667 0.00725504 -0.212211 -0.0156455 0.210825 0.0171478 0.108948 0.0179491 -0.0976588 -0.00496358 -0.356378 0.131907 -0.263956 0.0774912 0.021515 0.0895006 -0.315305 0.109999 0.0797513 -0.162313 0.298611 -0.0411181 -0.114659 -0.201475 0.201868 -0.335554 -0.00145842 -0.0622089 0.224673 -0.109667 0.0277124 -0.0641209 0.040704 0.34244 -0.136906 0.0353014 -0.0735032 0.208658 -0.206303 -0.195846 -0.0253051 0.00274638 0.150976 -0.363837 0.127062 -0.137695 0.181954 -0.145518 -0.298572 -0.0139564 -0.0707352 0.176898 0.273611 0.114706 -0.327758 -0.109145 -0.213802 0.125997 -0.0683528 0.00414705 0.00395339 -0.0859034 0.0260393 0.241308 0.226985 0.182369 -0.073584 -0.0478639 0.0520448 0.27032 -0.0873682 -0.00614292 0.118058 -0.178313 0.18782 -0.186812 0.225798 0.0281941 -0.183987 -0.244044 -0.00191405 -0.246893 0.0401306 0.106709 0.0126388 -0.0767773 0.19898 -0.242218 -0.154423 -0.161939 0.209748
84450967 -0.247163 -0.172875 0.1811 0.0562728 -0.145045 0.0147302 -0.336085 -0.0792082 -0.0470508 0.218154 0.00407893 -0.227993 -0.0536148 0.159573 0.0704778 0.111407 -0.0213702 -0.125998 0.00355414 -0.293131 0.114353 -0.26765 0.134968 0.0167826 0.0419649 -0.292993 0.0811192 0.0361614 -0.174226 0.370267 -0.0141699 -0.0428862 -0.211169 0.202432 -0.330223 -0.0442352 -0.0873913 0.147512 -0.100143 0.0408676 -0.0194814 0.10108 0.350899 -0.181863 -0.0270197 -0.0648573 0.189521 -0.266759 -0.200175 -0.141363 0.0325994 0.169904 -0.392617 0.103582 -0.218847 0.194931 -0.138761 -0.293053 0.0742047 -0.0569871 0.135458 0.248489 0.044027 -0.256801 -0.120948 -0.224569 0.0876801 -0.00418503 -0.0226114 -0.0271404 -0.0620245 0.0663388 0.2588 0.194378 0.191675 -0.102982 -0.0206731 -0.053506 0.291345 -0.123391 0.111871 0.152643 -0.152969 0.198694 -0.17309 0.126106 0.0397926 -0.204385 -0.236909 0.0317723 -0.162653 -0.01997 0.0770667 0.0814486 -0.0384236 0.2017 -0.162347 -0.141601 -0.103596 0.270879
17984557 -0.219244 -0.181598 0.115134 0.0760158 -0.0293915 0.0173182 -0.239395 0.0215926 -0.00773512 0.194073 0.00171499 -0.239507 -0.0392423 0.133702 -0.00921024 0.135443 -0.00808507 -0.124448 0.0164207 -0.272751 0.111842 -0.255543 0.14904 0.0170733 0.00988651 -0.322738 0.142837 0.0788026 -0.134251 0.322601 -0.0522259 -0.0411752 -0.198932 0.188326 -0.279607 -0.0261829 0.00673922 0.221975 -0.0792108 0.0706228 -0.0632187 0.0315207 0.340267 -0.182388 -0.0603922 -0.0772748 0.222649 -0.241142 -0.198831 -0.0747542 0.0186741 0.153808 -0.351817 0.0855628 -0.127772 0.194973 -0.137796 -0.275753 -0.0404776 -0.0518894 0.173858 0.280528 0.0800658 -0.293885 -0.130526 -0.153756 0.148346 -0.0477159 -0.0261141 0.0220012 -0.0536729 0.0508145 0.234417 0.202242 0.172025 -0.0403188 -0.0721297 0.00948685 0.278049 -0.128676 0.0141402 0.189594 -0.157638 0.19849 -0.170419 0.136464 -0.0190966 -0.124945 -0.159195 0.0268982 -0.179524 -0.0389044 0.0898352 0.0150725 -0.134625 0.182391 -0.198984 -0.180269 -0.0761543 0.193456
16801904 -0.247533 -0.15664 0.273059 0.0681804 -0.118292 0.0182288 -0.364255 -0.00802101 -0.114422 0.242339 -0.0485436 -0.149584 0.0891911 0.138509 -0.0249886 0.15855 0.0254163 -0.131538 -0.010612 -0.326231 0.228408 -0.1722 0.0801833 0.0623952 0.123904 -0.265249 0.219825 0.0202587 -0.197233 0.32035 -0.0105217 0.0203689 -0.269392 0.334094 -0.270037 0.0224851 -0.0169562 0.120529 -0.0199054 0.110935 -0.116705 0.146066 0.346772 -0.185045 -0.000779765 -0.0326852 0.154196 -0.270546 -0.267401 -0.031518 -0.0130124 0.195842 -0.378586 0.0678108 -0.0641256 0.166809 -0.235129 -0.320688 0.0117895 -0.0490215 0.217736 0.269919 0.12584 -0.244191 -0.0709608 -0.17575 0.203612 -0.0274327 0.00423333 0.0694062 -0.103573 0.0391072 0.319953 0.170055 0.238854 -0.109629 -0.0647355 -0.026514 0.283551 -0.0818368 0.125773 0.230152 -0.165888 0.242662 -0.178131 0.10638 0.0323825 -0.198436 -0.171804 -0.00657286 -0.268516 0.145768 0.125043 0.0860488 -0.0957978 0.158208 -0.186315 -0.20371 -0.0944476 0.213931
45684561 -0.220201 -0.00344196 0.287433 0.0659463 -0.0881685 -0.0413433 -0.25823 -0.0438226 -0.0366554 0.270629 0.0149403 -0.188646 0.10518 0.140769 0.0187519 0.158894 0.0196245 -0.0918073 0.000862123 -0.290076 0.283054 -0.055885 0.109027 0.0397524 0.19193 -0.289472 0.097641 0.0258998 -0.217051 0.371558 -0.0363148 0.0670006 -0.18742 0.445984 -0.239178 -0.0391096 -0.0122752 0.0701321 -0.014683 0.191022 -0.0612947 0.204187 0.321232 -0.215563 -2.19331e-06 0.0650744 0.203153 -0.263387 -0.132752 -0.127389 -0.0184254 0.16951 -0.316188 0.0336547 -0.0882197 0.190723 -0.272225 -0.237769 0.126059 -0.0465572 0.165927 0.189293 0.0647009 -0.194152 -0.0774476 -0.350685 0.257624 -0.103658 0.0151991 0.128971 -0.0571376 0.0250913 0.30739 0.0997647 0.0936874 -0.202862 -0.00298829 -0.0851282 0.207328 0.0436307 0.199778 0.136134 -0.104696 0.223007 -0.179422 0.0422678 0.0946718 -0.1851 -0.117644 0.0154678 -0.252813 0.168341 0.0312891 0.0828511 -0.118206 0.196138 -0.0847453 -0.164654 -0.0992151 0.321918
61261533 -0.216044 -0.133438 0.204433 0.0302432 -0.0998976 -0.0230199 -0.31943 -0.0768313 -0.0853595 0.230829 -0.0163956 -0.176412 0.016701 0.16314 0.0334954 0.143517 0.0152315 -0.0908248 0.00475696 -0.299653 0.20491 -0.136243 0.102352 0.0504022 0.121383 -0.274955 0.131981 0.0111876 -0.171398 0.361715 -0.0712711 0.0366157 -0.211288 0.311007 -0.282537 -0.0196621 -0.00900212 0.122748 -0.0668558 0.114414 -0.0589264 0.156953 0.36359 -0.20844 -0.0420632 -0.0233924 0.16734 -0.279809 -0.238196 -0.0924856 0.00929343 0.175586 -0.387878 0.0657996 -0.0991736 0.177902 -0.230294 -0.275807 0.0964922 -0.0564924 0.166339 0.231133 0.0646947 -0.248439 -0.0940674 -0.260491 0.190455 -0.0647862 0.00358883 0.0351794 -0.0685777 0.0466832 0.308216 0.167101 0.208964 -0.163647 -0.0235698 -0.0909611 0.274338 -0.0525882 0.140762 0.160673 -0.133548 0.222712 -0.169771 0.0888648 0.0163974 -0.187116 -0.182625 0.0456452 -0.205662 0.111177 0.0887893 0.0730554 -0.0921954 0.14077 -0.152559 -0.149205 -0.120524 0.248743
103510291 -0.224991 -0.277353 0.0985908 0.0504265 -0.0629506 0.105285 -0.281167 -0.0625026 0.0408059 0.122913 0.0477911 -0.227688 -0.0994439 0.232379 0.0711152 0.105644 -0.0481747 -0.177591 -0.0404245 -0.396513 0.0236946 -0.36874 0.0261711 -0.0236266 0.05009 -0.358434 0.118718 0.134548 -0.186877 0.22292 -0.011591 -0.180847 -0.264177 0.073142 -0.371414 0.00856728 -0.119403 0.271026 -0.185624 -0.128682 -0.175778 -0.0264043 0.344997 -0.0474128 0.0591486 -0.10535 0.220472 -0.153062 -0.176505 0.0591901 0.0894965 0.156663 -0.405579 0.155039 -0.136514 0.165723 -0.0386743 -0.377473 -0.125763 -0.0437003 0.192754 0.333755 0.136896 -0.452164 -0.210818 -0.0908039 0.0842884 -0.0615235 0.0420514 -0.0951822 -0.0786404 -0.0622823 0.167283 0.297429 0.223351 -0.0656349 -0.0905097 0.190806 0.35169 -0.12188 -0.142167 0.165293 -0.178577 0.163755 -0.215071 0.303579 0.00524632 -0.194657 -0.320844 -0.0620682 -0.194771 -0.0710359 0.143361 -0.0274951 -0.0969839 0.126597 -0.270688 -0.122934 -0.174493 0.165922
91041006 -0.28319 -0.123394 0.159793 0.0309122 -0.0695044 0.0291937 -0.238058 0.0356008 -0.0238437 0.169017 -0.0042395 -0.238162 -0.0478066 0.11736 0.00180942 0.134406 -0.0176512 -0.117771 -0.0351079 -0.296064 0.115762 -0.248963 0.137508 0.024508 0.0125914 -0.328162 0.174005 0.058251 -0.118393 0.311221 -0.0635353 -0.0437319 -0.154758 0.223085 -0.302942 -0.0400294 0.0133344 0.228163 -0.0729733 0.108652 -0.0154467 0.00250363 0.381893 -0.177043 -0.0173794 -0.0530432 0.22022 -0.189676 -0.173527 -0.09067 -0.00343639 0.102763 -0.332612 0.129661 -0.174498 0.137441 -0.185906 -0.298203 -0.0151405 -0.0597103 0.188997 0.270011 0.101317 -0.27911 -0.14451 -0.216211 0.196155 -0.0430873 -0.0467702 0.0124801 -0.069586 0.0380129 0.233732 0.198996 0.151471 -0.0126749 -0.050296 0.0142791 0.264906 -0.0791801 0.0245928 0.184981 -0.165441 0.208586 -0.175048 0.130031 0.00742242 -0.151127 -0.214386 -0.0095773 -0.247176 0.0442378 0.0954546 0.0434144 -0.0763461 0.176214 -0.218666 -0.142471 -0.103361 0.213312
18511522 -0.327589 -0.165534 0.203477 -0.00218908 -0.202822 0.00403266 -0.325355 -0.0340976 -0.154053 0.281922 -0.0663354 -0.225369 0.0146114 0.137262 -0.00838778 0.126557 0.0285483 -0.074444 -0.00136792 -0.305363 0.180609 -0.234953 0.180355 0.0771245 0.0185011 -0.251178 0.207139 0.000180145 -0.119563 0.419171 -0.0477645 0.0301026 -0.188649 0.316196 -0.350833 -0.0483858 -0.0290212 0.147055 -0.0353809 0.22191 0.0575935 0.131957 0.383461 -0.258452 -0.0907836 -0.0037563 0.162763 -0.306933 -0.247634 -0.182315 -0.0659159 0.198449 -0.376928 0.0733139 -0.203331 0.177964 -0.28282 -0.288083 0.0643826 -0.0835555 0.17515 0.244421 0.0525651 -0.151536 -0.0621323 -0.270556 0.113066 0.0142471 -0.0449932 0.0458147 -0.0829398 0.15388 0.362461 0.135396 0.153894 -0.0511467 -0.00822646 -0.0839401 0.221171 -0.0945569 0.189521 0.20919 -0.173902 0.201275 -0.174149 0.0812553 0.0556426 -0.16253 -0.196126 0.023741 -0.251456 0.116006 0.0625708 0.0891444 -0.00464573 0.222171 -0.177337 -0.1792 -0.07928 0.230765
33060717 -0.294935 -0.084268 0.24246 0.0786363 -0.0823073 -0.00847606 -0.300276 0.0443148 -0.0959524 0.212028 -0.0348627 -0.223817 0.0430186 0.0868724 -0.0709986 0.126658 0.00880642 -0.120726 -0.0364771 -0.275931 0.197785 -0.212027 0.148412 0.0321672 0.0466095 -0.273095 0.234285 0.00987826 -0.162095 0.366353 -0.0414157 -0.00318192 -0.150559 0.308177 -0.284637 -0.020558 0.0395963 0.164189 -0.00565969 0.177582 -0.0326122 0.0829205 0.367192 -0.207121 -0.0222582 -0.0211605 0.182613 -0.267944 -0.216301 -0.106998 -0.0451725 0.145844 -0.28669 0.113998 -0.124101 0.163093 -0.271993 -0.306267 0.0074972 -0.0546662 0.212132 0.272731 0.122814 -0.227803 -0.106311 -0.175352 0.226149 -0.056057 -0.0682347 0.0734382 -0.110051 0.0783162 0.304158 0.166033 0.163693 -0.0254529 -0.0452544 -0.0298006 0.271484 -0.0876911 0.108327 0.22612 -0.161532 0.233775 -0.152537 0.06669 0.0407563 -0.147879 -0.145189 -0.0220448 -0.271477 0.136048 0.0426963 0.0603438 -0.0818941 0.190649 -0.160006 -0.152443 -0.0416498 0.217637
30544925 -0.251787 -0.153895 0.148874 0.0420207 -0.0267473 0.0131219 -0.256361 -0.00486344 -0.0265928 0.121311 -0.0138364 -0.208319 -0.0195954 0.174509 -0.00921477 0.128495 0.0378126 -0.0901451 -0.0432765 -0.315188 0.137984 -0.236119 0.0456388 0.00413939 0.104358 -0.320467 0.146937 0.0698619 -0.17426 0.259505 -0.0781794 -0.0890998 -0.157019 0.19929 -0.283347 -0.00334452 0.0104814 0.253642 -0.0917645 0.0280385 -0.110164 -0.0117286 0.370326 -0.116613 0.0477485 -0.0818982 0.220992 -0.208581 -0.216743 0.0206945 0.0156487 0.121695 -0.335677 0.145824 -0.0944347 0.164873 -0.18377 -0.302013 -0.0474593 -0.0629556 0.218184 0.297856 0.159855 -0.353539 -0.148643 -0.174503 0.189844 -0.086924 -0.0390227 0.0264727 -0.0861294 -0.00456517 0.203214 0.271681 0.209756 -0.0173542 -0.0661132 0.0544537 0.290391 -0.094736 -0.0689552 0.136377 -0.200306 0.225265 -0.165573 0.227837 -0.00172009 -0.170671 -0.222419 -0.0362878 -0.274491 0.0657461 0.122316 0.00225699 -0.0820384 0.141891 -0.273687 -0.126952 -0.162836 0.169822
24566633 -0.186995 -0.151487 0.19978 0.0482004 -0.118367 -0.00869822 -0.345576 -0.0946976 -0.0573231 0.221395 0.0167113 -0.195431 0.0311949 0.181634 0.049725 0.141678 0.0170295 -0.11596 -0.000416419 -0.316537 0.191859 -0.182762 0.0616843 0.0153534 0.143212 -0.253539 0.104295 0.0310396 -0.199417 0.330722 -0.0182939 -0.0298461 -0.240709 0.294021 -0.287627 0.0278385 -0.0617105 0.090439 -0.0748435 0.0348915 -0.10978 0.151854 0.320528 -0.159165 0.0127261 -0.0276513 0.166327 -0.233636 -0.197204 -0.0612406 0.02684 0.177324 -0.353347 0.101749 -0.096362 0.152549 -0.169358 -0.292287 0.0580305 -0.0621457 0.172726 0.250762 0.0862672 -0.281831 -0.127899 -0.186843 0.157874 -0.0546527 0.0427552 0.0351827 -0.0905708 0.0116673 0.279539 0.16708 0.178568 -0.168951 -0.0365683 -0.0130991 0.281638 -0.0684154 0.0852349 0.146291 -0.130648 0.221199 -0.150004 0.152989 0.0343573 -0.213498 -0.225241 0.012112 -0.177246 0.0599996 0.0572885 0.0579422 -0.102384 0.168849 -0.143911 -0.129656 -0.122284 0.261537
19630242 -0.20301 -0.152272 0.143048 0.111535 -0.0153206 0.0150882 -0.281282 -0.0747129 0.0897109 0.126332 0.0764755 -0.278345 -0.0787041 0.165128 0.0589858 0.11015 -0.0370737 -0.172996 -0.0631415 -0.305002 0.118556 -0.301931 0.00207055 -0.0634398 0.120416 -0.309102 0.0716293 0.118795 -0.249843 0.294223 -0.0200773 -0.169614 -0.222026 0.11132 -0.312124 0.0155957 -0.103914 0.217118 -0.165261 -0.124222 -0.165247 0.0415304 0.284757 -0.05755 0.0859045 -0.117269 0.272851 -0.165262 -0.113755 0.000397816 0.0697222 0.1084 -0.320516 0.178723 -0.123387 0.182279 -0.0375437 -0.319042 -0.0548281 -0.0307714 0.16029 0.305606 0.12922 -0.424939 -0.227 -0.151374 0.177781 -0.106136 0.00351428 -0.0526128 -0.084597 -0.0626572 0.157564 0.270316 0.179863 -0.10146 -0.053664 0.130265 0.358581 -0.113624 -0.0989221 0.12033 -0.137678 0.209813 -0.203357 0.244162 0.0302366 -0.18286 -0.264831 -0.0850093 -0.189824 -0.0591391 0.0406072 -0.00983873 -0.110764 0.142917 -0.228485 -0.0469971 -0.135537 0.238419
24660295 -0.133924 -0.121146 0.205997 0.179486 0.0561201 -0.00341219 -0.24673 -0.131848 0.125312 0.140842 0.0825904 -0.235723 -0.0349489 0.229809 0.0564903 0.108448 -0.0296262 -0.168478 -0.0365659 -0.285469 0.15149 -0.223717 -0.0375107 -0.0836097 0.20612 -0.324242 0.0110602 0.110791 -0.310325 0.289961 -0.0136199 -0.126632 -0.213967 0.157515 -0.262774 -0.0121193 -0.0957887 0.169165 -0.150544 -0.176259 -0.260799 0.117474 0.231309 -0.0389656 0.121844 -0.0908432 0.264123 -0.23232 -0.0959294 0.0377802 0.138538 0.198301 -0.305663 0.114413 -0.0148226 0.262292 -0.0677779 -0.334142 -0.00840628 -0.00413024 0.163511 0.283731 0.127711 -0.4587 -0.20961 -0.161688 0.173376 -0.17205 0.00115364 -0.0368956 -0.0431791 -0.123733 0.160147 0.28948 0.213666 -0.16599 -0.0393518 0.136438 0.347657 -0.0544901 -0.0685927 0.087424 -0.148307 0.194608 -0.222863 0.223167 0.0676059 -0.168428 -0.193886 -0.0716538 -0.140779 -0.0318425 0.0464847 -0.0488922 -0.148716 0.107334 -0.148673 -0.055068 -0.139005 0.268063
29723393 -0.0585735 -0.0756888 0.200918 0.216665 0.176068 -0.0424543 -0.182124 -0.102182 0.222263 0.151497 0.153766 -0.276749 -0.0496933 0.24876 0.0424125 0.174091 0.01212 -0.166918 -0.0536181 -0.260721 0.177054 -0.206183 -0.053319 -0.103576 0.24365 -0.360203 -0.0398597 0.144634 -0.384434 0.313986 -0.0537282 -0.125203 -0.188988 0.182191 -0.203305 -0.0117852 -0.0385765 0.207066 -0.174858 -0.216479 -0.357054 0.114349 0.248071 -0.0563968 0.104409 -0.1351 0.322393 -0.237034 -0.0619143 0.0452325 0.204489 0.177902 -0.308036 0.112468 0.0211815 0.300369 -0.0908931 -0.320565 -0.0641089 0.0298884 0.195946 0.318077 0.119327 -0.516019 -0.280297 -0.20431 0.272017 -0.257965 -0.0173984 0.0432963 -0.00218732 -0.164845 0.133789 0.307293 0.165691 -0.196258 -0.0603916 0.176418 0.359885 -0.036213 -0.164217 0.0822138 -0.137212 0.255579 -0.246001 0.239565 0.0340032 -0.16402 -0.135248 -0.106043 -0.12285 -0.128805 -0.00587784 -0.102372 -0.229848 0.10726 -0.153823 -0.0604756 -0.177308 0.297035
33097148 -0.0725658 -0.103692 0.1705 0.200456 0.133209 -0.00822796 -0.206848 -0.0976719 0.255028 0.121586 0.156738 -0.31218 -0.0888232 0.201788 0.0854728 0.160252 -0.0388214 -0.188883 -0.0555366 -0.275758 0.137631 -0.272455 -0.0670433 -0.129147 0.203217 -0.359864 -0.00124157 0.181661 -0.352568 0.290005 -0.0278078 -0.165469 -0.251147 0.102822 -0.222002 0.00189161 -0.102832 0.217551 -0.207975 -0.244496 -0.322179 0.0792479 0.203275 -0.0144851 0.102062 -0.126014 0.334535 -0.166421 -0.00484837 0.0326053 0.176877 0.1561 -0.310218 0.155583 0.000615723 0.246448 -0.015914 -0.322818 -0.103685 0.040926 0.175011 0.322703 0.132537 -0.526996 -0.301554 -0.164272 0.242629 -0.216595 -0.00473593 -0.00511831 -0.0266923 -0.15746 0.118051 0.311093 0.122568 -0.157693 -0.0702631 0.214895 0.364675 -0.0671748 -0.194465 0.120234 -0.119038 0.212413 -0.256988 0.260919 0.0293765 -0.174178 -0.206002 -0.145131 -0.124603 -0.154502 0.00489116 -0.0927494 -0.20854 0.107173 -0.161545 -0.0370919 -0.142477 0.263467
29592491 -0.19732 -0.134253 0.137916 0.0584171 0.000152766 -0.00143046 -0.241464 -0.00539274 0.0784273 0.123074 0.0562718 -0.225436 -0.0516385 0.173368 0.0172369 0.097736 -0.0302443 -0.118226 0.00848609 -0.327379 0.0877026 -0.238129 0.0492521 -0.0212403 0.0529532 -0.343505 0.0829925 0.118476 -0.187945 0.217152 -0.0418715 -0.107462 -0.240746 0.142587 -0.259995 -0.0218692 -0.0728369 0.256736 -0.128043 -0.0312602 -0.106568 0.0167273 0.271662 -0.086776 0.038261 -0.074808 0.270611 -0.15854 -0.105362 -0.00608801 0.0209038 0.121225 -0.323772 0.146826 -0.122674 0.192934 -0.0788809 -0.236533 -0.0751133 -0.0351772 0.204767 0.266125 0.127814 -0.346695 -0.111965 -0.190783 0.134408 -0.0830895 0.00453403 0.0340791 -0.0301606 -0.0107695 0.151971 0.251583 0.108585 -0.0441313 -0.0471077 0.0892703 0.275163 -0.0974239 -0.0936625 0.118685 -0.153864 0.156191 -0.199607 0.221231 -0.0122288 -0.168805 -0.201349 -0.0357814 -0.221498 -0.0431421 0.0866783 -0.0324948 -0.121051 0.211225 -0.193697 -0.16879 -0.124334 0.182541
28037631 -0.261039 -0.06901 0.174164 0.0794026 -0.0497014 -0.0368641 -0.218342 0.03268 0.00549294 0.156624 -0.00993531 -0.258267 0.0137858 0.10019 -0.0743553 0.109605 0.0130681 -0.0990975 -0.00617752 -0.287276 0.184791 -0.2275 0.0872061 0.000759386 0.0465858 -0.254349 0.171976 0.0696092 -0.149547 0.312303 -0.0373634 -0.0734796 -0.172849 0.202381 -0.294969 -0.00187835 -0.0336826 0.192756 -0.0456935 0.10478 -0.0607058 0.0662923 0.223699 -0.127336 0.0293099 -0.0700876 0.238717 -0.197297 -0.119492 -0.0422377 -0.0561281 0.11966 -0.217516 0.117618 -0.120865 0.181062 -0.150176 -0.202024 -0.0582436 -0.0404983 0.223243 0.234428 0.104926 -0.228768 -0.0592895 -0.17674 0.189841 -0.0649573 -0.0360599 0.0967961 -0.0818573 0.0606721 0.21795 0.173838 0.104202 0.00896003 -0.0233634 0.0531065 0.22877 -0.104265 -0.0252596 0.137951 -0.17159 0.183382 -0.188413 0.148117 0.0274505 -0.0987565 -0.110807 -0.0698221 -0.268789 0.0654517 0.018955 -0.0148091 -0.07897 0.227539 -0.173659 -0.135869 -0.0714978 0.154062
25082055 -0.0567087 -0.0618262 0.219932 0.196054 0.118752 -0.0272782 -0.210014 -0.116832 0.162505 0.146328 0.112155 -0.238061 -0.03136 0.198066 0.0458509 0.165979 0.00872283 -0.143513 -0.0643426 -0.244442 0.183384 -0.169567 -0.0940717 -0.0905567 0.241663 -0.289681 0.0102111 0.10477 -0.347415 0.276142 -0.029722 -0.0892379 -0.189251 0.182521 -0.19566 0.02313 -0.0690873 0.138456 -0.145738 -0.20204 -0.32927 0.122766 0.20874 -0.0451698 0.128718 -0.115638 0.273378 -0.212961 -0.072333 0.0591938 0.167224 0.168386 -0.27821 0.103667 0.042462 0.244227 -0.0924427 -0.30712 -0.0363644 0.0291557 0.183962 0.277727 0.110049 -0.444076 -0.256128 -0.158351 0.254174 -0.210484 0.0104946 0.0128035 -0.0270392 -0.175399 0.156214 0.266607 0.187663 -0.18613 -0.0654118 0.151455 0.326776 -0.021054 -0.116023 0.101255 -0.117196 0.237185 -0.218197 0.190064 0.0466548 -0.161655 -0.150254 -0.112293 -0.132551 -0.0392209 0.0146122 -0.05798 -0.16996 0.0526179 -0.115911 -0.0233519 -0.157491 0.272495
34200998 -0.269207 -0.101422 0.233053 -0.0151377 -0.163119 0.00576199 -0.333008 -0.0200707 -0.12409 0.245692 -0.0259011 -0.130117 0.0584282 0.157671 0.00930056 0.149333 0.0196101 -0.0902688 -0.0113099 -0.339493 0.228483 -0.119234 0.115082 0.0803315 0.126554 -0.277889 0.179443 -0.00975514 -0.157113 0.365806 -0.0583165 0.0408191 -0.233709 0.366791 -0.256229 -0.00700045 0.0179045 0.100825 -0.0306917 0.187094 -0.0370332 0.146061 0.387489 -0.210268 -0.0404758 -0.0108809 0.122823 -0.242228 -0.228377 -0.103949 -0.0245274 0.146117 -0.370437 0.0655261 -0.122662 0.108459 -0.276856 -0.28332 0.105343 -0.0738812 0.177702 0.23999 0.0998353 -0.202177 -0.0658167 -0.258134 0.225755 -0.0395561 0.00835402 0.0878756 -0.0946978 0.0669922 0.313896 0.117978 0.204443 -0.162594 -0.0322783 -0.111879 0.267073 -0.048435 0.185394 0.165649 -0.12837 0.255349 -0.162195 0.0803425 0.0154327 -0.222681 -0.20498 0.0414309 -0.259812 0.176267 0.0887503 0.131112 -0.0783046 0.16872 -0.151911 -0.182628 -0.117509 0.269141
38018809 -0.0706976 -0.0493663 0.211859 0.207074 0.155984 -0.050418 -0.171365 -0.069434 0.194228 0.165103 0.136632 -0.252419 -0.0240553 0.233805 0.0197841 0.188044 0.0194379 -0.151932 -0.0338711 -0.260868 0.201423 -0.191337 -0.0185805 -0.0812479 0.230519 -0.372084 -0.0166508 0.116015 -0.354673 0.334274 -0.0716623 -0.0871512 -0.187565 0.218854 -0.201789 -0.022184 -0.00937678 0.200917 -0.136667 -0.146497 -0.331172 0.127234 0.257862 -0.0872745 0.0724321 -0.125439 0.32141 -0.250116 -0.0762202 0.0226491 0.17235 0.178804 -0.308944 0.104394 0.0126146 0.285987 -0.129755 -0.301019 -0.0570484 0.0182499 0.213758 0.296692 0.106667 -0.466659 -0.256891 -0.229425 0.298374 -0.256997 -0.0342282 0.0762703 -0.00522299 -0.131323 0.1611 0.281802 0.170762 -0.178193 -0.0586452 0.131289 0.343901 -0.0437896 -0.129311 0.0992359 -0.145945 0.274982 -0.238269 0.2085 0.0279627 -0.14537 -0.102749 -0.0887405 -0.145085 -0.0937385 -0.00419139 -0.0859713 -0.234614 0.129732 -0.144519 -0.0988907 -0.161473 0.286013
23976137 -0.109791 -0.0345032 0.231434 0.0868638 -0.0434261 -0.024592 -0.229624 -0.134125 0.114896 0.219824 0.093795 -0.214418 -0.0119635 0.189666 0.107157 0.18874 -0.00241566 -0.137827 -0.0447585 -0.242657 0.233577 -0.133619 -0.000752543 -0.0402433 0.202695 -0.269358 0.00110677 0.0785235 -0.277692 0.35302 -0.0436301 -0.0182966 -0.241795 0.260956 -0.207431 -0.0259086 -0.0812272 0.0461986 -0.115302 -0.0271875 -0.205045 0.220304 0.230842 -0.107725 0.019793 -0.0285551 0.229824 -0.189359 -0.0243033 -0.0973075 0.107545 0.166209 -0.31412 0.0578199 -0.0563714 0.166434 -0.125685 -0.265531 0.0771515 -0.00342211 0.128756 0.210123 0.0591773 -0.299139 -0.181212 -0.287878 0.236922 -0.109777 0.0120564 0.0523949 -0.0165661 -0.073931 0.196171 0.15241 0.0972636 -0.235753 -0.00464196 0.0192536 0.249073 0.00487833 0.0640289 0.0940068 -0.083378 0.233818 -0.23306 0.125844 0.073681 -0.180381 -0.171112 -0.061265 -0.128111 -0.0193438 -0.0102508 0.0439032 -0.126627 0.135263 -0.0936143 -0.0644314 -0.141765 0.312341
25451979 -0.269245 -0.169976 0.151094 0.0150641 -0.0990896 0.00464607 -0.293404 0.00588803 -0.0748078 0.16754 -0.032763 -0.209689 -0.0340371 0.159764 -0.0376376 0.102993 0.00976235 -0.0891733 0.00991871 -0.325979 0.104388 -0.26675 0.142742 0.0395544 0.00172119 -0.304045 0.156197 0.0287714 -0.0999603 0.343501 -0.0592727 -0.0462452 -0.184918 0.184191 -0.315962 -0.0319371 0.00497403 0.200568 -0.0679482 0.0995125 -0.00881748 0.027935 0.340496 -0.167015 -0.0398336 -0.0992728 0.177362 -0.238801 -0.208185 -0.0869521 4.81422e-05 0.159371 -0.350267 0.133582 -0.175923 0.153448 -0.185324 -0.260215 0.0217655 -0.0779189 0.198877 0.27437 0.0961383 -0.271293 -0.0815677 -0.172434 0.115416 -0.0350803 -0.0387323 0.0398004 -0.066317 0.078008 0.250977 0.205565 0.197303 -0.0101975 -0.0228808 -0.04984 0.290042 -0.158956 0.0367531 0.14152 -0.176151 0.211711 -0.162769 0.143746 -0.0356159 -0.171405 -0.196223 0.025873 -0.210138 0.0284011 0.0946353 0.0382773 -0.0679906 0.209542 -0.174786 -0.168462 -0.089788 0.201895
33958538 -0.323795 -0.212162 0.0516228 0.0335095 -0.0693108 -0.00165155 -0.280411 -0.0284827 -0.0182621 0.112166 -0.0041259 -0.338235 -0.123408 0.148268 -0.00578424 0.0386392 -0.0258016 -0.109869 -0.014082 -0.305713 0.0219108 -0.384179 0.13504 -0.0237996 -0.0353244 -0.315471 0.110305 0.101197 -0.110606 0.286189 -0.0393851 -0.164283 -0.147006 0.07147 -0.397622 -0.0226056 -0.0773374 0.315977 -0.139301 0.00520761 0.0355242 -0.0740745 0.349315 -0.120987 0.00767269 -0.107341 0.274582 -0.213507 -0.194066 -0.0638185 -0.0318165 0.109404 -0.32032 0.220223 -0.27123 0.220013 -0.0775492 -0.26743 -0.062592 -0.10497 0.179415 0.312543 0.112207 -0.347741 -0.1534 -0.143349 0.0345057 -0.0232063 -0.0565592 -0.0646816 -0.071952 0.0914784 0.181955 0.282483 0.151649 0.0702513 -0.0327958 0.0666075 0.32398 -0.200994 -0.0787237 0.119053 -0.204313 0.153776 -0.142085 0.25134 -0.00731665 -0.146523 -0.260955 -0.0137887 -0.224882 -0.068603 0.0783818 -0.0358701 -0.041893 0.247213 -0.2875 -0.0979476 -0.0891934 0.162794
33833154 -0.282276 -0.0602867 0.176668 0.0970516 0.0463959 0.0112899 -0.187424 0.125738 0.0445602 0.128329 0.0163773 -0.224049 0.00843791 0.0867912 -0.0966134 0.0731283 -0.0320912 -0.152273 -0.0570537 -0.297873 0.11762 -0.26621 0.152966 0.0239851 0.0244812 -0.383589 0.186977 0.0846255 -0.138289 0.242533 -0.0633038 -0.0873983 -0.139318 0.225895 -0.285441 -0.0167333 0.0308307 0.311497 -0.0444142 0.127548 -0.056104 -0.0435851 0.320186 -0.157393 0.0314784 -0.0472171 0.331803 -0.161923 -0.150964 -0.0105967 -0.0546672 0.0790697 -0.240171 0.164059 -0.123535 0.178216 -0.173503 -0.290238 -0.151698 -0.027345 0.252921 0.303256 0.15101 -0.317752 -0.1236 -0.162037 0.238014 -0.152258 -0.0791935 0.0311534 -0.083642 -0.00381818 0.176524 0.20134 0.110283 0.0694446 -0.0730125 0.095575 0.310727 -0.0827414 -0.0451148 0.197907 -0.173025 0.175022 -0.149744 0.148424 0.0240742 -0.0998272 -0.127948 -0.0613217 -0.302237 0.0685429 0.0885102 -0.0368893 -0.16331 0.193941 -0.216532 -0.168786 -0.0718542 0.185239
34138579 -0.286128 -0.116516 0.229687 -0.0306746 -0.255272 0.0135881 -0.350618 -0.081654 -0.139512 0.269368 -0.036831 -0.124324 0.0955478 0.167495 0.076564 0.148039 0.0182995 -0.0911656 -0.0166734 -0.377603 0.273373 -0.136754 0.102057 0.105127 0.185841 -0.273454 0.152223 -0.0138783 -0.132908 0.369115 -0.0477385 0.011812 -0.265562 0.414947 -0.340347 0.00912523 -0.0713642 0.0621739 -0.0373519 0.221491 0.00094894 0.19848 0.370926 -0.230101 -0.0167968 0.0392516 0.150961 -0.199136 -0.225741 -0.119569 -0.0699588 0.154101 -0.39538 0.0677361 -0.1616 0.0766118 -0.232982 -0.287958 0.122652 -0.0805075 0.149468 0.215175 0.0591976 -0.170546 -0.0670035 -0.340904 0.20312 -0.0218269 0.0570037 0.0307301 -0.132161 0.0551837 0.344329 0.0753374 0.188851 -0.202242 -0.0214127 -0.101304 0.232373 -0.0116659 0.237984 0.160939 -0.125903 0.224743 -0.174944 0.113883 0.0925724 -0.238666 -0.275245 0.0366556 -0.299288 0.223844 0.113513 0.157789 -0.0413329 0.169461 -0.17933 -0.171574 -0.165259 0.289603
19426551 -0.240554 -0.0321277 0.243856 0.0694882 -0.0362845 -0.0497337 -0.225065 0.00704334 -0.0143774 0.214419 -0.00203155 -0.205685 0.0615207 0.139333 -0.0490354 0.150278 0.0238939 -0.0910626 -0.00411671 -0.295804 0.247043 -0.14103 0.114022 0.0437585 0.113915 -0.315727 0.137743 0.0366257 -0.187952 0.343048 -0.0801815 0.0165025 -0.179581 0.343858 -0.277198 -0.0292464 0.00537704 0.15814 -0.0231125 0.177417 -0.0759388 0.12929 0.301977 -0.190223 -0.000647845 -0.00795504 0.266944 -0.237487 -0.136956 -0.0760581 -0.0447803 0.155705 -0.282534 0.0885886 -0.0880125 0.185246 -0.244017 -0.233281 0.00924461 -0.0399287 0.241417 0.221982 0.0956714 -0.225701 -0.0698232 -0.281112 0.250381 -0.114734 -0.0390779 0.125122 -0.0696733 0.0204612 0.267235 0.151047 0.10571 -0.0711265 -0.0216548 -0.0347182 0.23182 -0.0322117 0.0746632 0.15148 -0.153448 0.21538 -0.190829 0.105295 0.0408645 -0.132079 -0.100329 -0.0277126 -0.281347 0.127783 0.0468547 0.00777452 -0.121391 0.211446 -0.146673 -0.171993 -0.0964547 0.238858
21945208 -0.0533923 -0.0254007 0.188059 0.189624 0.155631 -0.067129 -0.141201 -0.080794 0.243832 0.148519 0.158383 -0.281328 -0.0608616 0.211405 0.03197 0.182998 0.00602941 -0.152615 -0.0465457 -0.236739 0.195987 -0.191156 -0.0596383 -0.107639 0.226251 -0.350047 -0.0345783 0.134997 -0.352451 0.326619 -0.0769505 -0.116187 -0.193688 0.159122 -0.187937 -0.0181508 -0.0314671 0.18879 -0.157862 -0.174971 -0.319226 0.128326 0.201633 -0.0588133 0.0727871 -0.138168 0.34788 -0.192897 -0.00450363 0.00649596 0.169969 0.147024 -0.271006 0.12 0.00968753 0.257243 -0.0825445 -0.272808 -0.0580415 0.0288125 0.194452 0.283607 0.10778 -0.46485 -0.271493 -0.238209 0.294852 -0.256284 -0.039021 0.0671569 -3.39588e-07 -0.149631 0.129767 0.274513 0.129923 -0.175773 -0.0478788 0.137211 0.333832 -0.0520323 -0.158646 0.060922 -0.109815 0.259304 -0.256913 0.218582 0.0119751 -0.13784 -0.114987 -0.12058 -0.129368 -0.130693 -0.0369474 -0.0991271 -0.223354 0.133109 -0.149337 -0.0466733 -0.149598 0.278368
41164630 -0.0661401 -0.0347783 0.202739 0.207012 0.135374 -0.0430193 -0.18369 -0.0759234 0.177856 0.156736 0.126334 -0.260364 -0.0399524 0.188166 0.0366627 0.172221 0.0144523 -0.160377 -0.061259 -0.226804 0.181247 -0.178878 -0.0671766 -0.0933486 0.222728 -0.294039 -0.00259557 0.116283 -0.356479 0.308171 -0.0502859 -0.0970948 -0.162785 0.185766 -0.185718 0.00981983 -0.0393197 0.166152 -0.142441 -0.171758 -0.312437 0.121998 0.230527 -0.0647632 0.0995464 -0.124656 0.295275 -0.210639 -0.064327 0.0277108 0.15407 0.141808 -0.266114 0.117973 0.00412506 0.248383 -0.101251 -0.304107 -0.0462505 0.0290897 0.186055 0.2815 0.0995874 -0.43831 -0.272727 -0.184719 0.284248 -0.220164 -0.0129049 0.0367206 -0.016593 -0.149736 0.150114 0.257551 0.16864 -0.169148 -0.058761 0.144514 0.320989 -0.0407012 -0.123415 0.0985217 -0.113723 0.261353 -0.207669 0.191011 0.0342932 -0.147587 -0.133936 -0.11173 -0.132261 -0.0869911 -0.0272142 -0.0668213 -0.193552 0.081591 -0.141057 -0.0357672 -0.152134 0.274692
30080739 -0.122301 -0.0900989 0.120288 0.0922278 0.109163 -0.0352354 -0.153964 -0.0236635 0.112842 0.151638 0.101254 -0.281617 -0.0753255 0.193739 0.0206064 0.152395 0.0263492 -0.0878728 -0.0090238 -0.255765 0.114381 -0.184941 0.0504273 -0.0389605 0.113805 -0.33034 0.00104291 0.132003 -0.218885 0.269054 -0.0689502 -0.0728013 -0.144129 0.183133 -0.210665 -0.0358788 0.00765703 0.248734 -0.149684 -0.081757 -0.17154 0.016543 0.298561 -0.110455 0.0290957 -0.107454 0.269101 -0.20972 -0.0961113 -0.0297407 0.113737 0.11755 -0.31597 0.0991763 -0.0815633 0.242401 -0.117808 -0.23552 -0.0273789 -0.0282233 0.174736 0.266779 0.0899905 -0.378685 -0.196128 -0.231237 0.197548 -0.161349 -0.0160729 0.0606178 0.0169513 -0.0397678 0.151706 0.246991 0.109688 -0.115004 -0.0627615 0.0870757 0.285185 -0.0517412 -0.0933444 0.0636196 -0.13966 0.205164 -0.185927 0.198115 -0.0295387 -0.137587 -0.131855 -0.0186931 -0.146748 -0.0938835 0.0409348 -0.0654639 -0.181591 0.171708 -0.191765 -0.117128 -0.154541 0.248515
