199 100
149578245 0.203477 -0.00570807 0.487422 -0.0622542 -0.0153988 -0.148086 0.103732 -0.495598 -0.0317659 0.177572 -0.0879587 -0.0218404 -0.19477 0.143452 -0.0934747 0.128714 -0.0859074 0.171388 0.147491 -0.0912769 0.0475974 0.124749 -0.210594 -0.00600761 0.0443633 -0.32784 -0.308543 -0.432039 -0.149019 -0.154873 -0.15002 0.444422 0.324597 -0.0905422 0.17729 -0.00265837 -0.300322 -0.154332 0.182986 -0.0623176 -0.191639 0.483148 -0.0422854 -0.418622 0.0790566 0.22123 -0.0737245 0.151029 -0.111102 -0.291061 0.0846699 0.00686003 -0.0970115 0.256804 0.00682423 0.130594 -0.0172924 0.303303 -0.0727422 -0.148315 0.258368 0.0356055 -0.0484257 0.145008 -0.259031 -0.0146016 -0.0847555 0.000669933 -0.189414 0.249328 -0.0133707 0.0431428 0.121187 0.013297 0.233766 0.222444 -0.0790216 -0.0186152 -0.226463 0.0395089 0.172802 -0.333516 -0.045738 0.201948 -0.0287643 0.0747845 -0.181956 -0.188725 -0.0118068 0.38169 0.136962 -0.0232442 0.0274001 0.202898 -0.176543 -0.0966481 -0.28411 0.438153 0.378466 0.417255
66398898 0.193845 -0.00811222 0.41946 -0.116097 0.0635864 -0.1042 0.0390713 -0.45952 0.00240036 0.0975273 0.193344 0.00985091 -0.133131 0.164647 0.00905375 0.0667614 -0.129434 0.23835 -0.0527931 -0.160225 0.280783 0.00212574 -0.0485039 -0.00298413 0.0484224 -0.116009 -0.126546 -0.512608 -0.127501 -0.177683 -0.128383 0.269593 0.268101 -0.0718154 0.0948754 0.141488 -0.35135 -0.0196924 0.195904 -0.143805 -0.17913 0.270497 0.00942427 -0.40605 0.0322868 0.0211362 0.0241273 0.148882 -0.064106 -0.23738 0.1852 -0.0367726 -0.171958 0.0644581 0.131931 0.206909 -0.0562809 0.0470692 0.0717782 -0.109541 0.102712 0.00673972 -0.119455 -0.0164906 -0.16417 -0.0173023 -1.0537e-05 -0.0796513 -0.215929 0.0958987 0.0672764 -0.0989242 0.0852034 0.0223754 0.191191 0.205918 -0.0563894 -0.0990327 -0.223717 0.0308876 0.240163 -0.395199 -0.00268431 0.242766 0.017763 0.141917 -0.275291 -0.0911878 -0.142743 0.167612 0.0675579 0.0480743 0.179694 0.128491 -0.0691575 -0.0770537 -0.195287 0.504877 0.177861 0.32748
98928134 0.20002 0.0760133 0.495694 -0.102504 -0.0178317 -0.0435104 0.0369755 -0.493482 -0.00455265 0.120268 0.0381089 0.0213226 -0.113142 0.117398 -0.104309 0.0448581 -0.033578 0.172403 0.17457 -0.0596575 0.0695182 0.0448392 -0.0758192 -0.0125448 0.0442119 -0.373408 -0.321 -0.510071 -0.122917 -0.137726 -0.0769829 0.46497 0.253033 -0.0821473 0.0928654 0.0283399 -0.4103 -0.0846651 0.228875 -0.109197 -0.142044 0.393294 -0.104622 -0.342077 0.0811652 0.167593 0.00865324 0.0811166 -0.0964705 -0.148312 0.118123 -0.0617734 -0.134482 0.0917233 0.146146 0.132985 0.0592849 0.0687724 -0.0565597 -0.0573598 0.183435 -0.156938 -0.162074 0.114788 -0.268772 0.0318331 -0.170156 -0.00476268 -0.198884 0.253915 -0.000584019 -0.113686 0.135867 0.0508366 0.200662 0.233779 0.0597537 -0.112618 -0.27167 0.00560512 0.217949 -0.338661 0.0209517 0.176264 -0.106723 0.107011 -0.115946 -0.127032 -0.0016311 0.31659 0.202444 0.0902707 0.05369 0.177857 -0.169886 -0.078031 -0.281753 0.259612 0.37085 0.276073
144264887 0.205128 0.0176657 0.480056 -0.11477 0.0377066 -0.139839 0.022981 -0.55506 -0.0751705 0.156293 0.170054 -0.0077781 -0.118407 0.094961 -0.0173735 0.0118297 -0.105433 0.21029 0.0905747 -0.127301 0.123902 0.0729321 -0.1273 0.11179 0.0744034 -0.305465 -0.316496 -0.379301 -0.174451 -0.236365 -0.101253 0.375194 0.249918 0.0163974 0.121021 0.0771179 -0.4135 -0.000727746 0.213875 -0.00847015 -0.120688 0.359184 -0.0260881 -0.420931 0.105228 0.128611 0.020952 0.048277 -0.0684801 -0.214389 0.221457 0.00812424 -0.0375097 0.141362 0.0873413 0.164092 0.051126 0.125577 -0.0547508 -0.15688 0.160336 -0.130404 -0.105075 0.103368 -0.269925 0.0969557 -0.115521 0.00933526 -0.20747 0.197033 -0.0107524 -0.111707 0.201278 0.0510507 0.128073 0.315436 0.0594415 -0.0575113 -0.0919563 0.0448855 0.228849 -0.250833 -0.0262367 0.18824 -0.0296862 0.273926 -0.102765 -0.116485 -0.0353921 0.196829 0.219048 0.110621 0.0176634 0.158057 -0.155694 -0.121189 -0.232846 0.429978 0.318005 0.247646
34041607 0.374243 0.0488833 0.468673 0.103165 0.0430183 -0.201495 0.065327 -0.35855 -0.0616333 0.0773564 0.100413 0.0673924 -0.190349 0.0970227 -0.00495439 0.107187 -0.110812 0.19729 -0.0400103 -0.143196 0.146911 -0.0332177 0.0587918 -0.086325 0.0951478 -0.170388 -0.2214 -0.469167 -0.201403 -0.141052 -0.151706 0.294382 0.158043 -0.0473783 -0.0494051 0.0524824 -0.494459 0.0116665 0.133697 -0.156574 -0.310535 0.287711 -0.0603131 -0.551652 0.0225971 0.0426125 0.131145 -0.13975 -0.05419 -0.278059 0.165093 -0.0828996 -0.225783 0.018731 0.0619332 0.249368 -0.0326513 0.186784 -0.143506 -0.0566628 0.0423796 -0.0823885 -0.185114 -0.0267905 -0.245577 0.026609 -0.158826 0.0321485 -0.233156 0.0820917 0.158294 0.0954393 0.061485 0.107354 0.163298 0.202262 0.000944903 -0.131928 -0.228299 0.0186565 0.29491 -0.388706 -0.08243 0.067104 0.0610543 0.148742 -0.291832 -0.161036 -0.129461 0.286774 0.0514913 -0.0376715 0.0734516 0.0464176 0.03038 -0.0607677 -0.266996 0.36875 0.287385 0.370589
78756744 0.0866296 -0.136122 0.379825 0.0495549 -0.0349652 -0.176846 -0.0705315 -0.328901 0.0866613 0.138987 0.0976159 0.128104 -0.0485821 0.210407 0.0347614 0.104381 -0.13653 0.0809281 -0.0283356 -0.155387 0.14458 0.0557775 0.0136847 0.0623392 0.288273 -0.0822657 -0.154138 -0.53815 -0.215694 -0.259212 0.0741779 0.27996 0.121939 0.142718 -0.104945 0.141481 -0.385155 -0.095358 0.222394 -0.0161926 -0.0479331 0.241054 -0.176209 -0.327897 -0.103216 -0.0611161 -0.12248 0.0648304 -0.00175756 0.00288192 0.176432 -0.0202365 -0.224987 0.0738894 -0.1552 0.227995 -0.0838623 0.0942305 -0.0322394 -0.0656366 0.103914 -0.0866039 -0.203219 0.0647687 -0.386138 0.0562488 -0.12351 -0.0337596 -0.177343 0.0726946 0.0839304 -0.121103 0.0678836 0.0933301 0.233855 0.141376 0.0130187 -0.101872 -0.157947 0.121083 0.179665 -0.366753 0.0253496 0.0458089 0.179923 0.0475251 -0.35537 -0.211191 -0.15627 0.259738 0.210203 0.1764 0.0725777 -0.00467898 -0.0649263 -0.066268 -0.297398 0.427171 0.282339 0.189451
27633075 0.122681 -0.107537 0.496101 0.0491495 -0.0925381 -0.0620777 -0.0137346 -0.458929 0.129447 0.0205169 0.14934 0.0155331 -0.0219698 0.112172 0.00284424 0.121036 -0.102916 0.0862946 -0.0797054 -0.135455 0.266006 -0.0622706 -0.0486281 0.030097 0.223539 -0.138861 -0.0765188 -0.58632 -0.051961 -0.429989 0.066643 0.13614 0.065453 0.152972 -0.0550205 0.115813 -0.384281 0.0332096 0.169422 -0.0391709 -0.0325062 0.252355 -0.0714155 -0.0567385 -0.0915162 -0.121179 -0.105187 0.0941967 0.0593194 -0.00786938 0.134652 0.0521171 -0.26021 0.0725415 0.0852381 0.108398 -0.0637789 0.0157088 0.0108156 -0.154587 0.00477852 -0.198373 -0.233413 -0.085082 -0.349978 0.0914789 0.0397661 -0.0984364 -0.209765 0.174733 0.13315 -0.314147 0.18716 0.0165206 0.189729 0.0923097 0.015042 -0.0873044 -0.0549794 0.14265 0.270066 -0.394864 0.0148293 0.0918534 0.0960206 0.115129 -0.279302 -0.188509 -0.197832 0.0686468 0.207314 0.238339 0.174644 0.201609 -0.0954615 -0.0547349 -0.193579 0.421869 0.227049 0.221762
73685820 0.121992 -0.148303 0.549612 -0.0875694 -0.0395476 -0.111423 -0.0519365 -0.370802 0.156028 0.0514509 0.199409 0.118244 0.0134328 0.346761 -0.0673001 0.209466 -0.0858924 0.0295759 -0.12182 -0.129626 0.247835 -0.0936779 0.00250691 0.067594 0.220521 -0.177492 -0.105011 -0.533231 -0.124457 -0.236668 0.0362845 0.291008 0.151742 0.166902 0.105175 0.112619 -0.352825 -0.0395204 0.232359 0.0413723 -0.0237759 0.255138 -0.046154 -0.192009 -0.149155 -0.0451983 -0.159549 0.265801 -0.0173486 0.0309022 0.0992934 -0.0181501 -0.254995 0.168739 0.0238062 0.000106204 -0.0207568 -0.0554418 -0.107371 -0.0988712 0.0723875 -0.0330406 -0.191603 0.010764 -0.302182 0.113583 0.0118865 -0.111632 -0.215238 0.0933607 0.116872 -0.425768 0.0412878 0.0401851 0.0828336 0.222744 0.030388 -0.136146 -0.0642111 0.0682862 0.321986 -0.321714 0.0372654 0.157088 0.00855607 -0.0753815 -0.248891 -0.174254 -0.103132 0.110715 0.111085 0.236696 0.0448546 0.226396 -0.149704 -0.0690251 -0.214208 0.409257 0.268799 0.142074
28465635 0.119552 -0.116854 0.563033 0.0102654 0.0318752 -0.0361104 0.00162996 -0.484642 0.0278664 0.100682 0.166231 -0.0725794 -0.0292938 0.128188 -0.0176914 0.120471 -0.117181 0.147519 -0.0876913 -0.13696 0.332705 -0.0747777 -0.0853162 0.0819373 0.146764 -0.200505 -0.150991 -0.430336 -0.0742775 -0.402249 0.00213574 0.141115 0.139907 0.137286 0.0151709 0.149765 -0.477149 0.11581 0.131581 0.0232699 -0.0752219 0.263803 0.0105512 -0.172351 -0.0213398 0.00695917 -0.0402837 0.195172 0.022326 -0.07378 0.12254 0.0479973 -0.206273 0.179207 0.089799 0.0586219 -0.085335 0.0783612 -0.00241719 -0.145763 -0.0246806 -0.165376 -0.104655 -0.0262808 -0.354068 0.150431 0.0616724 -0.0159545 -0.203718 0.170752 0.145208 -0.314428 0.16878 0.0322166 0.125824 0.178913 0.110046 -0.124084 0.133417 0.14212 0.284558 -0.363581 -0.016816 0.187695 0.0736881 0.219596 -0.145227 -0.0951454 -0.155097 0.0772272 0.202316 0.127485 0.0639592 0.192743 -0.12514 -0.1001 -0.180837 0.432619 0.232625 0.221789
76068864 -0.12593 -0.0629538 0.518865 -0.0593282 -0.124358 -0.058229 -0.061566 -0.422843 0.211641 0.102553 0.10169 0.170111 0.155594 0.179226 -0.0723385 0.0546072 -0.13041 0.00117963 -0.00969353 -0.0660078 0.261595 -0.083174 0.0715487 0.105899 0.225382 -0.100553 -0.16396 -0.664282 0.0206877 -0.0994854 0.143685 0.278927 0.117731 0.0609001 -0.0528661 0.26535 -0.215392 -0.151175 0.292006 -0.0698974 0.156065 0.314747 -0.0307547 0.0508807 -0.00667608 -0.110879 -0.197377 0.184365 0.0593018 0.214027 0.289067 -0.0381238 -0.180745 0.12071 0.0493471 0.185238 -0.0405599 -0.0917542 0.0507674 -0.133125 0.130424 -0.199194 -0.232766 0.0501921 -0.3553 -0.0772064 -0.0739807 -0.185998 -0.160292 0.435895 0.0974736 -0.27377 0.0607709 0.116558 0.238154 0.0710672 0.0102363 -0.150534 -0.239235 0.0973261 0.251278 -0.404903 0.0926937 0.0912309 -0.171119 0.14559 -0.331223 -0.19986 -0.2201 0.127323 0.28941 0.281304 0.218783 0.19443 -0.113184 0.0630435 -0.122748 0.397122 0.317978 0.107738
88323281 0.0610649 -0.155441 0.539917 0.000755252 -0.00247741 -0.0137497 -0.061993 -0.496888 0.0172891 0.120055 0.14997 -0.00351117 0.0296993 0.127233 -0.0206856 0.12006 -0.0707608 0.0295348 -0.0754507 -0.139333 0.328143 -0.11794 -0.0695494 0.10809 0.149405 -0.172665 -0.0779845 -0.470983 -0.0401188 -0.337245 0.162498 0.141479 0.13108 0.120037 -0.0144577 0.248901 -0.462063 0.0468565 0.133298 -0.0377797 0.0411419 0.261004 0.0065705 -0.0460151 -0.0206924 -0.0612376 -0.199941 0.154301 0.113581 -0.0185262 0.13104 0.0633975 -0.141106 0.0940483 0.039421 0.198877 -0.0455379 0.0661895 0.0180889 -0.153878 -0.0259419 -0.152929 -0.176424 -0.077826 -0.431827 0.0449385 0.087992 -0.0458798 -0.191521 0.237623 0.174747 -0.27734 0.128503 0.0665508 0.183757 0.0880223 0.0689242 -0.112086 -0.0140896 0.125872 0.255607 -0.375581 0.00756764 0.192274 0.0629237 0.260994 -0.275003 -0.126486 -0.221963 0.0130983 0.241938 0.174501 0.128489 0.263254 -0.200577 -0.0761229 -0.10841 0.478646 0.194258 0.168911
58554456 0.148969 -0.0778914 0.4665 -0.0257662 -0.0225552 -0.141658 -0.0788251 -0.408345 0.0785623 0.123488 0.224782 0.0353729 -0.0468667 0.285086 -0.0696456 0.0393902 -0.146582 0.140607 -0.171906 -0.139599 0.306227 -0.0360482 0.02711 0.211774 0.120234 -0.199521 -0.126768 -0.253089 -0.117784 -0.349942 0.177846 0.166149 0.14313 0.0707622 -0.0606297 0.196881 -0.362265 0.105591 0.169905 0.0609875 -0.0487458 0.245256 -0.0339142 -0.297466 0.0790623 -0.114491 -0.0794001 0.10306 0.0132616 -0.0266025 0.22629 0.0466967 -0.252585 0.196939 -0.0522976 0.175045 -0.0591056 0.00191282 -0.148942 -0.182502 0.0372066 -0.220149 -0.219847 -0.0546165 -0.325629 0.0781835 -0.0882225 -0.0473006 -0.169982 0.0785555 0.164467 -0.253968 0.14724 0.11393 0.0286417 0.177606 0.095772 -0.158342 0.0159917 0.138674 0.369021 -0.318252 0.0898845 0.0259781 0.0480873 0.199222 -0.253056 -0.0825528 -0.111425 0.0337562 0.199662 0.0927694 0.00361579 0.184948 -0.195351 -0.0842354 -0.173502 0.505513 0.193081 0.198158
22462180 0.0403377 -0.150022 0.483243 0.0672883 -0.0716989 -0.121696 -0.01241 -0.357915 0.150773 0.125715 0.120326 0.0912149 0.0363614 0.158086 0.0392988 0.0574354 -0.150521 0.131962 -0.079387 -0.10336 0.196507 -0.0193126 -0.0828042 0.0436536 0.239824 -0.0782936 -0.220219 -0.541421 -0.153558 -0.258536 0.0126365 0.199884 0.100656 0.129352 -0.0748927 0.209574 -0.365814 -0.089861 0.153038 -0.000191673 -0.0251147 0.312326 -0.0247638 -0.05727 -0.0617328 -0.0557148 -0.016119 0.121724 0.0405033 0.0371783 0.132071 0.0094582 -0.147058 0.0446403 -0.0271419 0.205326 -0.0577716 0.0903 0.05931 -0.251446 -0.0355244 -0.189898 -0.162337 0.0336426 -0.370967 0.075677 -0.0418894 -0.0494296 -0.23628 0.25317 0.0902148 -0.194092 0.127161 0.0886723 0.215542 0.132565 -0.022697 -0.122604 -0.00549386 0.169569 0.29678 -0.310543 0.0432465 0.0345124 0.147728 0.0857941 -0.283667 -0.176822 -0.197209 0.133558 0.236931 0.219303 0.13 0.184478 -0.110788 -0.0740386 -0.15169 0.499601 0.285161 0.199502
157078214 0.0470674 0.0775168 0.422326 -0.0896193 0.018724 -0.173267 -0.0320582 -0.419308 0.0554693 0.204389 0.0690022 0.052401 0.000941875 0.0125647 0.0161746 0.0864576 -0.0144616 0.122612 0.0786238 -0.0265939 0.183034 0.00242667 -0.0546363 0.0711714 0.0965144 -0.158522 -0.262279 -0.652688 -0.153326 -0.196232 0.102496 0.41346 0.292254 -0.0780996 0.01114 0.20397 -0.323568 -0.0976079 0.171975 -0.186695 0.00326753 0.237398 -0.119321 -0.160701 0.0607248 0.17665 -0.211032 -0.00568387 0.0498642 -0.12307 0.090299 0.0156917 -0.0895663 -0.078333 0.0253402 0.410575 0.0698065 0.107607 0.091016 -0.0880407 -0.0725775 -0.134971 -0.226758 0.0306096 -0.267755 -0.0126441 -0.0418697 -0.0636461 -0.345707 0.300844 -0.0923476 -0.0297444 0.0137612 0.0685637 0.380907 0.0503129 0.0130129 -0.166094 -0.366904 -0.0688524 0.249563 -0.389671 -0.0947827 0.127665 -0.0721199 0.19423 -0.268933 -0.161702 0.00826455 0.255088 0.205301 0.159346 0.28063 0.0969666 -0.131198 -0.184957 -0.159511 0.553201 0.280393 0.208741
34428380 0.0984875 -0.109537 0.470022 0.0119846 -0.0431755 -0.0973817 0.00806971 -0.439274 0.0882317 0.134106 0.0976202 -0.0313285 0.00399578 0.188318 0.000868685 0.0580797 -0.111579 0.150143 -0.0849534 -0.139384 0.267302 -0.00922134 0.00638585 0.067883 0.243913 -0.0821549 -0.205286 -0.46252 -0.0988947 -0.310571 0.0969371 0.210774 0.167469 0.063295 -0.0314279 0.204508 -0.32396 0.0152511 0.166731 -0.0497516 -0.0158371 0.293682 -0.0233037 -0.170024 -0.0644907 0.00525823 -0.102611 0.130023 0.0260902 -0.0461917 0.145479 0.0415591 -0.193575 0.0940469 -0.0597539 0.232299 -0.0192161 0.0925127 0.037856 -0.200434 -0.018149 -0.18928 -0.192335 -0.0507963 -0.343056 0.0870659 -0.0071001 -0.09448 -0.279179 0.211186 0.0570024 -0.173945 0.116273 0.0493126 0.217463 0.116905 0.0655119 -0.138162 0.0285341 0.188692 0.252888 -0.397328 0.00858019 0.0565932 0.115727 0.133746 -0.291433 -0.146655 -0.133633 0.160896 0.211614 0.163565 0.156437 0.133513 -0.127466 -0.0659817 -0.175225 0.535077 0.253441 0.189019
31331740 0.136425 -0.202674 0.5172 0.076054 -0.0425921 -0.0165024 -0.0179971 -0.447173 0.10771 0.0347638 0.213952 -0.021543 -0.0258196 0.13997 -0.0370655 0.0567962 -0.0908219 -0.0387287 -0.1056 -0.188522 0.30039 -0.0838922 -0.0596416 0.0176685 0.248884 -0.167252 -0.129255 -0.463651 -0.0750021 -0.34816 0.0956579 0.0750043 0.0342476 0.226883 -0.00866992 0.213383 -0.417974 0.0693036 0.137998 -0.0482354 -0.0253161 0.326379 -0.0639622 -0.085398 -0.0374065 -0.0903889 -0.186731 0.0929984 0.0864398 0.0587871 0.164131 0.0703315 -0.213841 0.0910716 0.0359686 0.139542 -0.0812861 0.046214 -0.0558925 -0.127992 0.0356823 -0.126006 -0.271072 -0.10648 -0.373178 0.126216 0.0647761 -0.0499361 -0.17657 0.228403 0.200767 -0.269632 0.207293 0.043228 0.209259 0.0804859 0.0357549 -0.136994 0.035917 0.172052 0.280347 -0.349852 0.0665481 0.129184 0.134899 0.13255 -0.258728 -0.173344 -0.245 0.0337666 0.176918 0.149464 0.117656 0.258736 -0.110284 -0.0706645 -0.155504 0.462995 0.19411 0.174796
121533789 0.173724 -0.275753 0.462089 0.219456 -0.0587344 -0.0597412 -0.0242128 -0.345597 0.0173471 -0.0396781 0.187568 0.0382065 0.0194432 0.102006 -0.0205918 0.145591 -0.0994106 0.0867392 -0.151222 -0.144304 0.281369 -0.0358191 -0.0288787 -0.0119786 0.36754 -0.088709 -0.154219 -0.551467 -0.125892 -0.403634 -0.0556969 0.158047 -0.0591364 0.189087 -0.118339 0.24686 -0.495955 0.154373 0.126672 0.0611605 -0.0579401 0.268837 0.0573356 -0.142555 -0.176549 -0.095807 -0.112267 0.172149 0.0442381 0.0265732 0.17204 -0.0357191 -0.191349 0.159039 0.031109 0.14046 -0.086079 0.120974 -0.0105356 -0.0900125 0.0136038 -0.146576 -0.221835 0.0222938 -0.38802 0.0711937 0.0549707 -0.179516 -0.25756 0.142756 0.215292 -0.293065 0.0671462 0.0416919 0.192343 0.130587 0.0222817 -0.124515 0.0979852 0.256511 0.213151 -0.327329 0.006314 0.147383 0.145748 0.0866057 -0.324357 -0.288562 -0.263334 0.129769 0.210471 0.136291 0.0843095 0.175888 -0.0777173 -0.0212243 -0.177201 0.432593 0.230809 0.170297
40981798 0.13919 -0.0771117 0.543296 0.106877 -0.0739333 -0.131147 -0.0223184 -0.408099 0.0482716 0.110883 0.125054 0.0320674 0.0394938 0.107665 -0.0018722 0.154536 -0.08273 0.141245 -0.130934 -0.101954 0.213249 -0.0345213 -0.0191597 0.0756549 0.231965 -0.117166 -0.179017 -0.495571 -0.108372 -0.282613 0.0890533 0.227806 0.113126 0.0203269 -0.0267681 0.196001 -0.371945 -0.00636109 0.140564 -0.00976749 -0.0927874 0.260823 0.00023129 -0.185973 -0.0637854 -0.012377 -0.0695454 0.0940553 0.0425547 -0.0341675 0.181882 -0.0150405 -0.136419 0.131613 -0.00368464 0.166522 -0.0642609 0.151909 -0.0528578 -0.116408 0.0523708 -0.132226 -0.214729 -0.0078548 -0.334263 0.0613888 0.0362213 -0.14857 -0.255608 0.185521 0.135892 -0.194166 0.189701 0.0912721 0.192637 0.10915 0.0551808 -0.161798 -0.0996653 0.149475 0.286624 -0.337761 -0.040291 0.0978389 0.0964588 0.131152 -0.264926 -0.134485 -0.167828 0.130077 0.165465 0.146836 0.0806298 0.151096 -0.104202 -0.11309 -0.147661 0.476177 0.324161 0.234332
62389355 0.0767156 -0.0365329 0.454202 -0.0638458 -0.0338516 -0.188788 -0.0859073 -0.366541 0.109954 0.179027 0.106344 0.0809257 -0.0511608 0.210655 -0.0128524 0.111288 -0.0491698 0.0986232 -0.0682545 0.0111528 0.280681 -0.0776716 -0.034785 0.147599 0.0154921 -0.12228 -0.162997 -0.489427 -0.0989946 -0.169134 0.206215 0.266133 0.223286 -0.0202708 0.0111427 0.222309 -0.303727 -0.0900146 0.155146 -0.118531 0.0379822 0.210812 -0.120039 -0.225427 0.0139394 -0.0589647 -0.198465 0.0341597 0.0102283 -0.0840289 0.0646785 0.0466714 -0.215678 -0.0441771 -0.140275 0.324638 -0.00379653 0.0306593 0.056863 -0.226074 -0.150808 -0.140487 -0.254702 -0.0582756 -0.340964 -0.0159758 -0.0693518 0.0587449 -0.217766 0.214334 -0.0740608 -0.0211597 -0.0217627 0.203186 0.100794 0.0464027 -0.0208956 -0.175226 -0.30545 -0.0471538 0.329529 -0.280786 -0.0318087 -0.0614722 -0.0278829 0.165061 -0.302465 -0.18808 0.00858872 0.125117 0.163745 0.0205908 0.222121 0.150884 -0.22623 -0.269733 -0.180117 0.585564 0.201854 0.295141
130287690 0.112339 0.00519522 0.400563 0.0405493 0.0194971 -0.171032 -0.0804695 -0.403346 0.0179877 0.150888 0.21649 0.102714 0.0488475 -0.00832875 9.03368e-05 0.0594751 -0.0618151 0.157372 -0.0485612 -0.0360335 0.252528 -0.105935 -0.0283738 0.140839 0.168092 -0.14516 -0.156814 -0.570961 -0.162247 -0.396088 0.189377 0.275771 0.188463 0.00809476 -0.153775 0.31383 -0.521108 0.139645 0.0714531 -0.0680016 0.0654357 0.146652 -0.0556776 -0.0254928 0.115952 0.0155144 -0.165499 -0.148531 0.159476 -0.00816111 0.129406 0.0400764 -0.0881505 -0.0779293 0.0980918 0.381218 0.060276 0.0622898 0.0930018 -0.167207 -0.226893 -0.396055 -0.32695 0.00443711 -0.352634 0.0637303 -0.0458134 -0.0352811 -0.314337 0.21321 -0.0356208 -0.153114 0.0553104 0.0771865 0.308026 0.0493547 0.111355 -0.234803 -0.161066 0.0269051 0.347865 -0.378961 -0.00411667 0.0516075 0.0166522 0.344382 -0.253061 -0.13965 -0.0643453 0.077202 0.290341 0.156417 0.25219 0.153552 -0.174003 -0.147441 -0.0795144 0.596696 0.223161 0.142696
19833886 0.115923 -0.167447 0.466662 0.126011 0.0206063 -0.148587 -0.105505 -0.337472 -0.0316013 0.00274238 0.17205 0.0745252 0.0280112 0.107884 -0.0582866 0.0551716 -0.110761 0.173196 -0.192204 -0.0344971 0.305003 -0.0910326 -0.0169164 0.20469 0.18072 -0.0853463 -0.0952905 -0.387486 -0.109449 -0.401144 0.181429 0.188992 0.123991 0.0445693 -0.123437 0.366295 -0.435314 0.246297 0.158041 0.0950793 0.06923 0.148505 0.0598578 -0.179437 0.0373237 -0.115931 -0.145261 0.163744 0.0891407 0.0425752 0.244769 0.103834 -0.226833 0.206274 -0.0370072 0.247659 -0.0439162 0.0647727 -0.0302449 -0.229146 -0.0514206 -0.235725 -0.235652 0.033255 -0.418303 0.0294772 -0.050062 -0.0902608 -0.211743 0.15976 0.0909774 -0.212085 0.0667197 0.164701 0.0299614 0.144412 0.17916 -0.21404 -0.0326411 0.16581 0.31699 -0.291919 0.0455653 -0.0101009 0.0100756 0.244642 -0.263793 -0.190281 -0.172913 0.0355653 0.345574 0.0200386 0.156348 0.155691 -0.161229 -0.184095 -0.0596702 0.52143 0.226035 0.259655
37292105 0.171007 -0.127905 0.447229 0.0602145 0.00947187 -0.168461 -0.0601345 -0.356675 0.00395033 0.0248591 0.202402 0.0820713 0.0104033 0.193264 -0.0797433 0.0472725 -0.131634 0.149067 -0.182969 -0.0868044 0.29717 -0.119765 0.0575204 0.186869 0.185821 -0.158264 -0.077246 -0.399492 -0.137839 -0.429856 0.173341 0.216132 0.154617 0.0912724 -0.182931 0.271311 -0.415966 0.236541 0.183682 0.0681059 0.0256981 0.176619 0.00207403 -0.204963 0.0591655 -0.128693 -0.108996 0.0541895 0.0872784 0.0228523 0.253454 0.0590335 -0.251822 0.135956 -0.000213549 0.215276 -0.010844 0.0356958 -0.0850097 -0.23576 -0.073897 -0.297485 -0.249073 -0.0255567 -0.409792 0.0652027 -0.163501 -0.0440308 -0.217303 0.0970208 0.117734 -0.246323 0.0890869 0.0987095 0.0244291 0.164625 0.193084 -0.200448 -0.00581474 0.131429 0.362093 -0.356705 0.0885071 -0.0129127 -0.0129276 0.248826 -0.244806 -0.126425 -0.159408 0.0369438 0.342301 0.123538 0.138073 0.134071 -0.160081 -0.0783177 -0.0845883 0.480367 0.230134 0.197425
35041070 0.270414 -0.0880569 0.504216 0.00161231 0.0013041 -0.199814 0.0151118 -0.449679 0.0133176 0.0656817 0.12655 -0.0113794 -0.0928812 0.18456 -0.101565 0.0412279 -0.113879 0.182188 -0.133526 -0.117957 0.199592 -0.00356628 -0.00935455 0.144367 0.0884136 -0.282462 -0.20688 -0.260054 -0.174036 -0.331777 0.072897 0.194327 0.216627 -0.0121214 -0.0565801 0.155837 -0.349684 0.151675 0.144327 0.018499 -0.109889 0.281722 -0.0209018 -0.290744 0.157927 0.0414886 -0.0736339 0.027094 0.0308632 -0.131482 0.183395 0.0782109 -0.217911 0.180852 0.0161149 0.162942 0.0455553 0.0565208 -0.14576 -0.21737 0.013686 -0.197498 -0.192992 -0.00396725 -0.361693 0.0333968 -0.165326 0.0117851 -0.176536 0.144695 0.100455 -0.127974 0.105892 0.0475045 0.0694264 0.205624 0.116595 -0.153033 -0.0263835 0.104231 0.35453 -0.332432 0.0734166 0.0199916 -0.0413845 0.23946 -0.201846 -0.122413 -0.0356894 0.089323 0.263211 0.018654 0.0480121 0.168116 -0.179452 -0.104214 -0.132055 0.453167 0.302086 0.252282
32144146 0.272748 -0.0234447 0.306504 0.0384687 0.0901866 -0.233002 0.130369 -0.367012 -0.0874515 0.211387 0.0890618 0.0455622 -0.204929 0.115614 -0.0930424 0.0278629 -0.110388 0.078276 0.155691 -0.112697 0.0144362 0.0614279 -0.234846 -0.0300341 0.0693005 -0.210057 -0.21188 -0.392231 -0.26935 -0.0996968 -0.106006 0.4422 0.324536 -0.140757 0.149692 0.0867402 -0.411926 -0.0320389 0.124496 -0.109707 -0.134394 0.386084 -0.157452 -0.53508 0.228764 0.188438 -0.126217 0.0190851 -0.0582933 -0.25103 0.168201 0.0889001 -0.0575308 0.169091 -0.00888655 0.287691 0.0438503 0.355162 -0.17591 -0.140717 0.193454 0.0336136 -0.190648 0.0290436 -0.274922 -0.0847337 -0.105758 0.0340289 -0.198407 0.104753 0.104656 0.141579 0.103554 0.0244107 0.257118 0.164309 -0.0931006 -0.0528714 -0.391151 -0.0118544 0.195732 -0.346694 0.0157384 0.253504 0.0126373 0.121911 -0.291356 -0.143074 -0.0877896 0.279747 0.102937 -0.056172 0.0754867 0.236726 -0.135248 -0.265692 -0.2516 0.537879 0.292321 0.432471
136615027 0.0549471 -0.063178 0.40431 -0.0426782 0.0648822 -0.144186 0.031564 -0.486425 0.0724708 0.111678 0.179734 0.0272987 -0.00244916 0.131306 -0.0480361 -0.0189054 -0.0920408 0.123684 -0.0615444 -0.063031 0.251221 -0.0515587 -0.0396406 0.100031 0.100896 -0.12111 -0.103338 -0.551069 -0.106641 -0.301701 0.180561 0.188049 0.339544 -0.0260356 -0.0579873 0.302163 -0.289856 0.0637865 0.134525 -0.168012 0.0821245 0.194747 -0.132306 -0.0490401 0.130229 0.0306127 -0.207358 0.0391329 0.11134 -0.0936376 0.192101 0.103048 -0.215853 -0.0150417 0.0242024 0.324982 0.0582152 -0.00522112 0.112475 -0.282462 -0.104765 -0.238094 -0.253273 -0.0865969 -0.416033 -0.0558536 -0.125011 -0.0167253 -0.200714 0.189429 0.0452222 -0.0553835 0.0585753 0.0843402 0.213353 0.0547295 0.0589055 -0.131622 -0.276811 0.0468949 0.27199 -0.445327 0.0754274 0.107439 -0.0402186 0.304684 -0.330361 -0.0860502 -0.0431587 0.0396854 0.336798 0.127857 0.336359 0.173337 -0.182535 -0.224776 -0.0624719 0.53013 0.29988 0.246268
8088112 0.133529 -0.153036 0.509773 0.111141 -0.125947 -0.0919193 0.0155235 -0.41851 0.171261 0.0422935 0.0809755 -0.0325176 -0.021083 0.169158 -0.0285611 0.104624 -0.095694 0.151077 -0.106556 -0.139622 0.250461 -0.0176055 -0.0410574 0.039286 0.306561 -0.108606 -0.190202 -0.512603 -0.0519551 -0.398081 0.0664976 0.113855 0.0928596 0.136372 -0.0743722 0.139864 -0.282729 0.0112905 0.143987 -0.0357173 -0.0595865 0.282899 -0.0788252 -0.0187816 -0.156836 -0.0759809 -0.109756 0.113865 0.00987729 0.0138848 0.132155 0.0112795 -0.244784 0.0656939 -0.0325328 0.0752133 -0.0260794 0.0860493 0.0271539 -0.196512 -0.0178636 -0.196705 -0.213322 -0.0611231 -0.352947 0.121047 0.00377239 -0.0931724 -0.255604 0.155924 0.0789092 -0.230481 0.154453 0.0252333 0.203593 0.0845557 0.0188245 -0.094753 0.0455776 0.225873 0.254959 -0.355954 0.021516 -0.0217323 0.156129 0.0726103 -0.304294 -0.18741 -0.140947 0.0964305 0.261626 0.235085 0.138636 0.130623 -0.147827 -0.0555262 -0.176428 0.472272 0.284477 0.200961
49315012 0.210484 -0.0922766 0.382805 0.125358 0.0641431 -0.133577 0.0584003 -0.40305 -0.0322064 0.0940817 0.00718403 -0.00124447 -0.0989241 0.140438 -0.0900303 0.044684 -0.0278978 0.145054 0.025815 -0.0837855 0.160769 -0.0528216 -0.0777037 0.0216642 0.0718535 -0.165155 -0.167717 -0.447926 -0.162811 -0.218079 0.0761887 0.234821 0.338001 -0.0774875 -0.0776306 0.186302 -0.388788 0.0349019 0.0855756 -0.185435 -0.0171909 0.227723 -0.178963 -0.243269 0.0716745 0.0642956 -0.124481 -0.0426836 0.0202402 -0.121194 0.0918289 0.0995797 -0.249034 -0.0168352 -0.0732434 0.329817 0.0442338 0.159899 0.0502857 -0.255311 -0.0798637 -0.147882 -0.196791 -0.00679079 -0.453333 -0.0110779 -0.177165 0.150869 -0.171857 0.178223 0.0347054 0.131111 0.0214516 0.0829191 0.147935 0.0817458 0.0466081 -0.100007 -0.252285 0.0892247 0.1997 -0.404667 0.0367664 -0.000606221 0.0226274 0.210471 -0.306803 -0.155356 -0.062106 0.198345 0.301658 0.018283 0.233978 0.125455 -0.181546 -0.258899 -0.141267 0.446401 0.309796 0.355795
54779604 0.140554 -0.0286593 0.413803 0.037131 -0.0483483 -0.199404 -0.0357548 -0.428185 -0.0503888 0.179851 0.100817 0.0859101 -0.117904 0.0784254 -0.0802401 0.00838799 -0.0688061 0.156349 -0.0233168 -0.00901113 0.206979 -0.0347658 -0.0963864 0.168642 4.2311e-06 -0.203831 -0.17522 -0.394308 -0.141482 -0.267188 0.27304 0.358745 0.228877 -0.144986 -0.0611329 0.235133 -0.430043 0.0433909 0.147825 -0.0871281 0.0208474 0.263436 -0.0734697 -0.307136 0.205007 -0.0343493 -0.200511 -0.127146 0.0248222 -0.14062 0.148735 0.129088 -0.148513 0.0474535 -0.0731238 0.453117 0.0337763 0.161489 -0.0137459 -0.268577 -0.0219071 -0.307518 -0.330925 -0.0128393 -0.401279 -0.0501936 -0.158283 0.0895002 -0.151536 0.229934 -0.0629862 0.104461 0.080866 0.203331 0.151566 0.0769235 0.0670533 -0.200724 -0.318755 0.0518838 0.31739 -0.340248 0.0486915 -0.098339 -0.0304163 0.299877 -0.325536 -0.182606 -0.00492731 0.154882 0.282187 -0.0984644 0.221071 0.232978 -0.25016 -0.248328 -0.181148 0.621488 0.187684 0.356579
27272973 0.172832 0.0147989 0.417662 -0.120615 0.0075065 -0.184173 -0.0269943 -0.468987 -0.0876805 0.209938 0.157138 0.0866679 -0.141153 0.101061 -0.0566598 -0.00254182 -0.120714 0.113031 0.154264 -0.0659332 0.0886464 0.0314862 -0.157808 0.111756 0.0469167 -0.29843 -0.267196 -0.421354 -0.194278 -0.15896 0.0905273 0.482644 0.215036 -0.0403284 0.112127 0.0666163 -0.449774 -0.038909 0.255969 -0.009801 -0.0495625 0.389887 -0.0261262 -0.443848 0.227097 0.0612396 -0.16672 -0.0282329 -0.00898525 -0.139928 0.196655 0.0502481 0.0375516 0.0734645 0.0187833 0.358221 0.0991494 0.153538 -0.144996 -0.153106 0.143545 -0.188016 -0.24393 0.0639232 -0.30248 -0.0359958 -0.140881 0.0265705 -0.171052 0.25625 -0.0288844 -0.054975 0.135601 0.127466 0.19693 0.246552 -0.00469727 -0.0876242 -0.31286 -0.0341711 0.277613 -0.291871 0.046806 0.123162 -0.102383 0.309371 -0.217291 -0.1963 -0.0490112 0.200118 0.262856 0.0424369 0.0349781 0.242121 -0.22709 -0.129899 -0.232595 0.567899 0.210995 0.250278
34446921 0.17633 -0.112301 0.477886 0.0801953 0.0316259 -0.114561 0.0446843 -0.361971 0.156288 0.0620794 0.149853 0.00394173 -0.0308278 0.243278 0.00337125 0.124539 -0.130269 0.142252 -0.198658 -0.156918 0.285132 -0.00891813 0.0162029 -0.00465367 0.204045 -0.0726971 -0.104906 -0.476634 -0.0932931 -0.302662 0.0454884 0.129723 0.181935 0.0750263 -0.0346932 0.182242 -0.268704 0.0140784 0.147224 -0.0630865 -0.12881 0.223324 -0.121019 -0.309583 -0.0957848 -0.0698358 -0.0199279 0.178499 -0.00957842 -0.11288 0.136934 0.00635747 -0.334265 0.0617602 -0.0798219 0.104766 -0.15356 0.0804221 -0.0208603 -0.127067 -0.0126992 -0.0418334 -0.215588 -0.134923 -0.314958 0.0636485 -0.0665851 -0.087501 -0.223587 -0.0411243 0.201325 -0.145385 0.0916663 0.0592691 0.15272 0.086882 -0.0284187 -0.140798 -0.0989756 0.149725 0.323081 -0.413132 0.0172186 0.0515791 0.210023 0.034462 -0.379112 -0.0794946 -0.186507 0.154386 0.106938 0.0750876 0.122412 0.107887 -0.0896189 -0.142652 -0.227239 0.427545 0.216882 0.272478
49064411 0.221869 -0.050152 0.524535 -0.0163516 0.0540389 -0.150195 0.010168 -0.35728 0.0748552 0.113585 0.155829 0.0702994 -0.0230443 0.326945 0.0436121 0.29239 -0.0732682 0.22144 -0.217854 -0.133073 0.252564 -0.0325409 0.0338288 0.0259563 0.175462 -0.0837488 -0.0953526 -0.540981 -0.213523 -0.270879 -0.108898 0.28232 0.285244 0.0599671 0.0533697 0.132485 -0.402265 -0.0801469 0.124313 -0.0393464 -0.188372 0.15186 -0.0687745 -0.312971 -0.194509 0.0233089 0.0900479 0.154271 -0.0269549 -0.193774 0.00470548 -0.0391305 -0.289391 0.0503838 -0.0549681 0.124036 -0.137779 0.062985 0.0368729 -0.129656 -0.0791947 0.033329 -0.149127 0.0449055 -0.281767 0.140274 0.0380447 -0.0853489 -0.339602 -0.0706222 0.0763407 -0.230915 0.00256972 0.0531088 0.131257 0.193579 -0.0380816 -0.167422 -0.119876 0.10229 0.357273 -0.367509 -0.1127 0.148923 0.200279 -0.0835807 -0.318969 -0.1459 -0.0830885 0.227177 0.0059372 0.17383 0.118812 0.104005 -0.0584467 -0.148115 -0.207949 0.450126 0.301236 0.281002
53990192 0.198055 0.0874792 0.503477 -0.00950045 -0.0322513 -0.121272 0.0447052 -0.359933 -0.00622694 0.0677469 0.109864 -0.01486 -0.13805 0.211461 -0.0316037 0.0846218 -0.0956883 0.156746 -0.0352905 -0.0159459 0.133515 0.00190845 0.0155686 0.0711953 0.099782 -0.164769 -0.147234 -0.496683 -0.107285 -0.118406 0.00222126 0.324675 0.239266 -0.0521197 0.00670077 0.165094 -0.325162 -0.0185797 0.224837 -0.143324 -0.19971 0.279809 -0.0251512 -0.329597 0.0347458 -0.0482473 -0.0216896 0.0515898 -0.0152285 -0.101789 0.121194 -0.0125738 -0.261335 0.0610655 0.0497349 0.151421 0.00945843 0.075463 -0.0535504 -0.126127 0.119858 -0.0517647 -0.237649 -0.0247117 -0.315771 0.00604276 -0.123812 -0.0167358 -0.177441 0.144647 -0.0289371 -0.0368415 0.131797 0.137635 0.0891392 0.183393 0.0468858 -0.140927 -0.363467 0.00521637 0.26336 -0.275524 -0.0599867 0.0922316 -0.0408492 0.0681479 -0.18699 -0.212109 -0.0415632 0.2452 0.179444 0.0607393 0.158827 0.139429 -0.160963 -0.093172 -0.201661 0.402767 0.348406 0.364929
27307810 0.171745 -0.214341 0.351301 0.170951 0.0405273 -0.0718567 -0.00270061 -0.463435 -0.118639 0.12469 0.0954309 0.0459744 -0.153508 0.10455 -0.0863393 0.0899648 -0.0157207 0.0444383 -0.0183779 -0.1762 0.222848 -0.0432075 -0.122475 0.00134503 0.124438 -0.157486 -0.0960369 -0.417969 -0.187259 -0.274495 -0.00532891 0.205105 0.186652 -0.0234882 -0.060508 0.220527 -0.515551 0.052089 0.0302683 -0.114379 -0.00540152 0.311829 -0.0887564 -0.296203 0.0624007 -0.00951455 -0.120177 -0.128723 0.016184 -0.158875 0.112865 0.0687241 -0.151134 0.11624 -0.0694689 0.346066 -0.10493 0.225648 0.039157 -0.169331 0.0611577 -0.0863861 -0.247565 0.0479955 -0.416041 0.00111965 0.0212767 0.114207 -0.0645435 0.170264 0.11289 0.137698 0.0381474 0.0700697 0.216607 0.0434986 -0.0151174 -0.103293 -0.158208 0.152697 0.157701 -0.410657 0.0569919 0.0883573 0.141145 0.22222 -0.363196 -0.196724 -0.17842 0.192945 0.150625 -0.112071 0.156382 0.203343 -0.128514 -0.147772 -0.169956 0.470894 0.235368 0.344935
38912238 0.0941601 -0.112699 0.417627 0.020731 0.0582153 -0.218369 -0.0918693 -0.306016 0.00231705 0.18802 0.233534 0.078099 0.0167573 0.164154 -0.0126589 0.120053 -0.0563435 0.127146 -0.140734 -0.0424376 0.330184 -0.108285 -0.0286047 0.208114 0.124049 -0.0763963 -0.108993 -0.467675 -0.211499 -0.327121 0.229105 0.257649 0.223376 0.0138029 -0.127722 0.332484 -0.465675 0.143153 0.0763028 -0.030592 0.0472057 0.140829 0.00296663 -0.179613 0.0476189 -0.0273742 -0.203603 -0.0813167 0.0944618 -0.0830822 0.086578 0.0793446 -0.187251 -0.0156513 -0.0749413 0.426313 0.0116524 0.121607 0.0197501 -0.213261 -0.249312 -0.240823 -0.303112 -0.0434224 -0.3467 0.0542263 0.00696158 0.0209221 -0.305284 0.10516 -0.0267665 -0.0964007 -0.0709458 0.155839 0.16287 0.0385272 0.0821268 -0.238486 -0.122828 0.0162327 0.357738 -0.355855 -0.0265558 -0.0156317 0.040938 0.24326 -0.33653 -0.150092 -0.00563956 0.0788454 0.221143 0.0329421 0.196311 0.179195 -0.181193 -0.214468 -0.0642802 0.697225 0.161876 0.180736
238260874 0.108975 -0.172887 0.444521 0.103133 -0.0406795 -0.0755453 -0.0183698 -0.43903 0.057258 0.153841 0.128015 -0.0131735 -0.0293109 0.181476 -0.0166471 0.127283 -0.0597713 0.180243 -0.075336 -0.167376 0.272942 -0.00319014 -0.0606743 0.0360515 0.250299 -0.14817 -0.206943 -0.484829 -0.145846 -0.421372 0.0246371 0.15258 0.147661 0.0901273 -0.131077 0.148984 -0.434355 0.0370551 0.0426488 -0.0276589 -0.101213 0.251911 -0.0683471 -0.1246 -0.117596 0.00753016 -0.0230675 0.0295939 -0.0132148 -0.0883667 0.100448 -0.0452027 -0.208414 0.0644804 -0.0246539 0.20478 -0.0698225 0.141912 0.0472921 -0.150766 -0.0578422 -0.227696 -0.16133 -0.0506339 -0.350913 0.145735 0.0575133 -0.0294394 -0.231001 0.103907 0.138033 -0.194011 0.115514 0.0271946 0.215544 0.110918 0.0450869 -0.123406 0.105171 0.186219 0.221616 -0.412368 0.00234696 0.0746419 0.202962 0.125575 -0.243097 -0.076059 -0.10883 0.151404 0.200472 0.155622 0.0738744 0.13844 -0.128227 -0.0835526 -0.195318 0.448136 0.278013 0.185508
187773078 0.0310939 -0.0507148 0.578936 -0.00621899 -0.139347 -0.083442 -0.0675571 -0.403618 0.191576 0.0922741 0.118361 0.0975128 0.0683652 0.211121 -0.0135687 0.183385 -0.133026 -0.0630556 -0.105308 -0.0813575 0.264322 -0.0837139 0.113672 0.0883909 0.254281 -0.147349 -0.091013 -0.593674 -0.0168964 -0.207659 0.196288 0.214278 -0.0068011 0.135636 -0.0886806 0.180973 -0.309293 -0.0976298 0.258535 -0.0327858 -0.0176749 0.286969 -0.0402785 -0.10094 -0.081667 -0.178912 -0.207111 0.148907 0.1037 0.196189 0.171164 -0.0378712 -0.228471 0.102654 0.0279442 0.120984 -0.0923136 -0.0550545 -0.078807 -0.0401796 0.0989029 -0.130705 -0.280063 -0.0538812 -0.412871 0.010951 -0.015851 -0.121547 -0.163572 0.312488 0.173931 -0.331016 0.138697 0.101116 0.182365 0.0950069 0.0136074 -0.16686 -0.183189 0.0959415 0.319341 -0.354966 -0.00191585 0.10585 -0.0434943 0.105996 -0.289211 -0.23606 -0.244331 0.122487 0.169366 0.278697 0.0944159 0.18851 -0.112546 0.0972954 -0.193534 0.407644 0.284686 0.143956
15150609 0.234744 -0.207515 0.5005 0.226453 0.0478407 -0.115435 0.0374169 -0.459466 -0.0431395 -0.013352 0.101723 0.0583756 -0.0368128 -0.00222397 -0.0532752 0.162643 -0.0527521 0.0312241 -0.0313545 -0.174483 0.206459 -0.0953031 -0.106073 -0.0926807 0.23874 -0.165481 -0.165251 -0.540991 -0.15151 -0.312665 -0.119337 0.140359 0.091319 0.129118 -0.0633889 0.219361 -0.494096 0.095041 0.0904761 -0.0084896 -0.0279733 0.307497 -0.0770413 -0.212937 -0.02986 -0.00763566 -0.0737382 -0.0662902 0.0489402 -0.103677 0.181144 -0.0186388 -0.149223 0.0895122 0.0578386 0.11557 -0.101675 0.201441 0.0272443 -0.106844 0.00159712 -0.0915451 -0.221937 -0.00679574 -0.423787 0.0467577 -0.0179379 0.0103308 -0.129049 0.215214 0.171565 -0.0677459 0.101189 0.0185171 0.226042 0.0935167 -0.0180072 -0.115095 -0.0362533 0.119313 0.235198 -0.363902 0.0104227 0.119762 0.0645082 0.246073 -0.246188 -0.184939 -0.255584 0.163198 0.170044 0.0226044 0.10123 0.143514 -0.0471368 -0.0799025 -0.189691 0.352182 0.317966 0.240555
63748460 0.127007 -0.0399354 0.505481 -0.0922445 0.0776124 -0.221319 -0.065253 -0.340585 0.0889468 0.0874121 0.264225 0.0797101 -0.0200362 0.283208 0.0210212 0.0678435 -0.152389 0.0670449 -0.148666 -0.0460997 0.225489 -0.0500937 0.0451359 0.19562 0.172773 -0.107684 -0.130041 -0.472826 -0.149788 -0.175501 0.110876 0.271338 0.242945 0.118028 0.0319257 0.238401 -0.275963 0.0434131 0.253745 -0.009039 -0.0239417 0.19472 -0.0288992 -0.281022 0.0292453 -0.0323087 -0.14173 0.15059 0.0634433 0.00312385 0.19163 0.0140217 -0.184325 0.0446412 -0.0484782 0.151917 0.0532011 -0.055254 -0.0998869 -0.147224 -0.0491157 -0.0764638 -0.218567 -0.0444309 -0.316566 0.0183058 -0.127506 -0.0820384 -0.213073 0.0977105 0.0276725 -0.242165 0.0652964 0.134091 0.058905 0.198127 0.0849108 -0.150684 -0.216742 -0.0582891 0.353123 -0.270335 -0.00586735 0.0901211 -0.0363932 0.17438 -0.213546 -0.162349 -0.0752148 0.0866022 0.238371 0.178593 0.118643 0.0861801 -0.151651 -0.172635 -0.143165 0.493609 0.261618 0.153444
263838766 0.131281 -0.11831 0.47154 0.0695954 -0.0318368 -0.0981851 0.00149028 -0.369179 0.123964 0.132268 0.157828 -0.0139066 -0.0685955 0.273838 0.0481268 0.126297 -0.152226 0.152947 -0.130397 -0.201118 0.280033 0.0768618 0.00885789 0.0214503 0.275512 -0.121343 -0.185095 -0.475824 -0.182291 -0.332903 -0.0407965 0.147694 0.173718 0.119695 -0.168935 0.176592 -0.413141 -0.0386275 0.0643383 -0.0746459 -0.188661 0.281134 -0.0625741 -0.211076 -0.074187 -0.0610195 0.0336572 0.0282575 -0.00817574 -0.0820685 0.10725 -0.0338416 -0.330159 0.0726187 -0.0522582 0.187562 -0.13424 0.0857832 -0.0238378 -0.122403 -0.00167519 -0.118257 -0.207681 -0.0643886 -0.288555 0.151411 0.0149948 -0.0466872 -0.250112 0.00922794 0.183786 -0.188133 0.0955332 0.0865728 0.232379 0.0964886 0.00755435 -0.110666 0.0180137 0.169777 0.270283 -0.403114 -0.00880257 0.0921859 0.254144 0.0186913 -0.322293 -0.150501 -0.144073 0.234514 0.12943 0.165256 0.089084 0.147049 -0.053019 -0.0330095 -0.222568 0.454268 0.262654 0.219625
25842688 0.11798 -0.103303 0.635698 0.116907 0.0195357 -0.047442 0.0628973 -0.405657 0.0749717 0.00260505 0.0828246 0.00620045 0.00291334 0.192326 -0.0436733 0.152104 -0.0922875 0.079712 -0.183055 -0.101497 0.314332 -0.134712 0.00203912 0.0110171 0.152816 -0.0491965 -0.0946455 -0.547607 0.00546682 -0.183404 0.0345651 0.148342 0.13549 0.11221 0.0408383 0.211742 -0.300794 0.0030909 0.21326 -0.0690376 -0.0800309 0.263856 -0.0151394 -0.216989 -0.145971 -0.125805 -0.0374493 0.203568 0.00512562 -0.0238128 0.132673 0.0579297 -0.322879 0.0887695 -0.0207835 0.0407166 -0.15604 0.0850995 0.032546 -0.159883 0.0525709 -0.0146998 -0.180124 -0.0532178 -0.388387 0.0636246 -0.0189604 -0.0162983 -0.146213 0.168364 0.116327 -0.113678 0.12056 0.127331 0.0914093 0.107585 -0.000748028 -0.165414 -0.0993736 0.182179 0.287162 -0.361379 -0.0350498 0.0328204 0.0925503 0.088061 -0.308087 -0.162732 -0.239442 0.141563 0.166281 0.0482654 0.175366 0.187186 -0.0772712 -0.107392 -0.172341 0.365071 0.229128 0.339429
193057124 0.104018 -0.132256 0.475307 -0.0552079 0.0484221 -0.155953 -0.0787498 -0.302979 0.0719288 0.0639872 0.190983 0.0732683 -0.0679024 0.295205 -0.0281975 0.104349 -0.132224 0.0108825 -0.0215952 -0.038749 0.180808 -0.00972186 -0.141409 0.142106 0.195096 -0.164288 -0.165607 -0.467069 -0.158185 -0.155835 -0.0422008 0.36547 0.135127 0.179666 0.126615 0.182861 -0.333434 0.0346709 0.266039 0.111993 0.00529382 0.329639 0.040941 -0.289031 0.0223586 -0.0480111 -0.117876 0.244381 -0.0314797 0.0523745 0.128847 0.0467165 -0.146941 0.148932 -0.0233105 0.0408482 0.0712836 0.0130615 -0.146727 -0.145354 0.0839547 -0.00145916 -0.196578 0.0499132 -0.324912 0.037478 -0.00796404 -0.0607348 -0.190108 0.123498 -0.00385539 -0.330707 0.0749058 0.0962003 0.039371 0.230219 0.0581203 -0.130758 -0.144921 -0.0467637 0.314887 -0.164081 0.0441205 0.111198 -0.0305442 0.0416409 -0.12569 -0.243521 -0.118484 0.147002 0.21958 0.144023 0.00132627 0.245187 -0.187724 -0.1602 -0.205159 0.45796 0.222733 0.214798
115505999 0.262794 -0.0589786 0.322832 -0.0738829 -0.0267504 -0.0132972 0.0936622 -0.487586 0.0526781 0.1572 0.1036 0.0231763 -0.120461 0.128589 -0.168769 0.0373923 -0.0300867 0.0869921 0.253737 -0.170332 0.158395 -0.0363399 -0.205225 -0.0907866 0.0526856 -0.375823 -0.242711 -0.497873 -0.14382 -0.219521 -0.115504 0.344295 0.243647 -0.0143121 0.103976 0.0117446 -0.431276 -0.0611119 0.110793 -0.143894 -0.069697 0.434091 -0.230462 -0.213648 0.106289 0.158386 -0.0986967 0.00564151 -0.0330584 -0.140393 0.132828 -0.0368453 -0.0779708 0.0937745 0.138896 0.148327 0.0374492 0.176949 -0.0732548 -0.115382 0.121544 -0.135412 -0.203016 0.0265917 -0.231444 0.02544 -0.049132 0.00825703 -0.127321 0.18762 0.169735 -0.103437 0.125387 -0.0635086 0.272319 0.147467 -0.139421 -0.0274903 -0.185974 0.0142883 0.213502 -0.437781 0.0949213 0.27494 -0.0290312 0.140973 -0.205482 -0.0940128 -0.119135 0.172343 0.115091 0.119095 0.052035 0.274153 -0.209732 -0.068494 -0.256666 0.357672 0.278418 0.246732
15393649 0.214298 0.0398952 0.495094 -0.141487 0.0477648 -0.143171 0.144109 -0.547122 -0.0897597 0.216863 -0.0520302 -0.0124842 -0.207334 0.197996 -0.138518 0.0791429 -0.109301 0.201622 0.225939 -0.104092 0.0340444 0.0891512 -0.244389 0.0110514 -0.0129489 -0.350072 -0.323351 -0.437855 -0.146286 -0.063848 -0.195701 0.536771 0.434021 -0.130633 0.275921 -0.0255948 -0.307752 -0.159416 0.2243 -0.0522353 -0.182747 0.510271 -0.033826 -0.481408 0.144934 0.269756 -0.052896 0.248311 -0.173361 -0.333589 0.14737 0.0357355 -0.0831579 0.28006 0.0540049 0.113854 0.0682654 0.291596 -0.120472 -0.165991 0.334077 0.0574313 0.00753178 0.181834 -0.278709 -0.0726502 -0.079876 0.00442653 -0.168327 0.240508 -0.0178772 0.00779187 0.147735 0.00978914 0.170073 0.315495 -0.0565511 0.0180333 -0.319105 0.0077683 0.175829 -0.320458 -0.0223016 0.270579 -0.108824 0.140467 -0.187852 -0.132578 0.0271619 0.32354 0.195396 0.0143812 0.0310215 0.245973 -0.222322 -0.151324 -0.293619 0.451928 0.412849 0.484088
125818438 0.091998 -0.11132 0.567019 -0.00788383 -0.0319078 -0.131732 -0.00449979 -0.419817 0.0330334 0.0651895 0.16549 0.0743538 0.0250025 0.257792 -0.0235287 0.0776009 -0.122206 0.0635295 -0.149293 -0.119247 0.229176 -0.031871 0.0422012 0.169474 0.186723 -0.146163 -0.150407 -0.34429 -0.0781574 -0.180056 0.0305713 0.276588 0.107133 0.102664 0.0528846 0.147272 -0.280113 -0.0135726 0.270143 0.0831092 -0.0252226 0.316612 0.0933203 -0.289968 0.00879026 -0.0998198 -0.0194898 0.18136 0.00107826 0.0139901 0.254321 0.0463746 -0.172475 0.221915 -0.0133288 0.088442 -0.0251627 -0.0123278 -0.17716 -0.182046 0.157854 -0.0865655 -0.168301 0.0296816 -0.368294 0.0312647 -0.0573198 -0.0809089 -0.143032 0.217302 0.138865 -0.269453 0.145862 0.109504 -0.0137845 0.258221 0.0899876 -0.133595 -0.0392765 0.130707 0.330048 -0.231611 0.0119674 0.0484939 -0.0480467 0.138386 -0.212431 -0.200569 -0.203986 0.109199 0.221525 0.171774 0.0413225 0.257507 -0.101139 -0.0241102 -0.128099 0.404869 0.251679 0.159248
39056518 0.156549 -0.252167 0.38184 0.0216165 0.00829671 -0.029987 -0.010975 -0.376056 0.0771823 0.0495318 0.150007 0.0327534 0.0132172 0.255797 -0.0603086 0.0935976 -0.0950895 0.18528 -0.0726144 -0.171124 0.326961 -0.0411797 -0.0600246 0.0406684 0.247483 -0.134886 -0.0698537 -0.492283 -0.118204 -0.437179 0.0111212 0.166848 0.142173 0.174115 -0.0459529 0.192597 -0.403752 0.136171 0.154702 0.0309618 -0.00307831 0.234569 -0.0788609 -0.22155 -0.103465 -0.0826471 -0.0539165 0.175326 0.00552888 -0.042239 0.176975 -0.00297365 -0.2948 0.128038 -0.0249722 0.0982325 -0.127637 0.0286546 0.052088 -0.193646 -0.0162238 -0.179169 -0.215006 -0.0177983 -0.330551 0.13262 0.00467141 -0.0565701 -0.208548 0.00230197 0.09717 -0.302204 0.011169 0.0269523 0.105331 0.166755 0.019856 -0.174347 0.0721315 0.1647 0.259802 -0.440891 0.0801746 0.0849795 0.1306 0.0459009 -0.273065 -0.155069 -0.177257 0.132602 0.221726 0.0930074 0.148076 0.155755 -0.152583 -0.0563707 -0.189979 0.469337 0.188952 0.202021
17759158 0.0733896 -0.144985 0.520194 0.027705 -0.0947906 -0.0938901 -0.109648 -0.393846 0.159256 0.0370283 0.256211 0.0805167 0.0433032 0.168948 0.00922613 0.143388 -0.135984 0.117262 -0.221365 -0.059558 0.30436 -0.0672841 0.0125174 0.11876 0.304649 -0.144724 -0.0540893 -0.522115 -0.0432429 -0.478507 0.18851 0.12424 0.0136871 0.191019 -0.0498757 0.24921 -0.359191 0.124716 0.186 0.111592 0.00613663 0.153663 -0.0538556 -0.069561 -0.0732814 -0.201548 -0.163011 0.188973 0.124051 0.116715 0.17414 -0.0174059 -0.227681 0.0866766 0.0145972 0.0628382 -0.0931048 -0.103369 0.02316 -0.106075 -0.0526183 -0.237755 -0.301398 -0.0502864 -0.40096 0.0991084 0.0081489 -0.156823 -0.191709 0.0804591 0.0861643 -0.442388 0.147916 0.0718882 0.12815 0.154835 0.0370936 -0.240409 -0.0237252 0.138861 0.372716 -0.293233 0.0369893 0.0512338 0.0851264 0.147868 -0.220584 -0.203396 -0.178685 0.011233 0.242442 0.175642 0.120377 0.119806 -0.18227 -0.0586447 -0.202184 0.500329 0.197104 0.156058
209814910 0.0840288 -0.174495 0.496108 0.0748787 -0.0510871 -0.13838 -0.1154 -0.411655 0.101168 0.0132135 0.243135 0.0782633 0.0762092 0.0742229 -0.0104184 0.0603944 -0.131115 0.0854519 -0.192579 -0.073975 0.316683 -0.112325 0.00799489 0.158158 0.322766 -0.101471 -0.117232 -0.561616 -0.0587123 -0.470778 0.19916 0.158333 -0.00539666 0.219329 -0.0800923 0.325047 -0.367394 0.211965 0.206135 0.0887317 0.0896537 0.204881 -0.0053678 -0.056925 -0.0439588 -0.143833 -0.225756 0.14586 0.154627 0.146893 0.271325 0.0275512 -0.153575 0.101004 0.0301518 0.159196 -0.0293485 -0.0134849 0.00711931 -0.158919 -0.0674464 -0.271536 -0.289289 -0.0316078 -0.415424 0.0613703 -0.0162499 -0.174267 -0.226416 0.228218 0.0738487 -0.36114 0.155883 0.0748511 0.154195 0.137754 0.0950093 -0.240989 -0.0100302 0.103025 0.353388 -0.325082 0.0403778 0.0319849 0.013334 0.261442 -0.22465 -0.217655 -0.233067 -0.0166341 0.338049 0.178396 0.175981 0.112334 -0.149374 -0.0698027 -0.118221 0.568152 0.226835 0.132279
63841462 0.167851 -0.13982 0.484936 0.0450058 -0.125552 -0.090254 -0.0605039 -0.382465 0.132999 0.0430511 0.0594941 0.0967736 -0.0772253 0.237975 -0.132869 0.106573 -0.0723936 0.066687 -0.0312634 -0.0397735 0.211225 -0.0603775 -0.0296846 0.0465872 0.156254 -0.263652 -0.152933 -0.440501 -0.0393578 -0.303835 0.116214 0.223588 0.0415174 0.0711065 -0.0144512 0.0853599 -0.343633 0.0209761 0.179901 0.0557512 -0.0272374 0.325873 -0.13433 -0.235557 -0.0246895 -0.114909 -0.119848 0.150215 -0.0457638 0.0362746 0.132981 -0.0188059 -0.293573 0.158936 -0.0456573 0.00129272 -0.0443326 -0.0330588 -0.118543 -0.109147 0.0821258 -0.224001 -0.266718 0.000138398 -0.36841 0.0195411 -0.0846082 -0.0187502 -0.0852152 0.164322 0.0838814 -0.272502 0.125179 0.0818874 0.0242285 0.140037 0.0607234 -0.191714 -0.137034 0.0863603 0.30817 -0.299321 0.124944 -0.0541623 -0.00825836 0.0718663 -0.203329 -0.179124 -0.0846443 0.125272 0.211188 0.0132795 0.0238702 0.156028 -0.203532 -0.0959321 -0.289164 0.319657 0.258731 0.292441
138052277 0.0552413 -0.100833 0.464143 -0.15487 -0.1104 -0.120778 -0.0770363 -0.351656 0.20065 0.17789 0.215939 0.0910419 -0.00295809 0.322327 -0.0327574 0.152069 -0.120592 0.0307154 -0.133332 -0.0976272 0.258377 -0.0225041 -0.00255042 0.169839 0.195619 -0.213477 -0.10349 -0.357135 -0.0831063 -0.360699 0.20673 0.251999 0.0834931 0.186936 0.0813531 0.0947156 -0.241684 -0.0102722 0.221968 0.108454 -0.0209007 0.270353 -0.124504 -0.246075 -0.0496872 -0.0537564 -0.230565 0.276882 0.00451129 0.0435041 0.17946 0.0234972 -0.197617 0.23018 -0.0722407 0.0456565 -0.114062 -0.01422 -0.192556 -0.0872858 0.0999626 -0.125836 -0.225506 -0.0437471 -0.308435 0.0933774 0.0309327 -0.173455 -0.192433 0.0712711 0.155721 -0.432607 0.138906 0.0255218 0.0988704 0.197161 0.00935508 -0.176236 -0.0264919 0.061157 0.355363 -0.320966 0.0359165 0.121273 0.077828 -0.00853157 -0.248891 -0.12181 -0.0851706 0.0434227 0.0829822 0.182104 0.00637409 0.177098 -0.198905 -0.0546448 -0.251127 0.51559 0.179319 0.137844
19836737 0.158383 0.0410558 0.47714 -0.0735911 -0.0547796 -0.111264 0.059624 -0.538531 -0.0471338 0.226956 -0.00504479 -0.000718459 -0.183099 0.14453 -0.142111 0.0814787 -0.146244 0.0369369 0.184448 -0.133862 0.101851 0.0241912 -0.174942 -0.0148195 0.0398768 -0.329099 -0.250057 -0.434845 -0.10885 -0.144526 0.020507 0.416485 0.260954 -0.0530045 0.136387 0.0175602 -0.389087 -0.133524 0.193404 -0.0340239 -0.0996436 0.485135 -0.0740749 -0.346893 0.165698 0.103813 -0.169434 0.0353606 -0.0346426 -0.143964 0.113257 0.0733545 -0.0687515 0.235134 0.0270134 0.21891 -0.0143456 0.288509 -0.100789 -0.128992 0.27171 -0.0669348 -0.149529 0.071864 -0.302528 -0.0182534 -0.0321902 0.0562919 -0.0799486 0.325186 0.00845772 0.00536321 0.189323 0.058083 0.244942 0.164615 -0.074244 -0.0233927 -0.263796 0.0502229 0.20158 -0.339013 0.0239131 0.214093 -0.0541887 0.196394 -0.194245 -0.164617 -0.0436254 0.286065 0.157581 -0.00325435 0.0241334 0.280739 -0.201327 -0.0103414 -0.29557 0.470184 0.337268 0.399541
126372506 0.244105 0.0131025 0.390814 -0.118922 -0.00912028 -0.172261 0.116703 -0.45288 -0.0531631 0.215888 0.0251277 -0.0229019 -0.263919 0.173398 -0.10957 0.0307329 -0.140459 0.176398 0.251741 -0.107303 0.0582593 0.117248 -0.237068 -0.034833 0.0358364 -0.302433 -0.351971 -0.439642 -0.217351 -0.0790297 -0.215485 0.499316 0.316527 -0.0857985 0.211716 -0.0489083 -0.355459 -0.131056 0.246378 -0.0703572 -0.224471 0.522163 -0.0688608 -0.51114 0.198619 0.20924 -0.056065 0.113843 -0.151407 -0.241079 0.151739 0.0101785 -0.0321565 0.243549 0.019322 0.176318 0.0777352 0.303542 -0.156722 -0.113571 0.315349 0.0468271 -0.0910667 0.116627 -0.190078 -0.0729643 -0.0651923 -0.0187185 -0.186026 0.217052 0.0195979 0.015791 0.134419 0.00935998 0.256167 0.256086 -0.109888 0.0126777 -0.296667 -0.0091007 0.171125 -0.321925 0.00543629 0.262121 -0.0349042 0.131388 -0.194037 -0.200999 -0.0605326 0.332918 0.144428 0.0319631 -0.0133349 0.212516 -0.18217 -0.0891664 -0.304304 0.479268 0.322302 0.397768
14192900 0.154672 0.0639677 0.491071 -0.110913 -0.0106785 -0.11183 0.0857966 -0.579928 -0.0476853 0.176474 -0.0164639 0.0656677 -0.180274 0.10723 -0.128549 0.0269008 -0.134543 0.186924 0.208861 -0.147198 0.0989106 0.0650943 -0.151463 0.00410795 0.0137304 -0.34206 -0.293019 -0.456695 -0.080847 -0.106234 -0.126805 0.436984 0.341904 -0.1336 0.112873 0.0105256 -0.344175 -0.146766 0.232542 -0.117486 -0.13062 0.499031 -0.0765256 -0.374395 0.207052 0.112699 -0.0350617 0.0548322 -0.0997 -0.192322 0.240138 -0.0143274 -0.102139 0.215634 0.115737 0.183065 0.029983 0.169608 -0.0695316 -0.138132 0.327898 -0.088265 -0.0915927 0.133866 -0.248114 -0.0806017 -0.158627 0.0137458 -0.0761051 0.31967 0.0569874 0.0212297 0.154477 0.0277683 0.224673 0.253099 -0.0462289 -0.0078007 -0.326797 0.0248192 0.186032 -0.3909 0.0497397 0.18641 -0.157257 0.264353 -0.233412 -0.157116 -0.100051 0.286824 0.237737 0.0419533 0.0603567 0.225071 -0.16117 0.00559529 -0.260246 0.379881 0.324053 0.370908
108633391 0.223903 -0.037438 0.479491 0.0568327 -0.0580401 -0.0705851 -0.0218442 -0.455692 -0.0108966 -0.0027939 0.0840085 0.0679086 -0.076085 0.104822 -0.0929586 0.0837287 -0.069755 0.136816 -0.0384823 -0.142335 0.206049 -0.00601488 0.0815265 -0.0279543 0.117988 -0.239766 -0.139238 -0.456713 -0.0613658 -0.287539 0.0647944 0.240213 0.126601 -0.0267875 -0.111974 0.0968687 -0.375708 0.0296098 0.167401 -0.0675387 -0.131963 0.282449 -0.0210578 -0.339617 0.0280924 -0.0783719 -0.0400215 -0.0490845 -0.0121905 -0.103569 0.222833 -0.0552846 -0.274036 0.0712414 0.0971243 0.23161 -0.0734659 -0.0139824 -0.0615432 -0.0473845 0.157593 -0.205587 -0.238505 -0.0418315 -0.299606 0.00943845 -0.121821 -0.0566043 -0.141262 0.201725 0.142346 -0.12331 0.100675 0.0860135 0.142897 0.14603 0.0765764 -0.129558 -0.201914 0.113249 0.252978 -0.420281 0.0516398 0.0551763 -0.0499388 0.153839 -0.284052 -0.160312 -0.128687 0.199733 0.192367 0.0167231 0.124798 0.140101 -0.0711954 0.0463682 -0.22546 0.327145 0.243227 0.272905
124592955 0.234449 -0.0128085 0.449829 -0.0762832 0.00898377 -0.0974611 0.08109 -0.531729 -0.0674192 0.179633 0.00741868 -0.0185445 -0.220009 0.166467 -0.0899536 0.0249249 -0.112338 0.204126 0.183868 -0.127967 0.0791979 0.132909 -0.190138 -0.00806541 0.0428499 -0.315701 -0.314407 -0.40996 -0.141481 -0.171925 -0.113413 0.427901 0.306594 -0.0930984 0.173526 -0.0317161 -0.366664 -0.093799 0.235882 -0.065203 -0.187647 0.45117 -0.0559437 -0.493928 0.103921 0.174857 -0.0569447 0.177243 -0.138192 -0.294913 0.156834 -0.00797741 -0.0879635 0.225068 0.0227501 0.167855 0.0184159 0.235266 -0.111437 -0.10641 0.294898 -0.0292934 -0.0684919 0.0976259 -0.245453 -0.0200256 -0.0784123 -0.0188 -0.160004 0.173131 0.0320451 -0.041029 0.151025 0.0440029 0.198207 0.269702 -0.0360952 -0.00124867 -0.226863 0.0308212 0.153458 -0.367675 0.00753976 0.201643 -0.00777506 0.145858 -0.215814 -0.142453 -0.0488938 0.311738 0.206109 0.00583539 0.0056851 0.179859 -0.196757 -0.0846092 -0.321735 0.453126 0.311602 0.384885
99741379 0.197169 -0.0552221 0.520982 -0.0464662 -0.0316852 -0.18224 0.0760065 -0.419048 0.0725164 0.200754 -0.0318304 0.0165294 -0.13919 0.148098 -0.104575 0.217336 -0.0734194 0.0393819 0.126637 -0.0560096 0.0854184 0.0269898 -0.190238 -0.0264567 0.0786444 -0.29112 -0.260802 -0.497974 -0.0989266 -0.1446 -0.032817 0.366858 0.187421 -0.00993003 0.179297 -0.0357887 -0.272033 -0.118045 0.207361 -0.0399303 -0.151415 0.4507 -0.102513 -0.424843 -0.0029418 0.176006 -0.211142 0.182057 -0.0788028 -0.209472 0.0493643 -0.0221802 -0.135563 0.202295 -0.0296983 0.071464 -0.0285429 0.267613 -0.124624 -0.0763854 0.172483 0.0275381 -0.114939 -0.00147981 -0.301526 -0.0248857 -0.0281314 -0.00216262 -0.195784 0.245475 0.0453942 -0.0555056 0.0899487 0.00915354 0.1991 0.178942 -0.0884166 -0.0770244 -0.22474 -0.0353727 0.23324 -0.323771 -0.0593366 0.174052 -0.0468801 0.0514641 -0.206211 -0.185849 -0.00303331 0.292963 0.0606613 -0.030467 -0.00915643 0.179525 -0.180979 -0.108756 -0.324735 0.480204 0.32455 0.353502
29512930 0.234679 -0.0623296 0.524257 0.0709214 0.0462532 -0.202993 0.0893564 -0.254619 0.0831736 0.0712062 0.0549569 0.0649615 -0.0372228 0.325691 -0.0277008 0.237087 -0.096799 0.149965 -0.159781 -0.0582966 0.204205 -0.0679972 0.0517448 0.0144069 0.137545 -0.104078 -0.103676 -0.518688 -0.19833 -0.0950739 -0.0849873 0.259941 0.267799 0.036969 -0.00310556 0.172796 -0.315178 -0.0678275 0.181387 -0.0951612 -0.184793 0.201367 -0.151556 -0.361777 -0.0861812 -0.017862 0.0422732 0.116361 -0.0304137 -0.088767 0.105846 -0.0117843 -0.389616 0.0887166 -0.0997043 0.0555116 -0.106945 0.111415 -0.0724416 -0.147273 -0.0152669 0.0781324 -0.176898 0.0114452 -0.406301 0.015167 -0.143376 0.0290253 -0.207075 -0.00485279 0.129497 -0.045619 -0.023408 0.12536 0.041008 0.164975 -0.0374372 -0.182701 -0.271767 0.0337327 0.331922 -0.354027 -0.0738038 0.0739542 0.0328762 -0.0605535 -0.286982 -0.192223 -0.106879 0.245147 0.0959037 0.0949864 0.12212 0.0950217 -0.065681 -0.180114 -0.193524 0.356772 0.396882 0.362461
53440054 0.145227 -0.141589 0.538926 -0.0529261 0.070733 -0.0744998 -0.0194628 -0.347317 0.0613718 0.149209 0.138163 0.0302189 0.00109789 0.341534 0.0313148 0.234878 -0.026335 0.186039 -0.192439 -0.146156 0.338068 -0.0550648 -0.0047755 0.0687759 0.141298 -0.0860836 -0.146339 -0.492438 -0.18818 -0.172507 -0.0915551 0.228866 0.29679 0.0734641 0.0937479 0.192295 -0.388063 -0.117422 0.0905345 -0.0790966 -0.135289 0.223754 0.00203086 -0.267425 -0.178854 0.0393185 0.0384838 0.162371 -0.0727649 -0.183307 0.025776 -0.0241519 -0.244331 0.06868 -0.125498 0.186084 -0.176299 0.0858866 0.0688605 -0.140081 -0.0785713 0.0832241 -0.12984 0.0772946 -0.229636 0.12461 0.114278 -0.043299 -0.32013 0.03528 0.0604226 -0.149974 -0.0678386 0.124048 0.148191 0.109133 -0.0652955 -0.16366 -0.0792479 0.112602 0.308173 -0.369402 -0.0909837 0.114059 0.19017 -0.0390227 -0.374162 -0.139706 -0.0831983 0.204367 0.0177539 0.0722523 0.146931 0.144523 -0.0929414 -0.159292 -0.12808 0.515876 0.25523 0.277016
14925700 0.0547549 -0.187778 0.484559 0.00656647 -0.0339032 -0.076128 -0.145493 -0.416019 0.0169046 0.0582807 0.260515 0.0923666 0.0828061 0.124014 -0.0393798 0.0577805 -0.135966 0.0738004 -0.111382 -0.116741 0.297674 -0.0934109 -0.0149196 0.206236 0.24717 -0.184148 -0.0891193 -0.457993 -0.0790217 -0.382714 0.163771 0.218959 0.0013727 0.187654 -0.086054 0.259029 -0.465277 0.163627 0.198871 0.136176 0.0706042 0.270153 0.114639 -0.128922 0.0288686 -0.191172 -0.132488 0.0962827 0.110293 0.124234 0.27638 0.0135183 -0.112193 0.143084 0.0690875 0.169769 -0.0275205 -0.0267132 -0.0603783 -0.155653 0.0276616 -0.272217 -0.24039 0.0122282 -0.384035 0.0632376 -0.0179002 -0.0964924 -0.179405 0.237523 0.117165 -0.396431 0.160234 0.109035 0.0713701 0.180576 0.11693 -0.194119 0.0538686 0.121089 0.326185 -0.271047 0.0845556 0.0739974 -0.046291 0.302152 -0.191665 -0.176971 -0.233971 0.00332764 0.322493 0.166575 0.0496925 0.229472 -0.169255 -0.00168239 -0.0912715 0.506134 0.167143 0.104829
37988038 -0.0976952 -0.0626802 0.517813 -0.150102 -0.0495277 -0.0777089 -0.0581032 -0.451089 0.124169 0.129127 0.11102 0.111117 0.0700714 0.156701 -0.0718854 0.0530869 -0.113622 0.0420436 0.0112798 -0.0709621 0.249321 -0.0576463 -0.0405145 0.155478 0.120766 -0.159958 -0.172651 -0.569405 -0.0063984 -0.102753 0.096223 0.30672 0.223583 0.0636759 0.104192 0.230647 -0.210243 -0.137727 0.265263 -0.0487906 0.12823 0.323948 0.00475656 -0.0218877 0.0315414 -0.0199811 -0.216651 0.218489 -0.00572555 0.0738374 0.243996 -0.00704076 -0.114445 0.154356 0.0601057 0.121096 0.00449555 -0.0736374 0.0567414 -0.143906 0.148581 -0.108617 -0.11958 0.10316 -0.300715 -0.0643272 -0.0378837 -0.137363 -0.130831 0.385854 0.0213461 -0.260822 0.0766014 0.0964301 0.193623 0.120267 0.029147 -0.104114 -0.224849 0.0335973 0.22333 -0.335786 0.0763238 0.12398 -0.176276 0.188085 -0.258538 -0.157037 -0.110327 0.0768205 0.275648 0.20759 0.192633 0.200765 -0.164894 -0.0485687 -0.125859 0.440373 0.29721 0.147795
79339629 0.0513798 -0.0230964 0.52056 -0.129046 0.055033 -0.201105 -0.0683589 -0.442913 0.0590131 0.154029 0.263146 0.0654364 0.0472979 0.192897 0.0559059 0.0708165 -0.146026 0.1436 -0.114371 -0.0651427 0.230734 -0.0355576 -0.00853928 0.21425 0.167839 -0.103778 -0.177163 -0.512228 -0.146588 -0.193838 0.0771931 0.290041 0.233009 0.08216 0.0461008 0.242167 -0.331453 -0.0269716 0.241951 0.00592811 0.0223192 0.224698 0.0530897 -0.189652 0.0322709 -0.0259264 -0.0922189 0.117045 0.0735499 -0.0125105 0.192573 0.0227237 -0.0751327 0.0307855 0.00346339 0.229627 0.055469 -0.0249897 0.0200968 -0.210227 -0.0561298 -0.117681 -0.172572 0.00989489 -0.331356 0.0327303 -0.0559323 -0.070843 -0.26159 0.221993 -0.00710405 -0.24202 0.100447 0.127164 0.127936 0.219549 0.0504623 -0.128773 -0.148413 0.00795909 0.350106 -0.257813 -0.0357195 0.125738 -0.0506861 0.269599 -0.211113 -0.154558 -0.0934501 0.0714005 0.258695 0.250831 0.130049 0.159565 -0.145549 -0.125337 -0.0924662 0.566316 0.273006 0.132959
389192769 0.0548465 -0.104699 0.420727 0.00893402 0.132304 -0.250309 -0.0822491 -0.407189 0.00531074 0.174983 0.28673 0.0769567 0.0965872 0.0595553 0.0407817 0.0608108 -0.0900963 0.13 -0.109669 -0.078784 0.255285 -0.0878826 -0.0727905 0.220837 0.235493 -0.0515855 -0.136321 -0.537354 -0.225002 -0.368853 0.16228 0.228895 0.275995 0.0574277 -0.0940398 0.39678 -0.454861 0.156771 0.0799653 -0.00167786 0.126724 0.129056 0.0112537 -0.0384525 0.0998986 0.045716 -0.210539 -0.0381373 0.191959 -0.0201813 0.205742 0.0925185 -0.0455281 -0.0104221 0.0201361 0.394534 0.0993101 0.09399 0.0581808 -0.241253 -0.231867 -0.244353 -0.243979 -0.0144219 -0.380102 0.0556052 0.0169908 -0.0530355 -0.31918 0.175004 0.0276889 -0.181566 0.0415826 0.0788906 0.268534 0.0854678 0.100305 -0.165809 -0.0944421 0.023008 0.328853 -0.337275 -0.0358164 0.131505 0.0236964 0.386692 -0.274923 -0.110984 -0.0928854 -0.00108552 0.33326 0.223573 0.227502 0.161806 -0.143738 -0.215052 0.00017283 0.703906 0.255565 0.10422
119028351 0.196035 -0.104125 0.498399 0.0942914 -0.0212541 -0.148351 -0.0948895 -0.34237 0.0131388 0.00602241 0.151675 0.135263 0.017131 0.0858369 -0.0546335 0.140043 -0.0796556 0.111788 -0.154706 -0.081704 0.286414 -0.164057 0.0394304 0.101397 0.140555 -0.140733 -0.0425629 -0.456216 -0.126104 -0.384298 0.209539 0.208114 0.111797 0.0649306 -0.106694 0.267739 -0.486976 0.186601 0.137989 0.0232517 0.0198195 0.140043 0.0084168 -0.186174 -0.0132315 -0.0980827 -0.167772 0.0199093 0.110133 -0.042081 0.137323 0.0585654 -0.230171 0.0803286 0.0362118 0.25483 -0.0501172 0.0630586 -0.0317181 -0.141112 -0.103358 -0.231316 -0.273202 0.00284912 -0.381518 0.0597516 -0.0649824 -0.0469594 -0.240339 0.148116 0.0738676 -0.198108 0.00835902 0.109472 0.115665 0.105762 0.110642 -0.241104 -0.0909402 0.0914023 0.365206 -0.36546 0.0242043 -0.0263101 0.0112598 0.211085 -0.350892 -0.171557 -0.136103 0.0516074 0.215696 0.0155679 0.180647 0.128058 -0.170083 -0.0908558 -0.129324 0.518766 0.210391 0.2568
37780195 0.0803528 -0.113621 0.407992 0.0235478 0.0219031 -0.258655 -0.0488225 -0.377541 0.0187784 0.13457 0.235766 0.0491967 0.000458833 0.141318 0.024044 0.0363344 -0.144925 0.176044 -0.160567 -0.0452233 0.252077 -0.0343577 -0.0336847 0.209564 0.216481 -0.0714298 -0.152105 -0.441827 -0.189674 -0.382566 0.214031 0.234863 0.212412 0.0462023 -0.129725 0.317435 -0.357977 0.137322 0.160416 0.0326269 0.0510057 0.15939 -0.0256999 -0.161029 0.0923493 -0.0629124 -0.18919 0.00198449 0.126083 0.000896339 0.205488 0.0902182 -0.125167 0.0453271 -0.0757233 0.359537 0.0478436 0.105825 0.0279662 -0.286144 -0.154323 -0.233658 -0.270237 -0.0600022 -0.423116 0.0127555 -0.097292 -0.022344 -0.229193 0.135888 0.00612992 -0.120033 0.0716272 0.11578 0.145974 0.140855 0.0801683 -0.187781 -0.100781 0.0631762 0.347735 -0.324619 -0.00247031 -0.00608319 0.029976 0.320208 -0.266042 -0.167051 -0.0915034 0.0495918 0.352503 0.138696 0.188309 0.12311 -0.166896 -0.164162 -0.0684251 0.657307 0.241638 0.171103
252668782 0.154283 -0.0521608 0.361582 -0.102549 0.0352424 -0.062302 0.0510516 -0.421668 -0.00320222 0.120434 0.0899444 0.0227011 -0.10627 0.198074 -0.0571483 0.0393171 -0.116029 0.232163 0.000787838 -0.161532 0.241848 0.0385859 -0.0441894 0.0107902 0.0674275 -0.165909 -0.151424 -0.452755 -0.12406 -0.143545 -0.137788 0.351081 0.23619 -0.0593247 0.119585 0.158991 -0.329713 -0.0654921 0.192763 -0.110597 -0.111986 0.336984 -0.0721226 -0.420274 -0.00227859 0.0337851 0.0404929 0.213044 -0.114735 -0.228517 0.20212 -0.0146319 -0.191174 0.135001 0.015358 0.196649 -0.11676 0.144106 0.0415008 -0.158915 0.184073 0.0130601 -0.120745 0.0775176 -0.242553 -0.0202234 -0.0951573 -0.0696616 -0.209308 0.0763868 0.0650604 -0.0306793 0.0465314 0.0619095 0.161011 0.198865 -0.0898985 -0.112745 -0.190068 0.0962183 0.197332 -0.347023 0.0442441 0.196743 0.0326507 0.0473489 -0.300345 -0.10432 -0.127324 0.253733 0.0594625 -0.0241465 0.140145 0.138195 -0.0924599 -0.104213 -0.275136 0.442635 0.209054 0.374385
83943787 0.0804441 -0.112805 0.490268 0.129595 -0.123452 -0.0282941 -0.103766 -0.404933 0.100888 -0.00911825 0.146118 0.105356 0.0505983 0.0950483 -0.0582782 0.0698968 -0.0773409 0.0435074 -0.0848714 -0.0666429 0.290426 -0.110324 0.00460407 0.0595752 0.237489 -0.129588 -0.0930611 -0.557228 -0.00325433 -0.358237 0.187259 0.170593 -0.00312111 0.109601 -0.11891 0.255116 -0.403331 0.0990238 0.19662 0.0198048 0.0790157 0.235251 -0.00280446 -0.0359611 -0.0275051 -0.191783 -0.15977 0.0789361 0.101407 0.113751 0.15903 0.0216247 -0.246902 0.0382661 0.0584532 0.186687 -0.0169422 -0.0619144 0.0276863 -0.131348 -0.0254479 -0.314503 -0.335329 -0.0490493 -0.405863 0.0301311 -0.0126704 -0.122915 -0.195197 0.267884 0.0576328 -0.328011 0.123691 0.0822898 0.158749 0.0635456 0.0754462 -0.199316 -0.107404 0.161624 0.311413 -0.322111 0.0901253 -0.0201086 0.0177168 0.184056 -0.269993 -0.251299 -0.226833 0.0848072 0.274994 0.157357 0.184715 0.218394 -0.178465 -0.0357714 -0.178037 0.423837 0.181214 0.172106
142376744 0.0686039 -0.00066599 0.431933 -0.22432 -0.0352603 -0.173131 -0.0112168 -0.354191 0.220885 0.220814 0.148385 0.0603831 -0.0551358 0.35615 -0.0656763 0.107992 -0.194832 0.0296375 0.0462484 -0.06539 0.119482 0.0298997 -0.104051 0.145709 0.148068 -0.240198 -0.163821 -0.427871 -0.121674 -0.131144 0.072894 0.329792 0.259725 0.0842599 0.182825 0.0655561 -0.181117 -0.136756 0.264193 0.0474573 -0.0414662 0.338529 -0.120455 -0.225549 0.0509777 0.0511947 -0.234954 0.331575 -0.00763311 0.0298364 0.155566 -0.00291207 -0.110974 0.226378 -0.0177936 0.0299739 0.0155179 0.0556089 -0.167353 -0.119819 0.163319 0.00698758 -0.133114 0.0125179 -0.272672 -0.0187294 -0.0496081 -0.130571 -0.174382 0.152429 0.0707481 -0.336226 0.130556 0.00158698 0.146355 0.228596 -0.107188 -0.0479064 -0.221596 -0.0607938 0.300248 -0.296114 0.0699909 0.236146 -0.05046 0.0316943 -0.191355 -0.107275 -0.0384331 0.107548 0.130981 0.245302 -0.0158528 0.176567 -0.257397 -0.0497628 -0.254077 0.531528 0.3271 0.213154
215980492 0.198618 0.0105443 0.421985 -0.117264 -0.0779772 -0.0278048 0.0150229 -0.502095 -0.0126228 0.162092 -0.0894404 0.0112955 -0.171149 0.109843 -0.138949 0.110328 -0.0462233 0.207802 0.263842 -0.0798269 0.0901431 0.0891345 -0.148724 -0.0386033 0.0290985 -0.382879 -0.257754 -0.559 -0.098221 -0.215835 -0.0755772 0.490812 0.255559 -0.0931905 0.143874 -0.0654273 -0.402693 -0.144542 0.200849 -0.0848014 -0.157938 0.41362 -0.119859 -0.365216 0.00640645 0.145275 -0.0715387 0.144706 -0.159301 -0.208949 0.0664287 -0.0589216 -0.165326 0.14348 0.103187 0.117167 0.00869067 0.112286 0.00987249 -0.0330484 0.29245 -0.109527 -0.0967991 0.154545 -0.28092 0.00510934 -0.0869267 -0.00110332 -0.16306 0.230705 -0.0607754 -0.127428 0.116212 -0.00457542 0.229407 0.222285 0.00531877 -0.0662914 -0.290464 0.0514043 0.11909 -0.366578 0.0312734 0.175888 -0.0640088 0.051273 -0.163976 -0.154437 0.0321346 0.367591 0.166106 0.0279476 0.0391219 0.142223 -0.184808 -0.0552091 -0.393553 0.325033 0.316003 0.386848
235382801 0.194443 -0.0496848 0.552117 -0.015744 0.00169286 -0.120197 0.100714 -0.569483 -0.0977247 0.136052 0.0245663 -0.0457096 -0.182999 0.113591 -0.0941503 0.0657271 -0.12408 0.152433 0.127708 -0.113191 0.0699404 0.0936662 -0.184041 -0.000253997 0.0739971 -0.273317 -0.313053 -0.420695 -0.0888316 -0.131075 -0.0839307 0.404879 0.267763 -0.038103 0.205852 -0.00444963 -0.340382 -0.103713 0.255168 -0.0311178 -0.15078 0.495008 -0.00711238 -0.438404 0.0836598 0.134068 -0.0961271 0.154598 -0.109339 -0.214588 0.182619 0.0273321 -0.0573441 0.255811 0.0166995 0.0893687 0.0408413 0.232939 -0.136713 -0.138002 0.323172 -0.00250055 -0.0608147 0.0687384 -0.323884 -0.0366966 -0.0856565 -0.020477 -0.0787026 0.260821 0.0754905 -0.0202721 0.199495 0.0662506 0.159896 0.273657 0.00717522 0.0453109 -0.206924 0.0914344 0.158276 -0.324459 -0.0161362 0.197573 -0.0400968 0.226687 -0.215043 -0.193453 -0.0948106 0.247903 0.246533 0.0360819 -0.021274 0.228591 -0.186944 -0.100552 -0.276289 0.381131 0.334403 0.334459
205491854 0.218382 -0.0212002 0.519258 -0.102306 0.0505491 -0.173407 0.069386 -0.524082 -0.0484132 0.13075 0.103911 -0.000414524 -0.223556 0.100847 -0.0548925 0.0176926 -0.140134 0.0906076 0.169506 -0.100286 0.0379284 0.0916184 -0.219636 -0.021195 0.0652913 -0.303285 -0.326543 -0.442755 -0.142253 -0.0962873 -0.0820283 0.40492 0.232445 0.0416738 0.259296 0.0123591 -0.328116 -0.0820802 0.295183 -0.0407951 -0.140348 0.457263 -0.0674317 -0.472325 0.110441 0.0943805 -0.149115 0.0733521 -0.078365 -0.226915 0.173847 0.0272951 -0.0141746 0.094571 0.0357042 0.145445 0.0731347 0.190843 -0.105611 -0.149074 0.254212 0.0180264 -0.14499 0.0256928 -0.29129 0.0039397 -0.168796 0.0558914 -0.107045 0.213562 -0.0509069 0.00426396 0.15099 0.106186 0.183241 0.291411 -0.0719537 -0.00555596 -0.265909 -0.0675459 0.201121 -0.236176 0.00377003 0.158162 -0.0642356 0.203427 -0.160533 -0.19671 -0.0363643 0.236907 0.216197 -0.00835028 0.0134247 0.194728 -0.189524 -0.117025 -0.337077 0.489532 0.261194 0.322537
217780802 0.172084 -0.0078965 0.477582 -0.0826014 -0.0656864 -0.0735441 0.0807964 -0.420187 0.174861 0.155161 -0.050571 -0.0499251 -0.169314 0.164034 -0.182808 0.0616433 -0.063316 0.00149672 0.202746 -0.000927973 0.154643 0.00914772 -0.205807 -0.0461131 -0.00351472 -0.367927 -0.259519 -0.471058 0.00888145 -0.111976 0.0451706 0.352336 0.207365 -0.0241567 0.221954 0.0265094 -0.185563 -0.134969 0.227273 -0.128278 -0.0796786 0.504166 -0.259948 -0.301532 0.113657 0.105843 -0.22933 0.217669 -0.0884643 -0.0829313 0.114603 0.0515802 -0.233571 0.146505 -0.0205462 0.0311806 -0.0263494 0.175393 -0.152011 -0.138263 0.20766 -0.00561968 -0.228927 -0.0779439 -0.303987 -0.0576054 -0.096585 0.00394858 -0.157175 0.264945 0.0441324 -0.0532059 0.161369 0.051346 0.17528 0.0693966 -0.0909363 -0.105287 -0.364804 -0.063409 0.262098 -0.313095 0.0422043 0.111112 -0.0972256 0.0222355 -0.161697 -0.178427 -0.0247955 0.236062 0.105276 -0.0367953 0.0810097 0.258977 -0.230305 -0.215733 -0.338327 0.411408 0.271872 0.401701
238611753 0.0891532 -0.146055 0.480138 0.0613693 -0.00328171 -0.113706 -0.116495 -0.333376 0.0427823 -0.00637254 0.219974 0.159288 0.0924647 0.136048 -0.0375596 0.116157 -0.106416 0.0383082 -0.172422 -0.099826 0.289401 -0.153701 0.0674037 0.12263 0.240154 -0.109084 -0.0700867 -0.564519 -0.137256 -0.345161 0.103352 0.244497 0.0861954 0.14344 -0.14384 0.289389 -0.462567 0.129903 0.200695 0.0618903 0.0762095 0.180907 0.0500302 -0.100836 -0.0197424 -0.10149 -0.133566 0.128984 0.125348 0.108667 0.219652 0.0130453 -0.198688 0.127866 0.0631216 0.22117 -0.0383399 -0.0206888 -0.0388072 -0.111262 -0.0550025 -0.203591 -0.227249 0.062634 -0.378121 0.0213186 -0.050485 -0.139885 -0.232537 0.23201 0.16998 -0.352161 0.0603006 0.0594902 0.135817 0.123708 0.144252 -0.191388 -0.0647741 0.108581 0.343656 -0.364242 0.0553972 0.107379 -0.0275225 0.17543 -0.285189 -0.190802 -0.240121 0.0592531 0.273794 0.200515 0.160687 0.151062 -0.0874154 -0.0207344 -0.0754002 0.406013 0.252992 0.120684
37795860 0.0565695 -0.0825943 0.528695 -0.108838 0.026761 -0.204283 -0.097124 -0.445863 0.0676161 0.130764 0.296846 0.0627183 0.0472468 0.198155 0.0453794 0.0462351 -0.167159 0.123709 -0.203612 -0.111131 0.289152 -0.0506938 0.0467389 0.257324 0.180187 -0.125684 -0.179682 -0.380806 -0.15838 -0.301484 0.154287 0.192904 0.16088 0.152236 -0.0230024 0.27142 -0.345801 0.05046 0.220522 0.0496801 0.0258761 0.191844 0.0323819 -0.187472 0.0350626 -0.0628035 -0.113912 0.0990059 0.0910464 0.00911978 0.23281 0.0538018 -0.111484 0.0877339 -0.0304087 0.226233 -0.00853919 -0.0315499 -0.0374084 -0.222973 -0.0747774 -0.162775 -0.186507 -0.0205996 -0.347869 0.0970257 -0.0840366 -0.0604273 -0.226998 0.19495 0.0634297 -0.274294 0.131218 0.128648 0.0840597 0.218799 0.108748 -0.17016 0.0143097 0.0562183 0.382624 -0.250775 -0.010073 0.0674619 -0.00321269 0.287531 -0.205558 -0.121335 -0.114792 0.000556171 0.245735 0.221696 0.104706 0.133838 -0.140331 -0.113696 -0.0896325 0.563697 0.244515 0.080416
58121390 0.0569567 -0.00486788 0.445744 -0.0935126 -0.0160095 -0.163839 -0.0555533 -0.456351 0.0266244 0.195635 0.178321 0.0575044 -0.0393544 0.139656 0.0161032 0.0548119 -0.113692 0.125847 0.0213358 -0.0549985 0.159775 0.0217332 -0.0815548 0.135485 0.123621 -0.172811 -0.225743 -0.483743 -0.126507 -0.17963 0.0812425 0.33396 0.204249 -0.0070807 0.0594111 0.147129 -0.342342 -0.0870222 0.188527 -0.0364288 -0.00443736 0.281688 -0.0376886 -0.233959 0.0549634 0.0152424 -0.130398 0.0544507 0.0144533 -0.0825437 0.146562 0.0205177 -0.0437552 0.0354088 -0.00898768 0.264396 0.0561001 0.0662419 0.00542919 -0.160679 0.0302203 -0.149795 -0.196872 0.0244244 -0.303228 0.0106005 -0.0514313 -0.0268753 -0.173612 0.218303 -0.0255573 -0.12404 0.122136 0.106043 0.177968 0.172113 -0.000371589 -0.0797445 -0.228106 0.00793352 0.24831 -0.264336 -0.0177308 0.107193 -0.0190862 0.25214 -0.219912 -0.159771 -0.0460145 0.145978 0.218769 0.140588 0.0915679 0.157192 -0.187323 -0.138669 -0.199773 0.510137 0.247762 0.193161
404969951 0.0781662 -0.138527 0.374443 0.0597913 -0.167501 -0.0551107 -0.113124 -0.395576 0.0510314 0.191271 0.0987165 0.134213 -0.135155 0.0756372 -0.0725908 0.113348 -0.0757927 -0.0673503 0.164728 -0.0706213 0.0938453 0.0315734 -0.222889 0.0125468 0.208782 -0.288453 -0.158262 -0.532534 -0.0905325 -0.27284 0.188564 0.368347 -0.105222 0.0974268 0.0436316 0.0393089 -0.500742 -0.0905536 0.191583 0.058243 0.0111261 0.415203 -0.167364 -0.339687 0.0571396 -0.158918 -0.277846 -0.0487084 0.0236076 0.0335778 0.0490377 -0.00545244 -0.0623479 0.0376695 -0.0824077 0.215652 -0.0752989 0.157427 -0.0815081 -0.0139771 0.177064 -0.219504 -0.41218 0.00981335 -0.360547 0.0413663 -0.007543 0.0567519 -0.0598744 0.198113 -0.0314432 -0.143022 0.162552 0.11096 0.286404 0.084169 -0.134924 -0.154682 -0.272901 0.0680231 0.209082 -0.23253 0.119309 0.0103025 0.111212 0.128819 -0.238623 -0.313826 -0.150352 0.268915 0.142828 -0.0534274 -0.0279251 0.261306 -0.261738 -0.0910196 -0.410984 0.511166 0.0698178 0.256486
58552646 0.0803296 -0.123005 0.45476 -0.00944368 -0.00824561 -0.103068 0.0663349 -0.306255 0.0643607 0.127926 0.0845154 -0.00575521 -0.0646607 0.289185 -0.0467479 0.165456 -0.102207 0.12389 -0.151678 -0.109663 0.304751 -0.0218052 -0.0273331 0.0643728 0.150471 -0.102698 -0.0915263 -0.416935 -0.0948589 -0.213438 -0.01949 0.288659 0.192389 0.0774187 0.0519531 0.180086 -0.249935 -0.0484143 0.149313 -0.0376457 -0.108794 0.293162 -0.0460298 -0.2957 -0.0544179 -0.052776 -0.0538295 0.206242 -0.104926 -0.0683785 0.19709 0.0765227 -0.318465 0.201654 -0.10625 0.113799 -0.184827 0.175189 -0.0628529 -0.194901 0.10861 0.0252683 -0.147588 0.0349356 -0.331349 0.0340307 0.026157 -0.06328 -0.257679 0.0470529 0.102443 -0.128206 0.0685873 0.108639 0.08154 0.103091 -0.00760757 -0.175143 -0.105865 0.115523 0.26966 -0.316903 -0.0205105 0.0813065 0.0878858 -0.0579585 -0.297915 -0.140685 -0.106593 0.164054 0.0829493 0.0499611 0.163896 0.220592 -0.0567974 -0.155662 -0.168696 0.521816 0.238153 0.373866
360245938 -0.00715995 -0.0224145 0.53889 -0.0100785 -0.13774 -0.0981672 -0.0992942 -0.391107 0.193563 0.0757691 0.122995 0.117678 0.0845068 0.161483 0.00346021 0.14324 -0.101627 -0.0639226 -0.0486832 -0.0342041 0.206764 -0.0603052 0.0958384 0.0776101 0.25411 -0.105711 -0.157256 -0.685392 -0.012778 -0.138225 0.174788 0.293792 0.0226382 0.094699 -0.0689625 0.214394 -0.271989 -0.122292 0.263265 -0.0905222 0.0566264 0.278347 -0.0402594 -0.0817777 -0.0711878 -0.11566 -0.212241 0.0927854 0.0983678 0.188949 0.157656 -0.0423502 -0.192288 0.0124091 0.0275218 0.193804 -0.0111673 -0.0811264 -0.0115948 -0.0584038 0.0569937 -0.152719 -0.296348 -0.04657 -0.360929 -0.00738938 -0.0375764 -0.146305 -0.200915 0.383334 0.0641125 -0.270525 0.114424 0.128364 0.216772 0.0873651 0.0407856 -0.180836 -0.287526 0.0107096 0.278574 -0.322248 -0.0143624 0.0627712 -0.103458 0.0802765 -0.233037 -0.269756 -0.184675 0.185801 0.192425 0.255399 0.185769 0.165636 -0.0908944 0.00636458 -0.194846 0.403998 0.31312 0.122054
117674417 0.118908 -0.171676 0.456991 0.05381 -0.0687176 -0.0935992 0.00899246 -0.408805 0.237593 0.0827669 0.192197 -0.0167982 -0.0161256 0.184272 -0.0152656 0.0686033 -0.128551 0.11812 -0.134942 -0.140012 0.311139 -0.00823945 -0.036464 0.0129293 0.296196 -0.14066 -0.186153 -0.514121 -0.094725 -0.38334 0.020522 0.0963073 0.0371067 0.17052 -0.03109 0.21322 -0.325613 0.0417017 0.111646 -0.0338569 -0.0580831 0.275672 -0.150052 -0.0767013 -0.0988618 -0.0845132 -0.0884468 0.137887 0.0207068 0.00604408 0.168554 0.0011202 -0.262781 0.0764261 -0.0160459 0.0950894 -0.109828 0.0273555 0.0376294 -0.195188 -0.0280776 -0.196542 -0.268731 -0.0987055 -0.334453 0.150943 -0.00567534 -0.106522 -0.257 0.0800278 0.129009 -0.261609 0.120417 0.0790439 0.240253 0.0789323 -0.0375442 -0.153683 0.0607036 0.179666 0.29253 -0.341688 0.0576432 0.0613019 0.180045 0.0492188 -0.272659 -0.143075 -0.145114 0.0977278 0.143419 0.152266 0.1529 0.159931 -0.106315 -0.110725 -0.261888 0.526135 0.236904 0.215737
59959466 0.100999 -0.00320214 0.569584 -0.139034 -0.0195337 -0.148556 -0.0770144 -0.380551 -0.0214154 0.128686 0.171071 0.056531 -0.0935181 0.241872 0.0921279 0.183593 -0.150784 0.242391 -0.162168 -0.0486981 0.199312 0.026925 -0.0391378 0.157651 0.0720713 -0.0915139 -0.123165 -0.46077 -0.153849 -0.104296 0.0205528 0.328581 0.173466 0.0619395 0.148542 0.139688 -0.399054 -0.136698 0.285056 0.00144686 -0.149676 0.259335 0.12699 -0.391067 -0.0516889 -0.13694 0.0204749 0.0748957 -0.0427098 -0.146261 0.0294785 -0.021441 -0.13549 0.0312251 -0.0929153 0.126873 -0.0944922 0.0257888 0.0798503 -0.152464 0.0525648 0.0217098 -0.140196 0.0987772 -0.244587 0.103088 -0.0679033 0.0400559 -0.208508 0.0992218 -0.18072 -0.128222 0.0757916 0.23593 0.0644406 0.244195 -0.0117207 -0.158658 -0.186953 0.0405132 0.298215 -0.150748 -0.050778 0.0205197 0.0528284 0.0913041 -0.194519 -0.236819 -0.0504084 0.210677 0.101704 0.0416523 0.0468166 0.127302 -0.171589 -0.111068 -0.187183 0.555218 0.167667 0.258503
133055665 0.13756 -0.111852 0.478067 0.127324 -0.0397454 -0.0574074 -0.0157387 -0.359102 0.161689 -0.0136233 0.183379 0.0533983 0.0219356 0.136024 -0.00739774 0.107991 -0.122474 0.018841 -0.106559 -0.08063 0.185312 -0.0373171 -0.00250597 -0.00936717 0.321342 -0.120679 -0.0921949 -0.617351 -0.068794 -0.329377 0.0774939 0.196771 0.00256105 0.168836 -0.0704215 0.242186 -0.40924 0.0841511 0.161128 -0.0548154 -0.0139744 0.209012 -0.0968572 -0.0817941 -0.0850457 -0.128231 -0.107221 0.0881604 0.137488 0.125726 0.0985115 0.0112931 -0.274864 -0.029291 0.0726254 0.119418 -0.0319603 -0.0318996 0.0136048 -0.119291 -0.05092 -0.204202 -0.335265 -0.0911268 -0.417722 0.111451 -0.0702758 -0.0693121 -0.218959 0.140892 0.10716 -0.287751 0.135573 0.0767217 0.195376 0.132922 0.0273005 -0.208783 -0.108232 0.115964 0.306982 -0.306436 0.0301262 0.0811059 0.0779265 0.0264093 -0.203437 -0.252935 -0.208502 0.16439 0.204987 0.188672 0.16816 0.211411 -0.0969705 -0.0918366 -0.225367 0.390348 0.242191 0.185282
46997754 0.171844 -0.155303 0.554772 0.0486423 -0.0986804 -0.108575 -0.0452193 -0.351768 0.0631996 0.0543916 0.0934942 0.0464058 -0.018475 0.274953 -0.00110257 0.22295 -0.107636 0.156004 -0.227585 -0.155344 0.313996 -0.0528794 0.0601236 0.0926222 0.137844 -0.088508 -0.082444 -0.424362 -0.114363 -0.296623 0.0649499 0.174352 0.118817 0.0928582 -0.022831 0.0826354 -0.367817 -0.0143069 0.170629 0.0164002 -0.134872 0.221158 0.0705764 -0.310602 -0.14743 -0.102613 -0.0464134 0.174907 -0.0270513 -0.134285 0.0812248 -0.00705664 -0.274187 0.211959 -0.0791628 0.103066 -0.162203 0.0612534 -0.0648151 -0.107844 0.0371481 -0.0571701 -0.128822 0.0122392 -0.26133 0.0774329 0.0469621 -0.122975 -0.21003 0.0762466 0.151223 -0.249475 0.0291617 0.102758 0.0738085 0.144826 0.0268715 -0.126096 0.00256796 0.168926 0.298646 -0.412953 -0.0149933 0.0116517 0.145269 0.022312 -0.382216 -0.185836 -0.176803 0.148661 0.100009 0.0602109 0.0840767 0.148602 -0.129159 -0.0301417 -0.17887 0.471922 0.212688 0.256841
33659438 0.290138 -0.0672283 0.678925 0.0760038 0.0718841 -0.145993 0.148314 -0.253546 0.223585 0.043552 0.127714 0.014362 -0.0361218 0.334767 0.0771128 0.325114 -0.0724318 0.164889 -0.225009 -0.102965 0.245463 -0.102769 0.0168982 -0.154547 0.233798 -0.0248856 -0.191854 -0.72009 -0.210713 -0.0597827 -0.265281 0.201126 0.218699 0.158394 0.142432 0.136124 -0.391576 -0.138233 0.147051 -0.204788 -0.30245 0.244736 -0.132736 -0.284294 -0.293709 0.0635265 0.135136 0.191924 -0.0837828 -0.161808 -0.0502886 -0.089736 -0.394406 -0.0917105 -0.0269043 -0.0545246 -0.101568 0.0850021 0.0246012 -0.103309 -0.176553 0.136963 -0.161958 -0.074878 -0.31479 0.121964 0.00221519 -0.0459387 -0.419615 -0.0387028 0.14182 -0.171888 -0.052312 0.0895847 0.216264 0.12753 -0.10711 -0.202739 -0.142086 0.047188 0.374899 -0.396943 -0.14694 0.150111 0.227734 -0.206551 -0.365425 -0.188813 -0.110401 0.252215 -0.0714063 0.187336 0.157652 0.121116 -0.0139413 -0.244238 -0.261837 0.399597 0.350884 0.334156
37103150 0.218426 -0.0518714 0.574936 0.0330482 0.00972568 -0.126696 -0.00336355 -0.416426 0.0876416 0.0816364 0.139614 0.0320345 0.0133773 0.259996 -0.00937659 0.227681 -0.0664815 0.165919 -0.19739 -0.126545 0.267464 -0.0784671 0.117073 0.00400146 0.17945 -0.165885 -0.184125 -0.438894 -0.123114 -0.283142 0.0508096 0.175706 0.136779 0.104331 0.0151255 0.0767955 -0.378683 -0.0246913 0.172304 0.0436991 -0.155141 0.193971 -0.0924052 -0.36211 -0.162619 0.00772647 0.0239264 0.138734 -0.0469833 -0.126433 0.104306 -0.0751969 -0.260625 0.0833989 -0.0527925 0.0656981 -0.147196 0.0267799 -0.0659751 -0.0662988 -0.0183637 -0.0950949 -0.181191 -0.0342307 -0.345853 0.134164 -0.0471166 -0.0735017 -0.24032 0.0251442 0.146355 -0.246324 0.061294 0.100145 0.108365 0.174181 0.0398788 -0.177369 0.00236227 0.165039 0.350138 -0.366228 -0.0545622 0.0714632 0.133993 0.07701 -0.28711 -0.0851037 -0.088573 0.161741 0.050008 0.110129 0.0130854 0.0403694 -0.0824565 -0.0803384 -0.280888 0.365102 0.309843 0.20659
43003845 0.0970333 -0.0727114 0.520245 0.0737039 -0.058889 -0.128581 -0.0194662 -0.406532 0.0934038 0.131934 0.137445 -0.0098469 0.00837132 0.171531 -0.0174418 0.0742717 -0.0979523 0.110565 -0.0966131 -0.104329 0.228913 0.000122876 -0.0137799 0.0775705 0.195236 -0.120239 -0.243339 -0.456568 -0.138112 -0.268455 0.0486429 0.206823 0.146152 0.0319513 -0.078282 0.218675 -0.361373 -0.00962334 0.1417 -0.0267706 -0.0817792 0.297095 -0.00400073 -0.135957 -0.024122 0.0184623 -0.04404 0.132293 0.0374538 -0.0401068 0.142073 0.0322937 -0.199588 0.111309 -0.0120325 0.246252 0.00677668 0.115566 -0.0523887 -0.174261 0.00529058 -0.158738 -0.179249 -0.0526457 -0.34357 0.0568053 0.0235017 -0.118446 -0.307654 0.231785 0.155043 -0.200061 0.148306 0.0809186 0.201795 0.107303 0.0803403 -0.109848 -0.0224653 0.169543 0.28509 -0.317981 -0.0315544 0.123435 0.102236 0.106964 -0.259748 -0.144354 -0.12032 0.145616 0.193945 0.205707 0.0919624 0.211681 -0.113957 -0.106404 -0.150667 0.454821 0.329382 0.20664
45678199 0.0451005 -0.143246 0.541116 0.0690565 0.105651 -0.16675 -0.0057418 -0.458717 0.00918784 0.098315 0.0976873 0.0156699 0.0490827 0.192556 0.0808023 0.164628 -0.0383024 0.212254 -0.250136 -0.102399 0.365204 -0.0842172 0.00700747 0.136558 0.171044 0.0784306 -0.107453 -0.591004 -0.130952 -0.269086 0.0247648 0.175042 0.353293 0.0243429 -0.0252241 0.337464 -0.303623 -0.0159152 0.11546 -0.108276 0.0415215 0.13138 0.0570709 -0.114474 -0.134216 0.0258805 -0.0563297 0.111509 0.0208227 -0.162507 0.0845516 0.0898699 -0.244511 0.00496439 -0.123974 0.288404 -0.0630965 0.0584135 0.237454 -0.274978 -0.176563 -0.0568984 -0.10911 0.0325077 -0.403081 0.0383851 0.0881685 -0.0309166 -0.273739 0.15455 -0.043791 -0.0450578 -0.0365351 0.126325 0.184092 0.047019 0.0683857 -0.143006 -0.109858 0.140317 0.259143 -0.418836 -0.104442 0.0102612 0.133486 0.20434 -0.395923 -0.162005 -0.103721 0.134997 0.259431 0.120427 0.358584 0.107254 -0.0813491 -0.239547 -0.0417982 0.584736 0.287381 0.27485
9317502 0.213645 -0.0792612 0.547483 0.0771941 -0.0296435 -0.144464 0.0986646 -0.354817 0.135235 0.00577548 0.00165772 0.0860092 -0.0561635 0.167526 -0.125094 0.140328 -0.135037 0.0178186 0.00384212 -0.088559 0.072399 0.00865333 -0.0745112 -0.0949529 0.167539 -0.239249 -0.193694 -0.551133 -0.112434 -0.0215072 -0.143398 0.334009 0.159642 -0.0239135 0.08351 0.0923042 -0.303462 -0.11735 0.197963 -0.0835037 -0.0825996 0.46129 -0.0793294 -0.264185 0.081833 0.0261396 -0.0494062 0.0904638 -0.027354 0.0177135 0.133809 -0.00686792 -0.241821 0.192092 0.0605947 0.00210339 -0.0477234 0.110958 -0.0910496 -0.144428 0.200324 0.00429342 -0.243834 0.0606856 -0.292014 -0.0623503 -0.172737 -0.0313433 -0.161875 0.280692 0.0968508 -0.0611769 0.061144 0.0740758 0.191051 0.10851 -0.0587637 -0.137977 -0.297715 0.0438324 0.29141 -0.327088 0.0893351 0.137061 -0.132737 -0.0278894 -0.243978 -0.26044 -0.152542 0.316877 0.117202 -0.00776242 0.0828789 0.282432 -0.0611731 -0.0800861 -0.221266 0.289635 0.368409 0.366585
39592331 0.13652 -0.14371 0.467462 -0.0825628 -0.0472079 -0.0684075 -0.0194882 -0.470942 0.134688 0.166497 0.143373 0.0230016 -0.122713 0.328807 -0.0287128 0.184766 -0.0730532 0.178454 -0.10039 -0.197229 0.317055 0.0138045 -0.119381 0.0308587 0.086478 -0.151758 -0.162223 -0.436994 -0.140576 -0.301999 -0.101151 0.202796 0.261457 0.0423103 0.12743 0.0931169 -0.340111 -0.113856 0.069467 -0.048676 -0.0969071 0.291848 -0.0955037 -0.247565 -0.162071 0.0403628 -0.0404857 0.223426 -0.142183 -0.237683 0.0141217 -0.0178119 -0.226648 0.184058 -0.0410082 0.0577537 -0.15198 0.0499469 0.0785736 -0.138309 0.0563641 0.0115686 -0.0688076 0.0484937 -0.210191 0.106181 0.144279 -0.0661295 -0.154729 0.02225 0.0989085 -0.21269 0.0549006 0.00436652 0.153259 0.141312 -0.0978017 -0.0720249 -0.0114812 0.110713 0.238749 -0.380535 0.0245521 0.153077 0.205684 -0.0413295 -0.32667 -0.067492 -0.0381122 0.143375 -0.00215844 0.0398525 0.089291 0.171972 -0.166463 -0.128482 -0.29326 0.488565 0.235632 0.314202
302191488 0.0907044 -0.136998 0.462482 0.0819413 -0.0429757 -0.11078 0.00462137 -0.414598 0.136779 0.01125 0.252806 0.0650275 0.0252141 0.202329 0.000202285 0.0727117 -0.154094 0.0508765 -0.189399 -0.15316 0.324921 -0.0579598 0.034215 0.0487425 0.26938 -0.0734982 -0.0559284 -0.517575 -0.119462 -0.3476 0.0384858 0.123626 0.133615 0.128374 -0.105882 0.27946 -0.355522 0.0421313 0.133705 -0.0195075 0.00676497 0.207694 -0.0384688 -0.0140206 -0.0167286 -0.150008 -0.0990254 0.0784765 0.114137 0.101982 0.209047 0.0507864 -0.240355 0.117901 0.06881 0.155895 -0.0768241 -0.0557252 0.0388015 -0.187496 0.00741885 -0.172968 -0.264581 -0.0272367 -0.36774 0.072687 0.0205572 -0.107712 -0.165593 0.153907 0.157921 -0.264192 0.118908 0.0663617 0.182092 0.0930759 0.0417608 -0.124694 -0.0537089 0.18312 0.310447 -0.364941 0.0505515 0.125644 0.0812422 0.127947 -0.320179 -0.185471 -0.219983 0.0368312 0.235096 0.240056 0.226053 0.220546 -0.0703097 -0.0129143 -0.100351 0.444415 0.269232 0.191784
131905962 0.216518 -0.00879544 0.439835 -0.128575 0.0282537 -0.155271 0.0863132 -0.5614 -0.0130412 0.206479 0.133822 -0.0385223 -0.157441 0.1518 -0.132075 -0.0124149 -0.174246 0.116061 0.169051 -0.151415 0.0968755 0.0641262 -0.235205 0.0858214 0.0515652 -0.41854 -0.312683 -0.297453 -0.169262 -0.258994 -0.079533 0.345079 0.266082 0.0238948 0.146685 0.0246083 -0.395642 -0.00332898 0.174279 0.0236907 -0.104514 0.486803 -0.082611 -0.327245 0.269377 0.140791 -0.0990061 0.0594942 -0.0398717 -0.138229 0.210968 0.0734725 -0.0170503 0.25224 0.115265 0.116016 0.0701886 0.211267 -0.191425 -0.235721 0.214596 -0.147702 -0.110649 0.0430408 -0.309373 0.0381324 -0.128049 0.0525433 -0.121244 0.232321 0.103493 -0.142579 0.232958 0.0115024 0.154976 0.270008 -0.0256778 0.00443993 -0.0733699 0.0104416 0.27287 -0.280049 0.0904481 0.248338 -0.0957023 0.28089 -0.0766091 -0.0890304 -0.0363097 0.131141 0.240313 0.103378 -0.0602504 0.307602 -0.234661 -0.0787784 -0.253914 0.485079 0.329712 0.281482
109930226 0.167938 0.0477539 0.456504 -0.090022 0.0222282 -0.0790293 0.103661 -0.533776 -0.0827781 0.185326 -0.00732023 -0.0426507 -0.112869 0.105517 -0.102062 0.0458811 -0.0910368 0.216624 0.202305 -0.133699 0.0618266 0.113937 -0.152801 0.0291013 0.0614883 -0.316487 -0.27024 -0.448458 -0.132329 -0.141143 -0.0923494 0.483233 0.348139 -0.0960705 0.161399 0.0520426 -0.364001 -0.12097 0.239009 -0.0881628 -0.141011 0.424671 -0.0974272 -0.411781 0.134504 0.145077 0.00117201 0.0913273 -0.0748206 -0.181055 0.17177 0.0288289 -0.11638 0.158006 0.0676058 0.153743 0.0289254 0.20735 -0.0288814 -0.126543 0.319551 -0.0352392 -0.111563 0.12722 -0.310906 0.0308607 -0.146296 0.0318622 -0.162302 0.186844 -0.00836876 -0.0209852 0.187473 0.0340592 0.228126 0.255 0.00330264 -0.0450756 -0.270053 0.10281 0.160012 -0.305219 -0.00772104 0.223836 -0.0414584 0.160564 -0.155065 -0.14132 -0.0615195 0.339108 0.215908 0.103694 0.0456537 0.215064 -0.172401 -0.0968611 -0.288475 0.371997 0.343289 0.341918
30047802 0.164207 -0.0266517 0.41455 -0.116557 0.0537297 -0.164122 -0.0606149 -0.385331 -0.0206928 0.186771 0.296149 0.0638395 -0.0759206 0.172997 -0.0113346 0.00310008 -0.144778 0.123279 -0.00415305 -0.11742 0.203432 -0.0286814 -0.0812807 0.187379 0.101366 -0.262203 -0.201784 -0.312954 -0.223052 -0.280817 0.0839486 0.300789 0.14341 0.11599 0.000419166 0.142824 -0.482395 0.0930091 0.189625 0.0675334 -0.0716578 0.285115 0.0104287 -0.341152 0.171005 -0.0595174 -0.0610471 -0.0881135 0.0290867 -0.0609913 0.190945 0.040213 -0.0525922 0.03229 0.0381703 0.268696 0.0304269 0.0695336 -0.149028 -0.166665 -0.00066221 -0.221991 -0.249353 0.00244332 -0.278439 0.125676 -0.11378 0.0694329 -0.177034 0.0960219 0.0373746 -0.210461 0.137699 0.106458 0.106501 0.232188 0.0432724 -0.140643 -0.0441077 -0.00749922 0.370159 -0.242101 0.0654479 0.0711073 0.0082403 0.281189 -0.152311 -0.0892661 -0.074454 0.0657672 0.205398 0.117694 -0.0347706 0.225315 -0.191608 -0.0523169 -0.170589 0.564472 0.13549 0.125223
93610469 0.0729134 -0.068273 0.545494 -0.153762 0.0678615 -0.181948 -0.0580089 -0.477071 0.0595673 0.162403 0.331187 0.0820198 0.0547043 0.279854 -0.0317672 0.0190954 -0.184534 0.103003 -0.207085 -0.153837 0.331078 -0.0835564 0.0638614 0.275342 0.15649 -0.197724 -0.151681 -0.307084 -0.148433 -0.284649 0.157952 0.239831 0.219932 0.144813 0.012277 0.283282 -0.359258 0.0921503 0.24555 0.0764828 0.0313059 0.268629 0.0157398 -0.277957 0.149709 -0.0593667 -0.0975061 0.108623 0.0729335 0.0363721 0.322198 0.0740347 -0.150581 0.186248 -0.0187273 0.193788 -0.0399161 -0.0339045 -0.14271 -0.220814 0.0118959 -0.177511 -0.202557 -0.000199612 -0.360695 0.0910495 -0.110292 -0.0431807 -0.187694 0.179086 0.151755 -0.312128 0.16022 0.111888 0.0418239 0.25198 0.125482 -0.207186 0.0139832 0.0646054 0.436975 -0.313246 0.0674238 0.119318 -0.0566536 0.310757 -0.195521 -0.0669037 -0.156219 -0.0149086 0.238175 0.198265 0.0558924 0.213795 -0.146985 -0.0659482 -0.0787381 0.570224 0.236175 0.0882955
57431614 0.17966 -0.147484 0.577859 0.0391748 0.0508296 -0.1691 0.00626348 -0.291131 0.0340662 0.0700708 0.216715 0.0907887 0.0370838 0.287582 0.0567274 0.249133 -0.0786936 0.13496 -0.281018 -0.138612 0.357385 -0.143406 0.111101 0.0766813 0.225375 -0.0186649 -0.0936051 -0.481863 -0.174459 -0.277505 -0.0296141 0.195904 0.11729 0.184107 0.00587975 0.179224 -0.431427 0.0369484 0.190773 0.0105639 -0.1559 0.187905 0.043184 -0.356579 -0.203815 -0.0452927 -0.00932395 0.208379 0.00451792 -0.104662 0.112595 -0.0387369 -0.267658 0.118798 -0.081386 0.1014 -0.173176 0.0805037 -0.100539 -0.0881195 -0.0946322 0.0175615 -0.130573 0.00454983 -0.311013 0.143397 0.0409221 -0.0863234 -0.333141 0.02395 0.15889 -0.275582 -0.0133205 0.0939509 0.0803773 0.202328 0.0524163 -0.227382 0.0462162 0.125879 0.371747 -0.348166 -0.124884 0.0920538 0.168044 0.0184715 -0.349934 -0.174265 -0.203853 0.114507 0.0459173 0.146425 0.0978317 0.0856702 -0.0367429 -0.0805591 -0.125612 0.507606 0.222028 0.178171
38690166 0.267279 0.0167369 0.477887 -0.05496 0.0510631 -0.173 0.0952472 -0.457532 -0.120665 0.147712 0.0467876 0.0333662 -0.208053 0.152238 -0.0922002 0.0822259 -0.108347 0.166098 0.182794 -0.0991959 -0.00238301 0.0814073 -0.184579 -0.0353373 0.0612841 -0.320894 -0.318441 -0.442712 -0.231027 -0.052669 -0.169682 0.518816 0.287989 -0.0338585 0.212064 -0.0147948 -0.425549 -0.108104 0.265076 -0.0250496 -0.183062 0.45361 -0.108625 -0.549616 0.139024 0.147683 -0.0347451 0.0487135 -0.132997 -0.227392 0.156075 0.0148489 -0.0705812 0.184184 -0.0186346 0.137867 0.0389449 0.262038 -0.160027 -0.111899 0.28047 0.0346203 -0.144186 0.168548 -0.298732 -0.00501104 -0.178752 0.0519306 -0.150354 0.151767 -0.0247372 0.0359156 0.104638 0.119742 0.168063 0.294995 -0.0622351 -0.0264739 -0.350369 -0.00819967 0.210866 -0.260223 -0.00326808 0.190578 -0.066403 0.14108 -0.19642 -0.222014 -0.0282964 0.334984 0.186954 0.00236006 -0.0286477 0.184571 -0.186829 -0.157466 -0.321755 0.39653 0.371393 0.403623
32378617 0.118814 -0.0238626 0.467367 -0.179588 0.107099 -0.225827 0.0129852 -0.372665 0.0609934 0.216079 0.346445 0.0903698 0.0197445 0.253367 -0.00948703 0.0238334 -0.22343 0.0681316 -0.111016 -0.152719 0.223361 -0.03926 0.0257839 0.164049 0.179831 -0.216411 -0.194602 -0.286245 -0.204191 -0.193621 0.0404859 0.304878 0.162656 0.169176 0.0856362 0.16919 -0.336925 0.0290942 0.263917 0.113214 -0.0573644 0.315646 -0.0296 -0.40638 0.200998 -0.0146685 -0.0342139 0.0705994 0.0471993 0.0106072 0.331688 0.0287756 -0.0553432 0.130918 -0.00864685 0.176661 -0.0402226 0.0353245 -0.252233 -0.161695 0.0441896 -0.121724 -0.220628 -0.0362866 -0.29607 0.0708946 -0.142211 -0.0514792 -0.227642 0.0970828 0.203256 -0.295085 0.149783 0.0898503 0.105328 0.282856 0.0173681 -0.176376 -0.0399972 0.000844662 0.463471 -0.262574 0.0612273 0.191903 -0.0395489 0.247088 -0.178551 -0.0638122 -0.164557 0.0360989 0.14081 0.20394 -0.0486166 0.232815 -0.0895029 -0.0322659 -0.133155 0.547647 0.198296 0.0603894
199018196 0.067922 -0.155124 0.492258 -0.00484831 -0.0381474 -0.17295 -0.0925824 -0.369336 0.0654872 0.100598 0.226914 0.115306 -0.049416 0.269195 -0.0456669 0.0406916 -0.190874 0.121682 -0.227994 -0.0777724 0.236186 -0.0108333 -0.0257795 0.198982 0.157961 -0.116796 -0.0647267 -0.314876 -0.0897994 -0.276605 0.248916 0.183342 0.114436 0.0677953 0.00932264 0.254547 -0.313161 0.0684993 0.236286 0.101199 0.00783917 0.226233 0.0116375 -0.314417 0.0784246 -0.208599 -0.152223 0.145401 0.0610944 0.021219 0.215795 0.0638612 -0.200001 0.162699 -0.102369 0.175096 -0.0933474 -0.0104691 -0.0698915 -0.222606 0.068578 -0.167996 -0.259426 -0.0429716 -0.375456 0.0160126 -0.122552 -0.0135454 -0.0653413 0.0966483 0.0573314 -0.190787 0.118462 0.173684 0.0134969 0.21584 0.0390711 -0.21394 -0.105808 0.130517 0.362928 -0.253294 0.123828 -0.0532699 0.0478281 0.167213 -0.261381 -0.1768 -0.139948 0.050933 0.237691 -0.0288837 0.0590803 0.193168 -0.215808 -0.121005 -0.175119 0.586099 0.156317 0.238495
44927164 0.214595 -0.0341486 0.448139 -0.023174 -0.0499241 -0.069997 -0.0378799 -0.430219 -0.0723084 0.0521567 0.117248 0.0965204 -0.149761 0.195279 -0.0600774 0.0685279 -0.0633229 0.250222 -0.0426756 -0.103135 0.218705 0.0278154 0.0200757 0.0963106 -0.00356448 -0.229197 -0.137294 -0.400833 -0.144042 -0.2133 0.0034313 0.358008 0.221831 -0.0924034 -0.00428899 0.0585299 -0.487088 -0.0317793 0.217087 -0.0826144 -0.155204 0.258639 -0.0479921 -0.480867 0.0427356 -0.0440425 0.0626257 0.0447079 -0.0664746 -0.178639 0.148101 -0.0194551 -0.260855 0.17643 0.0130906 0.198571 -0.0971675 0.00788499 -0.0520288 -0.107997 0.16804 -0.130288 -0.200897 0.129713 -0.209212 0.0633143 -0.146945 0.018132 -0.0965497 0.091005 0.0276966 -0.0639178 0.0783058 0.159014 0.0452018 0.261874 0.0903638 -0.149613 -0.222689 0.106069 0.239741 -0.352128 0.0198468 0.0439474 0.013084 0.0973096 -0.243539 -0.216222 -0.102652 0.274204 0.146992 -0.0421217 0.108841 0.140851 -0.118342 -0.119801 -0.250975 0.311668 0.211938 0.316422
51317749 0.161049 8.03154e-05 0.420246 -0.0311416 -0.0784108 -0.100788 0.0483468 -0.350987 0.0630384 0.166124 -0.0328497 0.0604883 -0.177844 0.180304 -0.125629 0.0977526 -0.0465696 0.0319237 0.14252 -0.000411987 0.121391 -0.00198549 -0.156515 -0.0347492 -0.0147098 -0.284636 -0.209853 -0.471942 -0.104533 -0.065049 0.0610703 0.394776 0.219904 -0.0679986 0.145461 0.0581898 -0.312562 -0.171782 0.192851 -0.154857 -0.0801069 0.389814 -0.208076 -0.321696 0.085156 0.0402116 -0.186153 0.0405887 -0.08768 -0.131242 0.0204714 0.0241846 -0.201279 0.0604234 -0.0548558 0.175049 -0.0160335 0.158409 -0.0498789 -0.125085 0.124856 -0.0640576 -0.262633 0.0186037 -0.307293 -0.0592059 -0.124689 0.0821093 -0.117672 0.20945 -0.0546177 0.0576651 0.0481627 0.129603 0.182582 0.0664674 -0.0827242 -0.130761 -0.436013 -0.0485563 0.236293 -0.298327 0.0521362 0.0419377 -0.0371907 0.00299252 -0.242834 -0.222794 0.0370124 0.289027 0.0933575 -0.086672 0.131015 0.233393 -0.249506 -0.221948 -0.323693 0.406141 0.253471 0.407545
188762652 0.0961772 0.0912564 0.463205 -0.0749432 -0.164316 -0.0376171 -0.0630946 -0.398169 0.0465878 0.160162 -0.0178747 0.129428 -0.108741 0.0843114 -0.056088 0.144788 -0.0327099 0.115201 0.154933 -0.0219433 0.139667 0.00357151 -0.0377475 -0.0170305 0.0416211 -0.291722 -0.215825 -0.654662 -0.105637 -0.138446 0.081225 0.517668 0.149753 -0.063795 0.0180575 0.0851315 -0.465577 -0.200169 0.23897 -0.147478 -0.0935857 0.356889 -0.12777 -0.281996 0.0220394 0.00438205 -0.09512 -0.0414973 -0.0503572 -0.0705301 0.00124175 -0.0751124 -0.197638 -0.0161544 0.0708227 0.254198 -0.0386646 0.0466697 0.0735505 -0.0124788 0.131877 -0.198877 -0.289634 0.115472 -0.292421 0.0180621 -0.116381 0.0100718 -0.186938 0.322332 -0.129766 -0.0710947 0.0848439 0.11695 0.289342 0.109997 0.013344 -0.225911 -0.421818 -0.00628626 0.254419 -0.343323 0.0164687 0.0440205 -0.049222 0.0142743 -0.20198 -0.255905 -0.0130304 0.411253 0.105033 0.0266166 0.167276 0.165604 -0.178115 -0.0473862 -0.35382 0.360505 0.263002 0.30543
163073815 0.137533 0.00219917 0.543313 -0.022771 -0.0303083 -0.187649 -0.00504717 -0.478001 0.0368811 0.165336 0.240698 0.003534 -0.0780851 0.155454 -0.0503887 0.00118582 -0.164877 0.0573635 -0.0868405 -0.0746895 0.213985 -0.00738202 -0.0955421 0.215861 0.0711679 -0.27341 -0.223912 -0.248271 -0.0953086 -0.217837 0.134424 0.235873 0.116013 0.0275002 0.0556783 0.177851 -0.345459 0.0469578 0.204134 0.0321849 -0.0793785 0.382062 0.0149094 -0.305417 0.239165 -0.0988692 -0.110668 -0.0123873 0.0443787 0.00349238 0.261159 0.0930686 -0.0972658 0.190674 0.0397278 0.190243 0.0383057 0.0860753 -0.221836 -0.225835 0.139836 -0.180057 -0.256079 -0.0989644 -0.358293 0.00985556 -0.0947597 0.00866674 -0.0846004 0.241049 0.157655 -0.148961 0.259457 0.163864 0.0425209 0.176583 0.0646843 -0.121486 -0.124053 0.0253319 0.399069 -0.209213 0.0363003 0.0778598 -0.0716647 0.318535 -0.137012 -0.140782 -0.114961 0.0197568 0.214533 0.0655286 -0.0241505 0.334317 -0.194461 -0.112538 -0.177517 0.520496 0.212517 0.231063
132354608 0.198108 0.0934775 0.437129 -0.206154 0.0182541 -0.209296 0.0176068 -0.454264 -0.0597831 0.208366 0.0840879 0.0330685 -0.177006 0.126386 -0.0450025 0.0532081 -0.153844 0.160781 0.208506 -0.0533312 0.0587061 0.0708974 -0.181164 0.0602308 0.0184433 -0.303498 -0.299259 -0.501284 -0.214293 -0.104087 -0.0415588 0.567262 0.286976 -0.0221202 0.221231 0.0229313 -0.385278 -0.110957 0.321526 -0.0171418 -0.125505 0.421639 -0.0522799 -0.473523 0.165964 0.139833 -0.138455 0.0931557 -0.0646698 -0.207776 0.143245 0.0484594 0.00251005 0.118974 0.0332283 0.260513 0.101837 0.211682 -0.0983213 -0.13918 0.207606 -0.0277922 -0.15298 0.120817 -0.27107 -0.0294054 -0.142227 -0.0167247 -0.229484 0.223518 -0.13589 -0.0670901 0.115209 0.101665 0.215866 0.288856 -0.0531526 -0.0457177 -0.37694 -0.0875389 0.258552 -0.248085 -0.0281798 0.205968 -0.114698 0.190583 -0.158928 -0.217584 0.0239426 0.29148 0.206882 0.0817913 0.0459818 0.184033 -0.211064 -0.127071 -0.313246 0.559079 0.300547 0.341073
