56 100
34499671 0.16385 0.20566 -0.134978 0.194139 0.104612 0.20761 -0.211119 0.082651 -0.222849 0.0612618 0.353029 -0.183088 0.284932 0.103942 0.00704717 0.221898 -0.275383 -0.289298 0.107774 0.0834953 0.151628 0.33264 -0.0781666 -0.0662648 0.171612 -0.0650814 0.279403 0.245202 -0.24318 -0.196517 0.234685 0.0547479 0.176842 -0.580623 0.103582 -0.345744 -0.19887 -0.0320816 0.0529795 -0.00276086 -0.21873 0.149677 0.0465356 0.0127927 0.0427885 0.174157 0.00668227 -0.383144 -0.429002 -0.0277473 -0.13542 0.128475 -0.0708879 -0.0300813 -0.106672 0.288214 -0.338397 -0.129914 -0.134999 -0.247879 -0.244154 -0.00705936 -0.0039709 -0.00267464 -0.171373 -0.394625 0.0734413 -0.0851049 0.365365 -0.0195368 -0.14173 0.0983099 0.118957 -0.406767 -0.0634929 -0.0791988 0.154284 -0.16172 0.0346285 0.274129 -0.00131569 -0.0900399 0.2621 0.354023 0.0169888 -0.25232 0.254427 -0.0983451 -0.240111 -0.426793 -0.105297 -0.0515798 0.232592 -0.394008 -0.0378447 -0.18556 -0.269348 -0.282118 -0.176482 -0.173083
279360686 0.235811 0.256143 0.0310653 0.211438 0.110168 0.124596 -0.122496 0.120111 0.0975067 -0.0436609 0.327453 -0.361033 0.39249 0.000127146 -0.0795754 0.219917 -0.303501 -0.220765 0.118888 -0.0186211 0.119056 0.325703 0.0359925 0.0851484 -0.00645695 -0.270346 0.314215 -0.0193826 -0.279426 -0.14647 0.0989971 0.1201 0.193421 -0.185031 0.244265 -0.2267 -0.126727 -0.0583876 -0.0841743 0.133932 -0.0932861 0.0692227 0.101704 0.0722692 0.166571 0.370414 -0.00481099 -0.43884 -0.407499 -0.0780107 0.0779103 0.157633 -0.0857619 -0.00631059 -0.278064 0.000258524 -0.156539 -0.274279 -0.0111778 -0.320246 -0.233548 -0.079306 0.076716 0.110148 -0.157621 -0.588792 0.205137 0.0449614 0.260504 -0.135814 -0.179673 -0.0727896 -0.0260848 -0.219402 0.0415323 -0.0857579 0.0654497 -0.255007 -0.149014 0.0385331 0.00893352 0.0457829 0.14471 0.261651 -0.116654 -0.296473 0.167444 -0.138368 -0.158851 -0.206365 -0.0819839 -0.0961723 0.0978866 -0.202689 0.0297642 -0.284057 -0.128175 0.0409252 -0.0134416 -0.410476
67539928 0.321283 0.199841 -0.0982844 0.212808 0.131584 0.304987 -0.257716 0.146843 -0.0858371 0.00153214 0.409712 -0.405572 0.360238 0.137564 -0.0650084 0.207504 -0.281767 -0.238855 0.0084164 0.00317092 0.1571 0.36462 0.0122588 0.00306688 -0.0331178 -0.0925341 0.299326 0.107307 -0.316842 -0.227582 0.0520624 0.0480274 0.134265 -0.30048 0.165656 -0.229281 -0.163677 0.00205566 0.0572316 0.117082 -0.197748 0.116596 -0.0852828 0.185729 0.0900355 0.225645 0.0912247 -0.487933 -0.430137 -0.00172678 -0.103487 0.126721 -0.0731401 -0.07941 -0.165584 0.136287 -0.246838 -0.274202 -0.130427 -0.274365 -0.189961 0.000192086 0.106603 -0.0421918 -0.225979 -0.417101 0.0390277 -0.0658931 0.333989 -0.0809737 -0.0571892 0.0155585 0.076045 -0.425578 -0.0211584 -0.117869 0.0919489 -0.234489 -0.062252 0.0589068 0.0908512 -0.0115844 0.155239 0.262377 -0.0578883 -0.300312 0.258524 -0.238655 -0.263421 -0.299779 -0.129342 -0.205825 0.182493 -0.391792 -0.0507586 -0.15706 -0.14178 -0.0959001 -0.0556226 -0.222296
21735914 0.239288 0.207722 -0.229862 0.141806 0.094056 0.290571 -0.166972 0.115175 -0.112261 -0.0705763 0.521424 -0.361352 0.406923 0.0681217 -0.104237 0.259397 -0.310199 -0.195062 0.0944544 0.124883 0.202628 0.430697 -0.0779311 -0.079603 0.0915083 -0.0790555 0.331007 0.0627725 -0.337241 -0.293495 0.210064 -0.0344883 0.141359 -0.390656 0.139921 -0.408081 -0.201307 0.0274949 0.00253972 -0.0160608 -0.244714 0.0736775 0.0524791 0.0436716 -0.0194795 0.183471 -0.0906354 -0.581256 -0.474832 0.0178787 -0.238434 0.125107 -0.0757372 -0.0567066 -0.117965 0.183236 -0.322804 -0.17524 -0.153671 -0.422416 -0.187529 -0.122928 -0.0472757 0.127743 -0.265119 -0.617931 0.0874129 -0.149984 0.529298 -0.0754922 -0.123304 0.136192 -0.010409 -0.430955 -0.0453905 -0.0526019 0.0842151 -0.256735 0.112913 0.0891596 -0.0373196 -0.0986436 0.235361 0.344718 -0.196965 -0.334284 0.231746 -0.233348 -0.403307 -0.253818 -0.173151 -0.206894 0.170341 -0.425009 0.0216083 -0.134541 -0.244275 -0.205384 -0.131708 -0.182106
38719238 0.263714 0.232543 -0.133727 0.191371 0.0601152 0.444541 -0.347141 0.18838 -0.0726688 -0.0824713 0.392948 -0.412025 0.378733 0.230122 0.00861724 0.165962 -0.279893 -0.278036 -0.0159565 0.0116693 0.191317 0.413627 -0.036901 -0.0415693 -0.0138078 -0.0740987 0.320676 0.133907 -0.358258 -0.190791 0.0021792 0.10816 0.0838311 -0.357014 0.148068 -0.294189 -0.0978335 0.068025 0.000545265 0.0991849 -0.243424 0.204737 -0.159798 0.112801 0.0974987 0.169439 0.0436658 -0.520476 -0.392299 -0.00761374 -0.106479 0.192752 -0.0868304 -0.00993085 -0.0677867 0.220535 -0.258421 -0.209223 -0.17645 -0.221694 -0.25425 -0.0253585 0.10352 -0.0347392 -0.296259 -0.45986 -0.0129256 -0.189875 0.318923 -0.0854708 -0.0308303 -0.0656201 -0.00265496 -0.418285 0.0184389 -0.0326387 0.126851 -0.281452 -0.0523717 0.0664611 0.202758 -0.00226663 0.132041 0.319581 -0.0114471 -0.301879 0.265872 -0.276869 -0.260992 -0.380267 -0.265795 -0.163616 0.264956 -0.48952 -0.109049 -0.247396 -0.106252 -0.113585 -0.154633 -0.195799
164052930 0.251226 0.137018 0.0330089 0.247382 0.199096 0.279528 -0.131956 0.00907535 -0.162079 -0.0351478 0.0600937 -0.215878 0.23879 0.0328702 0.0391808 0.248203 -0.332197 -0.140233 0.111452 0.208217 0.224899 0.268191 -0.176119 -0.0717073 0.159024 0.00144158 0.122068 0.183413 -0.123022 -0.120024 0.00899133 0.164424 0.132073 -0.259833 0.357412 -0.160929 -0.224649 -0.197035 -0.076108 0.205168 -0.215507 0.0549823 0.0597783 0.0774509 0.107713 0.189283 0.156248 -0.192579 -0.336209 -0.0877444 -0.119615 0.127307 -0.0729848 0.013977 -0.170278 0.165861 -0.113507 -0.316456 -0.0950883 -0.192196 -0.14911 -0.0123184 0.132244 -0.166614 -0.0836759 -0.47598 0.0436107 0.0985702 0.336571 -0.0171081 0.0389455 -0.13273 0.141216 -0.234654 0.0440481 -0.0607734 0.151302 -0.255646 -0.134883 0.0804476 0.0261279 0.0342398 0.138253 0.22102 0.0771593 -0.144278 0.0583526 0.0974915 -0.162624 -0.298804 -0.132313 -0.0180175 0.279733 -0.119701 -0.038791 -0.205676 -0.0987394 -0.057838 -0.069114 -0.162115
451865583 0.359673 -0.0190524 0.306207 0.224046 0.384092 -0.0427889 -0.193133 0.0953462 -0.189891 0.00424997 0.192265 -0.0832928 0.175741 -0.1884 -0.227827 0.235354 -0.351492 -0.302012 0.174793 0.0926381 0.122362 0.208796 0.132663 0.158251 0.0399523 -0.174124 0.287083 0.0196813 -0.101566 -0.0478298 -0.00906399 0.432436 0.295063 -0.146929 0.191111 0.152868 -0.161631 -0.215935 0.0292384 0.353837 -0.0894004 -0.0437157 0.186228 0.0453445 0.24582 0.333183 0.091576 -0.186419 -0.273273 -0.131343 0.248452 0.204488 -0.0896219 0.0618591 -0.360537 0.0991742 -0.12595 -0.352304 0.0201116 -0.124413 -0.111192 0.10725 0.291706 -0.116402 -0.0815847 -0.438186 0.220126 0.325719 0.200245 -0.131884 -0.0861712 -0.241542 0.175291 -0.244369 -0.197194 -0.270562 0.143231 -0.126138 -0.309847 0.18411 0.0579565 0.00394349 0.252106 0.0932541 -0.0319444 -0.0931356 0.0765029 0.0293957 -0.113334 -0.229208 0.103104 -0.0351434 0.183767 -0.0618727 -0.180234 -0.082339 -0.144605 -0.0030188 -0.0744223 -0.482398
121629664 0.39105 0.0526472 0.342138 0.0547545 0.494505 0.227044 -0.0222988 0.0732633 -0.254659 -0.00237447 0.0754666 0.0747317 0.324819 -0.152798 -0.0510792 0.0310972 -0.284606 -0.285199 0.182793 0.252279 0.0320458 0.331586 -0.0128473 0.107285 0.114554 0.0564227 0.030986 0.166044 -0.249052 -0.0148336 0.183533 0.364606 0.0858053 -0.11895 0.329881 0.125814 -0.193989 -0.427182 -0.0224661 0.332772 -0.0191986 0.203492 0.104473 0.17296 0.114847 0.213827 0.0158783 -0.0552967 -0.396954 -0.0928526 0.144671 0.175761 -0.308086 0.121494 -0.333744 0.136342 -0.44466 -0.268834 0.0673744 -0.0470861 0.0389215 0.136453 0.573457 -0.291261 0.0729199 -0.525353 0.00852086 0.30916 0.101378 -0.240179 -0.114998 -0.283509 0.224077 -0.276324 0.0584211 -0.20047 0.392241 -0.184553 -0.322099 0.22511 0.286884 -0.149033 0.332887 0.280086 -0.0990506 -0.103343 0.179374 0.103239 -0.300815 -0.159954 0.0952926 0.211721 0.105302 0.0203404 -0.151243 -0.231424 0.0257532 -0.117887 -0.266952 -0.642311
45420525 0.372778 0.011198 0.267495 0.212998 0.457203 0.147419 -0.239518 -0.0630696 -0.401696 0.131795 0.0789624 0.0131029 0.14048 -0.11717 -0.118249 0.147082 -0.336661 -0.322214 0.251747 0.100642 0.0465383 0.156854 -0.00160742 0.162801 0.204905 -0.00308988 0.107338 0.20478 -0.191274 -0.0885398 0.126955 0.516292 0.272941 -0.282685 0.262698 0.158714 -0.218623 -0.217859 0.0584065 0.459583 -0.112944 0.0900981 0.0977426 0.126332 0.156553 0.164683 0.109365 -0.0630032 -0.320643 -0.151045 0.128165 0.313848 -0.112449 0.144647 -0.311847 0.123807 -0.153671 -0.379921 -0.00106607 -0.0213729 -0.0997336 0.175855 0.430092 -0.185449 -0.0933261 -0.492053 0.0106661 0.341663 0.251848 -0.0868539 -0.0150613 -0.352084 0.233818 -0.242878 -0.0793982 -0.251283 0.290034 -0.203866 -0.386193 0.262067 0.192251 -0.0202544 0.347896 0.271445 0.0654132 -0.0514815 0.136967 0.123432 -0.189071 -0.319664 0.0596582 0.046051 0.296825 -0.11731 -0.0816677 -0.230024 -0.136585 -0.0709212 -0.180263 -0.427633
217160945 0.230751 0.260227 0.161864 0.128954 0.172114 0.111997 -0.178111 0.147256 -0.00719608 0.198847 0.246494 -0.206977 0.369585 -0.0649226 -0.243919 0.0243763 -0.264029 -0.233864 0.155789 0.0797734 -0.033735 0.142159 0.0450522 0.00505779 -0.0114875 -0.185538 0.0699378 0.18005 -0.276013 -0.169033 0.0267873 0.207062 0.274228 -0.414809 0.276277 0.261668 -0.299428 -0.358702 -0.078507 0.132398 -0.0483581 0.0946486 0.266405 0.0706716 0.165682 0.43384 -0.0273522 -0.378598 -0.62467 0.0340894 0.194148 0.000893329 -0.152375 -0.063751 -0.326944 -0.11177 -0.165908 -0.43152 0.197675 -0.187692 -0.0718285 0.108659 0.246378 -0.122398 -0.0724061 -0.490389 0.211028 0.259614 0.0322238 -0.276384 -0.208567 -0.111225 0.22095 -0.127707 0.0509367 -0.160153 0.158601 -0.054407 -0.270999 0.067238 0.0526465 -0.00949323 0.344507 0.114881 0.00894682 -0.245022 0.185259 0.0594619 -0.145388 -0.135432 0.252173 0.182868 -0.133524 -0.127132 -0.0539343 -0.196094 -0.0877849 -0.0474581 -0.0946791 -0.534264
16064415 0.172813 0.270842 -0.0265561 0.252549 0.0586533 0.219405 -0.332559 0.228872 -0.0753426 0.0215239 0.326476 -0.280594 0.246455 0.113972 0.0291375 0.165898 -0.193734 -0.315574 0.0217432 0.00214158 0.164086 0.336682 -0.0939816 -0.042779 0.0253409 -0.124622 0.334452 0.204686 -0.199905 -0.0913086 0.0430298 0.0718178 0.115576 -0.555576 0.122546 -0.266083 -0.198965 -0.125849 0.0189953 0.00962405 -0.21976 0.137931 0.0199339 0.0415878 0.16653 0.270353 0.0838543 -0.388369 -0.426948 -0.00736378 -0.0386979 0.0797676 -0.132183 -0.107592 -0.0712265 0.252226 -0.28291 -0.25633 -0.147534 -0.215626 -0.240925 0.0220253 -0.0529925 -0.171038 -0.177515 -0.402529 0.0280689 -0.0456487 0.19024 -0.0563327 -0.0386847 0.034255 0.113843 -0.372754 -0.127291 -0.0456177 0.193556 -0.144731 0.0018814 0.115568 0.0661803 0.0212162 0.104651 0.178124 0.0374075 -0.233388 0.300864 -0.091699 -0.17125 -0.411722 -0.137461 -0.051702 0.23604 -0.419614 -0.110332 -0.23836 -0.248047 -0.192884 -0.137515 -0.248636
138873292 0.283987 0.0204065 0.0225838 0.244979 0.272688 0.255313 -0.17372 0.0213311 -0.219674 0.0211397 0.137249 -0.159081 0.190556 0.0844159 0.10665 0.246113 -0.416991 -0.292029 0.0584691 0.0877453 0.218078 0.283618 0.00554256 -0.0711366 0.184057 -0.095648 0.275839 0.319677 -0.247574 -0.117342 0.0408748 0.337675 0.188175 -0.400702 0.20349 -0.263944 -0.117482 -0.117986 0.00483433 0.277233 -0.176114 0.17179 -0.0799418 0.0937786 0.142365 0.155155 0.201211 -0.296965 -0.318172 -0.186251 -0.0270956 0.316862 -0.0800729 0.110887 -0.193076 0.37032 -0.232113 -0.141401 -0.0715683 -0.0332168 -0.32641 0.119731 0.289056 -0.222384 -0.114073 -0.230645 0.124224 0.0804886 0.271014 -0.00834976 -0.0411637 -0.176932 0.135519 -0.400272 -0.054433 -0.0884138 0.18398 -0.264433 -0.253495 0.304315 0.171275 0.0528319 0.174899 0.303371 0.234519 -0.107739 0.161673 -0.0709216 -0.160746 -0.515456 -0.168423 0.0321594 0.458051 -0.276343 -0.196451 -0.290517 -0.0717577 -0.172958 -0.0852593 -0.162438
45143272 0.180739 0.304512 0.277067 0.561618 0.262714 0.280024 -0.249556 -0.142896 -0.295508 0.0219453 -0.175764 -0.148459 0.198493 0.0777378 0.305121 0.383398 -0.329338 -0.262267 0.172296 0.297351 0.251411 0.173658 -0.0458278 0.0648992 0.317723 -0.0342862 0.239806 0.231228 0.100352 0.109982 0.0941175 -0.0572697 0.140866 -0.173479 0.432581 -0.118609 -0.328077 -0.249481 -0.164515 0.204265 -0.395857 0.073661 0.00807578 -0.202047 0.311244 0.171009 0.353342 -0.10764 -0.251637 -0.253709 0.0370032 -0.0733784 0.19904 0.12264 -0.107339 0.166831 0.0599866 -0.360687 -0.0824538 -0.0705753 -0.165907 0.0424601 0.0348289 -0.146308 -0.0952961 -0.217229 0.0903998 0.198466 0.309816 0.135277 -0.0392344 -0.194442 0.310208 -0.304894 0.108511 -0.158487 0.0907178 -0.292003 -0.218161 0.0295432 0.0114867 -0.0571238 -0.00778463 0.305885 0.473171 -0.0731984 -0.0870591 0.322824 0.000803446 -0.608774 -0.335805 -0.228386 0.261491 0.0197793 -0.23322 -0.145742 -0.0423835 -0.073691 -0.0749114 -0.0924118
56216394 0.273913 -0.0254503 0.333526 0.140722 0.449224 0.160878 -0.122761 0.0706054 -0.224168 -0.0239612 0.0986712 0.0245159 0.270492 -0.160314 -0.0867034 0.0995657 -0.407029 -0.438892 0.138469 0.19618 0.0384303 0.233467 0.115458 0.142283 0.154115 0.0212891 0.1968 0.0478589 -0.293012 -0.0134117 0.0865727 0.530996 0.159442 -0.100547 0.29046 0.238285 -0.0811915 -0.163389 -0.0551917 0.280663 -0.12159 0.166562 0.161563 -0.0561083 0.112483 0.0875411 0.0885463 -0.119593 -0.32714 -0.246595 0.194675 0.24669 -0.160708 0.190124 -0.277254 0.176425 -0.3198 -0.188581 0.0854143 -0.146045 -0.0909542 0.0815856 0.443769 -0.132943 -0.123549 -0.532278 0.108388 0.195061 0.235393 -0.247859 -0.168334 -0.301547 0.0904988 -0.200355 -0.0879885 -0.226555 0.233449 -0.217013 -0.263619 0.323643 0.306505 -0.158771 0.334432 0.214618 -0.0360174 0.0176728 -0.0339142 0.133897 -0.225639 -0.246265 0.0532808 0.0413601 0.230123 -0.0354009 -0.25838 -0.333928 -0.0367783 -0.143372 -0.188253 -0.588545
21351912 0.273289 0.248614 0.0985663 0.323274 0.138128 0.024279 -0.0619754 -0.0715329 0.0118082 0.136983 -0.0117736 -0.304168 0.412489 -0.072393 0.0331126 0.259041 -0.374172 -0.146157 0.0924763 0.14544 0.118692 0.0741646 0.201347 -0.0270777 0.0225366 -0.325413 0.336834 0.144208 0.0994187 -0.036141 0.0781962 -0.0172878 0.223757 -0.198068 0.390194 0.0140086 -0.279907 -0.376567 -0.150121 0.0745491 -0.0157073 0.0169477 0.231673 0.0792994 0.279226 0.504177 0.242533 -0.328306 -0.395794 -0.166074 0.131864 -0.00394896 -0.0705791 -0.0623763 -0.36454 0.0122433 -0.045651 -0.268937 0.141533 -0.122502 -0.271436 0.156867 0.11326 -0.0800415 -0.00197648 -0.0920761 0.338258 0.400643 0.0779042 -0.0198235 -0.296727 -0.0183252 0.25476 -0.271757 0.0965283 -0.20459 0.0360081 -0.141143 -0.369465 0.123818 -0.076509 0.0480933 0.00328894 0.283088 0.319424 -0.362071 0.0934365 0.0355156 0.0283327 -0.346899 0.0468896 -0.0087177 -0.10307 -0.0358042 -0.105054 -0.0343514 0.0348884 -0.0545415 0.0543035 -0.312324
360975062 0.396657 0.0185885 -0.20285 0.202022 0.0956962 0.387494 -0.259615 -0.0188044 -0.121237 0.0185243 0.209787 -0.467662 0.2448 0.0697866 0.161352 0.250531 -0.395097 -0.0943748 -0.12088 0.257016 0.142766 0.202016 -0.0948601 -0.265142 -0.00764155 -0.0644274 0.611468 0.22729 -0.0259983 -0.163294 0.0646486 0.204688 0.117505 -0.491365 0.293297 -0.276971 -0.28457 -0.233561 -0.0879011 -0.0270855 -0.0881476 0.0961066 0.133373 0.162889 0.0442395 0.268138 0.266194 -0.612607 -0.52158 -0.0678831 -0.189597 0.120818 -0.243517 -0.0440038 -0.10479 0.278609 -0.300175 -0.140743 0.0132436 -0.215472 -0.275881 0.119986 -0.029171 -0.325644 -0.257599 -0.209069 0.200119 0.189526 0.304512 0.0384064 -0.111164 -0.103363 0.096768 -0.363012 0.0142088 -0.0155295 0.0534463 -0.301465 -0.166507 0.176328 0.0846607 0.0855384 -0.120504 0.214874 0.00413962 -0.231331 0.089035 -0.11251 -0.352427 -0.412647 -0.0465119 0.0112124 0.307625 -0.449571 -0.179852 -0.169844 0.0277331 -0.262895 -0.0781365 -0.119099
16616109 0.492931 -0.0610105 -0.169447 0.164781 0.0763297 0.343926 -0.228939 -0.0775457 -0.126778 0.0231439 0.156346 -0.504546 0.309022 0.0661156 0.0901207 0.274038 -0.4617 -0.0179839 -0.127708 0.380644 0.0923576 0.106873 -0.0465204 -0.257716 -0.0516987 -0.12877 0.603982 0.191335 0.0944881 -0.183147 0.0358849 0.274012 0.237514 -0.434067 0.363679 -0.0733738 -0.300805 -0.265783 -0.146859 -0.0644986 0.0145815 0.0946916 0.31534 0.117043 0.0487078 0.385072 0.212839 -0.62488 -0.588499 -0.0480695 -0.0535675 0.0296587 -0.199744 0.0106056 -0.199204 0.122568 -0.25243 -0.177415 0.122556 -0.173347 -0.178465 0.118455 0.00143714 -0.296123 -0.232275 -0.169585 0.403993 0.294458 0.266022 -0.0143521 -0.257685 -0.219328 0.112507 -0.21288 0.147828 -0.0572872 -0.0821083 -0.276026 -0.294805 0.213724 0.0105815 0.0775961 -0.0742595 0.18899 -0.0773858 -0.239732 -0.0762008 -0.0598201 -0.310895 -0.344204 0.140219 0.110129 0.0880709 -0.314642 -0.179582 -0.0378403 0.173937 -0.138954 -0.0944441 -0.192188
548857257 0.26947 0.0444997 -0.0197043 0.261815 0.242313 0.27393 -0.167938 0.00648252 -0.188694 0.00829848 0.140092 -0.220931 0.223081 0.0787453 0.106831 0.285097 -0.450616 -0.255539 0.0524088 0.117349 0.21438 0.285123 -0.0240748 -0.100361 0.179337 -0.0965202 0.306511 0.292651 -0.229749 -0.147075 0.0412879 0.313521 0.189845 -0.387389 0.255153 -0.278023 -0.143062 -0.116893 -0.0312461 0.233506 -0.189993 0.148237 -0.0460617 0.0869874 0.132572 0.17454 0.224648 -0.35225 -0.347508 -0.1751 -0.0535565 0.297343 -0.0834223 0.102709 -0.188437 0.341322 -0.192816 -0.149663 -0.0502773 -0.111104 -0.338183 0.0844814 0.243781 -0.173382 -0.157591 -0.259453 0.141512 0.0806525 0.31653 0.00677231 -0.053709 -0.162482 0.123183 -0.376011 -0.0155717 -0.0732599 0.146335 -0.291888 -0.237983 0.279607 0.136849 0.056359 0.1458 0.318004 0.217895 -0.142461 0.114743 -0.0494861 -0.170347 -0.496917 -0.162038 0.0034177 0.445929 -0.273059 -0.170557 -0.300098 -0.0664001 -0.168824 -0.0524508 -0.148663
380627101 0.267907 0.0592996 0.0451548 0.275812 0.312928 0.23286 -0.163466 -0.00573146 -0.236634 0.0134555 0.101145 -0.141958 0.194678 0.0239527 0.107192 0.281806 -0.427626 -0.256327 0.0959844 0.104081 0.217486 0.274706 -0.00705218 -0.0230728 0.223572 -0.133489 0.271834 0.293145 -0.189954 -0.119268 0.0508567 0.270056 0.191708 -0.362407 0.221854 -0.275348 -0.165858 -0.149876 0.00222728 0.304534 -0.205667 0.150536 -0.0584358 0.065069 0.167053 0.162425 0.237208 -0.275938 -0.293022 -0.211432 -0.0296892 0.315993 -0.0644741 0.104589 -0.182918 0.339997 -0.143932 -0.193204 -0.106764 -0.0448189 -0.312286 0.136382 0.278317 -0.218532 -0.127666 -0.21441 0.0933477 0.136065 0.314105 0.0523831 -0.0296324 -0.170566 0.173583 -0.405827 -0.0545502 -0.0858513 0.212252 -0.294905 -0.280611 0.266927 0.125675 0.0481109 0.142437 0.316646 0.283943 -0.113605 0.168548 -0.0209339 -0.165795 -0.529811 -0.20344 -0.0616791 0.437713 -0.260783 -0.156179 -0.267312 -0.0989632 -0.163465 -0.0562243 -0.133415
84016634 0.189614 0.219223 0.252847 0.444465 0.249042 0.136124 -0.100643 0.199024 -0.152189 -0.136904 -0.0101661 -0.0923564 0.407921 0.0350684 0.118439 0.269 -0.388635 -0.274065 0.129325 0.157654 0.568593 0.298495 -0.0154333 -0.0135803 0.297398 -0.325013 -0.0298427 0.268262 -0.0283792 0.102958 -0.12989 -0.0504644 0.227369 -0.313397 0.340979 -0.219383 -0.241915 -0.349567 -0.181279 0.277765 -0.366036 0.120136 0.116591 -0.284477 0.372806 0.293048 0.0431608 -0.0435677 -0.288973 -0.357084 0.0214011 0.0885385 0.163204 0.0886685 -0.159598 0.352918 -0.0177424 -0.384639 -0.291595 0.0617188 -0.259661 -0.0276235 0.0704164 -0.335953 0.0837426 -0.387553 0.274799 0.10683 0.260093 -0.07134 -0.0128729 -0.179798 0.187459 -0.402004 -0.12208 -0.0830269 0.232987 -0.213541 -0.191281 0.000257032 0.0219559 0.0334687 0.11701 0.192234 0.474233 -0.020468 0.0965229 0.146752 0.0878352 -0.607124 -0.426368 -0.0519864 0.098203 0.0978604 -0.166624 -0.1062 -0.141944 0.107813 -0.0305913 -0.0800963
410546830 0.124404 0.175304 0.182386 0.361381 0.33384 0.278718 -0.181776 0.103198 -0.204852 -0.167819 -0.103414 -0.17101 0.173473 0.00211875 0.167042 0.433497 -0.498998 -0.179816 0.0833655 0.29895 0.37599 0.324206 -0.131642 -0.0105346 0.317971 -0.261235 0.155338 0.310559 -0.088144 -0.123013 -0.148854 0.124584 0.21081 -0.313554 0.305067 -0.188014 -0.243274 -0.231592 -0.107362 0.310857 -0.399601 0.167558 0.065206 -0.183644 0.253095 0.159098 0.320818 -0.183182 -0.278379 -0.276682 -0.0532799 0.193354 0.030037 0.134546 -0.0486057 0.31406 0.115419 -0.42685 -0.258968 -0.0122511 -0.240205 0.140779 0.199828 -0.361903 -0.13859 -0.218951 0.112712 0.1078 0.367801 0.131903 0.110991 -0.140976 0.244242 -0.342218 -0.0302576 -0.0143592 0.246563 -0.363305 -0.292175 0.164863 -0.0602046 0.089487 0.0927704 0.156508 0.522102 0.0202113 0.0730881 0.216397 -0.126807 -0.636414 -0.351019 -0.259043 0.433679 -0.150533 -0.179795 -0.214772 -0.0808649 -0.0743635 0.00965028 0.00988774
66561957 0.121383 0.338528 0.121341 0.236824 0.0112728 0.190445 -0.287205 0.11258 -0.13832 -0.0146098 -0.029881 -0.308526 0.259251 0.0561551 -0.105748 0.280151 -0.341773 -0.0997375 0.125504 0.138183 0.0937458 0.206385 -0.325739 0.0723246 0.0404063 -0.289451 -0.0227869 0.263294 -0.0451826 -0.305493 -0.042593 0.214952 0.369502 -0.482395 0.415883 0.109175 -0.304704 -0.174662 -0.0780886 0.201877 -0.174617 0.14944 0.281945 0.122412 0.177335 0.440176 0.189613 -0.0664493 -0.388566 0.0216502 0.059882 0.0566941 -0.160077 -0.0117858 -0.23265 -0.0098005 0.124881 -0.626319 -0.124899 -0.150015 -0.159801 0.0556537 0.115242 -0.166198 -0.0575398 -0.483014 0.129212 0.159322 0.178744 0.0454106 0.0315741 -0.137862 0.23524 -0.0264577 0.260258 -0.0956544 0.143055 -0.143868 -0.347625 0.186579 -0.158342 0.133089 0.193966 0.18771 0.171935 -0.228668 0.135011 0.265638 0.109766 -0.334636 0.134264 0.0421182 0.0852589 -0.0405825 0.222456 -0.190702 -0.196915 0.124547 -0.0230064 -0.243283
250831586 0.501145 0.00945072 0.0527585 0.28426 0.0947057 0.222031 -0.280553 -0.0386582 -0.140114 0.136236 0.149717 -0.420495 0.338942 0.0989771 -0.0210981 0.269686 -0.396129 -0.0878642 0.0105949 0.263188 0.0617147 0.0480782 -0.0518947 -0.0716944 -0.0205766 -0.198214 0.357273 0.189118 0.0679908 -0.116572 -0.0128402 0.294014 0.426977 -0.429301 0.391216 0.124105 -0.334867 -0.283893 -0.164672 0.0580904 0.00970789 0.10822 0.34359 0.0212 0.183766 0.477807 0.101691 -0.503751 -0.651287 -0.0166568 0.208453 -0.0768618 -0.00369298 0.0587 -0.316891 -0.0977259 -0.0662431 -0.358989 0.177288 -0.092013 -0.0688569 0.0467176 0.0403595 -0.215601 -0.16907 -0.26779 0.476987 0.358785 0.15039 -0.0996805 -0.271918 -0.422106 0.165034 -0.042393 0.230792 -0.114 -0.119987 -0.214827 -0.401931 0.102773 -0.0422495 0.0984219 0.0735456 0.14723 -0.0368265 -0.18821 -0.13757 0.106984 -0.0917195 -0.333508 0.236294 0.181564 -0.0836172 -0.103768 -0.126071 -0.066243 0.13451 0.123712 -0.0915684 -0.322097
115485051 0.340421 0.282175 0.0443065 0.400287 0.00172354 -0.0192842 -0.258026 0.0348937 -0.0927924 0.19701 0.171243 -0.274048 0.351305 0.242069 -0.0389817 0.304325 -0.253102 -0.221216 0.153033 0.0167023 0.145204 0.148236 0.0864238 0.0697338 0.0538703 -0.299266 0.236807 0.225375 0.0658447 -0.046599 0.0246143 0.0700979 0.423542 -0.467732 0.230964 -0.0766623 -0.191355 -0.114233 -0.00236641 0.0907846 -0.0347138 0.0864725 0.185854 0.00591595 0.331141 0.551447 0.0305438 -0.298261 -0.467071 0.0167995 0.277146 -0.0794207 0.206977 -0.072382 -0.368238 -0.0978731 -0.054488 -0.369884 -0.0158287 -0.0613725 -0.191019 0.0023033 -0.0181164 0.0677248 -0.0126158 -0.23697 0.396032 0.126981 0.0867294 -0.0437912 -0.308199 -0.14097 0.256521 -0.157303 0.0987601 -0.18093 -0.100049 -0.0545937 -0.257306 0.155095 -0.189591 0.081506 0.279188 0.264041 0.122608 -0.351132 0.101081 -0.0245216 0.141473 -0.445382 0.0860231 0.0821271 -0.103482 -0.150106 -0.040781 0.00108905 -0.0748548 0.13537 -0.105541 -0.299764
15584455 0.296784 0.272646 0.136376 0.139298 0.0319611 0.098801 -0.168556 0.0546246 -0.00719107 -0.0873396 0.0574537 -0.404578 0.46338 -0.105854 -0.128787 0.208074 -0.383195 -0.0866421 0.021036 0.203586 -0.000917952 0.170116 0.0629159 0.087559 -0.200586 -0.416992 0.381027 0.0227853 0.107617 -0.221741 0.135286 0.16388 0.265168 -0.160626 0.419323 0.176824 -0.267425 -0.264964 -0.123925 0.0791718 0.057111 0.0790158 0.407417 0.234357 0.190139 0.629028 0.182711 -0.262782 -0.32784 -0.0537754 0.192561 0.0227744 -0.340891 -0.0173975 -0.398206 -0.0102069 -0.141835 -0.411951 0.0463624 -0.190417 -0.219732 0.128574 0.168034 -0.0642402 -0.0208029 -0.323505 0.368551 0.362938 0.0681992 -0.0383817 -0.296323 -0.059129 0.176791 -0.180637 0.275877 -0.255943 0.0415421 -0.10895 -0.450556 0.228388 -0.0277812 0.0080586 0.00858045 0.290384 -0.0125773 -0.428177 0.140499 -0.010259 0.0233991 -0.193966 0.25487 0.0310087 -0.202639 0.0122423 0.089424 0.0309769 0.00365814 0.0463364 -0.0358217 -0.515176
31586589 0.232795 0.248598 -0.0620373 0.356299 -0.0116219 0.19981 -0.197247 -0.0957452 -0.10197 0.0780788 0.081434 -0.316898 0.336597 0.155999 0.115469 0.279371 -0.431368 -0.200207 0.12691 0.0190151 0.146674 0.186231 -0.0300061 -0.0475528 0.0926489 -0.26661 0.345526 0.271373 -0.0355534 -0.14452 0.125144 0.262411 0.282507 -0.432898 0.357641 -0.322508 -0.188332 -0.0788595 -0.0922257 0.220777 -0.0805879 0.114319 0.0541996 0.18056 0.225286 0.448908 0.235472 -0.311325 -0.272737 -0.13982 0.0939208 0.24693 -0.0750582 0.0602859 -0.341404 0.225471 -0.0719254 -0.217325 -0.0136504 -0.116838 -0.505937 0.0122931 0.114753 0.0578936 -0.0786895 -0.281451 0.291699 0.149348 0.205731 0.0890921 -0.212524 -0.205617 0.134734 -0.248225 0.221243 -0.110959 0.0153853 -0.221168 -0.372358 0.27678 0.073672 0.121651 0.0936924 0.497678 0.244004 -0.390138 0.132931 -0.0498623 0.128977 -0.518505 -0.0809639 0.135331 0.250042 -0.170884 0.0413146 -0.279657 -0.122144 -0.0108835 -0.0339274 -0.211512
374807911 0.434654 0.221775 0.224751 0.136191 0.232113 0.0338626 -0.262223 0.212035 -0.0282809 0.0875591 0.3954 -0.37167 0.38299 -0.143521 -0.299185 0.153092 -0.245963 -0.197897 0.0893696 0.0177264 -0.0874019 0.239074 0.0820617 0.231522 -0.213655 -0.352698 0.319719 0.00385915 -0.187563 -0.231497 0.12267 0.208824 0.343846 -0.268667 0.2216 0.229317 -0.307976 -0.288663 0.0322634 0.174629 0.0526149 0.0796455 0.30415 0.248433 0.201143 0.577679 0.0218579 -0.443577 -0.602233 0.0685001 0.27114 0.00609579 -0.25914 -0.0868563 -0.402814 -0.187488 -0.207736 -0.544605 0.0854824 -0.237297 0.00201617 0.137245 0.229043 -0.131041 -0.112872 -0.497838 0.255746 0.375444 0.051276 -0.201654 -0.212065 -0.130764 0.19719 -0.214015 0.0438072 -0.26756 0.142218 -0.105306 -0.361766 0.0680752 -0.0242288 0.0178229 0.1952 0.111147 -0.248039 -0.31683 0.29129 -0.0717929 -0.212188 -0.0967499 0.338371 -0.042379 -0.187238 -0.164311 0.0425182 -0.0655884 -0.103781 0.0793741 -0.0483573 -0.678734
31451582 0.412845 0.163048 0.151708 0.183394 0.163056 0.0595548 -0.156765 0.164523 -0.0442814 0.0934608 0.2034 -0.249399 0.362844 0.048548 -0.0723499 0.167705 -0.218729 -0.21783 0.0826002 0.0846602 0.00445833 0.240354 -0.130311 0.130769 -0.0177444 -0.170963 0.14491 0.127322 -0.145839 -0.094544 0.0941489 0.290291 0.312105 -0.372731 0.328037 0.0937799 -0.189694 -0.242018 -0.0254983 0.0823051 0.102184 0.210288 0.330171 0.156344 0.1467 0.427853 -0.0362545 -0.217698 -0.626846 0.0524829 0.202829 -0.0175637 -0.140588 -0.0407969 -0.376083 -0.154397 -0.308632 -0.387433 0.0287462 -0.17748 0.0272395 -0.00806864 0.127304 -0.153377 -0.0124854 -0.575198 0.230425 0.222319 0.0431525 -0.215848 -0.196593 -0.236837 0.12826 -0.0295184 0.110386 -0.123103 0.126035 -0.153244 -0.246213 0.186358 -0.0741966 0.0550876 0.264011 0.143806 -0.264992 -0.19815 0.116124 0.135733 -0.121038 -0.176625 0.265269 0.194773 -0.0755672 -0.0744666 0.0560661 -0.257064 -0.0340284 0.116993 -0.131957 -0.602399
28008855 0.379668 0.0200082 0.330137 0.0756998 0.287617 0.22664 -0.290496 0.215285 -0.222753 -0.0822581 0.231388 -0.167642 0.269637 -0.134997 -0.34649 0.07838 -0.309432 -0.300683 0.0908428 0.236949 0.0808089 0.316513 -0.0333414 0.0287047 -0.159274 0.0455662 0.162992 0.0457646 -0.208002 -0.158365 -0.0252011 0.498181 0.189736 -0.166987 0.338994 0.391541 -0.220589 -0.312397 -0.0227891 0.29077 -0.123012 -0.00521231 0.156912 0.238525 0.134932 0.377389 0.0607628 -0.157529 -0.339231 0.0701942 0.181278 0.0859092 -0.348876 0.0415977 -0.367267 0.153375 -0.347386 -0.417853 0.10905 -0.224805 -0.00757043 0.0683538 0.42614 -0.228282 -0.0420214 -0.657293 0.105937 0.248653 0.131927 -0.278593 -0.00118446 -0.226541 0.205522 -0.259933 -0.00873699 -0.3139 0.183209 -0.0253004 -0.259199 0.14312 0.243617 -0.1072 0.276288 0.0770215 -0.2293 -0.190629 0.0986038 0.0248507 -0.13182 -0.03318 0.276402 0.191455 0.114422 0.0222449 -0.207431 -0.0222874 -0.106903 -0.068018 -0.213075 -0.642929
136884121 0.375309 -0.0861592 0.382005 0.0598153 0.453682 0.196122 -0.132191 0.12317 -0.270414 -0.0593897 0.103324 0.0489313 0.298266 -0.155126 -0.185949 0.0389966 -0.392069 -0.405821 0.118875 0.291581 0.0404208 0.269877 0.0880027 0.083582 0.0508828 0.100737 0.131622 0.0683492 -0.258507 -0.0245855 0.0450063 0.62541 0.155147 -0.0818567 0.333265 0.389431 -0.100661 -0.271892 -0.0399156 0.310396 -0.0610535 0.148685 0.195031 0.0567113 0.102818 0.17281 0.0404893 -0.0666009 -0.339894 -0.140261 0.236215 0.191615 -0.254142 0.179085 -0.353662 0.188111 -0.438854 -0.226074 0.130302 -0.113403 -0.00440516 0.0884302 0.557 -0.217643 -0.0298294 -0.586988 0.14036 0.239254 0.146104 -0.324176 -0.155265 -0.351077 0.151743 -0.210396 -0.0459755 -0.285227 0.240679 -0.126438 -0.301657 0.327309 0.363116 -0.189651 0.396284 0.174914 -0.1595 -0.0246706 -0.0315833 0.112067 -0.213344 -0.134425 0.192277 0.222913 0.153473 0.0518334 -0.302557 -0.200786 0.0168232 -0.124042 -0.27661 -0.697696
175378976 0.0626091 0.184787 0.125081 -0.0151799 0.0616218 0.211042 -0.125455 0.302787 0.0947868 -0.0720398 0.134391 -0.299475 0.404188 0.0505931 -0.226362 0.0886705 -0.411915 -0.34198 -0.017466 0.168082 0.0811785 0.290992 -0.0179156 -0.0829839 -0.0694692 -0.151691 0.0166379 0.152142 -0.441094 -0.292888 -0.105152 0.357808 0.232905 -0.347526 0.374 0.325854 -0.0338956 -0.106162 -0.148545 -0.0239292 -0.134903 0.227457 0.240619 -0.00971496 0.0370963 0.283469 0.0155736 -0.243318 -0.51942 -0.0230663 0.0898222 0.0856684 -0.246346 0.031455 -0.243763 0.0735654 -0.304347 -0.283247 0.141103 -0.302459 -0.135025 0.0403446 0.316267 -0.124641 -0.0839507 -0.574498 0.232095 -0.106624 0.133649 -0.379237 -0.181395 0.0346787 0.0363545 -0.0579477 0.101691 -0.107677 0.0966082 -0.088849 -0.144892 0.325315 0.0823807 -0.0421825 0.364309 0.0529142 -0.0271669 -0.136747 0.0160722 0.056593 -0.0638578 -0.119084 0.243178 0.20257 0.0462408 -0.0514162 -0.126949 -0.302914 -0.00627428 -0.106126 -0.0789032 -0.515975
16434856 0.36149 -0.0426765 0.409036 0.0702311 0.544325 0.407119 -0.122548 0.183325 -0.338805 -0.186796 0.134887 0.0786913 0.342249 -0.197625 -0.108862 0.0472683 -0.390533 -0.395195 0.120146 0.435037 0.190731 0.446473 0.00308312 -0.0111521 0.102497 0.2212 0.109823 0.0978841 -0.293434 0.0188366 0.0432282 0.417433 -0.014085 -0.044703 0.349095 0.214146 -0.195369 -0.425517 -0.0900587 0.316901 -0.256801 0.140562 0.0407247 0.0225069 0.105183 0.0953357 0.0484037 -0.113833 -0.313893 -0.146308 0.071316 0.1596 -0.332347 0.174485 -0.22159 0.390532 -0.518466 -0.216603 0.033198 -0.138023 0.0294506 0.0767242 0.590526 -0.359831 -0.033918 -0.627746 -0.0185132 0.188051 0.254114 -0.30121 -0.02259 -0.283852 0.202279 -0.437544 -0.0714509 -0.23606 0.390104 -0.193328 -0.188532 0.179264 0.466571 -0.290368 0.311825 0.209753 -0.0784886 -0.0325211 0.0539407 0.0920469 -0.363367 -0.184966 -0.0383904 0.123049 0.235678 0.0169604 -0.420597 -0.154762 -0.00288705 -0.265598 -0.341441 -0.612903
321190350 0.411537 0.207819 0.117322 0.214917 0.244728 0.0346654 -0.225591 0.166453 0.00632186 0.0887218 0.451032 -0.334471 0.288909 -0.205886 -0.105414 0.186841 -0.150977 -0.180117 0.0927972 0.019559 -0.0590963 0.272626 -0.0675041 0.163577 -0.0953819 -0.20656 0.495509 -0.0583413 -0.117688 -0.0758856 0.205126 0.0833798 0.170894 -0.313491 0.165673 -0.123975 -0.352755 -0.33863 0.0130049 0.0504091 0.0219763 0.0164558 0.281933 0.184829 0.166999 0.437578 0.0408351 -0.525403 -0.613069 0.0447688 0.0961294 -0.00592067 -0.276138 -0.170522 -0.258781 -0.10433 -0.27018 -0.392678 0.0242328 -0.361359 -0.00482022 0.0334893 -0.0562448 -0.153224 -0.195715 -0.563493 0.0976201 0.37566 0.148606 -0.0977367 -0.125132 -0.0977851 0.102067 -0.250913 -0.115584 -0.120103 0.210074 -0.21256 -0.133157 -0.0449426 -0.0618349 0.0317179 0.0102653 0.0959734 -0.344227 -0.271719 0.290075 -0.000751602 -0.382175 -0.116432 0.135562 -0.132178 -0.00580194 -0.322387 0.0346563 -0.22827 -0.21297 -0.0580619 -0.0542532 -0.57293
41298106 0.358577 0.042934 0.121308 0.0989874 0.246165 0.000778697 -0.0275865 0.205641 0.0329589 -0.106254 0.100653 -0.301036 0.342062 -0.0492782 -0.0832746 0.260069 -0.437898 -0.135738 -0.0548386 0.157945 0.182709 0.247405 0.159407 0.040663 -0.0471316 -0.442381 0.29298 0.136618 -0.101895 -0.190863 -0.0662246 0.256498 0.296536 -0.207057 0.246926 0.0553662 -0.0837594 -0.224492 -0.0246666 0.156011 0.0538668 0.16314 0.313558 0.0773222 0.184545 0.450196 0.119773 -0.287391 -0.440298 -0.157704 0.148603 0.149288 -0.15333 0.0131526 -0.329189 0.0565115 -0.218104 -0.329707 -0.0513302 -0.049078 -0.157945 0.187243 0.276794 -0.286004 0.0128424 -0.209643 0.426383 0.213546 0.100384 -0.140033 -0.216641 -0.0536065 0.142443 -0.237825 -0.0335109 -0.151013 0.100805 -0.179901 -0.364307 0.296112 -0.0926796 0.105723 0.159401 0.0556884 0.0339456 -0.135802 0.14058 -0.0950489 -0.148487 -0.293944 0.137651 -0.00616798 0.0125462 -0.0977708 -0.0978734 -0.0488472 0.0937639 0.0417977 0.0366344 -0.384007
22022795 0.344298 0.310485 0.200992 0.500982 0.0297882 0.27299 -0.323506 -0.0541971 -0.305453 -0.0406502 -0.0606343 -0.263107 0.420515 0.185452 0.192445 0.308331 -0.28012 -0.103848 0.0945554 0.251174 0.227253 0.134651 -0.127756 0.15587 0.0930626 -0.226248 0.163755 0.15689 0.356444 0.0693482 0.0625838 -0.112133 0.298817 -0.266001 0.431868 -0.0920938 -0.383195 -0.209543 -0.156036 0.145847 -0.229717 0.142039 0.227565 -0.119682 0.349943 0.444088 0.180652 -0.0740289 -0.278457 -0.175012 0.181577 -0.197704 0.160376 0.0594377 -0.175342 0.0461952 0.106809 -0.50511 -0.230694 0.0354142 -0.100344 -0.0737058 -0.0893349 -0.176601 -0.0122796 -0.230708 0.311417 0.2302 0.221776 0.123637 -0.194423 -0.387949 0.269462 -0.166633 0.34235 -0.167266 -0.0344909 -0.194033 -0.332274 -0.0226664 0.0057829 -0.0332121 -0.0305938 0.349246 0.217353 -0.210501 -0.0794942 0.220657 0.177574 -0.561555 -0.151375 -0.0886673 -0.189824 0.106554 0.0357878 0.0805746 -0.035141 0.279044 -0.138828 -0.127686
309129656 0.239679 0.0324008 -0.171353 0.117522 0.22621 0.290285 -0.0837346 0.0351255 -0.257603 -0.0715468 0.301165 -0.230864 0.296944 0.123494 -0.0416186 0.305584 -0.439011 -0.183615 0.0899149 0.143957 0.259258 0.370856 -0.0304468 -0.0722653 0.221254 -0.107105 0.152122 0.243681 -0.372286 -0.348707 0.13466 0.14729 0.235948 -0.357261 0.141709 -0.338284 -0.0989839 0.0890715 0.052609 0.180827 -0.235966 0.172535 -0.0467224 0.0486702 -0.0310535 0.0653811 0.0175738 -0.380916 -0.357201 -0.104888 -0.217484 0.292859 0.00864698 0.10499 -0.143054 0.290004 -0.231421 -0.140079 -0.186524 -0.175986 -0.229642 0.0076859 0.22976 0.00201908 -0.181323 -0.364595 0.128104 -0.139616 0.52455 -0.0178391 -0.0679954 0.0254443 0.0586174 -0.430842 0.000398023 -0.0688954 0.101566 -0.292334 -0.0861724 0.293001 -0.00144441 -0.0482052 0.331654 0.368505 0.0616172 -0.157043 0.163698 -0.188502 -0.306899 -0.399588 -0.183029 -0.145025 0.33274 -0.309615 -0.0227803 -0.137041 -0.118906 -0.163502 -0.0844683 -0.0316797
404647567 0.175329 0.24703 -0.182304 0.0833188 0.0445678 0.232242 -0.188301 0.192575 -0.0890331 -0.0860934 0.482313 -0.374142 0.437559 0.110521 -0.21385 0.246875 -0.333329 -0.223805 0.0806111 0.104727 0.184407 0.421615 -0.0262191 -0.036523 0.0285382 -0.175164 0.230143 0.0797116 -0.375458 -0.3817 0.153651 -0.000792169 0.229847 -0.405939 0.13177 -0.213816 -0.143241 0.0980076 0.025919 -0.0280756 -0.235593 0.115329 0.106626 0.0322117 -0.00700493 0.241396 -0.115797 -0.500452 -0.467252 0.0458377 -0.15798 0.103567 -0.0637187 -0.0481352 -0.158503 0.135714 -0.291913 -0.241677 -0.151418 -0.394979 -0.179106 -0.0827858 0.0235638 0.155944 -0.227321 -0.593814 0.150794 -0.21568 0.466804 -0.132102 -0.155162 0.205417 0.0261852 -0.381917 -0.00195874 -0.108701 0.0458422 -0.16738 0.0638666 0.185226 -0.0895719 -0.105876 0.34564 0.302467 -0.154114 -0.33826 0.239181 -0.236401 -0.289821 -0.23556 -0.0557571 -0.181136 0.0726887 -0.359402 0.0412865 -0.0641553 -0.230891 -0.159236 -0.123713 -0.237873
281821250 0.272135 0.0894465 -0.0109719 0.310704 0.227115 0.286123 -0.203814 -0.0352576 -0.225269 0.0654108 0.132655 -0.181166 0.19904 0.109655 0.180133 0.254303 -0.396522 -0.302776 0.0819483 0.0673078 0.192502 0.276215 -0.0470901 -0.0664381 0.206549 -0.0581177 0.322742 0.318869 -0.202144 -0.0820166 0.10816 0.288629 0.157696 -0.435028 0.239227 -0.344499 -0.156578 -0.110061 -0.0061775 0.241682 -0.19108 0.175201 -0.10561 0.10266 0.153996 0.157594 0.246077 -0.30812 -0.330144 -0.188049 -0.0500253 0.294576 -0.070547 0.093139 -0.17813 0.364113 -0.213976 -0.128871 -0.0665817 -0.0834082 -0.356248 0.087272 0.21215 -0.168836 -0.151137 -0.249977 0.0770441 0.0854659 0.295828 0.0487602 -0.0563857 -0.192216 0.134938 -0.39872 -0.015383 -0.0697831 0.184469 -0.295109 -0.232762 0.279908 0.17884 0.0517681 0.116956 0.382239 0.240134 -0.166632 0.16244 -0.035698 -0.143556 -0.55682 -0.207747 0.0141994 0.478285 -0.312916 -0.15609 -0.347036 -0.111977 -0.195794 -0.0917434 -0.152363
245216747 0.302136 0.142256 -0.0900872 0.261547 0.17187 0.321567 -0.249261 0.0351316 -0.0905992 0.0490839 0.306066 -0.323621 0.219638 0.0255514 0.166753 0.217322 -0.281551 -0.22021 0.0205911 0.0659442 0.101749 0.29482 -0.11429 -0.082945 0.0811841 -0.0387049 0.507528 0.162515 -0.188542 -0.0768915 0.145732 0.153948 0.0603457 -0.435676 0.195719 -0.417578 -0.245455 -0.175835 -0.0312035 0.0754703 -0.146284 0.117117 -0.0133555 0.125723 0.0998221 0.188749 0.18004 -0.53967 -0.459202 -0.0760769 -0.115616 0.187339 -0.195631 -0.032699 -0.0909316 0.245818 -0.274891 -0.145018 -0.0420004 -0.257628 -0.264146 0.0376757 -0.00733649 -0.175578 -0.269732 -0.372892 0.0156632 0.11597 0.295858 0.0212827 -0.0499855 -0.124467 0.0528439 -0.369317 -0.0582404 0.00352581 0.190837 -0.334089 -0.0914446 0.0965391 0.137482 0.0533295 -0.0371454 0.277415 -0.0176893 -0.219801 0.220314 -0.0862935 -0.351698 -0.39296 -0.182955 -0.0859832 0.377071 -0.470569 -0.113645 -0.373543 -0.139314 -0.233083 -0.0905998 -0.222672
17482071 0.156916 0.567155 0.128078 0.499232 -0.160265 0.160677 -0.275533 -0.0923538 -0.0778758 0.0541199 -0.0441753 -0.358105 0.568904 0.190361 0.111697 0.271884 -0.291859 -0.224395 0.183269 0.087851 0.133822 0.129164 0.0201301 0.130018 0.0254632 -0.359012 0.229582 0.12859 0.219303 -0.00826435 0.189463 -0.123832 0.30017 -0.273003 0.505863 -0.0672988 -0.297307 -0.133238 -0.217975 0.0507436 -0.138749 0.115181 0.211486 0.00153128 0.374297 0.611851 0.167665 -0.136322 -0.252266 -0.123679 0.242327 -0.125705 0.0708656 0.00271943 -0.352414 -0.0220404 0.0703136 -0.403155 -0.0378137 -0.132844 -0.361441 -0.0835333 -0.0763531 0.214706 0.00388317 -0.332607 0.33328 0.179718 0.107774 0.0689312 -0.359333 -0.143344 0.21554 -0.162935 0.43019 -0.234887 -0.0736323 -0.117661 -0.360674 0.0887824 -0.0376551 -0.0215603 0.0270399 0.558889 0.31861 -0.523707 0.056812 0.121039 0.368755 -0.503025 -0.0798431 0.00711218 -0.238291 0.0831479 0.109333 -0.0500983 -0.104428 0.166251 -0.0979178 -0.326495
37510644 0.235566 0.354707 0.281045 0.592217 0.183648 0.248681 -0.189547 -0.0692103 -0.315073 -0.0600941 -0.183341 -0.117204 0.51029 0.0935738 0.250697 0.374622 -0.370991 -0.198279 0.193256 0.364062 0.393471 0.173304 -0.0262725 0.0982066 0.302329 -0.19915 0.0758227 0.18358 0.341662 0.183596 0.0129925 -0.263928 0.222149 -0.160487 0.480981 -0.110401 -0.399112 -0.34125 -0.233336 0.145183 -0.390415 0.121878 0.189047 -0.317864 0.417003 0.320152 0.198162 -0.0293001 -0.219672 -0.319145 0.114208 -0.177423 0.257095 0.0856138 -0.157188 0.170623 0.14831 -0.420273 -0.248771 0.0400033 -0.145672 -0.0570678 -0.0421508 -0.155088 0.00229694 -0.184164 0.242838 0.249212 0.304756 0.114837 -0.186683 -0.267058 0.332439 -0.309694 0.216905 -0.166834 0.0787121 -0.242118 -0.277746 -0.0198836 -0.0153557 -0.123907 0.015086 0.415169 0.545131 -0.184742 -0.110419 0.349259 0.166753 -0.671297 -0.379388 -0.195351 -0.163422 0.179318 -0.133827 0.0626258 -0.0425861 0.135608 -0.127124 -0.0664385
69513559 0.0795235 0.450296 0.404161 0.496189 0.27237 0.300406 -0.256664 0.0601429 -0.279059 -0.225567 -0.199307 -0.138199 0.33183 0.046606 0.243438 0.358155 -0.338531 -0.208271 0.176676 0.386948 0.418994 0.262568 -0.0766372 0.169064 0.38324 -0.329702 0.0311022 0.22589 0.049751 0.0468116 0.0466617 -0.225537 0.206996 -0.168737 0.425371 -0.0401558 -0.353106 -0.279084 -0.253706 0.244517 -0.500363 0.193941 0.190544 -0.472704 0.354065 0.219562 0.134057 -0.0160539 -0.297828 -0.34226 0.045563 -0.120681 0.26352 0.221251 -0.00623728 0.127839 0.152005 -0.597075 -0.308679 0.0461408 -0.0861988 0.0324728 0.0223995 -0.245365 -0.039909 -0.396135 0.198312 0.10412 0.341831 0.0769279 -0.0022156 -0.165412 0.288397 -0.328527 0.119316 -0.122099 0.200967 -0.317994 -0.253406 -0.0683501 -0.0859566 -0.0860841 0.0504665 0.236832 0.545366 0.0291602 -0.00130296 0.336601 -0.024174 -0.665175 -0.483537 -0.363286 0.0487234 0.132816 -0.140741 -0.0180974 -0.0433161 0.0919739 -0.104234 -0.07544
117590354 0.154604 0.279223 0.263362 0.521014 0.286061 0.269412 -0.187061 0.123894 -0.325006 -0.167993 -0.137313 0.00677522 0.521192 -0.0162954 0.101751 0.43121 -0.469815 -0.231735 0.190162 0.454867 0.433108 0.34329 -0.110183 0.0738983 0.350224 -0.113664 -0.00128032 0.168075 0.259562 0.113029 -0.218856 -0.150546 0.178312 -0.186168 0.389095 -0.0416172 -0.352304 -0.343824 -0.166313 0.189899 -0.477956 0.170251 0.170451 -0.323052 0.391314 0.195004 0.244642 -0.0289222 -0.18408 -0.27421 0.0649127 -0.090225 0.135144 0.0240617 -0.0935727 0.284718 0.207299 -0.416263 -0.360161 -0.0207182 -0.119183 -0.0333475 0.0897307 -0.199123 -0.0979164 -0.193054 0.0510306 0.17913 0.367674 0.153452 -0.0227971 -0.217852 0.376777 -0.358626 0.0524163 -0.107489 0.231215 -0.251698 -0.225203 0.0692839 -0.0318366 -0.157628 0.170954 0.365973 0.618155 -0.192902 -0.0465141 0.412762 0.0818081 -0.678619 -0.403598 -0.303153 -0.0109712 0.0043048 -0.207015 0.00142647 -0.144779 -0.0033998 -0.157669 -0.058692
36724802 0.202615 0.353358 0.262382 0.582316 0.167504 0.269913 -0.224978 -0.0182061 -0.297365 -0.111621 -0.188376 -0.162326 0.490269 0.0964261 0.254259 0.395807 -0.387953 -0.171988 0.131315 0.443548 0.431843 0.172666 -0.0162097 0.0523512 0.314995 -0.233095 0.103901 0.196455 0.325393 0.151455 -0.0402886 -0.297995 0.226182 -0.192498 0.473048 -0.0483239 -0.405251 -0.339439 -0.267285 0.0919009 -0.427231 0.133769 0.247372 -0.424892 0.389648 0.293376 0.194392 -0.0843843 -0.28839 -0.324588 0.073783 -0.248497 0.297766 0.0956485 -0.0859738 0.151866 0.162827 -0.446791 -0.256662 0.0370931 -0.115502 -0.0385873 -0.0981996 -0.203979 -0.0364386 -0.169487 0.29684 0.199492 0.322904 0.112503 -0.158443 -0.221966 0.330916 -0.315849 0.16923 -0.142993 0.0409136 -0.247229 -0.238446 -0.0471214 -0.0803956 -0.124813 -0.00248468 0.320425 0.567641 -0.123303 -0.146685 0.352205 0.111853 -0.691895 -0.398524 -0.264471 -0.164208 0.147144 -0.191799 0.122292 -0.00114496 0.1065 -0.115581 -0.00727744
379085642 0.283356 0.392593 0.233682 0.600818 0.053056 0.187188 -0.265066 -0.159486 -0.278869 0.106622 -0.173278 -0.176831 0.545346 0.178431 0.239549 0.342866 -0.308014 -0.260911 0.170151 0.305626 0.206922 0.082586 0.109163 0.115673 0.184339 -0.160977 0.227293 0.170454 0.397202 0.205658 0.123828 -0.222904 0.250713 -0.193021 0.48906 0.0307238 -0.336912 -0.27274 -0.209492 0.0118198 -0.223404 0.149993 0.187303 -0.211572 0.417707 0.426937 0.224122 -0.0874503 -0.287386 -0.206084 0.260036 -0.289109 0.253639 0.0394141 -0.267401 0.022065 0.0499858 -0.313561 -0.039038 0.0133198 -0.166373 -0.0220024 -0.0479243 0.0253262 9.79613e-05 -0.0599249 0.312586 0.274519 0.147227 0.0974174 -0.376661 -0.247991 0.366267 -0.243203 0.316549 -0.256444 -0.0720047 -0.142116 -0.324335 0.0795589 -0.0238103 -0.152019 0.0305645 0.509406 0.474956 -0.361392 -0.125964 0.275174 0.261724 -0.638147 -0.160587 -0.0839501 -0.277735 0.117729 -0.181908 0.107163 0.0432448 0.0763655 -0.184148 -0.229399
57493322 0.559394 -0.0717236 -0.0248281 0.173932 0.093199 0.308563 -0.29011 -0.0465273 -0.148169 0.0161018 0.0870145 -0.522326 0.361122 0.0636979 0.0033848 0.297666 -0.490628 0.00569325 -0.129227 0.46376 0.066437 0.0377905 0.0235138 -0.177131 -0.112134 -0.221779 0.56693 0.175025 0.197356 -0.180296 -0.0546762 0.312498 0.362899 -0.381202 0.41161 0.214378 -0.335001 -0.32924 -0.1794 -0.0449959 0.0493945 0.113532 0.457444 0.0422729 0.124179 0.489724 0.198241 -0.610675 -0.645195 -0.040133 0.134453 -0.0884506 -0.134493 0.0482603 -0.264778 -0.0283535 -0.145474 -0.326884 0.164734 -0.08568 -0.0701772 0.16585 0.0574541 -0.350788 -0.212436 -0.101367 0.553835 0.402795 0.170255 -0.0713178 -0.324563 -0.337984 0.192035 -0.114183 0.224845 -0.128713 -0.148504 -0.236076 -0.440992 0.201001 -0.039412 0.0756761 -0.0345526 0.101281 -0.0397876 -0.21339 -0.171744 0.0259519 -0.237831 -0.343914 0.28811 0.119322 -0.119523 -0.191763 -0.229128 0.0955419 0.284614 -0.00179218 -0.110334 -0.281892
24702689 0.146365 0.374861 -0.0682552 0.130376 -0.0763704 0.229123 -0.365538 0.279277 -0.0670529 -0.00913231 0.366983 -0.388631 0.380229 0.258172 -0.193868 0.151955 -0.241831 -0.310042 0.0207864 -0.042245 0.107642 0.360595 -0.00257563 0.0386214 -0.110177 -0.251277 0.171845 0.196902 -0.325043 -0.332283 0.0369893 0.0848316 0.270074 -0.512279 0.130292 -0.0241906 -0.0917691 0.10425 0.0731019 0.0227457 -0.191077 0.204211 0.0361198 0.11812 0.119583 0.373326 -0.0155524 -0.356533 -0.424939 0.108092 0.0399428 0.0646552 -0.0835565 -0.0761929 -0.173932 0.0864888 -0.246157 -0.372754 -0.143203 -0.225772 -0.223839 0.0212639 0.101363 0.0544218 -0.152943 -0.446055 0.132453 -0.230032 0.197692 -0.144609 -0.145189 0.139707 0.114756 -0.313281 0.0725308 -0.160905 0.0543624 -0.0488632 -0.0813933 0.23142 0.00169072 -0.0226594 0.327793 0.244996 -0.0192 -0.365445 0.328266 -0.230058 -0.0457524 -0.317087 0.042257 -0.0589932 0.0339321 -0.353275 0.0292985 -0.0763637 -0.198229 -0.0676762 -0.144261 -0.310193
813645 0.377988 -0.0852801 0.415976 0.061448 0.56916 0.490381 -0.164699 0.172725 -0.415987 -0.237033 0.11989 0.106006 0.390299 -0.167058 -0.118475 0.0372295 -0.424179 -0.440571 0.11365 0.546917 0.207121 0.453802 0.00732242 -0.0261229 0.137341 0.311615 0.102717 0.0793248 -0.284419 0.0257411 0.0358766 0.460106 -0.0191142 -0.0202065 0.382494 0.304759 -0.188643 -0.394309 -0.118101 0.293465 -0.305429 0.16983 0.0726891 -0.0670195 0.0685944 0.0147436 0.0175753 -0.1003 -0.316461 -0.171053 0.059121 0.131333 -0.298146 0.234722 -0.186724 0.425139 -0.558317 -0.19167 0.0264186 -0.147703 0.0761042 0.0448651 0.606562 -0.360299 -0.0755379 -0.671575 -0.0214811 0.14227 0.325703 -0.333571 -0.0524138 -0.331411 0.193312 -0.434022 -0.0546424 -0.258403 0.362085 -0.204929 -0.161415 0.21425 0.52317 -0.371381 0.368753 0.230986 -0.100416 0.00416035 -0.0437628 0.119318 -0.404995 -0.201518 -0.0598704 0.1234 0.219372 0.037061 -0.492043 -0.118253 0.0356481 -0.297299 -0.422864 -0.617135
285305025 0.604773 0.0870763 0.263498 0.0667454 0.315949 1.18306 -0.651759 0.160628 -0.899768 -0.594067 0.251695 -0.139259 1.19121 0.32102 0.0350665 0.145433 -0.504832 -0.479706 -0.0752356 1.3529 0.295745 0.592769 0.234925 0.00759179 0.0873585 0.339226 0.44703 -0.11427 0.268286 0.133552 0.192917 -0.275437 0.0194702 0.0275017 0.347469 0.561543 -0.361556 -0.147276 -0.363715 -0.484354 -0.608617 0.648995 0.328095 -0.857855 0.0980695 -0.063667 -0.415708 -0.608191 -0.524007 -0.149862 0.181071 -0.59108 0.109897 0.471594 0.234277 0.329595 -0.683349 -0.0566461 -0.22384 0.0263291 0.476756 -0.105968 0.243004 -0.129295 -0.529794 -0.33985 0.299421 -0.25596 0.621495 -0.355075 -0.699925 -0.463184 0.202745 -0.661288 0.496023 -0.331416 -0.027559 -0.293383 -0.0312605 0.179492 0.609734 -1.03765 0.334633 0.695913 -0.121827 -0.264756 -0.43255 -0.0828057 -0.674882 -0.640408 -0.334597 -0.330633 -0.81112 -0.216712 -0.926966 0.77422 0.576964 -0.315963 -1.16281 -0.504062
462164714 0.645043 0.07713 0.273767 0.0918618 0.308613 1.16036 -0.644904 0.16706 -0.887397 -0.604325 0.234656 -0.136376 1.16221 0.278858 0.0622146 0.154777 -0.491676 -0.452107 -0.0615297 1.36104 0.307222 0.55494 0.273983 0.0255802 0.0955523 0.306568 0.455448 -0.0790811 0.258138 0.160701 0.163866 -0.28568 0.0624956 -0.000175552 0.388872 0.582398 -0.338174 -0.183962 -0.380915 -0.431998 -0.601233 0.653598 0.348998 -0.861081 0.0934307 -0.0397801 -0.39395 -0.578926 -0.54131 -0.148366 0.177272 -0.594182 0.119479 0.458371 0.229803 0.348663 -0.689211 -0.0757172 -0.246846 0.0205263 0.474092 -0.0762999 0.256698 -0.177674 -0.468017 -0.33275 0.299657 -0.235538 0.653621 -0.354047 -0.716305 -0.466874 0.249949 -0.691405 0.488271 -0.311774 -0.0148467 -0.312104 -0.0833553 0.194241 0.628489 -1.04942 0.328511 0.70153 -0.0840061 -0.280111 -0.413824 -0.0507586 -0.669311 -0.648362 -0.350249 -0.348316 -0.820689 -0.206922 -0.912868 0.759462 0.569663 -0.339801 -1.15309 -0.495333
18553324 0.117415 0.373463 0.298498 0.540776 0.220322 0.320735 -0.224295 0.0927206 -0.364869 -0.245188 -0.167336 -0.0483386 0.535579 0.0707066 0.204178 0.365499 -0.419606 -0.211614 0.159366 0.460188 0.5252 0.296291 -0.0647965 0.0907397 0.405497 -0.247188 -0.0451021 0.224331 0.223192 0.116685 -0.0702414 -0.289033 0.202062 -0.203813 0.424963 -0.0728262 -0.366108 -0.301284 -0.249382 0.191216 -0.523746 0.217264 0.210212 -0.504134 0.380777 0.208899 0.113387 0.0221918 -0.228348 -0.365553 0.032387 -0.167156 0.284803 0.154728 -0.0153571 0.271198 0.175299 -0.48266 -0.414191 0.0826179 -0.128955 -0.0568829 0.00171212 -0.227941 -0.0289374 -0.279079 0.214 0.0833846 0.389966 0.123725 -0.0669325 -0.214502 0.330971 -0.401344 0.114882 -0.129274 0.172298 -0.255183 -0.216192 -0.024646 -0.0313156 -0.178092 0.111254 0.370959 0.638438 -0.0942163 -0.0546381 0.345297 0.0883538 -0.752353 -0.526797 -0.327705 -0.094081 0.123782 -0.173818 0.104174 -0.0914954 0.0839811 -0.170995 0.0179389
18030304 0.126821 0.363538 0.348041 0.539481 0.328076 0.264351 -0.185316 0.0911283 -0.279089 -0.202087 -0.152145 -0.0946122 0.390049 -0.0020834 0.184507 0.455501 -0.436583 -0.197585 0.220462 0.431505 0.492545 0.30859 -0.102289 0.0925866 0.404254 -0.276261 0.0325288 0.206736 0.146233 0.0807837 -0.103513 -0.231024 0.225161 -0.203765 0.412406 -0.138912 -0.396373 -0.360416 -0.230421 0.23218 -0.551401 0.120805 0.211484 -0.462137 0.40773 0.23593 0.179392 -0.0899576 -0.267061 -0.347087 0.030537 -0.0804439 0.245506 0.124518 -0.0432207 0.221486 0.207327 -0.555563 -0.35527 -0.00726529 -0.110613 -0.00710831 0.0118917 -0.272847 -0.0679566 -0.328698 0.177183 0.167822 0.424202 0.0909811 -0.00787054 -0.175843 0.325002 -0.348327 0.0467132 -0.0795878 0.212633 -0.328917 -0.217786 -0.0444864 -0.110539 -0.0732496 0.0970022 0.236661 0.594056 -0.0130135 -0.0478183 0.395294 -0.0225166 -0.689594 -0.485573 -0.350678 0.0455834 0.092439 -0.179932 -0.0181788 -0.111472 0.0719841 -0.0842742 -0.0172435
199495161 0.266044 0.0873353 -0.029969 0.298844 0.205885 0.254502 -0.186417 -0.0443903 -0.242662 0.0520283 0.118317 -0.17691 0.206539 0.126512 0.138109 0.278031 -0.391544 -0.253069 0.0984382 0.0670339 0.203547 0.267072 -0.0457865 -0.0584796 0.203944 -0.0940812 0.269318 0.31547 -0.164932 -0.123236 0.0948377 0.259768 0.199797 -0.418299 0.234267 -0.338195 -0.156772 -0.0812133 0.00646061 0.26063 -0.183016 0.149522 -0.0919511 0.113064 0.151072 0.180728 0.212957 -0.274802 -0.287883 -0.153288 -0.0436868 0.288148 -0.0407446 0.0910759 -0.194894 0.327559 -0.163178 -0.153505 -0.0976139 -0.0567756 -0.341723 0.0785871 0.21307 -0.11683 -0.119236 -0.228339 0.107001 0.0818579 0.306377 0.0724915 -0.0620938 -0.170411 0.15145 -0.37597 0.0282187 -0.0877307 0.142288 -0.270496 -0.244236 0.283351 0.114756 0.0531597 0.151846 0.390739 0.247065 -0.183454 0.15247 -0.0453018 -0.0920277 -0.537355 -0.182946 0.010826 0.423887 -0.268593 -0.104294 -0.265026 -0.113523 -0.136367 -0.0833346 -0.110372
26568085 0.653377 0.0915949 0.0230277 0.252171 0.029691 0.514662 -0.394053 -0.0371291 -0.276968 -0.0758371 0.0655872 -0.606446 0.675413 0.179474 0.00711762 0.348114 -0.584235 -0.0581447 -0.117264 0.738481 0.113695 0.135713 0.0178028 -0.158361 -0.119073 -0.199305 0.576708 0.15598 0.341954 -0.164964 0.000229802 0.175666 0.412455 -0.396555 0.607681 0.360601 -0.440649 -0.364937 -0.288347 -0.181183 -0.0546184 0.237672 0.616304 -0.094902 0.180267 0.61591 0.139487 -0.628479 -0.760349 -0.031165 0.1874 -0.304609 -0.0951917 0.0819928 -0.292408 -0.0557416 -0.232097 -0.429838 0.11626 -0.132845 -0.00189265 0.0880816 0.0420926 -0.294171 -0.231398 -0.235579 0.668881 0.348677 0.268912 -0.124612 -0.522286 -0.384631 0.280408 -0.155183 0.467367 -0.218715 -0.217974 -0.244039 -0.47118 0.233385 -0.00369663 -0.130457 0.0508354 0.29412 -0.054097 -0.379802 -0.28458 0.0890852 -0.202959 -0.447927 0.286089 0.115682 -0.405159 -0.113554 -0.276486 0.269735 0.36725 0.0174408 -0.317481 -0.415636
177345928 0.646004 0.0848698 0.018508 0.247868 0.0480818 0.507805 -0.388211 -0.0276624 -0.267046 -0.0826007 0.0740012 -0.585503 0.687854 0.170518 0.0131502 0.337728 -0.583654 -0.070259 -0.113693 0.74721 0.128799 0.143931 0.0336904 -0.163656 -0.102134 -0.18405 0.582024 0.135219 0.328967 -0.1451 -0.0026007 0.162436 0.395086 -0.381022 0.607442 0.352863 -0.430688 -0.370368 -0.29715 -0.191562 -0.0646547 0.229625 0.612402 -0.119846 0.1753 0.592047 0.125301 -0.63924 -0.758509 -0.0471831 0.17603 -0.311007 -0.0808331 0.075845 -0.285924 -0.0433088 -0.252566 -0.406735 0.121076 -0.151622 0.00895739 0.0716035 0.0253037 -0.282538 -0.237091 -0.256811 0.662255 0.334386 0.285437 -0.139504 -0.525249 -0.368115 0.261533 -0.172609 0.431782 -0.219389 -0.212354 -0.244973 -0.439162 0.222811 0.00796765 -0.145376 0.0578291 0.286067 -0.0658972 -0.363481 -0.292114 0.0837972 -0.225802 -0.44483 0.259979 0.0998244 -0.400368 -0.115323 -0.301704 0.268656 0.365409 0.00281537 -0.31957 -0.42322
28301551 0.599863 0.0766713 -0.000650904 0.222659 0.013662 0.42056 -0.357917 -0.0173423 -0.216829 -0.0344568 0.079318 -0.563603 0.586762 0.159638 -0.0166407 0.30951 -0.5263 -0.0338907 -0.105808 0.62283 0.0882791 0.099938 0.00757163 -0.150903 -0.122473 -0.216137 0.526225 0.160359 0.288018 -0.178142 -0.0129346 0.203896 0.4101 -0.408684 0.542808 0.324089 -0.396392 -0.332826 -0.253572 -0.14337 -0.0107259 0.195696 0.579366 -0.0454282 0.163168 0.591453 0.127566 -0.587668 -0.720197 -0.00178224 0.183414 -0.249726 -0.0961855 0.0547266 -0.294781 -0.08032 -0.203616 -0.410057 0.124403 -0.128103 -0.011045 0.0876496 0.0226129 -0.275596 -0.203408 -0.228305 0.632383 0.343129 0.221848 -0.12048 -0.464363 -0.356986 0.246215 -0.11283 0.401452 -0.191987 -0.200019 -0.208162 -0.440196 0.215766 -0.0424413 -0.0579928 0.0617871 0.233253 -0.0699893 -0.335799 -0.235382 0.0738726 -0.176608 -0.387995 0.306533 0.137378 -0.344804 -0.121057 -0.225819 0.213753 0.307577 0.0406792 -0.259065 -0.384114
