200 100
18907368 -0.145088 0.207481 -0.305431 -0.387886 0.291013 0.370589 0.0861259 -0.358925 0.305787 -0.131936 0.328489 -0.164368 0.154712 -0.17311 0.296376 0.0672941 0.227394 0.0789978 -0.136071 0.246941 0.0386431 0.057586 -0.0432034 0.493301 0.113393 0.113503 0.0707539 0.0216003 -0.135433 0.0398274 0.0156391 -0.303166 0.293563 0.185347 0.136304 0.172306 -0.0730884 -0.127768 0.246834 -0.0614295 -0.271288 0.0345168 -0.0372983 -0.222593 0.118162 0.171665 0.285115 -0.338948 0.270196 -0.0546086 0.270068 0.18256 -0.014846 -0.0347268 -0.164176 0.262641 0.0672289 -0.153872 0.0119939 0.251849 0.00938706 -0.304042 -0.0766974 0.176993 -0.0667943 -0.0430774 0.036442 0.150802 0.135807 0.29948 -0.249451 0.323165 0.0446235 -0.0485981 -0.0046035 0.348762 0.0705658 0.073405 0.262661 0.198373 0.195887 0.0402287 -0.243103 -0.243816 0.116696 0.193457 -0.364874 0.0372687 -0.0891772 0.123675 -0.347259 -0.205196 0.00598593 0.241843 0.0837679 0.117317 0.231752 -0.0250366 0.0431424 0.12104
658643 0.0339219 0.0902979 -0.177899 -0.404133 0.267926 0.355579 0.039587 -0.18991 0.226761 -0.165451 0.0627681 -0.198725 0.0336552 -0.0540002 0.210839 0.143705 0.240722 0.124545 -0.180521 0.15653 -0.061272 0.101749 0.249292 0.488334 -0.00552527 0.146765 0.0359206 0.0916258 0.026001 0.096358 0.0320933 -0.201203 0.310707 0.0947415 0.0466886 0.0925659 -0.170263 -0.101704 0.147978 -0.0398522 -0.124615 0.013952 0.062264 0.0820709 0.0884057 0.153219 0.266533 -0.2881 0.0895523 -0.0882418 0.293069 0.190893 -0.132197 0.0528208 -0.294159 0.00900159 -0.170661 -0.22034 -0.0922734 0.0825627 -0.0526146 -0.266461 -0.0568649 0.190576 -0.102066 0.0174816 -0.0395101 0.234687 0.0513765 0.291543 -0.236117 0.206204 0.0368893 -0.038895 0.0675872 0.211972 0.0746495 0.121489 0.241708 0.189836 0.433949 0.100034 -0.159423 -0.282054 -0.000504947 0.103809 -0.342742 0.0295137 -0.0879951 -0.0175584 -0.303352 -0.211576 0.0561743 0.219314 0.0751559 0.0586004 0.117514 0.0646642 0.144552 0.100656
18713 -0.0119436 0.0829533 -0.219549 -0.45981 0.137435 0.366469 -0.0208658 0.0196126 0.334016 0.0587718 -0.00761563 -0.32669 0.0764823 0.0297364 0.146088 0.048424 0.304885 0.335901 -0.128807 0.0483724 -0.0571528 0.154257 0.116719 0.390987 -0.124075 0.14964 0.0390285 0.134519 0.126572 -0.114181 0.0909278 -0.0498547 0.334795 -0.112454 0.010094 -0.00230828 -0.0893311 -0.0934232 0.138408 0.18466 -0.0872887 0.0362267 0.00785438 0.0805431 0.287357 0.294268 0.224696 -0.197614 -0.0762227 -0.227077 0.36439 0.290742 -0.111562 0.153957 -0.222368 -0.190222 -0.283403 -0.230169 -0.353357 -0.108647 -0.150255 -0.172982 -0.235143 0.18911 -0.115001 0.169734 0.0685421 0.24505 0.100963 0.217069 -0.149882 0.327882 0.221521 0.122604 -0.071812 0.0175545 -0.0622523 0.150439 0.328256 0.227387 0.558735 0.145788 -0.285575 -0.23282 -0.145603 -0.149952 -0.088801 -0.0167339 -0.0232939 -0.0627683 -0.424646 -0.144492 0.0777118 0.271257 0.126474 -0.137068 -0.111598 0.0314137 0.0533633 -0.0302432
623523 0.0340393 0.0309192 -0.341577 -0.301647 0.154819 0.34193 0.0467606 0.0155877 0.467948 -0.0900201 0.165936 -0.15194 -0.0626797 -0.00301485 0.338106 0.200928 0.152205 0.213175 -0.0553088 0.11993 0.0348289 0.102522 0.16925 0.390934 0.140656 0.0587442 -0.0535106 0.079585 -0.0125468 -0.171705 0.229621 0.0198919 0.335466 -0.222772 -0.032689 -0.0477915 -0.336155 -0.121654 0.148374 -0.027573 0.165335 0.0972658 0.0874441 -0.0593498 0.195878 0.200227 0.117675 -0.160384 0.0203019 -0.244711 0.486015 0.331958 -0.115011 0.116328 -0.381238 -0.334792 -0.370983 -0.335592 -0.372887 -0.0287916 -0.0813987 -0.308172 -0.1565 0.21835 -0.212666 0.0675487 0.0196502 0.308603 0.125653 0.389718 -0.307406 0.256722 0.164374 0.057679 -0.333285 0.0214727 -0.162931 0.331124 0.448052 0.204768 0.255864 0.247117 -0.243264 -0.183769 -0.0117366 -0.263251 -0.192493 -0.121113 -0.00957564 0.00299178 -0.49649 -0.288572 -0.0068602 0.361484 -0.121868 -0.0465055 -0.149049 0.173104 0.212783 0.0473847
115485051 0.04097 0.12403 -0.265389 -0.128026 0.0977075 0.297386 -0.0262486 0.0683609 0.310293 -0.0657609 -0.059606 -0.095788 -0.173692 0.00965762 0.0246496 0.131028 0.153048 0.332842 -0.11546 0.119187 -0.221485 0.11965 0.121549 0.145888 0.0368835 0.0573494 -0.0151682 -0.0865094 -0.0356424 -0.110701 0.0346927 0.130112 0.200702 -0.260174 -0.0713884 -0.0850885 -0.320755 0.00478642 0.255926 0.0213023 -0.048333 0.307556 0.0692475 -0.0477799 0.117843 0.0976232 0.0277931 -0.0727446 -0.134358 -0.354757 0.292892 0.233718 0.0415251 0.177929 -0.492399 -0.351837 -0.382735 -0.142633 -0.539581 0.0568305 0.0694545 -0.0890674 -0.197401 0.13498 -0.181636 0.103558 0.0814099 0.384973 0.0546107 0.272116 -0.296126 0.0655507 0.351349 0.0301303 -0.252119 0.0960872 -0.188577 0.198437 0.330552 0.186913 0.305326 0.0198009 -0.0245287 -0.164284 -0.122366 -0.0631221 -0.0911945 0.0349743 0.068012 0.00285214 -0.234653 -0.126257 -0.0796874 0.252008 -0.101675 0.135036 0.010415 -0.0660697 -0.0593744 -0.145399
18752156 -0.00243841 0.0101293 -0.351902 -0.266255 0.110401 0.378962 0.0430383 0.0458201 0.531274 -0.0887573 0.0740696 -0.1705 -0.160799 0.0472012 0.26856 0.156572 0.172626 0.257674 -0.0754904 0.103913 -0.0529687 0.11504 0.131209 0.43469 0.141296 0.067615 -0.0739123 0.0947061 -0.0423123 -0.131726 0.203351 0.0925047 0.32997 -0.285819 -0.024384 -0.0939208 -0.367527 -0.13582 0.185399 -0.00484099 0.197703 0.0992846 0.0811891 -0.118021 0.289317 0.178091 0.0427109 -0.126634 0.00271431 -0.341167 0.569087 0.377197 -0.149032 0.0955971 -0.451469 -0.317239 -0.44917 -0.345675 -0.513822 -0.0731546 0.00173592 -0.249177 -0.259926 0.220239 -0.196469 0.0435241 0.0900313 0.326309 0.119013 0.356939 -0.315228 0.204951 0.205852 0.0622718 -0.405115 0.122341 -0.224766 0.430567 0.459824 0.220041 0.255996 0.230602 -0.287577 -0.195788 -0.0275127 -0.331177 -0.166246 -0.164606 0.0241903 0.0421056 -0.541063 -0.277553 -0.0262254 0.38985 -0.140268 0.000808467 -0.129228 0.102304 0.172562 0.0588833
18785699 -0.0557719 0.0246529 -0.405673 -0.379364 0.129338 0.422832 0.00904921 -0.00799668 0.605834 -0.169151 0.155082 -0.225543 -0.12355 0.0219887 0.313247 0.192063 0.215246 0.313397 -0.118298 0.133238 -0.0363069 0.153576 0.14375 0.478396 0.150273 0.0455355 -0.034688 0.0419662 -0.035467 -0.178721 0.245045 0.0102341 0.327327 -0.259696 0.00944672 0.0165052 -0.385487 -0.149535 0.230007 -0.0317329 0.159223 0.125517 0.0914875 -0.113008 0.241991 0.216231 0.140437 -0.172327 -0.0108428 -0.371552 0.598576 0.424931 -0.14836 0.0701311 -0.470911 -0.348211 -0.425707 -0.415536 -0.486776 -0.0263651 -0.0542455 -0.290748 -0.218751 0.246447 -0.233113 0.105303 0.0590843 0.403923 0.119462 0.416151 -0.335502 0.278377 0.254146 0.0814741 -0.391949 0.177766 -0.202286 0.446093 0.495421 0.248185 0.379469 0.236523 -0.275913 -0.283092 -0.00842597 -0.292693 -0.240432 -0.0708181 -0.00981198 0.0898606 -0.572599 -0.366612 0.0156179 0.418544 -0.150045 -0.00927401 -0.0594674 0.0725056 0.163437 0.0681262
8254452 -0.0352224 -0.00402337 -0.408927 -0.340407 0.0939614 0.40333 0.00790872 0.00920283 0.62175 -0.131092 0.172688 -0.213533 -0.137604 0.0429709 0.323322 0.157952 0.211151 0.298367 -0.0859278 0.125155 -0.0222501 0.122731 0.138986 0.484597 0.156355 0.0531591 -0.0559317 0.05267 -0.0485311 -0.204992 0.261898 0.0492395 0.335445 -0.272254 -0.00770291 -0.0119921 -0.389491 -0.139169 0.215695 -0.0101266 0.216498 0.102029 0.0532183 -0.112902 0.255294 0.208628 0.101 -0.149132 -0.0231519 -0.355355 0.618083 0.416093 -0.153493 0.0710574 -0.499525 -0.357746 -0.449436 -0.428154 -0.495351 -0.0512042 -0.0405431 -0.281334 -0.229232 0.245307 -0.236512 0.0956743 0.0797264 0.364795 0.127562 0.397704 -0.323831 0.254556 0.234563 0.0911482 -0.439358 0.153853 -0.223088 0.467129 0.491277 0.260519 0.322454 0.256812 -0.289424 -0.233968 -0.0116203 -0.324346 -0.213116 -0.119024 -0.00605391 0.0911021 -0.603669 -0.347132 0.00549023 0.4137 -0.168207 -0.0261883 -0.0963097 0.103202 0.163559 0.0613501
33080180 -0.0193623 -0.0429525 -0.361481 -0.141217 0.0113363 0.316059 0.0340747 -0.00973748 0.497243 -0.322901 0.0681339 0.0478292 -0.305276 -0.099518 0.0643379 0.182711 0.150968 0.383234 -0.179769 0.0925158 -0.316025 0.227095 0.159735 0.0326527 0.0596984 -0.128078 0.0613509 -0.226497 -0.0208113 -0.168482 0.226487 0.213018 0.0869883 -0.20451 -0.0735693 0.0939583 -0.334735 -0.0515049 0.327651 -0.157655 0.0140688 0.310115 0.139064 0.0203516 -0.0639706 0.201358 0.0890182 0.14132 -0.233691 -0.488404 0.443363 0.314347 0.0256839 0.0524965 -0.647149 -0.512392 -0.230509 -0.378627 -0.305601 0.10479 0.0164756 0.0214779 -0.0106683 0.166093 -0.438893 0.214378 -0.0331977 0.613327 -0.177822 0.28117 -0.299999 0.0773973 0.464357 -0.10219 -0.293641 0.339742 -0.243313 0.262936 0.259669 0.148557 0.489689 -0.116748 0.153415 -0.340657 0.0590607 -0.0813531 -0.253249 0.253162 0.0162525 0.116448 -0.213635 -0.281649 -0.0450496 0.249358 -0.198435 0.161252 0.173817 -0.266361 -0.124988 -0.111094
20108996 -0.00409173 -0.00790842 -0.268104 -0.119214 0.154483 0.264772 0.00807659 0.00544694 0.33977 -0.410862 -0.0332336 0.0248828 -0.241197 -0.133145 0.0839991 0.217214 0.0984891 0.234785 -0.11064 0.030506 -0.135052 0.26489 0.205661 0.0503367 0.142101 -0.0594154 -0.00656346 -0.180059 -0.0228055 -0.219295 0.153442 0.135841 -0.000131656 -0.271443 -0.21243 0.0557217 -0.442582 -0.15604 0.185119 -0.167717 0.0399349 0.319456 0.211989 -0.0546034 -0.0720228 0.0904861 0.111058 0.0808785 -0.255155 -0.383143 0.337962 0.208673 -0.00412976 0.0925214 -0.523266 -0.369358 -0.344785 -0.353716 -0.33851 0.0872661 -0.0650671 -0.123366 0.0124426 0.192453 -0.338489 0.136901 -0.0530461 0.504897 -0.159142 0.369074 -0.293997 0.0541083 0.389384 -0.0185162 -0.160252 0.206964 -0.259255 0.26962 0.278184 0.146945 0.432138 -0.0770195 0.159436 -0.274783 0.0200048 -0.0432175 -0.243566 0.201509 0.0329705 0.100486 -0.263966 -0.295091 -0.0351603 0.260322 -0.202655 0.0191953 0.19748 -0.146866 0.00226299 -0.105822
28205471 -0.0180309 -0.0501267 -0.311714 -0.107446 0.0676046 0.387774 -0.014112 0.0789406 0.439413 -0.377806 -0.0434779 -0.0283067 -0.311884 -0.0562601 0.0759069 0.239585 0.165227 0.423136 -0.130383 -0.0024939 -0.246587 0.304754 0.250854 0.0240918 0.0598564 -0.113354 -0.0376928 -0.227551 -0.0596816 -0.231451 0.201707 0.254563 0.0235222 -0.33018 -0.153441 0.0881576 -0.51171 -0.120754 0.251623 -0.101803 0.108145 0.329103 0.187273 0.0467734 0.0241233 0.121023 0.0749366 0.127207 -0.324034 -0.462802 0.465535 0.349665 -0.0902507 0.0962071 -0.616332 -0.598779 -0.442493 -0.33836 -0.451167 -0.00864966 -0.0724745 -0.0328958 0.0108015 0.205608 -0.400339 0.167322 -0.0599141 0.595477 -0.168052 0.33716 -0.245881 -0.0246061 0.466623 -0.0198124 -0.251801 0.236267 -0.267885 0.354524 0.319061 0.175592 0.563804 -0.052716 0.206346 -0.30526 0.0209155 -0.166807 -0.13086 0.196012 0.0336958 0.0133308 -0.311131 -0.364663 0.02573 0.271613 -0.246132 0.0696849 0.107892 -0.219662 -0.0819087 -0.138097
27722990 -0.0158991 -0.0349637 -0.305247 -0.0976009 0.0608054 0.335563 -0.0443403 0.0926105 0.436729 -0.387526 0.013367 -0.000576565 -0.344087 -0.0616139 0.0890937 0.229791 0.127734 0.371861 -0.0952895 0.00546214 -0.211853 0.254257 0.244911 0.029808 0.10238 -0.109603 -0.0767861 -0.219124 -0.0596485 -0.208224 0.176605 0.218714 0.034339 -0.288165 -0.136558 0.127904 -0.485114 -0.106785 0.24259 -0.150011 0.135099 0.291657 0.167487 0.0250501 -0.0245922 0.103066 0.0633602 0.102075 -0.275422 -0.444818 0.433229 0.280726 -0.0924938 0.0340896 -0.620923 -0.525959 -0.393483 -0.340736 -0.395581 0.0093332 -0.0293355 -0.0637131 0.00902121 0.162558 -0.364003 0.149445 -0.0488555 0.563798 -0.149243 0.359476 -0.232253 -0.0342117 0.423139 -0.0453237 -0.235954 0.266051 -0.256414 0.346037 0.298142 0.203656 0.48473 -0.0360232 0.168747 -0.28109 0.0624545 -0.112094 -0.165927 0.200762 0.0273766 0.062135 -0.303226 -0.336056 0.00423545 0.293512 -0.268954 0.100184 0.141784 -0.201099 -0.0615316 -0.10738
4258591 -0.109242 -0.00755137 -0.286619 -0.108896 0.0561797 0.366685 0.00167313 0.0475042 0.498703 -0.373968 0.0106528 -0.0303655 -0.262206 -0.0277434 -0.059969 0.173083 0.114038 0.445413 -0.145364 -0.0288149 -0.287279 0.285939 0.123767 -0.0177702 0.101772 -0.134887 0.0177847 -0.264453 -0.0750031 -0.201428 0.164128 0.178961 -0.0166812 -0.297729 -0.123515 0.133886 -0.388291 -0.125905 0.268692 -0.111122 0.0250841 0.357614 0.149799 -0.0671756 0.0578441 0.152366 0.087264 0.158476 -0.29113 -0.492589 0.425181 0.322712 -0.0622069 0.0389402 -0.541727 -0.43598 -0.302154 -0.363177 -0.377713 0.0504068 -0.0114313 0.0559944 -0.0592566 0.216969 -0.358274 0.13902 0.00408555 0.546411 -0.144568 0.306884 -0.199468 0.0356935 0.527995 -0.0080608 -0.208357 0.314853 -0.283045 0.350039 0.280321 0.153929 0.536876 -0.137352 0.188808 -0.374298 0.079845 -0.074423 -0.156334 0.215646 0.0343325 0.0583831 -0.223818 -0.30579 -0.0214224 0.260776 -0.187173 0.0834995 0.240239 -0.340842 -0.131323 -0.11697
1289661 -0.0422357 -0.0513246 -0.286847 -0.0808597 -0.0147212 0.390718 -0.0359888 0.070795 0.520899 -0.283447 0.0631989 -0.0183789 -0.206109 -0.0111466 0.00660419 0.0985626 0.16643 0.32624 -0.135432 0.0393165 -0.259895 0.259225 0.120136 0.0888116 0.0208827 -0.0939524 0.0202041 -0.211716 -0.0440521 -0.16041 0.149319 0.179994 0.0586965 -0.206037 -0.105172 0.15433 -0.337286 -0.0361481 0.260168 -0.11555 0.0834362 0.25958 0.0098813 0.0779715 -0.0649166 0.0508862 0.126271 0.115562 -0.192111 -0.3441 0.420722 0.30297 -0.0630801 -0.0331533 -0.520839 -0.289079 -0.2455 -0.397599 -0.243819 0.0706627 -0.0284336 0.0205802 -0.0043819 0.155644 -0.278106 0.037006 -0.0711926 0.479731 -0.0282924 0.19667 -0.224831 -0.0145313 0.342075 -0.0387213 -0.230493 0.2997 -0.180371 0.263965 0.233365 0.187634 0.463044 -0.00770709 0.122033 -0.317124 0.0570149 -0.0835411 -0.145499 0.153635 -0.0201642 0.19969 -0.25643 -0.33548 -0.0427858 0.170785 -0.101944 0.0507032 0.26425 -0.185444 -0.0569571 -0.147468
15398649 -0.107862 -0.0473225 -0.328519 -0.0657964 -0.0263583 0.360583 0.0438976 -0.0777679 0.511948 -0.299853 -0.0657429 0.0249662 -0.208859 -0.130054 -0.0263131 0.120119 0.22812 0.406504 -0.278455 0.0886693 -0.36945 0.28795 0.0581237 0.031682 0.0025685 -0.0502386 0.086487 -0.270201 -0.0606365 -0.15825 0.226217 0.249919 0.0768956 -0.236052 -0.0068434 0.0384424 -0.32732 -0.0327247 0.31668 -0.11803 -0.0911839 0.339318 0.114391 0.0265632 0.0439903 0.186894 0.0967364 0.134081 -0.252871 -0.555898 0.447882 0.371959 0.0289067 0.10627 -0.59371 -0.484753 -0.246901 -0.329455 -0.390308 0.116586 -0.00625294 0.143204 -0.0722531 0.209567 -0.448991 0.150609 -0.0380155 0.600175 -0.153041 0.199958 -0.313509 -0.0164356 0.480051 -0.128335 -0.223572 0.352439 -0.215922 0.230754 0.188126 0.0973101 0.488394 -0.211215 0.196177 -0.362842 0.0290622 -0.0492975 -0.206685 0.236546 -0.00181652 0.124249 -0.19346 -0.323216 -0.0779888 0.114312 -0.0978911 0.24516 0.202525 -0.314383 -0.148673 -0.0927384
17869879 -0.144886 -0.0814236 -0.277226 0.0395889 -0.117929 0.330623 -0.0534426 0.0644465 0.616632 -0.324222 0.0582219 -0.0400216 -0.267194 0.0552863 -0.0287394 0.020612 0.154783 0.304038 -0.095961 0.0449037 -0.176813 0.193911 -0.106334 0.106759 0.0950753 -0.021175 -0.00363675 -0.210872 -0.147671 -0.139373 0.105414 0.173537 0.0564003 -0.250126 -0.0430137 0.146732 -0.380378 -0.0562023 0.230789 -0.176923 0.133155 0.195577 0.0293473 -0.0115405 0.0677219 0.00106391 0.00912073 0.103945 -0.138491 -0.401695 0.397781 0.264072 -0.0579244 -0.107776 -0.504577 -0.223172 -0.304505 -0.363906 -0.235084 0.0397864 0.0289513 0.105609 -0.0162524 0.105466 -0.247996 -0.071623 0.0152124 0.401804 -0.0446474 0.139225 -0.224654 -0.098744 0.316576 -0.0537834 -0.214661 0.413056 -0.202682 0.372608 0.170228 0.123414 0.326035 -0.0190504 0.122079 -0.273459 0.0707741 -0.0729434 -0.120112 0.167654 0.0628661 0.274489 -0.331157 -0.326296 -0.039884 0.128919 -0.160997 0.11887 0.2652 -0.22718 -0.128647 -0.0126832
32805127 -0.113678 -0.0609675 -0.371326 -0.0202689 -0.00312725 0.377809 -0.0331963 0.0158694 0.505631 -0.302775 0.0708768 0.0227949 -0.230031 -0.0924757 0.0430285 0.0976008 0.159222 0.418885 -0.133445 0.0692118 -0.317882 0.287635 0.0682373 -0.00335287 0.111433 -0.146577 -0.0415795 -0.288021 -0.0851512 -0.189552 0.153204 0.274489 0.0505522 -0.20662 -0.111058 0.199752 -0.406785 -0.0608405 0.336792 -0.171585 0.0960198 0.292672 0.0016524 0.0635484 -0.00250865 0.119433 0.0854727 0.0960922 -0.235115 -0.415364 0.430694 0.350527 -0.0661789 -0.0242373 -0.549666 -0.429325 -0.242063 -0.372483 -0.287954 0.0901221 -0.034172 0.0944107 0.0252905 0.148536 -0.399254 0.0370478 -0.117166 0.528485 -0.0672625 0.278539 -0.242513 -0.0751889 0.474814 -0.10769 -0.2673 0.35781 -0.208891 0.269225 0.23666 0.183513 0.493689 -0.100461 0.212501 -0.310238 0.0835567 -0.0536852 -0.132865 0.180117 -0.0392769 0.149971 -0.310756 -0.388553 -0.0976407 0.162427 -0.118857 0.184154 0.208308 -0.240479 -0.114388 -0.108164
30072713 -0.117646 -0.0443756 -0.30551 -0.106372 -0.00656421 0.372202 -0.0295751 -0.0151634 0.495349 -0.287688 -0.00768616 -0.0211245 -0.211954 -0.0701867 -0.0199254 0.0964182 0.23523 0.407604 -0.158246 0.0817296 -0.280443 0.275635 0.0919752 0.0280737 0.0148467 -0.0695448 0.0568056 -0.250423 -0.0637064 -0.223739 0.169717 0.202624 0.0852907 -0.244826 -0.0965657 0.129964 -0.321475 -0.0598501 0.270965 -0.107744 0.0068214 0.290823 0.0946557 0.046816 0.0427952 0.143375 0.119442 0.0872166 -0.308975 -0.463251 0.412277 0.322487 -0.0163979 0.0439227 -0.544106 -0.439741 -0.243693 -0.37238 -0.333854 0.0224662 -0.0396439 0.0644204 -0.039912 0.167154 -0.380788 0.166832 -0.0708544 0.532828 -0.0975497 0.232077 -0.284839 0.0348729 0.476561 -0.0837582 -0.189384 0.308513 -0.21651 0.262395 0.206417 0.152633 0.56225 -0.0891452 0.131506 -0.326538 -0.00242301 -0.0604439 -0.162331 0.241959 -0.0276568 0.117842 -0.299683 -0.333273 -0.0380827 0.17303 -0.112509 0.147012 0.19272 -0.265635 -0.100842 -0.101115
5553152 0.0249134 -0.105211 -0.308555 -0.203178 0.0831727 0.270273 -0.131851 0.0445295 0.411011 -0.231681 0.0742996 -0.095791 -0.193475 0.0375045 0.145875 0.1313 0.124377 0.189244 -0.171411 0.0154874 -0.0923875 0.220174 0.136761 0.122456 0.110089 -0.0104958 0.0127872 -0.147585 0.0654259 -0.173736 0.125844 0.174426 0.045714 -0.113506 -0.0675173 0.0762725 -0.314557 -0.066474 0.0717339 -0.207222 0.0957783 0.191083 0.0833029 0.0985374 -0.125484 0.159867 0.0796504 0.0494455 -0.166208 -0.376645 0.391757 0.238946 -0.107351 0.0593351 -0.399938 -0.248753 -0.329235 -0.349006 -0.186478 0.1529 -0.035195 -0.11645 -0.0866369 0.211824 -0.283896 0.083301 0.0168184 0.425947 -0.01003 0.261385 -0.147835 0.0199778 0.155864 0.0221354 -0.142199 0.215974 -0.118513 0.251151 0.137577 0.288763 0.380863 0.00112 0.103115 -0.283237 0.10741 -0.0904428 -0.201225 0.153879 0.0317326 0.170309 -0.213236 -0.334161 -0.0127899 0.17865 -0.0704168 -0.0284528 0.203919 -0.053116 0.0214463 -0.0487039
249359476 -0.0445032 0.0456893 -0.275636 -0.431416 0.128452 0.110847 -0.201467 0.0671508 0.265277 -0.197892 0.0447329 -0.288662 0.018374 0.0764946 0.395929 0.162587 0.234239 0.134757 -0.333577 -0.0735865 0.103892 0.0855686 0.0941795 0.439024 0.0621175 0.214732 -0.000645827 0.1545 0.154919 -0.14312 0.0337146 -0.140101 0.0502165 -0.118003 0.130809 0.0453485 -0.264832 -0.131107 0.119879 -0.0106653 -0.138161 0.011882 -0.0167332 0.049973 0.00900794 0.276711 0.0606266 -0.155548 -0.0163144 -0.317677 0.342145 0.232478 -0.184348 0.173665 -0.332269 -0.251127 -0.523096 -0.104074 -0.387105 0.192372 -0.0512341 -0.405677 -0.229156 0.250526 -0.115059 0.224971 0.224202 0.262983 0.048365 0.318257 -0.0507641 0.192808 0.119948 0.188408 -0.187068 0.135014 -0.196718 0.187261 0.322766 0.399914 0.243483 0.00692364 -0.045778 -0.258806 0.0336623 -0.0335091 -0.247052 0.0595965 0.210349 0.103958 -0.342324 -0.132274 0.291501 0.349495 -0.0508505 -0.160527 -0.0334532 0.124877 -0.137782 0.083601
15983724 -0.0418385 0.0188073 -0.203018 -0.385344 0.110139 0.0965922 -0.134568 -0.110117 0.259818 -0.108256 0.174034 -0.208494 -0.0221235 0.0259653 0.380823 0.0903357 0.228144 0.100755 -0.278689 0.0640888 0.0846942 -0.000754972 0.0969767 0.481637 0.15927 0.271802 0.0420809 0.210711 0.171556 -0.0592112 0.0408304 -0.175776 0.119635 0.0629037 0.186963 0.0663051 -0.184616 -0.077943 0.157318 -0.0467553 -0.196965 -0.0297471 0.0174148 0.0257974 0.0304355 0.305928 0.0816194 -0.240749 -0.00339681 -0.229315 0.403119 0.148251 -0.106523 0.135601 -0.365798 -0.11716 -0.385454 -0.171484 -0.300574 0.204985 0.0488497 -0.369921 -0.221581 0.186408 -0.130392 0.145995 0.23774 0.203559 0.011442 0.349596 -0.0665918 0.293666 0.0417221 0.0779624 -0.0581892 0.198632 -0.148933 0.110541 0.189229 0.383737 0.26206 -0.0289589 -0.14311 -0.224484 0.0127448 0.0877056 -0.398476 0.0608072 0.0817117 0.100629 -0.268158 -0.0567325 0.12621 0.321916 -0.0579562 0.0175415 -0.0138096 0.0740879 -0.0595783 0.223216
5743852 0.00836151 0.0647433 -0.20303 -0.418993 0.21166 0.223452 -0.0541286 -0.0196231 0.209083 0.00411096 -0.028263 -0.230725 0.000811895 0.0109877 0.136586 -0.0159332 0.202197 0.262039 -0.188517 0.0449901 -0.0660278 0.101495 -0.000573953 0.476845 0.0650221 0.0670546 0.0189925 0.0998615 0.108361 0.0965936 -0.0929136 0.0509129 0.202775 0.0370659 0.0205239 -0.00148484 -0.0320268 -0.103472 0.27782 3.74658e-05 -0.0307265 -0.0701021 -0.000199422 -0.0910186 0.159769 0.219868 0.122889 -0.199157 0.158314 -0.123731 0.318123 0.331731 -0.173008 0.0972212 -0.149604 0.103324 -0.268776 -0.288207 -0.400282 -0.0549628 0.115951 -0.275418 -0.372357 0.0118001 0.0190545 0.0608268 0.0629484 0.187018 0.0914413 0.27069 -0.166542 0.323323 0.282168 0.118854 -0.242 0.330108 -0.244433 0.163637 0.229235 0.321144 0.32004 0.192276 -0.347095 -0.162161 0.0627611 -0.121266 -0.227282 -0.123648 0.0298407 0.0688922 -0.32251 -0.113066 -0.0459496 0.37564 0.111689 -0.0578162 -0.0603618 0.00573299 0.100768 0.0707788
814306 -0.197592 0.0497673 -0.134276 -0.36263 0.208078 0.192557 -0.0301468 -0.319859 0.180221 -0.10128 0.122379 -0.226423 -0.00842473 0.0784198 0.0617484 -0.0858727 0.127342 0.149397 -0.142331 0.300652 -0.097861 0.0554887 -0.000139687 0.431136 0.154814 0.190222 0.116194 0.0611435 -0.121686 0.119029 -0.0648813 -0.177421 0.260138 0.189799 0.019281 0.26218 -0.0396838 -0.18215 0.147121 -0.0265041 -0.147963 0.00803476 0.120273 -0.170459 0.361065 0.16209 0.121484 -0.392108 0.122712 -0.0935378 0.225373 0.263007 -0.067955 -0.0657189 -0.10687 0.269708 -0.110597 -0.178752 -0.154399 0.0356216 0.0921157 -0.187664 -0.241337 0.0942146 0.0238389 0.020402 0.0643079 0.0812113 0.0884845 0.254673 -0.264282 0.349145 0.174584 0.0197001 -0.0780974 0.373342 -0.0162703 0.274096 0.266031 0.266538 0.323462 0.0968345 -0.23085 -0.279365 0.061052 0.092998 -0.239805 0.031361 -0.168225 0.0454455 -0.393522 -0.148302 -0.0892442 0.268535 0.117832 0.125395 0.248917 -0.16284 0.100619 0.362062
23244640 -0.255176 0.195519 -0.113183 -0.315366 0.211981 0.332953 0.00520998 -0.413314 0.233796 -0.203178 0.0423204 -0.225206 0.0438566 0.0180564 0.235509 0.0984062 0.145886 0.0461047 -0.224907 0.275258 -0.0719793 0.0944802 -0.06624 0.420411 0.132881 0.182182 0.0528722 0.134407 -0.171637 0.0983659 -0.0969466 -0.194486 0.187553 0.0833857 0.231216 0.101543 -0.243696 -0.128591 0.215248 0.00619006 -0.227989 0.131871 0.182992 -0.327684 0.258974 -0.0284733 0.0893243 -0.294673 0.150902 -0.164157 0.316888 0.183697 -0.0203992 -0.00389698 -0.0932181 0.218106 -0.158933 0.03085 -0.259379 0.183687 0.0856139 -0.238607 -0.219619 0.159341 0.0314721 -0.17767 0.16738 0.145845 0.1545 0.261398 -0.175403 0.271399 0.108822 0.0501202 -0.16413 0.315995 -0.0242636 0.280379 0.335337 0.120903 0.119173 0.055771 -0.200291 -0.277176 -0.0516789 0.0573667 -0.286356 -0.0331078 -0.0831672 0.0871298 -0.330788 -0.173612 -0.117326 0.283988 0.0340288 0.228255 0.257876 -0.12785 -0.0107491 0.216458
15803690 -0.221823 0.115428 -0.200367 -0.151281 0.0548634 0.263775 0.0218343 -0.0459043 0.364002 -0.263986 0.037696 -0.134002 0.119689 -0.0624138 0.0726892 0.029776 0.148099 0.159658 -0.231773 0.0404899 -0.0456656 0.162568 -0.173451 0.262872 0.01568 0.0350792 0.0183566 -0.0373013 -0.186349 0.170801 -0.0994359 -0.160733 0.205515 -0.0955833 0.155155 0.108033 -0.16822 -0.0595587 0.267885 0.0250277 -0.150436 -0.0163253 0.00743096 -0.217056 0.161557 0.0430036 0.0863134 -0.0905405 0.198383 -0.252962 0.160578 0.142656 -0.0914448 -0.0644311 -0.1349 0.115299 -0.129674 -0.109996 -0.141308 0.0447357 -0.00660323 -0.0856018 -0.255014 0.0645056 -0.0771565 -0.0124424 0.181446 0.156006 0.0417381 0.227847 -0.122322 0.189352 0.325894 0.0328799 -0.117082 0.311551 -0.208231 0.130068 0.147201 0.0888871 0.101772 -0.112468 -0.129239 -0.297349 0.166977 0.0370894 -0.262739 0.0667087 0.0633475 0.0830697 -0.284988 -0.218599 -0.039703 0.274044 0.0310563 0.174609 0.242111 -0.179346 -0.0848301 0.114497
16381663 -0.162937 0.208774 -0.256563 -0.365049 0.260486 0.381763 0.0972625 -0.325529 0.362623 -0.118999 0.313093 -0.197563 0.0729347 -0.125067 0.261574 0.00893497 0.196466 0.124729 -0.0635817 0.164705 0.0118233 0.0363435 -0.0475081 0.482639 0.169488 0.291376 -0.084598 0.0904507 -0.0859483 0.0257724 0.00274152 -0.200235 0.373405 0.145506 0.172831 0.183816 -0.0342244 -0.174143 0.195152 -0.000235121 -0.259197 -0.0138427 -0.0128062 -0.191665 0.325894 0.159423 0.157597 -0.312578 0.224895 -0.164077 0.319637 0.0993292 -0.0788392 -0.0214175 -0.191758 0.300283 -0.00714034 -0.141795 -0.107373 0.234971 0.0861501 -0.209908 -0.115152 0.167303 -0.0438018 -0.132429 0.121218 0.132985 0.119215 0.351068 -0.20835 0.293687 0.0649607 -0.0523986 -0.0146922 0.30636 0.0911639 0.175716 0.337362 0.235566 0.213249 0.0470839 -0.263271 -0.225607 0.089128 0.154676 -0.302431 -0.0899428 -0.129121 0.0652162 -0.415895 -0.0869061 -0.070892 0.320937 0.098304 0.122568 0.226444 -0.0464471 0.0399263 0.222765
8161622 -0.00893048 0.0878577 -0.216222 -0.36948 0.255831 0.22231 0.104067 -0.31327 0.28453 -0.0618465 0.196712 -0.0810293 0.0703633 -0.140068 0.298029 -0.0481029 0.145371 0.0435964 -0.144888 0.286501 -0.0541091 0.0509662 0.01321 0.481066 0.0889702 0.266915 0.0835857 0.0843618 -0.00457988 -0.0324195 0.0371394 -0.0793411 0.337767 0.215976 0.038729 0.0685073 -0.102356 -0.0828347 0.221537 -0.0431924 -0.231162 -0.0122365 0.00123226 -0.0713861 0.153116 0.126022 0.174067 -0.278286 0.214849 -0.0477107 0.26645 0.272568 -0.017051 0.0417723 -0.250881 0.196273 -0.0199185 -0.216279 -0.162644 0.165853 0.0894485 -0.284359 -0.0199263 0.0977351 -0.1049 -0.107864 0.0229577 0.19415 0.121323 0.276641 -0.317548 0.30838 0.00751094 -0.0144877 -0.132324 0.25333 -0.0216979 0.133947 0.274079 0.203008 0.257756 0.132772 -0.154272 -0.173776 0.0566248 0.0592677 -0.376733 -0.0649809 -0.096684 0.193795 -0.387455 -0.110369 -0.121067 0.244621 0.0851315 0.0682636 0.17481 -0.0162023 0.110952 0.223411
8789452 -0.141389 0.144876 -0.174903 -0.401855 0.314659 0.320613 0.103781 -0.275462 0.241164 -0.217362 0.0828072 -0.15168 0.0463377 -0.0360564 0.173037 0.0358221 0.174955 -0.0426692 -0.114454 0.248152 -0.00976533 0.114476 0.082315 0.443677 0.0552607 0.211953 0.121658 0.0938486 -0.0831578 0.0309435 -0.0709378 -0.230812 0.174774 0.125152 0.0758422 0.0642008 -0.116821 -0.152513 0.213628 0.0113736 -0.258015 0.186047 0.134062 -0.35953 0.14106 0.0790944 0.163644 -0.358753 0.110764 -0.0728239 0.261331 0.123334 -0.0907575 0.141159 -0.217803 0.263591 -0.0713606 -0.0576086 -0.207754 0.117881 0.138956 -0.285626 -0.14856 0.126881 0.0270979 -0.0336468 0.141805 0.156155 0.135501 0.243602 -0.256549 0.33714 0.127706 0.0649872 -0.0606092 0.3123 -0.0220772 0.19525 0.354886 0.175824 0.192907 0.147608 -0.215024 -0.158323 -0.0121868 0.102344 -0.344474 0.0118365 -0.0816841 0.0880459 -0.377438 -0.0560446 -0.0670918 0.36052 0.017214 -0.0219922 0.300367 -0.00734599 0.0829179 0.159025
8094152 -0.234508 0.151024 -0.195914 -0.428566 0.341706 0.339096 0.0658011 -0.423366 0.240811 -0.102767 0.198944 -0.250907 0.0420729 0.0418636 0.244783 0.00112709 0.189817 0.146515 -0.093905 0.306337 -0.0606802 0.0642121 -0.0276374 0.527574 0.13593 0.113709 0.118176 0.095889 -0.140233 0.0490034 -0.0875798 -0.276318 0.194541 0.163146 0.126072 0.146344 -0.0724155 -0.169785 0.246342 -0.0801119 -0.136187 0.1056 0.0908639 -0.365606 0.230519 0.122764 0.141251 -0.367354 0.139258 -0.0667274 0.289396 0.238552 -0.0605109 0.00259068 -0.111247 0.250575 0.00226586 -0.055209 -0.146261 0.15498 0.217272 -0.235031 -0.213079 0.129828 0.0506161 -0.114496 0.0705605 0.12938 0.212108 0.199705 -0.27166 0.405366 0.037562 -4.09936e-07 -0.17452 0.374684 0.0673427 0.252122 0.311877 0.126363 0.202545 0.157584 -0.235608 -0.298166 -0.0325341 0.0434026 -0.2755 -0.0393298 -0.0817969 0.067031 -0.424866 -0.133567 0.017119 0.266667 0.0473835 0.139675 0.215091 -0.0899477 0.0640024 0.166979
1527091 -0.116123 0.111486 -0.220723 -0.336508 0.236606 0.288235 0.0436803 -0.347668 0.199092 -0.150667 0.00933462 -0.101362 0.162126 -0.0690875 0.296929 0.0984401 0.213791 0.0190046 -0.273728 0.2068 -0.0171806 0.144036 0.00388486 0.399578 -0.0190896 0.111455 0.144987 0.133941 -0.141965 0.0040773 0.00146273 -0.188592 0.212635 0.0744545 0.0861181 0.00499063 -0.191194 -0.104315 0.225347 0.0179874 -0.274534 0.0228983 0.0853769 -0.227813 0.18953 0.0441113 0.182537 -0.202911 0.0667938 -0.0304705 0.288567 0.286171 -0.0204065 0.0866057 -0.166496 0.0991875 -0.115775 -0.0954196 -0.213829 0.14044 0.00906282 -0.275257 -0.104277 0.218235 -0.0814639 -0.0266397 0.13299 0.147743 0.126831 0.231115 -0.18551 0.350578 0.0691614 0.0378252 -0.131455 0.219511 -0.114704 0.150598 0.256586 0.0809164 0.242978 0.0493538 -0.124328 -0.267781 0.0211512 0.00385482 -0.354881 -0.0425736 -0.000425827 0.133283 -0.364255 -0.179068 -0.00434986 0.215523 0.0417488 0.0877412 0.166174 -0.0523384 -0.0713041 0.144448
5973352 -0.124248 -0.043994 -0.261145 -0.381115 0.236461 0.397569 0.0683476 -0.155751 0.374067 -0.0877438 0.207574 -0.169888 0.0789873 -0.0208094 0.263337 0.151354 0.267904 0.147862 -0.249072 0.132753 0.0984635 0.125605 0.0298039 0.456728 0.0651236 0.182838 0.140048 0.113318 -0.0273026 0.107125 0.0867576 -0.181704 0.334021 0.0648994 0.217674 0.0649121 -0.0971277 -0.0857875 0.0501037 -0.125184 -0.154177 -0.0944259 0.080952 0.0534135 0.158449 0.223675 0.158049 -0.234428 0.268092 -0.158787 0.32706 0.250986 -0.183728 0.0135291 -0.121016 0.0800257 -0.111952 -0.290376 0.0456043 0.135317 -0.12027 -0.227518 -0.152735 0.233787 -0.121476 -0.0480584 0.0192306 0.217705 0.0881886 0.156867 -0.176547 0.324224 -0.0135116 -0.0666276 0.133267 0.271628 0.130818 0.127613 0.118702 0.187068 0.257441 0.0739038 -0.213146 -0.335284 0.113333 -0.0892833 -0.346253 -0.00871985 -0.049109 0.0984155 -0.314209 -0.389721 0.0519257 0.160342 0.115415 0.0481383 0.0690986 -2.49101e-05 0.0736377 0.199791
6053842 -0.190628 0.0895807 -0.240062 -0.320767 0.271356 0.317474 0.0373282 -0.216575 0.232762 -0.0846461 0.0970651 -0.20653 0.157194 0.0187773 0.297047 0.145971 0.216623 0.14847 -0.309441 0.223944 0.0643559 0.134012 -0.0307705 0.403242 0.11751 0.190879 0.123107 0.0845993 -0.0486878 0.0539468 0.0381949 -0.174368 0.267357 -0.0262934 0.208495 0.0660834 -0.267455 -0.0894563 0.194094 -0.0595254 -0.214125 -0.00985081 0.0809988 -0.161305 0.226167 0.139811 0.0836667 -0.254691 0.215928 -0.0896418 0.236126 0.392204 -0.139654 0.0438466 -0.0243 -0.0062249 -0.185106 -0.145246 -0.276842 0.169846 -0.0855096 -0.314882 -0.143179 0.19393 -0.0573857 -0.0859676 -0.00403037 0.193075 0.204731 0.217565 -0.236567 0.379765 0.185734 0.0711936 -0.0792208 0.248369 -0.0161779 0.0940183 0.2312 0.207684 0.213117 0.0050392 -0.133059 -0.291675 -0.0646861 -0.132407 -0.306248 -0.0309551 0.0383522 0.112756 -0.393281 -0.329102 0.0328055 0.195393 0.0442906 0.113209 0.00793422 -0.060647 0.018534 0.185985
28405220 -0.246117 0.143472 -0.34335 -0.39343 0.288001 0.263119 -0.0333549 -0.107934 0.309949 -0.31719 0.06741 -0.321899 0.218815 -0.0409253 0.397844 0.259301 0.222477 0.275813 -0.361818 -0.0989661 0.120265 0.205117 -0.119833 0.529296 0.232668 0.10182 -0.0756868 0.0613825 -0.089471 0.0599272 0.0411557 -0.204885 0.157343 -0.0793377 0.252365 0.193182 -0.24935 -0.294505 0.167754 -0.0644129 -0.104025 -0.0909629 0.0210976 -0.128514 0.33487 0.342765 0.0831375 -0.222426 0.26633 -0.292362 0.357171 0.366799 -0.360611 0.0675859 -0.0755518 -0.091397 -0.368212 -0.107794 -0.255232 0.169369 -0.12771 -0.314603 -0.341038 0.308473 -0.0660527 0.0335151 0.116244 0.168503 0.0635756 0.373313 -0.0401857 0.189559 0.278047 0.113133 -0.207258 0.369395 -0.172673 0.262104 0.465072 0.315373 0.132781 -0.0625744 -0.0621235 -0.410101 0.28905 0.0195997 -0.194134 -0.0935173 0.171499 -0.0720938 -0.556107 -0.341462 0.287795 0.359721 0.130266 -0.0461905 0.00150774 0.0352013 -0.0620577 0.237894
28032548 -0.140268 0.0944302 -0.349968 -0.376178 0.186865 0.289229 -0.0915612 0.0817955 0.400942 -0.263424 0.0285547 -0.351164 0.167843 0.0269839 0.327649 0.234163 0.228857 0.365409 -0.301907 -0.167436 0.104439 0.235162 -0.0436819 0.446013 0.130578 0.0933179 -0.115467 0.0414385 -0.012997 -0.0218387 0.0517415 -0.103459 0.215179 -0.215973 0.135789 0.162198 -0.290252 -0.22974 0.160444 0.0143944 0.0221265 -0.0857146 -0.00256242 0.0124597 0.305587 0.335973 0.106373 -0.132889 0.124434 -0.331545 0.376433 0.370016 -0.364144 0.0961765 -0.161123 -0.274218 -0.497909 -0.233079 -0.332213 0.0283447 -0.205012 -0.275914 -0.317016 0.27576 -0.137827 0.10869 0.0962894 0.234469 0.0546318 0.420284 -0.069658 0.214267 0.380121 0.169641 -0.261237 0.209509 -0.250808 0.270485 0.441611 0.334445 0.322984 0.0138059 -0.080507 -0.379446 0.198508 -0.120731 -0.151725 -0.0602307 0.184069 -0.0694664 -0.602793 -0.335765 0.250516 0.375765 0.073846 -0.135921 -0.0989687 0.0682308 -0.0279152 0.126383
14159138 -0.208681 0.125425 -0.330528 -0.339981 0.184075 0.364965 -0.0902395 0.0774324 0.482294 -0.348734 0.0950139 -0.371893 0.121979 0.0595684 0.314826 0.209734 0.197254 0.269041 -0.230649 -0.0948056 0.114497 0.222084 -0.103448 0.458803 0.155248 0.0936695 -0.134307 0.0371761 -0.109979 0.0126712 0.00353406 -0.18629 0.189229 -0.17187 0.13086 0.223957 -0.248728 -0.289927 0.113801 -0.045088 0.0038181 -0.0385427 -0.00642956 -0.044844 0.327523 0.2387 0.0809054 -0.190776 0.177868 -0.305827 0.394548 0.280135 -0.354018 -0.03383 -0.144783 -0.0348632 -0.389041 -0.192403 -0.170768 0.128047 -0.153091 -0.230964 -0.245376 0.28745 -0.0286173 -0.0159918 0.117083 0.200032 0.0717683 0.371399 -0.06594 0.105905 0.270001 0.106502 -0.175782 0.329488 -0.07689 0.340613 0.50351 0.31652 0.255244 0.0229335 -0.0693011 -0.413825 0.237062 -0.00961429 -0.128997 -0.0412271 0.118369 -0.0121583 -0.617836 -0.345761 0.27063 0.36734 0.0859057 -0.153597 0.0968781 0.0376893 -0.0279783 0.138153
21466915 -0.0822334 0.0810134 -0.350588 -0.340284 0.214119 0.34004 0.0171395 -0.0584474 0.423776 -0.147806 0.121907 -0.256715 0.042213 -0.00858201 0.426889 0.192508 0.207091 0.186997 -0.219318 0.0489966 0.058725 0.123018 0.0194656 0.534718 0.171866 0.155706 -0.0646355 0.180465 -0.045416 -0.0333377 0.0998335 -0.0793824 0.295765 -0.134366 0.121383 -0.0113139 -0.27131 -0.205604 0.121519 -0.014789 -0.00466738 -0.0174409 0.0372659 -0.0823567 0.324779 0.264611 0.0324921 -0.196544 0.177292 -0.283486 0.503679 0.344238 -0.222418 0.090295 -0.26054 -0.133967 -0.404178 -0.183883 -0.332707 0.108177 -0.043322 -0.330102 -0.303914 0.293188 -0.105838 -0.00950238 0.160614 0.216985 0.117695 0.385345 -0.163346 0.216814 0.0980597 0.08135 -0.273483 0.179089 -0.126797 0.307631 0.478049 0.293933 0.152276 0.0922559 -0.216496 -0.290094 0.11143 -0.139331 -0.195658 -0.173413 0.0869258 0.00305163 -0.553092 -0.263451 0.109965 0.373535 0.00765623 -0.0435308 -0.0827208 0.130092 0.0563575 0.173946
281188413 -0.155701 0.116448 -0.355148 -0.428891 0.233466 0.302871 -0.0309675 -0.137954 0.365613 -0.195291 0.117113 -0.349151 0.195855 -0.0111569 0.476908 0.203176 0.238717 0.22594 -0.317432 -0.00360736 0.120334 0.146773 -0.0651194 0.624552 0.168474 0.121118 -0.0406772 0.178624 -0.0610123 -0.000784999 0.065621 -0.227045 0.235196 -0.0541996 0.197654 0.105088 -0.252955 -0.251547 0.169115 0.0135732 -0.0684978 -0.0935454 -0.0119419 -0.104596 0.333601 0.320153 0.123529 -0.262025 0.209239 -0.226256 0.46071 0.397805 -0.266226 0.0636436 -0.157354 -0.0975971 -0.407872 -0.162542 -0.280606 0.142164 -0.13795 -0.358231 -0.322 0.33171 -0.0809474 0.0309869 0.153476 0.154644 0.0984345 0.408372 -0.0850857 0.262605 0.132788 0.12478 -0.240703 0.25382 -0.134338 0.289477 0.495258 0.307653 0.201948 0.0481521 -0.186112 -0.35777 0.176573 -0.0270343 -0.204212 -0.143041 0.101192 -0.0116978 -0.598461 -0.303802 0.222015 0.35226 0.0814484 -0.0681866 -0.0733094 0.121374 -0.00906239 0.212337
34175404 -0.134678 0.110926 -0.353661 -0.328727 0.208163 0.283622 0.00508885 -0.0346014 0.369365 -0.141797 0.10175 -0.268997 0.170823 -0.0476476 0.358769 0.212098 0.198133 0.298039 -0.236263 -0.014596 0.0765271 0.173887 -0.0344465 0.437758 0.162554 0.0366933 -0.0600427 0.100343 -0.0599756 -0.0217124 0.113124 -0.103878 0.254993 -0.143845 0.13029 0.0775984 -0.234986 -0.202076 0.140585 -4.17768e-05 0.0312462 -0.0336813 0.0321275 -0.0683376 0.331009 0.314447 0.112033 -0.197296 0.166049 -0.23936 0.404132 0.374905 -0.252991 0.0771675 -0.125449 -0.22506 -0.324159 -0.197588 -0.284339 0.0475406 -0.149976 -0.266497 -0.299007 0.270602 -0.122809 0.0686014 0.051727 0.191658 0.10885 0.390598 -0.116268 0.250495 0.242599 0.0986794 -0.278839 0.162929 -0.176634 0.241547 0.458687 0.246016 0.221454 0.0732784 -0.174684 -0.317716 0.162728 -0.112107 -0.135974 -0.135079 0.0766553 -0.0629078 -0.538409 -0.314394 0.134064 0.325269 0.0721012 -0.0491625 -0.14707 0.0932605 0.0641964 0.145609
50478950 -0.0484912 0.0174235 -0.314448 -0.344289 0.223897 0.33239 0.0213359 0.0610633 0.420577 -0.15685 0.112635 -0.332069 0.0971482 0.026758 0.297644 0.135164 0.210909 0.341665 -0.255689 -0.117779 0.0241801 0.242811 -0.0130937 0.447165 0.0702727 0.0614964 -0.106435 0.037343 0.031598 0.0514905 0.0107685 -0.0318012 0.253156 -0.156807 0.157366 0.0524403 -0.1744 -0.138315 0.16903 -0.0334275 0.0613418 -0.0954292 -0.0215027 0.0924813 0.164829 0.246269 0.0554079 -0.0724094 0.171181 -0.272098 0.337984 0.374019 -0.328578 0.083358 -0.0798327 -0.230377 -0.35763 -0.198558 -0.208383 0.0598018 -0.0772905 -0.193356 -0.204743 0.175835 -0.120666 -0.0327627 -0.0348113 0.265752 0.11373 0.285819 -0.130081 0.198098 0.242881 0.103771 -0.265823 0.192546 -0.0843448 0.168828 0.309168 0.252575 0.292135 0.0682062 -0.0689557 -0.346692 0.0657502 -0.253712 -0.166996 -0.0653499 0.140015 0.0100421 -0.473795 -0.334663 0.195518 0.236258 0.0495031 -0.0394696 -0.118848 0.0485149 0.0633791 0.0280721
28596139 -0.0790367 0.035089 -0.27666 -0.301027 0.0969976 0.221837 -0.0809685 0.136725 0.359406 -0.174075 0.0167783 -0.275248 0.0787854 0.0509857 0.228849 0.169097 0.177773 0.302012 -0.207838 -0.143335 0.0868246 0.175821 -0.0149665 0.332841 0.0854734 0.0682483 -0.109607 0.0340494 0.0351308 -0.0576037 0.0840597 -0.0241481 0.186965 -0.203386 0.0940005 0.0966213 -0.2411 -0.157907 0.128062 0.0257601 0.0765342 -0.0691331 -0.00286694 0.038328 0.226744 0.251493 0.0887176 -0.0866174 0.0650555 -0.297639 0.308618 0.294826 -0.28905 0.0805705 -0.169003 -0.267704 -0.419308 -0.231607 -0.306328 -0.0388008 -0.1696 -0.199622 -0.243665 0.192813 -0.117163 0.107486 0.072296 0.200344 0.0428056 0.306813 -0.0670283 0.15174 0.312633 0.140842 -0.208513 0.142443 -0.218559 0.236487 0.326176 0.268708 0.277821 0.0477813 -0.104832 -0.265676 0.11235 -0.172167 -0.110395 -0.0535442 0.137272 -0.03963 -0.468371 -0.272615 0.185137 0.303333 0.0257541 -0.124034 -0.117667 0.064263 0.0134045 0.0834464
8000842 -0.0563747 0.0589874 -0.27758 -0.397701 0.202136 0.171878 -0.105312 -0.0552497 0.300277 -0.103412 0.136875 -0.315598 0.0933669 0.0473936 0.400402 0.090534 0.222846 0.243473 -0.308417 -0.0417887 0.104043 0.0777322 -0.0245757 0.554218 0.187829 0.197673 -0.0500644 0.136723 0.076875 -0.0512791 -0.0321674 -0.125084 0.191101 -0.00849177 0.136776 0.125254 -0.211639 -0.159828 0.205992 -0.00900134 -0.0720349 -0.104619 -0.0792896 0.0128034 0.167818 0.327227 0.0681218 -0.227887 0.122062 -0.224864 0.384312 0.299136 -0.23574 0.114451 -0.227183 -0.111103 -0.485918 -0.199995 -0.327178 0.12208 -0.022544 -0.385417 -0.278854 0.217372 -0.0956675 0.0723256 0.146325 0.164535 0.0706012 0.387253 -0.100797 0.255195 0.183727 0.137324 -0.230832 0.224214 -0.216542 0.191317 0.326714 0.42952 0.257575 0.0290219 -0.142166 -0.272019 0.106374 -0.0153365 -0.246453 -0.059998 0.169551 0.0495477 -0.471791 -0.171396 0.191984 0.352 0.0447324 -0.0640584 -0.0761498 0.12696 -0.0246703 0.173879
75852456 -0.189511 0.0675854 -0.3108 -0.229798 0.17561 0.259033 0.123183 -0.358986 0.244453 -0.116596 0.0898401 -0.00910045 0.039095 -0.217035 0.423812 0.251141 0.23843 -0.0227945 -0.335627 0.318475 0.0118797 0.0193978 0.0761374 0.380504 0.11704 0.109987 0.133312 0.153244 -0.0642964 0.00798712 0.263114 -0.134597 0.17589 0.00366006 0.30996 -0.156675 -0.256971 -0.104322 0.123503 -0.085125 -0.331981 0.153517 0.153917 -0.117438 0.133694 0.158323 0.083584 -0.257218 0.195596 -0.215413 0.437315 0.296583 0.0683886 0.116797 -0.260191 -0.14285 -0.119684 0.0257193 -0.217551 0.344792 -0.036533 -0.245169 -0.11509 0.315155 -0.143604 -0.0532371 0.127976 0.272969 0.0717369 0.178167 -0.174205 0.138376 -0.144357 -0.089062 -0.0591889 0.200143 0.108903 0.0901841 0.294686 0.0221814 -0.0399998 -0.0509846 -0.0992289 -0.225691 0.0121204 0.0222253 -0.297891 -0.0117426 -0.0567172 0.150135 -0.139317 -0.298833 0.0165727 0.08587 -0.0355851 0.216101 0.0224305 0.00271177 -0.0675406 0.191589
17119699 -0.0168664 0.000963373 -0.144871 -0.379671 0.0960042 0.255196 -0.0922103 -0.298849 0.224229 -0.0949127 0.00107967 -0.213419 0.0130619 0.097367 0.285784 0.181532 0.149611 0.0893074 -0.236073 0.243483 -0.0388968 0.0424434 0.0291637 0.451357 0.0931519 0.0825359 0.193636 0.128077 -0.00377683 -0.0372978 0.127459 -0.0777535 0.0849563 0.0327281 0.0600973 -0.0116178 -0.269689 -0.186002 0.100168 -0.0895694 -0.0384055 0.106209 0.164634 -0.0299914 0.142726 0.0908391 0.160002 -0.194537 0.0153571 -0.0933169 0.421906 0.355847 0.0345444 0.0465008 -0.170951 -0.0763238 -0.347902 -0.181085 -0.19078 0.0761523 -0.0584832 -0.277926 -0.165731 0.226097 -0.0776617 -0.0268044 0.103745 0.190998 0.0814115 0.180499 -0.20768 0.22883 -0.0912274 0.0580054 -0.188946 0.154479 -0.0424265 0.298906 0.324273 0.0906233 0.274356 0.149579 -0.100699 -0.278926 -0.0268895 -0.0450058 -0.147166 -0.0391751 -0.0650014 0.0868348 -0.266372 -0.265602 -0.00967231 0.169435 0.0265521 -0.0683057 0.0968564 0.0915606 0.0922912 0.086654
14749606 -0.262504 0.118555 -0.233027 -0.307507 0.0331 0.399156 -0.162033 0.0289149 0.450092 -0.276917 -0.0258762 -0.188583 -0.0585256 0.0801224 0.0742288 0.113426 0.319696 0.139575 -0.129723 -0.021447 0.00348558 0.104685 0.0502555 0.277903 -0.111494 0.165678 0.0531835 -0.0907518 -0.0850834 -0.246602 0.0451098 -0.241397 0.139778 -0.252374 0.0505126 0.092495 -0.176131 -0.139675 0.0638082 -0.00312576 -0.150351 0.140259 0.0583505 -0.153143 0.106079 0.0950133 0.180872 -0.0906461 -0.106034 -0.4136 0.269856 -0.0054057 -0.070889 -0.00102073 -0.390354 -0.0495581 -0.195631 -0.149966 -0.188822 0.0421312 -0.041767 -0.116386 -0.142049 0.242802 -0.109511 0.267717 0.218345 0.266187 0.12438 0.0472754 -0.19503 0.117566 0.17235 0.00756171 0.0618922 0.141924 0.0129778 0.234895 0.106889 0.0924758 0.289129 -0.0191171 -0.108718 -0.326877 -0.0255387 -0.0743516 -0.225126 0.241144 0.136869 0.067038 -0.303966 -0.172656 0.256312 0.216051 -0.0669224 -0.106376 0.263713 -0.0475153 -0.142061 -0.0482533
1962961 -0.129705 -0.0159779 -0.266626 -0.386761 0.121596 0.389241 0.029073 -0.260814 0.386124 -0.160541 0.210796 -0.276689 0.0643256 0.128975 0.199958 -0.0394946 0.192097 0.0357828 -0.16161 0.175244 0.0194109 0.151091 -0.0504301 0.522689 -0.0379457 0.0912765 0.108667 0.130624 -0.0943785 0.082846 -0.0536044 -0.305646 0.213778 0.169013 0.099312 0.21881 -0.0604063 -0.124836 0.219359 -0.00675817 -0.156519 -0.00884444 -0.0330034 -0.169821 0.120241 0.0678136 0.225791 -0.254727 0.0661754 -0.0844606 0.359234 0.249134 -0.0122543 -0.0681936 -0.221899 0.28073 -0.154856 -0.187736 -0.00331141 0.188017 0.0280001 -0.14915 -0.137131 0.190055 -0.00924143 -0.100775 0.13621 0.124326 0.0530218 0.173035 -0.159418 0.281611 -0.00979238 0.0289419 -0.0546527 0.390712 0.121128 0.275179 0.310233 0.221775 0.289004 0.126439 -0.200492 -0.286552 0.0124947 0.128922 -0.222607 0.0247726 -0.110193 0.184985 -0.383604 -0.191025 0.0386341 0.214466 0.0526893 0.00657644 0.311368 -0.0845789 -0.0507852 0.129294
16463439 -0.251317 0.209736 -0.1425 -0.427214 0.362107 0.379187 0.0916224 -0.360541 0.297814 -0.13046 0.1899 -0.221182 0.0425313 -0.0589852 0.247913 0.0195245 0.127985 0.0782483 -0.0983604 0.258286 -0.0346019 0.0935224 -0.00713069 0.483506 0.207725 0.212481 0.00962423 0.155392 -0.0826663 0.0142868 -0.0920115 -0.221778 0.266574 0.174449 0.113517 0.134448 -0.0501188 -0.207121 0.141022 -0.0796542 -0.185427 0.134783 0.140414 -0.300533 0.273524 0.173882 0.145341 -0.423748 0.17683 -0.135688 0.33653 0.143743 -0.0500745 -0.0145157 -0.103633 0.316383 0.00122673 -0.11177 -0.101527 0.195929 0.0937209 -0.21493 -0.197775 0.172198 -0.00574833 -0.148834 0.0542078 0.156541 0.129213 0.346141 -0.286938 0.310705 0.0912848 -0.0193565 -0.0376927 0.291203 0.128565 0.234104 0.378856 0.187927 0.227355 0.0966726 -0.265457 -0.241774 0.0477147 0.131116 -0.279934 -0.0402224 -0.178698 0.019376 -0.426643 -0.108017 -0.148499 0.314924 0.139524 0.0698769 0.223998 -0.0544811 0.152008 0.214253
11989152 -0.0340813 -0.0149976 -0.274875 -0.362705 0.214936 0.392571 0.108795 -0.241304 0.426741 -0.218225 0.305618 -0.255365 -0.0131911 0.0817156 0.254574 0.0424317 0.125793 -0.0219228 -0.0706091 0.127603 0.0122202 0.184926 0.0206416 0.51096 -0.00176297 0.138319 0.034466 0.158828 -0.0497085 0.0889967 -0.0513544 -0.252323 0.192748 0.175103 0.143825 0.123976 -0.0135225 -0.12877 0.186136 -0.0600369 -0.138071 0.0439105 -0.036813 -0.137886 0.0767305 0.133793 0.155008 -0.218496 0.0672392 -0.146263 0.42346 0.154821 -0.0967248 0.0326674 -0.286946 0.258786 -0.142942 -0.134943 0.0371369 0.290931 0.114297 -0.146927 -0.0997477 0.19344 -0.0601552 -0.194284 0.150521 0.18367 0.00524047 0.235779 -0.0961091 0.208068 -0.0848339 -0.0266098 -0.0423379 0.378885 0.174024 0.291608 0.38143 0.218121 0.221392 0.137011 -0.1483 -0.254299 0.0259278 0.12516 -0.280401 -0.0435494 -0.119316 0.0855358 -0.382628 -0.12445 0.0272225 0.256921 -0.00881154 -0.00397834 0.302067 -0.0280065 -0.00242137 0.109885
16464378 -0.147497 0.194414 -0.197082 -0.423691 0.252772 0.412029 0.0490855 -0.409197 0.331345 -0.0883348 0.351381 -0.227775 0.0901665 -0.0510775 0.242285 -0.0318063 0.217039 0.180768 -0.0875972 0.316472 -0.112198 0.0116814 -0.0216259 0.527652 0.0763926 0.206093 0.154539 0.108389 -0.175619 0.0674883 -0.0837025 -0.313999 0.37023 0.211169 0.0591926 0.188239 -0.053083 -0.0887949 0.137251 -0.0114291 -0.143468 0.0286009 0.0508433 -0.166945 0.255532 0.149905 0.220634 -0.303749 0.192968 -0.0337788 0.298097 0.166507 0.00198605 -0.0940316 -0.184197 0.251857 0.0404783 -0.153187 0.0541602 0.171482 0.0864532 -0.237601 -0.194533 0.128936 -0.0688208 -0.0164656 0.102571 0.142323 0.190689 0.312024 -0.286979 0.459947 0.0232368 -0.0172818 -0.0328228 0.235154 0.0419329 0.161336 0.247953 0.188801 0.34232 0.10034 -0.283291 -0.277684 0.0364796 0.174493 -0.346697 0.0390242 -0.139145 0.0530644 -0.398862 -0.1121 -0.122002 0.30523 0.114435 0.145922 0.25991 -0.0133175 0.0831646 0.174735
14958919 -0.21503 0.160784 -0.279101 -0.465845 0.292111 0.365713 0.00100043 -0.428388 0.226374 -0.151788 0.0525801 -0.271552 0.123493 -0.0009585 0.264901 0.0469303 0.251241 0.0986036 -0.243276 0.221115 -0.106725 0.110995 0.00151614 0.536204 -0.0137718 0.0879266 0.177685 0.0884795 -0.24074 0.0799847 -0.0683976 -0.261519 0.15052 0.117184 0.167846 0.0255793 -0.0827616 -0.154307 0.187288 0.077194 -0.257917 0.126201 0.0695434 -0.324433 0.221773 0.0472432 0.115219 -0.301916 0.126688 -0.094673 0.331062 0.268793 -0.0697483 0.107251 -0.115875 0.162759 -0.0601745 0.0385412 -0.207783 0.237585 0.119114 -0.216229 -0.250685 0.232657 0.0403719 0.0250322 0.168369 0.129509 0.217768 0.16241 -0.156384 0.332288 0.00700379 0.0856562 -0.275547 0.343113 0.0445067 0.260201 0.399556 0.118376 0.161009 0.139892 -0.164746 -0.284652 0.00529704 0.0532017 -0.230523 -0.0523976 -0.0878964 0.129843 -0.3736 -0.155517 0.0546115 0.243089 0.105024 0.0763079 0.264593 -0.0407291 -0.0793365 0.0836944
7372602 -0.222594 0.129031 -0.144058 -0.38922 0.302681 0.381131 -0.0183401 -0.290445 0.309654 -0.176755 0.141961 -0.188925 0.0572928 0.0518237 0.170761 0.0235561 0.291675 0.0513967 -0.159013 0.155039 0.0699997 0.0617374 -0.0328587 0.490109 0.0849975 0.291172 0.0770164 0.0561339 -0.0453486 0.051066 -0.196297 -0.19965 0.220618 0.163826 0.162081 0.136186 -0.0367087 -0.116842 0.219563 -0.0656738 -0.325226 0.0693182 0.0572851 -0.246811 0.124891 0.0988037 0.174522 -0.358058 0.193126 -0.094411 0.304737 0.0644473 -0.163944 0.0770576 -0.170673 0.428126 -0.104251 -0.161835 -0.137678 0.187338 0.178329 -0.323022 -0.195557 0.124776 0.0297501 -0.139017 0.179019 0.126576 0.185685 0.230079 -0.174595 0.340725 0.160915 -0.00430983 0.0320981 0.421624 0.00899282 0.210689 0.15197 0.302752 0.272592 0.153205 -0.285259 -0.246325 0.0543993 0.132826 -0.480936 0.028546 -0.0158564 0.188111 -0.34434 -0.0956358 -0.0297046 0.349001 0.0949943 0.0311578 0.310573 -0.06944 0.00784001 0.182472
45933827 -0.197503 0.300851 -0.0893764 -0.435809 0.314573 0.277976 0.00561349 -0.377114 0.203363 -0.253764 0.103145 -0.171988 -0.0509666 -0.141734 0.295545 0.0460948 0.111844 0.0566618 -0.143352 0.283505 -0.134266 0.05013 0.0107943 0.495512 0.213575 0.0841728 -0.0746737 0.140371 -0.0367891 0.0976199 -0.138775 -0.159369 0.154516 0.148836 0.142563 0.150918 -0.121502 -0.180487 0.260188 -0.106417 -0.135365 0.0929615 0.186847 -0.305867 0.119109 -0.0072232 0.155123 -0.339647 0.226978 -0.118324 0.290935 0.172948 -0.0334387 -0.120895 -0.0528837 0.307299 0.0307455 -0.0226717 -0.241581 0.215612 0.260587 -0.318997 -0.14187 0.00988124 0.0939183 -0.142307 0.0149565 0.195983 0.192251 0.381702 -0.257586 0.255385 0.0856481 0.0386237 -0.232109 0.370955 -0.0299138 0.207716 0.350576 0.139952 0.165874 0.107608 -0.237282 -0.247056 0.028349 0.073288 -0.377481 0.0170475 -0.128452 0.135357 -0.279995 -0.0900692 -0.130997 0.378577 -0.0240068 0.157144 0.239943 -0.101627 0.135861 0.202942
14608922 -0.169361 0.215114 -0.184277 -0.391476 0.289567 0.297353 0.0160538 -0.368716 0.165051 -0.190436 0.0055778 -0.192194 0.0257684 -0.0909605 0.322222 0.00549162 0.203697 0.128245 -0.254556 0.22376 -0.135217 0.0304764 -0.0920107 0.575458 0.133321 0.171213 0.0756253 0.104239 -0.138883 0.101973 -0.121728 -0.112245 0.125936 0.0920439 0.0728201 0.0413951 -0.145475 -0.245665 0.230762 -0.0582106 -0.244814 0.0186892 0.0625823 -0.201525 0.290607 0.0851963 0.0349149 -0.271266 0.282162 -0.0990495 0.315586 0.366268 -0.0937161 -0.0399007 -0.106304 0.24061 -0.174586 0.0500584 -0.259904 0.159766 0.185822 -0.354869 -0.251394 0.124349 0.0634968 -0.119427 0.140264 0.13462 0.181681 0.269874 -0.228076 0.217336 -0.0014847 0.0303756 -0.241851 0.40036 -0.0782754 0.260934 0.387373 0.186145 0.123107 0.0429243 -0.14134 -0.299513 0.098882 0.0690812 -0.217812 -0.102895 0.000344748 0.139576 -0.384395 -0.153105 0.0492099 0.294302 0.0520705 0.103596 0.190745 -0.0560236 -0.0258195 0.202299
781929 -0.11684 0.192199 -0.161946 -0.348285 0.184995 0.399802 -0.0199195 -0.157699 0.386766 -0.12851 0.305792 -0.286249 -0.0162135 0.0481828 0.234621 -0.0173024 0.205447 0.104883 -0.0997109 0.266418 -0.0360945 0.0141591 0.116301 0.519487 0.015921 0.210146 0.02358 0.103611 -0.0827938 0.047613 -0.11142 -0.28891 0.308618 0.0711791 0.0430317 0.135088 -0.100122 -0.0903886 0.169423 -0.00999372 -0.141742 0.144275 -0.0321981 -0.0411498 0.0989138 0.156198 0.158398 -0.399135 0.126093 -0.0851765 0.320417 0.111726 -0.0245738 -0.0553614 -0.307782 0.177827 -0.165425 -0.0953866 -0.0514653 0.156542 0.0456975 -0.256855 -0.132652 0.145141 -0.00390536 -0.0784017 0.0745194 0.201709 0.122112 0.33381 -0.28178 0.238287 -0.00602763 -0.00983576 -0.00897208 0.206781 0.157134 0.16445 0.372063 0.286498 0.334803 0.131891 -0.228202 -0.230503 -0.0453431 0.186153 -0.2432 0.0948544 -0.110839 0.0978261 -0.371124 -0.110127 0.00532908 0.290977 0.00266649 0.0462113 0.220684 0.0320583 0.0674855 0.0726223
37849445 -0.107942 0.219415 -0.197772 -0.33932 0.268407 0.377003 0.100501 -0.2836 0.288134 -0.126905 0.30874 -0.137962 0.0190635 -0.131972 0.204083 0.0477393 0.188778 0.112882 -0.0170125 0.322612 -0.0148233 0.0363463 0.0469055 0.432871 0.142152 0.14842 0.0180953 0.0814821 -0.0309372 0.130359 -0.0436396 -0.200067 0.320878 0.186492 0.111992 0.176994 -0.0327796 -0.056725 0.295476 -0.0890729 -0.176464 0.047467 0.0730077 -0.262155 0.15507 0.140695 0.226984 -0.373682 0.222502 -0.00276452 0.289611 0.118089 -0.089225 -0.0673523 -0.207093 0.332816 0.100727 -0.209174 -0.110341 0.167301 0.158876 -0.282427 -0.151238 0.0442453 0.021364 -0.117344 0.026308 0.189453 0.126955 0.355517 -0.235008 0.405046 0.11111 -0.0767086 0.014023 0.394616 0.0245147 0.0912342 0.257435 0.21452 0.283137 0.153591 -0.369461 -0.208617 0.0521675 0.178868 -0.426655 -0.0142941 -0.16502 0.0758058 -0.305233 -0.101745 -0.135318 0.379952 0.0115126 0.165922 0.203716 -0.0821218 0.136103 0.206171
5518952 -0.107348 0.133127 -0.178118 -0.423773 0.307713 0.381887 0.0049605 -0.31206 0.165569 -0.104803 -0.00937145 -0.255922 0.0389343 0.013446 0.213461 0.122108 0.296741 0.177453 -0.1646 0.214042 -0.116468 0.149448 0.0733848 0.470122 -0.010121 0.234587 0.131269 0.188535 -0.0799343 0.0975193 -0.0542357 -0.141343 0.208082 0.0725718 0.139227 0.0295312 -0.170986 -0.100862 0.0950787 0.0187062 -0.21134 0.0697805 0.214217 -0.182314 0.303048 0.064886 0.107035 -0.276821 0.0802622 -0.0908106 0.278949 0.261952 -0.216897 0.0905112 -0.0766005 0.0794783 -0.0854578 -0.00442952 -0.279068 0.104762 0.124292 -0.261529 -0.200533 0.197038 0.0285732 -0.0212839 0.123907 0.180848 0.239286 0.18134 -0.123598 0.365885 -0.0206176 0.0729598 -0.0519925 0.269101 0.000696581 0.226563 0.281256 0.175772 0.348696 0.153477 -0.185048 -0.289996 -0.0445652 -0.0413893 -0.277765 -0.0638446 -0.0293825 0.089491 -0.405392 -0.118941 0.0419227 0.25539 0.059639 0.07567 0.177589 -0.0429789 0.01045 0.180981
162998586 -0.234327 0.0413595 -0.171088 -0.221185 0.165433 0.282616 0.156278 -0.457059 0.258994 -0.21869 -0.0365263 -0.113541 0.0936473 -0.0487092 0.208167 0.0626716 0.141647 -0.0414827 -0.262147 0.247843 -0.013148 0.0713363 -0.100303 0.526166 0.095035 0.101918 0.116662 0.0527106 -0.253555 0.0795873 0.0332999 -0.216049 0.127332 0.0661861 0.185096 0.00507605 -0.266231 -0.220297 0.333488 0.0532753 -0.255684 0.0533314 0.0299362 -0.397025 0.316689 0.00552048 0.0814349 -0.290355 0.147431 -0.0870167 0.387941 0.339161 -0.00515133 0.0457298 -0.239731 0.192746 -0.239749 -0.0577189 -0.297802 0.0780229 0.000197877 -0.175602 -0.150016 0.206637 -0.029884 -0.15909 0.191006 0.0516381 -0.00136668 0.168731 -0.20657 0.13597 0.0877892 -9.5738e-06 -0.142873 0.413529 -0.0514176 0.341142 0.362529 0.0115829 0.0121323 -0.015048 -0.146651 -0.150339 0.0201984 0.0463554 -0.231394 -0.115629 -0.078915 0.109828 -0.376433 -0.243099 -0.0553059 0.194619 -0.0351121 0.131301 0.259267 -0.0858286 -0.0414307 0.244277
1635121 -0.262595 0.228716 -0.220333 -0.441951 0.305984 0.355772 0.0508582 -0.349151 0.263209 -0.0965575 0.159435 -0.244231 0.0852139 -0.0177671 0.331647 -0.0365702 0.21633 0.133707 -0.194175 0.228518 -0.0471373 0.0978991 -0.0672404 0.514663 0.0923756 0.210319 0.0881117 0.146232 -0.151875 -0.0453038 -0.117946 -0.248077 0.230662 0.0971898 0.0913904 0.129938 -0.0951105 -0.150985 0.197064 0.000953124 -0.248618 0.0854322 0.0382121 -0.287236 0.241206 0.101307 0.0971674 -0.356654 0.154305 -0.117245 0.273083 0.207875 -0.0403669 -0.00995644 -0.104778 0.229586 -0.01277 0.0131338 -0.169858 0.199379 0.120325 -0.303185 -0.189903 0.194146 -0.0116097 -0.0756541 0.113643 0.14489 0.208302 0.242966 -0.260951 0.362549 0.0122453 0.0113287 -0.18402 0.259712 0.0489419 0.185943 0.367377 0.194731 0.193249 0.113172 -0.196828 -0.316515 -0.000866959 0.0916183 -0.249056 -0.0230649 -0.030124 0.134719 -0.46767 -0.127967 0.0572811 0.273277 0.124337 0.136626 0.199957 -0.0622869 -0.0308294 0.126467
137497741 -0.0180209 0.0211121 -0.034947 -0.279558 0.268784 0.312495 0.0649499 -0.216635 0.071601 -0.119673 -0.144734 -0.169297 -0.0917127 0.0590909 0.074991 0.0130639 0.0630785 0.264295 -0.172739 0.0261702 -0.241439 0.20686 0.143449 0.262931 0.0545808 0.0217399 0.0521 0.0758949 -0.117793 -0.015324 -0.0614051 0.0211592 -0.00357139 0.00327457 -0.180061 0.044831 -0.257448 -0.229103 0.214087 0.0395556 -0.0770733 0.138023 0.12033 -0.178338 0.270015 0.121062 0.0487408 -0.0652022 -0.202652 -0.123449 0.333255 0.398711 -0.0668238 0.130732 -0.196878 -0.0935847 -0.361409 -0.138013 -0.387206 -0.0702547 0.0202349 -0.113615 -0.117869 0.167505 -0.159739 0.00803011 -0.0226331 0.185508 -0.107753 0.334443 -0.199491 0.179263 0.291463 0.0105769 -0.0752259 0.215126 -0.155831 0.313064 0.285286 0.226654 0.457372 -0.0694084 0.0379692 -0.204639 -0.0419833 0.0207063 -0.0250446 -0.0420331 -0.0832891 -0.131653 -0.360514 -0.104422 -0.0667174 0.264944 0.00222613 0.0396427 0.0908188 -0.140229 0.037656 0.00754996
6017542 0.00426812 0.157729 -0.192558 -0.306038 0.244924 0.266728 0.0634206 -0.195142 0.177072 -0.0324833 -0.0737577 -0.269139 0.195976 -0.177219 0.100435 -0.000642921 0.122279 0.449211 -0.185721 -0.00790437 -0.247896 0.227997 0.00864875 0.301072 0.00701848 -0.0900177 -0.0478724 -0.0076932 -0.035663 0.0782293 -0.0607283 -0.0645802 0.234471 0.0885845 0.0707627 0.0847307 -0.12189 -0.0704086 0.376434 0.121489 -0.0175256 -0.0198234 -0.062498 -0.0651597 0.165938 0.206216 0.215123 -0.0722959 -0.0265799 -0.204894 0.200964 0.31535 -0.101092 0.0883235 -0.135818 -0.184318 -0.130338 -0.194916 -0.250749 -0.0319604 -0.0694662 0.0103658 -0.235387 0.0765476 -0.182623 0.103667 -0.104764 0.181355 -0.00948221 0.357988 -0.14074 0.233698 0.430181 0.0476876 -0.194674 0.184231 -0.191477 0.0639907 0.200947 0.0894787 0.45147 -0.101182 -0.105857 -0.252601 0.0161068 0.0509486 -0.126391 -0.0590296 -0.0659824 -0.140917 -0.358928 -0.161095 -0.111628 0.203421 0.187619 0.166389 -0.00787705 -0.105748 0.0591601 -0.0583617
752673 -0.106772 0.116452 -0.181865 -0.411103 0.127419 0.163703 -0.0226476 -0.190311 0.204905 -0.201082 -0.0651052 -0.176884 -0.0597479 -0.0592788 0.201876 0.0897616 0.181541 0.133685 -0.143474 0.156669 -0.103844 -0.00184827 0.178028 0.49143 0.0212173 0.071602 -0.0125695 0.131376 -0.0594957 0.0977654 0.123627 -0.198428 0.239099 -0.0419589 0.17041 0.0603549 -0.21094 -0.166194 0.164407 0.0263533 -0.0412329 -0.0624427 0.113562 -0.145376 0.271797 0.140855 0.0874697 -0.233812 0.0884108 -0.237927 0.30565 0.189305 -0.133693 -0.0246249 -0.331905 -0.0937435 -0.149838 -0.100042 -0.327931 -0.0429115 0.0662498 -0.227469 -0.254065 0.140529 -0.0154117 0.190901 0.167454 0.153309 0.0729152 0.201906 -0.148147 0.230642 0.0980672 0.0509756 -0.169699 0.259751 -0.116117 0.216769 0.295043 0.0671635 0.192094 0.0281294 -0.250239 -0.222838 0.0127498 -0.0458512 -0.271684 -0.00585907 0.0211994 -0.018209 -0.33189 -0.132671 0.134084 0.318385 -0.0656214 0.119651 0.0818487 -0.053251 0.0134411 0.202491
14063949 -0.13818 -0.0219716 -0.312519 -0.0296241 0.0205017 0.337562 0.0674601 -0.0681581 0.475135 -0.340004 -0.010348 0.0580966 -0.221046 -0.196557 -0.0114214 0.146237 0.240499 0.371807 -0.16329 0.10682 -0.304316 0.245842 0.0703454 -0.0068165 0.0657821 -0.0580429 0.0551528 -0.273213 -0.0698989 -0.233817 0.258935 0.2537 0.0417861 -0.301447 -0.087403 0.0614494 -0.331784 -0.0995082 0.27751 -0.152407 -0.0465487 0.352272 0.159404 -0.00219527 0.0566424 0.142944 0.0949689 0.128082 -0.252197 -0.4885 0.421949 0.331656 0.0356129 0.0818471 -0.559946 -0.47204 -0.218687 -0.33922 -0.394239 0.095111 0.0100715 0.0774289 0.0021262 0.17012 -0.402244 0.11733 -0.0801155 0.590957 -0.135696 0.214314 -0.327339 -0.00178809 0.474606 -0.12576 -0.235603 0.329035 -0.236961 0.235308 0.23967 0.0552529 0.447469 -0.129305 0.173634 -0.320661 -0.00347538 -0.0774901 -0.200365 0.222408 -0.0094194 0.129657 -0.234526 -0.333166 -0.0423702 0.149928 -0.162056 0.198375 0.149388 -0.264483 -0.106304 -0.0869052
20101482 -0.157248 -0.0603906 -0.394441 0.0315184 0.0312453 0.358289 0.0820211 -0.00676097 0.490934 -0.336418 0.0318626 -0.00444885 -0.169202 -0.176931 -0.0228118 0.125854 0.200625 0.385917 -0.125917 0.0588778 -0.323738 0.263198 0.083624 0.0167511 0.118709 -0.102718 0.0118162 -0.279396 -0.0200607 -0.140119 0.213658 0.230666 0.0750318 -0.299555 -0.0992325 0.0441316 -0.368886 -0.113989 0.308352 -0.160531 0.0324301 0.351154 0.069105 -0.0016735 0.0320527 0.219099 0.101956 0.117567 -0.20248 -0.488929 0.397092 0.267357 0.0151206 0.0734285 -0.564302 -0.423165 -0.237214 -0.379786 -0.312019 0.119189 -0.0443304 0.130272 -0.0359505 0.200139 -0.440237 0.0819706 -0.0287536 0.578293 -0.11917 0.25647 -0.30013 -0.00857386 0.528606 -0.0705011 -0.246111 0.316823 -0.238987 0.232345 0.22689 0.064969 0.450753 -0.203364 0.155608 -0.341239 0.0145467 -0.128971 -0.239807 0.160035 0.0309352 0.10428 -0.25002 -0.319079 -0.100536 0.133744 -0.0846895 0.182352 0.153099 -0.218759 -0.102588 -0.132759
12771872 -0.0468333 -0.0600404 -0.324072 -0.103942 0.0470693 0.299444 -0.011181 -0.0227293 0.422297 -0.351647 0.013854 0.0866453 -0.280449 -0.118825 0.0627438 0.185399 0.130068 0.388676 -0.155382 0.0501615 -0.255951 0.25907 0.172119 -0.0109571 0.125495 -0.123351 0.0406739 -0.314834 -0.0643813 -0.242965 0.259014 0.294529 0.0315182 -0.238003 -0.133661 0.106997 -0.398988 -0.0875551 0.273063 -0.156293 0.043626 0.277994 0.14862 0.0317706 0.0217198 0.170309 0.0989237 0.130572 -0.234856 -0.403215 0.427836 0.367855 -0.0629437 0.0798651 -0.567862 -0.463757 -0.251035 -0.404638 -0.392474 0.0410831 -0.0312621 -0.0439298 0.0162859 0.191563 -0.387035 0.154143 -0.0638566 0.555658 -0.142271 0.311704 -0.259087 0.0545662 0.469196 -0.0474607 -0.255081 0.329118 -0.310366 0.301033 0.21838 0.171448 0.509681 -0.0626736 0.172011 -0.324162 0.106508 -0.147266 -0.259385 0.195838 0.00866876 0.0853346 -0.253188 -0.350094 -0.0322423 0.221336 -0.190343 0.122983 0.156648 -0.273963 -0.0984377 -0.0178664
17220817 0.0029971 -0.0457807 -0.210917 -0.156874 -0.040249 0.35295 0.0260306 0.0256521 0.482087 -0.053082 -0.0232074 -0.109448 -0.171379 0.0616927 -0.134882 -0.0102742 0.123742 0.416009 -0.0216775 0.09967 -0.2789 0.203073 0.0720966 0.0936716 -0.024623 -0.120748 0.0662415 -0.134378 -0.0454606 -0.148262 0.160587 0.200236 0.169427 -0.202018 -0.202548 0.0797515 -0.272169 -0.0401809 0.276501 0.0286997 0.167852 0.234905 0.0720397 -0.0614622 0.153885 0.0692315 0.18348 0.0382097 -0.271255 -0.283373 0.398989 0.385885 0.0195567 0.0309423 -0.396902 -0.31246 -0.223925 -0.478134 -0.396573 -0.184282 -0.0616963 0.0596408 -0.0819263 0.0866601 -0.274063 0.104353 -0.0858736 0.363105 -0.0309349 0.22396 -0.307508 0.161872 0.471605 0.0280176 -0.291353 0.207386 -0.251596 0.337571 0.254706 0.125797 0.577836 0.121148 -0.10439 -0.176742 -0.070507 -0.161691 -0.04079 0.0761572 -0.115863 0.118925 -0.343231 -0.234354 -0.201572 0.226742 -0.0523185 0.0187649 0.0924491 -0.178393 0.114861 -0.150966
17830009 -0.0904056 -0.00527582 -0.365346 -0.0267211 0.0422214 0.274277 0.0216694 -0.0313637 0.45971 -0.386337 -0.0182622 0.0597869 -0.219538 -0.19114 -0.047003 0.123231 0.132087 0.323636 -0.131835 0.0751637 -0.311933 0.241813 0.0767467 -0.0229467 0.138012 -0.10023 -0.0160684 -0.307921 -0.0420474 -0.174263 0.167946 0.234961 0.0415881 -0.227739 -0.120925 0.110236 -0.321397 -0.0955988 0.296871 -0.215959 0.0109413 0.353152 0.123436 -0.0360475 -0.0598954 0.166008 0.103358 0.102769 -0.22782 -0.516949 0.359973 0.223147 0.0176218 0.0478892 -0.575579 -0.378918 -0.201265 -0.394149 -0.329183 0.112881 0.0675295 0.0622315 -0.0422222 0.138293 -0.388391 0.139703 -0.0672223 0.583183 -0.132657 0.321667 -0.347342 -0.01106 0.518979 -0.110697 -0.252727 0.3649 -0.264429 0.237172 0.214485 0.109435 0.44019 -0.161714 0.163674 -0.324351 0.0945408 0.00761204 -0.265886 0.230139 -0.00504685 0.139438 -0.208479 -0.302432 -0.139912 0.185219 -0.14556 0.205126 0.269 -0.247414 -0.0309224 -0.0868325
10940912 -0.209349 -0.0747348 -0.369961 -0.034693 -0.0183698 0.328214 0.0528135 -0.0222498 0.531787 -0.328021 0.0852716 -0.0343463 -0.210055 -0.155584 -0.0161655 0.113546 0.236277 0.433062 -0.135456 0.0763082 -0.297301 0.205978 0.128564 0.0484364 0.117937 -0.101692 0.0430991 -0.306355 0.00471574 -0.189894 0.324676 0.219584 0.051285 -0.303769 -0.0449227 0.090281 -0.349247 -0.10557 0.295037 -0.131897 0.0359075 0.32906 0.0588553 0.0374729 0.0397886 0.200283 0.142985 0.110015 -0.166681 -0.485737 0.448644 0.343785 -0.043014 0.0083678 -0.559405 -0.455803 -0.192987 -0.438842 -0.326724 0.111391 -0.0626373 0.0935582 0.00603117 0.207519 -0.406868 0.102979 -0.0766055 0.585068 -0.102567 0.188602 -0.235355 -0.00228881 0.487194 -0.0739399 -0.272028 0.349748 -0.214435 0.262784 0.192401 0.0695569 0.486738 -0.104455 0.0965902 -0.372274 -0.00259219 -0.177317 -0.236325 0.204924 -0.00138156 0.1569 -0.172531 -0.390413 0.0106942 0.122326 -0.124202 0.145957 0.13609 -0.295641 -0.103628 -0.0867329
16358736 -0.0191446 -0.0691692 -0.297404 0.00259277 0.059537 0.381785 0.0453724 0.0583394 0.466533 -0.298144 0.0706136 -0.0377789 -0.259658 -0.0887658 0.0289684 0.143247 0.120119 0.339745 -0.122935 0.0731117 -0.321352 0.237869 0.120621 0.0190416 0.116112 -0.0750809 -0.0249596 -0.255757 -0.053205 -0.11437 0.17705 0.294304 0.0673887 -0.225637 -0.128519 0.0331843 -0.352006 -0.0761512 0.202587 -0.155132 0.0599428 0.318014 0.0682411 0.108218 0.0203639 0.163493 0.0404289 0.161368 -0.148105 -0.421356 0.450358 0.344907 -0.0639335 0.0343541 -0.529284 -0.336295 -0.278929 -0.34035 -0.280008 0.132199 0.0100896 0.0685939 -0.034409 0.192669 -0.336748 -0.012457 -0.041034 0.544644 -0.105817 0.283297 -0.237249 -0.0884111 0.333738 -0.0630737 -0.232738 0.327931 -0.161804 0.285387 0.231402 0.178647 0.422904 -0.121967 0.161652 -0.331748 0.0928269 -0.147274 -0.171326 0.109476 -0.00368382 0.0918275 -0.240722 -0.314018 -0.0707325 0.173846 -0.11235 0.124788 0.157664 -0.228243 -0.0400659 -0.0737491
23493152 -0.0663957 -0.0609056 -0.330422 -0.0524792 -0.06526 0.298417 -0.0548852 0.0911612 0.558937 -0.259161 -0.0753744 -0.00131782 -0.271312 -0.0386304 -0.00401826 0.0637622 0.167025 0.344303 -0.135239 0.0394889 -0.253056 0.210655 0.0325094 0.0940962 0.0941015 -0.0552268 -0.04698 -0.211765 -0.0549084 -0.207787 0.204508 0.288158 0.126995 -0.285202 -0.0767292 0.0587329 -0.374799 -0.063893 0.290904 -0.145147 0.161189 0.204268 0.0478656 -0.0242905 0.0881703 0.11639 0.0383297 0.1111 -0.212106 -0.511737 0.45416 0.326655 -0.0803059 0.00910742 -0.583467 -0.418207 -0.335181 -0.45079 -0.450644 -0.0503874 0.0296119 0.0493508 -0.115853 0.115691 -0.342494 0.135345 -0.0358842 0.476785 -0.0475316 0.232266 -0.289469 -0.0568626 0.46292 -0.0489393 -0.350788 0.358778 -0.320233 0.352343 0.206754 0.152244 0.386966 -0.0241963 0.020974 -0.239637 0.0528462 -0.176664 -0.152122 0.109918 0.0371186 0.190378 -0.349453 -0.312584 -0.0901965 0.217437 -0.163439 0.104238 0.129097 -0.16618 -0.0160428 -0.0302042
17521796 -0.0760962 -0.0745117 -0.314155 -0.119874 -0.0149224 0.294309 -0.0239706 -0.074737 0.334827 -0.295513 -0.136577 -0.101829 -0.15256 -0.11253 0.0507094 0.154175 0.241656 0.330428 -0.215842 0.125575 -0.321938 0.264825 0.168749 0.105127 -0.0515638 -0.105724 0.0314864 -0.163235 -0.0280317 -0.0708606 0.231707 0.198512 0.0749367 -0.21133 -0.0605579 0.0416977 -0.406222 -0.100674 0.250415 -0.0719178 0.0212055 0.229852 0.115113 0.119757 0.0595763 0.0807002 0.154055 0.0644715 -0.241949 -0.372508 0.373444 0.393778 -0.0390401 0.0317705 -0.45554 -0.479947 -0.274225 -0.287868 -0.342301 0.00972505 -0.132437 0.0619327 0.0250606 0.195627 -0.326204 0.114481 -0.0828886 0.500672 -0.106669 0.199016 -0.207448 -0.0413901 0.319253 -0.0282916 -0.22151 0.275338 -0.160049 0.237625 0.226208 0.0424393 0.526321 -0.0751875 0.125575 -0.317204 -0.0285346 -0.152545 -0.14696 0.171082 -0.029009 0.137956 -0.276927 -0.389219 0.0151005 0.0729357 -0.0818951 0.140631 0.12239 -0.202627 -0.0936088 -0.0698646
18794888 -0.111102 -0.0720794 -0.308469 -0.0270671 0.00545428 0.325473 0.0490405 0.00921012 0.455021 -0.338772 0.0851681 0.0292678 -0.301562 -0.111331 0.0775576 0.15635 0.170255 0.408757 -0.137 0.0760311 -0.325354 0.213418 0.176741 0.0382842 0.131576 -0.0993573 0.0369524 -0.222474 -0.0582193 -0.163081 0.245387 0.243269 0.0151123 -0.269702 -0.131623 0.110225 -0.41667 -0.13307 0.30525 -0.166336 0.0709241 0.336513 0.119789 0.0176536 0.0427445 0.198473 0.047062 0.152271 -0.233923 -0.438535 0.47309 0.335389 -0.0450963 0.0538844 -0.628113 -0.521305 -0.281354 -0.363298 -0.340434 0.0699189 -0.00701928 0.00812184 0.00563327 0.175729 -0.454746 0.134664 -0.0510204 0.567614 -0.173516 0.289377 -0.26042 0.00392243 0.482594 -0.118465 -0.317394 0.327235 -0.292163 0.275542 0.267612 0.171116 0.439008 -0.123388 0.170857 -0.322102 0.0460624 -0.097301 -0.195753 0.186713 0.011633 0.0625416 -0.272727 -0.2858 -0.00593303 0.246711 -0.18969 0.153446 0.100663 -0.214041 -0.0955334 -0.0860904
15578561 -0.125263 -0.0462124 -0.309614 -0.0840142 0.0297372 0.369364 -0.0045744 -0.00580836 0.492861 -0.341709 0.0434786 -0.0235697 -0.229886 -0.0553857 -0.0535657 0.105137 0.185501 0.451279 -0.157112 0.0201651 -0.369351 0.271378 0.114937 -0.0198474 0.0906626 -0.119564 0.0516768 -0.280555 -0.0450736 -0.245151 0.187354 0.219567 -0.0575268 -0.265221 -0.157338 0.169439 -0.342773 -0.135683 0.302977 -0.139445 -0.000942604 0.382894 0.0476949 0.0108885 0.026064 0.181827 0.110215 0.166852 -0.351302 -0.47798 0.463629 0.359466 -0.0332153 0.0443575 -0.569336 -0.457459 -0.277582 -0.386016 -0.350539 0.0828847 0.0235622 0.057519 -0.020421 0.206147 -0.392061 0.14859 -0.0536824 0.568907 -0.121744 0.28174 -0.237021 0.0110131 0.521148 -0.0492335 -0.250566 0.346933 -0.286399 0.32141 0.270837 0.184569 0.579306 -0.158079 0.218916 -0.380007 0.0481293 -0.0475995 -0.149658 0.205535 -0.00710303 0.119461 -0.257053 -0.302619 -0.0123912 0.213785 -0.150306 0.102101 0.241937 -0.293821 -0.129077 -0.14053
18795943 -0.0431405 -0.0346909 -0.308625 -0.110903 -0.00179308 0.303621 -0.0755948 0.0360691 0.510026 -0.290302 -0.0990251 0.00644984 -0.281132 -0.0426313 -0.0232736 0.120148 0.117967 0.35166 -0.186829 0.0356534 -0.29123 0.256112 0.108639 0.0345512 0.0990342 -0.0991405 0.00396464 -0.255166 -0.0494231 -0.265858 0.235053 0.280368 0.0229108 -0.277809 -0.104783 0.0693353 -0.423729 -0.0851682 0.262911 -0.169954 0.106679 0.293277 0.116349 -0.0597162 0.0284807 0.111452 0.0837163 0.14084 -0.294805 -0.537245 0.465523 0.393053 -0.0412732 0.018491 -0.575704 -0.480436 -0.352502 -0.429622 -0.494376 -0.0101144 0.0201627 0.0122417 -0.0854801 0.176751 -0.374432 0.182189 -0.0400998 0.535623 -0.0671021 0.292374 -0.281261 -0.0429922 0.442203 -0.0353954 -0.289366 0.31007 -0.312115 0.367817 0.213771 0.16492 0.466212 -0.0935741 0.144836 -0.283338 0.0810091 -0.141476 -0.148026 0.173854 0.0203281 0.168914 -0.267103 -0.37087 -0.0878271 0.20591 -0.226288 0.114389 0.208058 -0.236356 -0.0127356 -0.0859348
127547078 -0.0963227 -0.0553144 -0.284741 -0.0743365 0.0061335 0.269886 -0.0462783 -0.00708369 0.433197 -0.296041 0.0399475 0.0714645 -0.197965 -0.16461 0.0463217 0.0874853 0.205383 0.336599 -0.192946 0.0706469 -0.251012 0.251 0.0906782 -0.00258982 0.11812 -0.00265309 0.0339902 -0.240833 0.0205556 -0.239913 0.217076 0.292229 0.0677583 -0.197529 -0.101319 0.144431 -0.341776 -0.0485446 0.252761 -0.180331 -0.0142046 0.249933 0.0816173 0.129827 -0.0160594 0.18002 0.124052 0.129999 -0.198372 -0.414381 0.391709 0.304865 -0.0315238 0.0426171 -0.529532 -0.378753 -0.209306 -0.408707 -0.319172 0.0841043 -0.0362963 -0.0189534 0.00901765 0.142748 -0.377189 0.0944684 -0.107031 0.522372 -0.0883131 0.25238 -0.233134 0.010377 0.44306 -0.0713276 -0.184761 0.32714 -0.30446 0.166118 0.154249 0.212963 0.480821 -0.114373 0.13716 -0.292545 0.0583465 -0.0691785 -0.247904 0.214338 0.00640694 0.197855 -0.262219 -0.319793 -0.0838525 0.167893 -0.102625 0.121086 0.156356 -0.237036 -0.0918488 -0.00324746
71333777 -0.0524574 -0.0592607 -0.332121 -0.00721387 0.00876598 0.273862 0.0183001 -0.0409681 0.440414 -0.228196 -0.0644121 0.0775504 -0.209264 -0.168884 -0.0115939 0.0846585 0.176186 0.319344 -0.183111 0.112497 -0.306498 0.196271 0.0719423 0.0582412 0.11117 -0.0492976 0.0499476 -0.24221 0.00616049 -0.149947 0.248699 0.304112 0.129128 -0.168718 -0.0265287 0.0440796 -0.364454 -0.0434249 0.336968 -0.156031 0.0493112 0.227771 0.0744104 0.000311134 0.0205256 0.146376 0.116178 0.101983 -0.117984 -0.425714 0.388548 0.345916 -0.0367061 0.0201843 -0.54732 -0.348493 -0.221361 -0.45375 -0.390947 -0.0016483 -0.00685114 0.0474167 -0.0573051 0.116069 -0.371132 0.0820883 -0.0966125 0.51712 -0.0446429 0.213006 -0.304334 0.0124834 0.436988 -0.0725608 -0.27953 0.359464 -0.312755 0.221921 0.104678 0.0936636 0.426803 -0.0895668 0.0526668 -0.266288 0.0593582 -0.171044 -0.258643 0.100896 0.00888352 0.200459 -0.222772 -0.353328 -0.165258 0.121948 -0.107861 0.197673 0.13816 -0.220652 -0.0248582 0.00607806
14532363 -0.0730507 -0.062771 -0.355293 0.0196314 0.0362266 0.303734 -0.00566685 0.00178135 0.470864 -0.304642 -0.00636733 0.113641 -0.226062 -0.12172 0.020998 0.110074 0.145791 0.369401 -0.169806 0.078819 -0.242064 0.286093 0.0268521 0.00462428 0.159527 -0.110872 -0.0282027 -0.275121 -0.0710627 -0.182083 0.173835 0.342379 0.124892 -0.205482 -0.0921881 0.141718 -0.44169 -0.0559768 0.345455 -0.215817 0.105736 0.2106 0.0866938 0.0211451 0.0196336 0.0801402 0.0743173 0.122317 -0.127747 -0.365805 0.374649 0.364134 -0.0669129 -0.0110247 -0.513415 -0.350086 -0.26006 -0.456875 -0.349211 0.0198616 -0.0245992 0.00746501 0.00682983 0.114966 -0.356807 -0.0191488 -0.133425 0.505082 -0.0562232 0.258231 -0.298472 0.00293627 0.492631 -0.058045 -0.287685 0.392693 -0.339085 0.243498 0.180398 0.149402 0.42599 -0.0517859 0.151158 -0.279985 0.111033 -0.159423 -0.231818 0.124175 0.0586251 0.225313 -0.328142 -0.404615 -0.158636 0.15633 -0.114697 0.186291 0.180979 -0.247781 -0.0838905 -0.00834492
23776156 -0.148299 -0.0574346 -0.325742 0.00954475 -0.00250402 0.333824 -0.0633996 -0.0233212 0.50015 -0.320995 -0.0607271 -0.00408199 -0.231593 -0.0379631 -0.0496495 0.0369028 0.187291 0.357443 -0.19541 0.0563674 -0.322147 0.254615 -0.0370781 0.0372234 0.0991129 -0.0427205 0.0347026 -0.302026 -0.0853238 -0.225648 0.118176 0.285271 -0.0033199 -0.255617 -0.101127 0.103315 -0.402646 -0.0835112 0.323048 -0.186201 0.0250551 0.299641 0.0151627 -0.0390746 0.0314956 0.0916357 0.0392253 0.145016 -0.24333 -0.462905 0.403504 0.377598 -0.0363607 0.0181591 -0.535977 -0.332524 -0.342545 -0.361662 -0.416757 0.0834221 0.0658445 0.0662004 -0.0448776 0.136585 -0.349627 0.0250684 -0.0228807 0.506745 -0.036862 0.202733 -0.287059 -0.0716769 0.464895 -0.0499429 -0.2754 0.421703 -0.305891 0.309663 0.155858 0.158088 0.433193 -0.140471 0.206834 -0.31527 0.0377354 -0.0996111 -0.168946 0.194741 0.0705787 0.236977 -0.297978 -0.332041 -0.0735306 0.131545 -0.133433 0.163264 0.265414 -0.263572 -0.157747 -0.0692904
49101109 -0.118883 -0.0487528 -0.368159 -0.00808355 -0.0216522 0.344515 -0.0153812 0.016004 0.596491 -0.382219 0.0239032 0.0716937 -0.283515 -0.112177 -0.0523552 0.0901762 0.167443 0.405345 -0.110995 0.0737381 -0.273437 0.293824 -0.00475862 -0.0125654 0.117099 -0.114198 -0.00711608 -0.341449 -0.128338 -0.24076 0.18863 0.279358 0.103034 -0.285993 -0.133304 0.140924 -0.408329 -0.056655 0.322139 -0.197444 0.0981771 0.300627 0.106682 -0.0350174 0.0354641 0.0810948 0.0784889 0.115129 -0.226893 -0.49419 0.393112 0.320253 -0.0170942 -0.00241671 -0.601302 -0.382693 -0.243449 -0.450599 -0.360356 0.0549081 0.00707368 0.0788384 -0.0132579 0.131166 -0.387473 0.0663735 -0.080278 0.556481 -0.0834775 0.243189 -0.33593 -0.0260872 0.535181 -0.0715517 -0.279894 0.410921 -0.308532 0.319903 0.224745 0.115042 0.456287 -0.0642878 0.162468 -0.312256 0.0807324 -0.0813606 -0.210745 0.234338 0.0260724 0.213087 -0.314205 -0.36792 -0.127003 0.185088 -0.160034 0.190308 0.279569 -0.294428 -0.108929 -0.0565794
12263132 -0.0993089 -0.0943459 -0.330954 -0.0650214 0.0326165 0.285058 0.0535471 -0.0171634 0.41374 -0.348671 0.0544437 0.00998164 -0.226568 -0.126231 0.0529966 0.132223 0.158213 0.342542 -0.114794 0.0544718 -0.28088 0.208596 0.167541 0.0090785 0.124437 -0.102608 0.0122246 -0.259281 -0.0105677 -0.19098 0.253775 0.22525 -0.0192164 -0.241633 -0.137987 0.102831 -0.381578 -0.13752 0.287888 -0.134903 0.0573471 0.312824 0.0729417 0.0164391 -0.00398389 0.193667 0.0860708 0.124598 -0.22844 -0.405159 0.411245 0.326134 -0.0696742 0.0721888 -0.557399 -0.449607 -0.253697 -0.374379 -0.311759 0.0550117 -0.0185421 -0.0155292 0.031407 0.169612 -0.406679 0.13735 -0.0606219 0.545475 -0.140271 0.276355 -0.240057 0.034655 0.452818 -0.0424765 -0.288051 0.317535 -0.281449 0.279769 0.220274 0.129786 0.473393 -0.0898718 0.145876 -0.306875 0.0311318 -0.135974 -0.222095 0.168289 -0.00418624 0.10119 -0.239836 -0.320741 -0.0138159 0.203191 -0.17357 0.106247 0.128054 -0.212246 -0.0533806 -0.0611217
4777911 -0.130162 -0.0508139 -0.254879 -0.172776 0.122556 0.224948 0.0321801 -0.0727355 0.349793 -0.247469 0.0753699 0.00919228 -0.198185 -0.13119 0.0121971 0.133185 0.133458 0.34274 -0.156418 0.0682154 -0.211658 0.229093 0.123636 -0.00377377 0.199764 -0.0898738 0.0744024 -0.22738 0.0279174 -0.236259 0.276199 0.227644 -0.01556 -0.173873 -0.0375811 0.0840906 -0.261644 -0.109376 0.227507 -0.184259 -0.0155679 0.283627 0.16993 -0.0856718 0.00821029 0.234746 0.0834109 0.0975877 -0.167108 -0.429698 0.362303 0.367377 -0.0250412 0.0832808 -0.371725 -0.380896 -0.159775 -0.367878 -0.351742 0.128216 -0.00483864 -0.0307769 -0.0481101 0.151092 -0.340962 0.15696 -0.105262 0.482054 -0.0931011 0.194476 -0.215138 0.115204 0.469825 -0.0283145 -0.210732 0.316831 -0.241566 0.229901 0.185378 0.17053 0.353638 -0.131894 0.108891 -0.272037 0.0482619 -0.160268 -0.178398 0.165791 -0.0265616 0.0783044 -0.157679 -0.29765 -0.0649251 0.184114 -0.115657 0.100842 0.103799 -0.278508 -0.0291008 -0.0470551
31038110 0.0251168 -0.0576474 -0.301562 -0.0350225 0.0521376 0.287207 -0.0231278 0.0221342 0.392624 -0.293474 -0.0756254 0.089908 -0.31127 -0.0976638 0.026906 0.149263 0.08798 0.342193 -0.13633 0.0912905 -0.265889 0.251458 0.16443 0.0442837 0.139169 -0.0845425 -0.0223303 -0.234979 -0.0522405 -0.172005 0.175495 0.332361 0.10448 -0.193831 -0.16072 0.0889648 -0.465197 -0.0643413 0.316636 -0.181824 0.134807 0.248708 0.141668 0.00136233 0.015814 0.117159 0.0830393 0.0838623 -0.22134 -0.366984 0.410088 0.340234 -0.057146 0.0607037 -0.6138 -0.412038 -0.344338 -0.449004 -0.462242 -0.0464347 0.0102841 -0.0528164 -0.0225517 0.116364 -0.373889 0.105358 -0.090748 0.521075 -0.131726 0.363978 -0.324398 0.00126508 0.472641 -0.0652112 -0.279252 0.338328 -0.360963 0.284584 0.205844 0.202617 0.476515 -0.0172022 0.10587 -0.226054 0.0794389 -0.115165 -0.246016 0.144488 0.0118051 0.117845 -0.315715 -0.314526 -0.159334 0.237478 -0.188254 0.155652 0.146625 -0.184455 0.00257157 -0.00961607
16303106 0.0155587 0.160805 -0.191214 -0.246889 0.099895 0.0783361 -0.0580039 -0.126806 0.127123 -0.287778 -0.142272 -0.0813479 -0.0226632 -0.163197 0.0827461 0.212662 0.0407795 0.197297 -0.231524 0.0168731 -0.103756 0.164815 0.11695 0.0588682 0.110374 0.0745839 -0.0553622 -0.0624968 0.0889376 -0.123717 0.106907 0.0851643 0.0847699 -0.0608292 0.057138 0.133632 -0.372649 0.00277244 0.131208 0.0518722 -0.144721 0.209585 0.228605 0.00469266 0.0399512 0.14753 0.198969 -0.0841998 -0.136579 -0.321036 0.191336 0.222601 0.00736212 0.152432 -0.349122 -0.347212 -0.296356 -0.0980626 -0.482145 0.0835883 -0.108637 -0.118954 -0.110167 0.176782 -0.20554 0.144431 0.0892551 0.350648 -0.120213 0.495057 -0.0960896 0.102429 0.310695 0.17406 -0.104877 0.137059 -0.268252 0.178225 0.291622 0.169566 0.44251 -0.0828211 0.0688023 -0.159809 0.070285 0.167747 -0.222423 0.191371 -0.0142671 0.0175562 -0.168119 -0.127218 -0.142127 0.236332 -0.103426 0.117262 0.0694537 -0.190158 -0.0799208 0.136982
15099871 -0.11126 -0.0498505 -0.305855 -0.127414 0.00315585 0.274701 -0.0122878 0.0231958 0.465071 -0.354777 -0.00317046 -0.0377592 -0.198448 -0.136201 -0.0222392 0.118792 0.206855 0.351778 -0.153429 -0.0296906 -0.258357 0.251024 0.112156 0.0589623 0.0780022 -0.0126407 0.0588062 -0.225863 0.0553608 -0.237271 0.221901 0.178567 -0.0118903 -0.280636 -0.130997 0.0674681 -0.275541 -0.13198 0.185491 -0.135091 -0.013667 0.305966 0.116486 0.0236408 0.000711121 0.267773 0.132785 0.137067 -0.27878 -0.538413 0.413962 0.235272 -0.00569175 0.109479 -0.553836 -0.407014 -0.278095 -0.409422 -0.355696 0.109709 -0.0099668 0.00372473 -0.103202 0.207112 -0.400565 0.247662 0.0323226 0.558 -0.170641 0.271726 -0.245416 0.0585295 0.467238 -0.0281429 -0.170186 0.277529 -0.294987 0.242129 0.18492 0.17206 0.510218 -0.171202 0.119459 -0.356877 0.0336458 -0.0508225 -0.243259 0.245764 0.0319281 0.0753921 -0.187868 -0.240731 0.0132461 0.210921 -0.109192 0.0356315 0.1961 -0.201918 -0.059338 -0.0867398
20106479 -0.0791942 -0.0171198 -0.362763 -0.03168 0.101808 0.312553 -0.0264455 -0.0325835 0.380153 -0.413804 -0.0534353 0.0509859 -0.26218 -0.206306 0.0456488 0.17949 0.151556 0.393509 -0.165127 0.0624532 -0.316595 0.292021 0.174718 -0.00740699 0.133783 -0.122417 -0.0388234 -0.320004 -0.0405003 -0.180394 0.179447 0.256777 0.0400721 -0.238033 -0.131526 0.110021 -0.424795 -0.11433 0.320448 -0.211359 0.0249593 0.317369 0.127942 0.0316253 -0.0341769 0.150425 0.105039 0.0920064 -0.275948 -0.492239 0.365645 0.28505 -0.0297816 0.0640355 -0.620486 -0.477218 -0.305201 -0.366627 -0.39256 0.126502 -0.00564067 0.0402788 -0.0115613 0.176466 -0.435341 0.142807 -0.0916329 0.614733 -0.160156 0.359881 -0.298796 -0.0446919 0.522387 -0.113379 -0.215147 0.339767 -0.252552 0.221367 0.200971 0.124573 0.515068 -0.175978 0.234814 -0.350067 0.0661659 -0.0314558 -0.283805 0.240696 0.00382532 0.0674764 -0.222181 -0.355336 -0.0697924 0.197914 -0.158054 0.216809 0.223625 -0.247437 -0.113307 -0.0772236
15186910 -0.0320205 -0.0743787 -0.36988 -0.0366327 0.0347891 0.252591 -0.0395006 0.0212599 0.441226 -0.372349 0.00570276 0.0187066 -0.249731 -0.109704 -0.00816468 0.141393 0.134899 0.34801 -0.133531 0.029923 -0.239583 0.252831 0.106496 0.0302737 0.121042 -0.108499 0.00140725 -0.284145 -0.0181771 -0.153824 0.142467 0.199427 0.06304 -0.228171 -0.126988 0.101582 -0.348092 -0.0606726 0.313992 -0.166932 0.0512509 0.294769 0.0851487 0.0113296 -0.0833723 0.16666 0.0942999 0.100643 -0.250336 -0.468741 0.355576 0.217703 0.00826994 0.0823446 -0.639784 -0.393462 -0.327148 -0.408154 -0.345288 0.120071 0.00549232 0.0606517 -0.0831712 0.155335 -0.381557 0.159898 -0.00285196 0.535023 -0.164178 0.293624 -0.274141 0.0223577 0.506183 -0.0458812 -0.260752 0.370015 -0.280562 0.246769 0.217865 0.14623 0.456319 -0.131042 0.150223 -0.312013 0.0540385 -0.0389338 -0.287361 0.224563 0.0502802 0.146677 -0.239094 -0.263829 -0.0810728 0.211163 -0.144891 0.14288 0.217559 -0.226465 -0.138409 -0.0878091
5935732 -0.095639 -0.0692069 -0.424009 0.0287017 0.0327594 0.339047 -0.00938505 0.0106147 0.530914 -0.427363 0.0338076 0.0739144 -0.311732 -0.16394 0.00979425 0.18944 0.160153 0.414371 -0.155289 0.0733059 -0.294374 0.272236 0.125628 0.000317177 0.174905 -0.0908028 0.0153411 -0.339298 -0.0421444 -0.229767 0.246593 0.293854 0.0822683 -0.30172 -0.120272 0.0674232 -0.492076 -0.0877387 0.338499 -0.226739 0.0553895 0.378511 0.142258 0.00348696 -0.00883517 0.177256 0.0872934 0.130498 -0.234145 -0.504824 0.432518 0.321983 -0.00367034 0.0705016 -0.723589 -0.498772 -0.349188 -0.459841 -0.425039 0.146541 -0.0214561 0.0652584 -0.00044996 0.204626 -0.468908 0.0919683 -0.0216387 0.64499 -0.135565 0.321467 -0.334602 -0.00873337 0.538769 -0.0683208 -0.270249 0.3787 -0.321658 0.280184 0.235522 0.116201 0.494962 -0.140006 0.21664 -0.358089 0.071607 -0.114724 -0.308698 0.228292 0.0616372 0.146642 -0.243711 -0.358453 -0.113907 0.189395 -0.189063 0.205694 0.212411 -0.266666 -0.169523 -0.0562256
727813 0.00949669 -0.0192495 -0.302854 -0.483875 0.130313 0.208493 -0.126181 0.0497512 0.386177 -0.108112 0.196076 -0.347984 0.0194462 0.100418 0.239385 -0.00744015 0.276646 0.189924 -0.189468 -0.0344368 0.00975019 0.135442 0.112161 0.46393 -0.0765583 0.270018 0.0360477 0.090771 0.180078 -0.10682 -0.0306289 -0.147277 0.214671 -0.0236837 0.104142 0.0637441 -0.0436621 -0.0578931 0.187959 0.0875536 -0.179354 -0.0353943 -0.127274 0.0916972 0.0369447 0.303645 0.11913 -0.128169 -0.0453167 -0.306566 0.305565 0.195171 -0.174031 0.201149 -0.37531 -0.116375 -0.390134 -0.191122 -0.284685 0.143114 0.0101287 -0.257165 -0.192849 0.156934 -0.122723 0.189908 0.231515 0.264178 0.0728535 0.233298 -0.072474 0.313643 0.185866 0.191171 -0.136106 0.166348 -0.0972537 0.165546 0.276073 0.393003 0.406709 0.0679304 -0.1451 -0.225271 -0.0707018 -0.115113 -0.282654 0.0531222 0.107139 0.109923 -0.40117 -0.0394689 0.190552 0.330686 -0.0145822 -0.163648 0.048938 0.0394795 -0.145076 0.0286947
19139490 -0.068798 0.185008 -0.220865 -0.419467 0.38695 0.262801 0.0912665 -0.336287 0.192257 -0.215678 0.252542 -0.0703562 0.0869801 -0.146317 0.304418 0.0765624 0.0814377 0.0270851 -0.111651 0.312155 -0.0348943 0.0592579 0.0410091 0.435797 0.174238 0.0297733 0.0934243 0.0508045 -0.134548 0.14991 -0.057509 -0.185156 0.209817 0.180168 0.0104058 0.109954 -0.0491604 -0.199449 0.219356 -0.145007 -0.148535 0.0653227 0.129718 -0.275501 0.124637 0.10466 0.140929 -0.298493 0.279834 0.0738218 0.261369 0.267542 -0.0783618 -0.00581501 -0.0667255 0.265723 0.0650252 -0.156756 -0.0668267 0.228209 0.194408 -0.368288 -0.12837 0.0606273 0.0278857 -0.0484106 -0.00379559 0.171971 0.182048 0.365224 -0.285811 0.427463 0.123587 0.0142657 -0.267427 0.349372 -0.0803192 0.114471 0.391523 0.161606 0.160269 0.159006 -0.166774 -0.226722 0.145142 0.0788098 -0.398392 -0.0575911 -0.129022 0.0837241 -0.318935 -0.145308 -0.118179 0.382457 0.0196872 0.0327851 0.235188 -0.00260401 0.188071 0.17713
16463562 -0.233815 0.178655 -0.119292 -0.44813 0.230963 0.30496 -0.0706629 -0.268421 0.267311 -0.11233 0.237825 -0.313544 -0.0402269 0.091034 0.259783 -0.0912411 0.232406 0.225446 -0.156666 0.194982 -0.0410235 0.00890049 -0.0870172 0.540028 0.144162 0.243724 0.0344175 0.0987274 -0.0455895 0.0663095 -0.184875 -0.199949 0.228526 0.101543 0.104546 0.229613 -0.0446081 -0.173154 0.191744 -0.0835299 -0.137001 -0.0335317 0.0518055 -0.142611 0.235294 0.139302 0.0706398 -0.279828 0.195294 -0.145499 0.267162 0.147954 -0.108682 -0.105917 -0.0898051 0.307527 -0.113958 -0.0646745 -0.112893 0.0927101 0.220827 -0.314228 -0.249349 0.0454743 0.0477632 -0.0840949 0.1372 0.147628 0.181602 0.237824 -0.245834 0.410537 0.0623605 0.0223746 -0.123596 0.328603 -0.00961625 0.178995 0.200506 0.280103 0.28675 0.103436 -0.248703 -0.363721 0.0122966 0.0218216 -0.321949 0.0563926 0.0368816 0.111206 -0.402302 -0.101472 0.0949658 0.353241 0.069453 0.122953 0.201967 -0.103194 -0.00157353 0.189037
15256810 -0.251077 0.0769506 -0.279972 -0.273661 0.213537 0.403943 0.0594906 -0.350222 0.354715 -0.0747965 0.287288 -0.172171 0.153197 -0.00668862 0.350379 0.155572 0.280118 0.134017 -0.268834 0.297676 0.0457073 0.0788199 -0.114744 0.48608 0.0997785 0.140343 0.214904 0.104693 -0.138725 0.091684 0.00409645 -0.259434 0.279354 0.0227166 0.279023 0.0277517 -0.16044 -0.0478733 0.165374 -0.0806418 -0.247628 0.0345045 0.0844076 -0.158305 0.193143 0.161174 0.118056 -0.265862 0.271627 -0.0976746 0.334745 0.306609 -0.0280191 -0.00477095 -0.0628595 0.0620765 -0.103708 -0.0527544 -0.0566743 0.231427 -0.00843241 -0.281311 -0.209247 0.219446 -0.0680681 -0.144587 0.129612 0.201589 0.230698 0.202397 -0.180614 0.411834 -0.0269738 -0.00832194 -0.0614305 0.233547 0.0697132 0.158451 0.225725 0.130117 0.105109 0.0523109 -0.214296 -0.349356 -0.00181934 -0.0591866 -0.350688 -0.00996281 -0.00529188 0.169636 -0.335401 -0.33418 0.00404699 0.148334 0.0145326 0.203193 0.0714135 -0.0448299 -0.0433882 0.197618
26281970 -0.147679 -0.0290503 -0.228029 -0.0757641 0.00176054 0.292214 0.0680713 -0.179406 0.355414 -0.205403 0.0969116 -0.0274315 -0.0585067 -0.048013 0.145908 0.0815148 0.176439 0.146467 -0.197189 0.111815 -0.112255 0.129533 -0.0485836 0.214036 0.0669403 0.0795191 0.103346 4.71168e-05 -0.0968079 -0.0128224 0.103706 -0.0121298 0.096979 -0.0639845 0.0930656 0.0473883 -0.272265 -0.0486158 0.165492 -0.0774656 -0.116334 0.131237 0.0891557 -0.0606533 0.0968148 0.0981442 0.0545419 -0.0133497 -0.0366974 -0.261078 0.343822 0.208632 0.0303353 0.0125735 -0.354488 -0.145473 -0.198545 -0.138892 -0.154772 0.138959 -0.00813487 -0.0111692 -0.0929912 0.176947 -0.249378 -0.0430784 0.118621 0.294229 -0.0658596 0.19208 -0.160077 0.101884 0.111476 -0.0556443 -0.0462718 0.251509 -0.0961751 0.189491 0.156431 0.0901565 0.207765 -0.101987 0.0257438 -0.227503 0.0448877 0.0657811 -0.221706 0.0917197 -0.00569103 0.125619 -0.220797 -0.215315 -0.0529438 0.124864 -0.0713286 0.185027 0.159102 -0.136088 -0.124248 0.0905799
85704847 -0.0892004 -0.00823405 -0.232903 -0.348785 0.106835 0.145152 -0.142531 -0.0768953 0.305638 -0.167906 0.166154 -0.238913 0.0507082 0.0992059 0.413623 0.115161 0.230126 0.137536 -0.339539 -0.0551256 0.119976 0.0438188 -0.0442926 0.478911 0.167993 0.250224 0.0670396 0.163461 0.099732 -0.132141 -0.0163917 -0.169026 0.0475315 -0.035751 0.104839 0.109764 -0.242778 -0.166936 0.142811 -0.0597778 -0.152691 -0.0511603 -0.0549794 0.0028029 0.0580146 0.312663 0.0493203 -0.114601 0.0200983 -0.263575 0.391948 0.233857 -0.125841 0.0985023 -0.309455 -0.0977458 -0.529704 -0.176218 -0.234446 0.200302 -0.0162208 -0.412763 -0.255529 0.2774 -0.168805 0.113023 0.281708 0.182298 0.00628788 0.308384 -0.0639096 0.237983 0.087008 0.109661 -0.120937 0.192533 -0.240086 0.198243 0.233211 0.421782 0.211373 -0.0924447 -0.0443873 -0.30708 0.0863869 0.0469858 -0.282819 0.0312593 0.222757 0.108861 -0.347193 -0.126127 0.24338 0.339035 -0.0284725 -0.104663 0.0259897 0.104202 -0.154794 0.151874
9252942 -0.0225809 0.0369998 -0.246049 -0.381363 0.131772 0.25178 -0.0875875 -0.0396584 0.390854 -0.0376406 0.15307 -0.269748 -0.0294963 0.11962 0.365642 0.0440624 0.230942 0.147419 -0.20004 0.069241 0.0672227 0.0222386 0.0227601 0.546781 0.130801 0.335156 -0.0164717 0.222685 0.0854576 -0.101154 0.00772238 -0.1046 0.283747 -0.0656488 0.100757 0.0107564 -0.23202 -0.108358 0.150926 0.0202053 -0.092013 -0.0413143 -0.0288529 -0.0339321 0.204279 0.238057 0.0354856 -0.205253 0.0634361 -0.283584 0.430716 0.213404 -0.122195 0.114429 -0.353381 -0.036894 -0.507763 -0.198847 -0.367825 0.093317 0.0506463 -0.368666 -0.28001 0.210217 -0.100828 0.0332842 0.27388 0.180153 0.139187 0.324841 -0.175345 0.293428 0.0808255 0.104741 -0.163596 0.123299 -0.157098 0.255204 0.297406 0.404013 0.234951 0.0709452 -0.251151 -0.227373 -0.0388257 -0.0880982 -0.25844 -0.0768571 0.129473 0.0926599 -0.462091 -0.0881768 0.0911291 0.385444 -0.028091 -0.0563343 -0.0212924 0.126733 0.000589139 0.165596
1305941 -0.0257022 0.0435558 -0.34994 -0.409173 0.169958 0.283062 -0.0178685 -0.0774483 0.37653 -0.0388552 0.161859 -0.232544 0.00263908 0.00873583 0.476338 0.172705 0.262813 0.0440299 -0.263395 0.158979 0.0841725 0.0491682 0.137395 0.557796 0.0133118 0.246469 0.060712 0.24958 0.0665286 -0.0762054 0.137193 -0.176759 0.292562 -0.0839118 0.226294 -0.139376 -0.236904 -0.0371203 0.0994526 0.012348 -0.167971 0.0275609 0.0216216 0.00417387 0.094146 0.232118 0.0754367 -0.243625 0.122674 -0.279678 0.446513 0.24951 -0.0788041 0.164078 -0.364282 -0.173078 -0.354986 -0.0728605 -0.309079 0.208496 -0.0278993 -0.377386 -0.227793 0.284073 -0.116259 0.0643148 0.231728 0.275038 0.16946 0.252618 -0.158135 0.272242 -0.136273 0.0795164 -0.139574 0.0799753 0.0212118 0.172723 0.318415 0.253171 0.131414 0.114882 -0.245677 -0.227938 -0.0778569 -0.145082 -0.305543 -0.0420314 0.0949278 0.141575 -0.3576 -0.202259 0.163581 0.249766 -0.072889 0.0254169 -0.0835527 0.152122 -0.0270466 0.131704
15757690 -0.0211576 -0.0862886 -0.166051 -0.268092 0.121469 0.202456 0.00484438 -0.267882 0.212458 -0.0742324 0.0318517 -0.060637 -3.86314e-05 0.0614391 0.300238 0.158609 0.15279 0.000420666 -0.252838 0.148823 0.108218 0.0246666 0.0835743 0.388753 0.163232 0.166091 0.0960541 0.119901 0.0637832 -0.081807 0.18125 -0.00560391 0.165738 0.0431785 0.0947674 0.00271083 -0.309495 -0.106759 0.142086 -0.0900147 -0.0908567 0.0135387 0.124685 -0.075835 0.109955 0.17587 0.161227 -0.148114 0.0289632 -0.0957151 0.440403 0.322833 -0.0253178 0.150602 -0.276348 -0.0534389 -0.399108 -0.267632 -0.286073 0.0261518 -0.0619978 -0.334437 -0.122952 0.229845 -0.16402 -0.0590909 0.106094 0.149901 0.0259509 0.265264 -0.176457 0.260083 0.0337248 0.036228 -0.0632949 0.175409 -0.155298 0.250079 0.153727 0.230223 0.211564 0.0854484 -0.189546 -0.156991 0.0202221 -0.0772617 -0.31641 -0.0472716 0.00783046 0.104264 -0.289021 -0.242073 -0.0707771 0.21676 -0.0447756 -0.0228822 -0.0200782 0.0645236 0.0822951 0.237846
9254272 -0.114525 -0.0573656 -0.294028 -0.0919108 0.0434973 0.310173 0.0456275 -0.0574536 0.432826 -0.271221 -0.00681006 0.0413645 -0.230333 -0.127495 -0.0409239 0.0811215 0.14448 0.450856 -0.171002 0.0085617 -0.348259 0.315677 0.0888839 0.0261175 0.129569 -0.0998921 0.046438 -0.219008 -0.0533767 -0.189662 0.163342 0.238402 0.0326689 -0.186183 -0.0941314 0.160069 -0.315616 -0.0926178 0.308158 -0.131752 0.0187468 0.272276 0.10858 -0.0356119 0.0733603 0.219172 0.0859386 0.11059 -0.246782 -0.48548 0.412434 0.349388 -0.0333503 0.0479943 -0.51528 -0.432072 -0.200501 -0.399613 -0.358093 0.0641091 -0.00817289 0.0802994 -0.073731 0.178334 -0.421583 0.164736 -0.103299 0.494241 -0.152443 0.258891 -0.254235 0.0306858 0.557939 -0.113958 -0.215658 0.354001 -0.287991 0.24971 0.206985 0.18462 0.500588 -0.193649 0.177683 -0.338487 0.0650595 -0.03247 -0.147207 0.182018 -0.0208723 0.0455218 -0.25463 -0.295851 -0.0832082 0.167664 -0.08029 0.21837 0.167775 -0.32115 -0.0820872 -0.0686903
809226 -0.0309595 0.0319195 -0.117618 -0.25179 0.211927 0.312955 0.00374794 -0.163246 0.167705 -0.18785 -0.00537359 -0.152673 -0.169332 0.11493 0.232556 0.127864 0.0544132 0.080627 -0.160329 0.0816907 -0.107761 0.0963153 0.150518 0.300061 0.103138 0.0680451 0.0435955 0.112192 -0.150967 -0.0357953 -0.00840787 -0.0450969 -0.0234763 -0.072422 -0.0987456 -0.0216298 -0.316029 -0.226708 0.122858 -0.030075 -0.075638 0.176549 0.123924 -0.215053 0.202098 0.0837506 -0.0279074 -0.063311 -0.136145 -0.160875 0.431778 0.292059 -0.0459325 0.105728 -0.313721 -0.0658013 -0.425897 -0.0517339 -0.331328 0.0780772 0.0779556 -0.244666 -0.141237 0.223287 -0.105322 -0.0231121 0.167204 0.202387 -0.0537973 0.339012 -0.152425 0.138275 0.060595 0.030405 -0.123537 0.185964 -0.101243 0.37352 0.348658 0.246309 0.229091 -0.0127633 0.000530954 -0.199877 0.00582972 -0.00798629 -0.0978556 -0.0378628 -0.00400789 -0.0471847 -0.329945 -0.111758 0.0164878 0.326807 -0.142631 -0.0190309 0.136625 -0.0352653 -0.0261154 0.0382542
8597562 -0.0921506 -0.0442754 -0.26778 -0.140931 0.101359 0.324832 0.0581485 -0.212674 0.294327 -0.0354353 -0.0056258 -0.0612186 -0.0744968 0.00222749 0.262837 0.112496 0.237946 0.102556 -0.260749 0.182982 -0.125284 0.089829 0.037765 0.356924 0.0396664 0.163728 0.129005 0.12113 -0.0722621 -0.0109587 0.155641 0.0674583 0.235791 -0.101729 0.120264 -0.158181 -0.266322 -0.0582289 0.0987437 -0.0599485 -0.0974296 0.0479245 0.105827 -0.064044 0.24657 0.136159 -0.00322414 -0.0296927 0.0702477 -0.229253 0.438816 0.340892 -0.0242902 0.0762992 -0.299221 -0.119176 -0.252253 -0.127915 -0.308808 0.108143 0.0337442 -0.157667 -0.208649 0.249583 -0.172105 -0.0725111 0.154113 0.2485 0.110565 0.0966953 -0.192564 0.156203 -0.0355617 -0.0209482 -0.169361 0.178756 -0.0860553 0.217084 0.166072 0.124699 0.124207 -0.0124355 -0.130136 -0.236649 -0.0338737 -0.233616 -0.210696 -0.101936 0.0775724 0.124176 -0.293797 -0.215953 -0.0233704 0.11152 -0.0275335 0.1358 -0.00586243 -0.0388031 -0.0783231 0.138808
7282592 -0.124471 0.00996043 -0.204459 -0.235745 0.0663557 0.271332 -0.10236 -0.157973 0.357877 -0.219895 0.283376 -0.0417343 -0.224664 0.00433616 0.0879047 0.0542767 0.169991 0.097975 -0.0255549 0.237318 -0.179725 -0.0254645 0.123461 0.137554 0.0868089 0.0695482 0.123792 -0.0803371 0.0172651 -0.166147 0.133799 -0.0884859 0.0985234 -0.00544537 -0.0626357 0.133517 -0.0231509 -0.105571 0.053434 -0.255901 -0.0551837 0.226474 0.125082 -0.095889 -0.0508763 0.142885 0.137306 -0.0171403 -0.119883 -0.290553 0.301316 0.0209081 0.122001 -0.11809 -0.41182 0.0246633 0.0253015 -0.27281 0.0329619 0.278871 0.179857 -0.0781479 -0.0767674 0.120876 -0.205236 0.183139 0.112586 0.362547 0.0615215 0.0917008 -0.267247 0.209208 0.0235452 -0.121802 -0.0876763 0.204657 0.0463967 0.182463 0.0878508 0.0845956 0.26271 -0.0285531 -0.0526347 -0.336366 0.0584528 0.033335 -0.304735 0.211289 -0.0774993 0.155751 -0.0675128 -0.0603146 -0.0381932 0.238143 -0.083696 0.023277 0.369036 -0.0801949 -0.0285981 -0.00746117
18044341 -0.0117814 0.0659602 -0.210229 -0.473389 0.0374518 0.369769 -0.25209 0.109519 0.464099 -0.273584 0.309333 -0.237115 -0.179931 0.146806 0.183613 0.184339 0.154622 0.111245 0.0241146 0.0726285 0.0775291 0.0905559 0.264368 0.218849 0.0272011 0.0573432 0.0748663 -0.0468473 0.0608724 -0.30281 0.12907 -0.231057 0.055438 -0.102269 -0.124485 0.209837 -0.147666 -0.0973866 0.0157672 -0.118249 0.0314771 0.198193 0.0994394 -0.0361868 -0.158524 0.0754928 0.296785 -0.107608 -0.24328 -0.237166 0.341865 0.00325142 -0.0158269 -0.0670876 -0.406544 -0.0910529 -0.18134 -0.370197 -0.0303741 0.141543 -0.0646963 -0.259376 0.0446675 0.167826 -0.123662 0.307635 0.112567 0.349009 0.055555 0.301443 -0.17885 0.272384 0.0432329 0.0543552 0.047545 0.0521548 0.0591233 0.283993 0.211349 0.236624 0.505161 0.200897 -0.123428 -0.30125 0.0227664 0.0027943 -0.267085 0.288251 -0.0978041 0.101658 -0.234245 -0.162669 0.12719 0.364909 -0.180762 -0.267555 0.290907 0.0600546 0.0604239 -0.125324
8938252 -0.0359318 -0.0620321 -0.394862 -0.0641355 -0.0537032 0.329468 -0.112772 0.0939659 0.565461 -0.276831 -0.012045 -0.0353468 -0.173178 -0.0584659 0.024416 0.0898443 0.206019 0.313768 -0.147411 0.0331813 -0.184315 0.20907 0.0365457 0.103842 0.0675956 -0.0470907 -0.0408896 -0.265682 -0.00841501 -0.194253 0.2163 0.22364 0.167115 -0.190342 -0.0188979 0.110944 -0.295464 -0.0377789 0.268164 -0.17502 0.129877 0.146631 -0.022752 0.122209 -0.0043777 0.0977398 0.149519 0.0692426 -0.148341 -0.422215 0.398158 0.282947 -0.0979254 -0.0297078 -0.541501 -0.340878 -0.294187 -0.475373 -0.287856 0.0434162 -0.0466568 0.0845126 -0.0213573 0.127758 -0.290696 0.0925213 -0.0925884 0.484042 -0.00469736 0.213806 -0.269581 -0.0775807 0.360425 -0.0455154 -0.25642 0.342577 -0.167199 0.270114 0.158306 0.118032 0.436834 0.0234514 0.0602516 -0.294927 0.0953037 -0.138886 -0.198356 0.121131 -0.00858022 0.227188 -0.318422 -0.376989 -0.0576644 0.107916 -0.0872241 0.0614385 0.155531 -0.107851 -0.0534065 -0.0306543
18952133 -0.0872569 -0.053958 -0.35536 0.0193187 0.0260799 0.296203 -0.00647235 0.0159717 0.456958 -0.333896 -0.0407354 0.0568108 -0.255021 -0.120944 -0.0615547 0.105244 0.118813 0.417652 -0.130344 0.0277755 -0.314515 0.273492 0.0623123 -0.00959821 0.141524 -0.123457 -0.00348939 -0.304239 -0.0458119 -0.173642 0.169313 0.292032 0.0748215 -0.239581 -0.128382 0.0970421 -0.399651 -0.0834641 0.333801 -0.178397 0.0911636 0.297838 0.0933692 -0.023981 0.0267478 0.140073 0.0740869 0.142573 -0.233509 -0.457099 0.364313 0.292717 -0.0176129 0.0408724 -0.581661 -0.40244 -0.285667 -0.430748 -0.382216 0.0516381 -0.00616696 0.122062 -0.0427091 0.143794 -0.403884 0.0840032 -0.0646107 0.540137 -0.124928 0.27988 -0.298978 -0.0185311 0.561221 -0.0580434 -0.265445 0.364924 -0.312838 0.257441 0.185883 0.112536 0.481259 -0.14225 0.177074 -0.310096 0.0759361 -0.0983799 -0.224878 0.181374 0.0368685 0.121917 -0.247548 -0.300357 -0.145331 0.164525 -0.109095 0.181911 0.209867 -0.271636 -0.117661 -0.0727164
