140 100
132045014 -0.0101681 -0.143678 0.319299 -0.0346219 0.0835442 0.094536 0.0687619 -0.213345 0.049374 0.0634732 0.313464 0.44267 0.562497 0.240575 -0.0604563 0.0687011 -0.347321 0.260029 -0.000958692 0.179378 -0.107057 0.0143489 -0.176198 -0.141398 0.0376197 -0.0964218 0.0257349 -0.226051 -0.351816 0.173742 -0.162763 0.00902925 0.0143805 0.0499915 0.317154 -0.0836235 -0.116582 0.0597584 -0.130017 -0.0839351 0.201594 -0.0247095 0.144541 -0.112222 0.1344 0.0955658 0.208972 0.138083 0.0447246 0.214879 -0.0341209 -0.276836 -0.2085 0.127086 -0.214045 0.107863 0.0376491 -0.0522444 0.045584 -0.0448563 -0.0908176 0.188266 -0.212863 -0.098138 -0.097887 0.025425 -0.224748 -0.00214711 -0.0486961 -0.0744528 -0.159856 -0.107179 0.130238 -0.325845 0.0298665 0.108344 -0.0273313 0.0478105 -0.0236687 -0.0178415 0.0152037 -0.205289 0.0479444 -0.148039 -0.217872 -0.131632 -0.0612466 0.0324043 0.0319402 -0.201078 0.090096 0.0444818 -0.330139 0.149648 -0.255715 -0.0358777 -0.0918425 0.0144073 -0.105801 -0.129312
18227062 0.000625345 -0.222547 0.377033 -0.0340544 0.174275 0.0709918 0.0380438 -0.258388 0.0560869 0.130409 0.303399 0.481886 0.574293 0.292053 -0.106265 0.0638935 -0.362439 0.293427 0.0350926 0.140808 -0.149677 -0.0588264 -0.212835 -0.164108 0.144448 -0.153271 0.0772035 -0.243855 -0.283376 0.167414 -0.106744 0.0106873 0.00969291 0.10306 0.30293 -0.0873215 -0.138097 0.0329642 -0.193971 -0.222208 0.224404 -0.115498 0.109218 -0.0669281 0.136011 0.0889862 0.187134 0.120869 0.10613 0.269987 0.023918 -0.254721 -0.270504 0.15188 -0.143792 0.137052 0.0708083 -0.0849148 0.0561356 -0.0779451 -0.0493887 0.178114 -0.236447 -0.104044 -0.050232 -0.0109179 -0.237602 0.0380492 -0.115011 -0.0439609 -0.149838 -0.150411 0.187742 -0.355461 0.0036518 0.082327 -0.0363705 0.105234 -0.0649232 -0.00400791 -0.0297599 -0.227525 0.0384944 -0.144806 -0.167847 -0.0785235 -0.10483 0.0759708 0.0109836 -0.180102 0.00459493 0.10362 -0.30303 0.151536 -0.34104 -0.0686404 -0.0546177 0.00105694 -0.0901335 -0.153738
80380339 -0.0622225 -0.169252 0.412254 -0.005967 0.0541492 0.106031 0.0943064 -0.122285 0.0301573 0.0603398 0.324999 0.410435 0.450175 0.19757 -0.0980018 0.166054 -0.274187 0.255077 0.0309178 0.103032 -0.0833892 0.0969646 -0.163151 -0.163976 0.0473099 -0.133229 0.000478325 -0.262349 -0.436986 0.1968 -0.283119 0.0451997 0.0357963 0.140366 0.232396 -0.128003 -0.0907542 0.022744 -0.118823 -0.116894 0.152524 -0.0133131 0.0712011 -0.0302997 0.193513 0.170036 0.238847 0.218881 0.140522 0.184784 -0.0137726 -0.373624 -0.223242 0.106855 -0.259336 0.161316 0.166999 -0.0781072 -0.0754987 -0.00758538 -0.120908 0.136921 -0.151707 -0.0791005 -0.148753 -0.0121467 -0.29734 0.0476671 -0.0977253 -0.10437 -0.187155 -0.137723 0.190456 -0.322111 0.00184171 0.119091 -0.184421 0.034891 -0.109733 0.0382706 -0.0752576 -0.232641 0.0400471 -0.144823 -0.264087 -0.0767159 0.00801177 0.0345885 0.0441868 -0.255443 0.0686294 0.00939895 -0.2866 0.149167 -0.21057 -0.0960084 -0.163546 0.0109953 -0.278254 -0.179018
20523207 -0.0499474 -0.1401 0.367788 -0.0153154 0.0601007 0.0941116 0.123279 -0.0737371 0.0150962 0.117312 0.335456 0.40879 0.44754 0.143352 -0.0954492 0.164956 -0.284945 0.244941 0.0505497 0.0750002 -0.125611 0.117897 -0.186511 -0.174565 0.0570359 -0.134061 -0.0339881 -0.296654 -0.417347 0.218866 -0.297776 0.0366402 0.0447157 0.141704 0.24745 -0.0981509 -0.0967975 0.00314886 -0.0872409 -0.104346 0.133744 0.0257742 0.0964503 -0.0695802 0.2421 0.169672 0.267583 0.199474 0.172231 0.182186 -0.0295065 -0.400732 -0.257301 0.111604 -0.259027 0.173009 0.146659 -0.130237 -0.101297 0.0280884 -0.116609 0.134995 -0.129087 -0.0980899 -0.158093 -0.0433937 -0.288245 0.0518955 -0.0320104 -0.0543854 -0.171756 -0.218907 0.214823 -0.304731 0.00472348 0.130197 -0.149233 0.0604994 -0.106195 0.00508844 -0.086361 -0.189227 0.0166267 -0.139296 -0.28467 -0.114412 0.00972224 -0.00630429 0.0719478 -0.296389 0.0489417 0.036055 -0.29159 0.132807 -0.227047 -0.0814132 -0.150418 -0.005007 -0.292516 -0.17417
57469323 -0.0176043 -0.149214 0.355494 -0.0670056 0.0991518 0.0514612 0.0340391 -0.2843 0.00345591 0.0932803 0.331601 0.508073 0.565093 0.27388 -0.0454819 -0.005918 -0.320714 0.274831 -0.0419693 0.204562 -0.0968439 -0.0804937 -0.199123 -0.0813452 0.0426683 -0.15553 0.0450671 -0.207452 -0.285915 0.140437 -0.0751257 -0.00174977 0.0336612 -0.000749865 0.317205 -0.0855316 -0.13465 0.0310554 -0.191295 -0.166262 0.246593 -0.103934 0.162568 -0.114968 0.122348 0.0709974 0.162204 0.108707 0.0705438 0.263224 -0.0706304 -0.239334 -0.218044 0.129989 -0.170918 0.104546 0.057287 -0.0654056 0.10148 -0.0803955 -0.0672071 0.194456 -0.293709 -0.0933284 -0.0737869 0.0226194 -0.243579 0.0183534 -0.13289 -0.0488591 -0.10521 -0.133469 0.142488 -0.373428 -0.0222111 0.0568651 0.0549985 0.0598814 -0.0322061 -0.00880549 0.0533434 -0.231095 0.0514418 -0.16056 -0.183351 -0.0887196 -0.1535 0.0882689 -0.0213749 -0.160207 0.0448498 0.0652283 -0.321067 0.141502 -0.336427 0.00188233 -0.0132028 0.00159486 -0.0768869 -0.133163
125767923 -0.0446153 -0.134723 0.327339 -0.0764498 0.103674 0.0409495 0.0547976 -0.243853 0.0841473 0.0250839 0.268509 0.475974 0.476798 0.192466 -0.0601679 0.103993 -0.325998 0.152964 0.0648765 0.264805 -0.194074 0.0686866 -0.150199 -0.141661 -0.0344556 -0.0415081 0.00165636 -0.216613 -0.408658 0.177225 -0.194439 -0.00896844 0.0355258 0.0963849 0.232047 -0.0583849 -0.0792061 0.0811195 -0.136784 -0.0595004 0.160653 -0.0351372 0.143 -0.124351 0.121273 0.181019 0.219043 0.151717 0.0147913 0.224369 0.0286905 -0.250679 -0.165597 0.129304 -0.247892 0.119048 0.079374 -0.0546981 -0.0401067 -0.0604375 -0.0942829 0.209205 -0.142881 -0.000217366 -0.150324 0.0176057 -0.248825 0.0536489 -0.0959923 -0.0222764 -0.197025 -0.140639 0.19874 -0.291155 0.0241829 0.0999086 -0.0473321 -0.0234817 -0.102615 0.0363944 0.0245451 -0.205275 0.0155977 -0.0653997 -0.205704 -0.145436 -0.0796111 0.0298636 0.00553765 -0.247975 0.0873113 0.0627172 -0.288162 0.0985324 -0.289525 -0.00387166 -0.122382 -0.0346444 -0.0865229 -0.133528
21698940 -0.0740685 -0.176952 0.388708 0.0128433 0.0539592 0.122626 0.124462 -0.0557774 0.0319902 0.0666356 0.337563 0.398904 0.438088 0.142489 -0.113634 0.224217 -0.272374 0.253079 0.063549 0.0815607 -0.0959418 0.147753 -0.160492 -0.187406 0.0269119 -0.133532 -0.0554902 -0.284135 -0.461295 0.215981 -0.342453 0.0552681 0.0590748 0.162918 0.226918 -0.128981 -0.079346 0.00920205 -0.068277 -0.0887401 0.0954373 0.0236745 0.07558 -0.0497986 0.214862 0.195374 0.286989 0.25476 0.14937 0.176691 -0.0125084 -0.423248 -0.225588 0.0955333 -0.301296 0.171802 0.186418 -0.108104 -0.128538 0.033847 -0.145753 0.138878 -0.106005 -0.104197 -0.203279 -0.0462237 -0.310195 0.0275634 -0.0540185 -0.0905779 -0.197256 -0.189214 0.202321 -0.289535 0.0239646 0.142653 -0.240718 0.029043 -0.109147 0.0379203 -0.103352 -0.220314 -0.00596812 -0.122145 -0.294708 -0.113331 0.0428139 -0.016286 0.07152 -0.313016 0.0758453 -0.00123226 -0.314189 0.155891 -0.185582 -0.10891 -0.200312 0.0218562 -0.35016 -0.183746
291918186 -0.0400816 -0.170509 0.368041 -0.0166789 0.0912877 0.0743307 0.0776342 -0.158466 0.0235115 0.0982415 0.3488 0.414841 0.491387 0.226775 -0.0886951 0.129211 -0.323084 0.268811 0.04567 0.109728 -0.124949 -0.000781601 -0.195551 -0.170509 0.0591606 -0.158769 -0.00204736 -0.259801 -0.339037 0.203459 -0.217514 0.0317295 0.0321827 0.11073 0.256673 -0.121844 -0.113241 0.0324235 -0.157168 -0.159255 0.16041 -0.0565079 0.0793213 -0.051962 0.186098 0.141685 0.221335 0.192308 0.143603 0.219166 -0.0151655 -0.319771 -0.266156 0.115328 -0.237039 0.156257 0.14115 -0.131008 -0.0187551 -0.0317349 -0.0991503 0.136306 -0.200466 -0.124526 -0.122045 -0.0315453 -0.244876 0.0194672 -0.0894231 -0.0634262 -0.139126 -0.180247 0.199219 -0.310794 0.00341004 0.11134 -0.147168 0.0341224 -0.0932758 0.0326111 -0.0616071 -0.230321 0.0197927 -0.135756 -0.226189 -0.0840387 -0.0253887 0.0356356 0.0518683 -0.261646 0.0573326 0.031143 -0.32039 0.164779 -0.274425 -0.0810826 -0.134653 0.0213309 -0.224702 -0.163544
118710252 -0.0412478 -0.197611 0.40491 -0.016472 0.0912186 0.0914804 0.0662134 -0.188585 0.0302717 0.101954 0.35058 0.428794 0.504901 0.247709 -0.110006 0.130929 -0.331575 0.290265 0.0360987 0.106242 -0.0907728 -0.0202108 -0.189671 -0.162393 0.0815644 -0.162927 0.00815927 -0.255356 -0.34286 0.190945 -0.203364 0.022166 0.0233121 0.100926 0.264743 -0.114171 -0.109523 0.000471033 -0.167105 -0.18932 0.187025 -0.0746365 0.100289 -0.0215679 0.171364 0.131412 0.218073 0.195676 0.143939 0.244132 0.000920283 -0.316008 -0.276529 0.114028 -0.21706 0.150313 0.137474 -0.114081 0.00132817 -0.0255658 -0.102377 0.137877 -0.2075 -0.116408 -0.109931 -0.0363779 -0.250223 0.0368057 -0.105329 -0.0821536 -0.148711 -0.13399 0.199776 -0.32273 -0.00582124 0.0899096 -0.139426 0.0640831 -0.0721256 0.0424974 -0.0427104 -0.225168 0.0681662 -0.168275 -0.198752 -0.0703117 -0.0519779 0.04068 0.0400526 -0.234274 0.0616006 0.0453975 -0.319166 0.179702 -0.270246 -0.0704015 -0.0818241 0.0285102 -0.220194 -0.179731
222477210 -0.0548311 -0.160479 0.320842 -0.0581288 0.0876179 0.04152 0.0616981 -0.232997 0.0284174 0.0563169 0.288942 0.463282 0.521807 0.22728 -0.0550464 0.0876452 -0.297146 0.232239 0.0321001 0.216318 -0.140242 -0.00286098 -0.167416 -0.136853 -0.0362132 -0.0939325 0.0225517 -0.215638 -0.313076 0.149039 -0.158861 0.00807347 0.0766225 0.0648529 0.275939 -0.100256 -0.109735 0.0700874 -0.1642 -0.1011 0.180797 -0.0690509 0.144668 -0.122818 0.147808 0.139635 0.192382 0.12895 0.0297448 0.211512 -0.0199652 -0.238658 -0.182833 0.122489 -0.241423 0.099547 0.0645319 -0.0483793 0.0197597 -0.0864641 -0.0859023 0.219482 -0.226243 -0.0659886 -0.112197 0.00117872 -0.251214 0.0140805 -0.139001 -0.0277121 -0.14628 -0.176637 0.12777 -0.334132 0.00247432 0.0904627 -0.0517762 -0.0579666 -0.0704195 0.013698 0.0182759 -0.254848 0.0463384 -0.0687503 -0.185907 -0.118154 -0.10425 0.0615203 0.0311465 -0.220164 0.126487 0.0464663 -0.3186 0.13695 -0.289335 0.027813 -0.0835062 0.0323108 -0.0950594 -0.109232
537245761 -0.000525836 -0.136833 0.349755 -0.0553115 0.0840833 0.0342346 0.07698 -0.214187 0.0350161 0.0285588 0.3253 0.429988 0.515029 0.231573 -0.00562007 0.099826 -0.324151 0.174358 0.00177278 0.218054 -0.148247 -0.0114218 -0.167438 -0.0927808 -0.0368039 -0.0890695 0.00176745 -0.221569 -0.36767 0.175827 -0.147173 0.0506441 0.0281433 0.0694542 0.239914 -0.119576 -0.0933769 0.0644253 -0.169696 -0.0554874 0.157278 -0.0689477 0.133791 -0.0963248 0.0881837 0.149937 0.182292 0.141494 0.0734449 0.210737 -0.0133426 -0.222466 -0.168687 0.123922 -0.225452 0.1039 0.0470639 -0.0351437 0.0384042 -0.0712293 -0.15344 0.133428 -0.175716 -0.0367984 -0.116774 0.00111092 -0.192835 0.055646 -0.0610518 -0.0516545 -0.114568 -0.165955 0.151348 -0.35579 -0.00299826 0.0858877 -0.02992 0.0251202 -0.0866209 -0.000318034 0.0350057 -0.189684 0.00242963 -0.108737 -0.213311 -0.11404 -0.068818 0.0866052 0.0172826 -0.217483 0.0865209 0.047026 -0.278544 0.142308 -0.278335 0.0195727 -0.121966 -0.0294753 -0.120911 -0.0637186
137457794 -0.0526604 -0.198278 0.39213 -0.0322308 0.103025 0.0920224 0.0549415 -0.172244 0.0228573 0.106139 0.311926 0.432701 0.479348 0.206402 -0.084627 0.146584 -0.324055 0.262834 0.027058 0.10813 -0.0818673 0.0418395 -0.158845 -0.176627 0.051503 -0.14286 0.0170608 -0.243996 -0.387906 0.204809 -0.21054 0.0231158 0.0639295 0.094158 0.261887 -0.138135 -0.0888163 0.0176685 -0.163541 -0.129433 0.184384 -0.031055 0.0907426 -0.0603442 0.197416 0.144083 0.213846 0.210393 0.100351 0.174384 0.00248923 -0.321972 -0.2502 0.132825 -0.22725 0.155384 0.13114 -0.0946753 -0.0396478 -0.0336193 -0.102174 0.16029 -0.183282 -0.126137 -0.124622 -0.031743 -0.274209 0.00127241 -0.132099 -0.0295541 -0.158181 -0.146775 0.177226 -0.34933 -0.00954611 0.0893145 -0.126479 0.0249573 -0.0926654 0.0232096 -0.0656155 -0.235179 0.0210097 -0.134919 -0.230836 -0.118579 -0.0551841 0.0216096 0.0608796 -0.209188 0.0699007 0.0634733 -0.299088 0.154944 -0.257366 -0.0625218 -0.110731 0.0306254 -0.235394 -0.186057
130879506 -0.0474321 -0.167211 0.37409 -0.00445254 0.0667582 0.117357 0.129557 -0.0950447 0.0622684 0.00748438 0.257094 0.373512 0.373563 0.116458 -0.0703608 0.282536 -0.27005 0.11943 0.116654 0.15598 -0.162271 0.165636 -0.0919971 -0.210885 -0.0537553 -0.0119103 -0.099202 -0.201856 -0.53437 0.236112 -0.334597 0.027065 0.087347 0.178473 0.149581 -0.168122 -0.00350677 0.0789081 -0.0897375 0.0248991 0.0487359 0.0448992 0.0754724 -0.0919922 0.168073 0.24133 0.253885 0.26013 0.0711036 0.120381 0.0464937 -0.315733 -0.174468 0.0903288 -0.325957 0.159228 0.155097 -0.0666093 -0.162918 0.00814821 -0.203417 0.0970547 -0.0224838 -0.0494354 -0.219925 -0.0654328 -0.240858 0.0370111 -0.0373228 -0.0655414 -0.198527 -0.18513 0.225643 -0.246579 0.0421511 0.132392 -0.26604 -0.0118789 -0.161186 0.073543 -0.119606 -0.206162 -0.0932136 -0.0681745 -0.297069 -0.174611 0.0441454 -0.0390567 0.0538615 -0.331077 0.0760663 0.0208782 -0.239081 0.133683 -0.172291 -0.0944513 -0.291934 -0.000852508 -0.27755 -0.153938
296561059 -0.0125022 -0.140584 0.375015 -0.0549711 0.109714 0.0462456 0.0521727 -0.240004 0.0056023 0.156122 0.351771 0.518734 0.58851 0.294019 -0.0362735 0.0149091 -0.380311 0.29887 -0.0561873 0.153526 -0.0739283 -0.0899265 -0.213901 -0.134332 0.107137 -0.167237 0.1116 -0.257074 -0.266255 0.183236 -0.0713423 0.0100767 0.0451891 0.00194743 0.309312 -0.0731424 -0.132276 0.00637303 -0.223129 -0.198881 0.277015 -0.0960659 0.157645 -0.0761408 0.157361 0.0645941 0.187169 0.116343 0.0973999 0.245372 -0.0707195 -0.289987 -0.250541 0.156836 -0.161298 0.119971 0.0331384 -0.0634606 0.099632 -0.0621414 -0.0565397 0.188214 -0.288905 -0.11058 -0.0604395 0.0413919 -0.240366 0.0449808 -0.162599 -0.0365325 -0.119024 -0.131854 0.108108 -0.399874 -0.0371338 0.0789497 0.0610807 0.0808418 -0.0361594 -0.0399368 0.0262114 -0.225641 0.0871206 -0.182821 -0.200658 -0.0805309 -0.149187 0.0899329 0.0241662 -0.126849 0.0394359 0.105625 -0.307958 0.130317 -0.353113 -0.0318396 0.00593617 -0.0170978 -0.136602 -0.136294
330683316 -0.0138227 -0.160018 0.358852 -0.0638963 0.0941555 0.0540927 0.024845 -0.266177 0.00566028 0.121052 0.354089 0.500295 0.588455 0.306341 -0.0344872 0.0244256 -0.367183 0.282663 -0.0475065 0.161574 -0.0883684 -0.0929659 -0.202554 -0.151256 0.0788329 -0.150093 0.0773038 -0.209031 -0.29873 0.1824 -0.0667209 -0.00251081 0.0553624 -0.0092581 0.307414 -0.102899 -0.137744 0.0475966 -0.252755 -0.180882 0.293714 -0.11133 0.135769 -0.0897113 0.12676 0.0890782 0.189743 0.110656 0.0653938 0.238978 -0.0772065 -0.258487 -0.23808 0.126627 -0.207989 0.144252 0.0592812 -0.0547001 0.0964965 -0.0869002 -0.0654821 0.178359 -0.294059 -0.137814 -0.0855091 0.0604926 -0.227963 0.0207608 -0.187515 -0.0378462 -0.122199 -0.112871 0.108349 -0.377908 -0.0117261 0.0840917 0.0159433 0.0393336 -0.008322 0.00717909 0.00310802 -0.246398 0.0720746 -0.182131 -0.18629 -0.0857025 -0.145279 0.0662557 0.0186181 -0.135753 0.0701222 0.082053 -0.316167 0.157573 -0.34872 -0.0401421 -0.0281696 0.0158599 -0.12073 -0.145005
26014461 -0.0266714 -0.21246 0.420478 -0.0205823 0.157514 0.0742485 0.0280392 -0.209635 0.0539026 0.106016 0.322208 0.42506 0.489072 0.226009 -0.0948805 0.144207 -0.346477 0.241137 0.0547121 0.118327 -0.0980633 -0.00519801 -0.171878 -0.162248 0.0721601 -0.149213 -0.000767421 -0.222556 -0.374409 0.198081 -0.186687 0.0242269 0.0254241 0.107151 0.263228 -0.151668 -0.0744781 0.00568275 -0.191237 -0.159703 0.176427 -0.0888839 0.0967787 -0.0509073 0.176951 0.132678 0.183809 0.229517 0.105852 0.198802 0.0432196 -0.267121 -0.270399 0.141916 -0.200301 0.164087 0.102989 -0.095493 -0.0137578 -0.0458964 -0.0807356 0.138361 -0.185735 -0.123784 -0.0887777 -0.0383785 -0.234594 0.0311991 -0.12219 -0.0610071 -0.172444 -0.147096 0.209651 -0.358045 -0.00927305 0.0744676 -0.102021 0.058502 -0.11753 0.0510607 -0.0508515 -0.245831 0.0167466 -0.139295 -0.164358 -0.10184 -0.0832796 0.0548193 0.0536891 -0.191209 0.0274451 0.0844125 -0.288241 0.173438 -0.2941 -0.0551928 -0.0906561 0.0238032 -0.166911 -0.163335
46039823 -0.0363069 -0.165494 0.351493 -0.0436496 0.0912054 0.065376 0.0787641 -0.191662 0.0197541 0.11246 0.321835 0.474332 0.548877 0.263722 -0.0307102 0.0747193 -0.337975 0.290595 -0.0359374 0.146981 -0.0574529 -0.0279541 -0.188515 -0.133904 0.0428123 -0.144039 0.084108 -0.239056 -0.303041 0.152697 -0.114072 0.0429954 0.0603007 0.0145448 0.292105 -0.113043 -0.114324 0.0291993 -0.169316 -0.131571 0.223952 -0.0803731 0.13303 -0.0648375 0.142781 0.0960313 0.190519 0.114224 0.0756992 0.226392 -0.0774549 -0.292027 -0.198391 0.130782 -0.205348 0.105005 0.0578275 -0.0448962 0.0456816 -0.0734069 -0.0883524 0.201096 -0.238612 -0.0926053 -0.109401 0.0438676 -0.274056 0.0292487 -0.149296 -0.0258108 -0.135488 -0.132901 0.0913812 -0.375748 -0.0337316 0.0838882 -0.0407836 0.016022 -0.0380673 -0.0397438 0.00323418 -0.235495 0.0699413 -0.121162 -0.210693 -0.0747427 -0.109138 0.0852811 0.0539447 -0.160723 0.0873702 0.064652 -0.3045 0.134997 -0.285318 -0.0174894 -0.0330099 0.0114965 -0.159688 -0.115405
281261146 -0.00376711 -0.142087 0.312423 -0.0693684 0.117587 0.0311755 0.0287457 -0.253704 0.0137515 0.0959624 0.321008 0.498178 0.627844 0.290896 -0.0112055 0.0132795 -0.357515 0.251197 -0.0676185 0.21766 -0.0852645 -0.0516479 -0.199406 -0.0838542 0.00354161 -0.12686 0.0735463 -0.22554 -0.267155 0.157222 -0.0569516 0.0180536 0.0336973 -0.0349832 0.328209 -0.0975025 -0.150414 0.0514854 -0.21664 -0.128704 0.252212 -0.0989018 0.160716 -0.110676 0.120761 0.0686151 0.139651 0.113809 0.0193962 0.218216 -0.0890074 -0.224068 -0.173438 0.118838 -0.177463 0.112678 -0.00998803 -0.0478851 0.113893 -0.0953349 -0.0570879 0.213937 -0.295882 -0.0980271 -0.0647582 0.0636113 -0.266623 0.0113111 -0.171182 -0.0283137 -0.139247 -0.14309 0.0756859 -0.428166 -0.0339336 0.0813119 0.105701 0.00930283 -0.0104076 -0.0599184 0.08489 -0.226265 0.0769694 -0.10359 -0.168177 -0.0999259 -0.174924 0.100357 0.0364563 -0.127486 0.0924517 0.0767364 -0.331832 0.160676 -0.358704 0.048188 0.0223928 0.0211068 -0.039079 -0.0805205
61288679 -0.0640601 -0.148757 0.303184 -0.0680045 0.0794114 0.0392906 0.0458462 -0.275223 0.0597828 -0.0747565 0.195564 0.464919 0.481792 0.185257 0.0547948 0.225415 -0.38193 0.0482426 0.0772933 0.342763 -0.176953 0.0694175 -0.180195 -0.0810423 -0.198927 0.0426758 -0.0780761 -0.130416 -0.443656 0.111555 -0.136375 0.0156815 0.0945439 0.0320609 0.162777 -0.166883 -0.00627335 0.132651 -0.137388 0.0222463 0.092086 -0.0946832 0.175973 -0.136391 -0.0104105 0.251507 0.160742 0.152555 -0.0935094 0.260187 0.0384413 -0.104224 -0.0801792 0.0963719 -0.31259 0.110806 0.0576087 0.0116213 -0.0105604 -0.10984 -0.223089 0.187951 -0.126772 0.00805417 -0.195843 -0.0312438 -0.198175 0.0291635 -0.0698441 -0.0335299 -0.155262 -0.147428 0.128064 -0.285219 0.0560925 0.0708944 -0.116773 -0.13315 -0.174475 0.0886153 0.100054 -0.237513 -0.0782218 0.0552223 -0.176175 -0.161916 -0.115 0.0459372 0.016255 -0.297318 0.18347 0.0495998 -0.314708 0.150165 -0.259085 0.10266 -0.183915 0.0767149 0.00185176 -0.0213723
14133286 -0.060623 -0.174939 0.312308 -0.110188 0.104338 0.0304218 -0.00160625 -0.318078 0.0449875 -0.116081 0.168977 0.499661 0.523377 0.172651 0.149436 0.217084 -0.418423 -0.030998 0.0512378 0.454976 -0.113123 0.102825 -0.165099 -0.0012084 -0.352209 0.0735896 -0.108367 -0.0663201 -0.499699 0.0865983 -0.112667 0.0679657 0.0755582 -0.0424373 0.1924 -0.26911 0.00552062 0.143507 -0.141134 0.115142 0.0468082 -0.0975431 0.213519 -0.22519 -0.0417741 0.252461 0.0737904 0.190295 -0.190879 0.246906 0.0156787 -0.0498611 -0.0200067 0.103615 -0.318455 0.0768476 -0.0348733 0.0876833 0.0361756 -0.115705 -0.233739 0.201592 -0.149428 0.00162567 -0.194133 -0.0108454 -0.208384 -0.00320518 -0.0572534 -0.0328156 -0.169681 -0.177469 0.0704446 -0.39891 0.014349 0.0294082 0.00161046 -0.193053 -0.225101 0.0332681 0.210866 -0.294049 -0.0989584 0.126682 -0.142007 -0.192228 -0.169496 0.116667 0.0237396 -0.256519 0.239624 0.0645081 -0.341148 0.174593 -0.269708 0.210555 -0.130211 0.115127 0.10883 0.0602358
17651391 -0.0573439 -0.140545 0.301296 -0.0869836 0.0691945 0.0264568 0.0447653 -0.27545 0.0305755 -0.0375365 0.196881 0.473555 0.523295 0.215347 0.0906444 0.174558 -0.406518 0.0683774 0.0491534 0.337389 -0.137753 0.102231 -0.149679 -0.0560737 -0.218845 0.0302926 -0.0433608 -0.141923 -0.450771 0.113611 -0.122366 0.0140219 0.0996513 0.002761 0.187599 -0.165728 -0.0348831 0.125145 -0.100737 0.0536749 0.0913337 -0.0524209 0.203324 -0.153129 0.0116593 0.224363 0.112694 0.15436 -0.0864176 0.240269 0.0139917 -0.141339 -0.0870998 0.102444 -0.273692 0.0905336 -0.0102097 0.0173693 0.00991198 -0.0914552 -0.212202 0.181313 -0.137186 -0.000830145 -0.176107 0.00285158 -0.205281 0.0251917 -0.0679646 -0.0192279 -0.168262 -0.14786 0.084408 -0.357555 0.0283394 0.0816253 -0.0336704 -0.105836 -0.15523 0.0189438 0.12568 -0.257917 -0.0275591 0.0528733 -0.167084 -0.177762 -0.117584 0.0882082 0.0379396 -0.240814 0.196301 0.0710221 -0.304191 0.153314 -0.25266 0.127235 -0.12088 0.07945 0.0241293 -0.0122768
79250767 0.0124217 -0.113639 0.314329 -0.0885882 0.0424426 0.0666912 0.0728155 -0.246129 0.0431805 0.0110216 0.232513 0.44505 0.46862 0.114776 0.0633396 0.155757 -0.371293 0.0489584 0.0764434 0.260049 -0.1609 0.144964 -0.152277 -0.0864298 -0.137871 0.0312821 -0.107605 -0.158328 -0.514859 0.188679 -0.170758 0.00576978 0.0426976 0.0561068 0.190734 -0.149239 -0.028786 0.118998 -0.101271 0.103809 0.104807 0.037777 0.191655 -0.194532 0.076889 0.241103 0.174221 0.164825 -0.00911161 0.226281 0.0215691 -0.184274 -0.163287 0.114062 -0.282061 0.140276 0.039667 -0.0477028 -0.0434278 -0.0421185 -0.21838 0.118147 -0.0780899 -0.049534 -0.193076 -0.0594894 -0.172504 0.0270968 0.03981 0.00270555 -0.119984 -0.170049 0.160907 -0.311389 0.0290648 0.0617005 -0.0503353 0.000302562 -0.15002 0.0297777 0.0416337 -0.173909 -0.0897697 -0.035815 -0.245682 -0.245811 -0.0717127 0.0106912 0.0362538 -0.310489 0.104856 0.093702 -0.28794 0.099737 -0.257679 0.0749375 -0.185401 0.0319958 -0.0583669 -0.0638881
18194219 -0.0819948 -0.181515 0.341305 -0.0188462 0.0781448 0.0863661 0.0574539 -0.175291 0.0204751 -0.000134294 0.275721 0.416543 0.469439 0.146309 -0.0395497 0.194388 -0.310796 0.16636 0.0608197 0.18193 -0.105065 0.103925 -0.147958 -0.179143 -0.0529086 -0.0601295 -0.0371716 -0.179334 -0.438316 0.168509 -0.235072 0.039603 0.0565116 0.104825 0.200705 -0.161587 -0.0550493 0.0540612 -0.137004 -0.0493048 0.130665 -0.0497268 0.116139 -0.0902509 0.140238 0.180333 0.230331 0.203304 0.0181285 0.147763 0.00364848 -0.25107 -0.167903 0.120752 -0.288276 0.157802 0.118065 -0.0185209 -0.0395713 -0.0366379 -0.147301 0.160424 -0.14112 -0.097918 -0.158582 0.0155864 -0.235421 0.0159122 -0.08535 -0.0703893 -0.178901 -0.166269 0.135039 -0.306379 0.0218035 0.110965 -0.146739 -0.0424117 -0.115394 0.0797238 -0.00961418 -0.247746 -0.0329667 -0.0826522 -0.237224 -0.143811 -0.0605926 0.0256783 0.0658781 -0.239234 0.115043 0.0350711 -0.300463 0.17036 -0.221966 -0.0472248 -0.174718 0.0556305 -0.19062 -0.10008
240803165 -0.00768268 -0.125177 0.320782 -0.040235 0.114468 0.0249579 0.0694035 -0.243682 0.0366695 0.0465759 0.275264 0.482138 0.522547 0.228504 -0.00266494 0.0893224 -0.306945 0.17082 -0.00406402 0.269364 -0.137146 -0.0317649 -0.170466 -0.0689667 -0.0359709 -0.0691283 0.0114695 -0.215061 -0.302375 0.137992 -0.106223 0.0302531 0.0362451 0.0337427 0.229239 -0.126759 -0.0917459 0.0971433 -0.192293 -0.104714 0.177754 -0.0929002 0.126515 -0.110336 0.0592467 0.148718 0.165457 0.139579 0.0124869 0.258829 -0.0559529 -0.216734 -0.138525 0.10742 -0.250176 0.117033 0.0747346 -0.0487938 0.0483981 -0.10982 -0.124378 0.215074 -0.240748 -0.0513858 -0.132543 0.0362571 -0.241639 0.0566546 -0.140572 -0.0644562 -0.14259 -0.172349 0.0944003 -0.350351 -0.00364104 0.0732223 0.0235927 -0.0466857 -0.0958161 0.000561303 0.0636161 -0.221878 0.00564398 -0.0512435 -0.193407 -0.0988614 -0.115563 0.0953933 0.00208639 -0.218347 0.0753088 0.032636 -0.309516 0.117525 -0.345884 0.0657078 -0.097482 -0.0208356 -0.0749897 -0.0355206
228850838 0.00492291 -0.161489 0.3482 -0.0443889 0.0849848 0.050014 0.070087 -0.236982 0.0173068 0.0976707 0.345897 0.468163 0.572934 0.285899 -0.095085 0.0403287 -0.314192 0.291582 -0.0193985 0.170777 -0.129849 -0.0737569 -0.17529 -0.131103 0.0759058 -0.141486 0.0461516 -0.251394 -0.273004 0.175336 -0.133482 0.0062956 0.0424054 0.0633764 0.316409 -0.0793316 -0.154124 0.0506244 -0.189059 -0.166944 0.252165 -0.0871695 0.131593 -0.0837488 0.144209 0.0746518 0.194316 0.107785 0.101426 0.221774 -0.0423457 -0.29176 -0.234683 0.113376 -0.19484 0.110375 0.0539093 -0.0827542 0.0697171 -0.0734123 -0.0659115 0.178717 -0.269106 -0.0931248 -0.0752444 0.0253709 -0.227876 0.021412 -0.126808 -0.059609 -0.136032 -0.145427 0.151166 -0.357312 -0.00684145 0.107426 0.00556115 0.054067 0.0038201 -0.00598064 -0.00383677 -0.212792 0.0889592 -0.187958 -0.19446 -0.0819179 -0.08752 0.065989 0.0128465 -0.169418 0.0816531 0.0507374 -0.324229 0.163848 -0.318847 -0.0260578 -0.0416904 -0.0226058 -0.114898 -0.143142
370404328 -0.065342 -0.130188 0.360095 -0.0193141 0.0280174 0.104978 0.134052 -0.0977853 0.0194502 0.0838734 0.323278 0.42105 0.439542 0.148644 -0.105897 0.2149 -0.291397 0.229065 0.0699818 0.0756569 -0.16364 0.10862 -0.169867 -0.206739 0.0493718 -0.0902305 -0.0374779 -0.27101 -0.461496 0.222064 -0.30195 -0.000941292 0.0902452 0.159714 0.191868 -0.0824728 -0.0629862 0.0236381 -0.0799919 -0.0979227 0.129508 0.0122107 0.102834 -0.0318846 0.192995 0.210538 0.302362 0.172134 0.156325 0.199987 0.00300389 -0.377355 -0.247112 0.0996923 -0.311215 0.189443 0.18072 -0.103971 -0.112351 0.0187964 -0.17053 0.13829 -0.0942591 -0.0703799 -0.213409 -0.0384562 -0.267521 0.0585738 -0.0749734 -0.0455208 -0.176969 -0.184252 0.21649 -0.235269 0.0362521 0.13483 -0.227406 0.0464069 -0.090388 0.0721623 -0.113486 -0.202788 0.00108506 -0.149243 -0.302765 -0.115158 0.0245478 -0.0477734 0.0625782 -0.306826 0.0798327 0.0392935 -0.296703 0.13608 -0.203508 -0.114201 -0.202848 -0.013883 -0.291682 -0.184635
45373599 -0.0117187 -0.155597 0.404983 -0.0120525 0.0995084 0.0818745 0.110616 -0.170887 0.037066 0.0957977 0.341985 0.460592 0.495455 0.238275 -0.0995276 0.137623 -0.29931 0.234049 0.0112608 0.164452 -0.132034 0.018123 -0.166597 -0.178275 0.0671462 -0.116876 0.00932441 -0.27691 -0.371868 0.227244 -0.218339 0.0391551 0.0460725 0.118568 0.242718 -0.111054 -0.0953411 0.0475985 -0.184701 -0.131784 0.217312 -0.0381573 0.0847259 -0.0707276 0.176984 0.139374 0.242814 0.19746 0.123641 0.17838 -0.0421449 -0.357628 -0.219343 0.113041 -0.255177 0.145681 0.108713 -0.0903786 -0.041303 -0.0493426 -0.109021 0.147908 -0.200543 -0.0745144 -0.13179 0.0183635 -0.257646 0.0589281 -0.11143 -0.0857003 -0.169564 -0.157202 0.186414 -0.343402 -0.000554403 0.132785 -0.0684499 0.039894 -0.0575503 0.0122106 -0.0635406 -0.205483 0.0273234 -0.178523 -0.27671 -0.102841 -0.0288858 0.0272883 0.0362179 -0.221591 0.0532099 0.0362648 -0.280884 0.131707 -0.298097 -0.0698616 -0.152619 -0.0519933 -0.243737 -0.161592
278776000 -0.0671835 -0.142527 0.36655 -0.0871715 0.0863734 0.0619121 0.0532715 -0.249462 0.0263256 0.0447001 0.250179 0.468282 0.448851 0.197415 0.00357123 0.148232 -0.330102 0.181766 0.0181918 0.213246 -0.115074 0.0482571 -0.182353 -0.128316 -0.0454331 -0.0565237 -0.0117428 -0.167452 -0.418928 0.142976 -0.154477 -0.0397803 0.1013 0.0527608 0.22531 -0.156093 -0.0177031 0.0570894 -0.184301 -0.0749833 0.184778 -0.0524095 0.164137 -0.104582 0.139832 0.179901 0.169654 0.172647 0.0257154 0.238702 0.0204192 -0.205786 -0.210256 0.128601 -0.254516 0.144397 0.120569 -0.0611739 -0.017975 -0.0690478 -0.15842 0.176434 -0.173773 -0.0501678 -0.131226 -0.0597535 -0.23196 0.0141454 -0.11535 -0.0348343 -0.140909 -0.130965 0.174574 -0.327279 0.0224699 0.0354727 -0.0830536 -0.0392115 -0.151734 0.0696025 0.00879089 -0.25408 -0.0171663 -0.0646854 -0.189943 -0.132435 -0.115238 0.0167715 0.0174016 -0.235749 0.0827228 0.0704211 -0.281253 0.13762 -0.254863 0.0294443 -0.116462 0.0565878 -0.0803856 -0.134515
28587570 -0.0424056 -0.101792 0.296913 -0.0988599 0.0498327 0.0390426 0.0678584 -0.283429 0.0538383 -0.0926491 0.183982 0.486615 0.500058 0.171491 0.106368 0.163793 -0.35886 0.00603375 0.0328681 0.403511 -0.143814 0.0893795 -0.139929 -0.037555 -0.281947 0.08525 -0.0705962 -0.125362 -0.488852 0.118684 -0.143228 0.0329097 0.104821 -0.00581653 0.198404 -0.173198 -0.00813106 0.142747 -0.130891 0.132422 0.098295 -0.0360164 0.195954 -0.204702 -0.0054738 0.236845 0.145083 0.146782 -0.140906 0.219137 -0.0351008 -0.128212 -0.0155237 0.0936068 -0.331729 0.0781043 -0.0100988 0.0493027 0.0146853 -0.1043 -0.225191 0.212605 -0.120217 0.0285822 -0.221455 0.0284025 -0.218328 0.0308193 -0.0818098 -0.0330479 -0.166325 -0.134345 0.0929738 -0.32666 0.0376263 0.0740506 -0.0161093 -0.151256 -0.154613 0.0331992 0.137124 -0.234589 -0.0496118 0.0394261 -0.214833 -0.192863 -0.111095 0.0515438 0.0163673 -0.255305 0.21667 0.0236369 -0.296762 0.131441 -0.2531 0.142905 -0.15617 0.0216848 0.0386583 -0.0137385
325727410 -0.0282745 -0.210284 0.410721 0.0304439 0.110777 0.114926 0.085712 -0.128335 0.0280117 0.0802419 0.325935 0.366762 0.48742 0.214614 -0.107601 0.205518 -0.299917 0.248065 0.0447057 0.0659148 -0.0918885 0.032409 -0.148616 -0.178722 0.0487534 -0.137859 -0.012108 -0.245803 -0.400101 0.21746 -0.269761 0.0488692 0.0210646 0.150151 0.259906 -0.183075 -0.104219 0.0137352 -0.162796 -0.133035 0.125252 -0.0463319 0.0519904 -0.0309375 0.194075 0.138341 0.226481 0.24669 0.144237 0.137435 0.00847158 -0.309787 -0.218721 0.114494 -0.236972 0.159483 0.131527 -0.0910006 -0.0241792 -0.0385483 -0.132723 0.11675 -0.16392 -0.125458 -0.115826 -0.0381077 -0.25577 0.0243833 -0.0850066 -0.0901728 -0.167509 -0.157528 0.188376 -0.329501 -0.000354611 0.113664 -0.185322 0.0407901 -0.0923059 0.0411647 -0.0964314 -0.247548 0.0221133 -0.161031 -0.222893 -0.0847852 1.83158e-05 0.0476337 0.0936268 -0.226116 0.0757022 0.0125953 -0.292509 0.200611 -0.240917 -0.0824118 -0.171447 0.0243878 -0.24999 -0.147883
110492713 -0.0264823 -0.0850247 0.327424 -0.0534117 0.14652 -0.000618967 0.0728763 -0.220249 0.0498534 0.0591068 0.27161 0.485597 0.483313 0.195557 -0.0544029 0.077209 -0.272757 0.137326 0.0226013 0.256901 -0.196379 0.0412356 -0.163448 -0.0853984 -0.0319534 -0.0823163 0.0293085 -0.249121 -0.363931 0.179371 -0.192016 0.00689612 0.0616125 0.100017 0.226149 -0.0656504 -0.0709228 0.0783974 -0.156337 -0.0661917 0.149493 -0.0112607 0.12422 -0.111161 0.126572 0.167225 0.190606 0.142626 0.0687155 0.200233 -0.0286466 -0.282096 -0.163288 0.123005 -0.239955 0.115612 0.0774845 -0.0666605 -0.0404897 -0.0775723 -0.105293 0.218856 -0.16617 0.0064805 -0.150226 0.0148142 -0.284752 0.0891129 -0.145769 -0.0198806 -0.158943 -0.211254 0.186339 -0.325117 -0.0118418 0.0854564 0.00785592 -0.00211007 -0.121057 -0.00888286 0.0168032 -0.209657 -0.0137463 -0.0459353 -0.251952 -0.121215 -0.0802781 0.0492177 -0.000530487 -0.236124 0.0284341 0.0446746 -0.272513 0.0778309 -0.347754 0.0238453 -0.139165 -0.103993 -0.0888857 -0.0900548
213758325 -0.0196551 -0.0441732 0.288112 -0.0900925 0.0727882 0.0265083 0.0887517 -0.201777 0.0478606 -0.00490465 0.22663 0.462554 0.450743 0.136569 0.0277998 0.143383 -0.332369 0.0574541 0.040631 0.304056 -0.221875 0.138582 -0.141199 -0.120756 -0.110232 0.0401076 -0.0337491 -0.201003 -0.481632 0.193988 -0.199596 -0.000512758 0.064557 0.0873099 0.199226 -0.0912446 -0.0349551 0.134246 -0.117606 0.0818728 0.11576 0.0316648 0.152219 -0.170851 0.0819432 0.227776 0.21273 0.124795 -0.00929551 0.162918 -0.0313325 -0.286512 -0.113004 0.0998741 -0.346871 0.140468 0.0514293 -0.0397936 -0.0624368 -0.048212 -0.178542 0.174619 -0.0811 0.0118951 -0.221554 0.0378404 -0.231022 0.0811951 -0.062991 0.000316492 -0.155682 -0.194836 0.146492 -0.272521 0.0557122 0.116833 -0.0277697 -0.0202842 -0.115972 0.0274066 0.0180431 -0.166202 -0.052186 -0.0537749 -0.293719 -0.222537 -0.0390435 -0.00944055 0.0112844 -0.277487 0.0941956 0.0503843 -0.299425 0.0659721 -0.266603 0.0392163 -0.225185 -0.106037 -0.0739099 -0.0592806
325760401 -0.0315334 -0.138298 0.350911 -0.046224 0.0916569 0.062189 0.0772104 -0.198018 0.0464767 0.0377368 0.298235 0.407177 0.504538 0.234886 -0.0397153 0.113354 -0.328885 0.209367 0.00593549 0.187194 -0.113931 0.0167281 -0.143692 -0.14653 -0.000948409 -0.0766728 0.0174598 -0.214479 -0.372381 0.180936 -0.161795 0.0218519 0.0563687 0.0704876 0.241338 -0.134839 -0.0687813 0.0691364 -0.185853 -0.0557279 0.174617 -0.044909 0.10925 -0.0897024 0.126825 0.13219 0.19521 0.164141 0.037669 0.176936 -0.00954153 -0.258742 -0.171733 0.105751 -0.249841 0.119143 0.0651448 -0.0274716 0.0160345 -0.0671103 -0.132126 0.168071 -0.171452 -0.0742252 -0.126502 0.00773302 -0.213967 0.0235529 -0.108067 -0.065335 -0.137037 -0.132012 0.121105 -0.326151 0.0132637 0.101286 -0.0838543 -0.0122715 -0.0534044 0.0106693 -0.0195525 -0.216614 0.0198741 -0.116754 -0.208999 -0.129716 -0.0545088 0.0276188 0.0387144 -0.199585 0.11389 0.0364982 -0.283417 0.136743 -0.257732 -0.0179456 -0.129337 -0.002027 -0.143275 -0.106938
263224927 -0.0133805 -0.174262 0.376475 -0.0308294 0.111118 0.0635953 0.0711117 -0.191725 0.00946507 0.130243 0.363627 0.475609 0.573457 0.285687 -0.0835851 0.0702556 -0.333677 0.309645 -0.0226262 0.128003 -0.0932082 -0.071789 -0.202988 -0.133745 0.0621101 -0.198058 0.0629419 -0.251603 -0.289405 0.172613 -0.146881 0.0131448 0.0613017 0.0497882 0.318779 -0.114998 -0.139686 0.0108127 -0.175746 -0.192784 0.227941 -0.0874825 0.12814 -0.0665259 0.16912 0.0819894 0.201741 0.135719 0.1345 0.234546 -0.0588533 -0.313957 -0.24993 0.119814 -0.190801 0.119078 0.0620207 -0.0874971 0.0481465 -0.0471335 -0.0584825 0.168999 -0.269658 -0.107371 -0.0831983 0.00444371 -0.267117 0.0332452 -0.13873 -0.0626208 -0.147685 -0.160683 0.162741 -0.365755 -0.0204131 0.0891391 -0.0494549 0.0507908 -0.0463624 -0.020181 -0.0314317 -0.242073 0.0787419 -0.157507 -0.199284 -0.0462449 -0.0904918 0.0802051 0.0317652 -0.190755 0.0695246 0.0468602 -0.304718 0.173132 -0.31052 -0.0424774 -0.0446885 0.00666492 -0.15061 -0.155313
45131667 -0.0349253 -0.154372 0.351249 -0.0564443 0.0965659 0.043913 0.0782154 -0.203308 0.0165783 0.100824 0.334604 0.478458 0.556947 0.268899 -0.0619952 0.0421774 -0.327338 0.299546 -0.0414518 0.164337 -0.0802254 -0.0420695 -0.188542 -0.115502 0.0345629 -0.160397 0.067601 -0.261957 -0.286418 0.155971 -0.114787 0.0264188 0.0639767 0.0280859 0.299644 -0.083359 -0.120162 0.0211946 -0.166806 -0.157323 0.221233 -0.0805651 0.14296 -0.0798767 0.147334 0.0837519 0.189566 0.123737 0.0721439 0.232328 -0.0515932 -0.291659 -0.199801 0.132497 -0.197166 0.100637 0.0578288 -0.0546674 0.059731 -0.0645292 -0.0640469 0.212786 -0.25317 -0.0834359 -0.0979727 0.0238414 -0.277401 0.0162652 -0.162663 -0.0385374 -0.134919 -0.153009 0.115647 -0.389721 -0.0288873 0.088163 0.010317 0.0229247 -0.0253397 -0.0418545 0.0208494 -0.228584 0.0718541 -0.118996 -0.203482 -0.0713445 -0.119994 0.0754018 0.0216562 -0.17692 0.0888929 0.0513894 -0.317163 0.134955 -0.300248 0.00477327 -0.00921545 0.00398092 -0.14124 -0.131611
173351680 -0.0308823 -0.247894 0.438238 -0.00165366 0.137376 0.101758 0.0414071 -0.217204 0.0363309 0.0922274 0.316633 0.446635 0.511918 0.280345 -0.107968 0.138111 -0.302968 0.279506 0.0321101 0.10686 -0.0838739 -0.0641647 -0.169483 -0.157661 0.0795963 -0.168836 0.0409801 -0.186335 -0.331084 0.165705 -0.168749 0.0236934 0.0428522 0.0843987 0.271014 -0.170239 -0.105662 -0.00970103 -0.216938 -0.208799 0.190429 -0.128606 0.0803198 -0.015139 0.162999 0.0840558 0.174264 0.194155 0.109365 0.211284 0.00770301 -0.264999 -0.236508 0.105154 -0.190634 0.149674 0.105421 -0.0611172 0.0410168 -0.0514809 -0.0981108 0.142196 -0.235275 -0.108464 -0.0834814 -0.0196784 -0.266191 0.0264997 -0.181331 -0.0777927 -0.157864 -0.113669 0.19899 -0.345287 -0.0290418 0.0714932 -0.136734 0.0498248 -0.0846256 0.0606186 -0.069061 -0.289483 0.0705912 -0.165808 -0.156966 -0.0308474 -0.0767368 0.0749292 0.0236085 -0.147298 0.0519406 0.0438731 -0.276786 0.214626 -0.295402 -0.0819041 -0.0716142 0.0435849 -0.175492 -0.180485
30783939 -0.0228697 -0.107367 0.340611 -0.0564802 0.0868244 0.0535852 0.0570275 -0.221829 0.0418076 0.069687 0.310105 0.424872 0.524616 0.217309 -0.0337928 0.101063 -0.357891 0.186436 0.0201375 0.159713 -0.132501 0.0577232 -0.169451 -0.155782 0.0127559 -0.0690071 0.0197291 -0.237149 -0.396162 0.216175 -0.175649 -0.00262878 0.0294447 0.0932371 0.241385 -0.0995936 -0.101796 0.056854 -0.186459 -0.0727251 0.19573 -0.0196922 0.142025 -0.0815553 0.161702 0.151809 0.204991 0.1806 0.0661257 0.17503 0.0132634 -0.244936 -0.196549 0.129226 -0.209672 0.144976 0.0519636 -0.0693434 0.0122005 -0.0727576 -0.129051 0.155503 -0.151811 -0.0703828 -0.107734 0.0106465 -0.216338 0.0389254 -0.0712183 -0.0419779 -0.161218 -0.124655 0.15399 -0.345288 0.0248598 0.10287 -0.0268564 0.0199797 -0.0479097 0.0150932 0.0100323 -0.196428 0.0312821 -0.135138 -0.2152 -0.136876 -0.0590357 0.0230648 0.0756545 -0.18463 0.0894311 0.0805906 -0.277035 0.134874 -0.292501 -0.0192009 -0.105314 -0.00130397 -0.124706 -0.13522
55019441 -0.0608714 -0.157487 0.385699 -0.0162867 0.0520273 0.0907863 0.117018 -0.137708 0.0338568 0.0601438 0.300179 0.433316 0.46891 0.207241 -0.0726714 0.202932 -0.305784 0.185457 0.0668241 0.132093 -0.128318 0.0794453 -0.144434 -0.183812 0.00616162 -0.070395 -0.0325267 -0.229254 -0.459639 0.201295 -0.262773 0.0100388 0.094958 0.121059 0.19841 -0.135094 -0.0625006 0.0547912 -0.112914 -0.0879218 0.131098 -0.0100082 0.100568 -0.0472214 0.135889 0.191567 0.242114 0.180371 0.106107 0.215925 -0.000580524 -0.311551 -0.196872 0.0857004 -0.284265 0.15523 0.132367 -0.0708967 -0.0718504 -0.0136677 -0.180577 0.132974 -0.114403 -0.0439744 -0.18371 -0.0299692 -0.242366 0.0541702 -0.0870899 -0.0631829 -0.188243 -0.139193 0.188686 -0.2749 0.0236883 0.127609 -0.206956 0.0133351 -0.105274 0.0489137 -0.0816964 -0.23085 0.0192554 -0.116956 -0.248061 -0.0976267 0.0043082 -0.000362808 0.044362 -0.262636 0.108225 0.0419437 -0.258351 0.154182 -0.223568 -0.0916491 -0.180435 0.0217728 -0.234085 -0.15908
21427278 -0.0413209 -0.151986 0.349878 -0.0296737 0.0855241 0.0690783 0.0800001 -0.104508 -0.0144697 0.0828821 0.299735 0.41472 0.432778 0.146372 -0.0666691 0.185569 -0.274662 0.178265 0.0364828 0.120624 -0.129371 0.0543585 -0.152391 -0.149472 -0.00715389 -0.118172 -0.049591 -0.2294 -0.410774 0.212593 -0.241878 0.0401162 0.0925008 0.105993 0.198028 -0.163044 -0.0823862 0.0283956 -0.150537 -0.0958905 0.130898 -0.0147548 0.0633374 -0.0814173 0.16714 0.177909 0.227607 0.182361 0.112749 0.148681 -0.0367899 -0.331675 -0.217581 0.0784895 -0.293549 0.191867 0.15183 -0.0881066 -0.0604986 -0.0150863 -0.145634 0.135685 -0.149133 -0.106945 -0.190856 -0.0313135 -0.273786 0.0395355 -0.128912 -0.028534 -0.139996 -0.228205 0.196093 -0.304554 -0.00036998 0.0906641 -0.14058 0.00132557 -0.112714 0.0405413 -0.0835549 -0.220432 -0.0345448 -0.103514 -0.276957 -0.107387 -0.0203366 0.00329041 0.0584004 -0.261572 0.080708 0.0285458 -0.271475 0.161537 -0.2583 -0.0472948 -0.174543 -0.018951 -0.237849 -0.136147
142356330 -0.0767213 -0.204301 0.353328 -0.00453275 0.088188 0.0781633 0.0596202 -0.171326 0.0698627 -0.0571904 0.257816 0.400983 0.456649 0.187084 -0.0476517 0.186703 -0.288156 0.147841 0.05384 0.271563 -0.0499641 0.026204 -0.110184 -0.0960887 -0.15138 -0.059754 -0.0669094 -0.155157 -0.411676 0.128787 -0.215482 0.0836001 0.0534643 0.0627574 0.238201 -0.199899 -0.0344649 0.0713899 -0.112116 -0.0223495 0.0764331 -0.0652192 0.0838221 -0.143582 0.0523913 0.17415 0.174473 0.220193 -0.0522653 0.198897 -0.00640559 -0.225947 -0.0674301 0.0906032 -0.291938 0.0783056 0.0794531 0.0205103 -0.00959556 -0.0621649 -0.120008 0.212242 -0.166089 -0.0484959 -0.168826 -0.00281772 -0.26019 -0.00426578 -0.123172 -0.133491 -0.19596 -0.124602 0.0965137 -0.323376 0.00782113 0.087535 -0.138858 -0.132638 -0.135749 0.0245983 0.0258878 -0.267642 -0.0105238 0.00858375 -0.183339 -0.10045 -0.0578458 0.0843127 0.00795518 -0.265223 0.184746 -0.0350738 -0.301806 0.158391 -0.21344 0.0357666 -0.16221 0.0635785 -0.122804 -0.0578179
51885891 -0.0646603 -0.216465 0.425369 0.0237888 0.0855787 0.113516 0.105372 -0.128901 0.0234068 0.103533 0.369892 0.442093 0.489198 0.222615 -0.134113 0.123331 -0.292334 0.319885 0.0382612 0.0968129 -0.0735745 -0.00644665 -0.17982 -0.174038 0.0983929 -0.194744 0.00565629 -0.271893 -0.348718 0.183409 -0.268281 0.0504142 0.0261441 0.119486 0.292773 -0.100131 -0.124432 -0.0212319 -0.106658 -0.184825 0.186693 -0.0611539 0.0852459 -0.0522801 0.204709 0.0966708 0.228344 0.211252 0.148663 0.219653 -0.0359819 -0.390888 -0.253071 0.122552 -0.220927 0.132075 0.151336 -0.0848306 -0.0213566 0.0136133 -0.0561747 0.155634 -0.224581 -0.113862 -0.0953754 -0.028655 -0.283544 0.0122122 -0.101689 -0.126318 -0.166231 -0.155372 0.199557 -0.342662 -0.00657124 0.120168 -0.142834 0.0604196 -0.0904591 0.0123936 -0.0720112 -0.244297 0.0636001 -0.169877 -0.220606 -0.0609082 -0.0331876 0.0579642 0.0276069 -0.247301 0.0494751 0.00426348 -0.308471 0.176186 -0.240141 -0.104863 -0.109715 0.0284962 -0.282276 -0.180137
40154192 -0.0748662 -0.136363 0.319207 -0.123561 0.0846589 0.03731 0.0237925 -0.331338 0.0677014 -0.129017 0.169503 0.497731 0.503405 0.176914 0.114568 0.194424 -0.413404 -0.0151631 0.0521055 0.456184 -0.160936 0.105031 -0.14784 -0.0187173 -0.303216 0.0824639 -0.089809 -0.103195 -0.50904 0.0825438 -0.117769 0.0322864 0.0796537 0.00667116 0.185507 -0.20663 0.0120756 0.159127 -0.122459 0.11919 0.0552306 -0.0703589 0.210183 -0.202093 -0.0577935 0.271238 0.108159 0.175452 -0.169792 0.279492 0.0276731 -0.0872044 -0.019933 0.102208 -0.324651 0.0692643 -0.00199036 0.0757315 0.0157899 -0.108546 -0.243853 0.206114 -0.103114 0.0594854 -0.204797 -0.00912538 -0.201301 0.0245201 -0.0503282 -0.0570223 -0.177912 -0.12939 0.0967831 -0.345799 0.0542737 0.0485077 -0.0383082 -0.166668 -0.198162 0.0405128 0.18341 -0.25105 -0.0748069 0.0923941 -0.159355 -0.203016 -0.122737 0.0745221 -0.0226717 -0.291658 0.229729 0.0472821 -0.322857 0.143921 -0.243496 0.179909 -0.160095 0.0581158 0.0962053 0.0149579
249252048 -0.0375912 -0.169394 0.321944 -0.106643 0.102092 0.0239693 -0.0141604 -0.376248 0.0751611 -0.118436 0.17656 0.489472 0.572256 0.191411 0.136753 0.208624 -0.44502 -0.0679396 0.0572822 0.455446 -0.167255 0.095645 -0.150156 -0.00921538 -0.345337 0.0866149 -0.0758287 -0.0752497 -0.537342 0.112581 -0.105007 0.0400799 0.0541668 0.0185133 0.19759 -0.261169 -0.0190171 0.184163 -0.185624 0.158016 0.0701146 -0.0799649 0.196499 -0.21874 -0.0528817 0.265124 0.0701444 0.174692 -0.193755 0.258844 0.044881 0.000169055 -0.0121157 0.0980493 -0.303826 0.10093 -0.0480112 0.0806017 0.0633388 -0.155197 -0.27375 0.193454 -0.114548 0.0265349 -0.175152 0.00170458 -0.188636 0.0215879 -0.0581236 -0.0219294 -0.174551 -0.13889 0.0854531 -0.377905 0.0201667 0.0280576 -0.0379822 -0.18359 -0.212368 0.0397533 0.168189 -0.266602 -0.0864676 0.10098 -0.147641 -0.21772 -0.136425 0.0942104 0.0113831 -0.256076 0.248997 0.0634646 -0.313797 0.200418 -0.31396 0.194193 -0.178053 0.0938844 0.115164 0.0579086
62702353 -0.0762689 -0.121414 0.289702 -0.13284 0.0720677 0.0230371 0.00901731 -0.322494 0.0539684 -0.11251 0.156465 0.486474 0.491998 0.157698 0.144628 0.22091 -0.415703 -0.0386956 0.0563658 0.445797 -0.1536 0.140331 -0.149616 -0.0137006 -0.371074 0.103055 -0.117969 -0.0915705 -0.531279 0.0996849 -0.133179 0.0172538 0.104795 -0.0176533 0.187456 -0.230194 0.0260366 0.169158 -0.12291 0.165256 0.0505098 -0.0297632 0.232045 -0.23425 -0.022822 0.29111 0.0946539 0.187291 -0.184025 0.237299 0.0337026 -0.0551047 -0.030357 0.101422 -0.349004 0.0873342 -0.0238163 0.0487596 0.00048946 -0.117765 -0.270977 0.20254 -0.102773 0.0311323 -0.219932 -0.0340721 -0.208367 -0.00702122 -0.0459312 0.00357053 -0.171236 -0.153464 0.0930549 -0.364016 0.0511692 0.0335938 -0.012641 -0.201418 -0.21325 0.0429333 0.199827 -0.254191 -0.0881014 0.12961 -0.163216 -0.242979 -0.133849 0.0579834 0.0243604 -0.282493 0.259285 0.0595326 -0.333551 0.154627 -0.2479 0.226956 -0.160216 0.111445 0.108139 0.0143429
20729576 -0.0747186 -0.133441 0.291356 -0.134012 0.0685865 0.0130943 0.024252 -0.327568 0.0406606 -0.106164 0.210842 0.478355 0.52968 0.185937 0.122001 0.176222 -0.445066 0.00281044 0.0221323 0.407118 -0.177654 0.129191 -0.168186 -0.0666509 -0.273059 0.063587 -0.0560104 -0.122646 -0.492076 0.125201 -0.110319 0.0304298 0.0669373 0.00748715 0.178693 -0.172871 -0.00765053 0.153727 -0.141397 0.118856 0.0858973 -0.0614663 0.21549 -0.183863 -0.00451699 0.248941 0.126143 0.167266 -0.143393 0.244496 0.0176854 -0.0808754 -0.0411047 0.124604 -0.299113 0.0795803 -0.0145474 0.0574804 0.0314342 -0.10589 -0.251366 0.177781 -0.096779 0.0294702 -0.176413 0.00498997 -0.174804 0.0050608 -0.0206929 0.000156153 -0.140444 -0.143535 0.0945163 -0.356072 0.0396319 0.066554 -0.0205455 -0.133456 -0.140766 0.0250665 0.168855 -0.2202 -0.082094 0.0515516 -0.18539 -0.217788 -0.123993 0.0496682 0.0165927 -0.261268 0.243018 0.0676448 -0.342484 0.15198 -0.253716 0.150958 -0.143146 0.0824378 0.0325031 0.00771265
42736164 -0.0653192 -0.0698112 0.276958 -0.0867587 0.0527517 0.0456473 0.0758125 -0.172806 0.0502008 -0.0493803 0.195001 0.442378 0.391886 0.108777 0.0425328 0.210831 -0.299273 0.0399534 0.0690516 0.316601 -0.189124 0.19933 -0.133233 -0.1185 -0.205246 0.0507186 -0.100279 -0.1588 -0.498879 0.168907 -0.240193 -0.000792672 0.121815 0.0631581 0.161877 -0.123316 0.00680391 0.133058 -0.0891795 0.102474 0.0918109 0.0499958 0.155611 -0.200025 0.107351 0.272351 0.205407 0.182255 -0.0745269 0.1397 -0.00546906 -0.249625 -0.0898577 0.0791214 -0.373982 0.139971 0.0711289 -0.0231342 -0.118119 -0.0306002 -0.182729 0.181933 -0.0746612 -0.011124 -0.235627 -0.0100781 -0.254719 0.0200638 -0.070198 -0.00743841 -0.190231 -0.192539 0.142049 -0.274122 0.0754475 0.119001 -0.0727801 -0.134636 -0.149332 0.0487547 0.0335339 -0.202185 -0.0874229 0.0525009 -0.273542 -0.214343 -0.0481438 -0.0346511 0.0235251 -0.307057 0.150359 0.0410382 -0.298265 0.0896677 -0.204339 0.0719968 -0.210775 0.0158273 -0.0825544 -0.0868355
94353181 -0.0869032 -0.138742 0.282539 -0.092975 0.0996811 0.0147663 0.0024554 -0.329068 0.0876616 -0.146825 0.142799 0.471678 0.515635 0.170961 0.118558 0.232034 -0.41352 -0.0288484 0.0720929 0.465495 -0.152605 0.127712 -0.14575 -0.00748471 -0.364646 0.100861 -0.103195 -0.112907 -0.500274 0.0968406 -0.145628 0.048789 0.0845952 0.00030906 0.197176 -0.20704 0.00822333 0.177619 -0.127653 0.150733 0.0411537 -0.060744 0.199567 -0.231461 -0.0485737 0.294999 0.113834 0.214297 -0.213432 0.249512 0.031951 -0.0601519 0.0189977 0.100952 -0.350025 0.0775841 -0.0105803 0.0583921 0.00448188 -0.145305 -0.232748 0.252237 -0.120007 0.0124229 -0.218405 0.00401419 -0.23015 -0.00613419 -0.0824231 -0.0395589 -0.195388 -0.143555 0.0720578 -0.348349 0.0655587 0.0610559 -0.041773 -0.239154 -0.205256 0.0460068 0.208937 -0.259159 -0.0951359 0.164319 -0.158723 -0.230013 -0.124076 0.0746772 0.0307051 -0.30326 0.262824 0.0190756 -0.351491 0.155624 -0.257197 0.214494 -0.176271 0.106975 0.0899173 0.029912
17513533 -0.0615493 -0.1258 0.276747 -0.100843 0.076589 0.028098 0.0433555 -0.262025 0.0518092 -0.0661839 0.183394 0.464734 0.491508 0.170686 0.045698 0.189028 -0.359599 0.021739 0.0532151 0.345909 -0.197556 0.125465 -0.164216 -0.0896954 -0.20667 0.064134 -0.0646885 -0.155514 -0.441734 0.139617 -0.156467 0.0208492 0.0687118 0.0730139 0.169439 -0.13723 -0.0426127 0.153475 -0.134963 0.046815 0.0978722 -0.0464552 0.169474 -0.158338 0.0287612 0.245339 0.146985 0.149943 -0.094218 0.215389 0.013979 -0.137992 -0.0640888 0.083438 -0.307429 0.119265 0.0298939 0.0253327 -0.0189207 -0.0888093 -0.199311 0.181328 -0.0861647 0.0295758 -0.186501 0.00814496 -0.223865 0.0486177 -0.0813272 -0.0127459 -0.173045 -0.174617 0.126329 -0.312216 0.0619687 0.0944512 -0.0340098 -0.107195 -0.116758 0.0291838 0.111433 -0.203879 -0.0546219 0.0522963 -0.182182 -0.188014 -0.0986505 0.0222208 0.0259912 -0.269365 0.196644 0.0495658 -0.315252 0.132396 -0.27238 0.109914 -0.152321 0.0557334 0.0115378 -0.0309487
24051225 -0.0465598 -0.0864411 0.289261 -0.0994916 0.0431158 0.0516111 0.0807569 -0.260332 0.0530972 -0.0701283 0.186925 0.465399 0.473632 0.136406 0.103009 0.175251 -0.347053 0.0243731 0.0336978 0.382888 -0.148448 0.149396 -0.128185 -0.023514 -0.269883 0.0858269 -0.104082 -0.146782 -0.502319 0.129473 -0.184029 0.0163338 0.0865077 0.0202961 0.214614 -0.162769 -0.00214121 0.136517 -0.0796101 0.159871 0.0544534 0.0262955 0.215748 -0.231358 0.0452948 0.242496 0.135865 0.177529 -0.115534 0.211395 -0.0118972 -0.14853 -0.0428398 0.10053 -0.316599 0.0697423 -0.00842943 0.00402171 -0.0194183 -0.0768714 -0.22931 0.197246 -0.082467 0.0231146 -0.197719 -0.0157897 -0.230474 0.0164623 -0.00514541 -0.0323315 -0.1802 -0.168146 0.111998 -0.346407 0.0465973 0.073318 -0.00811081 -0.127906 -0.16439 0.0101512 0.147013 -0.214962 -0.0620565 0.0557975 -0.218002 -0.225085 -0.0878091 0.0373698 0.0196858 -0.286941 0.182071 0.0454507 -0.307994 0.127303 -0.218993 0.164249 -0.148364 0.0465889 0.0227196 -0.0187443
174860999 -0.0397762 -0.16569 0.372082 -0.0222268 0.107901 0.0725952 0.068782 -0.175679 0.0240431 0.0590683 0.28391 0.425251 0.466398 0.169363 -0.0306263 0.16793 -0.306093 0.150034 0.0572131 0.177901 -0.142998 0.082484 -0.157291 -0.150003 -0.0163877 -0.0700039 -0.00817106 -0.218951 -0.42242 0.191582 -0.229908 0.0454469 0.043533 0.120641 0.196743 -0.153564 -0.0923088 0.0564659 -0.176864 -0.0843001 0.12683 -0.027126 0.0887787 -0.0802533 0.161179 0.196637 0.216401 0.216657 0.069655 0.163829 0.0188187 -0.273811 -0.186522 0.121546 -0.257319 0.154059 0.102028 -0.046634 -0.0482522 -0.0401756 -0.143437 0.151898 -0.144602 -0.071216 -0.14826 -0.0204464 -0.240222 0.0681158 -0.092201 -0.0638614 -0.187049 -0.199193 0.154134 -0.337946 0.011268 0.103501 -0.105023 -0.0185936 -0.147389 0.0448396 -0.0284198 -0.244978 -0.00297739 -0.0917067 -0.220769 -0.123034 -0.0538624 0.0609829 0.0652605 -0.237986 0.0750174 0.0639731 -0.269974 0.131816 -0.281065 -0.0163887 -0.158865 -0.016277 -0.164887 -0.0897497
114798387 -0.0369995 -0.142494 0.387646 -0.0413408 0.0693189 0.0863269 0.0985362 -0.192594 0.0430876 0.0280656 0.253773 0.442283 0.436033 0.147464 -0.00795968 0.174461 -0.320741 0.0985696 0.0717547 0.210705 -0.142616 0.0865076 -0.143434 -0.117614 -0.0659634 -0.0222464 -0.0598958 -0.178856 -0.472272 0.170414 -0.218311 0.0316001 0.0557115 0.110794 0.186854 -0.170798 -0.0350315 0.0687004 -0.122192 0.015999 0.0967447 -0.0180615 0.118608 -0.109025 0.114163 0.198485 0.179612 0.191529 0.0343214 0.214223 -0.0070898 -0.254556 -0.165314 0.101833 -0.285677 0.148859 0.096612 -0.0364906 -0.042121 -0.0183204 -0.193471 0.125404 -0.0907335 -0.0358685 -0.181089 -0.0303606 -0.212769 0.0617793 -0.046776 -0.0586751 -0.146828 -0.166896 0.183574 -0.285042 0.0104163 0.0869688 -0.134443 0.00967395 -0.163524 0.0511669 -0.0211279 -0.22074 -0.0270659 -0.0959356 -0.251392 -0.153857 -0.0214459 0.0222362 0.0134446 -0.267994 0.0802333 0.0393294 -0.263374 0.140253 -0.248799 -0.0116192 -0.192087 -0.0106627 -0.150656 -0.0874841
266703267 0.00648173 -0.125844 0.341601 -0.0595153 0.120095 0.071979 0.0410371 -0.219868 0.0456724 0.0672674 0.268866 0.446238 0.477429 0.138342 -0.0098478 0.127886 -0.340731 0.112472 0.0449611 0.189981 -0.138181 0.0865169 -0.187589 -0.118977 -0.0292242 -0.0624332 -0.035683 -0.159806 -0.44236 0.191237 -0.185141 0.00216622 0.0112335 0.0761125 0.238018 -0.158478 -0.0639756 0.060242 -0.169292 -0.0268289 0.156288 -0.0131816 0.14548 -0.14515 0.15997 0.150904 0.1998 0.152494 0.0438549 0.169228 -0.0241087 -0.233876 -0.201312 0.121334 -0.250627 0.16985 0.0498842 -0.0515075 -0.0147237 -0.0352925 -0.139593 0.145306 -0.139214 -0.0885685 -0.142546 -0.00299984 -0.22447 0.0445209 -0.0353959 -0.00905111 -0.13584 -0.17075 0.188796 -0.293824 0.00637459 0.0599767 -0.0304764 0.0444281 -0.128768 0.042166 -0.00774114 -0.206455 -0.0541035 -0.118237 -0.243838 -0.167496 -0.084356 0.00909284 0.0504763 -0.221646 0.0531839 0.0774152 -0.288526 0.1292 -0.297716 -0.018095 -0.15717 -0.0201419 -0.0908435 -0.100917
66800933 -0.0428724 -0.16094 0.325532 -0.152049 0.106167 0.0229637 -0.0162467 -0.394865 0.0680754 -0.126477 0.149788 0.516919 0.550073 0.192108 0.205522 0.227594 -0.492242 -0.0963945 0.0670244 0.51243 -0.146021 0.11724 -0.152642 0.0205696 -0.415121 0.130319 -0.142775 -0.0445396 -0.573677 0.0990486 -0.0688828 0.0258204 0.0890328 -0.0496304 0.189912 -0.297836 0.0408364 0.180575 -0.156744 0.198825 0.0487023 -0.072163 0.239586 -0.271546 -0.0729361 0.290492 0.036589 0.20341 -0.244265 0.281271 0.0602153 0.0257071 -0.0199602 0.111247 -0.317987 0.0837237 -0.0721691 0.0809797 0.0534773 -0.145373 -0.301469 0.188293 -0.112109 0.0240132 -0.19583 -0.0496798 -0.165839 -0.00661769 -0.0173844 -0.000498431 -0.171766 -0.146263 0.0829104 -0.415557 0.0395061 -0.000282109 0.00303731 -0.214342 -0.257807 0.0426664 0.229407 -0.279461 -0.125832 0.160296 -0.131617 -0.255762 -0.181112 0.0936039 0.0179281 -0.26995 0.265507 0.102116 -0.337571 0.17918 -0.280206 0.275159 -0.146282 0.136526 0.179674 0.0763752
23970108 -0.0846754 -0.151613 0.362753 -0.000571225 0.0572694 0.105763 0.0965413 -0.0461632 0.0187811 0.0601908 0.327619 0.377606 0.430893 0.126852 -0.0869229 0.220714 -0.271532 0.219711 0.0350557 0.0816908 -0.0870783 0.152264 -0.163372 -0.175362 -0.0156747 -0.139232 -0.0500578 -0.268701 -0.452181 0.223255 -0.338244 0.0497883 0.0574598 0.133683 0.242741 -0.142606 -0.0686364 -0.00124867 -0.0741724 -0.0599968 0.0810066 0.0499899 0.0741094 -0.0509286 0.226723 0.184283 0.261911 0.264417 0.133348 0.134826 -0.0373999 -0.396034 -0.215168 0.0995427 -0.299573 0.165915 0.174132 -0.103221 -0.106465 0.0463756 -0.152646 0.135284 -0.109504 -0.117552 -0.191406 -0.0413407 -0.300751 -0.000639426 -0.0545067 -0.0624762 -0.175696 -0.189554 0.196106 -0.290921 0.00842337 0.127361 -0.224448 0.0215611 -0.108533 0.0226415 -0.0814599 -0.216122 -0.0095024 -0.106711 -0.314354 -0.117922 0.051905 -0.0281707 0.0839799 -0.294109 0.0978245 -0.00721684 -0.32334 0.174956 -0.177611 -0.0940066 -0.193335 0.0378561 -0.336927 -0.186284
15621169 -0.0652484 -0.174884 0.355837 -0.0326125 0.0607491 0.0840284 0.072244 -0.187432 0.0352748 0.0358157 0.260486 0.433416 0.453263 0.180977 -0.0621176 0.167034 -0.301232 0.193571 0.0629206 0.172701 -0.1034 0.0510397 -0.144785 -0.132907 -0.0189268 -0.0640213 -0.031893 -0.198971 -0.406888 0.156651 -0.208968 0.0241653 0.0615333 0.103601 0.201549 -0.125597 -0.0710094 0.0445932 -0.103288 -0.0825273 0.133568 -0.0491334 0.129844 -0.0686969 0.114301 0.17486 0.19118 0.19348 0.0508879 0.234981 0.027455 -0.264538 -0.182467 0.10684 -0.229697 0.124856 0.111302 -0.0522533 -0.0344177 -0.0301174 -0.129617 0.154245 -0.1409 -0.0507923 -0.150534 -0.0423746 -0.233383 0.0310474 -0.08463 -0.0793733 -0.178036 -0.135638 0.173303 -0.305358 0.0188464 0.0882223 -0.130414 -0.00809222 -0.107641 0.0371981 -0.0161163 -0.226744 0.00990922 -0.082821 -0.200133 -0.114652 -0.0524683 0.0337534 0.031308 -0.252413 0.0984023 0.0396978 -0.274222 0.152477 -0.230366 -0.0236878 -0.114256 0.0453023 -0.151963 -0.127184
111040972 -0.0996903 -0.152341 0.306171 -0.113587 0.0897803 0.0256982 -0.00238882 -0.322369 0.061906 -0.118126 0.15297 0.482411 0.473487 0.179334 0.135773 0.236388 -0.419949 -0.0134368 0.0681082 0.436951 -0.130217 0.110267 -0.153147 -0.0332482 -0.333365 0.0926566 -0.12512 -0.0780113 -0.499591 0.0867419 -0.112393 0.010583 0.132504 -0.0214957 0.171647 -0.2416 0.048451 0.160959 -0.149584 0.12461 0.081442 -0.0784931 0.211154 -0.224852 -0.0203851 0.284495 0.0791375 0.208477 -0.212039 0.242965 0.0511977 -0.0479564 -0.0359743 0.0967126 -0.33645 0.101487 0.00889269 0.0445549 -0.00303736 -0.120436 -0.245584 0.199434 -0.117365 -0.0107008 -0.192359 -0.0461233 -0.193042 -0.0232253 -0.0857112 -0.032327 -0.176096 -0.142506 0.079698 -0.363183 0.0688319 0.0454669 -0.0411042 -0.234997 -0.229427 0.073058 0.189163 -0.274894 -0.112273 0.159247 -0.1369 -0.215376 -0.159754 0.042801 0.0173311 -0.278402 0.229569 0.0664149 -0.327319 0.171432 -0.241958 0.201495 -0.148816 0.149138 0.0875217 0.00820833
27968397 -0.0661531 -0.0746922 0.250808 -0.124686 0.0325274 0.0222353 0.0466949 -0.253476 0.0381019 -0.0414916 0.173938 0.464685 0.479677 0.122305 0.14259 0.182224 -0.382021 -0.0102147 0.0450654 0.358768 -0.152245 0.195161 -0.166822 -0.0472937 -0.293328 0.105781 -0.0934298 -0.136435 -0.506237 0.140781 -0.161937 -0.00334745 0.0947899 0.0035023 0.178919 -0.159502 -0.00816595 0.174484 -0.11441 0.146184 0.0833436 0.03465 0.214379 -0.209671 0.0575779 0.288985 0.130226 0.159281 -0.138017 0.2088 -0.0183337 -0.12994 -0.0683728 0.0911638 -0.35051 0.123335 0.00078712 -0.000341567 -0.037369 -0.0771903 -0.233163 0.20652 -0.0729416 0.00352918 -0.225947 0.000902529 -0.240639 0.0376048 -0.0506455 0.0340491 -0.183391 -0.185044 0.0663555 -0.335495 0.0577609 0.0726932 -0.00405307 -0.173856 -0.162829 0.0119669 0.157508 -0.213935 -0.0539279 0.1205 -0.188532 -0.240032 -0.12682 0.0143632 0.0659576 -0.292608 0.229184 0.0868034 -0.330807 0.106491 -0.258165 0.187895 -0.130083 0.0985215 0.03339 0.00676412
20606805 -0.0864692 -0.151712 0.308636 -0.10721 0.0999705 0.0248394 0.0300471 -0.280373 0.024226 -0.0857509 0.176296 0.475235 0.492519 0.19069 0.10484 0.208992 -0.409578 0.00871654 0.0571525 0.383523 -0.146098 0.108168 -0.154119 -0.0587799 -0.268729 0.0541892 -0.0613476 -0.127034 -0.47727 0.105111 -0.133942 0.0367002 0.100278 0.0190784 0.168832 -0.210298 -0.0197811 0.116089 -0.129639 0.0601376 0.0607117 -0.0896037 0.185808 -0.161577 -0.00129097 0.241486 0.11712 0.175611 -0.132995 0.22664 0.0319164 -0.103361 -0.0467284 0.109608 -0.293092 0.0929538 0.00538577 0.0449895 0.0201107 -0.107307 -0.237649 0.185993 -0.121389 0.00934876 -0.177627 -0.0166068 -0.181944 0.0198779 -0.0533355 -0.027087 -0.160503 -0.168882 0.083207 -0.347392 0.0420304 0.0673914 -0.0562746 -0.156159 -0.190986 0.0535167 0.156935 -0.25725 -0.066511 0.054785 -0.163224 -0.180333 -0.127818 0.0783068 0.0403289 -0.241449 0.222755 0.0601137 -0.314471 0.173063 -0.239363 0.146732 -0.136531 0.0678246 0.0434303 0.0250586
161436299 -0.0661919 -0.115666 0.322001 -0.121118 0.0982998 0.0260967 -0.000655097 -0.33968 0.0829138 -0.110434 0.149049 0.475223 0.49087 0.153158 0.15743 0.241326 -0.426047 -0.0792802 0.0751195 0.454043 -0.176277 0.151181 -0.145836 -0.0364755 -0.367582 0.12413 -0.127353 -0.0876562 -0.578388 0.129997 -0.145531 0.0203487 0.097545 0.0153174 0.177817 -0.237608 0.0439341 0.177033 -0.152472 0.199898 0.0345098 -0.0205641 0.221793 -0.231384 -0.0195481 0.311906 0.0906447 0.216548 -0.192175 0.229607 0.0629133 -0.0451576 -0.0257581 0.102107 -0.347881 0.102064 -0.010021 0.0382267 -0.00406732 -0.125368 -0.288941 0.185558 -0.0791025 0.0321036 -0.21581 -0.046052 -0.192927 0.0160159 -0.0420691 -0.00669107 -0.173004 -0.16614 0.103359 -0.348364 0.0651826 0.0326684 -0.0457733 -0.198128 -0.240187 0.0544414 0.173023 -0.259201 -0.110058 0.130887 -0.17976 -0.268414 -0.117006 0.0397043 0.0348804 -0.297517 0.230939 0.0782095 -0.321565 0.150749 -0.275149 0.204761 -0.212555 0.0880935 0.100322 0.0161285
21110041 -0.0661882 -0.144468 0.290462 -0.120367 0.0916944 0.0351042 0.0138412 -0.322176 0.0687328 -0.125709 0.165142 0.513983 0.537829 0.175372 0.12581 0.201678 -0.41887 -0.0399425 0.046642 0.474577 -0.155571 0.128663 -0.150238 -0.0175908 -0.333534 0.108674 -0.100141 -0.0822126 -0.517988 0.0911793 -0.118135 0.031343 0.079705 -0.020792 0.199533 -0.232509 -0.00849716 0.180805 -0.142703 0.138365 0.069106 -0.0589835 0.20968 -0.229282 -0.040921 0.260044 0.0996713 0.181177 -0.205635 0.257664 0.00732197 -0.070637 -0.00446584 0.0875291 -0.3306 0.0902411 -0.0321302 0.0794732 0.0240637 -0.111107 -0.237329 0.222933 -0.123371 0.0278804 -0.199231 0.00439365 -0.217531 0.000599414 -0.0661278 -0.0456939 -0.20258 -0.16084 0.0889434 -0.382644 0.0461757 0.0520794 0.0167022 -0.19382 -0.186689 0.0272614 0.210481 -0.266614 -0.0916722 0.122065 -0.159798 -0.214551 -0.150188 0.0697578 0.00532186 -0.277722 0.238409 0.0513113 -0.337491 0.176215 -0.286873 0.197059 -0.140867 0.095878 0.120271 0.0405907
31220292 -0.0664821 -0.126521 0.274443 -0.0836095 0.0808938 0.0405973 0.0476492 -0.2479 0.033343 -0.0824371 0.175819 0.459362 0.457647 0.144189 0.0574151 0.188826 -0.334684 0.0269126 0.0633701 0.369032 -0.170558 0.122821 -0.158376 -0.0460059 -0.206432 0.0559589 -0.100128 -0.139429 -0.447631 0.112234 -0.170034 0.0374797 0.0629114 0.0470624 0.167212 -0.157213 -0.0291248 0.124844 -0.0762177 0.0630915 0.0460473 -0.0570956 0.152916 -0.167322 -0.0156309 0.241562 0.126592 0.174394 -0.0892569 0.243191 0.0014059 -0.166421 -0.0644018 0.0956747 -0.298584 0.0966964 0.0632159 0.00649738 -0.0144274 -0.0727772 -0.187977 0.185551 -0.108154 0.010355 -0.202865 -0.0154854 -0.210713 0.0218279 -0.0394953 -0.0580558 -0.163165 -0.175493 0.126029 -0.317905 0.058954 0.0735117 -0.0543114 -0.0996671 -0.17328 0.049666 0.123322 -0.228739 -0.0937873 0.0644155 -0.19517 -0.189389 -0.0871172 0.0567617 0.00767306 -0.296941 0.145638 0.0235713 -0.327882 0.136037 -0.237157 0.11469 -0.168618 0.0353313 0.0194941 -0.00470543
128601403 -0.0563745 -0.161345 0.31365 -0.111321 0.0988311 0.0275889 0.00174796 -0.330966 0.0705029 -0.126547 0.1552 0.488736 0.509146 0.160127 0.151174 0.226913 -0.416561 -0.0579548 0.0656765 0.477726 -0.122777 0.106131 -0.140261 0.00795394 -0.390083 0.100449 -0.138569 -0.0495714 -0.526164 0.0826287 -0.1216 0.0445091 0.0970158 -0.029136 0.19885 -0.290759 0.0369985 0.175432 -0.144741 0.17989 0.044041 -0.059201 0.208891 -0.260379 -0.0484045 0.271839 0.0609222 0.197712 -0.225456 0.238232 0.0394385 -0.0282079 -0.00254976 0.095062 -0.337081 0.0750206 -0.0413588 0.082814 0.0296963 -0.122886 -0.25805 0.204652 -0.121469 0.0158589 -0.202985 -0.0459395 -0.199682 -0.0307929 -0.0497975 -0.0382619 -0.176219 -0.152808 0.0759894 -0.385841 0.0324749 0.0115344 -0.0127573 -0.23368 -0.250512 0.0387156 0.206406 -0.285288 -0.11407 0.154166 -0.139436 -0.220166 -0.14499 0.0786752 0.014934 -0.284304 0.260117 0.0498143 -0.328718 0.176724 -0.261001 0.240096 -0.161234 0.124023 0.135503 0.0474808
18999854 -0.0565666 -0.0925459 0.277384 -0.101552 0.0377468 0.0345321 0.069216 -0.2928 0.0495034 -0.0668668 0.186065 0.487991 0.510991 0.164624 0.0940785 0.168331 -0.367673 0.0341607 0.0262769 0.395038 -0.160852 0.131314 -0.155563 -0.0639548 -0.225733 0.0857612 -0.0739316 -0.135142 -0.466966 0.120278 -0.145955 0.0141331 0.0824007 0.0181757 0.183323 -0.141978 -0.00851272 0.173715 -0.114353 0.13065 0.108946 -0.00883422 0.210667 -0.206914 0.00595399 0.249951 0.147281 0.131778 -0.116074 0.230451 -0.0358763 -0.165066 -0.0600876 0.0924189 -0.332006 0.0905295 0.00141677 0.0336748 -0.0144635 -0.103082 -0.206662 0.209602 -0.110898 0.0291589 -0.217861 0.0207756 -0.230265 0.0278674 -0.0516381 -0.0361673 -0.167625 -0.141086 0.0833257 -0.329614 0.0625328 0.0797338 -0.00302756 -0.131582 -0.132279 0.0155704 0.136318 -0.224529 -0.0546181 0.0491942 -0.203934 -0.217791 -0.100759 0.0268465 0.0226589 -0.282156 0.20061 0.0545936 -0.320567 0.102851 -0.258961 0.148618 -0.165847 0.0437351 0.0301756 -0.0143611
65460374 -0.0504466 -0.201259 0.339016 -0.0796356 0.107708 0.0685851 0.0332325 -0.21765 0.0163977 0.0378864 0.2433 0.430847 0.502949 0.188524 0.00804499 0.192978 -0.378196 0.146582 0.0475133 0.203356 -0.129546 0.0839947 -0.163854 -0.129852 -0.0718734 -0.0477829 -0.0205117 -0.176941 -0.422436 0.163254 -0.169278 0.0188724 0.068604 0.0654259 0.237661 -0.18767 -0.053404 0.0466825 -0.139419 -0.0339291 0.112593 -0.052868 0.143703 -0.115446 0.128879 0.159728 0.152472 0.191478 0.00725526 0.192571 0.0369358 -0.1996 -0.192462 0.127771 -0.230012 0.124094 0.0484218 -0.0291599 -0.00135738 -0.0562234 -0.173988 0.147937 -0.144765 -0.0819958 -0.119161 -0.0423477 -0.202374 -0.00450749 -0.0457654 -0.0165476 -0.154783 -0.175261 0.156519 -0.356879 -0.00285469 0.066512 -0.101639 -0.0247612 -0.145639 0.0290557 0.0195605 -0.26214 -0.0205148 -0.0549167 -0.18173 -0.170498 -0.0805965 0.0455275 0.0662551 -0.211775 0.136512 0.0853787 -0.297858 0.197288 -0.236692 0.0339915 -0.117195 0.0710242 -0.0757886 -0.0883125
25375962 -0.0625181 -0.16943 0.358129 -0.0139709 0.0421404 0.0962775 0.0926762 -0.137184 0.0526454 -0.0274753 0.246029 0.381063 0.404202 0.147247 -0.0337023 0.238747 -0.280858 0.126617 0.0747783 0.18341 -0.124244 0.138317 -0.0951528 -0.167997 -0.0699277 -0.0284405 -0.0551788 -0.19227 -0.487523 0.19733 -0.286234 0.059836 0.0624203 0.122171 0.152934 -0.143862 -0.0223585 0.061109 -0.08888 0.0102354 0.0292345 0.00310255 0.0935739 -0.072262 0.105437 0.221802 0.223602 0.237297 0.0475686 0.159056 0.0351572 -0.286214 -0.118856 0.0839462 -0.297562 0.120794 0.142227 -0.0232324 -0.0907261 -0.00861043 -0.208708 0.103803 -0.0513681 -0.031877 -0.213085 -0.0228924 -0.232734 0.0380456 -0.0505339 -0.0779323 -0.169774 -0.144438 0.155625 -0.247505 0.0194741 0.119098 -0.24535 -0.00789051 -0.131841 0.0607231 -0.0507819 -0.210564 -0.0369491 -0.0687832 -0.265438 -0.147709 0.0250039 0.0111529 0.0327185 -0.27695 0.108787 0.0207895 -0.27016 0.130044 -0.160922 -0.0704297 -0.228167 -0.00113146 -0.255008 -0.115882
16530805 -0.0171243 -0.0697629 0.260174 -0.113621 0.0315461 0.0345792 0.0675115 -0.281751 0.0235945 -0.0198789 0.193271 0.448104 0.503727 0.166399 0.120777 0.200038 -0.409388 0.0266358 0.0464191 0.317019 -0.207975 0.164248 -0.179525 -0.0837391 -0.207222 0.0847003 -0.0849109 -0.165911 -0.509585 0.159378 -0.15169 -0.00509472 0.0832869 0.0370694 0.181322 -0.142108 -0.0305716 0.174915 -0.109778 0.113561 0.0895356 0.035689 0.227965 -0.183687 0.0457292 0.28219 0.17536 0.136062 -0.0394314 0.214979 0.0171009 -0.139604 -0.118119 0.0993299 -0.308595 0.116216 -0.00474423 -0.0487962 -0.0404839 -0.106509 -0.261314 0.149286 -0.0717452 0.00306352 -0.216666 -0.0482272 -0.183876 0.0460861 0.0336524 0.0384989 -0.142872 -0.190727 0.136987 -0.319911 0.0789867 0.0732182 -0.0348144 -0.0697707 -0.131511 0.0374227 0.110481 -0.194959 -0.0831757 0.0238873 -0.211811 -0.242074 -0.0793533 0.0210607 0.0834944 -0.297521 0.179945 0.114859 -0.318524 0.108246 -0.255537 0.13605 -0.181301 0.0410622 0.0401919 -0.0328128
27907984 -0.0338425 -0.151209 0.344671 -0.0873071 0.09382 0.0420704 0.00575212 -0.322432 0.0641648 -0.105138 0.198579 0.451213 0.49634 0.209252 0.128573 0.232106 -0.413536 -0.014751 0.0415852 0.404427 -0.136527 0.0458835 -0.118858 -0.0575474 -0.310452 0.0674899 -0.0998158 -0.0828739 -0.509933 0.134166 -0.11043 0.0503112 0.092816 -0.0172827 0.188087 -0.264357 0.0229593 0.157541 -0.193835 0.137923 0.0856737 -0.0924073 0.174715 -0.197916 -0.0328047 0.260029 0.102512 0.213519 -0.153593 0.20636 0.0264013 -0.0533256 -0.0253492 0.0916221 -0.34487 0.0912149 -0.000195496 0.0505023 0.0319833 -0.138713 -0.257207 0.15071 -0.132926 -0.000507764 -0.192199 -0.0021129 -0.167569 0.00974102 -0.0905168 -0.0293607 -0.149549 -0.125866 0.0852474 -0.354814 0.0333933 0.0467942 -0.0793862 -0.181141 -0.186254 0.0708149 0.116382 -0.260688 -0.0740951 0.054696 -0.159629 -0.218891 -0.114209 0.0773939 0.0279427 -0.241902 0.233215 0.0476782 -0.304263 0.17145 -0.2585 0.169673 -0.200212 0.0732983 0.0471967 0.0116577
259763895 -0.00478065 -0.0595141 0.309021 -0.0669377 0.0557351 0.0518416 0.0990465 -0.194498 0.0658587 0.0279515 0.245221 0.434315 0.432223 0.137219 0.017039 0.134499 -0.307097 0.0948694 0.0505942 0.234547 -0.151 0.12617 -0.124567 -0.147451 -0.0810852 0.0127732 -0.0382698 -0.174978 -0.485678 0.205776 -0.209136 -0.0158212 0.0703176 0.0905124 0.194968 -0.121523 -0.0336212 0.130464 -0.145912 0.0631443 0.141697 0.0689678 0.158187 -0.175414 0.141985 0.228692 0.237425 0.153587 0.0143813 0.164207 -0.00801356 -0.26783 -0.148463 0.107911 -0.312038 0.146516 0.0708511 -0.0596829 -0.0713374 -0.0592171 -0.181142 0.171861 -0.0935514 -0.0401168 -0.201485 -0.0150382 -0.212101 0.0592955 -0.051755 -0.0148286 -0.150124 -0.160566 0.12814 -0.271689 0.0511018 0.103334 -0.0549943 -0.0399743 -0.109945 0.0309243 -0.0261666 -0.188578 -0.0481252 -0.0684801 -0.281775 -0.215299 -0.044175 -0.0139165 0.0477411 -0.275024 0.0857432 0.069759 -0.271696 0.0559993 -0.264081 0.0173122 -0.210309 -0.0386426 -0.112998 -0.091861
21806473 -0.0596941 -0.164608 0.365531 0.00875635 0.0554561 0.114319 0.125347 -0.0546468 0.0174004 0.0425194 0.309054 0.380847 0.410935 0.111508 -0.0689078 0.236686 -0.263209 0.208567 0.0619038 0.101379 -0.104294 0.172146 -0.163909 -0.161492 -0.00725307 -0.0862038 -0.0663963 -0.273364 -0.457105 0.214888 -0.344584 0.0670947 0.0305921 0.149739 0.219951 -0.153719 -0.0772722 0.0268207 -0.0672293 -0.0441949 0.056161 0.0323389 0.0713076 -0.0580673 0.211925 0.210326 0.255472 0.262254 0.12715 0.132255 -0.0150092 -0.388659 -0.200729 0.104602 -0.317515 0.16265 0.179337 -0.117953 -0.118417 0.0282282 -0.148316 0.131768 -0.0893566 -0.115861 -0.188111 -0.0321325 -0.294441 0.0236746 -0.0271641 -0.0745649 -0.198689 -0.217565 0.206213 -0.312903 0.01393 0.140643 -0.196699 0.0281132 -0.136934 0.0480748 -0.0576994 -0.210468 -0.0251088 -0.0988215 -0.293796 -0.128775 0.0297238 0.0135429 0.0946468 -0.299726 0.0620533 -0.0108539 -0.32335 0.164915 -0.174181 -0.0668505 -0.196367 0.0087784 -0.303454 -0.139757
59870340 -0.0241739 -0.136704 0.338046 -0.0642752 0.143077 0.0258727 0.0388889 -0.26635 0.0478384 0.0619769 0.284449 0.44622 0.50851 0.24458 -0.0378847 0.104174 -0.367546 0.188503 0.0271863 0.222678 -0.145267 0.0316986 -0.1994 -0.113372 -0.00883015 -0.0891088 0.025802 -0.22664 -0.338866 0.162571 -0.129457 0.0148985 0.0253742 0.0883959 0.23101 -0.0979677 -0.091814 0.0581366 -0.160263 -0.115819 0.162473 -0.0721989 0.150702 -0.0961305 0.11989 0.157485 0.158836 0.174627 0.0721721 0.251785 0.0431102 -0.200092 -0.1916 0.149079 -0.162132 0.0975295 0.0284276 -0.0780277 0.00592622 -0.0830918 -0.0968744 0.176824 -0.178794 -0.0256816 -0.0830488 -0.0391756 -0.211678 0.0400777 -0.055486 -0.0334048 -0.145235 -0.151462 0.167242 -0.364602 0.0243615 0.0667319 -0.0213902 0.0154616 -0.0996214 0.00103955 0.0369997 -0.212928 -0.00339573 -0.0749294 -0.169612 -0.111844 -0.106345 0.079826 0.0245226 -0.204933 0.0700212 0.0952199 -0.311102 0.105186 -0.305822 0.0258976 -0.0690995 0.0103352 -0.0468576 -0.100893
21332348 -0.032551 -0.203883 0.406947 -0.0350424 0.100499 0.101594 0.0613613 -0.181603 0.0277625 0.109065 0.30855 0.448025 0.494123 0.202409 -0.091869 0.160969 -0.323987 0.221903 0.0513223 0.118003 -0.119599 0.0635151 -0.178593 -0.164493 0.0384757 -0.117124 -0.00927928 -0.232378 -0.41199 0.212803 -0.243905 0.0195988 0.0327213 0.130107 0.243824 -0.139012 -0.100499 0.0214027 -0.156361 -0.134353 0.152021 -0.0284957 0.0888511 -0.0566139 0.204448 0.156765 0.200641 0.21338 0.118616 0.197678 0.00192437 -0.311418 -0.257615 0.113105 -0.232344 0.165492 0.111086 -0.0797005 -0.0449884 -0.0169158 -0.119413 0.140687 -0.150392 -0.0968958 -0.132848 -0.0313001 -0.279533 0.042481 -0.101592 -0.0396983 -0.184051 -0.165494 0.21715 -0.334634 -0.00787327 0.0871361 -0.13252 0.0520034 -0.101727 0.0282014 -0.0591357 -0.244945 0.0316977 -0.143217 -0.224038 -0.106312 -0.0391239 0.0168434 0.0584625 -0.227718 0.0801805 0.0691747 -0.305485 0.172288 -0.274876 -0.0695347 -0.105113 0.0276814 -0.205599 -0.178457
9000912 -0.0733203 -0.127893 0.292426 -0.104381 0.0231729 0.0550482 0.0287349 -0.279239 0.0447175 -0.112225 0.180127 0.439106 0.468252 0.152097 0.121321 0.21878 -0.385311 0.0245363 0.0530676 0.374029 -0.124857 0.126419 -0.129849 -0.0441305 -0.301714 0.0702811 -0.120071 -0.103519 -0.53304 0.103814 -0.159997 0.0236723 0.116312 -0.0206217 0.198882 -0.212828 0.0301713 0.141385 -0.0958754 0.16318 0.0658915 -0.0261409 0.213421 -0.213683 -0.00815981 0.265835 0.137675 0.173198 -0.135427 0.23776 0.0316405 -0.0925598 -0.049848 0.0886921 -0.32636 0.0843118 0.0276831 0.0340096 -0.0110243 -0.0922744 -0.267557 0.164971 -0.0995896 -0.00552395 -0.218957 -0.0443435 -0.186576 -0.0287962 -0.00173966 -0.0309181 -0.14636 -0.129203 0.0973602 -0.317743 0.048526 0.0487138 -0.102058 -0.16701 -0.187741 0.0582364 0.149516 -0.227654 -0.080119 0.0707448 -0.184464 -0.227259 -0.0858653 0.0316144 0.0221598 -0.298812 0.23691 0.0477477 -0.307023 0.161669 -0.185393 0.155212 -0.181852 0.109425 0.0211512 -0.0233186
21705865 -0.0503703 -0.124458 0.349832 0.00390104 0.0178718 0.1126 0.126909 -0.0700951 0.0220691 0.0650554 0.332781 0.386001 0.417766 0.135246 -0.0724353 0.19658 -0.273161 0.235344 0.0477522 0.0861265 -0.12038 0.122647 -0.150405 -0.191651 0.020589 -0.104873 -0.0484994 -0.267485 -0.451924 0.231248 -0.31745 0.0242643 0.0647052 0.120047 0.223714 -0.0946206 -0.0645368 0.0382626 -0.0834002 -0.0408591 0.122155 0.0687023 0.0909904 -0.0776437 0.218265 0.201076 0.294719 0.209517 0.13156 0.140682 -0.0290107 -0.396153 -0.213973 0.094517 -0.316766 0.164202 0.173074 -0.127527 -0.113391 0.0217313 -0.15221 0.132742 -0.108219 -0.104823 -0.208901 -0.0327915 -0.28616 0.0287103 -0.0439099 -0.0503527 -0.167084 -0.176591 0.193372 -0.251909 0.03599 0.141491 -0.206878 0.0151711 -0.0845774 0.0379548 -0.0965869 -0.180447 -0.00508132 -0.118251 -0.30267 -0.139992 0.0289109 -0.0413998 0.0684414 -0.31257 0.0773389 0.0180188 -0.299873 0.127018 -0.184212 -0.0902921 -0.20951 -0.00295666 -0.329649 -0.181803
259315354 -0.031009 -0.166625 0.351928 -0.0199537 0.1099 0.0545552 0.0519835 -0.183023 0.0482336 -0.00566789 0.25457 0.373368 0.449645 0.186979 -0.00851722 0.220246 -0.319876 0.129066 0.0490591 0.222199 -0.103187 0.0690202 -0.126713 -0.104762 -0.0990127 -0.0495562 -0.0501341 -0.192119 -0.439458 0.166432 -0.2073 0.064778 0.0581276 0.076999 0.197802 -0.208663 -0.0218473 0.0642039 -0.152451 -0.0141329 0.0956117 -0.0428691 0.10615 -0.107507 0.0967971 0.186644 0.188678 0.21537 0.0231952 0.162258 0.0453951 -0.20155 -0.130739 0.103453 -0.264537 0.124454 0.0749591 -0.0370313 -0.0272021 -0.0837014 -0.191621 0.142433 -0.145021 -0.0704801 -0.153473 -0.0390615 -0.202029 0.0205374 -0.0561281 -0.0688246 -0.159809 -0.176745 0.12794 -0.332721 0.00207194 0.0738154 -0.117292 -0.0686145 -0.160496 0.0439236 0.0221046 -0.231333 -0.0520646 -0.0451658 -0.205444 -0.127573 -0.0467838 0.0627635 0.0701009 -0.226071 0.120959 0.0301361 -0.271234 0.1604 -0.231086 0.0408634 -0.17683 0.0130198 -0.124026 -0.0514712
71156282 -0.0470609 -0.154571 0.366366 -0.0740749 0.118919 0.0665221 0.0603875 -0.224872 0.0690648 0.0344379 0.24073 0.483204 0.450666 0.152748 -0.0395236 0.134458 -0.31263 0.155892 0.0452644 0.233265 -0.143281 0.0527668 -0.16226 -0.124924 -0.0309113 -0.0416867 0.0189441 -0.193227 -0.3883 0.15056 -0.169496 0.0213941 0.0329618 0.107164 0.230153 -0.135656 -0.0507128 0.052607 -0.156253 -0.0438351 0.134738 -0.0803987 0.148409 -0.0972194 0.135095 0.168904 0.166517 0.156551 0.0189048 0.19056 -0.000848733 -0.258823 -0.181923 0.140298 -0.265284 0.124983 0.081863 -0.0166389 -0.0244109 -0.0478073 -0.104158 0.185453 -0.128809 -0.0150676 -0.141817 0.0252773 -0.269116 0.0619374 -0.134271 -0.0332203 -0.16965 -0.161085 0.188817 -0.312523 -0.0113893 0.0646435 -0.0468559 0.0194529 -0.148844 0.0488208 0.019986 -0.218276 0.0113852 -0.090543 -0.207411 -0.153607 -0.0891257 0.0484498 0.0127555 -0.21822 0.0527533 0.048453 -0.277641 0.116993 -0.272864 0.00707145 -0.124606 -0.0453082 -0.0885014 -0.101028
251694363 -0.00937782 -0.15643 0.3545 -0.0564542 0.144175 0.0371737 0.0343322 -0.232022 0.0478798 0.0891553 0.301573 0.465847 0.50172 0.187542 -0.0720428 0.0782475 -0.290299 0.198403 0.0213808 0.200882 -0.137637 0.0301027 -0.153237 -0.101486 -0.0104256 -0.131489 0.0201184 -0.240097 -0.37311 0.189937 -0.202918 0.00788566 0.0314299 0.0696141 0.292338 -0.085494 -0.116301 0.017016 -0.175198 -0.113276 0.189606 -0.0502784 0.145025 -0.142506 0.19922 0.123308 0.197384 0.172366 0.0854116 0.176976 0.0096436 -0.264557 -0.191209 0.148397 -0.191295 0.130796 0.0680757 -0.084022 -0.00748821 -0.055384 -0.0474964 0.195339 -0.215704 -0.0774078 -0.0845426 -0.00725916 -0.274233 0.0309906 -0.120708 -0.0168002 -0.169288 -0.191819 0.201267 -0.380291 -0.0294614 0.0692369 0.0180018 0.0107546 -0.108592 -0.000898069 0.00145727 -0.219092 0.0204912 -0.11814 -0.213667 -0.133433 -0.13494 0.0789039 0.0319964 -0.20745 0.0450267 0.0474034 -0.296311 0.128489 -0.324584 0.00663521 -0.0717928 -0.0474352 -0.100391 -0.137328
132368524 -0.0452768 -0.13987 0.302696 -0.110148 0.0959396 0.0235962 0.0179072 -0.282111 0.0553398 -0.07727 0.178761 0.444253 0.496408 0.170173 0.116911 0.202452 -0.390468 -0.00441486 0.0603333 0.369397 -0.152587 0.133767 -0.150322 -0.0488431 -0.262909 0.0618072 -0.088998 -0.0986997 -0.50274 0.131385 -0.137309 0.0226104 0.0680768 0.0222468 0.184486 -0.231804 0.0115288 0.155253 -0.136561 0.122495 0.0677241 -0.0374873 0.184859 -0.192229 0.00365445 0.237267 0.119801 0.1654 -0.125958 0.200771 0.0158725 -0.0971497 -0.0745274 0.0966937 -0.310174 0.111164 -0.00949957 0.0445215 -0.000425001 -0.111953 -0.239926 0.165347 -0.0947176 -0.00279203 -0.187542 0.00516908 -0.178872 0.0394556 -0.0289801 -0.0184317 -0.167295 -0.169643 0.0919799 -0.337044 0.0305382 0.0623361 -0.0474777 -0.128579 -0.181305 0.0407613 0.12715 -0.254875 -0.0771803 0.064376 -0.166349 -0.214163 -0.101196 0.0577442 0.0488681 -0.24939 0.204536 0.0705277 -0.28668 0.157977 -0.253346 0.151024 -0.182878 0.0633625 0.0511962 0.0252514
163462941 -0.032236 -0.171489 0.320879 -0.138542 0.103183 0.0220035 -0.00870882 -0.365864 0.0584239 -0.139128 0.132637 0.5143 0.544251 0.155895 0.208985 0.245873 -0.467339 -0.118296 0.063669 0.5157 -0.14602 0.135289 -0.138177 0.0327581 -0.430216 0.131571 -0.137512 -0.0432913 -0.58934 0.0931491 -0.099333 0.059607 0.0802983 -0.0427658 0.193821 -0.318382 0.0248029 0.182526 -0.146248 0.225685 0.0193182 -0.0702384 0.245923 -0.284567 -0.0718868 0.293571 0.0432276 0.193294 -0.235164 0.259936 0.0453803 0.00882323 0.0101701 0.10392 -0.321708 0.0855169 -0.0708786 0.084754 0.051634 -0.136194 -0.310705 0.175813 -0.103062 0.0246171 -0.202147 -0.04481 -0.178102 -0.0055546 0.00333082 -0.00620128 -0.161245 -0.194875 0.0786782 -0.421675 0.0153829 0.00357546 0.0140203 -0.213236 -0.278923 0.0291261 0.233105 -0.279437 -0.147921 0.161373 -0.150361 -0.265041 -0.168585 0.119206 0.0181232 -0.281867 0.261371 0.0881651 -0.331544 0.193148 -0.290531 0.279555 -0.179516 0.113514 0.180105 0.100504
97695104 -0.0647908 -0.154017 0.299172 -0.11885 0.0789843 0.0351996 -0.00507179 -0.294672 0.0355005 -0.120033 0.156587 0.46301 0.496748 0.147398 0.161503 0.24196 -0.414485 -0.0614616 0.0568808 0.428011 -0.117357 0.151513 -0.146829 -0.00517928 -0.363742 0.0928727 -0.141811 -0.0632722 -0.541067 0.097061 -0.130226 0.0510792 0.0967982 -0.0254374 0.17308 -0.279029 0.0169801 0.157966 -0.115953 0.160529 0.0391342 -0.0547362 0.205282 -0.229196 -0.030321 0.273691 0.0762874 0.198319 -0.187143 0.22509 0.0297101 -0.054811 -0.0257678 0.0902965 -0.329161 0.0957038 -0.0285253 0.0654286 0.00938816 -0.103183 -0.259528 0.168029 -0.10333 0.0012764 -0.206375 -0.0370406 -0.189236 -0.00808322 -0.0210023 -0.0284815 -0.173096 -0.171767 0.076062 -0.377808 0.0360865 0.0365393 -0.0315144 -0.202259 -0.228877 0.043229 0.187657 -0.267497 -0.112734 0.125887 -0.152872 -0.222447 -0.136379 0.0745979 0.0425878 -0.280389 0.260041 0.0662779 -0.323587 0.181361 -0.234407 0.217062 -0.158914 0.126006 0.103922 0.0488969
26724471 -0.0394136 -0.173012 0.318538 -0.0912268 0.0884451 0.0272469 0.00463486 -0.319529 0.0640226 -0.112059 0.162288 0.460481 0.487696 0.179852 0.122239 0.1889 -0.379984 -0.011008 0.0520112 0.403846 -0.105742 0.0673878 -0.130547 -0.00820965 -0.310176 0.0618491 -0.0972577 -0.0697876 -0.478733 0.0850724 -0.112482 0.0449894 0.0731938 -0.0233146 0.194789 -0.255133 0.00412647 0.142858 -0.155843 0.108723 0.0551853 -0.097381 0.197025 -0.191783 -0.0466854 0.234667 0.0687451 0.180873 -0.152105 0.247299 0.0422473 -0.0388792 -0.0255612 0.0913961 -0.290431 0.0778468 -0.00651247 0.0662135 0.0432668 -0.116431 -0.235684 0.181648 -0.130702 0.00321561 -0.177241 -0.0331579 -0.181668 -0.00178223 -0.0686524 -0.044356 -0.142137 -0.143094 0.093776 -0.369419 0.0141888 0.0135261 -0.0412852 -0.155424 -0.210138 0.0556114 0.172723 -0.260615 -0.0787668 0.0805637 -0.125562 -0.184366 -0.154099 0.105238 0.00184647 -0.244834 0.20837 0.0465524 -0.302417 0.171884 -0.250537 0.179161 -0.137692 0.0942165 0.0962557 0.036282
46278612 -0.0779222 -0.12537 0.322844 -0.127524 0.0646329 0.0307293 0.0134779 -0.346895 0.0816527 -0.120798 0.155746 0.487273 0.472772 0.157165 0.127843 0.22351 -0.426447 -0.0444399 0.0821616 0.445287 -0.156887 0.127357 -0.132151 -0.0571934 -0.337794 0.113525 -0.123208 -0.073378 -0.573637 0.117749 -0.134488 0.00214396 0.105141 0.00940088 0.159915 -0.220407 0.0534346 0.16941 -0.138778 0.165241 0.0710982 -0.0489207 0.230412 -0.222842 -0.0430691 0.300244 0.111666 0.190508 -0.185811 0.265691 0.0615798 -0.0535144 -0.0345385 0.102065 -0.335757 0.0943095 0.0118303 0.0560106 -0.00788279 -0.117173 -0.278005 0.190123 -0.0814775 0.0387215 -0.222526 -0.0537621 -0.174822 -0.00180125 -0.043756 -0.027202 -0.151717 -0.112671 0.10968 -0.311213 0.0703316 0.0260708 -0.0833893 -0.192153 -0.220451 0.0728565 0.152092 -0.239736 -0.111227 0.0921535 -0.174752 -0.248961 -0.121133 0.0266642 0.00324574 -0.310624 0.237734 0.0670408 -0.304018 0.138063 -0.243126 0.162841 -0.210328 0.0943875 0.0638123 -0.00953064
166842769 -0.0151536 -0.102284 0.342109 -0.0553508 0.114356 0.0619096 0.0654971 -0.177535 0.0581815 0.0843712 0.291296 0.44717 0.469094 0.1534 -0.0456659 0.143341 -0.317665 0.16421 0.0359954 0.171259 -0.14662 0.0921711 -0.174505 -0.153007 -0.0190491 -0.0791493 -0.00757875 -0.223093 -0.413472 0.216002 -0.223834 0.0030323 0.0528188 0.10818 0.248593 -0.122776 -0.0691798 0.063952 -0.171682 -0.0369771 0.158123 0.0321239 0.140428 -0.12027 0.20271 0.189702 0.22599 0.197175 0.0718857 0.1398 -0.0211813 -0.297805 -0.207591 0.126996 -0.265419 0.15361 0.0705032 -0.0833899 -0.0643425 -0.029061 -0.114317 0.162193 -0.131981 -0.0724543 -0.1473 -0.0110369 -0.273322 0.0364401 -0.0923662 -0.0119325 -0.178996 -0.1733 0.197091 -0.31605 0.0211357 0.0929033 -0.0409583 0.0128187 -0.108886 0.0130135 -0.0235813 -0.202967 -0.0234964 -0.0893787 -0.259826 -0.157478 -0.0437416 -0.00863593 0.0666487 -0.241526 0.0484768 0.0667862 -0.278727 0.108024 -0.289978 -0.0255131 -0.15597 -0.0296804 -0.151542 -0.159391
18392144 -0.021612 -0.227719 0.38318 -0.098334 0.0795536 0.0703517 -0.0176251 -0.33182 0.0484586 -0.0755851 0.189081 0.453626 0.543673 0.168696 0.162898 0.236169 -0.435227 -0.0594948 0.0685234 0.357494 -0.0782644 0.0934283 -0.143861 -0.0150177 -0.327886 0.0612541 -0.14057 -0.0397814 -0.578172 0.130808 -0.121398 0.0574243 0.0503712 -0.0208452 0.194655 -0.336285 -0.00749888 0.126632 -0.17531 0.145817 0.0381178 -0.08158 0.194895 -0.199621 -0.018476 0.245783 0.0407018 0.226774 -0.137959 0.247571 0.0503257 0.000661109 -0.0608716 0.0939056 -0.259794 0.0996533 -0.0247286 0.0748319 0.0630855 -0.111602 -0.291029 0.110213 -0.0940302 -0.0194203 -0.171108 -0.0749356 -0.169055 -0.00238871 -0.00417055 -0.0217003 -0.140358 -0.119984 0.112625 -0.400487 -0.00563148 -0.0101494 -0.0937931 -0.126384 -0.232821 0.0417958 0.130953 -0.291662 -0.0868279 0.0591684 -0.127746 -0.212728 -0.138539 0.106673 0.057865 -0.239349 0.243772 0.106843 -0.284451 0.229812 -0.269429 0.167398 -0.139643 0.155839 0.0620323 0.0196187
247029753 -0.0340795 -0.141056 0.311884 -0.130815 0.111726 0.019202 -0.00848358 -0.354954 0.061237 -0.125276 0.153102 0.484801 0.518709 0.165545 0.212218 0.252353 -0.471102 -0.10804 0.0687749 0.493041 -0.15433 0.14324 -0.139868 0.00569182 -0.408005 0.13062 -0.143195 -0.0515577 -0.583545 0.118226 -0.108303 0.0381472 0.100077 -0.0347677 0.162357 -0.309949 0.0539484 0.194454 -0.163103 0.227885 0.0276693 -0.040564 0.231742 -0.266396 -0.0569467 0.311373 0.0527674 0.216686 -0.228808 0.233066 0.059428 0.00106102 -0.0216036 0.0991321 -0.341119 0.0899149 -0.0657394 0.0718828 0.0133331 -0.14068 -0.307666 0.168483 -0.0833576 0.0117863 -0.209177 -0.0539207 -0.163437 0.00159497 -0.00477305 -0.0136444 -0.173719 -0.179271 0.0749271 -0.392252 0.0358208 0.0154201 -0.0141275 -0.216404 -0.268157 0.0464988 0.204843 -0.266519 -0.149671 0.161511 -0.146785 -0.267952 -0.146484 0.0791563 0.028873 -0.281354 0.245004 0.102476 -0.312349 0.17526 -0.270894 0.260854 -0.199288 0.104981 0.140596 0.0843898
23513177 -0.0738861 -0.134414 0.313778 -0.104181 0.0973644 0.0495446 0.0220455 -0.302956 0.0707698 -0.0885631 0.149689 0.478408 0.467776 0.168728 0.0687756 0.231171 -0.393816 -0.014481 0.0944231 0.391341 -0.186088 0.128994 -0.157165 -0.0706933 -0.266656 0.0881506 -0.119395 -0.102002 -0.510725 0.115573 -0.161045 0.00291414 0.0763482 0.0515624 0.152848 -0.191052 0.0209979 0.145632 -0.106248 0.0764335 0.0448663 -0.0600909 0.184904 -0.183223 -0.00821955 0.264406 0.104188 0.196898 -0.123576 0.26597 0.0660126 -0.0921469 -0.0695645 0.0882367 -0.307154 0.106286 0.0217842 0.0268787 -0.0308938 -0.0850267 -0.22559 0.185866 -0.0730837 0.0528915 -0.201225 -0.0516763 -0.221008 0.0206176 -0.0499557 -0.0359508 -0.187586 -0.145717 0.156578 -0.302371 0.0788339 0.0419508 -0.0838329 -0.14103 -0.201878 0.0595854 0.130647 -0.247976 -0.0900671 0.0985815 -0.150687 -0.191934 -0.0956015 0.0325013 -0.00154699 -0.303228 0.208727 0.060089 -0.312056 0.134658 -0.244746 0.1338 -0.178513 0.094483 0.0719265 -0.0288824
69105506 -0.0366071 -0.159491 0.30411 -0.133565 0.0789619 0.0304414 -0.0156316 -0.356705 0.0439742 -0.141966 0.136327 0.457726 0.505283 0.141504 0.221923 0.254638 -0.453161 -0.131243 0.0726733 0.460445 -0.144341 0.152459 -0.12529 0.0102837 -0.408249 0.144575 -0.15683 -0.0261355 -0.605385 0.1072 -0.105562 0.0428086 0.0892266 -0.0340285 0.16203 -0.305038 0.0389624 0.17482 -0.138829 0.238205 0.00733805 -0.0417946 0.231699 -0.256481 -0.0743055 0.292256 0.0566079 0.193852 -0.202689 0.237268 0.0682191 0.0291273 -0.0069127 0.102124 -0.311918 0.0907608 -0.063117 0.0791969 0.0258509 -0.132122 -0.33327 0.135601 -0.0651288 0.024939 -0.214532 -0.0503861 -0.139267 -0.00516487 0.0230527 0.00813963 -0.137208 -0.157683 0.0831683 -0.383832 0.0285634 0.00549211 -0.0431316 -0.184618 -0.261901 0.0511903 0.19223 -0.259305 -0.152053 0.130753 -0.148315 -0.275539 -0.145391 0.092225 0.0397458 -0.271367 0.261757 0.0987313 -0.2992 0.1833 -0.248897 0.233843 -0.199418 0.118847 0.138782 0.0696941
91420540 -0.0276727 -0.179913 0.353139 -0.132006 0.0907548 0.0435692 -0.00627135 -0.356768 0.0522947 -0.127796 0.160314 0.496804 0.54048 0.150997 0.215558 0.272378 -0.486592 -0.119382 0.0818211 0.483215 -0.132897 0.156324 -0.128391 -0.00130477 -0.41829 0.130438 -0.167777 -0.0334681 -0.648259 0.123844 -0.123368 0.053112 0.0934304 -0.0418778 0.189585 -0.340322 0.0441596 0.172938 -0.156015 0.244666 0.0278121 -0.0450223 0.23457 -0.268424 -0.059707 0.302457 0.0626594 0.221186 -0.217535 0.234641 0.0629115 -0.00585234 -0.030181 0.103025 -0.347436 0.102541 -0.0518757 0.0896373 0.0190174 -0.121063 -0.334368 0.145233 -0.0830924 0.000269713 -0.223092 -0.0621438 -0.154527 -0.00964371 0.0165317 -0.0115464 -0.160244 -0.166057 0.0982673 -0.414407 0.0182586 0.00886825 -0.0427721 -0.192785 -0.284112 0.0621291 0.191359 -0.279093 -0.151106 0.113537 -0.159357 -0.287638 -0.149739 0.092784 0.0412767 -0.281906 0.259601 0.1047 -0.309838 0.195307 -0.265418 0.23946 -0.204125 0.11569 0.128372 0.064985
178002918 -0.0125639 -0.150664 0.339894 -0.0610755 0.127288 0.0560838 0.0280375 -0.295128 0.0740611 0.0275143 0.215866 0.467252 0.519454 0.203484 0.0161339 0.112029 -0.349394 0.0885667 0.0505346 0.269467 -0.156454 0.0390063 -0.148974 -0.0855888 -0.066258 0.00641227 -0.00304863 -0.162192 -0.406868 0.168779 -0.120932 0.00923371 0.00411058 0.0555874 0.226668 -0.135578 -0.0767943 0.114683 -0.188471 -0.0200254 0.13383 -0.0555784 0.139976 -0.119964 0.0699107 0.174514 0.139833 0.166023 -0.0383343 0.220043 0.00357068 -0.156824 -0.14239 0.114597 -0.227472 0.1211 0.0321513 -0.0320811 0.0255666 -0.116979 -0.144833 0.198374 -0.154424 -0.0302181 -0.140519 0.0271242 -0.235374 0.0690801 -0.107082 -0.0218661 -0.172561 -0.137206 0.152202 -0.323224 -0.001574 0.059428 -0.00339255 -0.0163 -0.113213 0.0332213 0.0740496 -0.228615 -0.000902443 -0.0381991 -0.162624 -0.160828 -0.109537 0.0694977 0.0354979 -0.200979 0.0845772 0.0919493 -0.268594 0.135861 -0.341113 0.0512389 -0.112932 0.00798262 -0.00798381 -0.0675568
283193474 0.0115367 -0.182491 0.368297 -0.0600917 0.143606 0.0640403 0.0419869 -0.231135 0.0281012 0.0864343 0.276385 0.478505 0.539696 0.218549 -0.00472705 0.103069 -0.356271 0.176207 0.00357534 0.204234 -0.0918675 -0.00880137 -0.143949 -0.10914 -0.00121804 -0.0988074 0.0184894 -0.154556 -0.3777 0.167731 -0.106688 0.027311 0.0473888 -0.00266837 0.270916 -0.199247 -0.0807509 0.0329314 -0.195618 -0.0772466 0.166233 -0.0757814 0.141976 -0.101455 0.0992239 0.0983683 0.156127 0.143774 0.031188 0.205505 -0.0369665 -0.240805 -0.21402 0.116652 -0.210151 0.120589 0.0279771 -0.0306868 0.0492053 -0.0633571 -0.14098 0.164642 -0.224649 -0.105346 -0.127631 0.00660495 -0.217266 0.0124655 -0.10326 -0.0284528 -0.113719 -0.152536 0.135446 -0.362475 -0.0560212 0.0413725 -0.0231727 0.0436099 -0.112616 0.00668225 0.0115097 -0.251416 -0.000520361 -0.136433 -0.212666 -0.138252 -0.102804 0.0865942 0.0411223 -0.152909 0.0566531 0.0868114 -0.269062 0.16258 -0.309191 -0.00590007 -0.100684 -0.0109289 -0.0899635 -0.0835645
21623308 -0.0320712 -0.137389 0.354997 -0.0720225 0.132109 0.0345375 0.0199691 -0.213479 0.0423659 0.0924267 0.277525 0.455842 0.454389 0.155705 -0.0390724 0.114929 -0.305167 0.146312 0.0287315 0.193895 -0.102943 0.0234852 -0.146804 -0.109922 -0.0714035 -0.10688 -0.000457655 -0.193561 -0.391721 0.190831 -0.183246 0.00755202 0.0758865 0.051611 0.257625 -0.148057 -0.071846 0.0278644 -0.20744 -0.0692552 0.159963 -0.0233862 0.143465 -0.146414 0.195822 0.157731 0.191374 0.177598 0.0340051 0.16076 -0.00759301 -0.236789 -0.193531 0.129243 -0.241014 0.139762 0.0650057 -0.0638193 -0.0114856 -0.0525746 -0.10201 0.195719 -0.191834 -0.0949893 -0.135438 -0.0274501 -0.266711 0.0215636 -0.149793 0.0189293 -0.14493 -0.186886 0.172693 -0.330711 -0.041452 0.0338302 -0.0294407 -0.0403693 -0.136006 0.0239443 0.00316115 -0.238552 -0.00236627 -0.0888974 -0.240118 -0.142224 -0.107785 0.0309137 0.0481222 -0.211899 0.0841554 0.0624083 -0.283942 0.135166 -0.309569 0.0163239 -0.0911064 -0.0121704 -0.124886 -0.137239
25121968 -0.0725359 -0.0346219 0.255486 -0.0956474 0.0290619 0.043846 0.0782345 -0.197925 0.0556347 -0.0561887 0.21167 0.459848 0.415367 0.102837 0.0618559 0.192091 -0.348067 0.0184128 0.054639 0.316451 -0.186842 0.161449 -0.139884 -0.130433 -0.202245 0.082172 -0.094064 -0.170239 -0.525123 0.175889 -0.201002 0.00637466 0.112328 0.0456706 0.15557 -0.0899362 0.0220598 0.141521 -0.0768356 0.122917 0.104777 0.0276706 0.184919 -0.180286 0.0414502 0.278659 0.24177 0.148269 -0.0798525 0.181544 -0.0208098 -0.21528 -0.0758838 0.107236 -0.377208 0.138173 0.0796516 -0.00752412 -0.0869493 -0.0524132 -0.213568 0.193909 -0.0533203 0.0149122 -0.271623 0.0277801 -0.215189 0.0382017 -0.0595491 0.0116681 -0.162176 -0.151858 0.12712 -0.235625 0.0836336 0.112583 -0.0641172 -0.0953947 -0.127602 0.0645888 0.0658824 -0.160193 -0.0966761 0.0163075 -0.291114 -0.248643 -0.0602234 -0.0454 0.0397304 -0.319495 0.1571 0.0475158 -0.296532 0.0663244 -0.211082 0.0497042 -0.234551 -0.00135805 -0.0861749 -0.0659341
43970288 -0.0456356 -0.116372 0.322507 -0.0739069 0.0586344 0.0582032 0.0538389 -0.280995 0.0398094 0.0177688 0.231947 0.466381 0.499512 0.178643 0.0169292 0.149411 -0.34956 0.0936306 0.0400065 0.253837 -0.17064 0.124071 -0.136518 -0.143656 -0.0911197 0.0121682 -0.0176613 -0.171075 -0.4651 0.18843 -0.193317 -0.0357545 0.0684578 0.0713541 0.201227 -0.0977106 -0.0665994 0.102167 -0.164413 0.0222778 0.171633 0.00294727 0.174814 -0.131307 0.131767 0.203441 0.183126 0.173791 -0.0169285 0.183113 0.0121766 -0.210071 -0.14784 0.107115 -0.276658 0.145281 0.0607501 -0.0350527 -0.0284588 -0.0645886 -0.17918 0.167126 -0.126826 -0.0307814 -0.15837 0.00881943 -0.224208 0.0237974 -0.0852637 0.00133002 -0.166815 -0.117232 0.153579 -0.310965 0.0338869 0.0941907 -0.0476924 -0.0402534 -0.0903256 0.0553247 0.021749 -0.216472 -0.00148827 -0.0773416 -0.224033 -0.200945 -0.0832014 -0.000942879 0.0496525 -0.21939 0.125187 0.0810292 -0.298429 0.134245 -0.278198 0.0228381 -0.140012 0.0393222 -0.0881415 -0.121323
58467095 -0.0532746 -0.127678 0.316134 -0.056466 0.0768652 0.0554367 0.0563128 -0.212929 0.041424 0.0198637 0.251782 0.411336 0.463283 0.187298 -0.00752685 0.151633 -0.331601 0.135459 0.0409848 0.212778 -0.130239 0.0736818 -0.155967 -0.127522 -0.0865417 -0.0393365 -0.0343888 -0.18634 -0.409936 0.17082 -0.182871 0.0133043 0.0592174 0.0735416 0.201641 -0.133436 -0.0402309 0.0781225 -0.126042 -0.0134848 0.112366 -0.0239408 0.131142 -0.109885 0.0981325 0.180728 0.172511 0.179765 0.0206315 0.194044 0.0050709 -0.208145 -0.159036 0.107834 -0.247161 0.114831 0.0770749 -0.0439872 -0.0248511 -0.0622129 -0.155598 0.154247 -0.123467 -0.0401901 -0.153059 -0.0221079 -0.216175 0.0241607 -0.0704146 -0.0256825 -0.144113 -0.138819 0.138789 -0.296338 0.0193344 0.0738112 -0.0924864 -0.0391059 -0.107904 0.0286945 0.025047 -0.212593 -0.0271248 -0.0406791 -0.21675 -0.149923 -0.0554623 0.0120947 0.0479651 -0.239999 0.117205 0.0548893 -0.279335 0.124633 -0.242216 0.0112911 -0.141174 0.0337352 -0.114589 -0.103794
19041357 -0.0632861 -0.165446 0.38436 0.00826017 0.0764622 0.123075 0.117567 -0.029959 0.0147096 0.080372 0.343103 0.379057 0.418315 0.100072 -0.140797 0.225253 -0.230315 0.26301 0.0638126 0.05094 -0.121198 0.179543 -0.157697 -0.189655 0.038537 -0.149163 -0.0560678 -0.30865 -0.451173 0.245965 -0.380223 0.0617473 0.0349961 0.191188 0.247934 -0.126765 -0.108875 -0.0119048 -0.0735399 -0.0909978 0.0793344 0.04865 0.0417806 -0.0495249 0.273199 0.192813 0.301378 0.270642 0.185437 0.0938136 -0.0253682 -0.464291 -0.242646 0.107368 -0.312108 0.188093 0.206788 -0.138664 -0.141212 0.0474976 -0.116313 0.136669 -0.100414 -0.125711 -0.191925 -0.0250346 -0.341511 0.0227318 -0.0574201 -0.0647881 -0.195671 -0.237386 0.238833 -0.312903 0.0026832 0.163751 -0.20631 0.0505972 -0.0995572 0.0336993 -0.123388 -0.20131 0.000937446 -0.144487 -0.332474 -0.13517 0.0585579 -0.0144927 0.0960827 -0.307135 0.0576087 -0.019881 -0.32372 0.157457 -0.185264 -0.106831 -0.201175 -0.0248136 -0.373205 -0.208488
76066858 -0.0240485 -0.146988 0.377967 -0.0397395 0.082035 0.0772202 0.0910507 -0.210474 0.0331784 0.104472 0.319897 0.480979 0.49529 0.210194 -0.073374 0.105242 -0.315235 0.236712 0.0174803 0.172145 -0.119057 0.0156796 -0.16019 -0.172216 0.0464418 -0.0981548 0.013889 -0.229891 -0.367436 0.202538 -0.18975 0.000557017 0.0597932 0.0926257 0.246137 -0.0949284 -0.0958992 0.0456484 -0.184784 -0.114203 0.215143 -0.0341389 0.136584 -0.090738 0.19149 0.147134 0.228793 0.162434 0.0858898 0.183615 -0.0313962 -0.315615 -0.233999 0.123835 -0.2446 0.147246 0.0809183 -0.0742199 -0.0203237 -0.0380188 -0.0821672 0.174647 -0.18414 -0.0801255 -0.126296 0.0151817 -0.267876 0.0491851 -0.137971 -0.040567 -0.174069 -0.156664 0.179597 -0.34507 -0.00236242 0.0998326 -0.0335213 0.027052 -0.0674731 0.0255107 -0.0279568 -0.223247 0.0330992 -0.154196 -0.234652 -0.115676 -0.0818408 0.0276533 0.038158 -0.208307 0.0526382 0.0657043 -0.286093 0.123483 -0.302487 -0.0423108 -0.0911759 -0.0221031 -0.18013 -0.158553
169768183 -0.0279751 -0.186969 0.374267 -0.0190074 0.0974533 0.0889826 0.0530231 -0.228799 0.0320042 0.0824931 0.301065 0.46861 0.541495 0.25198 -0.039917 0.101822 -0.330674 0.236311 -0.00394789 0.16938 -0.0565656 -0.0339511 -0.178938 -0.103843 0.011398 -0.131496 0.0305307 -0.201573 -0.349457 0.152273 -0.15746 0.0344728 0.0320886 0.0204046 0.291104 -0.145339 -0.106172 0.0357249 -0.171225 -0.139049 0.185752 -0.0681942 0.125925 -0.0738707 0.117036 0.114125 0.178756 0.170554 0.0714965 0.247375 -0.062317 -0.253955 -0.182831 0.113792 -0.208456 0.114164 0.078773 -0.057206 0.0463446 -0.0627798 -0.108708 0.182084 -0.246981 -0.0956137 -0.117803 0.00648183 -0.265177 0.0136618 -0.124664 -0.0737556 -0.149243 -0.102719 0.132961 -0.345695 -0.0113828 0.0664347 -0.0542447 0.0233668 -0.0713961 -0.00505279 0.00635118 -0.252689 0.0526456 -0.132418 -0.186412 -0.0693278 -0.093345 0.0763108 0.0275473 -0.181144 0.0874936 0.0379545 -0.30643 0.164874 -0.296459 -0.0328497 -0.0646972 0.0329065 -0.141054 -0.133998
181821137 -0.0464084 -0.112793 0.343079 -0.0636298 0.0401057 0.0687109 0.0923288 -0.189114 0.0442451 0.0355212 0.275868 0.460272 0.44671 0.148135 -0.010702 0.165329 -0.329635 0.12788 0.0566504 0.203723 -0.14688 0.0910512 -0.155708 -0.153492 -0.0712158 -0.0332409 -0.0491729 -0.195392 -0.464348 0.194324 -0.214723 0.000642994 0.0772434 0.0759997 0.19191 -0.112017 -0.0421844 0.0784261 -0.116193 -0.0116167 0.13509 0.00820062 0.158352 -0.11474 0.121352 0.228717 0.236863 0.167965 0.0382762 0.222993 -0.019296 -0.277262 -0.174415 0.100874 -0.311505 0.143175 0.104787 -0.0546847 -0.0721658 -0.0310175 -0.17663 0.160517 -0.114474 -0.0384119 -0.209359 -0.0152298 -0.237499 0.0468073 -0.0654515 -0.024466 -0.152 -0.157341 0.170772 -0.267807 0.0256049 0.095518 -0.131421 -0.0214304 -0.113427 0.0537901 -0.0171296 -0.195863 -0.0337736 -0.0787566 -0.269782 -0.163724 -0.0423141 -0.00484634 0.0273834 -0.299294 0.105095 0.0615465 -0.286486 0.103247 -0.245019 -0.0219286 -0.18293 0.016711 -0.178413 -0.127239
95299477 -0.0297517 -0.149699 0.331154 -0.0461218 0.0933399 0.0485741 0.061856 -0.224671 0.0259064 0.104811 0.327638 0.471354 0.587646 0.259264 -0.0595295 0.0314884 -0.309649 0.295842 -0.0350797 0.151852 -0.0741375 -0.0280082 -0.181969 -0.10899 0.029563 -0.175672 0.0628935 -0.24024 -0.287357 0.147691 -0.132788 0.0028411 0.0572601 0.0226946 0.3137 -0.0835514 -0.135612 0.0167142 -0.17208 -0.145635 0.218601 -0.0593329 0.162817 -0.080677 0.149963 0.0829057 0.203878 0.116566 0.0856088 0.23807 -0.0654991 -0.275121 -0.207698 0.124131 -0.175153 0.106407 0.0500543 -0.0533117 0.0693881 -0.0655763 -0.0774754 0.210754 -0.265342 -0.107189 -0.0957266 0.0236125 -0.27525 0.00938034 -0.136419 -0.0410801 -0.134759 -0.130713 0.108631 -0.357409 -0.0299273 0.0784305 -0.019303 0.0244127 -0.0156736 -0.0389115 0.0193101 -0.237967 0.0842045 -0.129353 -0.198414 -0.0759301 -0.0970517 0.0708739 0.0374834 -0.169677 0.0786503 0.0506697 -0.308339 0.146473 -0.306078 -0.0180615 -0.0193437 0.0296337 -0.139122 -0.147574
21425125 -0.0347966 -0.138939 0.358721 -0.0420422 0.0887833 0.0770157 0.0984686 -0.192325 0.0365585 0.0664784 0.312473 0.468346 0.521613 0.21448 -0.0444801 0.100479 -0.328412 0.229661 0.0301296 0.178562 -0.11744 0.0640612 -0.190683 -0.134672 0.000759021 -0.0995287 0.00591318 -0.240751 -0.404858 0.181027 -0.211083 0.0121687 0.0463968 0.0763457 0.266114 -0.100516 -0.0923951 0.0514678 -0.117136 -0.0830054 0.190557 -0.0182174 0.154817 -0.0997395 0.161339 0.143661 0.223465 0.153522 0.0795802 0.217366 -0.0387278 -0.31767 -0.212425 0.128586 -0.243732 0.13763 0.084074 -0.0812495 -0.0257068 -0.0391233 -0.106711 0.181898 -0.179499 -0.0654127 -0.136596 -0.00483629 -0.26713 0.034496 -0.0680243 -0.053785 -0.151785 -0.164601 0.168089 -0.332278 0.0197088 0.106638 -0.0623006 0.0298148 -0.087262 -0.000618855 -0.0116168 -0.219804 0.00647456 -0.113613 -0.240982 -0.128866 -0.0781544 0.032013 0.0449308 -0.253262 0.0699099 0.0394566 -0.308172 0.122821 -0.273502 -0.0325874 -0.12482 0.00748878 -0.150596 -0.136155
356349317 -0.0468223 -0.0922715 0.313182 -0.124325 0.0485895 0.0420832 0.0600898 -0.312712 0.0456941 -0.0441994 0.195593 0.486367 0.495631 0.196057 0.104329 0.183307 -0.415909 0.00681669 0.0583154 0.348348 -0.184632 0.103967 -0.151791 -0.0796071 -0.228116 0.0847076 -0.0857209 -0.129721 -0.520375 0.139741 -0.128448 -0.00862642 0.118316 0.0199144 0.149804 -0.146563 0.00262289 0.130523 -0.114619 0.100287 0.101981 -0.0301649 0.226771 -0.16623 0.00152545 0.262169 0.137513 0.15857 -0.086307 0.265461 0.0553166 -0.0941076 -0.0877796 0.110155 -0.272383 0.0888147 -0.0102675 0.0203216 -0.00734353 -0.086353 -0.251726 0.152518 -0.0726384 0.0553396 -0.198152 -0.0568287 -0.160179 0.0350675 -0.0160282 -0.00284009 -0.150303 -0.12 0.143787 -0.317077 0.074786 0.0527139 -0.0632109 -0.0936553 -0.158237 0.0484164 0.112979 -0.215148 -0.0626426 0.0224285 -0.1846 -0.21617 -0.102498 0.020563 0.0224412 -0.268778 0.189833 0.10872 -0.271905 0.117805 -0.240294 0.115448 -0.149403 0.0613941 0.0519929 -0.052992
