65 100
110783489 0.250491 -0.0800369 0.155832 0.180574 -0.171163 -0.352977 0.103982 0.150252 -0.265468 0.0333846 -0.148246 0.50037 0.310524 0.02318 0.17455 -0.0607056 0.223076 0.109362 0.164878 -0.132708 0.0244727 -0.0703423 -0.0167984 -0.0091945 0.0598752 -0.00937889 -0.264123 0.0451848 -0.371344 0.130771 0.244794 -0.377645 0.0177796 -0.324136 0.366232 0.032007 0.157592 0.0624188 0.436314 -0.114164 -0.0638518 0.121991 0.0841988 0.249335 0.111776 0.204191 0.113885 -0.52094 0.348356 0.214822 -0.0917875 0.266356 0.150899 -0.282393 0.24325 0.0808782 0.0901263 0.148401 0.0475368 0.0339195 0.38168 -0.102678 0.11932 0.446585 -0.287228 -0.239317 0.183645 0.252881 -0.00106925 0.15926 -0.332257 0.0109387 0.126489 0.514129 0.153911 0.0481661 -0.132849 -0.141824 0.255327 0.00400857 -0.372283 0.195641 -0.00867822 -0.0296809 0.324848 -0.1421 0.209067 0.159873 -0.253669 0.178049 -0.103482 -0.0174958 0.167949 -0.175093 -0.0952946 0.275248 -0.0900738 0.0295005 0.289906 0.12762
20448733 0.172031 -0.0035931 0.220699 0.138427 -0.0903259 -0.337951 0.0910543 0.0925271 -0.239127 -0.00976846 -0.0673317 0.372161 0.217657 0.0177209 0.0525491 -0.0748564 0.237544 0.114683 0.158958 -0.274086 0.0359453 -0.0406969 0.0322829 0.0149398 0.0218577 0.0257837 -0.244418 -0.0219851 -0.355553 0.0812903 0.100012 -0.267594 0.0638774 -0.355053 0.192763 0.044497 0.107992 0.010521 0.387536 -0.125986 -0.0865555 -0.00942367 0.0562999 0.22241 0.136899 0.154458 0.099709 -0.504601 0.336001 0.244762 -0.145442 0.281018 0.112703 -0.283209 0.0906765 0.111633 -0.0160582 0.139705 0.0924272 0.0322336 0.335667 -0.158686 0.0871823 0.483895 -0.141874 -0.169978 0.0852002 0.243126 0.0214083 0.153664 -0.249933 -0.10119 0.141452 0.499243 0.160483 0.0153255 -0.183474 -0.188939 0.268186 -0.0255352 -0.259872 0.180656 0.0317446 -0.0727747 0.265897 -0.235874 0.247086 0.17737 -0.240736 0.156075 -0.0585975 0.0454437 0.126484 -0.15174 -0.0531312 0.309074 -0.038275 0.108036 0.273844 0.145202
18069748 0.179123 -0.242437 -0.0429261 0.0215957 -0.112819 -0.226911 0.133445 0.136303 -0.14244 0.0638506 -0.0114044 0.279552 0.252763 -0.115839 0.0864143 -0.161542 0.321936 -0.0444152 0.0673605 -0.285624 -0.046611 -0.122472 -0.103818 0.0253192 0.0300094 -0.0166673 0.0364369 0.0344031 -0.162588 0.222458 0.298984 -0.410524 0.0278858 -0.44168 0.288809 0.095019 0.0170517 0.185891 0.337442 -0.135618 -0.120986 0.197911 0.171511 0.228878 0.146341 0.175763 0.0510864 -0.2746 0.198329 0.173514 -0.0830837 0.131752 0.190142 -0.221601 0.0920172 0.281022 0.0335392 0.285684 0.0546525 0.0291772 0.149364 -0.147755 0.118272 0.416564 -0.171006 -0.0884965 0.0531389 0.0407732 -0.0544641 0.189213 -0.305075 -0.0111758 0.12375 0.253427 0.0586797 0.0609917 -0.0796998 -0.19526 0.119448 -0.113084 -0.239962 0.264125 -0.13409 -0.133076 0.295645 -0.088016 0.263683 0.093233 -0.0873027 0.135889 -0.163574 0.129479 0.0650537 -0.243658 0.137965 0.267864 0.143802 0.0561151 0.0456215 0.142609
178852084 0.162869 -0.152575 0.0563403 0.214394 -0.201527 -0.28777 0.0246209 0.0175899 0.0188415 0.0586991 0.0797916 0.278713 0.162735 0.0185194 0.182903 -0.146557 0.218023 -0.0364204 0.144688 -0.132504 -0.139728 -0.0467115 -0.036271 0.047821 -0.0140158 0.0553292 0.0309367 -0.102157 -0.17926 0.133345 0.276053 -0.395549 0.0666237 -0.356399 0.195251 0.0973537 0.0485441 0.210877 0.140977 -0.137002 -0.0561196 0.0115373 0.0966301 0.274633 0.0581475 0.32117 0.00272968 -0.318474 0.118038 0.114546 -0.100822 0.168072 0.267898 -0.113738 -0.0249028 0.198055 0.0872108 0.238065 0.134139 0.01706 0.223205 0.00162814 -0.0193036 0.423788 -0.241236 -0.211861 0.222628 0.158169 0.0160052 0.263614 -0.0738108 0.0921944 0.253289 0.284618 0.0751118 0.130179 0.011838 -0.322075 0.246631 -0.12592 -0.273527 0.214363 -0.0972399 -0.176754 0.223356 -0.162489 0.139368 -0.0447636 -0.0606379 0.132172 -0.270122 0.100212 -0.074845 -0.301601 0.142403 0.222959 0.0794265 0.0696224 0.223898 0.0336337
228078044 0.172457 -0.435538 -0.0452623 0.201499 -0.137987 -0.206798 0.0775534 0.0335633 -0.165707 0.160753 0.00414185 0.238988 0.120749 -0.158857 0.151095 -0.2502 0.27801 -0.0610077 0.133398 -0.240173 -0.0631819 -0.0916407 -0.039571 0.232848 0.0788371 0.0309569 0.0222497 -0.0315691 -0.144602 0.116839 0.318728 -0.48528 0.0824647 -0.429263 0.236224 0.0259853 -0.125829 0.0587298 0.186345 -0.197621 -0.0954549 0.203058 0.121822 0.287111 0.14267 0.202525 0.0166916 -0.230031 0.115018 0.0374611 -0.0368982 0.25837 0.311643 -0.06181 0.0068644 0.374552 -0.143008 0.196812 0.181738 0.0286519 0.0468454 -0.2352 0.0640288 0.467533 -0.0897332 -0.273364 0.149585 0.0451283 -0.164091 0.218271 -0.0757055 -0.00754775 0.205812 0.228975 0.109504 0.0391023 0.0382242 -0.254033 0.0892098 -0.248019 -0.189919 0.175678 -0.22836 -0.0968652 0.195902 -0.194788 0.200281 0.00998465 -0.011967 0.145259 -0.197514 0.183214 -0.0328509 -0.183259 0.111147 0.302411 0.309793 0.146416 0.0532399 0.16167
67952576 0.115847 -0.257003 0.0436797 0.325943 -0.137289 -0.1701 0.00716196 0.0968279 -0.0731877 0.143173 0.0898461 0.324671 0.0777668 -0.0556603 0.194286 -0.263211 0.22023 0.0997457 0.0955458 -0.190677 -0.0735018 -0.228115 -0.0668856 0.17697 -0.0144445 0.0955072 -0.128549 -0.184513 -0.204531 0.0925043 0.180859 -0.401107 0.121496 -0.419454 0.132944 0.0622082 -0.0500739 0.187355 0.122687 -0.202128 -0.135591 -0.0513568 -0.00778794 0.231977 0.0474669 0.34887 0.122585 -0.344374 0.123555 0.060854 -0.0573315 0.14834 0.278859 -0.041779 -0.0960533 0.277676 -0.0310472 0.247879 0.20932 0.00657164 0.223442 -0.0696437 -0.131764 0.440537 -0.246554 -0.192038 0.183426 0.041166 -0.0908451 0.184036 0.00838701 0.173743 0.21937 0.403926 0.157154 0.152744 -0.0237525 -0.24896 0.127143 -0.12517 -0.264755 0.162821 -0.19672 -0.153438 0.109407 -0.173005 0.189262 -0.065089 -0.0121404 0.153964 -0.21739 0.055657 -0.0633485 -0.135015 0.0566012 0.185699 0.0944817 0.0982395 0.215077 0.0874392
270105849 0.264169 -0.197788 -0.0737224 0.0841397 -0.136514 -0.164953 0.046425 0.043331 -0.0585527 0.150749 0.0508563 0.245745 0.150488 -0.152702 0.055584 -0.195299 0.222511 -0.01741 0.16462 -0.194484 -0.0534994 -0.126513 -0.0739061 0.0599184 0.0897042 -0.0290725 0.045453 -0.0326516 -0.203707 0.100424 0.375439 -0.42256 0.137654 -0.422266 0.268282 0.194953 -0.0329408 0.258768 0.234014 -0.0218853 -0.135754 0.164042 0.0188762 0.168142 0.156134 0.29526 0.00493579 -0.278667 0.140476 0.20318 -0.0513834 0.106577 0.179296 -0.154786 0.0460647 0.352278 0.0165757 0.298433 0.0690506 0.0542864 0.184951 0.052597 -0.0183312 0.409281 -0.290624 -0.0542317 0.103529 0.0333906 -0.0464249 0.357748 -0.151668 0.175015 0.0496318 0.18967 0.165298 0.1204 0.0220756 -0.229285 0.175735 -0.16193 -0.177111 0.19086 -0.202307 -0.226375 0.273463 -0.098185 0.21783 -0.0048319 -0.0309377 0.156585 -0.191275 0.201355 0.0685329 -0.184128 0.147709 0.162036 0.148489 0.0223081 0.11284 0.172089
21580263 0.269534 -0.231754 -0.115904 0.233098 -0.145816 -0.0825656 0.044736 0.0702194 -0.148283 0.210389 0.0647952 0.34615 0.104755 -0.218397 0.0278864 -0.200223 0.230608 0.00770396 0.229011 -0.0680814 0.107654 -0.154838 -0.131 -0.00638976 0.0688958 0.00665103 -0.0937003 -0.0205037 -0.317988 -0.00365176 0.338864 -0.396832 0.163808 -0.42054 0.207709 0.17462 -0.0747167 0.224235 0.196716 -0.0547386 -0.0914889 0.0632614 -0.0294933 0.0639792 0.0959801 0.423529 0.122493 -0.306747 0.163935 0.209602 -0.0143029 0.0947122 0.156641 -0.0863151 0.108725 0.319857 -0.0318057 0.310866 0.096824 0.0689001 0.167686 0.177154 -0.00832796 0.394075 -0.334456 -5.41168e-05 0.187982 0.00452263 -0.11071 0.355305 -0.0591752 0.350779 0.0045975 0.265812 0.143337 0.184501 -0.0158196 -0.145164 0.179687 -0.0967462 -0.148401 0.0474335 -0.16465 -0.0801602 0.223005 -0.134382 0.19846 -0.04679 0.000468709 0.0122168 -0.0188063 0.211335 0.0741412 -0.146511 0.0546317 0.119144 0.0721294 -0.120267 0.222641 0.206311
148519842 0.143253 -0.173638 -0.0325251 0.209808 -0.165135 -0.214455 0.0639852 0.0622632 -0.0334373 0.0493705 0.120887 0.294383 0.165638 -0.0838997 0.0448902 -0.155223 0.270479 0.0252047 0.21024 -0.180507 0.0428639 -0.150201 -0.149274 0.0546094 -0.0190994 0.017513 -0.0616127 -0.129562 -0.275044 0.0834864 0.168976 -0.356449 0.145955 -0.459719 0.0782834 0.169755 -0.0318686 0.188372 0.212077 -0.148306 -0.0925666 -0.0217733 -0.00775601 0.165003 0.115718 0.334923 0.0988694 -0.449518 0.191744 0.104307 -0.113823 0.0765241 0.171803 -0.165252 -0.0394465 0.25067 -0.0330611 0.310981 0.109993 0.0636652 0.19962 0.0456044 0.0167955 0.454447 -0.260136 -0.0682502 0.132503 0.0759722 -0.00191869 0.248263 -0.0174566 0.14251 0.126813 0.305846 0.158791 0.215694 -0.0619454 -0.212567 0.199982 -0.121371 -0.222534 0.113268 -0.0989953 -0.176623 0.156928 -0.190387 0.255278 0.0371784 -0.0559487 0.096237 -0.147203 0.14011 0.00373594 -0.143147 0.0376433 0.217292 0.00494252 0.0257348 0.252499 0.148508
65471128 0.170138 -0.141373 -0.017684 0.260986 -0.0590979 -0.100788 0.00655028 0.0772351 -0.222979 0.178716 0.0552241 0.329652 0.0617782 -0.130693 0.0917506 -0.16301 0.170856 0.144412 0.123664 -0.188485 -0.0154727 -0.171244 -0.095945 0.023717 -0.0513469 0.0109922 -0.112173 -0.14106 -0.30909 -0.0194468 0.263167 -0.312772 0.178977 -0.591581 0.170187 0.16441 -0.0576657 0.186403 0.0843813 -0.0557712 -0.140843 0.0310373 -0.178684 0.151221 0.127543 0.282866 0.0830109 -0.265258 0.246238 0.166914 -0.0914176 0.138043 0.110215 -0.0882096 -0.00383089 0.424078 -0.0323522 0.231759 0.108814 0.0515467 0.202278 -0.0224958 -0.0890085 0.388439 -0.250986 -0.0060767 0.121132 0.0323073 -0.0563318 0.271276 0.028662 0.141841 0.0588106 0.323829 0.205797 0.12339 -0.0866207 -0.301372 0.20934 -0.111866 -0.0776599 0.152016 -0.220953 -0.153548 0.223587 -0.134714 0.283529 -0.102073 -0.0569327 0.12178 -0.0943591 0.179432 0.107987 -0.112957 0.169209 0.139137 0.125451 -0.0463746 0.207287 0.143067
22423494 0.26684 -0.151033 0.0404715 0.0796349 -0.154848 -0.272681 0.0687957 -0.00774287 -0.183602 0.020156 0.0825444 0.301333 0.208146 -0.196744 -0.0361908 -0.182422 0.329581 -0.0643236 0.290044 -0.184849 0.140229 -0.023883 -0.14176 -0.0620711 -0.0183712 0.0531306 -0.0566275 0.00957798 -0.285965 0.0095795 0.260046 -0.391135 0.0653715 -0.381908 0.156477 0.147673 -0.0135798 0.132416 0.300865 -0.00623768 -0.0552171 0.0383772 0.135251 0.0898356 0.0652386 0.31755 0.0247466 -0.400603 0.255414 0.242851 -0.078485 0.141665 0.110738 -0.183615 0.115611 0.124687 -0.101324 0.341069 0.0940649 0.0187243 0.170773 0.0926604 0.0286526 0.448936 -0.275953 0.00295616 0.183998 0.124277 -0.04514 0.320806 -0.123773 0.14709 0.0244256 0.331118 0.125709 0.143594 -0.0677293 -0.125902 0.281844 -0.0658158 -0.213922 0.0317808 -0.0338385 -0.184424 0.305227 -0.19273 0.292655 0.0929324 -0.169697 0.0241306 -0.0346943 0.19971 0.0679967 -0.24028 -0.00352049 0.209465 0.0168436 -0.0243678 0.213253 0.182304
55010030 0.0180948 0.00998397 0.0509338 0.140775 -0.112887 -0.3438 0.169923 0.0880244 -0.0282664 -0.00811834 0.0331116 0.321862 0.187612 0.0975368 0.0440184 0.0160819 0.159589 -0.00124922 0.131043 -0.250281 0.0396319 -0.11141 -0.0380415 -0.0361416 -0.00551054 0.0189333 -0.026061 -0.133937 -0.339747 0.250697 0.0652272 -0.262433 0.171533 -0.491535 0.134042 0.199807 0.205918 0.185394 0.318891 -0.156801 -0.132826 -0.00543691 -0.0192576 0.311751 0.179902 0.0838699 0.154371 -0.484623 0.327511 0.082071 -0.23632 0.176547 0.273868 -0.362347 0.0498627 0.175275 0.0388794 0.214813 0.0986631 0.00523819 0.289464 -0.150842 0.146015 0.484518 -0.158141 -0.138321 0.0769621 0.262862 0.186413 0.0878189 -0.162129 -0.0937372 0.119426 0.391983 0.133508 0.0850669 -0.158349 -0.331383 0.169411 -0.0635945 -0.281929 0.251326 0.00457089 -0.0665788 0.177988 -0.122852 0.241538 0.133016 -0.176595 0.207968 -0.155501 -0.0368689 0.108492 -0.160069 0.137518 0.298401 -0.114577 0.038323 0.268366 0.15854
54228724 0.0241767 -0.17481 -0.052124 0.205293 -0.0670473 -0.170202 0.128467 0.029911 -0.0526127 0.0236957 -0.00851052 0.242224 0.0525088 -0.0565978 0.0514581 -0.233378 0.203289 0.00945759 0.135599 -0.26797 0.00197003 -0.220492 -0.023632 0.227031 0.0203641 -0.00542095 -0.076523 -0.179196 -0.187437 0.167274 0.168888 -0.34721 0.203431 -0.482885 0.197951 0.0831204 0.0616668 0.169073 0.32679 -0.184618 -0.210563 0.0500009 -0.0924773 0.260755 0.239861 0.0401796 0.143956 -0.316934 0.16124 0.175615 -0.121029 0.150605 0.245516 -0.192079 -0.0160134 0.403735 -0.0380857 0.171964 0.17911 0.135201 0.228274 -0.166674 -0.0523085 0.495015 -0.184868 -0.127413 -0.057222 -0.00386341 -0.0313052 0.111417 -0.148068 -0.146154 0.151469 0.267512 0.166065 0.0713744 -0.0586799 -0.23027 0.144342 -0.17487 -0.106881 0.263334 -0.288157 -0.152852 0.148998 -0.0954512 0.219384 0.106719 -0.0891026 0.206304 -0.106678 0.180896 0.089934 -0.0758908 0.157257 0.246302 0.0865642 0.128069 0.0142095 0.140172
44473103 0.227455 -0.204981 0.0231139 0.116527 -0.148397 -0.279937 0.158873 0.112633 -0.0887624 0.051546 0.0956495 0.250506 0.196133 -0.100171 -0.00938407 -0.151063 0.326567 -0.0588574 0.189301 -0.203253 0.0627778 -0.109574 -0.0939349 0.0144937 0.0420592 0.0060808 -0.0617884 -0.0449558 -0.309309 0.0824059 0.200413 -0.365847 0.0948314 -0.420116 0.230072 0.112832 0.0336078 0.0903644 0.284353 -0.129941 -0.101279 0.0406484 0.0997712 0.203826 0.142535 0.329774 0.0817164 -0.422814 0.202649 0.160689 -0.111707 0.152437 0.175015 -0.271862 0.0295618 0.291215 -0.0869182 0.283908 0.0409067 0.036919 0.176224 -0.0248985 0.127827 0.438854 -0.12788 -0.0455074 0.0733143 0.0907919 -0.0585172 0.155393 -0.201418 0.00917853 0.18023 0.283154 0.129971 0.155281 -0.113292 -0.170306 0.18537 -0.135646 -0.25541 0.12004 -0.0834798 -0.0427683 0.26127 -0.212963 0.268216 0.162006 -0.102253 -0.00320115 -0.0225443 0.202703 0.0735313 -0.246053 0.0386521 0.310131 0.0546183 0.0773684 0.233232 0.171305
41859867 0.258897 -0.145277 0.0263972 0.196243 -0.134848 -0.248846 0.0515595 0.0582596 0.00378906 0.0973179 0.138169 0.232728 0.11053 -0.0806705 0.0539368 -0.198446 0.202309 -0.0140458 0.17505 -0.116394 -0.0387968 -0.143338 -0.0658446 -0.0330396 -0.0211703 0.0328456 -0.0219405 -0.135584 -0.282049 -0.00811608 0.277433 -0.345786 0.154078 -0.433252 0.183591 0.134993 0.0328161 0.155483 0.0720973 -0.0400403 -0.141364 -0.0403564 -0.0499055 0.18805 0.0562182 0.416885 0.0486623 -0.33212 0.122902 0.171218 -0.0899555 0.111829 0.208237 -0.146601 -0.0142665 0.317016 -0.016342 0.297764 0.0658122 -0.00541911 0.170614 0.105354 -0.0703937 0.361829 -0.224742 -0.0191822 0.144527 0.103802 -0.00771409 0.252119 -0.0521873 0.181171 0.142969 0.266151 0.154498 0.169164 -0.0136047 -0.284636 0.259721 -0.144836 -0.200028 0.126875 -0.114306 -0.139884 0.231882 -0.189691 0.254618 -0.0404836 -0.0335482 0.0213686 -0.0905087 0.169214 0.051586 -0.291011 0.15184 0.189402 0.0855889 0.0493347 0.298547 0.0856447
46568504 0.203266 -0.0391303 0.0943275 0.13004 -0.0755283 -0.181061 0.0857574 0.0257868 -0.310044 0.0726073 -0.0284408 0.360734 0.126239 -0.149349 0.030701 -0.179956 0.261721 0.0479007 0.201299 -0.256049 0.127524 -0.091988 -0.0593932 -0.00371626 0.018692 0.0671737 -0.176665 0.0143196 -0.343356 0.0684833 0.230644 -0.357185 0.0658498 -0.41201 0.288818 0.122378 0.0487761 0.199515 0.393488 -0.0218082 -0.146019 0.0676007 0.0872152 0.123978 0.10507 0.229113 0.0804609 -0.354924 0.325412 0.374914 -0.0659385 0.206865 0.06806 -0.216469 0.161092 0.222735 0.00571198 0.236025 0.104052 0.0546546 0.273684 -0.0142715 0.00116217 0.470492 -0.274872 0.020011 0.105035 0.059506 -0.0821925 0.297335 -0.262142 0.0124422 0.0462743 0.384629 0.128526 0.0509768 -0.173275 -0.119168 0.282297 -0.0402521 -0.142344 0.133538 -0.152339 -0.163091 0.362463 -0.118926 0.262224 0.110519 -0.233452 0.10202 0.045457 0.234772 0.141814 -0.172843 0.0322437 0.233027 0.0140639 -0.0433267 0.135532 0.214286
19052363 0.20121 -0.134622 -0.0626211 0.123596 -0.0873203 -0.131227 0.0649471 0.0217242 -0.157517 0.187013 0.0701488 0.307501 0.126601 -0.182968 0.0418176 -0.182347 0.242161 -0.0886671 0.161702 -0.14707 0.0954443 -0.0638434 -0.138074 -0.0652759 0.0159055 0.0916992 0.0588243 0.0281435 -0.278359 0.0721161 0.369548 -0.477359 0.041625 -0.419835 0.332281 0.13276 0.0267555 0.385354 0.212274 -0.0373118 -0.122144 0.0540292 0.167878 0.147707 0.0490501 0.3969 0.0290577 -0.279811 0.224252 0.262456 -0.00108492 0.121817 0.166962 -0.12261 0.176823 0.265105 0.0857684 0.287907 0.0572145 -0.009304 0.175134 0.134143 0.0319087 0.39927 -0.332056 0.0682615 0.24245 -0.0229445 -0.0899985 0.399023 -0.21941 0.151047 0.0864837 0.233882 0.0132951 0.108062 -0.128783 -0.136396 0.308816 -0.0823039 -0.0938368 0.0800937 -0.20531 -0.20736 0.379911 -0.0356505 0.218133 -0.0413146 -0.174116 0.0201199 -0.0117175 0.263167 0.0498777 -0.327642 0.116985 0.152466 0.0858819 -0.117241 0.136086 0.227975
319086368 0.286353 -0.202327 -0.102323 0.0429013 -0.102011 -0.210702 0.128508 0.11583 -0.0914819 0.114638 0.0561201 0.266895 0.237972 -0.174055 0.0431987 -0.206992 0.215715 -0.055245 0.126753 -0.155024 0.0865322 -0.194656 -0.147822 -0.0292986 0.00651336 -0.0113385 0.0230526 -0.00487017 -0.229289 0.0502212 0.353774 -0.433533 0.0643803 -0.502863 0.300286 0.123266 0.0132551 0.168547 0.244771 -0.0698684 -0.173313 0.141522 0.0078104 0.163928 0.0740276 0.286109 0.084431 -0.280261 0.186446 0.183402 -0.0458179 0.0821893 0.174112 -0.208322 0.155438 0.374417 -0.00126221 0.361818 0.0378365 0.0132314 0.0865218 -0.00417206 0.0269793 0.283818 -0.254203 -0.00269256 0.108779 0.0245212 -0.050968 0.230302 -0.224934 0.160302 0.0296814 0.22958 0.131923 0.109748 -0.0708433 -0.205422 0.18966 -0.1305 -0.187397 0.16479 -0.145721 -0.150255 0.319966 -0.0544172 0.353417 0.00863791 -0.0516724 0.0298833 -0.0359509 0.157475 0.161445 -0.295195 0.156486 0.166517 0.155732 -0.0561575 0.162437 0.146665
55574961 0.31619 -0.14614 -0.0682177 0.0709859 -0.203055 -0.127757 0.0887222 0.0579349 -0.105039 0.0921147 0.142702 0.311411 0.224281 -0.212317 0.0382196 -0.141024 0.322084 -0.0326793 0.249031 -0.164754 0.149369 -0.0923596 -0.234757 -0.144478 0.017987 0.0201351 -0.0231638 0.0743048 -0.348306 0.110244 0.312417 -0.396105 0.0272866 -0.389071 0.232481 0.260235 -0.086518 0.300361 0.292062 -0.00958724 -0.0926822 0.12536 0.164536 0.0287665 0.0423831 0.464363 0.0424993 -0.390363 0.232979 0.236784 -0.0530234 -0.00144119 0.0436513 -0.211461 0.0947387 0.227192 0.0542133 0.449581 0.00328104 0.0240969 0.144601 0.197879 0.075749 0.351416 -0.369317 0.117442 0.193073 -0.00576079 -0.0567702 0.369529 -0.206301 0.320143 -0.00426255 0.238325 0.0293418 0.215335 -0.0894766 -0.10491 0.190937 -0.0968948 -0.221625 0.0743961 -0.108424 -0.189758 0.358618 -0.0832609 0.253815 0.0254533 -0.0489593 -0.0262578 -0.0172485 0.249011 0.0444657 -0.244113 0.0267559 0.193815 -0.0155636 -0.199603 0.228732 0.209684
214454450 0.244493 -0.218349 -0.0106387 0.153283 -0.119922 -0.279328 0.169274 0.151423 -0.186552 0.0146078 -0.0377381 0.315047 0.243333 -0.0914439 0.0410338 -0.132769 0.303576 0.0664698 0.210743 -0.178856 0.058465 -0.0840431 -0.123099 0.00302307 0.0213539 -0.0636265 -0.147011 0.0183293 -0.352383 0.0572091 0.228039 -0.370665 0.0707624 -0.405479 0.225723 0.0563586 -0.00146142 -0.0080076 0.33858 -0.174982 -0.0664104 0.0901965 0.0626078 0.205935 0.155622 0.25701 0.0884213 -0.483844 0.242992 0.190059 -0.0831992 0.147269 0.0850135 -0.223409 0.116837 0.255906 -0.0074323 0.227682 -0.00179491 0.0955929 0.167318 -0.0505204 0.183293 0.434762 -0.161262 -0.0941459 0.0698455 0.101644 -0.0696675 0.181573 -0.240274 -0.0500741 0.144884 0.319235 0.0960063 0.134956 -0.14294 -0.101901 0.238983 -0.109912 -0.197464 0.127413 -0.0411111 0.00933421 0.257013 -0.19693 0.311222 0.13379 -0.107773 0.00389508 0.00472622 0.191901 0.138198 -0.19735 -0.0428411 0.326524 0.0297448 0.0337393 0.219511 0.178252
509841882 0.337113 -0.174967 0.0570096 0.0972386 -0.158723 -0.290876 0.100493 0.0367335 -0.102254 0.0630168 0.124916 0.224307 0.185842 -0.141829 0.0733338 -0.222752 0.270248 -0.0627589 0.223217 -0.140454 0.056412 -0.0278317 -0.101747 -0.0181556 0.00978311 0.0841436 0.0260533 0.00533045 -0.240882 -0.0111609 0.30616 -0.466363 -0.00869431 -0.312091 0.29408 0.0835225 -0.00713246 0.134214 0.22644 -0.056116 -0.0895928 0.00498941 0.22109 0.174605 0.00321805 0.411352 -0.0376768 -0.331272 0.166768 0.256469 -0.0278665 0.133504 0.117673 -0.147674 0.0787493 0.20081 -0.00254035 0.330743 0.0817321 -0.0105278 0.116515 0.109709 0.0337787 0.366503 -0.244581 -0.0424888 0.227147 0.0808627 -0.118308 0.305688 -0.179067 0.105798 0.169525 0.262719 0.0500825 0.157399 -0.0862779 -0.140973 0.303659 -0.133481 -0.220161 0.0517992 -0.0707723 -0.143073 0.359985 -0.130676 0.268155 0.0245631 -0.116097 -0.0722182 -0.0425544 0.262765 0.0211247 -0.389113 0.0433272 0.231501 0.0883796 -0.026709 0.208197 0.118837
520977070 0.154185 -0.296074 -0.0850485 0.177949 -0.205716 -0.236121 0.0850598 -0.00658308 -0.0217945 0.0493071 0.0144377 0.267895 0.17627 -0.0924321 0.174291 -0.267658 0.254063 -0.0727318 0.185013 -0.100221 -0.0675699 -0.0797486 -0.133096 0.118687 -0.0587831 0.0385835 0.0453361 -0.00673552 -0.119942 0.169351 0.363573 -0.554317 0.0155864 -0.376438 0.282048 0.0668588 -0.0387066 0.213809 0.217196 -0.16129 -0.0557659 0.156946 0.168855 0.28482 0.0706108 0.271235 -0.00707398 -0.288748 0.0833694 0.0863818 -0.0163934 0.100095 0.264161 -0.103188 0.0419898 0.267111 0.0580452 0.294506 0.147753 0.0813143 0.107137 -0.0401116 0.00303339 0.42959 -0.284151 -0.165835 0.200814 0.0127197 -0.108993 0.240781 -0.127279 0.0128249 0.233268 0.164995 0.0601719 0.15889 0.0215513 -0.220572 0.241568 -0.167889 -0.203049 0.204306 -0.206797 -0.202507 0.236762 -0.0828197 0.253098 -0.0394993 -0.0469844 0.109952 -0.203159 0.208626 -0.0116962 -0.296023 0.133294 0.236282 0.166647 0.0150196 0.0641192 0.0966777
254624374 0.293314 -0.163919 0.120441 0.163175 -0.334401 -0.236375 0.0456129 0.0309005 0.0229683 0.00218426 0.0788867 0.27616 0.210151 -0.00857625 0.297241 -0.200416 0.316376 -0.027455 0.161271 -0.120141 -0.1678 -0.06609 -0.105714 0.0611097 0.0556618 0.0476108 -0.0499603 0.0248028 -0.180619 0.254981 0.319879 -0.468178 -0.0694792 -0.193052 0.388047 0.10809 0.0127251 0.279659 0.270545 -0.0858035 -0.0798448 0.159162 0.297383 0.228706 -0.00803199 0.459376 -0.0561693 -0.337094 0.082632 0.20458 -0.0484934 0.0818881 0.156757 -0.197451 -0.0224354 0.171772 0.182205 0.29368 0.0673362 0.0451877 0.276265 0.0821842 -0.0221978 0.376385 -0.346532 -0.154604 0.209243 0.0419008 -0.0885243 0.237712 -0.27636 0.1365 0.315099 0.219225 0.0140347 0.177479 0.0211955 -0.165924 0.176328 -0.140384 -0.410438 0.238828 -0.210602 -0.232968 0.337315 -0.0909638 0.0727265 0.0565131 -0.0577207 0.102997 -0.237512 0.198107 -0.0940239 -0.306181 0.0334256 0.257593 0.0188699 0.0155481 0.167271 0.0185819
231527792 0.339147 -0.239362 0.0208676 0.0821106 -0.204525 -0.209448 0.10248 0.0933856 -0.140354 0.0548372 0.0956327 0.220337 0.206274 -0.153061 0.143962 -0.224854 0.343749 0.0333598 0.16363 -0.242784 -0.0411258 -0.134492 -0.149374 -0.00522817 0.018285 -0.00662633 -0.0392777 0.0489015 -0.220025 0.11153 0.282799 -0.407203 -0.0157605 -0.351419 0.229878 0.172055 -0.109709 0.11988 0.277315 -0.0718233 -0.101056 0.144812 0.211789 0.135782 0.039698 0.408362 -0.0152424 -0.313709 0.132426 0.24409 -0.0409249 0.0635898 0.0680692 -0.181656 -0.00994274 0.258229 0.0037905 0.362067 0.0508238 0.0249937 0.098423 -0.00147458 0.0465435 0.368449 -0.216768 -0.0407677 0.115309 0.0281735 -0.122713 0.301907 -0.187046 0.168705 0.135428 0.25185 0.0603573 0.181319 -0.0308274 -0.168436 0.132506 -0.145291 -0.270387 0.189593 -0.0940479 -0.140256 0.285725 -0.178864 0.254055 0.0667229 0.0182846 0.025415 -0.13262 0.236984 -0.0170567 -0.26777 0.060785 0.299837 0.119989 -0.00149553 0.158703 0.114272
118857505 0.254324 -0.162959 0.0871686 0.197063 -0.103088 -0.266284 0.0686035 0.0493481 -0.273604 0.082873 -0.0708481 0.371128 0.210915 -0.132152 0.101953 -0.157814 0.189701 0.056276 0.197973 -0.168702 0.110532 -0.027876 -0.0186846 0.0721499 0.0553181 0.0266721 -0.166408 0.00492201 -0.308848 0.0221985 0.261775 -0.38553 0.0584406 -0.387885 0.277887 0.0237251 -0.00588427 0.00905682 0.320074 -0.107452 -0.101606 0.128664 0.0178153 0.196662 0.081499 0.154852 0.0688874 -0.359291 0.29538 0.201251 -0.0593202 0.266346 0.14721 -0.125634 0.181284 0.230661 -0.0563788 0.218269 0.143739 0.0300271 0.187708 -0.101042 0.0465403 0.3931 -0.231498 -0.201477 0.204813 0.167279 -0.0786373 0.215869 -0.169399 0.0317678 0.0396762 0.396684 0.156658 0.0102581 -0.0979262 -0.160611 0.242826 -0.098708 -0.199178 0.0847471 -0.077316 -0.102404 0.328836 -0.11403 0.279551 0.0175497 -0.162551 0.0894301 -0.011537 0.120635 0.183275 -0.156541 -0.00759108 0.202866 0.0886899 -0.0264717 0.187093 0.158846
39938620 0.116109 -0.0775725 -0.00466139 0.312154 -0.0836729 -0.148688 0.145588 0.106214 -0.182475 0.0344223 -0.0785131 0.381077 0.0974265 -0.050486 0.0636386 -0.193307 0.145736 0.153502 0.179702 -0.181849 0.144676 -0.233546 -0.0380638 0.133844 0.040199 -0.0100553 -0.297136 -0.13914 -0.359246 0.0588676 0.109117 -0.30627 0.21355 -0.445697 0.227859 0.0647611 0.0928235 0.0980502 0.390854 -0.197906 -0.207867 -0.0505794 -0.144892 0.180349 0.181332 0.120176 0.241963 -0.441803 0.25999 0.306747 -0.0954413 0.155032 0.105778 -0.167059 0.112047 0.334098 0.0325256 0.174966 0.133597 0.153929 0.313797 -0.0256743 -0.00657921 0.468772 -0.290222 -0.0820735 -0.00443702 0.0292297 -0.0499213 0.140021 -0.203417 -0.0491349 0.0967848 0.428415 0.17495 0.102495 -0.174184 -0.103167 0.220923 -0.0602069 -0.108862 0.170767 -0.195765 -0.0293082 0.189536 -0.084802 0.244693 0.105322 -0.125145 0.0946173 0.0795018 0.159997 0.193404 -0.0456441 0.0187331 0.225399 -0.078643 -0.0276906 0.1596 0.167195
38709939 -0.00968932 -0.00237283 0.119283 0.335276 -0.0975203 -0.163939 0.0499443 -0.0324168 -0.118463 0.0285725 0.0716896 0.320885 -0.0529037 -0.0381762 0.00380775 -0.180161 0.260456 0.0371323 0.21035 -0.264058 0.0479174 -0.144452 -0.0130399 0.0562397 -0.0208304 0.118073 -0.183576 -0.214216 -0.346786 0.169654 0.0584639 -0.248272 0.239949 -0.413458 0.104811 0.198676 0.115633 0.321317 0.260211 -0.0698297 -0.175983 -0.122726 -0.0271375 0.182057 0.149711 0.239147 0.143151 -0.406235 0.254918 0.290059 -0.149189 0.153619 0.211196 -0.168942 -0.0577616 0.188976 -0.0248428 0.188847 0.197697 0.0621239 0.384367 0.0616629 -0.118741 0.608623 -0.277087 0.0253684 0.0657074 0.0763604 0.0278102 0.235759 -0.0429809 0.0111845 0.117901 0.410355 0.146994 0.144378 -0.116552 -0.202336 0.244834 -0.0593008 -0.152592 0.131398 -0.196196 -0.209366 0.176965 -0.169474 0.133388 0.0793791 -0.202411 0.190441 -0.0598628 0.190299 0.0217744 -0.0597837 0.087262 0.236919 -0.143869 0.0780542 0.168546 0.18802
251983364 0.293301 -0.120004 0.0270266 0.0763463 -0.146257 -0.262451 0.0960332 -0.0337736 -0.10603 0.0608912 0.109739 0.238485 0.163051 -0.135827 0.100976 -0.209074 0.173571 0.0541504 0.261106 -0.202265 0.115443 -0.0246044 -0.116065 -0.0298308 -0.0598179 0.070707 0.0223182 0.0185578 -0.299226 0.0633577 0.297476 -0.489151 -0.0110052 -0.407903 0.233195 0.22553 -0.0968326 0.154882 0.274288 -0.0379488 -0.111871 0.123986 0.125981 0.183073 0.0291361 0.263577 -0.0474079 -0.36674 0.242627 0.176849 -0.052682 0.0956467 0.102506 -0.197756 0.0425496 0.240841 -0.000883043 0.41336 0.154426 -0.00192463 0.0495625 -0.0142754 -0.00254563 0.353842 -0.315811 -0.0591437 0.236421 0.106839 -0.0415731 0.328509 -0.0942943 0.110841 0.0165028 0.277154 0.0866365 0.148121 -0.0970283 -0.266358 0.255351 -0.17853 -0.172439 0.128161 -0.0752547 -0.235601 0.370231 -0.0473574 0.388413 -0.0841223 -0.0553213 0.0506472 -0.103265 0.228872 0.0940803 -0.28967 0.094086 0.224258 0.0983362 -0.147539 0.190607 0.177936
41384205 0.0855361 -0.264004 -0.0797057 0.0920818 -0.0742881 -0.159931 0.0962383 -0.0542964 -0.0979076 0.13175 0.116983 0.21746 0.0241346 -0.217993 -0.0470792 -0.282252 0.247553 -0.12866 0.224603 -0.220755 0.114928 -0.156653 -0.0809397 0.128072 -0.0158422 0.0972657 0.0302561 -0.103942 -0.194669 0.0793202 0.280822 -0.448926 0.149966 -0.484443 0.191141 0.154476 -0.0317317 0.220217 0.234818 -0.0439581 -0.143023 0.10244 0.0114097 0.175564 0.165313 0.181335 0.0747836 -0.254995 0.17183 0.0889738 -0.069575 0.166024 0.306516 -0.200615 0.0145462 0.344961 -0.21536 0.299206 0.204819 0.0353216 0.095954 -0.106867 -0.0883943 0.470638 -0.192438 -0.0144911 0.0863306 -0.0136103 -0.0944752 0.186528 -0.0542713 0.0379042 0.0580975 0.208095 0.191946 0.102281 -0.0206464 -0.247292 0.136201 -0.183261 -0.119498 0.116454 -0.279974 -0.179048 0.211632 -0.129677 0.300366 0.0590988 -0.0886352 0.116445 -0.0688758 0.232358 0.0541156 -0.172516 0.15758 0.18628 0.193055 0.0535549 0.0484632 0.228478
15150609 0.0373124 -0.136484 -0.1425 0.326147 -0.0917626 -0.0677246 0.147903 -0.0188706 -0.0106041 0.126992 0.120952 0.222586 -0.138048 -0.145635 -0.0154909 -0.405583 0.104727 0.0684804 0.276507 -0.162929 0.167074 -0.370373 -0.046742 0.221267 -0.0118058 0.088472 -0.193851 -0.256178 -0.312122 0.0562462 0.135236 -0.416217 0.313887 -0.441881 0.16693 0.261544 0.0211447 0.293426 0.333957 -0.0958172 -0.251966 -0.0947009 -0.179639 0.165228 0.203613 0.223936 0.233251 -0.379701 0.103344 0.266221 -0.0490158 0.0250129 0.24783 -0.166166 -0.0721025 0.408589 -0.126696 0.349739 0.270043 0.137573 0.230411 0.0605288 -0.250295 0.541116 -0.372431 0.0492896 -0.0130716 -0.0988656 -0.115063 0.183027 -0.00240533 0.0892554 0.0497176 0.303663 0.265092 0.26433 -0.0722098 -0.178988 0.127352 -0.132323 -0.0669041 0.148647 -0.346429 -0.103159 0.0797603 -0.0587474 0.297452 0.0508828 0.0335219 0.100136 0.0275902 0.271094 0.0997492 -0.0563779 0.150059 0.165829 -0.052815 -0.0426305 0.0813775 0.234329
321131786 0.214097 -0.149564 -0.0233744 0.319637 -0.21145 -0.104939 0.086166 0.0203209 -0.0263835 0.123535 -0.00188127 0.291828 0.0171638 -0.0448888 0.245222 -0.317368 0.111655 0.0817263 0.182225 -0.066505 -0.0449918 -0.234208 -0.0251306 0.178862 0.0883017 0.0500777 -0.171047 -0.073821 -0.245388 0.137043 0.299589 -0.472733 0.107156 -0.23245 0.369875 0.126603 0.0276022 0.27506 0.298982 -0.1152 -0.174581 0.0581261 0.0423421 0.215774 0.0663145 0.353723 0.103009 -0.305353 0.0501603 0.290472 0.0158041 0.0901799 0.208333 -0.106074 0.0333641 0.307141 0.138992 0.246815 0.168083 0.113404 0.270565 0.0973035 -0.154712 0.416832 -0.409593 -0.135408 0.138565 -0.0418907 -0.141222 0.25165 -0.197233 0.153427 0.200599 0.270024 0.096747 0.167903 0.00342214 -0.141969 0.166236 -0.123475 -0.211247 0.214378 -0.313968 -0.101611 0.210689 -0.0181502 0.10357 -0.0115037 0.018756 0.101888 -0.0864945 0.220762 0.0250892 -0.182609 0.0777683 0.179156 0.00151102 -0.0627857 0.103783 0.10464
231184159 0.235931 -0.213769 0.0727862 0.33386 -0.159329 -0.225282 0.025969 0.0158163 -0.275427 0.125438 -0.150378 0.421761 0.0822875 -0.050909 0.215906 -0.200529 0.107894 0.178671 0.294855 -0.0110792 0.0333788 -0.061763 0.0162029 0.179344 0.0731825 0.0196297 -0.311679 0.00101283 -0.38419 -0.0159172 0.30628 -0.435636 0.0941441 -0.21075 0.290089 0.0156175 -0.031922 -0.0155494 0.294402 -0.0717013 -0.0233156 0.134805 -0.0339663 0.209164 0.120201 0.227722 0.0548121 -0.465988 0.215531 0.147731 0.0217284 0.283458 0.179815 -0.0736222 0.164709 0.123201 -0.00878251 0.0734873 0.136529 0.0883245 0.278867 -0.0552965 -0.0349719 0.461681 -0.315114 -0.274793 0.227428 0.143047 -0.141109 0.240963 -0.0885176 0.0624623 0.118407 0.404721 0.202141 0.0753396 -0.0112413 -0.0854082 0.255516 -0.094102 -0.202837 0.0787836 -0.154528 0.0126928 0.184067 -0.173072 0.166119 0.0498513 -0.136711 0.172105 -0.0532733 0.114764 0.0850427 -0.0382536 -0.167732 0.233177 -0.00181204 0.0391179 0.240241 0.172481
467077308 0.140338 -0.209499 -0.0842418 0.307053 -0.17155 -0.11833 0.140273 0.00234401 -0.0407698 0.128413 0.130345 0.261118 -0.0491133 -0.152444 0.080479 -0.310348 0.171662 0.0336598 0.308443 -0.143901 0.189554 -0.256193 -0.098498 0.120859 0.0598593 0.10588 -0.15101 -0.1333 -0.378974 0.126773 0.169525 -0.421859 0.19454 -0.300169 0.16368 0.259959 -0.0430484 0.255443 0.332023 -0.0839783 -0.186619 0.0201058 0.0200963 0.141301 0.097396 0.330931 0.161414 -0.433098 0.141298 0.205678 -0.0306315 0.0471344 0.252102 -0.144961 -0.00990608 0.235552 -0.0836566 0.376583 0.213234 0.0417141 0.167089 0.0897111 -0.112485 0.494221 -0.364683 -0.0186891 0.140663 -0.0119878 -0.0990857 0.239579 -0.0482282 0.228593 0.0287717 0.33271 0.126321 0.249032 -0.0512837 -0.110683 0.0741632 -0.141963 -0.207966 0.066152 -0.226516 -0.0481631 0.15053 -0.0768475 0.210547 0.0458824 0.0366642 0.0501518 0.00643614 0.21839 0.0103052 -0.0943251 0.0117081 0.227574 -0.107068 -0.0928145 0.164726 0.250989
57730647 0.128191 -0.194847 0.112679 0.130832 -0.0721789 -0.163468 0.0392401 -0.123417 -0.185234 0.0946304 0.143332 0.209011 -0.107628 -0.231606 -0.0472331 -0.314857 0.238143 -0.00159485 0.325756 -0.28922 0.15818 -0.186316 0.00810334 0.143006 -0.00195142 0.124994 -0.176627 -0.157917 -0.337454 0.0327933 0.185226 -0.311166 0.19696 -0.404681 0.103565 0.225316 -0.0872884 0.0912309 0.277687 0.110013 -0.185095 0.118188 -0.111763 0.0799731 0.162457 0.158055 0.0673095 -0.321229 0.220691 0.143081 -0.0952504 0.228096 0.260049 -0.24038 -0.0844402 0.276809 -0.358667 0.281235 0.250145 0.00890278 0.155527 -0.155992 -0.254384 0.493822 -0.169442 0.0115754 0.0180906 0.0547504 -0.0848423 0.155628 0.0331575 0.0930042 -0.0502268 0.332576 0.301379 0.0701983 0.0145982 -0.248914 0.0630982 -0.199178 -0.170503 0.0776329 -0.285709 -0.170875 0.189553 -0.236042 0.289581 0.13391 -0.0839495 0.186633 -0.00576919 0.230255 0.066976 0.00140308 0.0413003 0.23344 0.106369 0.129285 0.132264 0.242335
142875215 0.206038 -0.236491 -0.0513361 0.141297 -0.14881 -0.259989 0.0668694 0.118323 -0.0796883 0.115603 0.0821558 0.317545 0.220479 -0.137728 -0.0124163 -0.177639 0.280633 -0.0679448 0.155282 -0.0887838 -0.0140346 -0.102062 -0.108339 -0.0576017 -0.0460094 0.0168727 -0.0125994 -0.0808738 -0.204491 0.0364679 0.312935 -0.405201 0.137913 -0.45615 0.207051 0.128386 0.0614951 0.181809 0.142712 -0.0543574 -0.0502283 0.0226165 0.0161271 0.195246 0.114984 0.324855 0.079368 -0.310912 0.16907 0.0928999 -0.0903008 0.107354 0.237853 -0.148729 0.0670737 0.22463 -0.0943786 0.338917 0.0826709 0.000396279 0.21011 0.0644494 -0.00875292 0.418018 -0.260714 -0.0436973 0.176001 0.12559 -0.0394006 0.175447 -0.0630538 0.188628 0.096037 0.313696 0.199772 0.201347 -0.0150859 -0.235493 0.196352 -0.0442244 -0.27253 0.113412 -0.062298 -0.0827802 0.217174 -0.151447 0.287166 -0.00226735 -0.0731748 0.0480554 -0.16872 0.0678185 0.0834794 -0.269645 0.138937 0.125416 0.0555221 0.026196 0.226829 0.108417
19795386 -0.00394475 -0.331934 -0.186386 0.356705 -0.0826443 -0.15187 0.147358 0.0715864 -0.0534724 0.128742 0.080277 0.257988 -0.0239884 -0.142542 -0.0585735 -0.27063 0.247478 -0.0880667 0.185824 -0.10497 0.0727458 -0.255876 -0.108765 0.180195 -0.0159485 0.0400051 -0.0294297 -0.257626 -0.218984 0.0476207 0.175018 -0.409373 0.331039 -0.557761 0.145654 0.0907267 0.0600918 0.207397 0.120711 -0.189429 -0.15511 -0.101112 -0.107483 0.260072 0.22825 0.243822 0.197943 -0.302735 0.117591 0.0927397 -0.0892328 0.114083 0.326865 -0.081543 -0.0172258 0.427438 -0.164777 0.20694 0.18042 0.11019 0.183584 0.034998 -0.0156638 0.563247 -0.182585 -0.00758308 0.0326592 -0.0422517 -0.104963 0.127829 0.057947 -0.016 0.191139 0.232226 0.203931 0.233644 -0.0392433 -0.189043 0.1885 -0.146367 -0.0646206 0.0766808 -0.279476 -0.0130945 0.0426598 -0.169481 0.234885 0.0508311 -0.0738232 0.0482901 -0.0337307 0.236758 0.0602341 -0.118937 0.177731 0.208168 0.0570796 0.106253 0.103583 0.197072
2367911 -0.0223544 -0.182628 -0.022732 0.146111 -0.102395 -0.20853 0.148457 0.108875 -0.0736442 0.0199154 0.0545464 0.309278 0.0975559 -0.0538653 0.0310242 -0.246988 0.296335 -0.046273 0.108691 -0.190781 0.0251949 -0.277691 -0.106183 0.063519 -0.108747 0.0863084 -0.138544 -0.146786 -0.209604 0.20961 0.162375 -0.374023 0.110187 -0.440172 0.236607 0.102914 0.159893 0.256026 0.302212 -0.104364 -0.159983 0.0143274 0.0208788 0.240192 0.162029 0.174776 0.185091 -0.351496 0.191602 0.0926582 -0.114793 0.0840012 0.298601 -0.288938 0.0146201 0.217815 -0.0805333 0.270742 0.127792 0.0312545 0.285381 -0.136597 -0.102494 0.480873 -0.225916 0.0190379 -0.00585372 -0.00440381 -0.0468289 -0.0396436 -0.19676 -0.049806 0.179751 0.354208 0.173281 0.170645 -0.105117 -0.177122 0.0981108 -0.0343278 -0.272313 0.228284 -0.241972 -0.0775035 0.155483 -0.0944254 0.277367 0.179412 -0.148259 0.150356 -0.0953383 0.0637759 0.0603069 -0.180381 0.116443 0.220849 -0.0483826 0.118735 0.0901422 0.120228
40372798 0.249971 -0.0432946 0.202464 0.184561 -0.34233 -0.210276 0.0571778 -0.0235159 0.000262292 -0.0584889 0.0763942 0.31004 0.171184 0.0226953 0.296101 -0.157446 0.300012 0.0208222 0.198943 -0.15259 -0.0837621 -0.0441987 -0.089866 0.0302988 0.0366221 0.0738177 -0.162424 0.0277465 -0.275181 0.299381 0.239211 -0.396811 -0.0951751 -0.144713 0.385858 0.158714 0.0444254 0.29571 0.358555 -0.0479358 -0.099449 0.153219 0.285497 0.190572 -0.00879225 0.398339 -0.0324815 -0.409046 0.162184 0.248944 -0.0767341 0.0845115 0.0963605 -0.255278 -0.0339378 0.118865 0.201635 0.294727 0.084401 0.0647218 0.336562 0.0723568 -0.0508828 0.388874 -0.386709 -0.1082 0.187187 0.0500497 -0.0556763 0.195625 -0.315403 0.0823011 0.26972 0.280987 -0.0128247 0.152108 -0.0370326 -0.134062 0.172312 -0.11918 -0.410186 0.234372 -0.226282 -0.25169 0.379288 -0.0451112 0.0440887 0.108674 -0.114454 0.115631 -0.162083 0.218323 -0.0586443 -0.233122 -0.0231948 0.282339 -0.11579 -0.0490302 0.164359 0.03383
47833138 0.0771318 -0.134274 -0.10681 0.363615 -0.131536 -0.187977 0.171469 0.0274897 0.131051 0.127518 0.150603 0.161229 -0.0436544 -0.0350089 -0.0159822 -0.259827 0.0567099 0.0148104 0.214194 -0.170796 0.0684822 -0.283418 0.0538683 0.219648 0.0612312 0.00447332 -0.110961 -0.308082 -0.321455 0.0732676 0.096672 -0.317809 0.370056 -0.501205 0.104106 0.240786 0.0779508 0.148458 0.24856 -0.202627 -0.225377 -0.100038 -0.280022 0.262458 0.244586 0.166459 0.235691 -0.379283 0.0691882 0.150532 -0.152048 0.106186 0.344666 -0.189744 -0.125201 0.507119 -0.132904 0.303629 0.249772 0.114031 0.203499 -0.0304217 -0.105848 0.490963 -0.202921 -0.153628 -0.00461888 0.0875627 0.012507 0.108258 0.0322365 0.0355828 0.123935 0.290267 0.280712 0.199821 -0.0221511 -0.359967 0.0798078 -0.202739 -0.13564 0.223017 -0.216577 -0.00656855 0.0539215 -0.143648 0.225794 0.025656 0.127603 0.0811999 -0.0431559 0.168959 0.121101 -0.0843391 0.238811 0.221395 0.0265041 0.0337476 0.187822 0.150063
247583674 0.0484979 -0.149062 -0.0612249 0.419558 -0.0559123 -0.173871 0.165319 0.146804 -0.0201769 0.1081 0.0553995 0.231403 -0.0343754 -0.0284637 0.0112512 -0.277352 0.193908 0.00427962 0.10223 -0.158007 -0.0277792 -0.268396 0.0175274 0.15853 0.0183261 0.0343418 -0.115033 -0.284901 -0.290124 0.0674911 0.131271 -0.337544 0.319749 -0.493677 0.266121 0.0728966 0.188284 0.246572 0.176754 -0.221662 -0.233891 -0.194185 -0.118938 0.3118 0.206497 0.277274 0.198296 -0.311425 0.0907187 0.312416 -0.0935456 0.115802 0.267345 -0.0891184 -0.0289953 0.473088 0.0274512 0.175003 0.140991 0.105372 0.311842 0.0812557 -0.0445955 0.544019 -0.187896 -0.0062789 -0.0226416 -0.02172 -0.0851248 0.139033 -0.112525 -0.106454 0.281202 0.298668 0.163705 0.198758 -0.133183 -0.188118 0.257081 -0.110959 -0.072882 0.184394 -0.257511 0.000113759 0.148141 -0.123453 0.191994 0.0412696 -0.0768537 0.0202816 0.035837 0.266356 0.105239 -0.206643 0.224319 0.249511 -0.0115455 0.126402 0.126268 0.125605
478845537 0.286296 -0.111115 -0.0725027 0.045594 -0.135921 -0.140364 0.0992062 0.054786 -0.149559 0.132114 0.104863 0.327544 0.181925 -0.162041 0.0841743 -0.0863074 0.216201 0.00120744 0.208748 -0.149252 0.163034 -0.105955 -0.23248 -0.160455 0.011868 0.0422674 0.0410104 0.0484055 -0.361666 0.0746417 0.337701 -0.412954 0.0163719 -0.444201 0.272319 0.2332 -0.0264082 0.307968 0.244171 0.0116026 -0.133664 0.122472 0.104493 0.0839673 0.0390563 0.385639 0.0396727 -0.372981 0.299357 0.188129 -0.0575089 0.0535081 0.0696136 -0.233027 0.173185 0.236281 0.0973065 0.344996 -0.00328972 -0.0188372 0.123322 0.128307 0.0783094 0.307847 -0.364551 0.100261 0.216482 0.0158736 -0.000913456 0.376773 -0.195162 0.262047 -0.0234935 0.266631 0.00551109 0.140508 -0.131291 -0.161109 0.22623 -0.102752 -0.161587 0.0888114 -0.147486 -0.178842 0.369895 -0.020697 0.2524 -0.006874 -0.126676 0.0231298 -0.0336727 0.200173 0.0693989 -0.265816 0.0520474 0.173536 0.00701902 -0.20945 0.23114 0.228414
72998955 0.198162 -0.184756 -0.0798585 0.118803 -0.159275 -0.327712 0.132589 0.0319105 -0.0157144 -0.0406599 -0.00491601 0.275695 0.202374 -0.0439377 0.0519341 -0.175307 0.201088 -0.03314 0.252414 -0.0993137 0.0171862 -0.133001 -0.135214 0.0247179 -0.0343384 -0.0348214 -0.00292944 -0.0883032 -0.224176 0.0379402 0.275128 -0.413081 0.14926 -0.419686 0.166715 0.0934143 0.0773384 0.0701604 0.247358 -0.0945012 -0.105116 0.0219522 -0.0104122 0.237215 0.147058 0.213786 0.0651468 -0.440484 0.165332 0.146479 -0.105639 0.109444 0.191069 -0.212171 0.105628 0.210598 0.00935176 0.240008 0.0507941 0.0871575 0.160218 0.0287403 0.0428784 0.437009 -0.266175 -0.0955228 0.0765659 0.12453 0.0363679 0.229911 -0.124515 0.00166427 0.131407 0.262078 0.135502 0.162287 -0.00639284 -0.204402 0.302191 -0.128283 -0.174245 0.166959 -0.0838422 -0.118745 0.163492 -0.16481 0.296515 0.0962328 -0.117686 0.099822 -0.140897 0.130594 0.0767045 -0.250088 0.0769062 0.251521 0.0153716 0.0685591 0.213052 0.109381
35106619 0.165269 -0.18143 0.0319101 0.178963 -0.064251 -0.0862294 -0.00145627 -0.0953868 -0.274515 0.195783 0.0837973 0.266639 -0.0225646 -0.284454 -0.0604858 -0.305479 0.2208 0.0493404 0.281896 -0.259075 0.13764 -0.126939 -0.00975598 0.125545 -0.00109036 0.0858501 -0.198774 -0.0660853 -0.2935 -0.0397761 0.242152 -0.369438 0.173569 -0.452859 0.0932058 0.201971 -0.143499 0.131105 0.272209 0.0155761 -0.0970459 0.0858931 -0.0967356 0.0455609 0.131399 0.21671 0.0953038 -0.268555 0.208914 0.209204 -0.0413691 0.218852 0.186521 -0.130183 -0.0103585 0.319302 -0.29411 0.307481 0.25586 0.0627322 0.154063 -0.0918161 -0.202233 0.49079 -0.22284 -0.0407506 0.121342 0.048165 -0.149797 0.288204 0.0398414 0.176622 -0.0536387 0.338432 0.297834 0.0784551 -0.0216834 -0.241454 0.132095 -0.11165 -0.0957803 0.0711967 -0.224817 -0.176847 0.206719 -0.221958 0.302413 0.00766429 -0.0303867 0.130676 -0.00516099 0.236539 0.10449 -0.0350756 0.0751312 0.13691 0.192963 -0.0112719 0.113005 0.258627
92515946 0.201913 -0.0418777 0.130702 0.173936 -0.137484 -0.242754 0.0870176 0.0750664 -0.211694 0.0713242 -0.0706925 0.425555 0.183291 -0.0335548 0.12572 -0.13895 0.186118 0.0650142 0.164336 -0.143795 0.0693309 -0.104184 0.00773146 0.00223852 0.0478919 0.053025 -0.240778 -0.000250038 -0.346611 0.129123 0.247575 -0.354175 0.0459149 -0.315036 0.361715 0.0799788 0.143214 0.162842 0.395407 -0.0494913 -0.125842 0.0974977 0.0418615 0.191483 0.0988556 0.182414 0.122653 -0.399699 0.29947 0.25343 -0.0718197 0.225575 0.171339 -0.24993 0.192668 0.145187 0.044385 0.201566 0.111455 0.0286799 0.356576 -0.0636968 -0.0130519 0.419927 -0.315024 -0.131448 0.156321 0.153683 -0.0308424 0.14952 -0.294622 0.054985 0.0758263 0.456972 0.149864 0.0380126 -0.123051 -0.147101 0.205025 -0.00884748 -0.292313 0.176457 -0.11526 -0.0799197 0.33516 -0.0676934 0.193484 0.106541 -0.201574 0.149283 -0.0361017 0.049674 0.165084 -0.161903 -0.00383853 0.195439 -0.0707937 -0.0277259 0.203258 0.139553
174816561 0.204224 -0.0823158 0.0991507 0.128174 -0.201907 -0.31445 0.168165 0.0194767 -0.00776464 -0.0582329 0.00231413 0.225321 0.0699651 0.0372146 0.180335 -0.271844 0.20729 -0.0361073 0.20118 -0.116128 -0.0859833 -0.212958 -0.0248123 0.0437734 -0.0105858 0.0550094 -0.123694 -0.0572103 -0.259662 0.207207 0.269978 -0.419596 0.0567776 -0.228767 0.410299 0.116082 0.201128 0.185778 0.342867 0.0154164 -0.183576 0.096919 0.131763 0.291669 0.0831476 0.280858 0.0291071 -0.375754 0.106808 0.287456 -0.0675195 0.113987 0.236999 -0.336817 0.0540313 0.176016 0.0961965 0.211169 0.0605536 0.0499871 0.295044 -0.0168337 -0.102293 0.433472 -0.269217 -0.0353132 0.0160844 0.0688547 -0.0416164 0.106292 -0.332266 -0.0869179 0.255127 0.255177 0.109054 0.144199 -0.0223417 -0.171059 0.228119 -0.117386 -0.310956 0.287722 -0.228986 -0.0962647 0.266427 -0.106032 0.196085 0.209388 -0.152647 0.135844 -0.0724109 0.195261 0.0577089 -0.299901 0.0956208 0.332127 -0.0660624 0.129716 0.142822 0.0711428
311195478 0.0934915 -0.262921 -0.197411 0.325304 -0.124575 -0.0751816 0.072348 0.144988 -0.021282 0.237722 0.0424116 0.303676 0.112053 -0.101705 0.0930193 -0.205066 0.240693 -0.0781895 0.0250505 -0.126463 -0.0934949 -0.207145 -0.0952976 0.151719 0.0955494 0.0121954 0.0647958 -0.128484 -0.119166 0.140476 0.304486 -0.458378 0.197184 -0.495143 0.279576 0.0736648 0.0591441 0.416354 0.144281 -0.266814 -0.130206 -0.0433668 0.0481865 0.258358 0.149267 0.37654 0.147689 -0.206311 0.0627658 0.200065 -0.0249212 0.0901086 0.28665 0.00165208 0.0455475 0.44787 0.133394 0.212059 0.127627 0.0972875 0.257263 0.126898 0.0453013 0.483874 -0.285172 -0.111138 0.155329 -0.0693625 -0.105366 0.331802 -0.121105 0.145308 0.252249 0.205617 0.0626791 0.169111 -0.0417383 -0.190432 0.202938 -0.103024 -0.113808 0.194356 -0.26713 -0.130241 0.166634 -0.0655247 0.077288 -0.0792372 -0.0249146 0.0828999 -0.177895 0.195119 -0.0204204 -0.232412 0.229698 0.129271 0.133847 0.00870265 0.0689943 0.139676
201808677 0.127723 -0.156126 0.0596373 0.186451 -0.209287 -0.302169 0.0389846 -0.0328925 0.0208042 0.033008 0.0843559 0.240923 0.154651 -0.0540459 0.0467664 -0.268814 0.231453 -0.0277 0.221287 -0.130076 -0.0679229 -0.0344044 -0.027385 0.063424 -0.0804914 0.0818695 -0.0775908 -0.0849163 -0.16336 0.0846895 0.213427 -0.454238 0.0858418 -0.279613 0.142461 0.108154 0.0227332 0.18144 0.196553 -0.108871 -0.0237944 -0.0452704 0.129129 0.256909 0.0727957 0.31375 0.0322124 -0.41162 0.0893108 0.101804 -0.0704889 0.114425 0.254418 -0.131639 -0.0636326 0.107498 -0.0884133 0.343982 0.181003 0.0226492 0.227256 0.00827772 -0.104611 0.492567 -0.279618 -0.146047 0.206945 0.141214 -0.0527995 0.183328 -0.052793 0.0422864 0.214747 0.315093 0.180892 0.202449 -2.8475e-05 -0.236623 0.247101 -0.0683003 -0.276422 0.14084 -0.0628977 -0.195041 0.172721 -0.184853 0.26831 0.00205532 -0.0566892 0.101576 -0.22387 0.095253 -0.0199313 -0.273267 0.0795422 0.184336 0.024282 0.0785659 0.194991 0.0852273
234047967 0.057032 -0.344735 -0.0334885 0.199629 -0.0771007 -0.151318 0.0113055 -0.052797 -0.23669 0.195768 0.0141792 0.320447 -0.0160097 -0.19158 0.0624873 -0.271988 0.273416 -0.0983375 0.209048 -0.151117 -0.00149722 -0.125095 -0.0582015 0.155064 -0.0300279 0.116533 -0.0491284 -0.0655564 -0.212907 0.0613221 0.362089 -0.465934 0.131533 -0.458431 0.228688 0.0581411 -0.050984 0.195545 0.138963 -0.0238259 -0.0670227 0.149432 0.0227031 0.213818 0.154984 0.248475 0.0441363 -0.234587 0.175217 0.0379455 -0.0231972 0.281203 0.364198 -0.1132 0.056391 0.284856 -0.196822 0.143648 0.188793 0.0271369 0.157171 -0.163731 -0.0996708 0.522249 -0.166974 -0.0914366 0.162994 0.00428886 -0.148944 0.219856 -0.00559379 0.036799 0.147082 0.244597 0.19453 0.053863 0.0368785 -0.244371 0.182402 -0.158765 -0.126742 0.111099 -0.321402 -0.125743 0.176337 -0.226667 0.211561 0.0425296 -0.155216 0.198305 -0.123934 0.202371 -0.0203835 -0.141893 0.0992669 0.223807 0.238923 0.147456 0.0813819 0.211491
30260202 0.208366 -0.238893 -0.045863 0.190207 -0.172885 -0.113866 -0.0122213 0.026636 -0.139596 0.154135 0.0534041 0.285358 0.12551 -0.168631 0.0881953 -0.179283 0.316171 -0.00741996 0.161813 -0.193904 -0.0985537 -0.0673521 -0.115789 0.0486032 0.0388026 -0.00640309 0.00239646 -0.0198126 -0.200322 0.111992 0.337053 -0.392384 0.126393 -0.428181 0.202229 0.169669 -0.0996981 0.281626 0.150884 -0.0500304 -0.0649078 0.133003 0.0843313 0.144297 0.130306 0.378265 -0.0154499 -0.256352 0.139574 0.193011 -0.0442555 0.113052 0.146431 -0.0583825 -0.0114165 0.316075 0.0137684 0.258811 0.0819131 0.0659555 0.208364 0.0786393 0.00745334 0.469732 -0.269844 -0.0415772 0.156022 0.00839623 -0.0960882 0.397721 -0.0602017 0.18019 0.122088 0.193497 0.122147 0.150922 0.0310522 -0.203809 0.198805 -0.134364 -0.157849 0.154566 -0.207176 -0.234461 0.23972 -0.177033 0.150088 -0.0349303 -0.0499115 0.146495 -0.205168 0.244116 -0.0276069 -0.152637 0.127301 0.191493 0.145485 0.0297603 0.119154 0.15721
482532023 0.208528 -0.267732 0.0109138 0.135814 -0.167138 -0.124451 0.0519618 -0.00922326 -0.186558 0.101184 0.0491014 0.265815 0.0778358 -0.172059 0.191169 -0.263167 0.31017 -0.0376781 0.170247 -0.200322 -0.0140928 -0.138421 -0.148323 0.0796928 0.00767389 0.0828245 -0.0383176 0.0303546 -0.214081 0.129671 0.337085 -0.460253 -0.0184319 -0.34128 0.295355 0.0860259 -0.0835512 0.228538 0.227015 -0.0411411 -0.123963 0.17955 0.202125 0.152768 0.0331305 0.366636 -0.00978342 -0.25244 0.147498 0.20104 -0.00230856 0.147149 0.16892 -0.13304 0.0522935 0.262348 0.00872332 0.239932 0.0883248 0.029826 0.125915 -0.0440474 -0.0403864 0.399449 -0.244735 -0.0262235 0.149884 -0.0635289 -0.161863 0.290244 -0.193434 0.0941772 0.182576 0.214051 0.0286145 0.0824055 -0.0173205 -0.132272 0.172588 -0.163313 -0.183397 0.153506 -0.302079 -0.191703 0.290018 -0.134386 0.174203 0.0627362 -0.101745 0.0909019 -0.0766288 0.28282 -0.0625464 -0.233425 0.0498168 0.267454 0.159416 0.0259075 0.0751984 0.15415
28917759 0.237247 -0.0190326 0.0106147 0.175115 -0.148421 -0.165436 0.132706 0.0239316 -0.125624 0.0979519 0.0589103 0.314674 0.106486 -0.117236 0.0413726 -0.165746 0.200695 -0.00308496 0.246747 -0.164696 0.189523 -0.123457 -0.0847432 -0.0502433 0.0801005 0.0641202 -0.128634 -0.00332926 -0.416336 0.110175 0.231643 -0.382219 0.0952983 -0.328499 0.320574 0.228971 0.0851619 0.310425 0.392119 -0.0187809 -0.182916 0.0389289 0.0954548 0.119425 0.0910531 0.339655 0.10634 -0.433359 0.265717 0.360359 -0.056167 0.0999773 0.110184 -0.244373 0.155733 0.216041 0.073725 0.321439 0.07233 0.0278704 0.269477 0.151109 0.0101174 0.433977 -0.382373 0.0571427 0.154911 0.0464263 -0.0351141 0.326574 -0.271831 0.145742 0.0228033 0.328716 0.0735842 0.148403 -0.154276 -0.0909632 0.23923 -0.0667185 -0.174904 0.0999802 -0.157761 -0.135551 0.359311 -0.035312 0.198694 0.0946547 -0.142774 0.0349169 0.0675185 0.240194 0.116223 -0.217821 0.0372796 0.219887 -0.120747 -0.143384 0.196279 0.243293
21272026 -0.112229 -0.0783811 -0.0681494 0.386039 -0.0888109 -0.180521 0.0496742 -0.0690642 0.0474975 0.0969496 0.0923184 0.245643 -0.120442 0.0154938 0.073685 -0.28847 0.0927502 0.00949773 0.209114 -0.154831 -0.0525946 -0.255221 -0.0246586 0.193523 -0.107463 0.119817 -0.0508242 -0.307827 -0.2646 0.12955 0.14577 -0.40687 0.324402 -0.499607 0.106512 0.186072 0.100345 0.378268 0.117072 -0.11696 -0.183984 -0.150217 -0.145452 0.324154 0.182486 0.253763 0.130018 -0.398035 0.115179 0.128502 -0.101091 0.11011 0.373632 -0.124605 -0.110999 0.320399 -0.00241473 0.189644 0.23618 0.077999 0.297832 -0.00234069 -0.198325 0.614274 -0.293423 -0.0401532 0.0887404 0.0220265 0.00921965 0.235087 0.0858191 -0.0691307 0.232509 0.255144 0.222518 0.208877 -0.0261138 -0.330535 0.302828 -0.140048 -0.0562466 0.20688 -0.305601 -0.225405 0.0335779 -0.159315 0.238761 -0.0215509 -0.111873 0.253255 -0.16229 0.180325 -0.0202952 -0.12713 0.225984 0.22271 -0.00411647 0.125732 0.158221 0.171607
19705747 0.0950881 -0.00519203 0.0966314 0.155255 -0.0805801 -0.185266 0.0613804 0.0327144 -0.275283 0.0486903 -0.0435872 0.368077 0.145638 -0.0946751 -0.00282657 -0.150182 0.274832 0.0350805 0.154323 -0.255669 0.0569167 -0.0841789 -0.033971 -0.00824373 -0.0341636 0.0461885 -0.198086 -0.0228955 -0.290811 0.0964075 0.170335 -0.300989 0.114555 -0.440199 0.225437 0.110421 0.097663 0.225848 0.354423 -0.0525514 -0.106044 0.00983279 0.0455202 0.157661 0.146201 0.200837 0.115208 -0.359098 0.302787 0.329827 -0.1095 0.19031 0.104178 -0.218108 0.107215 0.2014 -0.0117827 0.212481 0.107107 0.0782917 0.344997 -0.0390526 -0.00409095 0.519633 -0.24062 0.0117666 0.0794459 0.0898216 -0.0442517 0.233648 -0.2139 -0.0478699 0.0987209 0.387508 0.175685 0.0693347 -0.165376 -0.165503 0.287768 0.0146732 -0.15211 0.173815 -0.121166 -0.17051 0.28638 -0.162664 0.260529 0.120662 -0.242045 0.149186 -0.0122034 0.169194 0.13293 -0.151993 0.0833722 0.21516 -0.00730803 0.0134888 0.138345 0.184045
367496021 0.0111742 -0.17172 -0.0651207 0.617141 -0.0825733 -0.114046 0.0807787 0.105543 0.0118819 0.211347 0.127387 0.311901 -0.104063 -0.0378191 0.0643263 -0.301345 0.227886 0.0676887 0.110066 -0.273838 -0.0935544 -0.334328 0.0320286 0.287251 0.060359 0.0427213 -0.110901 -0.434317 -0.336798 0.148326 0.148406 -0.372775 0.459167 -0.720844 0.211955 0.185044 0.0994366 0.42137 0.138859 -0.280604 -0.302979 -0.19921 -0.267544 0.360034 0.278509 0.335732 0.231081 -0.35986 0.135731 0.29884 -0.153171 0.149405 0.361329 -0.0342332 -0.181392 0.68471 0.0320184 0.20302 0.277253 0.151099 0.423147 0.0783817 -0.137934 0.703868 -0.277187 -0.0947451 0.0266654 -0.0277171 -0.0459188 0.294625 0.0534206 0.00602879 0.290026 0.362872 0.244398 0.229455 -0.0900298 -0.371038 0.253268 -0.218215 -0.0783664 0.255149 -0.403464 -0.186831 0.143266 -0.16412 0.140798 -0.0814168 -0.0383695 0.192437 -0.122885 0.314777 0.0588845 -0.0829556 0.32306 0.249859 0.0461305 0.146903 0.153824 0.166325
159558564 -0.0217831 -0.166277 -0.0580838 0.660494 -0.0523385 -0.0743972 0.0451619 0.131503 0.0389076 0.233622 0.142123 0.271053 -0.121299 -0.0176679 0.0724814 -0.246251 0.235481 0.048631 0.0271051 -0.275314 -0.173178 -0.302034 0.0515578 0.308934 0.0761189 0.0242343 -0.0494009 -0.472528 -0.283264 0.159717 0.127223 -0.304891 0.479669 -0.739282 0.196403 0.148125 0.10649 0.45437 0.030565 -0.3165 -0.306464 -0.231901 -0.288438 0.367331 0.282108 0.337025 0.20461 -0.258004 0.0925191 0.282643 -0.163027 0.149809 0.3453 0.0515659 -0.226664 0.734901 0.0806009 0.127408 0.256969 0.147506 0.425077 0.113296 -0.109369 0.6764 -0.22236 -0.102789 0.0125183 -0.0393264 -0.0336044 0.311618 0.0984484 -0.00703186 0.332182 0.304307 0.20713 0.207747 -0.0732852 -0.383843 0.256069 -0.236159 -0.0291614 0.248663 -0.415096 -0.217616 0.124438 -0.159896 0.0513965 -0.138716 -0.035372 0.186034 -0.148536 0.324377 0.0245954 -0.0594389 0.367271 0.220217 0.0800462 0.189974 0.117615 0.124428
255257867 0.160392 -0.210639 -0.0958181 0.149922 -0.0338062 -0.0959866 0.0667643 -0.0294447 -0.203603 0.211661 0.0556102 0.237547 -0.0238927 -0.232282 -0.0103092 -0.298099 0.190683 -0.0581595 0.214671 -0.122315 0.0891786 -0.14179 -0.0702723 0.0540039 -0.0211299 0.101383 -0.000715692 -0.0399811 -0.233463 -0.0481801 0.360372 -0.470566 0.129698 -0.423209 0.284584 0.121114 -0.0272176 0.271016 0.162449 0.0125597 -0.12191 0.0340903 0.0385103 0.135717 0.116608 0.323738 0.0405028 -0.196919 0.150641 0.245202 0.0329705 0.154163 0.20139 -0.0877712 0.112594 0.333478 -0.0874561 0.23049 0.129681 0.0343504 0.115131 0.0579747 -0.0889475 0.441514 -0.259569 0.085954 0.143568 -0.0779845 -0.174729 0.341054 -0.0767409 0.0864512 0.0705313 0.187165 0.142326 0.124046 -0.0616119 -0.155901 0.282083 -0.119549 0.0104376 0.0646541 -0.277862 -0.132499 0.255844 -0.115526 0.268855 -0.0151554 -0.116449 0.0357364 0.0238291 0.319094 0.0623853 -0.243398 0.146192 0.153065 0.183113 -0.0239311 0.0678118 0.232833
49110693 0.00789807 0.0477676 -0.0333066 0.178117 -0.0994113 -0.185367 0.135573 -0.0960189 -0.0267473 0.0347624 0.12552 0.215116 -0.0055674 -0.119036 -0.149926 -0.285587 0.180274 -0.0446053 0.30649 -0.228994 0.193641 -0.199944 -0.0446616 0.0566842 -0.082334 0.09786 -0.152127 -0.156291 -0.329139 0.0918126 0.094684 -0.364593 0.250933 -0.465972 0.122368 0.279909 0.110553 0.324027 0.381081 -0.0254684 -0.17818 -0.111001 -0.0639121 0.153658 0.194741 0.213698 0.17212 -0.461491 0.20462 0.291022 -0.112491 0.068921 0.212189 -0.310029 -0.0134251 0.26851 -0.127864 0.363335 0.198309 0.0956551 0.281139 0.0485529 -0.14155 0.577165 -0.311431 0.118812 0.016793 0.0351011 -0.00158953 0.221332 -0.0894951 -0.0429516 0.046687 0.295373 0.263326 0.213262 -0.134623 -0.20572 0.27395 -0.0524606 -0.0751943 0.152479 -0.189627 -0.22512 0.177367 -0.145316 0.353448 0.145636 -0.135955 0.119345 0.0508473 0.253448 0.143022 -0.144297 0.155192 0.211857 -0.0831346 -0.0153834 0.130166 0.260421
19338615 0.193295 -0.119839 0.0759025 0.128832 -0.0790801 -0.261109 0.066687 0.118074 -0.211741 0.0212931 0.0255655 0.346019 0.213838 -0.145234 -0.11107 -0.221381 0.325543 -0.0262609 0.1619 -0.136046 0.0515157 -0.125001 -0.0553124 -0.0140306 -0.0955705 0.0275645 -0.201 -0.107672 -0.198834 -0.0796516 0.218095 -0.332316 0.13405 -0.471912 0.237149 0.0216133 0.147058 0.0927683 0.254807 -0.0340197 -0.0768859 -0.108408 -0.0406271 0.138813 0.160304 0.231835 0.131815 -0.329439 0.234381 0.250939 -0.0999857 0.154013 0.11065 -0.19959 0.0925737 0.224463 -0.160539 0.248903 0.102525 0.0723088 0.335646 0.0372677 -0.0794915 0.452961 -0.234434 0.0295947 0.0502588 0.0953226 -0.0928034 0.0912936 -0.137083 0.0140244 0.110851 0.415156 0.282723 0.161302 -0.112067 -0.144616 0.301824 0.0321193 -0.203964 0.0962452 -0.0849626 -0.106236 0.248126 -0.19591 0.327915 0.137501 -0.229982 0.0296061 -0.0276285 0.120518 0.185781 -0.217915 0.0756227 0.120132 0.0103951 0.0986068 0.188033 0.0782041
46831674 0.149477 -0.366028 -0.055819 0.442723 -0.131217 -0.171431 0.0255237 -0.0641207 -0.0717453 0.226508 0.0684434 0.243413 -0.173938 -0.147213 0.159115 -0.410511 0.039219 0.0792694 0.340468 -0.0370839 0.0362157 -0.266138 0.0454036 0.313577 0.0325377 0.103978 -0.176347 -0.256651 -0.350986 -0.0473806 0.294466 -0.471077 0.320227 -0.357919 0.168775 0.152184 -0.117786 0.058289 0.101759 -0.0271247 -0.169342 0.0545801 -0.232901 0.248542 0.157048 0.275914 0.0970993 -0.357817 0.0576349 0.0441845 0.00687021 0.213662 0.413219 -0.00120877 -0.0695086 0.363237 -0.247346 0.21802 0.292503 0.0366212 0.125347 -0.0615552 -0.274126 0.510309 -0.268069 -0.202139 0.163583 0.0460302 -0.161392 0.212944 0.200136 0.172993 0.0888189 0.302559 0.330123 0.180373 0.131753 -0.272436 0.121137 -0.262821 -0.144907 0.0654837 -0.329125 -0.0121189 0.0299772 -0.212671 0.243554 -0.0579275 0.0684064 0.170285 -0.0892443 0.182054 0.014256 -0.0263871 0.0564802 0.217596 0.118187 0.117782 0.210753 0.194336
42311985 0.151521 -0.123006 0.0467098 0.334562 -0.114969 -0.172733 0.117477 0.0380732 -0.140996 0.105886 -0.00397209 0.305335 -0.0103122 -0.07574 0.0805122 -0.279091 0.167766 0.06166 0.210291 -0.161429 0.0568264 -0.190139 0.0378574 0.157442 0.0660026 0.0562822 -0.221348 -0.1309 -0.348627 0.0867897 0.198937 -0.386813 0.202749 -0.345299 0.320549 0.109156 0.0870012 0.188184 0.325902 -0.102973 -0.200467 -0.0148066 -0.027416 0.233504 0.165083 0.238334 0.140298 -0.3729 0.177727 0.322852 -0.051541 0.179882 0.206914 -0.145079 0.0478677 0.324054 -0.00991681 0.194918 0.177204 0.0881746 0.310308 0.0185384 -0.0870751 0.514571 -0.290399 -0.0748932 0.0660175 0.0307739 -0.112142 0.191451 -0.179281 -0.0157813 0.154227 0.358972 0.168139 0.123902 -0.101697 -0.136173 0.217244 -0.112089 -0.150888 0.152604 -0.252736 -0.0468033 0.2425 -0.099656 0.183575 0.0749763 -0.108702 0.0877948 0.0355872 0.24544 0.119335 -0.133001 0.0676899 0.248865 -0.0330262 0.0289923 0.126041 0.174148
16340122 0.152059 -0.115044 0.100525 0.0921277 -0.166338 -0.19394 0.0428061 0.023221 -0.186174 0.0159512 -0.0330163 0.399763 0.173483 -0.0593623 0.183996 -0.169424 0.255451 0.030213 0.167555 -0.165698 0.0121744 -0.129143 -0.0984817 -0.00989215 -0.0563301 0.0702207 -0.187626 0.0321227 -0.264216 0.193341 0.291445 -0.382263 -0.0392986 -0.312421 0.300611 0.0902716 0.0554432 0.208049 0.351678 -0.0119092 -0.0911731 0.189128 0.0978427 0.149678 0.051496 0.210556 0.0748308 -0.362871 0.246077 0.14786 -0.0683989 0.165896 0.187438 -0.270149 0.12347 0.101872 0.0547737 0.236419 0.0924473 0.0275535 0.284161 -0.12388 -0.0926444 0.377699 -0.324792 -0.0860014 0.132627 0.0692945 -0.0311248 0.128032 -0.272961 0.0826146 0.104093 0.373858 0.0946518 0.0455718 -0.05434 -0.163393 0.150946 -0.0405627 -0.311748 0.235249 -0.202523 -0.16813 0.293175 -0.085491 0.196031 0.111139 -0.170556 0.20411 -0.111975 0.0565683 0.037913 -0.168867 -0.0121274 0.210208 -0.00798451 -0.00263508 0.144197 0.102256
15639784 0.0533417 -0.0118425 -0.123921 0.324031 -0.104119 -0.134235 0.205252 0.158915 -0.0993768 -0.0161196 -0.0353875 0.425977 0.149173 -0.0417612 -0.00744495 -0.172781 0.165306 0.106129 0.178802 -0.10233 0.210365 -0.315375 -0.16128 0.0466756 -0.0569106 -0.0289978 -0.29479 -0.189741 -0.382332 0.0937011 0.083924 -0.322114 0.257531 -0.552342 0.252058 0.126044 0.203456 0.24453 0.414587 -0.198143 -0.229554 -0.129904 -0.209006 0.178739 0.208855 0.155019 0.327481 -0.502749 0.293215 0.30152 -0.138022 0.00749806 0.0810082 -0.254151 0.141557 0.362444 0.100965 0.259742 0.0873805 0.190462 0.385944 0.10875 0.00119 0.469703 -0.414188 0.0749961 -0.0312107 -0.0243288 0.0050739 0.0683069 -0.220797 -0.034687 0.0786107 0.411168 0.185009 0.225331 -0.234541 -0.0755468 0.262309 0.0138364 -0.108944 0.183275 -0.224352 -0.0514415 0.179274 0.0085843 0.300671 0.133263 -0.171905 0.0531486 0.118553 0.153904 0.273234 -0.0687354 0.0741432 0.157019 -0.231451 -0.131291 0.174031 0.164329
100360973 0.101768 -0.258617 -0.0670979 0.419155 -0.116975 -0.186712 0.0834907 0.0318389 -0.0322012 0.18008 0.0894582 0.279551 -0.054681 -0.0949778 0.0712056 -0.325543 0.158527 0.0280434 0.235348 -0.138231 0.0122325 -0.260481 -0.00189503 0.222789 0.0188025 0.0652086 -0.128455 -0.268994 -0.323705 0.0303242 0.227508 -0.434947 0.324221 -0.512093 0.187363 0.145094 0.0154932 0.196304 0.160367 -0.151497 -0.194288 -0.0648768 -0.177053 0.281749 0.199107 0.30153 0.160593 -0.376047 0.113075 0.150739 -0.0787176 0.168386 0.357452 -0.0809857 -0.0631342 0.441617 -0.126315 0.24474 0.237453 0.0850249 0.240348 -0.000683172 -0.1467 0.565026 -0.259174 -0.127471 0.100954 0.0442039 -0.0954424 0.208651 0.0604247 0.0734393 0.184061 0.328459 0.268382 0.204755 -0.00551605 -0.290747 0.201697 -0.196176 -0.138226 0.147458 -0.283414 -0.0665929 0.101838 -0.193355 0.242406 -0.0206818 -0.00752719 0.12469 -0.0858745 0.215192 0.0501963 -0.121517 0.162548 0.229695 0.0801488 0.107358 0.196292 0.170744
59265808 0.318938 -0.0341641 0.241789 0.0266942 -0.129343 -0.334538 0.0670135 0.139575 -0.401743 0.027855 -0.104627 0.534401 0.379811 -0.0637529 0.0690754 0.0162984 0.33862 0.114177 0.209498 -0.217075 0.119742 0.0312536 -0.0555491 -0.135592 0.0375411 -0.00275771 -0.314672 0.15328 -0.463805 0.0738964 0.263375 -0.313531 -0.0668516 -0.362076 0.318978 0.0539712 0.075522 0.0103021 0.487199 -0.0323175 -0.00249137 0.182857 0.112394 0.117713 0.109149 0.238225 0.0848677 -0.55922 0.480127 0.232556 -0.12561 0.315729 0.029506 -0.376817 0.261406 0.0436395 0.00326171 0.195734 -0.0111291 0.0193734 0.371362 -0.138382 0.165682 0.419047 -0.237928 -0.130074 0.182772 0.269206 0.00104847 0.176949 -0.386245 0.0477397 0.038544 0.549001 0.161948 -0.00273031 -0.214886 -0.121886 0.258958 0.0363992 -0.376712 0.139505 0.0494166 -0.0466936 0.433267 -0.21704 0.287465 0.21489 -0.312368 0.128859 -0.0164191 0.0217583 0.191923 -0.164494 -0.178029 0.274627 -0.0469686 -0.0128052 0.350335 0.186749
90760905 0.156205 -0.0918688 0.00277269 0.246732 -0.125648 -0.190297 0.131881 0.0941258 -0.160976 0.0333467 -0.0143366 0.375044 0.142887 -0.075372 0.0733225 -0.196236 0.222803 0.0704957 0.195548 -0.154206 0.111753 -0.191264 -0.098231 0.0576853 -0.00578825 0.0179859 -0.220372 -0.0933235 -0.334446 0.0899966 0.190603 -0.366698 0.137905 -0.440183 0.284799 0.101211 0.0891325 0.177545 0.364797 -0.125112 -0.172349 0.0075742 -0.0418507 0.182076 0.134408 0.220911 0.167613 -0.424192 0.257874 0.273775 -0.0910388 0.112595 0.123408 -0.209202 0.106587 0.291927 0.04215 0.25 0.110611 0.10731 0.30072 0.0165263 -0.0119163 0.455353 -0.327806 -0.0307349 0.0694187 0.0305496 -0.0599031 0.16455 -0.220936 0.00923661 0.113684 0.374302 0.150411 0.146259 -0.145807 -0.125707 0.2369 -0.0642258 -0.184164 0.164982 -0.195356 -0.0886104 0.261567 -0.0726781 0.261574 0.0947082 -0.150796 0.0743954 0.0250472 0.181363 0.15964 -0.143878 0.0445767 0.210778 -0.0662114 -0.0442434 0.169743 0.146029
