182 100
15926905 -0.431031 -0.240088 -0.251975 0.366903 0.0393088 0.318497 -0.283141 0.234525 -0.190617 0.435593 -0.114524 -0.428246 -0.0567179 -0.0304465 -0.222887 -0.300108 0.382182 -0.40841 -0.0564949 -0.0186741 0.132799 0.0533858 0.111622 0.063333 0.27105 0.390838 -0.14604 -0.258224 -0.505173 0.0925194 -0.113381 -0.186974 0.338669 -0.184557 0.00597204 -0.139549 -0.0743918 0.585833 -0.135082 0.10271 -0.299665 0.25944 -0.220766 -0.344067 -0.289394 0.0805973 -0.353229 0.151062 -0.346122 0.0371995 -0.221553 -0.287653 -0.0926431 -0.301343 0.150157 0.102059 -0.141991 0.179024 0.383529 0.129533 -0.121855 -0.456437 -0.0202175 -0.192271 0.0533512 -0.160468 0.00186835 0.0154342 -0.124576 -0.290392 -0.00723242 -0.146279 0.172843 0.315431 -0.0520273 0.231098 0.291408 0.1512 -0.0337481 0.0580687 -0.00806554 0.0884084 0.150458 0.123745 0.0638309 -0.105386 0.0610069 0.436361 0.0397881 0.0430231 -0.116498 0.386019 0.0547145 -0.143104 -0.456839 -0.0307313 -0.0142344 0.31913 -0.125654 -0.23565
34479708 -0.397005 -0.23076 -0.253107 0.386075 -0.0222944 0.305556 -0.302078 0.149749 -0.3404 0.398079 -0.241208 -0.355118 -0.0809966 -0.0179623 -0.1924 -0.387826 0.490579 -0.402558 0.00987146 0.0830901 0.196281 0.0729868 0.079659 0.0678093 0.295233 0.245713 -0.188761 -0.256465 -0.56922 0.126676 -0.249713 -0.219726 0.348562 -0.257907 0.0974539 -0.200708 -0.150086 0.599029 -0.119667 0.0981486 -0.27305 0.348548 -0.288642 -0.332746 -0.31526 0.101847 -0.473007 0.0992382 -0.343861 0.125034 -0.196853 -0.155009 -0.0654521 -0.23651 0.196335 0.1656 -0.0994703 -0.0109849 0.34815 0.238601 -0.139104 -0.510621 0.119951 -0.170985 0.11171 -0.130116 0.0726892 -0.0648253 -0.141651 -0.310989 -0.0332749 -0.148662 0.266865 0.237621 -0.018093 0.213691 0.255733 0.0722442 -0.121672 0.0143001 0.0181632 0.149596 0.228486 0.237655 0.0414683 -0.0946215 0.171619 0.331912 -0.0833464 0.0378717 -0.16491 0.255997 0.177797 -0.214571 -0.388546 0.00201041 -0.0890285 0.275822 -0.111329 -0.168082
28504906 -0.501166 -0.216517 -0.297154 0.411223 0.0183179 0.304221 -0.308619 0.212973 -0.282497 0.451043 -0.201368 -0.467674 -0.091324 0.00603888 -0.255033 -0.321115 0.425344 -0.48143 -0.0399721 0.0477238 0.201629 0.0812898 0.0693172 0.0688921 0.288412 0.353458 -0.162242 -0.235655 -0.604224 0.0907151 -0.155747 -0.264931 0.362027 -0.186091 0.0594462 -0.119408 -0.105387 0.628338 -0.149403 0.114966 -0.294627 0.334293 -0.292191 -0.367849 -0.336719 0.152367 -0.381665 0.102698 -0.411976 0.113105 -0.259618 -0.273202 -0.129529 -0.28634 0.213356 0.158047 -0.144544 0.103873 0.408507 0.111804 -0.131335 -0.506163 0.0434425 -0.171756 0.0138723 -0.226505 0.0496692 -0.0248453 -0.111706 -0.356992 -0.0445861 -0.140239 0.234202 0.28006 -0.00736528 0.220072 0.272998 0.106557 -0.0444746 -0.00196147 0.000256801 0.111188 0.200682 0.218145 0.111225 -0.152461 0.120219 0.380821 0.0435289 0.064691 -0.146115 0.420372 0.128938 -0.163026 -0.473351 0.0232795 0.0152371 0.361658 -0.110255 -0.272611
102208685 -0.534384 -0.201852 -0.312096 0.292245 -0.0433907 0.39013 -0.354205 0.297756 -0.224061 0.427289 -0.123593 -0.492114 -0.173995 -0.0856894 -0.171888 -0.157584 0.381977 -0.412002 -0.0122238 0.0615952 0.214651 0.0540809 0.142057 0.0340888 0.229021 0.406756 -0.150687 -0.347963 -0.483333 -0.00347467 -0.0586663 -0.205756 0.297706 -0.276464 -0.0842862 -0.180146 -0.0733573 0.592474 -0.192165 -0.0320604 -0.251754 0.306457 -0.192443 -0.281968 -0.290795 0.175132 -0.318953 0.143498 -0.47118 0.0683244 -0.249923 -0.345985 -0.140786 -0.270388 0.21521 0.113223 -0.188059 0.20412 0.410904 0.0802246 -0.0796239 -0.551766 -0.0377039 -0.1976 0.0258048 -0.157995 0.00236361 0.0168607 -0.117377 -0.290689 -0.0694335 -0.113212 0.25855 0.32858 -0.00984567 0.284941 0.395584 0.0949643 -0.00571523 0.0199024 -0.114807 0.0823986 0.101078 0.181642 0.189258 -0.078737 0.0619911 0.310894 0.189794 0.108844 -0.109619 0.40714 -0.0110261 -0.140459 -0.528772 0.0358427 0.0117959 0.385799 -0.0817827 -0.302523
16625144 -0.459511 -0.18285 -0.234079 0.285465 0.0505104 0.328355 -0.32188 0.31102 -0.197644 0.394918 -0.329847 -0.404432 -0.171042 -0.0413329 -0.119742 -0.335428 0.568455 -0.273284 -0.00734296 0.066249 0.12076 0.0314967 0.139486 0.0373405 0.267512 0.375382 -0.182421 -0.318514 -0.600569 0.0261686 -0.182917 -0.167044 0.182042 -0.305014 0.0380692 -0.253894 -0.0648392 0.601379 -0.103122 0.136327 -0.233588 0.398801 -0.258598 -0.357064 -0.291848 0.0253459 -0.501791 0.0804346 -0.333449 0.0652143 -0.259893 -0.271201 0.028658 -0.277909 0.145186 0.158912 -0.191754 0.0595891 0.291496 0.229359 -0.0908842 -0.578828 0.0133607 -0.207164 0.315361 0.0124534 0.0531807 -0.0755758 -0.0629056 -0.260586 -0.042145 -0.244757 0.211439 0.255507 -0.024242 0.284566 0.200024 0.0799074 -0.089366 0.0409537 -0.124195 -0.0224768 0.169981 0.21553 -0.0336532 0.00953397 0.109361 0.23248 -0.0557123 0.0451242 -0.12943 0.165507 0.0755818 -0.109963 -0.588092 0.0680096 -0.107688 0.313307 -0.0618804 -0.14796
14939981 -0.219274 -0.146272 -0.398112 0.370971 0.0757029 0.224228 -0.268235 0.117265 -0.121465 0.240624 -0.0806341 -0.274209 -0.000200553 -0.00773675 -0.265826 -0.293257 0.438374 -0.181391 -0.0864198 0.0700313 0.105445 -0.0412969 0.13859 0.0986046 0.254293 0.13286 -0.197891 -0.096417 -0.375366 0.0137146 -0.271788 -0.157644 0.389589 -0.246238 -0.0202692 -0.175861 -0.0342831 0.655509 -0.0329117 0.0855006 -0.157942 0.231014 -0.254148 -0.314791 -0.204776 0.064596 -0.401022 0.0990184 -0.204932 0.120251 -0.175426 -0.0639888 0.113548 -0.211194 0.0452316 0.0560206 -0.108367 0.122636 0.171932 0.104919 0.031189 -0.423588 0.0347193 -0.0538908 0.0971815 -0.147666 0.0264949 -0.0539892 -0.0696763 -0.244433 0.0707368 -0.101301 0.137885 0.253955 -0.0292438 0.198757 0.358797 0.191555 -0.142604 0.226438 0.0184398 0.1492 0.0998465 0.0946416 -0.0448929 -0.093026 -0.0100755 0.402883 -0.18597 -0.116911 -0.118307 0.231407 0.044742 -0.132957 -0.346154 0.0725759 -0.168601 0.173787 -0.105605 -0.0914536
110365072 -0.273076 -0.334318 -0.153952 0.326202 0.208032 0.20054 -0.0209581 0.115987 -0.0144053 0.315101 -0.123889 -0.332211 0.0179806 -0.0181122 -0.446666 -0.415717 0.453529 -0.174314 -0.228603 -0.115439 -0.0951607 0.142571 0.115313 0.0742552 0.350256 0.226678 -0.133449 -0.0298355 -0.398392 0.173953 -0.253032 -0.253202 0.217631 -0.177259 0.221834 -0.203121 -0.0107679 0.584101 -0.0145178 0.193244 -0.276502 0.194667 -0.170135 -0.301926 -0.129767 0.0878542 -0.362841 0.12123 -0.179815 0.023118 -0.222794 -0.0393899 0.00549936 -0.367042 -0.206621 -0.0842713 -0.15423 0.169542 0.29776 0.128164 -0.130871 -0.305086 0.0228041 -0.243822 0.143181 -0.0357123 0.223015 0.00539052 -0.132702 -0.277739 0.0779 -0.224445 0.0933119 0.30821 0.0838729 0.194621 0.137261 0.0993615 0.0347454 0.124284 0.185166 -0.0639739 0.055746 -7.76938e-05 -0.139779 -0.025779 -0.105402 0.351842 -0.0684108 -0.187986 -0.0862686 0.282615 0.125242 0.0426261 -0.35395 -0.00518869 -0.149398 0.11819 -0.0987688 -0.08787
169686021 -0.37975 -0.141877 -0.247315 0.383415 0.114201 0.0546783 -0.036743 0.0441331 -0.305188 0.1237 -0.168991 -0.222725 0.0603639 0.037544 -0.278192 -0.329794 0.374995 -0.258618 -0.198972 -0.0128187 0.0384301 0.057618 0.141001 0.0511646 0.337173 0.273242 -0.180156 -0.108347 -0.368113 0.0618602 -0.0253439 -0.140778 0.164054 -0.149617 0.0238679 -0.105443 0.00890278 0.584088 -0.0925525 0.189434 -0.137466 0.211604 -0.348258 -0.190818 -0.312296 0.202965 -0.29777 -0.0378878 -0.306207 -0.0072686 -0.182589 -0.0840588 0.134033 -0.387198 -0.0113521 -0.0483807 -0.0668873 0.0522291 0.136254 -0.0892764 -0.0962235 -0.468492 -0.00458006 -0.239409 0.0295735 -0.120151 0.0814812 0.0231654 0.0500098 -0.310601 0.0518567 -0.179743 0.175427 0.1572 0.030676 0.100953 0.158455 0.134876 -0.00137793 -0.0184563 -0.0212821 0.178735 0.0933523 0.00604976 -0.000185401 -0.206914 -0.0445878 0.133743 0.0580523 -0.150404 -0.129473 0.424192 0.206472 -0.00107872 -0.251087 0.330947 -0.0387233 0.0829165 -0.188649 -0.177346
15224402 -0.36689 -0.0558658 -0.249456 0.239945 -0.0289504 -0.0388129 0.0823231 0.237309 -0.0785572 0.13097 -0.0526742 -0.228117 0.110874 0.134915 -0.444773 -0.140226 0.362693 -0.351664 -0.0367203 -0.134209 -0.104481 0.0889131 -0.0543184 0.108684 0.0560316 0.20052 -0.0917503 0.000815832 -0.476558 0.0128584 -0.244926 -0.125869 0.0416026 -0.0626811 -0.186139 -0.00218353 -0.0587611 0.144854 -0.0428571 0.351306 -0.225593 0.309692 -0.212381 -0.331712 0.166717 -0.0675856 -0.206836 0.279791 -0.31408 0.0299861 -0.197614 0.0474784 -0.0655071 -0.33755 -0.0503982 0.084362 -0.18739 0.183976 0.184399 0.35688 0.0222955 -0.293623 -0.0888715 0.0652448 0.0169819 -0.222109 0.186023 -0.0896007 -0.078259 -0.248386 0.243671 -0.152 0.4263 0.212292 0.0252637 0.0216705 0.114362 -0.164546 -0.160517 -0.0128383 0.0215683 -0.0370185 0.046098 0.33466 0.109619 -0.0135358 -0.098646 0.146804 0.0655 -0.258973 0.0370162 0.310803 0.0415211 -0.0130858 -0.269228 0.221015 -0.0289503 0.0843295 -0.101403 -0.0470045
14084454 -0.325529 -0.202482 -0.310698 0.160188 -0.0607698 -0.0717226 0.101618 0.0806256 -0.0877384 -0.0236442 -0.00673599 -0.113179 0.0296597 0.163247 -0.244239 -0.213392 0.361239 -0.151689 0.0290311 -0.180546 0.046093 0.0689835 0.145021 0.12797 0.0259236 0.144205 0.0152 -0.00864329 -0.262081 -0.177395 -0.279155 -0.0579073 -0.0223568 -0.0695251 -0.0817258 -0.185165 -0.0753313 0.410762 -0.131383 0.014836 0.113616 0.242688 -0.189509 -0.197201 0.101667 0.0908591 -0.299635 0.079036 -0.208952 0.078702 -0.242397 0.0753235 0.245509 -0.300251 -0.0695264 -0.0135341 -0.233521 0.234837 0.0734033 -0.0888706 -0.0128398 -0.452608 -0.131903 -0.135007 0.0455345 -0.140954 -0.0148725 -0.00220069 -0.00936292 -0.40011 0.0564813 0.00428458 0.209152 0.138742 -0.155709 0.0783209 0.119966 0.0279667 -0.310362 0.0984937 0.124217 0.154787 0.158118 0.19319 -0.145685 -0.055174 -0.156995 0.0471125 0.00159065 -0.272872 0.0434826 0.218767 -0.0107404 0.116431 -0.244815 0.371273 -0.182008 -0.080705 -0.180389 0.0692781
24290627 -0.318809 -0.0758633 -0.235487 0.1885 0.048231 0.0465845 0.1418 0.133012 -0.0974841 0.043868 -0.123702 -0.263053 0.0459043 0.0574853 -0.344459 -0.21578 0.490477 -0.0693459 -0.259206 -0.31935 -0.231959 0.154536 0.257146 0.133599 0.0351519 0.171432 -0.208119 -0.111233 -0.381817 0.153778 -0.183491 -0.00441588 -0.239687 -0.166818 -0.0547205 -0.0125411 0.0419343 0.23143 0.0485659 0.316539 0.0188748 0.279289 -0.197721 -0.317851 0.141421 -0.104713 -0.338107 0.134525 -0.22519 0.026691 -0.273443 0.0533854 0.159194 -0.426111 -0.352745 -0.0526269 -0.260352 0.311686 0.0526129 0.200754 0.10189 -0.357013 -0.107372 -0.0989872 0.249005 0.0392769 0.0710375 0.0966436 -0.00813082 -0.20201 0.232571 -0.240695 0.270748 0.247345 0.00812461 0.129867 0.0802209 -0.155393 -0.230987 -0.0133553 0.0365055 -0.0540617 0.0916011 0.0914432 -0.0902541 0.0998574 -0.167053 0.0688938 -0.166102 -0.275856 0.00876203 0.245826 -0.0212743 0.187141 -0.196434 0.335331 -0.232296 -0.0374518 -0.0280422 0.0985818
19788368 -0.445696 -0.152203 -0.392332 0.0975843 0.0491338 -0.166092 0.0970295 0.155104 -0.105429 -0.0799562 -0.100438 -0.0187129 0.231674 0.205288 -0.221042 -0.218519 0.345802 -0.105033 -0.0310088 -0.164976 0.0157549 -0.0540749 0.0595288 0.239553 0.00133853 0.219104 -0.025227 0.0663101 -0.396547 -0.195391 -0.268492 -0.069231 0.0489702 0.0442896 -0.117143 -0.15326 -0.0741884 0.211343 -0.00112826 0.200741 0.0604319 0.314593 -0.403991 -0.180151 0.184937 -0.138758 -0.354428 0.139946 -0.0503806 0.0523493 -0.271524 0.039877 0.23685 -0.316227 -0.12268 0.0421178 -0.199079 0.100841 -0.0821463 0.128309 0.0661942 -0.396325 -0.18543 -0.0138095 0.0483851 -0.143474 0.110523 -0.145898 0.162143 -0.380001 0.142107 -0.205551 0.279087 0.117243 -0.276413 0.11744 0.0593452 -0.0456683 -0.379745 0.0866449 -0.0378363 0.0652212 0.180618 0.17939 -0.201145 -0.103527 -0.0586367 0.0636962 -0.0987416 -0.273265 0.0494325 0.147175 0.106596 0.0382309 -0.199627 0.465003 -0.0583473 -0.109228 -0.168691 0.0688428
10350 -0.316127 -0.165359 -0.306252 0.350243 -0.0648779 0.00596333 0.114672 0.122864 -0.142701 0.0308768 -0.149927 -0.0601845 0.097135 0.0406447 -0.154285 -0.116864 0.289219 -0.141431 0.0623185 -0.179976 0.0137076 0.00771324 0.0464818 0.132142 0.143963 0.195668 0.0132363 -0.0998887 -0.196905 -0.168641 -0.159683 -0.0527013 0.0286039 -0.153951 -0.259518 -0.273151 0.00670344 0.249636 -0.172331 0.0062093 -0.0170093 0.3085 -0.184268 -0.192585 0.0406111 0.00744291 -0.363031 0.200895 -0.118615 0.00180733 -0.177678 0.0277919 0.219789 -0.289243 -0.0394075 -0.0294949 -0.180993 0.225102 0.0727212 0.129609 0.0409126 -0.379097 -0.144303 -0.166569 0.0181633 -0.138278 0.132001 -0.0711948 0.133953 -0.355841 0.134252 -0.108044 0.320989 0.102357 -0.181816 0.00584524 0.211464 -0.0222711 -0.174688 0.0781189 -0.0332732 0.189817 0.0562864 0.0996632 0.0226877 -0.0972141 -0.111689 0.0334386 0.00898711 -0.259833 0.00279058 0.173278 -0.00872004 0.0471494 -0.286663 0.387369 -0.176402 -0.00630764 -0.251342 -0.129582
6351922 -0.20093 -0.290334 -0.210328 0.413747 -0.0706495 -0.00432722 0.0417521 0.11202 -0.200173 0.1634 -0.0738353 -0.140765 0.0337999 -0.0776124 -0.334591 -0.272315 0.433406 -0.20734 0.105367 -0.0772851 -0.0339169 -0.013159 0.091485 0.0308241 0.114583 0.0301108 0.0264908 -0.0386253 -0.17687 -0.0983025 -0.189462 -0.0553664 0.191 -0.154261 -0.117342 -0.149167 -0.11315 0.306509 -0.136664 0.0108443 -0.0696431 0.259054 -0.212183 -0.234039 -0.0363526 0.133182 -0.353232 0.0744611 -0.16538 0.044146 -0.00566538 0.183976 0.21656 -0.33713 -0.143986 0.0350528 -0.189499 0.15914 0.224425 0.152052 -0.150421 -0.292953 0.0282227 -0.0940577 0.0265011 -0.11123 0.290062 -0.0443666 -0.106373 -0.384342 0.151317 0.0108729 0.218786 0.188376 -0.0758351 -0.0812722 0.252711 -0.0764713 -0.198845 0.199813 0.0563382 0.080077 0.117963 0.157886 -0.0471075 0.0113117 -0.0387753 0.172993 -0.0930668 -0.427106 0.0709448 0.214799 -0.0505532 -0.112767 -0.128252 0.302413 -0.229976 -0.0029399 -0.310625 -0.192142
819268 -0.458026 -0.210867 -0.27683 0.268657 -0.00454001 0.0875068 -0.013524 0.0535051 -0.0439303 0.252188 0.0895843 -0.379673 -0.200236 -0.114959 -0.393782 -0.033371 0.260046 -0.210078 -0.0455841 -0.266203 -0.0212308 0.0886801 0.160692 0.134629 0.203745 0.133131 -0.0336997 -0.0857561 -0.187004 -0.262154 -0.0264224 -0.138017 0.0939381 -0.0967818 -0.188459 -0.128297 0.0616478 0.279347 -0.291094 -0.0901716 0.0241584 0.29492 -0.117311 -0.21805 0.200672 0.304859 -0.222266 0.0599938 -0.402652 0.090633 -0.230057 -0.0417378 0.0115544 -0.369693 -0.192707 -0.0706112 -0.331323 0.394495 0.271444 -0.160686 -0.0208939 -0.303938 -0.0782649 -0.0773079 -0.0647963 -0.116086 0.145453 -0.0622181 -0.0194477 -0.439817 0.236475 -0.0545877 0.379139 0.243742 0.0931201 -0.00289835 0.220061 0.0345243 0.044686 0.22072 0.021241 -0.237078 -0.0320887 0.217969 0.116532 -0.0424245 -0.273647 0.0764736 0.28817 -0.300094 0.166568 0.417322 -0.21699 0.0571278 -0.310876 0.404601 -0.0352753 0.0758104 -0.171571 -0.242313
776434 -0.283584 -0.176048 -0.364529 0.149956 0.0405479 -0.0215213 0.102788 0.0482798 -0.100962 0.0181878 -0.0427675 -0.128023 0.0983791 0.248298 -0.250273 -0.0609203 0.26935 -0.173881 0.0447148 -0.267523 -0.0522023 0.0325542 0.0923399 0.190452 0.0735295 0.194234 -0.0436714 -0.0250858 -0.218426 -0.103902 -0.215991 -0.0674345 -0.0115229 -0.158491 -0.209732 -0.19612 0.00862436 0.28459 -0.199855 0.0621698 -0.00274389 0.231683 -0.242777 -0.221233 0.279587 0.0138048 -0.239596 0.173004 -0.0636075 0.143803 -0.259824 -0.0551869 0.179534 -0.249188 -0.0634734 -0.0993465 -0.334785 0.383282 0.147247 0.0155696 0.0607162 -0.247283 -0.241808 -0.107246 -0.0351594 -0.12856 -0.0302891 0.0322859 0.0878671 -0.441076 0.181263 -0.0522474 0.233184 0.196459 -0.295259 0.0899527 0.0979932 0.0145429 -0.200576 0.112413 0.0643767 0.166641 0.110369 0.115477 -0.109967 -0.0660881 -0.0725689 0.126054 -0.0398985 -0.266683 0.00534862 0.332318 -0.0457774 0.121715 -0.263182 0.373524 -0.113192 -0.0339028 -0.240762 -0.0742781
817113 -0.381602 0.0119835 -0.344983 0.357036 -0.00894345 0.0427424 -0.067353 0.0901088 -0.377718 0.28358 -0.0897087 -0.398517 -0.194127 0.000754853 -0.202757 -0.0277858 0.367674 -0.431455 0.0739245 0.0302458 0.0834422 -0.0276612 0.137182 -0.0264808 0.250759 0.395287 -0.200398 -0.253865 -0.350338 -0.186492 -0.0206162 -0.137278 -0.00153201 -0.0193568 -0.0607981 -0.139848 0.129394 0.464169 -0.249227 -0.0659298 -0.0614465 0.308136 -0.172672 -0.329747 -0.146596 0.262003 -0.236056 -0.0876156 -0.514329 0.00559727 -0.246186 -0.177117 0.014076 -0.315811 0.0153555 0.130059 -0.244257 0.227259 0.193281 -0.20814 -0.115868 -0.452119 0.0435684 -0.203789 -0.0455968 -0.131587 -0.043755 0.0552401 -0.0984092 -0.304409 -0.075146 0.0603933 0.186285 0.190656 0.124161 0.0223239 0.154746 0.0344561 0.0214297 0.0377391 0.0258512 0.0379215 0.112334 0.143431 0.271178 0.0288448 -0.0608906 0.0361564 0.168587 -0.168356 -0.0242068 0.34823 0.0163075 -0.0674973 -0.406048 0.374391 0.0354863 0.204632 -0.0702602 -0.307527
105314792 -0.567768 -0.236964 -0.285824 0.319728 0.0244195 0.269382 -0.248664 0.183273 -0.22288 0.415919 -0.0912918 -0.472738 -0.075315 -0.0125129 -0.243406 -0.241681 0.291225 -0.508492 -0.0614792 -0.0826932 0.223548 0.0910118 0.0848121 0.108477 0.239511 0.394763 -0.10515 -0.187177 -0.51388 0.0509955 -0.0434625 -0.251605 0.3221 -0.0597817 0.00266186 -0.0511711 -0.106669 0.562004 -0.184369 0.0379511 -0.231979 0.237281 -0.253816 -0.274546 -0.283326 0.217431 -0.279117 0.121567 -0.41501 0.0787053 -0.283028 -0.325022 -0.142846 -0.298234 0.168794 0.0648123 -0.166186 0.213973 0.42381 -0.0543898 -0.116616 -0.464758 -0.0649853 -0.206931 -0.130324 -0.266992 0.00413131 0.043798 -0.0921829 -0.424278 -0.0147567 -0.139608 0.227267 0.26796 -0.0762093 0.221156 0.278613 0.163153 -0.018163 -0.0127845 -0.00358202 0.104862 0.161641 0.155375 0.17944 -0.234463 0.0444528 0.403283 0.16671 0.0561415 -0.0921015 0.543886 0.0279751 -0.108172 -0.446436 0.0945256 0.0794068 0.317191 -0.140808 -0.314777
16969592 -0.426326 -0.245681 -0.253062 0.440525 -0.0266957 0.288681 -0.271738 0.186604 -0.277054 0.50395 -0.0999545 -0.437536 -0.0794524 -0.0345411 -0.155387 -0.229182 0.410689 -0.494608 -0.0901498 -0.0128264 0.0724656 0.0587319 0.152684 0.10847 0.263762 0.413154 -0.125704 -0.283216 -0.51095 0.15373 -0.0729345 -0.125288 0.327472 -0.172213 -0.00809578 -0.016561 -0.105986 0.610886 -0.205331 0.101987 -0.225625 0.261217 -0.237598 -0.344492 -0.358037 0.106864 -0.306089 0.220692 -0.352489 -0.0151266 -0.174475 -0.304377 -0.0339311 -0.296276 0.156856 0.166038 -0.0248967 0.21843 0.370203 0.095491 -0.167025 -0.460314 0.0626928 -0.19752 -0.0502631 -0.144408 0.0642894 0.0676876 -0.199341 -0.283501 0.039833 -0.0785557 0.184823 0.273015 -0.0673322 0.236983 0.332828 0.066436 -0.0193755 0.0262906 0.018605 0.150673 0.191722 0.15352 0.105001 -0.127031 0.0890259 0.448883 0.0302057 0.00578602 -0.0836452 0.413882 0.0353468 -0.143981 -0.313231 -0.0408992 -0.0533085 0.363823 -0.152339 -0.261422
927061 -0.247883 -0.224567 -0.300684 0.453651 -0.218732 0.160799 -0.106318 0.171679 -0.459378 0.383405 -0.172134 -0.139999 0.100329 0.0604581 0.0248339 0.0117345 0.505255 -0.360423 0.163015 0.131235 0.0499834 -0.055251 0.0881555 0.0409378 0.249191 0.293679 -0.0174304 -0.328946 -0.436372 -0.017598 0.016027 0.100052 0.200859 -0.269147 -0.110267 -0.181858 -0.211965 0.489263 -0.373657 -0.023621 -0.140484 0.337653 -0.197499 -0.209765 -0.242523 0.00366069 -0.302395 0.334671 -0.351885 -0.0648946 -0.0970084 -0.124854 0.0727116 -0.171128 0.204641 0.120343 0.0780525 0.0918623 0.17508 0.0865261 -0.250834 -0.389689 0.104382 -0.229471 -0.0763247 0.0272273 0.0908236 0.0952792 -0.178773 -0.186129 0.0415724 0.00971859 0.199998 0.118364 -0.1669 0.18514 0.29833 -0.13111 -0.0409701 0.00150891 -0.0320381 0.27997 0.226833 0.170914 0.0428725 -0.0970403 0.10004 0.0897648 0.0808932 -0.208815 -0.0315336 0.227224 0.16238 -0.0251892 -0.208765 0.0448703 -0.121495 0.128854 -0.319119 -0.138566
1132291 -0.322159 -0.324399 -0.107708 0.325829 -0.112875 0.112473 -0.102029 0.103754 -0.172943 0.23436 -0.299924 -0.11674 0.0737429 0.00832428 -0.262209 -0.213385 0.503869 -0.200165 0.0628522 -0.166926 -0.0603217 0.0789161 0.0808065 0.142926 0.368883 0.282268 -0.109994 -0.098151 -0.386021 0.00340259 -0.0765729 0.0184203 0.0992584 -0.200293 -0.000718609 -0.204917 -0.148969 0.436897 -0.267803 0.0586081 -0.234203 0.285149 -0.158644 -0.15981 -0.270924 0.109303 -0.211808 0.264206 -0.175107 -0.144177 0.00895286 -0.0770044 0.210358 -0.252858 -0.00593366 -0.0405914 0.0347032 0.0596094 0.182215 0.0410703 -0.326333 -0.40464 -0.0192322 -0.315204 0.063477 0.0656216 0.218612 0.124505 -0.223359 -0.283397 0.149922 -0.0379226 0.344609 0.12801 -0.117324 0.101782 0.116729 -0.0136142 -0.0169465 0.0519081 0.12442 0.175663 0.132943 0.148956 -0.0904128 0.0192612 0.0353681 0.00156087 -0.0466693 -0.273177 -0.0710922 0.209318 0.125171 -0.00369856 -0.115266 0.0627582 -0.281772 0.0564041 -0.321274 -0.164813
14413529 -0.291158 -0.152824 -0.168379 0.306715 0.0386287 0.0108905 0.0806449 0.071716 -0.126895 0.151695 -0.142893 -0.198867 -0.0311 0.0317893 -0.31105 -0.154724 0.433879 -0.179982 -0.0544982 -0.301179 -0.142929 0.0842506 0.122743 0.140363 0.311145 0.169967 -0.146552 -0.0281086 -0.340604 -0.08174 -0.0264322 0.0163621 -0.0581051 -0.0724593 -0.103701 -0.0590312 0.0510646 0.3539 -0.172298 0.192616 -0.0571055 0.130557 -0.204165 -0.143558 0.0186937 0.0915625 -0.192331 0.0725782 -0.183121 0.0381286 -0.242732 -0.0872809 0.203804 -0.304485 -0.214757 -0.147507 -0.208558 0.27404 0.167641 -0.221914 -0.141389 -0.298045 -0.141538 -0.18911 0.0779462 0.0788738 -0.00626477 0.14194 -0.0924198 -0.312192 0.161575 -0.189954 0.156868 0.185454 -0.0751423 0.10273 0.0735646 0.0989467 -0.0741908 0.166852 0.0661075 0.0197555 0.0864779 0.136828 -0.0433442 0.0324238 -0.0977053 0.0461045 -0.142997 -0.4472 -0.0371827 0.417768 -0.0482677 0.089711 -0.193787 0.375463 -0.258534 -0.101416 -0.275789 -0.141966
39713219 -0.337925 -0.298729 -0.209962 0.344964 0.0768672 -0.0196706 0.0496157 0.00713048 -0.151982 0.18168 -0.0633827 -0.127968 0.0630811 0.0394881 -0.296778 -0.219479 0.440929 -0.157285 -0.0940177 -0.238989 -0.149625 0.0136918 0.133824 0.203164 0.400905 0.228231 0.00345304 -0.0210897 -0.324968 -0.161658 -0.0453528 0.0076728 0.156689 -0.0801352 -0.0308166 -0.190297 -0.0581127 0.42205 -0.230276 0.148163 -0.104266 0.285968 -0.288065 -0.161504 -0.137977 0.159746 -0.20776 0.164475 -0.241812 -0.133064 -0.107586 -0.031679 0.215151 -0.408895 -0.153226 -0.15835 -0.0454461 0.137579 0.0798233 -0.0857059 -0.261191 -0.354622 -0.025583 -0.255856 0.0111065 0.00964996 0.271858 0.0304517 -0.075133 -0.402378 0.216015 -0.159188 0.263578 0.175485 -0.0605127 0.0317496 0.122394 0.0335375 0.00839687 0.15408 0.122112 0.0618231 0.0960487 0.0823422 -0.141451 -0.0796678 -0.14365 0.0531422 0.0856995 -0.385429 0.00754987 0.355669 0.0157828 0.100698 -0.135765 0.319455 -0.151343 -0.053209 -0.341793 -0.158818
5854642 -0.400745 -0.371276 -0.00572844 0.28821 0.0962991 0.0552604 0.117575 0.152665 -0.169163 0.107662 -0.237177 -0.0495219 0.20057 0.103037 -0.279563 -0.397262 0.461958 -0.0738553 -0.168214 -0.143849 -0.125326 0.153402 0.130143 0.133247 0.409146 0.251557 -0.00466472 0.0514518 -0.451655 0.0655425 -0.128185 -0.0307813 0.136429 -0.160599 0.163819 -0.164347 -0.169424 0.570691 -0.170666 0.209635 -0.155218 0.212483 -0.278907 -0.0726983 -0.196591 0.0166825 -0.304106 0.193303 -0.186722 -0.0973416 -0.166689 -0.0526971 0.177859 -0.445418 -0.160462 -0.169553 0.047829 -0.0399412 0.12917 -0.0753817 -0.269314 -0.334428 -0.0251861 -0.338805 0.112417 0.0568099 0.252334 -0.00780142 -0.0696795 -0.32194 0.164976 -0.321203 0.168831 0.117574 -0.085015 0.167473 0.0135358 0.0226952 0.0336143 -0.0281603 0.01882 0.0551092 0.113638 0.110341 -0.223812 -0.20873 -0.0884061 0.0600895 0.13124 -0.290236 -0.150055 0.297572 0.315886 0.0762894 -0.170052 0.225836 -0.179618 -0.183637 -0.346094 -0.0335436
216434235 -0.4127 -0.25202 -0.124867 0.291424 0.121954 -0.0161895 0.0805581 0.0204199 -0.131755 0.0686717 -0.117008 -0.124798 0.1077 0.0448718 -0.293619 -0.354325 0.426537 -0.105361 -0.234074 -0.304024 -0.0867773 0.0850584 0.212871 0.222109 0.318582 0.281818 -0.057828 0.00231209 -0.334879 -0.011357 0.00195888 -0.0230481 0.0566649 -0.0337477 -0.0347694 -0.0402342 -0.0246562 0.472774 -0.120123 0.252429 -0.0170398 0.208768 -0.346685 -0.156666 -0.108551 0.13147 -0.247851 0.0436061 -0.212816 -0.106625 -0.204189 -0.0702817 0.314868 -0.476358 -0.30157 -0.16259 -0.0954309 0.166822 0.0214285 -0.179944 -0.106577 -0.372177 -0.123803 -0.281811 0.087187 0.0239212 0.139697 0.0183133 0.0196866 -0.377885 0.223917 -0.240689 0.20132 0.171257 -0.115525 0.051184 0.0242758 0.101118 -0.0851638 0.0714842 0.0127286 0.0580534 0.129062 -0.0208329 -0.146294 -0.141147 -0.196862 0.10043 -0.0126092 -0.352103 -0.022607 0.446392 0.0366104 0.152631 -0.133243 0.458588 -0.133962 -0.131151 -0.291513 -0.092432
11740902 -0.301571 -0.254257 -0.174292 0.331591 -0.0277928 0.0376208 -0.0844556 -0.0268719 -0.192783 0.121698 -0.238039 -0.065933 0.12003 -0.0519971 -0.317133 -0.267703 0.408074 -0.0537935 0.0449881 -0.259344 -0.0453966 0.0853902 0.0828032 0.147846 0.364086 0.0879126 -0.162324 -0.0175865 -0.356709 -0.0942358 -0.0595252 0.00509456 0.144731 -0.137511 -0.0521768 -0.203139 -0.0542518 0.28792 -0.219957 0.082152 -0.143061 0.283455 -0.273954 -0.115952 -0.0901015 0.0924711 -0.306684 0.148903 -0.123162 0.0436848 -0.0445734 -0.0304272 0.202032 -0.272882 -0.12151 -0.106436 -0.100777 0.0324941 0.154525 -0.0576583 -0.199512 -0.288174 -0.0702437 -0.150601 0.0826435 0.0334774 0.147734 0.0328039 -0.079732 -0.366125 0.217353 -0.158352 0.388919 0.135432 -0.159978 0.0307031 0.0909995 0.0677703 -0.0420296 0.175683 0.0419809 0.060939 0.100854 0.196695 -0.120529 -0.0413109 -0.00818002 -0.0220766 -0.0900646 -0.346841 -0.0909837 0.249658 0.0743217 -0.040069 -0.0852917 0.277748 -0.238347 -0.103585 -0.337947 -0.172426
53131734 -0.304249 -0.26379 -0.157187 0.335532 -0.0725763 0.267551 -0.171326 0.21645 -0.236019 0.333371 -0.326425 -0.269395 -0.0176747 -0.0263965 -0.167195 -0.233608 0.587062 -0.131401 -0.0144417 0.104263 0.0455365 0.0246276 0.134348 0.0114204 0.206992 0.1679 -0.140844 -0.246843 -0.49783 0.0404886 -0.213771 -0.0513595 0.166883 -0.405224 -0.00861994 -0.243682 -0.153554 0.4907 -0.135822 0.0879506 -0.111101 0.353271 -0.228972 -0.273268 -0.186119 0.0203779 -0.452787 0.231849 -0.256204 -0.0101054 -0.101892 -0.0959713 0.142734 -0.269025 0.0138087 0.118901 -0.030455 0.0438409 0.18406 0.238643 -0.182446 -0.47362 0.104461 -0.130136 0.244585 0.0975956 0.25778 -0.135837 -0.150085 -0.19419 0.0401022 -0.154787 0.261716 0.206263 -0.03028 0.275103 0.235973 -0.118282 -0.0868288 0.0259078 -0.129046 -0.0175193 0.135064 0.230296 -0.0750116 0.0595204 0.109973 0.121947 -0.0170973 -0.100553 -0.043066 0.0864338 0.160084 -0.0981645 -0.316662 0.00429639 -0.229762 0.184178 -0.180705 -0.10832
7598542 -0.249612 -0.148907 -0.357483 0.136197 0.0421571 -0.00745542 0.155331 0.123931 -0.0353869 0.100975 -0.072532 -0.173108 -0.0438205 0.251964 -0.211619 -0.137712 0.395778 -0.170577 0.0100817 -0.238279 -0.105159 0.0102435 0.211511 0.156792 0.0116773 0.155308 -0.0133358 -0.0560845 -0.24409 -0.0336855 -0.215374 -0.0153029 -0.0863891 -0.173184 -0.102342 -0.155687 0.0261476 0.348404 -0.19122 0.00651173 0.0749075 0.295177 -0.257194 -0.324136 0.179824 0.0032145 -0.331196 0.0592972 -0.113982 0.143943 -0.263687 -0.0326093 0.233475 -0.269546 -0.103145 -0.0598583 -0.262201 0.360963 0.119779 -0.106113 0.00558175 -0.289992 -0.184694 -0.0671047 0.10732 -0.0513405 -0.0889938 0.0645227 0.058317 -0.477144 0.124114 -0.0329611 0.0658464 0.108792 -0.259495 0.0536422 0.0508305 -0.0673859 -0.211905 0.134643 0.0135755 -0.00814421 0.140609 0.213278 -0.159121 -0.0576135 -0.049898 0.106216 -0.11226 -0.356529 0.0705751 0.213162 -0.0153649 0.165669 -0.183706 0.341075 -0.182097 -0.0395503 -0.238662 0.0101505
2232241 -0.285653 -0.205245 -0.295883 0.162759 0.0194999 0.0196716 0.059604 0.0769834 -0.108876 0.040358 -0.0806558 -0.273506 0.0128314 0.110321 -0.238368 -0.170488 0.311482 -0.115392 0.0357924 -0.226035 0.00981369 -0.00845999 0.189996 0.15862 0.0242689 0.141005 -0.0610614 0.00624362 -0.262201 -0.127023 -0.182895 -0.0419987 0.00705018 -0.0670223 -0.124175 -0.091827 -0.00557917 0.27341 -0.11857 0.0130576 0.0884554 0.214577 -0.292308 -0.222205 0.0432381 0.148699 -0.323383 0.0279836 -0.0748837 0.100647 -0.16689 -0.0303304 0.27202 -0.316957 -0.145685 -0.0513077 -0.297117 0.328562 0.0965502 -0.178191 -0.0710171 -0.368887 -0.193502 -0.0618852 0.00975195 -0.162236 0.00762356 0.0517245 -0.0503246 -0.454495 0.0812667 -0.0368564 0.216927 0.219878 -0.218693 0.0598522 0.194948 -0.0125717 -0.307519 0.108065 0.0161132 0.114347 0.126653 0.176343 -0.0708265 0.0212826 -0.0122213 0.119127 -0.116154 -0.298153 -0.0340397 0.286176 -0.118549 -0.0207119 -0.160556 0.456891 -0.185684 -0.0478091 -0.188141 -0.178698
12853322 -0.327925 -0.178123 -0.380971 0.136284 -0.00222029 -0.0787393 0.106474 0.0443515 -0.0840284 -0.0372095 -0.0426335 -0.0799895 0.109472 0.245467 -0.188545 -0.177249 0.280432 -0.170635 0.0845532 -0.249976 0.0383627 0.0212936 0.169205 0.194836 0.000385772 0.215714 0.0170502 -0.00523407 -0.255457 -0.197937 -0.244522 -0.0615656 -0.071433 -0.0543029 -0.0897536 -0.287721 0.00406412 0.34665 -0.126017 0.0292845 0.0791078 0.336347 -0.22758 -0.28085 0.158711 -0.00794441 -0.386889 0.102887 -0.103025 0.0314912 -0.243687 0.0352084 0.278214 -0.279007 -0.0311704 -0.0317417 -0.201754 0.241092 0.013072 -0.0249918 0.0248644 -0.3863 -0.147529 -0.135195 0.0610974 -0.13836 -0.0745841 -0.0307787 0.121253 -0.430862 0.0819855 -0.00623938 0.218608 0.122895 -0.286606 0.0857852 0.0883506 0.0455274 -0.302757 0.0498456 0.0580855 0.143554 0.124523 0.211069 -0.237725 -0.0878685 -0.12022 0.065185 0.0166427 -0.197714 0.0579322 0.130092 0.0560123 0.0859729 -0.293803 0.398854 -0.146292 -0.0755789 -0.147146 0.0530698
2525131 -0.246436 -0.0895877 -0.338861 0.03562 -0.0048774 -0.067069 0.0615147 0.0951231 -0.200775 -0.0130368 -0.151932 -0.0962441 0.0494909 0.117513 -0.238161 -0.139291 0.344757 -0.246027 0.0893097 -0.0852315 0.026964 0.0659446 0.101031 0.154197 0.147814 0.178264 -0.113689 -0.0174657 -0.29773 -0.126058 -0.30735 -0.0671121 -0.01658 -0.0722107 -0.046029 -0.390077 -0.0854423 0.231282 -0.195765 -0.0397264 -0.107023 0.28651 -0.221105 -0.150395 0.149304 -0.0366849 -0.336908 0.120775 -0.136975 0.107776 -0.186594 0.0528009 0.0713161 -0.23639 -0.0271799 -0.0524704 -0.236439 0.0896298 0.0771178 0.0530776 -0.0828582 -0.42285 -0.141708 -0.120364 0.127092 -0.0495754 -0.00240132 0.0133315 -0.105048 -0.408084 0.0722087 -0.160204 0.345646 0.0920347 -0.173231 0.129592 0.0835396 0.0426864 -0.188752 0.119409 0.0494035 0.0372974 0.149173 0.299518 -0.069408 0.0643369 -0.00698564 -0.0503015 0.00480771 -0.309206 -0.108552 0.0824421 0.105472 0.0138305 -0.282272 0.331598 -0.218742 -0.121886 -0.166357 -0.00561302
14860850 -0.268095 -0.18169 -0.284357 0.243936 -0.104682 -0.0163882 0.0716946 0.118093 -0.103506 0.149557 -0.143228 -0.129233 0.0835672 0.162416 -0.319112 -0.121211 0.420908 -0.182628 0.103371 -0.220574 -0.109703 0.0606597 0.0978378 0.166896 0.0918835 0.0709913 -0.0546687 -0.0124353 -0.353803 -0.105902 -0.271449 -0.00320197 -0.0108073 -0.13613 -0.149845 -0.192721 -0.0588141 0.199364 -0.184673 0.0547906 -0.040523 0.374175 -0.216203 -0.342598 0.216928 -0.0762632 -0.316656 0.250411 -0.219961 0.0968503 -0.138997 0.0538238 0.152389 -0.261176 -0.10787 -0.00932176 -0.171412 0.233464 0.0857018 0.0829712 -0.0839574 -0.24137 -0.0742247 -0.00255318 0.104494 -0.0602448 0.103869 -0.0238576 -0.125617 -0.366528 0.22435 -0.0175184 0.316056 0.14205 -0.174615 0.0329904 0.0619504 -0.177797 -0.207971 0.101242 0.0676463 -0.0476967 0.16536 0.336701 -0.0578497 0.0399174 -0.0244563 0.0545503 -0.102289 -0.358897 0.0680731 0.127268 0.0596289 0.0134806 -0.143869 0.210808 -0.267893 -0.0793823 -0.248227 -0.0235672
657863 -0.199367 -0.119712 -0.308493 0.311227 -0.0163899 -0.0239824 -0.000112922 -0.00327349 -0.1456 0.109066 -0.195819 -0.0757079 0.0330585 0.0466801 -0.213655 -0.195699 0.387211 -0.171393 0.119571 -0.223699 0.0825191 0.00932619 0.0337795 0.153433 0.244741 0.0877682 -0.0514188 -0.0537496 -0.310915 -0.0945631 -0.181637 -0.0502652 0.100683 -0.0924844 -0.0903297 -0.264164 -0.0824747 0.273925 -0.194599 0.0665203 -0.0718837 0.304704 -0.180898 -0.29367 0.0937052 -0.0162727 -0.378431 0.100634 -0.0907636 0.118362 -0.195944 0.0969865 0.251064 -0.213534 -0.0329064 0.0179066 -0.209215 0.123779 0.145746 0.206495 -0.0249023 -0.326191 -0.0282113 -0.13769 0.115516 -0.0435885 0.00654957 -0.0923852 0.0581052 -0.421241 0.15263 -0.111734 0.283647 0.0446229 -0.132229 -0.00352174 0.10665 0.0717852 -0.162621 0.164473 0.092875 0.125331 0.124211 0.19371 -0.115869 -0.00601312 -0.0557391 0.0971745 -0.0941101 -0.318543 -0.0281212 0.173372 -0.0436455 0.12009 -0.290991 0.239136 -0.170331 0.0351692 -0.227202 -0.0108745
6015962 -0.320335 -0.121967 -0.308073 0.138261 0.0322791 -0.143517 0.0436838 0.104458 -0.144031 0.0404566 -0.181458 -0.112774 0.0612486 0.174316 -0.218301 -0.142416 0.315039 -0.251262 0.127224 -0.226346 -0.00622888 -0.00628155 0.0323226 0.2172 -0.00062641 0.162657 -0.0449501 0.0519282 -0.35834 -0.131915 -0.229021 -0.0646522 -0.0738808 0.0178769 -0.0875318 -0.131067 -0.0773695 0.0954255 -0.154696 0.0933801 -0.0301358 0.333463 -0.305714 -0.257579 0.233476 -0.0768012 -0.357697 0.105627 -0.0605108 0.114455 -0.185211 0.0333908 0.211027 -0.25968 -0.0623681 0.102611 -0.306623 0.200257 0.0937395 0.0841305 0.013542 -0.30025 -0.162839 -0.0456391 0.0430528 -0.0975646 0.0138891 -0.0532511 0.0236266 -0.456246 0.20503 -0.0861306 0.36612 0.0994367 -0.218371 0.0206893 -0.0291033 0.00326476 -0.346684 0.100941 0.0429237 -0.0333376 0.21288 0.266511 -0.0667171 -0.0138716 -0.04093 0.0597101 -0.148041 -0.298404 0.0723021 0.171543 0.0184569 0.00797959 -0.270136 0.448542 -0.104562 -0.0010542 -0.180343 -0.0241541
14964953 -0.301811 -0.116356 -0.394728 0.0673627 -0.00646711 -0.103601 0.0754026 0.000932806 -0.07898 0.0803251 -0.133231 -0.183882 0.0352585 0.285354 -0.295998 -0.133583 0.392369 -0.216661 0.0020169 -0.170729 0.0609799 0.0774648 0.162753 0.207554 -0.0187477 0.0749701 -0.0423444 0.109806 -0.464118 -0.101215 -0.299735 -0.0978014 -0.0955671 0.0562497 0.00302241 -0.0915174 -0.037568 0.327022 -0.135067 0.028171 0.182912 0.356014 -0.305648 -0.340187 0.266788 -0.00101945 -0.336294 0.0807624 -0.248367 0.1956 -0.282596 0.0198306 0.191193 -0.225799 -0.145559 0.00494392 -0.198633 0.245721 0.0274748 -0.217815 0.000913614 -0.286809 -0.0957936 0.0302114 0.0442603 -0.0665359 -0.0495807 -0.0542089 -0.0677607 -0.483783 0.111213 -0.0429292 0.211211 0.0700355 -0.226196 0.125184 -0.055917 -0.0512583 -0.261187 0.0621006 0.0489111 -0.0819385 0.238679 0.328817 -0.130217 -0.070489 -0.049778 0.0472926 -0.0744156 -0.285947 0.0908186 0.168432 0.0516717 0.165321 -0.224398 0.332514 -0.143903 -0.0784208 -0.140195 0.0878658
8941332 -0.356051 -0.183412 -0.407491 0.12532 -0.0167475 -0.0579634 0.127995 0.202206 -0.138262 0.104677 -0.149584 -0.141088 0.13013 0.144846 -0.136236 -0.0289174 0.414455 -0.106397 0.145362 -0.176901 -0.0306027 0.00533466 0.144636 0.169821 -0.0123633 0.152249 0.0117975 0.060439 -0.398532 -0.148862 -0.253906 -0.0148233 -0.0742264 0.0130091 0.0158034 -0.167862 -0.0825764 0.236534 -0.161756 0.000336712 0.0822334 0.343429 -0.194292 -0.182694 0.110951 -0.116165 -0.41212 0.182186 -0.0407919 0.143622 -0.288684 0.0184427 0.193569 -0.235074 -0.104869 0.0161927 -0.222097 0.219198 0.0804224 0.0122745 -0.0503539 -0.3086 -0.116435 -0.0802802 -0.0122317 -0.110664 0.0430658 0.0721648 -0.0177206 -0.401136 0.105598 -0.131041 0.192596 0.114298 -0.246169 0.173706 0.158533 -0.105681 -0.33298 0.137661 0.0229859 0.036486 0.165489 0.272107 -0.164572 0.00516743 -0.0315694 0.0528031 -0.106356 -0.315473 -0.0196412 0.0373634 0.00442674 0.063362 -0.292886 0.399773 -0.190026 -0.149566 -0.132341 0.00406476
7161172 -0.130017 -0.130684 -0.331843 0.460083 -0.119775 -0.00828498 0.0243019 -0.0592733 -0.241411 0.165776 -0.218205 0.0100968 0.172151 0.0816193 -0.273907 -0.24375 0.465827 -0.156363 0.0133785 -0.22955 -0.0712233 -0.00102025 0.105406 0.274276 0.378409 0.137647 -0.0645983 -0.0540082 -0.311442 -0.0309795 -0.121162 0.0955358 0.170812 -0.164976 -0.151028 -0.223147 -0.108041 0.320197 -0.233032 0.0562442 -0.0692403 0.309829 -0.31936 -0.380099 -0.106142 -0.0987349 -0.279981 0.239607 -0.263154 -0.105532 -0.0249652 0.114521 0.192786 -0.313919 -0.0223871 -0.16659 0.00219769 0.0783409 -0.0312147 0.168341 -0.119119 -0.272829 0.0967843 -0.203317 0.125132 -0.0382946 0.184441 0.0675171 -0.107286 -0.318157 0.238738 -0.180251 0.29705 -0.014224 -0.169459 -0.108668 0.0807579 -0.0202339 -0.0844156 0.114526 0.122082 0.226893 0.184793 0.119648 -0.0939353 -0.0837287 0.012248 0.0573972 -0.182856 -0.360324 -0.0367021 0.15918 0.0881259 0.125788 -0.0804703 0.0515505 -0.346583 -0.0362543 -0.35321 0.00907723
14090558 -0.148233 -0.29131 -0.234981 0.450412 -0.0263674 0.11866 0.0285247 0.0537744 -0.17467 0.294534 -0.283948 -0.155721 0.000476052 -0.0534659 -0.129801 -0.199305 0.568173 -0.0159757 -0.0212778 -0.146542 -0.159437 0.0289145 0.220566 0.0463789 0.336528 0.214342 -0.0639404 -0.210756 -0.286422 0.0459659 -0.139565 0.160399 0.112623 -0.367178 -0.00721618 -0.310991 -0.0584483 0.432816 -0.338494 -0.0502291 -0.0271343 0.295978 -0.185316 -0.299575 -0.239891 0.0317285 -0.458491 0.223745 -0.108741 -0.10787 0.0221667 -0.000565431 0.361747 -0.349988 -0.130961 -0.00353372 -0.0047362 0.184556 0.115782 0.115121 -0.270319 -0.435574 0.110627 -0.250256 0.202119 0.130471 0.238102 0.0698346 -0.171136 -0.29619 0.160337 -0.0517046 0.22416 0.0889118 -0.0905965 0.101933 0.239982 -0.0802105 -0.0047454 0.183925 0.0386121 0.104207 0.0801188 0.0948777 -0.187724 0.0972546 0.0357391 0.125515 -0.0552699 -0.337993 -0.099804 0.071658 0.025772 0.0621717 -0.106538 0.0594596 -0.400505 0.0876288 -0.348837 -0.105868
1378831 -0.273218 -0.278182 -0.372603 0.315314 -0.011137 0.0461263 0.0515008 -0.0757337 -0.153117 0.212864 0.188635 -0.279745 -0.131346 -0.0883708 -0.376849 -0.0856375 0.347999 -0.0765401 -0.0248207 -0.283509 -0.123808 0.0836207 0.245436 0.175875 0.285942 0.0470769 0.0156091 -0.116397 -0.0698826 -0.304943 -0.124547 -0.0764151 0.129236 -0.117585 -0.133732 -0.28192 0.022116 0.311287 -0.345358 -0.152816 0.0999059 0.359596 -0.14875 -0.218027 0.17341 0.296121 -0.27475 0.0532308 -0.424843 0.044241 -0.124778 0.135237 0.0284552 -0.439729 -0.24084 -0.174915 -0.333049 0.315051 0.153234 -0.0884042 -0.103826 -0.304707 0.0621369 -0.1321 -0.00595869 -0.072744 0.337024 -0.0319871 -0.114268 -0.485196 0.253643 -0.0417052 0.409637 0.270589 0.10026 -0.103304 0.289044 -0.0473153 -0.00556369 0.285392 0.160171 -0.116682 0.0507923 0.134976 -0.00468593 0.0186509 -0.323035 0.0178653 0.272931 -0.392405 0.136201 0.325621 -0.251474 0.128737 -0.21893 0.411137 -0.128071 -0.00632209 -0.21339 -0.147671
5768872 -0.266858 -0.279751 -0.205001 0.364646 -0.0847571 0.0378474 -0.0960185 -0.00194706 -0.271271 0.134743 -0.0463576 -0.134994 0.0913554 -0.132199 -0.313458 -0.210272 0.336848 -0.266366 0.0240421 -0.120524 0.0640697 0.0169337 0.116432 0.181924 0.206614 0.0919234 -0.0457652 -0.0917161 -0.155911 -0.0578922 -0.0595683 -0.0528585 0.175153 -0.152378 -0.185628 -0.161068 -0.111941 0.341258 -0.162958 -0.0103978 -0.10427 0.265553 -0.171656 -0.163709 0.106886 0.106445 -0.319117 0.137261 -0.148408 0.0357376 -0.0804442 0.105897 0.237921 -0.269718 -0.181139 -0.000625305 -0.156348 0.173102 0.194525 0.0929076 -0.027289 -0.299146 -0.0407449 -0.193983 -0.0138482 0.0121785 0.147743 -0.0712992 0.00972979 -0.313434 0.237673 -0.0492494 0.338172 0.133907 -0.0685858 0.0600395 0.200793 0.101108 -0.117305 0.201326 0.0380857 0.0631835 0.127346 0.0883176 -0.0404282 -0.0622108 -0.155716 0.108949 -0.0566539 -0.398303 0.117591 0.305659 0.00108863 -0.0162299 -0.183686 0.304925 -0.18029 -0.0532069 -0.247621 -0.121287
14414022 -0.194434 -0.352755 -0.215255 0.386925 -0.151444 0.111793 0.0865192 0.113927 -0.26433 0.190024 -0.0949114 -0.0942308 0.168842 0.0926874 -0.206185 -0.163431 0.449676 -0.176886 0.0941923 -0.130667 0.0200538 0.0864207 0.0915564 0.0966987 0.135423 0.057661 0.0471948 -0.112861 -0.283434 0.0222394 -0.213842 -0.00894107 0.17869 -0.235019 -0.133706 -0.185784 -0.188248 0.310499 -0.262491 -0.052593 -0.0235761 0.297113 -0.202784 -0.244463 0.00183414 0.0323254 -0.369391 0.341824 -0.206671 -0.00703603 0.00293407 0.106642 0.154411 -0.318173 -0.0995618 0.0162838 -0.0654269 0.224769 0.151085 0.14372 -0.193063 -0.326028 0.0219868 -0.133711 -0.0757211 -0.087823 0.258586 0.00283105 -0.19544 -0.329313 0.178157 0.0525999 0.348216 0.171876 -0.162116 0.047926 0.297815 -0.206763 -0.212983 0.0769167 0.0880278 0.216844 0.168669 0.162538 0.0151064 -0.0562174 -0.00414899 0.166577 0.0343589 -0.331495 0.00886234 0.216053 0.0676922 -0.0223331 -0.0219383 0.0953892 -0.222763 0.0179032 -0.380237 -0.0938789
2230871 -0.351266 -0.120423 -0.441771 -0.0220599 0.00846703 -0.0447857 0.0757911 0.169181 -0.0666159 0.0971627 -0.0128111 -0.148142 0.0663322 0.215262 -0.261266 -0.0327775 0.358101 -0.174914 0.19577 -0.275929 -0.0357354 0.0320634 0.0684941 0.176043 0.0648264 0.18259 -0.0757336 0.0696523 -0.372231 -0.190168 -0.219102 -0.0697957 -0.0403297 -0.0343518 -0.0693287 -0.262145 -0.108439 0.293732 -0.164053 0.0045791 -0.0657174 0.260768 -0.157879 -0.134806 0.223085 -0.0176253 -0.28141 0.197931 -0.161241 0.135436 -0.317867 -0.0134952 -0.00774477 -0.206135 -0.000883171 -0.206547 -0.329506 0.231127 0.229278 0.00546265 0.0142561 -0.272164 -0.204133 -0.0807465 0.0112452 -0.138181 -0.0499887 0.232226 -0.0552025 -0.424475 0.108255 -0.181196 0.263299 0.18175 -0.26511 0.127049 0.114651 0.0216486 -0.235388 0.141492 0.140618 0.0840305 0.0744923 0.317385 -0.0998177 -0.0216946 -0.0625309 0.0445048 -0.009862 -0.259071 -0.0194584 0.230914 -0.0269701 0.054794 -0.379084 0.359669 -0.116869 -0.112471 -0.126116 0.0155217
190464484 -0.343622 -0.143707 -0.326032 0.106278 -0.113898 -0.0346018 0.0437335 0.191853 -0.155532 0.0505539 -0.0600774 -0.131611 0.0627674 0.239907 -0.15614 -0.0531264 0.400754 -0.339533 0.16566 -0.228359 -0.0381844 0.0218745 0.121732 0.289727 -0.0721993 0.195552 0.0331089 -0.0172134 -0.406146 -0.227116 -0.286876 -0.0524082 -0.191243 0.0479159 -0.149726 -0.176404 -0.0954489 0.198492 -0.0281357 0.108517 -0.0093232 0.403516 -0.236348 -0.281127 0.175064 -0.177452 -0.279187 0.287118 -0.171048 0.0299515 -0.268005 -0.0440068 0.138385 -0.2245 -0.0173282 0.109406 -0.181528 0.247641 0.0215782 0.0712863 -0.0054649 -0.37414 -0.147603 -0.0722882 0.0344129 -0.102244 -0.059946 0.0120997 -0.105163 -0.325572 0.0850655 0.00495713 0.261077 0.191168 -0.294565 0.139106 0.0784076 -0.0784101 -0.445983 0.0282203 0.150294 0.119433 0.248186 0.338614 -0.0830587 0.047693 -0.0378807 0.0727832 -0.228423 -0.243958 0.138508 0.105979 -0.00568952 -0.0182286 -0.231423 0.399995 -0.229454 -0.0980668 -0.136529 0.0232395
14792336 -0.312431 -0.153435 -0.310651 0.0947028 0.00634231 -0.103944 0.150526 0.179124 -0.165519 0.00687675 -0.0569201 -0.0835718 0.120322 0.275399 -0.0914648 -0.0962513 0.366984 -0.242617 0.166801 -0.233228 -0.0665344 0.00608986 0.0899859 0.238498 -0.0210675 0.219252 0.101593 0.0114616 -0.447453 -0.240449 -0.301215 -0.0496929 -0.145203 0.0421946 -0.0796925 -0.278786 -0.0985266 0.200752 -0.0444665 0.152736 -0.0236015 0.421585 -0.247139 -0.23547 0.23558 -0.196678 -0.392359 0.290612 -0.116602 0.0010397 -0.312565 0.00626483 0.141303 -0.30055 -0.0117348 0.0196443 -0.176786 0.123496 0.0394963 0.153629 -0.00532951 -0.29963 -0.132689 -0.14648 0.0609598 -0.0982525 -0.0356619 -0.0121267 -0.00539027 -0.330566 0.0923582 -0.0868949 0.216075 0.164822 -0.277444 0.0872584 0.0435132 -0.0672894 -0.373161 0.0400432 0.135623 0.132774 0.218971 0.305973 -0.159515 0.0117492 -0.0851712 0.0507249 -0.0904907 -0.20807 0.0536377 0.0986452 0.056964 0.0396811 -0.27317 0.473079 -0.104738 -0.179729 -0.166539 0.0762312
774096 -0.292062 -0.212531 -0.392614 0.234582 0.0396169 -0.0309692 -0.112793 0.0839649 -0.0835287 0.180946 -0.0828027 -0.0539894 0.083762 0.114958 -0.200213 -0.0224825 0.419218 -0.0252192 0.137262 -0.101062 -0.0207753 -0.115141 0.0925162 0.150856 0.0948397 0.166136 0.049841 0.0643088 -0.355859 -0.425908 -0.155722 -0.0131778 0.169671 -0.115023 -0.0501182 -0.298584 -0.161468 0.331881 -0.272791 -0.02255 -0.0270571 0.342354 -0.356144 -0.179065 0.153742 0.0209569 -0.345475 0.29724 -0.19755 -0.0344157 -0.132341 0.00697736 0.138864 -0.226229 -0.0275839 -0.0327367 -0.122794 0.0612976 -0.000849465 -0.00965272 -0.0845869 -0.194002 0.0275571 -0.0474462 0.0147975 -0.0227715 0.261536 -0.0515342 -0.0943625 -0.30856 0.234929 -0.0552471 0.276406 0.200661 -0.211289 0.0762697 0.124218 -0.00633865 -0.176119 0.216073 0.0625097 -0.0553327 0.165601 0.196135 -0.19529 -0.0377124 -0.0451644 0.0721692 -0.00788441 -0.219828 0.0751705 0.090142 0.0195687 -0.0806539 -0.276572 0.31077 -0.109192 -0.089747 -0.27098 -0.0722284
2146141 -0.343859 -0.107077 -0.26901 0.276368 0.114848 -0.0219386 -0.0182488 -0.0873742 -0.213282 0.0222022 -0.0215591 -0.0992204 0.0499194 0.0264917 -0.28331 -0.27342 0.393599 -0.108712 -0.279932 -0.308137 -0.212162 0.0768063 0.275017 0.297231 0.267379 0.16342 -0.203687 -0.0601263 -0.244295 0.0282167 -0.134793 0.0200414 -0.0156072 -0.102794 -0.106114 -0.00802665 0.0740063 0.400932 -0.113011 0.229072 0.0434508 0.234628 -0.340229 -0.157686 0.0802171 0.00760942 -0.242137 0.0729084 -0.201907 0.0534337 -0.171484 -0.0515541 0.274027 -0.406648 -0.278928 -0.125543 -0.200135 0.211171 0.0300023 -0.0676184 0.0801292 -0.302394 -0.113379 -0.139334 0.0671439 0.0703161 0.0582502 0.0782718 0.0339862 -0.336588 0.336057 -0.222214 0.281279 0.185018 -0.112947 0.0735985 0.0318984 0.123139 -0.132391 0.173482 0.0377074 0.0320363 0.189997 0.0412556 -0.103015 -0.111427 -0.214684 0.103491 -0.217581 -0.35495 -0.0365997 0.376005 0.00562584 0.0988839 -0.0986107 0.479124 -0.183192 -0.133375 -0.197846 0.0074549
14143533 -0.468597 -0.109491 -0.193242 0.235481 0.0204461 -0.104859 0.0408903 0.0163021 -0.142402 0.0715967 -0.152423 -0.150309 -0.0260296 0.00477001 -0.242399 -0.187993 0.42863 -0.138624 -0.16158 -0.331477 -0.110041 0.0244192 0.213676 0.25464 0.13121 0.141706 -0.0775064 0.0565134 -0.392604 -0.114678 -0.0651066 0.0481542 -0.112391 -0.010609 -0.120658 0.0846374 -0.0359612 0.294758 -0.13157 0.187287 0.161037 0.267196 -0.332187 -0.136778 0.0451265 0.069967 -0.259136 0.121168 -0.186814 0.0150187 -0.185424 -0.0617509 0.412262 -0.4039 -0.284701 -0.0283959 -0.111727 0.234875 0.0419106 -0.186551 -0.00442457 -0.364752 -0.107742 -0.0987172 0.0324857 0.0452864 0.0997859 0.0144468 0.0109341 -0.404996 0.307786 -0.226116 0.307216 0.0803399 -0.134848 0.0840235 0.014319 0.03818 -0.1853 0.122835 -0.0574701 -0.0808495 0.146641 0.204785 -0.0421788 -0.0633769 -0.123847 0.00549564 -0.145453 -0.392451 0.0699676 0.346292 -0.0784008 0.058632 -0.071993 0.566603 -0.214993 -0.132838 -0.235144 -0.0864271
3253121 -0.368931 -0.152417 -0.407452 0.173828 0.0242318 -0.0855912 0.160059 0.0429218 -0.209882 0.12162 0.00481731 -0.1376 0.0647586 0.169069 -0.108953 -0.138341 0.328035 -0.102912 0.0444906 -0.316189 -0.124294 -0.0046758 0.0981579 0.215759 0.0978106 0.188463 -0.0326498 -0.0450481 -0.408574 -0.192579 -0.268228 -0.0337059 0.00179364 0.0526165 -0.0184926 -0.175841 -0.0269341 0.146063 -0.100259 0.160001 0.101854 0.283765 -0.316884 -0.186533 0.141819 -0.108982 -0.355911 0.0931571 -0.0912782 0.0821978 -0.328718 0.00300761 0.0712138 -0.347296 -0.0393341 -0.0383219 -0.280845 0.156153 0.0644577 0.123167 -0.0466024 -0.307352 -0.0317373 -0.0736606 0.0187352 -0.156704 0.0913109 0.0422958 0.0835785 -0.404123 0.0858757 -0.25686 0.204309 0.197586 -0.213457 0.0555486 0.124396 -0.0878291 -0.35038 0.156498 0.119309 0.0966818 0.188042 0.216701 -0.191407 0.0264763 -0.0111295 0.0735238 -0.0619234 -0.195924 0.0215738 0.161435 -0.071915 0.0488734 -0.235355 0.383013 -0.0520061 -0.0493912 -0.119517 0.0103793
14645160 -0.444274 -0.15305 -0.418925 0.0747087 -0.0887443 -0.106236 0.0669443 0.0794709 -0.134016 0.113051 -0.113228 -0.0982031 0.0812605 0.136604 -0.230894 -0.0220685 0.254078 -0.227077 0.0480662 -0.211778 -0.0893647 0.0261697 0.159771 0.236751 0.0461082 0.278495 -0.0946894 0.00666545 -0.30711 -0.218414 -0.237678 -0.056235 -0.0739063 0.0111277 -0.0934451 -0.281863 -0.057849 0.154279 -0.230604 -0.0979921 -0.00150379 0.275444 -0.304262 -0.174139 0.240809 -0.10394 -0.317678 0.161881 -0.205148 0.0872843 -0.236268 -0.0563485 0.0941056 -0.291381 -0.0392948 -0.0551981 -0.263022 0.236985 0.0626824 -0.0223632 -0.0144033 -0.310745 -0.155539 -0.0807628 0.0131426 -0.100958 0.023598 0.109485 -0.012891 -0.430824 0.131929 -0.120971 0.324759 0.127773 -0.293145 0.103044 0.0140182 -0.0211632 -0.23912 0.0842235 0.043509 -0.0482334 0.199527 0.248762 -0.0905484 0.0277279 -0.0182671 -0.029458 -0.0213961 -0.200741 0.0714512 0.102041 0.0510918 0.0329992 -0.292066 0.387634 -0.161069 -0.0897373 -0.178613 -0.0157222
14130107 -0.30317 -0.0957721 -0.29124 0.275375 0.0536321 -0.0658182 0.140762 0.0233873 -0.107945 0.0584946 -0.135011 -0.135547 0.00220907 0.16133 -0.198856 -0.213643 0.357778 -0.0864332 -0.0020945 -0.278733 -0.0566514 0.0222889 0.210986 0.207845 0.0902028 0.187806 0.0418625 0.0599289 -0.313522 -0.125891 -0.232817 0.0155986 -0.0361164 -0.0490313 -0.0201257 -0.127333 -0.0255839 0.334533 -0.201847 0.0226033 0.105742 0.324443 -0.25291 -0.347721 0.182738 -0.0474038 -0.400796 0.0480684 -0.189189 0.0755591 -0.240275 0.0356024 0.243302 -0.39595 -0.163828 -0.0365008 -0.212436 0.205142 0.0283358 -0.04375 0.0584802 -0.200573 -0.0262582 -0.149453 0.129306 -0.0987666 -0.00835761 -0.0362025 0.074477 -0.44975 0.200608 -0.13892 0.164245 0.0745883 -0.129391 -0.0670336 -0.0303833 0.0115385 -0.190571 0.0862847 0.023643 0.00150943 0.174554 0.176087 -0.149446 -0.0854879 -0.127568 0.106278 -0.0696841 -0.275286 -0.0144749 0.157284 -0.00740238 0.124229 -0.257152 0.432341 -0.17056 -0.166535 -0.161377 0.0223404
14681449 -0.438256 -0.150881 -0.259428 0.343515 -0.0630455 -0.06468 -0.0105913 -0.0284081 -0.110744 0.0716571 -0.140055 -0.106945 0.0559558 0.00633653 -0.27806 -0.177375 0.380166 -0.171782 -0.122312 -0.386843 -0.014164 0.0114466 0.135046 0.289182 0.277848 0.262917 -0.0478991 -0.0197089 -0.321294 -0.143723 0.0516488 0.086672 0.0504757 -0.0285175 -0.236929 0.0371391 0.00874822 0.314232 -0.192458 0.126453 0.0635847 0.26594 -0.302595 -0.245398 -0.118372 0.151674 -0.120907 0.188409 -0.266916 -0.143485 -0.135839 -0.0676759 0.389112 -0.3366 -0.183625 -0.0815446 -0.0356533 0.259366 -0.0325932 -0.196282 -0.0882406 -0.43782 -0.145719 -0.210643 -0.0510635 -0.0406158 0.0675428 0.0596607 -0.00694465 -0.373379 0.243044 -0.0896357 0.341109 0.0379175 -0.158423 0.018166 0.0908104 0.0662322 -0.118964 0.111306 0.0428716 0.15027 0.101101 0.111674 0.00438609 -0.119707 -0.128105 0.0157165 -0.0844237 -0.395827 0.0245226 0.402592 -0.0658231 0.151641 0.00383722 0.335495 -0.237903 -0.0492874 -0.316917 -0.108993
780459 -0.176548 -0.136928 -0.26732 0.257994 -0.0107571 -0.00208441 0.0858252 -0.0587292 -0.189206 0.0745267 -0.166538 -0.0729073 0.103457 0.206125 -0.301247 -0.12878 0.43683 -0.12889 0.016766 -0.23878 -0.074007 0.13166 0.187752 0.199329 0.175287 0.123181 -0.0432667 0.0522104 -0.345127 -0.132062 -0.25769 -0.104812 -0.141555 -0.0318797 -0.0456328 -0.179814 0.00054181 0.412899 -0.162175 0.0648736 0.0477877 0.363668 -0.239268 -0.323595 0.131357 -0.000482213 -0.270484 0.231147 -0.35922 0.00270811 -0.205621 0.0329691 0.144671 -0.311218 -0.1674 -0.160693 -0.130948 0.194124 -0.0125973 -0.139151 -0.037124 -0.168846 0.00728724 -0.204021 0.0524703 -0.0123807 0.132576 0.0345872 -0.192897 -0.332779 0.195809 -0.0372883 0.244769 0.156931 -0.174749 -0.0117849 -0.0337842 -0.0604464 -0.1438 -0.00944287 0.158716 0.0846167 0.227704 0.143159 -0.0063827 -0.0696757 -0.158656 0.0157635 -0.108705 -0.266813 0.0034551 0.182102 0.072412 0.154567 -0.205879 0.299023 -0.260449 -0.161112 -0.222371 -0.0250132
16302736 -0.497775 -0.197416 -0.282068 0.0934898 0.0478409 -0.0918807 0.151979 0.267336 -0.172117 0.0116036 0.0631591 -0.0287389 0.198641 0.331914 -0.264475 -0.170837 0.351422 -0.291683 0.079021 -0.201686 -0.153525 -0.00397296 0.0964204 0.259976 -0.00908199 0.307708 0.120112 0.127289 -0.497649 -0.249784 -0.261855 -0.0951892 -0.0805615 0.0794951 -0.0141011 -0.0894323 -0.138395 0.268503 -0.0383097 0.216715 -0.11173 0.307675 -0.358894 -0.194004 0.297202 -0.244312 -0.267961 0.273818 -0.270347 -0.0183307 -0.324297 -0.00534203 -0.0683825 -0.407685 -0.0392364 -0.0266141 -0.23038 0.102605 0.0981243 0.105794 0.0374549 -0.159539 -0.107627 -0.134188 -0.0301203 -0.159638 0.0455334 0.040875 0.00418378 -0.307004 0.156218 -0.206337 0.189922 0.248377 -0.229206 0.0666371 -0.0288786 -0.0581942 -0.363203 -0.0211018 0.127531 0.0325 0.239298 0.277613 -0.146332 -0.147066 -0.10382 0.113661 -0.0346442 -0.19945 0.0951845 0.215269 0.182979 -0.065732 -0.288976 0.457418 0.0109385 -0.216681 -0.166875 0.0682867
862681 -0.33497 -0.118715 -0.254554 0.391731 -0.0166112 -0.117139 -0.0136777 0.137137 -0.124823 0.188545 -0.157743 -0.0627458 0.117057 0.0441211 -0.260201 -0.124325 0.317438 -0.190402 0.186383 -0.0587194 -0.00346434 -0.115612 0.0268788 0.035082 0.142398 0.161344 -0.0807222 0.0363513 -0.274539 -0.225805 -0.146823 0.00656274 0.251055 -0.098027 -0.10942 -0.155152 -0.121743 0.284593 -0.324382 0.0463179 -0.143555 0.215415 -0.251453 -0.266394 0.0958502 -6.15883e-05 -0.398223 0.0850732 -0.118001 0.0943983 -0.0791685 0.0458869 0.304188 -0.286522 0.00393667 0.0979894 -0.150767 0.120296 0.114557 0.122317 -0.0954325 -0.196944 0.013116 0.0165817 0.0206744 -0.174499 0.0948092 -0.127725 0.126427 -0.375606 0.285106 -0.0284768 0.243531 0.0573795 -0.118915 -0.0483762 0.0930351 -0.000645251 -0.106123 0.180399 -0.129492 -0.101901 0.051201 0.239719 -0.0831199 -0.0620882 -0.0273971 0.134206 0.0687011 -0.330368 0.0814911 0.143638 0.0694003 -0.156113 -0.331828 0.332068 -0.0797781 -0.0379674 -0.30124 -0.174951
5439702 -0.212538 -0.316689 -0.191148 0.29848 0.00668776 0.12277 -0.103448 -0.0734936 -0.105732 0.201583 -0.159529 -0.121501 0.0147452 -0.00953087 -0.361866 -0.372378 0.410383 -0.095948 0.0385153 -0.240556 -0.096227 0.0618986 0.059449 0.243626 0.467735 0.075552 -0.0626472 0.0342416 -0.361634 -0.0932836 -0.335174 -0.0941312 0.25653 -0.185275 0.0993345 -0.381891 -0.109491 0.357117 -0.120081 0.00375419 -0.224278 0.352707 -0.230178 -0.282785 -0.0968913 0.0419563 -0.317427 0.243622 -0.199572 -0.065119 -0.0118168 0.0886983 0.0738932 -0.287908 -0.0270554 -0.152704 -0.0359754 -0.0571664 0.124913 0.183871 -0.238547 -0.292372 0.135124 -0.225497 0.143508 -0.0414329 0.294769 -0.0634283 -0.213319 -0.355686 0.154819 -0.171566 0.35297 0.145157 -0.037376 0.0223873 0.127886 0.0093616 -0.0487246 0.188576 0.253989 0.0403746 0.09954 0.269552 -0.131209 0.0441373 0.0118592 0.0988175 -0.0696677 -0.219073 -0.0732483 0.0539646 0.109547 -0.0855253 -0.0901477 -0.0318816 -0.3333 -0.0112714 -0.227837 -0.0837221
22747182 -0.341684 -0.339781 0.0233162 0.369488 0.139328 0.240552 -0.0554499 0.220402 0.099437 0.28263 -0.178441 -0.280066 -0.0840381 -0.105199 -0.304286 -0.492349 0.398034 -0.0973432 -0.123225 -0.25561 -0.0907667 0.0857485 0.169994 0.0694394 0.35045 0.284569 -0.0328069 -0.106357 -0.275319 0.0647397 -0.201803 -0.0780322 0.20447 -0.274381 -0.0078953 -0.229759 0.0394341 0.50997 -0.132738 0.0743199 -0.216417 0.226829 -0.151265 -0.3648 -0.154619 0.0912438 -0.4583 0.13615 -0.140572 -0.0962432 -0.100325 -0.133857 0.243244 -0.415444 -0.18158 -0.0340984 -0.0908463 0.203648 0.203581 0.0197693 -0.148512 -0.401601 -0.0681702 -0.225743 0.315972 0.0261402 0.138579 -0.144725 -0.0941713 -0.283134 0.171292 -0.156334 0.144945 0.217042 -0.0100886 0.081221 0.110125 0.0980837 0.0355165 0.12234 -0.0332596 -0.176863 -0.00970218 0.136817 -0.0663202 -0.0246729 -0.0973405 0.334645 -0.0200803 -0.222443 -0.053256 0.181381 0.0538629 -0.143745 -0.24169 0.0476698 -0.311107 0.0912142 -0.263147 -0.170716
526316060 -0.381171 -0.209619 -0.196378 0.322943 0.121324 0.260242 -0.193177 0.308021 -0.022604 0.400727 -0.16795 -0.396881 -0.057284 -0.00719656 -0.215143 -0.367004 0.343184 -0.349094 0.0380919 -0.145111 0.0625165 0.0120301 0.0124302 0.0398608 0.268979 0.388104 -0.105002 -0.229734 -0.4422 0.0726897 -0.156722 -0.19752 0.277581 -0.160882 -0.0734186 -0.243429 -0.00297353 0.388558 -0.0642402 0.151242 -0.393884 0.300661 -0.22232 -0.462331 -0.208326 -0.00938549 -0.41576 0.11264 -0.226124 -0.00189654 -0.212657 -0.259291 -0.00704674 -0.30063 0.104219 0.0774568 -0.20188 0.170291 0.314936 0.247312 -0.108759 -0.418006 -0.10933 -0.136282 0.197955 -0.169388 0.0127841 -0.0857579 -0.0438203 -0.307732 0.00926698 -0.13125 0.149731 0.278134 -0.0917282 0.112442 0.207894 0.0623884 -0.0797844 0.067422 -0.027843 -0.0353238 0.0796608 0.149589 0.105134 -0.000434838 0.0673389 0.429188 -0.0165125 -0.0107731 -0.0706575 0.295771 0.012304 -0.179434 -0.453244 -0.0361902 -0.0361128 0.349458 -0.169246 -0.260493
255314321 -0.423922 -0.190067 -0.178144 0.28642 0.121574 0.348764 -0.272403 0.401009 -0.0369327 0.37142 -0.255594 -0.37134 -0.117443 -0.0807849 -0.185564 -0.420213 0.531995 -0.248466 -0.0488517 -0.010354 0.0411652 0.0284112 0.137239 0.0180095 0.296329 0.424617 -0.194455 -0.34885 -0.499392 0.0837842 -0.248258 -0.180356 0.18609 -0.330864 -0.0393448 -0.333027 0.00931954 0.564229 -0.0214606 0.192222 -0.373595 0.3612 -0.193604 -0.463 -0.225126 -0.0824428 -0.536413 0.137226 -0.289012 -0.0065508 -0.261671 -0.269329 0.0664313 -0.330143 0.0473808 0.122579 -0.206119 0.13815 0.255689 0.363514 -0.0317044 -0.580664 -0.0722956 -0.196189 0.425077 0.00827399 0.0152911 -0.144426 -0.0459755 -0.186575 0.00492885 -0.221413 0.179715 0.302971 -0.0222226 0.257134 0.215018 0.0884374 -0.0845002 0.0664038 -0.129017 -0.101393 0.0711098 0.151035 0.0092772 0.0734922 0.00669133 0.364004 -0.0755468 0.00585147 -0.0963153 0.139614 0.0598014 -0.133332 -0.59584 -0.00800591 -0.165205 0.320964 -0.0853607 -0.117852
11911082 -0.152744 -0.331764 -0.283159 0.405947 -0.0848435 0.147382 -0.0038835 -0.0594909 -0.236818 0.250046 -0.0528328 -0.20239 0.0436382 -0.00270129 -0.337512 -0.284589 0.38353 -0.162422 -0.0449583 -0.190611 -0.15317 0.131492 0.110796 0.144585 0.28854 -0.0338502 -0.0845282 -0.164021 -0.227448 0.0812863 -0.337216 -0.0864646 0.214656 -0.267904 -0.086174 -0.282031 -0.0480758 0.233807 -0.142871 0.0320422 -0.085814 0.3918 -0.228176 -0.347406 -0.0628004 0.0735558 -0.355291 0.205927 -0.235879 0.0313789 0.0836117 0.154295 0.0460432 -0.350309 -0.0472668 -0.0422389 -0.0913531 0.12174 0.175554 0.355149 -0.204199 -0.349337 0.149304 -0.0565703 0.0979642 -0.0838371 0.424482 -0.0620839 -0.208962 -0.380957 0.196689 -0.0152375 0.45971 0.22901 0.000504523 -0.00917343 0.314699 -0.20962 -0.100788 0.126966 0.191034 0.114684 0.147168 0.205227 -0.0510187 0.0596531 0.0336169 0.182516 -0.00779287 -0.211484 -0.00930596 0.153552 -0.00104098 -0.0599395 -0.0125046 -0.0184274 -0.272345 0.196897 -0.225121 -0.115911
1438651 -0.241362 -0.202114 -0.287084 0.40556 0.138947 0.0937375 -0.0144685 0.0806094 -0.0730203 0.385057 0.0544245 -0.229828 -0.0993152 0.000451023 -0.246609 -0.233733 0.409851 -0.302763 -0.12049 -0.101211 -0.336583 -0.0594628 0.17679 0.151575 0.354749 0.299772 -0.0234318 -0.154529 -0.314493 -0.0869431 -0.289348 -0.0779144 0.174061 -0.138009 0.00921154 -0.239622 0.159296 0.453278 -0.0599142 0.162401 -0.206967 0.322168 -0.236154 -0.412108 -0.0772192 -0.0555241 -0.306795 0.223749 -0.296664 -0.10207 -0.162233 -0.10618 0.0673953 -0.355344 -0.057505 0.0205159 -0.0328926 0.194707 0.11644 0.168316 -0.142392 -0.270775 0.113148 -0.161623 0.0927799 -0.0122555 0.142827 -0.0190558 -0.143839 -0.197698 0.10694 -0.0830439 -0.0158798 0.279943 -0.00612304 0.101134 0.182041 -0.0245733 -0.00473996 0.236828 0.137926 -0.100626 0.0851037 0.177947 -0.0620606 0.0679527 -0.0720823 0.331492 -0.137645 -0.251857 0.0598528 0.0749058 0.0475292 -0.115098 -0.180045 0.039144 -0.228602 0.0917577 -0.144646 -0.1157
13539002 -0.319463 -0.194384 -0.368882 0.0775859 0.013046 -0.0809324 0.142594 0.139317 -0.0243277 0.0481218 -0.0825129 -0.105637 0.0597132 0.214099 -0.250354 -0.160001 0.409316 -0.154186 0.124737 -0.178029 0.057097 0.0254781 0.0980912 0.206644 -0.00290449 0.0836328 0.0590581 0.12629 -0.358577 -0.221059 -0.354271 -0.148714 -0.0251089 0.0429029 0.0194092 -0.234305 -0.0876978 0.333673 -0.0933046 -0.0345857 0.131556 0.338305 -0.188655 -0.259589 0.237741 -0.0471475 -0.374353 0.161802 -0.0993466 0.198798 -0.344909 0.0308933 0.176944 -0.225382 -0.117684 0.0378694 -0.26186 0.271635 0.0536736 -0.0799932 0.0390298 -0.321113 -0.115936 -0.0431795 0.0211515 -0.131056 -0.0182359 -0.0873189 -0.00240579 -0.455563 0.0528152 -0.0765043 0.128579 0.0858829 -0.253626 0.106422 0.0215298 -0.0256826 -0.304839 0.158829 0.147976 -0.019131 0.159052 0.266063 -0.152447 -0.0593216 -0.104543 0.0856231 -0.127292 -0.329404 0.111231 0.0489833 0.0547644 0.0793675 -0.270187 0.351643 -0.17176 -0.11684 -0.159562 0.0689706
20609518 -0.115493 -0.22248 -0.248874 0.346553 0.196685 0.0589748 0.0809691 0.0746742 0.0094866 0.21131 -0.33675 -0.215666 0.131436 0.167283 -0.37075 -0.334476 0.452563 -0.0219063 -0.0351877 -0.121415 0.0341365 0.0882825 0.00600449 0.0115278 0.252488 0.0736784 -0.143796 0.0329766 -0.389886 0.139836 -0.282841 -0.194159 0.160431 -0.229997 0.126622 -0.313629 0.0213885 0.506742 -0.115968 0.0646064 -0.0989437 0.299443 -0.169096 -0.397107 0.0199129 0.0476223 -0.512366 0.100535 -0.0239897 0.18713 -0.226113 -0.000797808 0.192261 -0.244874 -0.165987 -0.105067 -0.215493 0.213355 0.207314 -0.00389015 -0.0579085 -0.22995 -0.0984854 -0.140927 0.196193 -0.0588913 0.0815516 -0.0352418 0.0182177 -0.398893 0.0919569 -0.130269 0.0843611 0.105586 -0.0985667 0.0986026 -0.0333991 0.0492946 -0.00760727 0.155513 0.115336 -0.0167311 0.0836243 0.038924 -0.181067 -0.115178 -0.0401463 0.218973 -0.14388 -0.268495 -0.103614 0.138255 0.187667 0.16038 -0.402585 0.0343921 -0.170985 0.0432146 -0.216799 -0.0063402
14539061 -0.190953 -0.340865 -0.28442 0.398415 0.0694241 0.17357 -0.0188211 0.0637751 -0.0871757 0.392692 -0.248412 -0.252073 -0.0166531 -0.0523334 -0.356351 -0.234461 0.497933 -0.0679836 0.0615962 -0.102882 -0.0967142 0.0630391 0.108025 0.00960018 0.404381 0.18981 -0.106397 -0.0795401 -0.299072 0.0220076 -0.218591 -0.0754376 0.225384 -0.323685 0.163321 -0.428674 -0.044364 0.545897 -0.320962 -0.170376 -0.225308 0.291219 -0.0972662 -0.311275 -0.0993985 0.129243 -0.457888 0.165771 -0.159152 0.0779969 -0.119591 -0.0170633 0.0942217 -0.25992 -0.092492 -0.142363 -0.156853 0.179553 0.313199 0.0374182 -0.249298 -0.265697 0.0651681 -0.272831 0.145005 0.0215953 0.196228 0.115444 -0.149218 -0.379029 0.0782678 -0.0944327 0.138512 0.153709 -0.016875 0.124919 0.154791 0.00646297 0.125121 0.231423 0.161775 -0.0473521 0.0472357 0.107496 -0.164599 0.0416818 -0.00746249 0.131784 -0.00650555 -0.302123 -0.0979122 0.073512 0.126726 0.0609848 -0.355182 -0.0476034 -0.297437 0.0424247 -0.239578 -0.136779
1472021 -0.386376 -0.296153 -0.198918 0.259239 0.0896457 0.221486 -0.131815 0.0756271 -0.128889 0.345736 -0.109169 -0.418468 -0.0963504 -0.0225801 -0.28659 -0.265548 0.324202 -0.265001 -0.0437371 -0.129835 0.197811 0.119163 0.130268 0.0800944 0.242445 0.238176 -0.0752008 -0.108108 -0.356927 0.0187769 -0.0617166 -0.256656 0.253476 -0.0915416 0.0812447 -0.153366 -0.082242 0.563154 -0.20856 -0.0450763 -0.0909311 0.197919 -0.179307 -0.240094 -0.109798 0.285019 -0.336242 0.00315669 -0.280787 0.125626 -0.255118 -0.186905 -0.0220273 -0.302319 -0.0417518 -0.0446451 -0.254347 0.256098 0.370803 -0.150161 -0.113521 -0.345649 -0.051735 -0.209686 -0.0271239 -0.141301 0.0575875 -0.00190085 -0.0708538 -0.458841 0.00554526 -0.114592 0.149817 0.238229 -0.0493173 0.150019 0.170809 0.167232 0.0247352 0.0867265 0.0670368 0.00172945 0.10516 0.0659564 0.0103878 -0.157432 -0.0609388 0.306179 0.139156 -0.0739825 -0.0424305 0.443018 -0.0259754 0.0293726 -0.434806 0.157886 0.00561645 0.179604 -0.164081 -0.236784
799645 -0.341194 -0.1694 -0.290268 0.268655 -0.00532978 0.0460114 -0.00639604 -0.0359457 -0.151331 0.148887 0.072726 -0.323086 -0.198588 -0.0545011 -0.299193 -0.092218 0.321884 -0.217688 -0.075486 -0.259459 0.024872 0.0961416 0.223159 0.157467 0.258521 0.146511 -0.049249 -0.165177 -0.174977 -0.218336 0.00239319 -0.0805068 0.0194247 -0.0484166 -0.191095 -0.118064 0.0566914 0.368577 -0.285587 -0.0353053 0.111699 0.322346 -0.139217 -0.212297 0.0068889 0.358088 -0.189192 -0.0241713 -0.421959 0.0207053 -0.154649 -0.0174154 0.143869 -0.389339 -0.165264 -0.0764062 -0.279312 0.348385 0.15393 -0.220299 -0.0635762 -0.463937 -0.0588985 -0.151397 -0.00397857 -0.0556123 0.129392 -0.0424176 -0.0724964 -0.485428 0.178184 -0.0205505 0.406139 0.200094 0.08835 -0.0395724 0.2288 0.0736674 -0.00213209 0.139515 0.0526025 -0.0275785 0.0409772 0.137945 0.0986005 -0.0556355 -0.288479 0.0159789 0.253694 -0.325759 0.0873183 0.457543 -0.244031 0.151695 -0.257657 0.473987 -0.0759681 0.110911 -0.18045 -0.205674
10450 -0.388349 -0.317384 -0.189885 0.178333 0.0359272 0.0940275 -0.0400654 0.0382528 0.0102827 0.252973 -0.0979682 -0.309305 -0.0714933 -0.0395853 -0.326351 -0.140129 0.279865 -0.149552 -0.0440349 -0.261742 0.0141262 0.112655 0.145692 0.182944 0.147912 0.138408 -0.0137654 0.058139 -0.30185 -0.125132 -0.159724 -0.147933 0.0946786 -0.00582956 0.0138123 -0.129796 -0.0369858 0.285652 -0.215336 -0.0678229 -0.0170108 0.22951 -0.226593 -0.175215 0.12182 0.188885 -0.301317 0.133355 -0.152548 0.114016 -0.20922 -0.107506 0.147791 -0.271763 -0.232844 -0.0318997 -0.214023 0.288037 0.209757 -0.229349 -0.149453 -0.275744 -0.121579 -0.0782943 -0.0342225 -0.0411218 0.139143 -0.0389794 -0.139196 -0.450479 0.154533 -0.0666797 0.279525 0.225098 -0.123972 0.160713 0.130108 0.0448139 -0.111901 0.166848 0.0623526 -0.177172 0.111245 0.215448 -0.0497376 0.0243512 -0.0864127 0.168823 0.0177998 -0.261474 0.0354091 0.272829 -0.102636 0.00761184 -0.191547 0.273832 -0.150941 -0.00989133 -0.194906 -0.193427
10241 -0.415645 -0.292465 -0.317283 0.184773 -0.00833342 0.123971 -0.092393 0.0588733 -0.0473235 0.25105 0.0201216 -0.319373 -0.0625221 -0.0352281 -0.310541 0.00685879 0.293717 -0.108159 -0.0882522 -0.217603 -0.00229581 0.0786123 0.279682 0.191449 0.0489188 0.141681 0.00039612 -0.0433757 -0.218434 -0.199539 -0.0189313 -0.0798422 0.119062 -0.120078 -0.154492 -0.106884 -0.0498661 0.276598 -0.298788 -0.117806 0.0591012 0.285369 -0.263322 -0.1983 0.247095 0.173003 -0.279159 0.130651 -0.299009 0.114034 -0.190695 -0.109704 0.0574509 -0.327868 -0.23832 -0.0432072 -0.273938 0.383915 0.161131 -0.212537 -0.0181862 -0.225813 -0.118865 -0.0261308 -0.0254507 -0.0349158 0.152487 -0.0461844 -0.0785323 -0.437558 0.262421 -0.0310694 0.336645 0.285597 -0.107023 0.110153 0.202461 0.00880834 -0.0735182 0.181638 -0.0513011 -0.210055 0.103685 0.144342 -0.0495532 -0.0394987 -0.173185 0.16319 0.143339 -0.242732 0.141681 0.348987 -0.182364 0.0671786 -0.234758 0.383852 -0.0893251 -0.0173606 -0.231894 -0.174541
8845642 -0.232086 -0.129006 -0.3837 0.339427 -0.0589201 0.0541025 0.0304621 0.0687754 -0.250994 0.221522 -0.134464 -0.178096 -0.0257398 0.0839556 -0.0799988 -0.060716 0.503525 -0.0548978 -0.0609032 -0.0780943 -0.209981 -0.0468711 0.187178 0.141651 0.17836 0.145575 -0.10359 -0.204096 -0.343394 -0.0319238 -0.268886 0.120763 0.0716569 -0.293961 -0.07142 -0.153325 -0.075011 0.324572 -0.257017 0.0651181 0.0954036 0.357943 -0.294143 -0.208676 -0.135667 -0.00234442 -0.332162 0.26701 -0.204458 -0.0111189 -0.0344731 0.0109592 0.219047 -0.331093 -0.000787299 0.0521623 -0.050882 0.157139 0.0609059 0.214832 -0.147317 -0.421917 0.101396 -0.0559375 0.0423712 -0.0130194 0.284237 0.0845059 -0.141556 -0.318502 0.193858 -0.0994875 0.334473 0.157978 -0.0788226 0.110743 0.300943 -0.227268 -0.16124 0.111765 0.0156075 0.156928 0.169093 0.228549 -0.0791783 0.0650764 0.0688768 0.0715685 -0.0624016 -0.239728 -0.100441 0.100657 -0.0179299 0.0038429 -0.0302781 0.216629 -0.232257 0.116059 -0.206661 -0.0447081
7795202 -0.219486 -0.149558 -0.205793 0.36113 0.0108847 -0.0321182 -0.0194626 -0.0172731 0.00325812 0.129111 -0.207305 -0.106076 -0.0344054 0.0796799 -0.322907 -0.343402 0.369635 -0.0632586 0.0205091 -0.306586 -0.107854 -0.0206058 0.0212153 0.210357 0.314464 -0.0005052 -0.0669949 0.0706333 -0.344791 -0.110912 -0.336371 -0.00231099 0.221994 -0.157047 -0.0608068 -0.179669 -0.0848901 0.193623 -0.195197 0.122063 -0.0808251 0.327476 -0.349978 -0.304093 -0.0161578 0.0513276 -0.306158 0.189193 -0.116315 0.0394579 0.0248869 0.11837 0.303111 -0.326502 -0.0587718 -0.00417168 -0.0976146 0.0565522 0.102067 0.165015 -0.171807 -0.290097 0.0211921 0.0163811 0.118979 -0.123351 0.23648 -0.113414 -0.113397 -0.46717 0.312316 -0.115305 0.408617 0.108511 -0.0933876 -0.125247 0.0975546 -0.0506141 -0.134332 0.197169 0.114249 0.0164201 0.116801 0.356105 -0.0765364 0.0426202 0.0606593 0.165329 -0.13909 -0.328178 -0.0960233 0.181388 -0.0327624 -0.132022 0.0562661 0.200194 -0.251201 0.0432284 -0.329518 -0.118982
14305343 -0.392643 -0.0504272 -0.3076 0.0928383 0.0337275 -0.0836102 0.137056 0.205546 -0.113013 0.022382 -0.127509 -0.114255 0.0504328 0.310705 -0.109749 -0.118279 0.331842 -0.219044 0.137549 -0.245167 -0.0195357 -0.0232231 0.0764436 0.214424 -0.012146 0.229864 0.0140041 0.0273543 -0.479382 -0.195905 -0.324847 -0.0387312 -0.0993121 0.0216038 -0.0840587 -0.192921 -0.0493226 0.189527 -0.0920808 0.104213 0.0346758 0.349452 -0.291954 -0.306502 0.225651 -0.183746 -0.39181 0.172292 -0.122663 0.0726126 -0.30101 -0.0646782 0.162759 -0.310155 0.00289135 0.0385489 -0.225229 0.166843 0.0324333 0.0876505 0.0253252 -0.305283 -0.134678 -0.0429429 0.0875325 -0.154351 -0.123664 -0.0347793 0.0614493 -0.384496 0.0893182 -0.125806 0.207636 0.0830229 -0.262613 0.0597436 -0.0205433 -0.067258 -0.354267 0.044053 0.0381295 0.0511666 0.184306 0.346338 -0.08913 -0.0270672 0.0209181 0.0790907 -0.0778312 -0.169209 -0.00785312 0.0906476 0.0726079 -0.0204244 -0.280288 0.412307 -0.0768112 -0.0939717 -0.15513 0.0341394
20002259 -0.351196 -0.118877 -0.303612 0.119181 0.021502 -0.120711 0.0814465 0.128373 0.0330152 0.0694495 -0.235197 -0.130475 0.0724441 0.248359 -0.205655 -0.141887 0.365668 -0.0834117 0.0613151 -0.317892 -0.0248975 0.0137207 0.0593205 0.308676 0.0461129 0.126107 -0.0179327 0.146601 -0.452798 -0.232228 -0.350774 -0.0750488 -0.0526055 0.0618473 -0.0934364 -0.173603 -0.0612829 0.174384 -0.125286 0.13338 0.114983 0.397941 -0.330725 -0.277699 0.261547 -0.115703 -0.393907 0.234992 -0.0827478 0.124172 -0.282024 -0.0322445 0.289793 -0.275734 -0.140214 0.00638276 -0.204984 0.178716 -0.0591886 -0.051214 -0.0209583 -0.258268 -0.166422 0.0114255 0.108623 -0.0864309 0.0750258 -0.140559 -0.00642082 -0.457249 0.232005 -0.150206 0.301378 0.0893301 -0.299513 0.0641974 -0.0382238 -0.084363 -0.313266 0.121306 0.0119384 -0.100298 0.219265 0.342353 -0.111 -0.00557334 -0.0383214 0.0585747 -0.168978 -0.296298 0.032785 0.106191 -0.0144283 0.0289862 -0.192525 0.439797 -0.194394 -0.148066 -0.207595 0.00750773
14454675 -0.354351 -0.0134862 -0.303962 0.0700585 -0.061055 -0.136601 0.0814045 0.126672 -0.128542 -0.0551569 -0.155594 -0.169269 0.0421804 0.269194 -0.182342 -0.0799506 0.411345 -0.355076 0.0258819 -0.261036 0.0914894 0.0968771 0.0983629 0.275138 -0.0224867 0.22081 -0.0666516 -0.0214886 -0.469544 -0.152635 -0.134674 -0.034521 -0.191557 0.14305 -0.239678 -0.0290258 -0.078866 0.181638 -0.0719128 0.343752 0.0603615 0.358852 -0.309592 -0.284308 0.163218 -0.036843 -0.229932 0.0999308 -0.246026 0.016502 -0.330465 0.00665375 0.247952 -0.248117 -0.117166 0.070454 -0.222089 0.199261 -0.0708663 -0.00842234 0.00147222 -0.4774 -0.210713 -0.0206337 0.121533 -0.0809243 -0.0541387 -0.0975771 -0.0106393 -0.407981 0.138563 -0.0912946 0.383821 0.0950276 -0.258031 0.0686417 0.0182496 -0.0399411 -0.376496 -0.0563435 -0.0273476 0.130108 0.21135 0.333356 -0.0439359 -0.000197177 -0.11285 0.0168607 -0.0545184 -0.331371 0.0650412 0.350533 -0.0966765 0.200682 -0.283162 0.583429 -0.0984909 -0.0679314 -0.162392 0.0158353
3829151 -0.210685 -0.26444 -0.362644 0.226023 0.0582371 -0.102899 0.0823691 0.0729193 -0.182386 0.160937 -0.173245 -0.203568 0.156713 0.144708 -0.194658 0.000661479 0.370317 -0.174417 0.185855 -0.133828 0.024341 -0.0289151 -0.0232704 0.0891264 0.091829 0.16715 -0.0345439 -0.0375999 -0.300419 -0.136527 -0.0698113 -0.00333529 0.101221 -0.105342 -0.0771275 -0.314278 -0.10076 0.188417 -0.28882 0.0162113 -0.0652556 0.313156 -0.19596 -0.189797 0.127346 0.113875 -0.395759 0.154943 0.0418456 0.0324486 -0.100494 0.0556399 0.182292 -0.20638 -0.0637667 -0.0138448 -0.234234 0.227661 0.135772 0.0650288 -0.191683 -0.334713 -0.134033 -0.102086 -0.0144559 -0.0763517 0.174495 0.0111796 0.0254788 -0.43977 0.140761 -0.0300431 0.33669 0.126709 -0.173811 0.108787 0.143277 -0.0509937 -0.161784 0.186708 0.0778568 0.0770111 0.0823711 0.152455 -0.18225 -0.0062691 -0.0147772 0.0191889 0.084376 -0.3576 0.0620276 0.175941 0.02496 0.0765674 -0.356127 0.333593 -0.0691566 0.0286649 -0.250921 -0.126348
792537 -0.231484 -0.111024 -0.290178 0.180887 0.0437587 0.0247008 -0.0327013 -0.0945516 -0.21643 0.0412667 -0.0288483 -0.234972 0.0327121 0.0983197 -0.36441 -0.235826 0.328421 -0.171496 -0.052121 -0.266603 0.00307661 0.0819979 0.18596 0.225006 0.162463 0.0518473 -0.245731 -0.00533384 -0.290171 -0.0489426 -0.187312 -0.154244 -0.0115075 -0.0504172 -0.0677724 -0.12257 0.0285204 0.316028 0.0142821 0.161086 -0.00350131 0.24029 -0.264259 -0.220244 0.0691428 0.127759 -0.262637 0.00465392 -0.191925 0.0846762 -0.178375 0.0318462 0.135323 -0.307447 -0.171172 -0.11837 -0.257717 0.194444 0.0893845 -0.00962007 0.00330968 -0.304656 -0.050812 -0.0725988 0.0652197 -0.103357 0.0423227 0.029504 -0.0654199 -0.370579 0.157092 -0.131969 0.316191 0.248126 -0.0732391 0.0491575 0.139168 0.0833665 -0.226766 0.108502 0.127636 0.109616 0.110412 0.156499 -0.0562075 0.0135524 -0.0901685 0.114989 -0.145733 -0.221727 -0.0273727 0.340055 -0.0359839 -0.0259451 -0.186945 0.405404 -0.162133 -0.044242 -0.0777508 -0.0979726
14537203 -0.330329 -0.151367 -0.321029 0.102994 0.009285 -0.0860089 0.0823012 0.0245388 -0.187641 0.0985196 -0.228273 -0.125995 0.0271961 0.246355 -0.0443954 -0.162843 0.299244 -0.222382 0.0300037 -0.183296 0.0936998 0.0742352 0.132221 0.267988 -0.0404104 0.121043 0.0113201 0.0014504 -0.368381 -0.0564943 -0.308592 -0.136066 -0.06891 0.0859663 0.00349871 -0.146362 -0.0968839 0.2365 -0.156668 0.0158061 0.210932 0.372779 -0.35056 -0.235414 0.135329 -0.0627681 -0.42156 0.0468257 -0.106435 0.170005 -0.261176 -0.0352225 0.215305 -0.26002 -0.0316382 0.0626524 -0.222943 0.155512 0.0480395 -0.0540225 -0.00243142 -0.312238 -0.0924667 -0.0782631 0.0398887 -0.100236 0.0524098 -0.0696141 0.0390646 -0.545475 0.0719605 -0.100488 0.242032 0.0278467 -0.352131 0.0859874 -0.0549982 -0.0379715 -0.339722 0.0034231 -0.0167894 0.0407041 0.352929 0.236787 -0.113182 -0.135582 0.00975531 0.0975229 -0.120929 -0.135489 0.038831 0.127566 0.0438455 0.127556 -0.262832 0.410212 -0.0717881 0.00503765 -0.173126 0.0229753
632023 -0.276046 -0.228472 -0.294926 0.274017 -0.0219256 -0.023365 -0.0715474 0.0209459 -0.178868 0.158299 -0.0737989 -0.0982167 0.231892 0.0429197 -0.252033 -0.0950751 0.453776 -0.212081 -0.0658871 -0.171691 0.0630171 0.0812325 0.132966 0.2213 0.162844 0.204334 0.0129576 0.0203091 -0.462403 -0.0818974 0.0560953 0.0331655 0.123319 0.0541432 -0.101348 -0.0314029 -0.183385 0.357709 -0.17195 0.204818 -0.0180792 0.264716 -0.251291 -0.213577 -0.0164003 -0.0232291 -0.21187 0.278143 -0.231717 -0.0875906 -0.149163 -0.0326972 0.172922 -0.262027 -0.169942 -0.0107122 0.0121184 0.146491 0.018293 -0.0118198 -0.0823721 -0.315229 -0.0145521 -0.125833 -0.0283561 0.0404202 0.151039 -0.0245804 -0.140568 -0.273625 0.22764 -0.136927 0.30262 0.136643 -0.177499 0.152086 0.154667 0.0816053 -0.127487 0.0970657 0.0438672 0.104889 0.173768 0.0733772 -0.146914 -0.118816 -0.148709 0.147594 0.0239934 -0.311623 0.0571733 0.354008 -0.0289685 0.200123 -0.229756 0.22282 -0.105939 -0.0319902 -0.257447 -0.00745547
11884342 -0.234048 -0.235374 -0.348458 0.383784 -0.129579 -0.0453515 -0.0248309 -0.0946995 -0.214913 0.207018 -0.099613 -0.148806 0.124176 0.0471668 -0.302442 -0.156351 0.405687 -0.228421 -0.0206398 -0.189613 -0.201648 0.0253432 0.128164 0.14501 0.270693 0.192658 -0.117561 -0.106614 -0.404074 -0.0114768 -0.133429 0.123756 0.0255947 -0.124237 -0.0439683 -0.110002 -0.0265498 0.297984 -0.190411 0.167787 -0.064148 0.282544 -0.228271 -0.304467 -0.151586 0.00114922 -0.229178 0.212991 -0.204864 -0.0836819 0.0256844 0.0514146 0.275198 -0.2921 -0.00527244 0.0532111 0.0129182 0.155202 0.104891 0.122586 -0.248876 -0.430394 0.1059 -0.125967 0.01662 -0.00393967 0.15205 0.105947 -0.185066 -0.292209 0.170928 0.00839277 0.36351 0.133007 -0.0786821 0.126138 0.218558 -0.0745458 -0.126349 0.0786285 0.152978 0.176186 0.130425 0.237914 -0.191878 0.0804232 0.0165995 0.057063 -0.0404719 -0.300557 0.00358264 0.193249 0.0274068 0.0603726 -0.0515801 0.0558418 -0.296823 0.144383 -0.174615 -0.0421834
14479259 -0.318245 -0.0411927 -0.386716 0.118548 -0.0359288 -0.101146 0.0991745 0.251091 -0.0278743 -0.0135093 -0.0694169 -0.0689826 0.112439 0.34895 -0.248112 -0.209171 0.331949 -0.199687 0.240798 -0.333401 -0.0343917 -0.0512489 0.0825709 0.306197 -5.44761e-05 0.131299 0.00157865 0.142928 -0.384402 -0.207068 -0.347427 0.00126507 0.0302468 0.0502759 -0.187734 -0.129561 -0.0938074 0.181757 -0.0999298 0.0645949 -0.0125584 0.32506 -0.304092 -0.383317 0.269409 -0.230054 -0.320453 0.113497 -0.105726 0.153545 -0.25878 0.0172565 0.140342 -0.278046 0.0130983 -0.0629496 -0.292139 0.183162 0.031943 0.0521973 0.0795266 -0.180707 -0.219757 0.0355833 0.13123 -0.269987 -0.167476 0.0256382 0.0141362 -0.476419 0.158235 -0.116224 0.17671 0.0848416 -0.339742 -0.0971232 -0.00507592 -0.0560024 -0.414202 0.134732 0.0580857 0.0873327 0.221977 0.376817 -0.0794693 -0.0585015 0.0238235 0.140257 -0.257179 -0.318055 -0.021433 0.16596 0.00840792 -0.0603043 -0.200234 0.389473 -0.185726 -0.186681 -0.225278 0.0478221
14452878 -0.305889 -0.114814 -0.326662 0.173295 0.0474397 -0.0535678 0.0334447 0.160687 -0.0958632 0.0915834 -0.0849221 -0.168081 -0.010976 0.280521 -0.148036 -0.177905 0.387255 -0.13217 0.151399 -0.244872 -0.0132896 -0.0227404 0.162986 0.219589 -0.0616164 0.108875 -0.00852638 0.0304862 -0.382639 -0.233907 -0.289112 -0.0137543 0.00505084 0.0163074 -0.0510987 -0.0882956 -0.0326358 0.208116 -0.135758 0.0612015 0.137419 0.378927 -0.329017 -0.377833 0.210266 -0.100494 -0.406267 0.0115496 -0.175338 0.148979 -0.253556 -0.0205341 0.162489 -0.281811 -0.0934086 0.072302 -0.327397 0.206107 0.000325932 -0.0339488 -0.00262864 -0.219955 -0.0923975 0.0405829 0.152046 -0.13171 -0.0458593 -0.063539 0.00222019 -0.433029 0.137539 -0.0587491 0.148316 0.152988 -0.240574 -0.0375143 -0.0349661 -0.0682238 -0.387274 0.141901 0.0143633 -0.0670315 0.278457 0.321821 -0.160514 -0.0287706 0.00613266 0.150428 -0.201657 -0.246713 0.0359825 0.10364 -0.00950313 -0.0402531 -0.259427 0.418347 -0.0979328 -0.116778 -0.179814 0.0293277
18102098 -0.304453 -0.220339 -0.265979 0.158476 -0.0285687 0.00811182 0.0430516 0.187382 -0.0293829 0.159319 -0.0917962 -0.181476 0.0236098 0.252495 -0.195306 -0.11576 0.388469 -0.23306 0.220521 -0.194285 0.0978948 0.0225079 0.00558645 0.186208 0.0255319 0.0690699 0.0683465 0.0501908 -0.4348 -0.265129 -0.29556 -0.144168 0.0609843 0.0386258 -0.0539766 -0.215035 -0.152073 0.257247 -0.107575 0.0457546 -0.00144095 0.33726 -0.192108 -0.28606 0.148998 -0.0373098 -0.312393 0.213689 -0.136909 0.141323 -0.286504 -0.0606906 0.0678574 -0.18064 0.0457676 0.0860872 -0.208793 0.190679 0.129188 0.0352727 -0.0979622 -0.275617 -0.0788951 -0.00745658 0.0251661 -0.182509 0.0227723 -0.124864 -0.0642964 -0.426659 0.0470986 0.00808707 0.165563 0.13464 -0.215584 0.0552821 0.0638074 -0.0583715 -0.28311 0.0947521 0.163307 0.0326943 0.191954 0.330947 -0.104168 -0.0494661 0.00503058 0.154682 -0.0841037 -0.200562 0.10482 0.155744 0.0060273 0.00472083 -0.282032 0.24133 -0.0922674 -0.00421405 -0.228675 -0.0373595
14813311 -0.388391 -0.02936 -0.214715 0.155421 0.00101279 -0.0840884 -0.00386097 -0.0730399 -0.114378 0.00231144 -0.194284 -0.142451 -0.0498326 0.00869935 -0.149837 -0.268055 0.413958 -0.142982 -0.197204 -0.388898 0.0771254 0.10563 0.113015 0.331273 0.11401 0.128652 -0.127737 -0.0656573 -0.420484 -0.0480632 -0.185024 -0.0826533 -0.161399 0.0715938 -0.156353 -0.0296881 -0.0141111 0.222754 0.0361986 0.282436 0.207067 0.342256 -0.291196 -0.172756 0.10895 0.0113686 -0.28674 0.175694 -0.14738 0.0438493 -0.319049 -0.063869 0.376295 -0.290411 -0.255247 0.0587653 -0.155582 0.178896 -0.0256761 0.00182139 0.135406 -0.495024 -0.15544 -0.0972026 0.0991008 0.0588724 0.035257 -0.123363 0.0318547 -0.352729 0.184627 -0.239766 0.375335 0.076033 -0.194356 0.132647 -0.0296176 0.068972 -0.29953 0.0735042 0.0491043 0.0498555 0.229603 0.182316 0.00029308 -0.00871621 -0.158551 0.0328636 -0.270242 -0.255168 0.0396914 0.307441 -0.131567 0.184776 -0.102809 0.4703 -0.17214 -0.018343 -0.116448 0.0687768
17791438 -0.274688 -0.167044 -0.339441 0.0921921 0.107213 -0.0288911 -0.0390369 0.0530107 -0.0663666 0.195086 -0.224242 -0.330733 -0.00908016 0.142556 -0.166605 -0.119755 0.360295 -0.13465 0.0472615 -0.154874 0.172143 0.0784158 0.102999 0.126443 -0.187275 0.0937127 -0.0733187 0.0773064 -0.46373 -0.0723555 -0.230968 -0.155149 0.0149241 0.0759922 0.081381 -0.0666954 -0.109451 0.17145 -0.104109 0.0879759 0.125014 0.297529 -0.344254 -0.28069 0.217631 0.0274484 -0.483201 -0.0228826 -0.0207609 0.231255 -0.31907 -0.038104 0.118121 -0.16586 -0.195646 0.137289 -0.361462 0.236696 0.126591 -0.0849377 -0.00603173 -0.256535 -0.122441 0.089596 0.0872752 -0.113071 0.0584531 -0.0946563 -0.00664379 -0.488872 0.0855531 -0.111879 0.232095 0.18821 -0.261583 0.147896 -0.000248683 0.0192547 -0.402724 0.121749 -0.0219773 -0.132161 0.251341 0.232827 -0.204913 0.00388255 0.0246462 0.234376 -0.155593 -0.133794 0.0754531 0.154439 -0.108092 0.0870577 -0.430589 0.393998 -0.0137013 0.0213946 -0.0923729 -0.0315995
9215532 -0.155964 -0.261582 -0.377696 0.419201 -0.0246959 0.0225729 -0.0600595 -0.187422 -0.272633 0.265961 -0.068292 -0.118474 0.0746798 -0.0395478 -0.294156 -0.121606 0.432141 -0.16486 0.00172367 -0.169856 -0.101061 -0.0219908 0.0997859 0.257403 0.517905 0.0780012 -0.0491576 -0.107384 -0.308639 -0.16881 -0.0752302 0.0221686 0.211793 -0.169001 -0.0406389 -0.361775 -0.0608098 0.335814 -0.282359 0.00605516 -0.105006 0.397634 -0.218446 -0.233972 -0.0673613 0.123558 -0.276967 0.263603 -0.28459 -0.108097 -0.00130118 0.141753 0.106001 -0.295366 -0.029116 -0.140662 -0.0215872 0.0761655 0.0765992 0.117631 -0.237961 -0.351462 0.162923 -0.24139 0.00521709 0.0573463 0.316774 0.00221484 -0.139746 -0.359988 0.247868 -0.144255 0.451569 0.110933 0.0454156 0.0270273 0.215302 0.0495355 0.0624903 0.234897 0.24146 0.0928046 0.0876094 0.160233 -0.13639 -0.0323602 -0.141943 -0.0173447 0.0901611 -0.349255 0.0610591 0.167014 0.047103 0.106503 -0.156679 0.112503 -0.224495 0.0553429 -0.272007 -0.0647787
14079781 -0.198708 -0.238411 -0.273061 0.582345 -0.246082 0.137759 -0.0887922 0.0366603 -0.340952 0.411739 -0.290443 -0.139518 0.0652708 -0.0620213 -0.164004 -0.11477 0.59877 -0.214645 0.0247434 0.0111816 -0.0823704 0.026487 0.0702737 0.0962742 0.423752 0.109352 -0.11728 -0.251762 -0.437646 0.01496 -0.200278 0.0998111 0.228017 -0.363387 -0.104335 -0.227517 -0.119058 0.462462 -0.348232 -0.000516562 -0.0897468 0.446533 -0.179219 -0.283244 -0.289258 0.0364973 -0.316215 0.431722 -0.311645 -0.0189997 -0.0176329 -0.00461427 0.208457 -0.179723 0.0744566 0.0835495 0.145014 0.103184 0.122913 0.140881 -0.303114 -0.439937 0.169493 -0.17684 0.0182959 0.0547442 0.297121 0.013124 -0.254869 -0.230007 0.196509 -0.0200794 0.363128 0.0863812 -0.0543198 0.136471 0.28699 -0.190538 0.0214061 0.144087 0.0713492 0.159929 0.199674 0.235102 0.0289977 -0.000647437 0.0680229 0.0406721 -0.0908944 -0.333754 -0.0411561 0.106112 0.133767 0.014876 -0.0178446 -0.087534 -0.363955 0.136639 -0.346975 -0.104695
14096397 -0.384087 -0.170524 -0.302611 0.489984 -0.122509 0.234061 -0.288601 0.160659 -0.326698 0.369135 -0.354173 -0.310502 -0.0268733 -0.0772549 -0.275506 -0.217821 0.520643 -0.361465 0.0355829 0.0916608 0.101988 0.0648652 0.0405117 0.0127578 0.344926 0.211419 -0.248418 -0.24121 -0.544459 0.0835898 -0.190602 -0.0718491 0.29127 -0.356215 -0.0304421 -0.178635 -0.0914973 0.514015 -0.27534 0.0595824 -0.283463 0.371011 -0.227315 -0.28466 -0.330077 0.0990479 -0.377449 0.205063 -0.322449 0.125924 -0.10702 -0.139189 0.0379977 -0.170074 0.186005 0.158862 -0.0383807 0.042376 0.355702 0.178849 -0.202498 -0.507434 0.0493932 -0.148165 0.0571805 -0.0657128 0.0935869 0.024141 -0.148799 -0.293524 0.0762229 -0.0934968 0.382981 0.1726 -0.0056825 0.227061 0.282629 0.0316765 -0.00344267 0.0865572 -0.066147 0.123759 0.167735 0.297824 0.0656621 -0.0323347 0.170766 0.151123 -0.0501345 -0.136154 -0.199499 0.2443 0.181823 -0.131876 -0.300222 -0.0122694 -0.196519 0.244567 -0.205686 -0.213869
12230022 -0.46093 -0.200546 -0.256009 0.358629 0.0197218 0.222485 -0.200482 0.253942 -0.230068 0.312026 -0.123124 -0.368023 0.00937473 0.00176694 -0.305308 -0.266913 0.379457 -0.422138 -0.0608174 0.0389175 0.111737 0.0483652 0.0113302 0.0479628 0.220388 0.362628 -0.16529 -0.189316 -0.505961 0.0953835 -0.118977 -0.219632 0.294791 -0.208716 -0.0558263 -0.058518 -0.0919196 0.517604 -0.0822158 0.19408 -0.319307 0.23001 -0.262629 -0.27108 -0.222656 0.113368 -0.293017 0.144657 -0.333235 0.0293424 -0.23258 -0.184482 -0.0933389 -0.2941 0.109154 0.091207 -0.168125 0.151311 0.359663 0.193997 -0.0533997 -0.449945 -0.0506713 -0.171766 -0.0151982 -0.218777 0.104954 -0.0110339 -0.061052 -0.269467 0.0312477 -0.18347 0.266943 0.295843 -0.00886506 0.20768 0.286415 0.0706715 -0.0849883 0.00786502 -0.0477702 0.125366 0.0968659 0.133583 0.138103 -0.13675 0.0424316 0.312412 0.0540365 -0.0376573 -0.0980175 0.446212 0.0910787 -0.140078 -0.444557 0.106813 -3.75508e-05 0.275634 -0.120052 -0.244976
82375443 -0.502319 -0.191713 -0.184215 0.311836 0.0291111 0.168893 -0.211415 0.153833 -0.114987 0.366242 -0.126582 -0.359117 -0.0471961 0.0770639 -0.280574 -0.302116 0.295728 -0.440351 -0.0990883 -0.155861 0.0707654 0.0587709 0.0393893 0.22829 0.310337 0.329515 -0.0844727 -0.0469957 -0.555805 0.000340176 -0.155262 -0.197583 0.280017 -0.000287409 -0.00419678 -0.0162972 -0.0396988 0.467249 -0.074241 0.159767 -0.209872 0.284199 -0.280043 -0.336529 -0.266838 0.0692825 -0.164942 0.19753 -0.322952 0.00245961 -0.213323 -0.31018 -0.0501271 -0.28714 0.153476 0.0464841 -0.0272044 0.135949 0.255935 -0.0478605 -0.164904 -0.368225 -0.0431711 -0.153756 -0.0340479 -0.221782 0.0404504 -0.0253006 -0.13389 -0.362516 0.0548236 -0.159209 0.178125 0.203117 -0.0715198 0.148768 0.121579 0.128638 -0.0144272 0.0410585 0.0753622 0.0251403 0.190816 0.237291 0.0926355 -0.169971 0.0793779 0.332498 -0.0229964 0.00204441 -0.0634488 0.392279 0.0865708 -0.143118 -0.255575 0.00263445 -0.0465805 0.210922 -0.14638 -0.241911
41644256 -0.24235 -0.126538 -0.407025 0.419406 -0.0986543 0.111873 -0.25661 -0.0504929 -0.288859 0.302581 -0.211032 -0.182279 -0.018857 -0.126321 -0.106837 -0.04417 0.463631 -0.173852 0.0462703 -0.0124703 0.0782111 -0.0709659 0.0512993 0.0935634 0.314231 0.209722 -0.14136 -0.231588 -0.417953 -0.108768 -0.0925467 0.120929 0.325326 -0.280469 -0.13584 -0.227385 -0.107162 0.373457 -0.314469 -0.00872128 -0.134412 0.287136 -0.274559 -0.235788 -0.156672 0.101581 -0.345104 0.260538 -0.230677 -0.00232028 -0.0828673 -0.0541099 0.180789 -0.130057 0.0874895 0.0937138 -0.032051 0.071837 0.107948 0.162747 -0.151889 -0.492643 0.0737005 -0.0938583 0.0221808 0.00921949 0.0847465 0.00876475 -0.127446 -0.221747 0.138947 -0.0836752 0.385752 0.104679 -0.0907785 0.187515 0.311422 0.0521152 -0.110494 0.229537 0.0165466 0.212503 0.110229 0.22475 -0.0371914 0.0554004 0.0992599 0.122189 -0.0683849 -0.224457 -0.113389 0.134235 -0.0272383 -0.02185 -0.218345 0.0467759 -0.220472 0.128199 -0.226677 -0.113809
15888142 -0.272468 -0.223126 -0.277803 0.536038 -0.0684054 0.155255 -0.190534 0.0220066 -0.155362 0.284641 -0.226743 -0.248736 -0.0183778 -0.120644 -0.494242 -0.212225 0.289126 -0.2663 0.0818953 -0.0906266 0.0850251 0.0769436 -0.00137296 -0.006724 0.239258 -0.032073 -0.125115 -0.0869937 -0.238515 -0.0430243 -0.0840374 -0.132685 0.357523 -0.284899 -0.175595 -0.192604 -0.00633491 0.214066 -0.259528 -0.0250492 -0.269185 0.2717 -0.256911 -0.379208 0.0456696 0.165209 -0.348018 0.0295983 -0.269966 0.206222 -0.010327 0.0667884 -0.0174573 -0.187151 0.00767234 0.0291149 -0.23291 0.14449 0.351053 0.176091 -0.119865 -0.20505 0.0117516 0.0376709 0.0814521 -0.142796 0.164885 -0.130947 -0.0226473 -0.400463 0.191282 -0.00992973 0.382251 0.17635 0.0153493 -0.0412312 0.207867 0.0295071 0.0077638 0.169196 -0.0420358 -0.0689146 0.0567937 0.281483 0.0255137 -0.0427851 0.091248 0.207365 0.00493436 -0.252259 -0.0258619 0.271115 0.0375994 -0.131308 -0.276601 0.0434413 -0.175846 0.174466 -0.290023 -0.278822
36420369 -0.361797 -0.0853534 -0.325724 0.09394 -0.0299032 -0.0194206 0.0489031 0.273996 -0.123635 0.0302874 -0.122093 -0.0887534 0.124775 0.285079 -0.210462 -0.110946 0.332159 -0.220271 0.194035 -0.196509 -0.0225834 -0.0316948 0.0834501 0.225346 0.00489929 0.203802 -0.0651444 0.0814381 -0.388179 -0.142966 -0.28112 -0.0567864 -0.046065 -0.0270023 -0.107089 -0.136442 -0.0585881 0.226444 -0.106336 0.028383 -0.0961987 0.312706 -0.296657 -0.262087 0.220178 -0.174579 -0.327685 0.187968 -0.122788 0.12581 -0.288501 -0.0288124 0.109481 -0.194784 -0.0161887 -0.0315033 -0.25713 0.164239 0.0966649 0.00556914 0.0209611 -0.201996 -0.2371 -0.043851 0.0363297 -0.163345 -0.123083 0.0846124 0.00693852 -0.364237 0.133855 -0.0973884 0.185667 0.137005 -0.301783 0.0707356 0.0455222 -0.0433995 -0.354328 0.0660907 0.0129042 0.0519953 0.204997 0.34919 -0.0528385 -0.0575966 0.0328466 0.0873341 -0.203687 -0.272724 -0.0354176 0.14473 0.11704 -0.0895738 -0.236934 0.392553 -0.133828 -0.18124 -0.193905 0.0114328
7093352 -0.285531 -0.229581 -0.326871 0.21911 0.0148121 -0.024964 0.075545 0.227524 -0.158604 0.0936233 -0.0604856 -0.153566 0.07894 0.127672 -0.202592 -0.0422758 0.32631 -0.25437 0.042867 -0.107074 -0.0836242 0.0232109 0.0876467 0.115045 0.091287 0.205874 0.0236202 -0.071366 -0.241785 -0.109751 -0.0708275 0.0452854 0.0595895 -0.140994 -0.200908 -0.136586 -0.0949224 0.240358 -0.304028 0.0269989 -0.0503067 0.193459 -0.229178 -0.125656 0.0836198 -0.0106811 -0.243395 0.137563 -0.0936089 0.105714 -0.121391 -0.0432649 0.103978 -0.299575 -0.0288918 -0.0342302 -0.273986 0.304169 0.180756 -0.0207567 -0.103945 -0.313646 -0.19427 -0.113754 -0.00641348 -0.0619501 0.0930061 0.0691077 -0.0138898 -0.428985 0.182571 -0.106668 0.246006 0.143614 -0.191292 0.110573 0.203736 -0.02005 -0.132286 0.168351 -0.0586269 0.0500541 0.142599 0.101541 -0.0614009 -0.0894501 -0.0145773 0.0686592 0.0529049 -0.389865 0.00371314 0.345022 -0.0453975 0.0584659 -0.27911 0.345803 -0.143267 -0.00333568 -0.303169 -0.172041
3094401 -0.263002 -0.0698445 -0.359173 0.124135 -0.0303084 -0.0802502 -0.0120433 0.110398 -0.0875241 -0.00941657 -0.19899 -0.0665479 0.107938 0.184641 -0.313527 -0.0399382 0.452314 -0.167201 0.152418 -0.199784 0.144859 0.0611512 0.000726453 0.164984 0.0395531 0.103304 -0.118687 0.0957418 -0.346642 -0.163356 -0.131239 -0.0762167 0.0281994 -0.0728493 -0.147905 -0.134173 -0.166978 0.305135 -0.211126 0.0885565 -0.0635458 0.266625 -0.191191 -0.181783 0.169309 0.0707146 -0.215513 0.173141 -0.163731 0.105322 -0.252088 0.0544285 0.124214 -0.122243 -0.0541635 -0.0812963 -0.276741 0.196275 0.108141 -0.00947652 0.0505835 -0.285374 -0.218315 -0.0854859 0.00738556 -0.123947 0.0270934 0.0646014 -0.0196582 -0.413186 0.205505 -0.0815286 0.371675 0.0806043 -0.227628 0.022986 0.0256393 0.0673354 -0.249096 0.105363 0.0749311 0.142088 0.113419 0.199143 -0.0384555 -0.113357 -0.126059 -0.00276859 -0.0910833 -0.336632 0.0145462 0.283873 -0.0210946 0.191584 -0.375671 0.375828 -0.127696 -0.0937173 -0.260363 0.01255
14424381 -0.243948 -0.102365 -0.309626 0.185699 0.0566592 -0.0903932 0.0846072 0.104371 -0.0344558 0.0659915 -0.129833 -0.249259 0.0636794 0.249448 -0.399119 -0.0393191 0.38712 -0.150273 0.138594 -0.280053 -0.0202757 0.0478977 -0.00204237 0.0825921 0.0467036 0.142395 -0.183458 0.0333882 -0.362284 -0.111906 -0.195628 -0.0393031 0.00723624 -0.0585508 -0.190133 -0.0747955 0.0358242 0.161884 -0.205164 0.154392 -0.0597943 0.239247 -0.246294 -0.3419 0.278414 0.0928288 -0.219202 0.0418547 -0.0818575 0.160054 -0.249732 -0.0231288 0.197193 -0.196991 -0.209085 -0.0182132 -0.413834 0.370624 0.15128 -0.0675747 -0.0668465 -0.248298 -0.27173 0.056498 0.0588303 -0.15412 -0.0297942 0.0156807 -0.0217711 -0.456733 0.180424 0.0205615 0.287054 0.20519 -0.182202 0.00613584 0.00932044 -0.0606502 -0.24932 0.170919 0.0557517 0.0102727 0.0970227 0.255921 -0.0635628 0.0921426 -0.0338035 0.0828552 -0.0882227 -0.419531 -0.00591181 0.358604 -0.0974015 0.119106 -0.292079 0.370123 -0.0769518 -0.0217187 -0.26083 -0.113482
14413715 -0.320038 -0.15643 -0.374819 0.125059 -0.0559199 -0.0670611 -0.0441951 0.0801891 -0.139621 0.089585 -0.117918 -0.0482385 0.161814 0.142891 -0.318172 -0.159977 0.277811 -0.254528 0.21808 -0.192275 0.0675363 0.0466764 0.0744879 0.215185 0.0359177 0.105675 -0.0256696 0.109745 -0.31985 -0.124217 -0.265206 -0.128205 0.0524465 -0.00718139 -0.0879405 -0.255889 -0.126 0.307723 -0.155737 -0.0750661 -0.0864603 0.352294 -0.20363 -0.250451 0.279747 -0.104397 -0.377192 0.203147 -0.167641 0.2124 -0.228636 0.00898217 0.130708 -0.188299 0.00846107 -0.118937 -0.20951 0.117329 0.202344 0.0327909 0.0633552 -0.124865 -0.147022 -0.0899404 -0.00827709 -0.119672 -0.0561906 0.0384513 0.0148568 -0.450053 0.163294 -0.0959771 0.206477 0.0546417 -0.354694 0.0798658 0.00923385 0.0455817 -0.200333 0.131265 -0.00421269 -0.00832516 0.210894 0.335301 -0.0711744 -0.112089 -0.0388619 0.0524584 -0.0958449 -0.271584 0.0265212 0.147788 0.117277 0.0046294 -0.33534 0.272078 -0.162484 -0.192702 -0.187241 0.00331047
35094637 -0.246924 -0.232539 -0.386982 0.335647 0.0514601 0.171208 -0.215426 -0.096756 -0.245633 0.263932 -0.0536067 -0.205576 -0.0238883 -0.1036 -0.403116 -0.365924 0.398807 -0.201081 -0.0992049 -0.0111026 -0.0176669 0.0708535 0.129898 0.104584 0.44156 0.0531327 -0.178464 -0.127639 -0.322081 -0.0103616 -0.323399 -0.159027 0.352357 -0.256698 0.143062 -0.399884 -0.0881418 0.441867 -0.140262 -0.00369974 -0.265938 0.294897 -0.296346 -0.249179 -0.138617 0.0808356 -0.36619 0.0819859 -0.362904 0.150938 -0.0654233 0.0784109 -0.099781 -0.282048 0.0688564 -0.0911371 -0.16373 -0.0563779 0.271748 0.28863 -0.162044 -0.370422 0.18385 -0.142972 0.112708 -0.0500716 0.243822 0.00648341 -0.158441 -0.375892 0.0679243 -0.198656 0.328631 0.246469 0.0720565 0.126152 0.266807 0.113509 0.0152784 0.174742 0.175707 0.0278669 0.167003 0.18059 -0.137896 0.0143717 0.0230709 0.179772 -0.00160499 -0.121476 -0.161144 0.181696 0.113243 -0.0429941 -0.268432 -0.04005 -0.172483 0.141147 -0.123555 -0.0535235
1020961 -0.189152 -0.190058 -0.337034 0.306527 -0.0364387 0.0555717 -0.120812 -0.0991095 -0.235673 0.12722 -0.0751998 -0.0361302 0.0121945 -0.0127162 -0.340852 -0.270368 0.425526 -0.145593 -0.125797 -0.108742 -0.176895 0.044448 0.239671 0.258912 0.365473 -0.0469526 -0.0870068 -0.0675904 -0.284958 -0.11197 -0.325658 -0.00330635 0.189959 -0.21127 -0.0663525 -0.29348 -0.0515985 0.330769 -0.134118 0.0308537 -0.0425258 0.385772 -0.353838 -0.307452 -0.0298538 -0.0655319 -0.297367 0.202709 -0.345915 0.015486 0.0593041 0.0971477 0.122061 -0.360592 -0.013875 -0.0530927 0.0199003 -0.0287912 -0.00637082 0.182516 -0.152572 -0.356834 0.197938 -0.0488924 0.16753 0.0693797 0.262922 -0.124283 -0.237993 -0.358965 0.251773 -0.117419 0.383796 0.100992 -0.0212147 0.0553868 0.202137 -0.0404757 -0.0603772 0.18356 0.0850718 -0.0296412 0.175717 0.329299 -0.11643 0.00263094 -0.00389929 0.0776415 -0.0656411 -0.274248 -0.0223607 0.0436145 0.111116 -0.0639927 0.0362776 0.0715815 -0.385389 0.000449427 -0.27159 -0.0084583
14274711 -0.325461 0.0427354 -0.299576 0.204448 -0.0794523 -0.103703 0.0327835 0.0123944 -0.139504 0.0756059 -0.257395 -0.185193 0.00492401 0.130802 -0.24525 -0.129883 0.466685 -0.258112 -0.0939575 -0.293499 0.0477756 0.0950075 0.149341 0.287357 0.112614 0.128153 -0.187393 -0.0203733 -0.445807 -0.0244819 -0.0972527 0.0147839 -0.167034 0.0715533 -0.243065 0.0540172 0.0299907 0.23604 -0.0928307 0.231584 0.149877 0.332227 -0.30283 -0.327657 0.103622 -0.0136562 -0.214834 0.0918629 -0.270636 0.0938279 -0.275992 -0.0540243 0.314117 -0.222019 -0.233461 0.00333535 -0.144608 0.258911 -0.0736255 -0.167498 0.0352106 -0.398334 -0.171034 0.0104551 0.13882 0.0280468 -0.0600588 -0.0350359 -0.0608553 -0.380662 0.206999 -0.148178 0.311838 0.0243131 -0.193841 0.0605103 -0.0380676 -0.0210319 -0.222239 0.0506187 -0.049072 0.0106126 0.226893 0.274519 0.0387478 -0.0178582 -0.069215 0.0173908 -0.269622 -0.418193 0.0353897 0.332629 -0.0686852 0.191745 -0.131182 0.446811 -0.25745 -0.0801161 -0.188641 0.00250669
12655132 -0.305639 -0.343683 -0.279682 0.151949 -0.227535 0.151181 -0.0784454 0.119629 -0.324212 0.295743 0.00563416 -0.268656 -0.0421338 -0.0958005 -0.180184 0.118565 0.467844 -0.257845 0.171389 -0.0225143 0.127575 0.0583845 0.24968 0.117328 -0.00760868 0.0591458 -0.0195835 -0.195396 -0.183017 -0.142579 0.0493808 -0.0405437 0.0636863 -0.199942 -0.14445 -0.199824 -0.274908 0.338197 -0.370835 -0.2208 0.0527038 0.29041 -0.0629257 -0.00879745 0.209853 0.219157 -0.306911 0.174863 -0.263259 0.138464 -0.156865 0.00857168 0.0114957 -0.196665 -0.134832 0.00908861 -0.257954 0.330084 0.309848 -0.0697907 -0.108687 -0.30228 -0.0383256 -0.130643 -0.102343 0.0812831 0.177232 0.0790012 -0.167129 -0.387043 0.158792 0.00399953 0.349485 0.245213 -0.135847 0.169448 0.312861 -0.0807414 -0.125811 0.170112 -0.00484589 -0.0238193 0.143496 0.182926 -0.031046 0.0140527 -0.148025 -0.00225688 0.180416 -0.354413 0.217918 0.296009 -0.131597 0.057122 -0.301852 0.394926 -0.11038 -0.0220776 -0.256098 -0.142627
6324592 -0.288883 -0.188121 -0.260666 0.361421 -0.0923364 0.0852667 -0.0469388 0.00111854 -0.120201 0.25297 -0.0364592 -0.273792 -0.245912 -0.149511 -0.34459 -0.110738 0.393376 -0.150143 0.0735427 -0.174914 -0.016107 0.0144437 0.0703446 0.0966331 0.389537 0.0429348 -0.0922953 -0.142957 -0.18063 -0.284747 -0.22454 -0.083124 0.169848 -0.206227 -0.161627 -0.29925 0.0368707 0.328426 -0.301374 -0.163617 -0.0251085 0.318187 -0.0942713 -0.245354 0.039182 0.297261 -0.255394 0.0839108 -0.330821 0.102669 -0.141244 0.0450583 0.138705 -0.281546 -0.0854098 -0.0401588 -0.276298 0.248017 0.216524 -0.0452746 -0.169942 -0.431352 0.0275781 -0.117741 0.0494086 -0.0580555 0.19294 -0.0947004 -0.119603 -0.405606 0.139912 -0.0104502 0.374601 0.141626 0.143751 -0.029467 0.235775 0.0132906 0.018281 0.314914 0.151669 -0.0842134 0.0129553 0.26818 0.103005 0.11986 -0.149874 -0.0232485 0.0929446 -0.387093 0.0612082 0.200438 -0.175412 0.00721509 -0.222024 0.213633 -0.233252 0.0903908 -0.23099 -0.201167
20012399 -0.314126 -0.202471 -0.0999443 0.269311 -0.0301074 0.197812 -0.212875 0.0788215 -0.281967 0.178369 -0.264036 -0.208443 0.00533492 -0.059387 -0.224153 -0.321591 0.500141 -0.246496 -0.202744 0.0235551 0.013932 0.146898 0.177512 0.120254 0.341377 0.252496 -0.243421 -0.228314 -0.459346 0.179746 -0.0670071 -0.0585737 0.0416307 -0.234749 0.0278377 -0.0736361 -0.0696203 0.564588 -0.0926109 0.252254 -0.162849 0.228249 -0.214808 -0.101182 -0.294347 0.0798351 -0.270079 0.10288 -0.262962 -0.0206873 -0.101412 -0.111496 0.143427 -0.276006 -0.0342556 0.0588632 -0.0200347 0.00970297 0.199853 0.0718788 -0.139767 -0.533121 0.0018464 -0.258914 0.184885 0.172577 0.0848587 0.0304804 -0.157236 -0.155408 0.0947568 -0.220368 0.320234 0.188052 0.0120732 0.286678 0.147403 0.149325 -0.0192603 -0.0173572 -0.0460742 0.132778 0.178988 0.100362 -0.0942517 -0.039567 -0.0167965 0.072929 -0.0918202 -0.151637 -0.160669 0.300422 0.158611 0.0210547 -0.246568 0.148982 -0.19846 0.12288 -0.107412 -0.0377957
